0.0295099,-0.0471941,0.136695,0.293196,-0.00396821,0.224473,0.11854,0.277381,0.00447835,-0.0690893,-0.0318231,0.0442822,0.23376,0.0873229,-0.012885,0.218062,0.120146,0.0675753,0.2749,-0.0105556,0.0982294,0.085756,0.0840983,-0.0218143,0.158481,-0.0848867,-0.0662977,0.0941305,0.285457,-0.0476576,-0.0173372,0.0470044,-0.0584723,0.201181,0.0789256,0.0142316,0.0515106,0.0650908,-0.0299965,-0.0594314,0.218297,0.200718,0.114084,0.312613,0.0876214,0.143069,-0.0529697,-0.0376531,-0.0236929,0.0221918,-0.00573267,0.281924,-0.0182984,0.0439874,-0.0214151,0.0483628,-0.0227404,0.166471,0.174814,0.0226137,0.257237,0.0343926,0.032758,-0.133918,0.0424295,0.0449038,-0.0476164,0.0137237,-0.0126941,-0.0599385,0.184057,-0.0475192,-0.00803932,-0.0374907,0.0258592,-0.0329518,-0.0285187,0.248294,-0.0378854,0.155402,0.0149907,-0.0467565,0.23028,-0.0188258,-0.0811863,0.0997761,-0.0352346,0.103375,0.175632,0.0574074,-0.00199649,0.167004,-0.0309387,0.0583728,-0.0575755,-0.0435774,0.173118,-0.0247456,0.102234,-0.0305801,0.158759,0.0454065,0.0802494,-0.00629071,0.0745495,0.0434252,0.173854,0.119745,-0.0203526,-0.0218103,0.254348,0.206445,-0.034921,0.0352455,0.314405,0.141423,-0.00655155,0.0170607,0.0192247,0.142103,0.252072,0.0598476,0.0366106,-0.0348752,-0.0177132,0.126596,-0.00288926,0.0652434,-0.0102055,0.165776,0.0496733,-0.0591736,0.0616508,0.0596351,0.0881768,0.00935229,0.183376,0.236076,0.0143835,-0.0262591,0.145094,-0.00580181,0.140821,-0.0842831,0.160024,-0.0606386,-0.0716914,-0.0126001,0.00197557,0.0214199,-0.0924439,0.131912,0.160372,0.0734109,0.00525505,0.107968,0.0685964,-0.0224163,-0.00359922,-0.0615763,0.105969,-0.0310586,-0.0367342,-0.0557926,-0.112244,-0.0310433,0.0100052,-0.0208907,0.0297227,-0.0239283,-0.0151859,0.0537258,-0.0357397,-0.0532379,0.0509416,-0.0687632,0.334201,-0.0276813,-0.0508146,0.010041,0.0466204,0.0372247,-0.0123011,0.158241,0.327269,0.0710372,-0.0895459,0.271144,-0.0507766,-0.0505512,0.00609153,-0.0282347,0.0341677,0.217054,0.0233063,0.220714,-0.054182,0.0903359,-0.0514099,-0.0545722,0.18096,0.0353017,0.10761,-0.0609612,0.204661,0.08843,0.267202,0.0639399,-0.0220521,-0.0217318,0.0775308,0.156248,0.0311503,-0.00121506,-0.0943257,-0.0495342,0.0373237,-0.0512432,0.196224,0.0544764,0.00214565,0.0223523,0.0061814,-0.0582371,0.0158571,-0.0590355,0.186978,0.104901,-0.00202989,0.166692,0.161288,0.00996893,-0.0226849,0.274641,-0.0528215,0.132208,-0.0232968,-0.0212257,-0.012569,0.107139,-0.0503112,0.00635823,-0.0262919,-0.0919334,-0.0118511,-0.058035,-0.0245832,0.210836,0.0728517,-0.0311062,0.0269941,0.26536,0.226035,0.313531,0.14651,0.196557,0.122067,-0.0222358,0.0537329,-0.0497673,-0.0444077,0.0414822,0.0461947,-0.0464568,0.0859504,0.005604,0.145681,-0.0108601,0.242657,0.112337,0.077229,0.0196385,-0.0653423,-0.0177725,0.0718704,-0.074248,-0.0279027,0.214979,-0.0708028,-0.0302748,0.0955431,-0.0145153,-0.0334725,-0.0380517,0.213074,0.0634275,0.00615434,-0.0281473,-0.0415967,0.0464466,-0.0422653,-0.0229434,-0.051209,0.231733,0.0868991,0.345899,-0.0735299,0.0169268,0.261991,-0.00160844,-0.0650467,-0.000642154,0.01903,0.00445453,0.0668985,-0.0189346,-0.0185547,0.293226,-0.00974315,-0.0415292,0.0127945,0.0494691,0.0428478,-0.0632931,0.132088,0.046657,-0.114231,0.366691,0.180084,-0.0625985,-0.0183716,-0.0500222,0.218111,-0.0261715,0.0445912,0.0220433,0.20119,0.111077,-0.0344572,0.0718837,0.107684,0.0399448,-0.0575382,0.28802,-0.0560087,-0.0385771,0.142473,-0.00185415,0.257381,0.278512,0.34039,0.171392,-0.0139951,-0.0214735,0.0895615,0.0152699,0.164024,0.210079,0.257009,-0.0501096,-0.0462036,0.0378853,-0.0126864,-0.0320405,-0.0182611,-0.0524021,0.0168639,-0.0253571,0.0943792,-0.037477,0.0649718,-0.0577073,0.00331811,-0.0548413,0.00536488,-0.0344106,-0.0775939,-0.0754335,-0.0640787,0.00793149,0.0312574,0.172719,-0.0410665,0.112955,-0.0296316,-0.0459149,-0.118876,0.00440445,0.195258,-0.0481284,-0.0494999,0.00692911,-0.0176468,0.0648133,0.237362,0.00271235,-0.0682645,0.0219466,0.0480492,-0.0821384,-0.0267206,0.0135831,0.0366897,0.169219,0.246558,0.271836,-0.0425311,0.176211,0.0725549,0.0362408,0.149216,0.259874,0.00617018,-0.0189678,-0.0145289,0.168492,-0.0875432,0.156746,0.338237,-0.0656579,-0.0171187,-0.0491048,0.0393522,-0.0471467,-0.0484489,0.328388,0.0216525,0.0735195,-0.00884084,0.0193574,-0.117331,0.118077,0.213171,0.243935,0.186304,0.0631723,0.116523,0.0667973,0.179802,0.114254,0.0451856,-0.00899153,0.0768132,0.0318617,0.0447064,-0.00990068,0.17683,0.0491261,0.272185,0.11682,0.172365,-0.00356596,0.107503,0.224505,0.00244162,0.0230616,0.061025,-0.0524738,-0.0349674,0.0173823,-0.0602713,-0.0747304,-0.0715375,-0.0424849,0.223009,0.193774,-0.0357806,-0.025224,0.236773,0.0813451,0.129008,0.0963927,0.210415,0.0358096,-0.0690606,0.133313,-0.0290056,-0.00963321,0.12248,0.119383,-0.051419,-0.0296989,-0.0828487,-0.0309614,0.0504375,0.148535,-0.0346745,-0.00865775,-0.0135883,0.0160554,0.0193656,0.040567,0.00067293,0.223424,0.0106004,0.170468,0.0253019,-0.0326181,0.027538,-0.011427,0.187775,0.0658697,0.0126523,0.0684959,0.0558005,0.0629153,-0.0330156,0.03841,-0.00333519,0.162146