-0.00437562,0.0017279,0.00147784,-0.00246781,-0.00449685,-0.00436957,0.00169954,-0.000681762,0.00305558,0.00063693,0.00210746,0.000228119,0.00616175,-0.000550135,0.00164253,-0.0016594,-0.00285946,-0.00101288,0.0117144,-0.000755909,0.00323075,-0.00355964,0.001517,0.018789,-0.00553312,-0.000325995,-0.00597446,0.0166922,-0.00190808,8.79384e-05,0.0185114,-0.00278145,-0.00324578,0.00737795,0.00513773,0.00672532,0.0069797,0.00997122,-0.00225784,0.0105174,0.0100759,0.00910932,0.00445973,0.012209,0.00344225,0.0065645,0.00720587,0.00284732,0.000426877,-0.00540294,0.00193811,0.00281633,3.48682e-05,0.012804,0.00270782,0.0102694,0.0150058,-0.00177537,-0.000555847,0.00820448,-0.000299917,-0.00132968,0.00108669,0.00555979,-0.000806833,0.00665523,-0.00173813,0.010799,-0.0017993,-0.00465575,0.00918398,0.000631238,0.00398415,-0.00220626,0.0106111,0.0231834,0.00858156,0.00244734,0.00910666,-0.00635821,0.00459073,-0.00501546,-0.00311848,-0.00252999,0.00869993,0.00138425,0.000790797,-0.00132219,-0.00351032,0.0142935,0.00664063,-0.00142476,0.00777518,-9.73289e-05,0.00619618,0.00143342,-0.00303852,0.00734858,-1.81992e-05,0.000857212,-1.91955e-06,0.00455591,-0.00378082,-0.00508854,0.00244106,-0.00134756,-0.00654429,0.00116225,-0.00193524,0.0101344,0.00332921,-0.00023722,0.000308544,0.0007397,0.00228745,-0.00286242,-0.000788442,-0.00321278,0.00504425,0.00166494,-0.00310162,-0.00096114,0.00933549,0.0113655,-0.00129291,-0.00116478,-0.00436201,0.00827794,0.00193711,-0.000402186,-0.00050876,-0.00202478,-0.000529147,-0.00505083,0.00408173,0.00108096,-0.00558372,0.00995984,0.000561421,0.00461893,-0.00110746,-0.00146496,-0.00163286,-0.00417011,0.000334943,0.00866494,0.00566426,-9.03732e-05,0.00604853,0.00408289,-0.00150113,-0.00116905,-0.00542415,0.00531429,-0.000851571,-0.00459181,0.000335427,0.00296818,0.00244491,0.0134171,0.000241925,-0.00201757,0.00732601,0.0169418,-0.00226598,0.0141718,-0.00158107,0.00482675,0.00210441,0.005369,0.00204521,-0.00457723,0.00702071,0.00223253,-0.00165838,0.000686476,-0.00256693,-0.0018014,0.00454914,-0.000363701,-0.00795645,0.00540306,-0.001139,0.0043312,0.0145721,0.00166853,-0.00269705,-0.00450533,0.0125214,-0.00272675,0.013391,-0.000325713,-0.000976832,-0.00358725,0.0133174,0.0106576,0.00269049,0.00622828,-0.00292678,0.00320479,0.00779404,-0.00213951,-0.00182095,-0.00322056,-0.00647895,0.0034612,-0.00102817,-0.00170237,0.000227834,0.0028525,-0.00206317,0.00646971,0.00363967,0.00424142,0.0013276,-0.00273212,0.00940147,-0.000631608,0.00225782,0.00397578,0.00295808,0.00047475,-0.00125153,0.0181687,-0.00156408,0.000205071,0.00511552,0.00355162,0.0104458,0.00247114,-0.00190164,0.000247878,-0.00440514,-0.00622228,0.00278529,2.48401e-05,-0.000295528,0.00900028,0.0097717,0.00463214,0.00251914,0.0191339,0.00112769,-0.0017729,-0.00364057,-0.00296195,0.0115141,0.00572919,7.88811e-05,7.67489e-05,0.000498536,-0.00341115,0.00697053,-0.00273552,-0.000349467,0.00836936,0.00419436,0.00823111,-0.00298418,-0.00266746,-0.00325379,0.00498349,-0.000806876,0.000447964,0.000667971,-0.00239068,0.00236449,0.00171009,-0.000310509,0.00773364,0.00181167,0.000734417,0.0204633,0.00962091,-0.00109783,0.0038884,-0.00324201,0.0040152,-0.00177264,0.00421917,0.0090427,0.0107142,0.000258788,-0.000634809,0.00802693,-0.00459774,-0.00416928,0.0108883,0.00748617,0.00861111,-0.000468426,-0.00331984,-0.00258327,-0.00357743,0.00307821,0.0134282,0.00742886,-0.00502845,0.0131793,0.0134628,0.00507628,-0.00293293,0.0155849,0.00504152,0.00131556,0.000208015,0.00593929,-0.00230541,0.00439189,0.016233,-0.000801627,0.00940353,0.011974,-0.00119447,-0.000352935,0.0127493,0.000477328,0.0042609,0.0211766,0.0062829,0.00101449,0.00877424,-0.00192314,0.000522342,-0.000358219,0.00635302,-0.00161244,0.000127593,-0.00149319,-0.00318844,-0.00497927,0.00247599,0.00404059,-0.00286947,-0.00220263,-0.00330294,0.00155626,-0.000676565,0.0108509,0.00141793,0.0045961,0.0156832,0.00344218,-0.00350707,0.0081994,0.00265831,0.00857106,0.00154458,-0.00160629,-0.000796381,0.00334528,-0.00228227,-0.00217623,-0.00286667,-0.00253262,-0.0032614,-0.00196563,-0.000726813,0.0077712,0.00143732,-0.00284979,-0.00213028,-0.000391992,0.0147081,0.0185141,0.00987869,0.0156968,0.0146968,0.0044971,0.00240104,0.00189507,-0.000988643,0.00557222,-0.00228786,0.0129417,-0.000224926,0.000120246,-0.00159073,0.00163694,-0.00409483,0.000430935,0.00692861,0.0147824,0.0157383,0.0057473,0.000973498,0.00221601,0.00105817,0.00199153,-0.000491533,0.00788556,0.00895788,