1.0186,-0.73039,-0.4107,0.698861,0.417192,-0.558555,0.866139,0.124354,-0.765169,0.394855,0.48617,-0.264953,1.04511,0.0190904,0.391287,0.328994,-0.770313,-0.171088,-0.52631,-0.337508,-0.685784,0.0385873,0.433423,-0.523482,0.222928,0.132687,-0.376892,0.597606,0.766726,1.00407,0.417083,-0.564376,-0.727948,0.506963,-0.56168,-0.0267833,-0.0105253,-0.674244,0.211396,-0.0182743,0.313961,0.71074,0.75846,0.807448,-0.0464564,0.328069,0.912373,0.0973402,0.839739,-0.0475653,0.244845,0.972313,-0.23458,-0.248805,0.606447,-0.668569,0.560107,0.307836,-0.335187,-0.606119,-0.085575,0.951165,-0.824421,0.595352,-0.0320387,-0.159272,-0.697982,0.567927,0.0299505,-0.648834,-0.0342051,-0.334002,-0.531361,0.623817,0.0122905,0.745744,0.541339,0.263874,-0.00284823,0.931526,0.0187809,0.787504,0.312725,-0.691292,0.781448,0.586201,0.565361,1.04517,0.583046,-0.891143,-0.725363,0.0028346,-0.113599,0.788249,-0.383789,-0.330651,-0.330067,0.295212,0.614336,0.529636,-0.505081,0.0545336,0.458188,0.349582,0.235848,0.281784,0.993163,0.553705,-0.646559,-0.96868,-0.945319,-0.00791069,-0.224302,-0.401014,-0.130609,0.167914,-0.687734,-0.452504,-0.116892,0.782616,-0.350333,-0.793899,-0.688812,0.364705,-0.461115,-0.339826,0.732095,0.76871,-0.667701,1.01603,0.533504,-0.62737,0.439578,0.0923659,-0.192721,0.322421,-0.337985,0.030837,0.367123,-0.677498,-0.708382,0.662863,-0.486807,0.471881,-0.0200864,-0.55577,-0.685583,-0.154554,-0.392241,0.259784,-0.583112,0.241123,-0.376804,0.380952,-0.753903,0.549798,0.059013,-0.902818,0.744863,-0.989072,-0.664055,0.252951,-0.93405,-0.659536,-0.297392,0.51659,1.00436,-0.153701,-0.326423,0.644282,0.0893575,0.421943,0.309722,0.510791,-0.542132,-0.311908,0.194448,-0.852833,0.797796,0.766751,0.122545,-0.773935,-0.222691,-0.559631,-0.86781,-0.257328,-0.92557,0.57399,0.510809,0.928367,0.540821,0.17521,-0.734703,0.0438555,-0.322354,-0.744711,-0.0701741,-0.0616783,-0.212835,-0.895886,-0.436855,-0.262895,0.0549786,0.98371,-0.282072,0.133715,-0.0790665,-0.705598,-0.452788,-0.20825,0.91319,0.922055,0.764639,0.968382,-0.889963,0.17321,0.16525,0.365559,0.867026,0.0554532,-0.328691,-0.610229,-0.302204,0.794425,0.549376,-0.308262,-0.909861,0.866332,-0.859959,0.0565988,0.364469,0.239001,0.0241889,-1.01115,0.85132,-0.997657,-0.166661,0.624515,-0.212752,0.364039,-0.303736,-0.325553,0.160558,0.779044,-0.618145,0.747275,-0.134639,-0.744591,-0.768249,-0.590278,-0.204308,0.695474,0.626378,0.8886,0.00506866,-0.349364,0.548241,-0.965979,0.0222386,-0.627156,-0.396701,0.601674,0.61539,0.0807855,-0.977257,0.475629,0.733107,-0.363455,0.922957,-0.831126,-0.517287,0.090984,0.294535,-0.359623,-0.51569,0.693666,0.316017,-0.601667,-0.525455,-0.909518,-0.88573,0.874329,-0.254343,0.848313,0.92988,-0.322605,-0.675101,0.635522,-0.167291,-0.959083,-0.562957,-0.822379,-0.0552834,0.442881,-0.047637,-0.2092,-0.0291176,0.462767,-0.476249,0.615704,0.655959,-0.180467,0.370091,0.594006,0.431658,0.259965,-0.400313,0.0612373,-0.796675,0.694099,0.803203,-0.673839,-0.944164,0.0822092,-0.101972,-0.61485,0.856139,0.238216,0.0842143,0.686066,0.869884,0.844309,-1.04011,0.912469,0.250765,-0.57561,0.486313,0.851658,0.849114,-0.447898,-0.583132,0.858052,-0.0305791,0.698274,-0.537685,0.74842,0.288546,0.625137,-0.917231,0.314042,-0.364686,0.905186,-0.167893,0.206747,-0.586687,0.384506,0.90484,-0.801696,-0.56603,-0.00809113,-0.364786,-0.732096,0.637376,-0.726634,-0.568405,0.391376,0.196364,-0.0964819,0.396371,0.134981,0.588612,0.155435,0.911222,-0.39193,0.461298,-0.708802,-0.304527,0.79942,-0.888551,0.382916,0.451405,-0.281108,0.339317,-0.360315,0.0242914,-1.04489,0.0982105,-0.225567,-0.305438,-0.631981,-0.268605,0.702167,-0.348252,-0.090456,0.0387673,0.225519,-0.853916,0.513101,-0.237506,0.311832,-1.09181,-0.081429,
0.813181,0.234491,-0.247888,-0.0292818,0.23224,-0.633133,-0.718309,0.245157,0.329943,-0.923789,0.726606,-0.359722,0.185801,0.256734,-0.252121,0.626411,-0.794571,-0.35462,0.769911,-0.649146,-0.531802,-0.423372,-0.282426,0.445196,-0.828836,-0.824129,0.025649,-0.444126,0.0323201,0.0672923,0.854761,0.626906,0.490557,0.59464,0.695325,1.01694,-0.811854,-0.33287,-0.413037,0.0379772,-0.545316,-0.667482,-0.601572,-0.932771,0.429746,0.635534,0.0804453,-0.343541,-0.906589,0.235569,0.266782,-0.456887,-0.395568,-0.035139,-0.704953,0.0104684,1.01185,0.827509,-0.299207,0.938764,-0.0387954,-0.118653,-0.456322,-0.47912,0.188102,-0.265803,-0.0716379,0.989924,0.0778745,-0.918937,0.00421425,0.0535631,-0.133055,0.219996,0.492594,0.831523,-0.435033,-0.891009,-0.671637,1.01645,0.00907715,0.882537,0.273668,-0.85425,-0.233065,-0.321711,0.108722,-0.0161315,-0.796144,0.468249,0.0426312,0.472532,-0.141182,-0.305829,0.786787,0.853406,0.546549,0.820804,0.20472,-0.7124,-0.300602,0.510319,-0.594005,0.110598,0.597376,0.916894,-0.816526,-0.937564,-0.632668,-0.201948,0.399678,-0.212397,0.58694,0.0101138,-0.899971,-0.785473,0.152015,-0.419448,0.667006,-0.86728,-0.0889278,0.492455,0.935305,0.208334,-0.446491,0.583802,0.288273,0.865583,0.106465,0.704255,0.396846,0.71478,-0.793402,0.540632,-0.019441,-0.531461,0.235905,-0.21152,-0.611673,-0.605115,0.724338,-0.943871,0.944955,-0.707103,-0.181773,-0.516026,-0.207019,0.325469,-0.66529,0.989102,-0.542777,-0.346787,-0.700325,0.166546,0.610925,-0.301647,-0.626896,-0.460095,-0.226183,0.342607,0.392116,-0.910792,-0.848844,-0.612503,-0.0564406,-0.794654,0.57765,-0.19964,-0.348164,-0.721548,-0.260972,-0.30273,-0.346346,0.732492,-0.855176,-0.647242,0.533915,-0.497903,0.410809,-0.869932,-0.75547,0.254163,0.313091,0.96719,-0.702468,0.609479,0.960768,-0.916788,0.473414,-0.13979,1.00749,-0.861809,-0.120041,-0.290714,-0.641764,-0.744097,0.776874,0.85765,-0.711095,-0.2132,-0.576659,0.784837,-0.741325,0.806668,0.504934,-0.517756,-0.953246,-0.770401,0.414063,0.631152,0.769068,-0.109275,0.0021489,0.436653,-0.620821,0.870615,0.0628113,0.234904,0.534842,0.0107697,0.385971,0.394845,-0.240872,0.52252,0.319992,-0.0378083,-0.219559,1.0272,0.552245,-0.938668,-0.879254,-0.413118,0.107019,0.722666,-0.494725,-0.503492,-0.559174,-0.415175,-0.217661,0.278023,0.149333,-0.0918741,-0.664213,0.361252,0.171133,-0.201269,-0.0486192,0.614798,-0.302547,0.232076,0.16795,0.908444,0.0478407,-0.736716,0.507304,-0.771473,-0.809529,0.359993,0.619523,0.64028,0.702834,0.564018,0.213781,0.0133679,0.130662,-0.823372,-0.25447,0.795656,0.342522,-0.151137,0.585326,-0.0741434,0.559104,0.753484,-0.0481797,-0.299321,0.049609,-0.147955,0.908149,-0.098533,0.242109,-0.501607,-0.432609,-0.994053,-0.595977,-0.863737,0.347318,-0.807457,-0.70561,-0.945036,-0.186638,0.78792,-0.751805,0.490795,0.888205,0.620438,0.876687,-0.131229,-0.155955,-0.697417,-0.969812,0.84842,-0.0465449,-0.791078,-0.996445,0.994831,-0.985643,0.144255,0.993771,-0.526289,0.67839,-0.334582,0.849084,0.417278,0.347313,0.425098,-0.784369,0.0236611,0.740278,0.101345,-0.223402,0.786146,0.232274,0.925724,0.378029,0.202468,0.582892,0.545042,0.403818,-0.57433,-0.235688,-0.957187,-0.958368,0.713978,-0.0835929,0.677532,-0.0960124,-0.27364,0.817696,-0.4745,-0.579449,0.961862,0.353742,-0.767186,0.29523,-0.644754,0.0561304,0.126683,-0.985128,0.314668,0.686427,-0.460859,0.0368475,-0.210254,-0.862927,-0.301742,0.552999,-0.813704,0.511473,-0.564134,0.241159,-0.141637,-0.483149,0.831228,0.445885,0.596917,-0.119466,-0.663068,0.950791,0.425355,-0.297139,-0.43945,-0.772792,-0.00236653,0.851877,0.808007,-0.706882,-0.958306,-0.241985,-0.757268,0.515291,-0.125477,-0.305608,0.478555,0.531744,-0.600897,0.785956,-0.438579,0.236177,-0.876107,-0.0890183,0.109685,
-0.524573,-0.478707,-0.502075,-0.804051,0.673775,-0.571494,1.01312,0.432396,-0.40718,-0.0423243,-0.698103,-0.332346,-0.352945,0.783166,-0.917036,-0.270309,0.989402,0.27036,-0.611412,1.00219,0.0673799,-0.314379,0.899534,-0.958465,0.996381,0.130654,0.551695,-0.868295,-0.581039,-0.479353,0.143024,0.40415,0.86052,0.00590117,0.366363,-0.433845,0.575927,-0.95742,-0.557325,-0.147975,0.0519712,-0.779109,0.774605,0.742611,0.574806,-0.954121,0.801647,-0.0876448,0.972671,-0.191182,-0.0753414,-0.183329,0.891011,-0.267457,0.480373,-0.637287,0.246538,-0.527983,0.122815,0.014917,0.980688,-0.797017,0.586826,-0.106854,-0.80797,-0.689902,0.589622,-0.0858261,-0.835057,0.829565,-0.440943,-0.742369,-0.697747,-0.294378,-0.0823431,-0.0142192,-0.907392,-0.83959,-0.606694,0.476382,-0.70415,0.125224,0.864914,-0.574794,-0.82887,0.976652,-0.877908,0.88664,-0.0200393,-0.905324,0.274172,0.0877035,0.520924,-0.436545,-0.2005,0.653639,0.386846,0.969526,0.304815,0.82239,-0.550087,0.490253,0.405312,0.618892,0.590435,-0.988398,0.480932,0.843335,-0.230767,-0.546903,-0.957273,0.818659,-0.0301146,-0.0124553,0.50846,0.0182942,-0.508046,0.703489,0.137931,0.18179,0.88979,-0.130081,0.0078361,-0.285992,0.594223,0.267849,0.0048099,0.940658,0.99111,0.861862,-0.160067,0.840737,-0.721714,0.623972,0.344436,-0.509847,-0.458219,0.930899,-0.759463,-0.906933,-0.731501,0.896739,-0.00713818,-0.534826,-0.579634,-0.904722,-0.707632,0.203623,0.161647,-0.577325,-0.320441,-0.558421,-0.495216,-0.476553,0.761596,0.146448,-0.323822,-0.186857,-0.443415,0.376539,0.940691,-0.73932,-0.133152,0.637849,-0.489829,-0.908525,0.250143,0.523962,-0.803096,0.587511,0.0449176,0.576411,-0.723352,-0.850891,-0.305669,-0.0124314,0.112397,-0.259368,0.304676,0.379773,0.234345,0.589346,0.30365,0.976062,-0.7927,-0.458219,-0.821955,1.00255,-0.0334877,0.714084,-0.524864,-0.1891,-0.663065,0.881959,-0.924064,0.622542,-0.949551,0.872418,-0.45181,0.957827,-0.784917,-0.129255,-0.721533,-0.319359,-0.516345,0.185909,0.592367,-0.557071,-0.179988,-0.851812,-0.30507,0.055724,-0.0873715,0.0878856,0.459302,0.192192,0.494287,0.00900836,-0.200942,-0.375279,0.280196,0.623191,-0.748911,0.44745,-0.201749,0.939803,-0.226461,0.57219,0.85221,0.221236,-0.767855,-0.277813,0.720786,-0.264706,0.500004,-0.199674,-0.450516,0.911316,-0.0940275,-0.809121,-0.117503,0.778239,-0.94979,-0.684675,-0.291519,-0.727171,0.199163,0.0233174,-0.516021,-0.519272,0.755656,-0.741604,0.820453,-0.771043,0.517693,0.497803,0.362568,0.749882,0.366761,-0.679741,0.073274,-0.108424,0.971214,0.29718,0.120437,-0.498797,0.376227,0.117106,-0.0732524,0.184848,-0.928906,-0.392124,0.659044,-0.422589,0.714704,0.526298,-0.702697,0.415993,-0.898177,-0.796933,-0.465628,-0.330736,0.22022,0.708197,-0.403177,0.874322,-0.228475,0.891906,-0.924382,-0.57125,0.57754,0.155883,-0.57787,-0.0961115,-0.361286,0.437782,-0.277452,0.307798,0.888192,0.55632,0.322088,-0.870784,-0.533763,-0.956547,0.152576,0.834776,0.951131,-0.110482,0.0702634,0.117944,0.943018,-0.0703373,-0.516596,-0.825567,0.260896,0.940038,0.497716,0.0962517,-0.290023,-0.670245,0.192415,-0.448817,-0.748857,-0.777251,-0.431832,-0.926266,-0.221539,0.143935,0.454074,-0.489516,-0.907315,-0.283969,-0.553739,-0.735059,-0.753099,0.891185,-0.0860857,-0.616014,0.094977,-0.65436,-0.00760417,-0.945674,0.576607,-0.116322,0.732038,0.0149224,0.923325,0.237289,0.723216,0.399853,-0.336852,-0.44222,-0.152962,0.588103,-0.780148,-0.632239,-0.0117503,-0.728324,-0.569008,0.84935,0.791231,0.348281,0.872092,0.0729633,0.00973433,-0.169627,0.991412,-0.481463,-0.318194,-0.964632,0.952031,0.405067,-0.711866,-0.974302,0.357044,-0.364186,-0.375279,0.608199,0.198239,0.940491,-0.458614,0.250553,0.851602,0.155209,0.253063,-0.381344,0.179134,0.438747,-0.0694081,0.853771,-0.430984,-0.690686,
-0.536925,0.443701,0.392344,0.0494334,0.429479,-0.95179,0.0680921,0.294399,0.217551,-0.000215085,-0.406873,-0.800257,0.915092,0.904637,-0.704728,-0.701788,0.67268,0.0553374,0.663341,-0.313575,0.61308,0.425332,0.655349,-0.420013,0.876763,0.772489,-0.417137,-0.405803,0.258221,-0.567583,0.845234,0.213186,-0.891634,0.00675542,-0.968318,0.923954,0.410188,0.413187,0.867005,-0.947815,-0.439024,-0.170362,0.509124,-0.408852,-0.670543,-0.254718,0.996677,0.844028,-0.229828,-0.652959,0.683434,0.474134,-0.843596,0.317654,0.424364,0.0225518,0.156481,0.199948,0.104873,-0.469764,0.465653,-0.500079,0.615127,-0.937811,0.272805,-0.916583,0.345152,0.0314254,0.11554,0.458649,-0.277812,1.02305,-0.528149,-0.747967,0.272301,0.692256,-0.497883,0.0314932,0.14601,-0.671332,0.0432693,0.801511,0.0673323,-0.599451,0.96931,-0.858089,0.581935,-0.0531363,-0.669326,-0.0792056,0.817821,0.0915738,0.0376891,0.389466,-0.853314,0.881195,0.320042,0.962277,-0.970057,0.575582,-0.623236,-0.410928,-0.413223,-0.969931,-0.17196,-0.170872,-0.0680139,-0.0023855,0.569202,-0.279394,0.562953,-0.569445,-0.453621,0.288011,-0.19876,-0.537846,0.183012,0.0511877,0.462931,0.88642,-0.90727,-0.682129,0.153982,0.290356,0.971887,0.253918,-0.617439,-0.336265,0.621352,0.77338,1.01728,0.106551,-0.715733,-0.465302,-0.44183,0.861225,-0.382291,0.719736,0.897368,-0.722883,-0.773692,0.0146237,0.819196,-0.172909,0.960899,0.384577,-0.891151,-0.750361,0.440563,-0.780922,-0.621756,0.0938465,-0.116651,0.974825,-0.693067,-0.940344,0.68948,-0.0361934,0.391593,-0.706217,0.957297,-0.595391,-0.419839,-0.488346,0.366191,-0.954611,-0.445168,0.863777,-0.360661,-0.04222,0.976558,-0.47734,-0.0347628,-0.785936,-0.220044,0.391332,0.358044,0.753669,-0.928527,0.317839,-0.78609,-0.552859,0.326385,-0.0568223,-0.727578,-0.0365902,-0.116033,0.248532,-0.253465,0.886431,0.257447,0.0942241,-0.778224,0.995369,-0.363514,-0.889747,0.422342,0.0853629,0.0631798,0.130105,0.088752,0.691858,0.828265,0.377979,0.837749,-0.168895,0.160347,-0.714455,0.324289,-0.672906,0.250205,0.233157,-0.881532,0.566704,0.640341,-0.907613,-0.824765,0.894965,0.189691,0.953842,0.0290269,-0.0630666,-0.754843,-0.338727,0.913063,-0.743584,-0.336588,0.106106,-0.919964,-0.417138,0.0586561,-0.0229055,-0.92411,-0.792013,-0.221993,-0.832184,-0.896437,-0.077791,0.0339595,-0.273627,-0.212147,-0.456783,0.146425,0.912084,0.859439,-0.345113,0.314094,0.658165,0.647687,-0.0374411,0.580339,0.239711,-0.11267,0.0946075,-0.129396,0.454889,-0.442006,-0.864591,0.309508,0.184112,0.883484,0.862412,-0.687677,0.846833,-0.264277,-0.29063,-0.669726,-0.132263,0.568433,-0.107766,0.248464,-0.494833,0.454762,0.694071,0.293202,-0.147199,0.124294,0.225231,0.214506,0.233081,0.394044,0.847554,0.823247,-0.156278,0.274638,0.780918,0.842056,0.145677,-0.51186,-0.549287,0.676983,-0.372877,-0.964907,0.0228071,0.642431,0.919523,0.987679,0.744275,-0.471756,-0.933242,0.110251,-0.905356,0.106252,-0.627976,-0.113935,0.406026,0.685999,0.415684,0.672099,0.718831,-0.430051,-0.132628,-0.354498,-0.374441,0.745565,-0.785691,-0.888043,-0.384988,-0.330676,0.198585,0.376768,-0.192632,0.271809,-0.75531,0.566846,0.0938863,-0.150065,0.0607578,0.0633487,-0.138243,0.202331,-0.484594,-0.46944,0.0571135,-0.167252,0.586378,-0.604066,0.834518,-0.647037,0.411561,0.0314795,-0.122937,-0.535889,-0.283576,0.0274741,0.622411,0.267147,-0.841916,-1.00753,0.637417,0.149339,0.838942,-0.213649,-0.685017,-0.412367,0.839532,-0.807803,-0.253991,-0.986698,-0.0849506,0.570848,-0.534404,-0.793446,-0.995413,0.213369,0.248395,-0.0496671,0.589699,0.521081,0.868551,0.896364,-0.184668,0.27855,0.960957,-0.553963,0.283163,-0.554016,-0.717079,0.420328,0.157213,-1.02114,0.0403122,-0.458837,0.363524,0.117611,0.25984,-0.550015,-0.243807,0.592559,0.951412,0.969176,0.274986,
1.01949,0.33076,0.956505,0.971081,0.300139,0.84774,0.593738,-0.512626,0.080084,-0.488009,-0.667962,-0.666765,0.0798426,-0.705283,-0.707467,0.082103,0.0388575,0.373505,-0.678277,0.597184,-0.551191,-0.146706,0.827839,-0.370022,0.608144,0.500957,0.365076,0.170405,0.40928,-0.0050878,-0.461054,0.855555,0.264277,0.486015,0.61395,-0.881063,-0.0172763,-0.177232,-0.888457,-0.116915,-0.135976,0.550245,0.00508035,0.733056,-0.390463,0.260541,-0.885663,0.391007,0.50137,0.849173,0.73829,-0.675084,0.178827,-0.725307,0.0454217,-0.614543,-0.279674,0.426329,0.0416557,-0.244828,0.577601,-0.269401,0.498157,0.217136,-0.480367,-0.869282,-0.896471,0.907196,-0.811048,0.406834,-0.527354,0.433382,-0.391857,-0.467,-0.839979,1.09114,0.907339,1.01779,-0.361848,0.343949,0.203641,-0.853182,0.742217,0.275366,0.451685,0.750378,-0.290855,-0.456139,-0.706805,-0.467678,1.10358,1.01164,0.27546,1.03199,0.685735,0.165654,-0.712301,-0.147257,-0.598649,-0.38549,-0.417491,-0.820806,-0.167833,-0.633312,-0.279579,-0.355759,1.00252,-0.77605,-0.124141,-0.412904,0.750657,-0.886999,0.498378,0.952473,0.370223,-0.38082,0.300034,0.60032,0.0380437,-0.777988,0.405532,0.939445,0.524568,0.34424,0.543353,0.215058,-0.196048,0.734832,0.43094,-0.199558,0.505041,-0.545137,-0.647384,0.773213,-0.371449,-0.344669,-0.381644,-0.624109,0.467318,0.896452,0.0689025,0.91921,0.183017,0.512798,-0.206934,-0.341925,-0.199317,-0.0709898,0.795691,0.183742,-0.834614,0.478618,-0.564182,0.223349,-0.564939,0.528258,0.919136,-0.529278,0.135841,0.668391,0.396162,-0.6872,-0.673928,0.515648,1.04201,0.680814,0.858755,-0.274422,0.577395,0.0804985,-0.400619,-0.119911,-0.825159,-0.608216,-0.247955,0.52881,0.260313,0.945861,0.227775,-0.531489,0.482526,0.673345,-0.0764348,-0.0113414,0.954975,-0.24098,0.109611,0.796249,-0.919689,-0.00801519,0.862175,0.722439,-0.117001,0.606342,0.454591,-0.0755946,-0.0028427,-0.262171,0.72534,0.771982,0.294847,-0.134072,-0.45604,0.345039,0.29116,1.01629,0.169466,-0.952705,0.750864,0.71526,-0.348931,0.957804,-0.161993,-0.0910569,-0.557293,0.652172,-0.438371,-0.50271,-0.045653,0.430698,-0.647947,-0.475497,-0.143091,0.959997,-0.971921,-0.561493,0.594158,0.00684566,-0.292007,0.145477,-0.77678,0.0667002,-0.909244,-0.0425897,0.385635,0.529235,0.724616,-0.913141,-0.932338,-0.631437,-0.754449,0.629336,0.967664,0.375191,0.654584,-0.660085,0.490281,-0.861884,-0.911305,0.0254115,-0.875899,0.784011,0.186743,-0.256122,0.041158,0.433736,0.708242,0.935672,0.821906,0.451645,0.85183,-0.388915,0.913748,-0.973746,0.578477,-0.0814095,0.2839,-0.282969,-0.905839,0.0775454,-0.296358,0.187791,0.854784,-0.743216,0.872179,-0.935339,-0.903458,-0.27036,-0.644824,0.0668768,-0.422255,-0.571784,-0.133391,0.330262,0.968119,-0.0864177,0.736335,-0.983211,0.793235,0.992328,0.276716,-0.752847,0.407465,0.992776,0.285975,0.419091,-0.524244,0.204265,-0.788404,-0.0500674,-0.40893,0.352711,0.92219,-0.306061,-0.213455,-0.0952893,0.7864,0.629985,-0.262635,0.107626,-0.464478,-0.583105,0.465973,0.405678,-0.181606,0.783961,0.255657,0.251502,0.494428,0.802067,-0.00209037,0.748759,0.0671522,-0.17829,-0.673373,-0.0626195,0.474381,0.466152,0.755265,0.643032,0.479909,-0.508625,-0.334649,0.292455,-0.307305,-0.902054,0.525177,0.244135,-0.24658,0.599012,0.507202,-0.034902,0.514234,0.519598,0.211868,-0.37014,-0.112787,0.422274,0.452018,-0.893854,-0.977657,-0.727142,0.111103,0.329564,0.211567,0.920315,0.856571,-0.749893,0.460551,-0.634599,0.333649,-0.551966,-0.97523,0.436032,0.413988,0.534654,0.53241,-0.431323,-0.262174,-0.649244,-0.146323,0.65896,-0.0724904,-0.186614,0.580058,-0.662188,0.627098,0.643693,0.932709,0.334907,-0.746503,0.636736,-0.866937,0.330965,-0.162787,0.431565,-0.870829,-0.561297,-0.197904,0.0134718,0.805607,0.654775,
0.281005,0.658755,-0.983682,0.563128,-0.882511,0.885397,-0.104002,-0.580441,0.16291,-0.517973,1.05931,-0.0759057,-0.503982,1.09464,0.276413,-0.554121,0.624827,0.531783,-0.351924,0.222525,0.219019,0.534855,0.31276,0.429288,0.891071,-0.705203,1.06413,0.334443,-0.450754,-0.584728,0.451167,-0.568405,-0.0567454,-0.883146,0.335754,-0.777619,1.06073,-0.284377,-0.533981,0.114435,-0.64971,-0.104676,-0.686963,-0.0569926,0.213763,0.828863,0.141092,-0.0323513,-0.192978,-0.430335,0.123006,-0.634651,0.258487,0.191859,-0.870962,-0.433023,-0.538944,0.0167026,0.208307,-0.717975,0.544754,0.874662,1.06304,0.0197188,-0.209828,-0.0791663,1.04347,-0.170819,-0.309736,0.382405,0.328795,-0.475936,-0.34529,0.210835,0.153049,0.73247,-0.532828,0.492569,0.393613,-0.149773,0.991178,0.0963509,0.955929,-0.0598439,0.774511,-0.414027,1.00014,0.847539,-0.390496,-0.182863,-0.0622251,-0.713329,-0.795525,-0.041031,-0.07541,0.723394,0.583802,-0.387329,-0.203577,0.92107,0.452303,-0.44081,0.382882,0.636115,0.853424,-0.122291,-0.13305,-0.316529,0.165449,0.220356,0.805513,0.305515,0.614789,0.644552,0.935179,0.0806144,-0.438071,-0.0890369,0.228089,0.799068,0.469847,0.434946,0.816716,-0.949473,-0.791255,0.828687,0.0865892,0.758816,0.712877,0.0908334,0.358146,0.648457,1.05976,-0.893387,0.307786,-0.00518955,0.367756,-0.597557,-0.0445869,0.342652,-0.183362,0.113069,-0.588896,0.998834,-0.866402,-0.887882,-0.741629,-0.38219,0.0940944,-0.118574,0.386763,0.853774,-0.909352,0.233823,-0.837058,-0.789626,-0.41635,-0.279001,-0.692339,-0.288306,-0.518033,0.648532,0.593811,-0.247962,-0.790675,0.470897,1.05012,-0.707293,0.989849,-0.217415,0.17897,0.431164,-0.83165,0.279501,-0.614203,0.915269,-0.32746,-0.358439,-0.333676,0.893194,-0.199895,0.693267,-0.404352,0.258663,0.809959,0.737294,-0.910344,-0.587074,0.526552,0.14783,-0.745577,0.0878189,0.597083,-0.104176,-0.90084,0.712474,-0.403722,0.400829,-0.769871,0.719163,-0.660051,0.856,-0.554203,-0.612278,0.830547,-0.461168,0.947616,-0.898946,-0.833482,-0.672481,-0.226226,0.745078,0.274012,0.507838,0.0797279,0.0686806,0.676642,-0.381856,-0.0234179,0.087547,0.483108,0.625521,0.917121,0.308306,0.635375,-0.356538,-0.0688158,-0.360179,0.113836,-0.572001,-0.955,0.886157,0.414825,-0.170942,-0.565951,-0.455437,1.01404,0.75861,0.605701,-0.790088,0.591483,0.273637,-0.405115,0.536515,-0.674817,-0.468547,-0.875905,-0.381157,-0.0148369,-0.334632,-0.957808,-0.26129,0.21283,0.129145,-0.737546,0.140441,-0.123583,-0.7309,0.438513,0.435656,0.142893,0.402787,-0.729151,0.211238,-0.454383,0.710214,0.246168,0.372965,0.524038,-0.187037,0.860685,-0.621884,0.898685,0.79458,-0.843561,0.580195,0.077571,-0.967127,0.195964,-0.983358,-0.534651,0.896188,0.0371201,0.440621,0.785057,-0.684725,-0.295077,-0.0695634,0.591737,-0.748181,0.573294,0.550809,0.881199,-0.53383,0.885773,0.828432,-0.865823,0.59417,0.512757,-0.466582,0.897057,0.306479,-0.189341,-0.0344528,-0.401875,-0.936148,-0.108742,-0.220244,0.59473,0.139385,0.837378,0.445136,-0.812558,0.42697,-0.23065,0.955894,-0.638645,-0.778972,-0.266338,0.848692,0.0788113,-0.0494452,-0.792927,-0.742713,-0.159897,-0.917158,0.1382,0.0750952,0.718336,0.0416825,-0.0522595,-0.644558,-0.714858,0.862368,0.707073,0.306991,-0.306759,-0.935928,-0.777714,-0.293585,0.888863,0.126655,0.918412,0.859034,0.155624,-0.849138,-0.688053,0.338163,0.567833,-0.493232,-0.487817,-0.757726,-0.839547,-0.893779,-0.58001,0.807898,0.16885,0.0913162,-0.257404,-0.926781,0.275178,-0.00215587,0.511836,0.27136,0.692077,0.27369,-0.801021,-0.410289,0.40734,-0.532449,0.758184,0.0430679,0.591618,0.702526,-0.212028,0.511506,0.648189,0.793121,-0.111268,-0.309236,0.761452,0.267796,0.746488,0.751168,0.183864,-0.740752,0.417071,0.20193,0.909383,-0.96327,-0.706969,-0.107754,
1.03958,-0.0662794,-0.818052,-0.0673125,-0.142004,0.747818,-0.0447539,-0.0404136,-0.655279,-0.114354,-0.788428,-0.323224,-0.719276,-0.0851851,-0.273896,-0.630708,0.902332,0.651315,0.474406,0.711097,0.674233,-0.35666,-0.469477,-0.735805,-0.359557,-0.134259,0.0417354,0.484965,0.785907,0.412013,0.837525,0.17905,-0.596999,-0.499078,-0.698695,-0.160669,0.0667981,0.995988,0.928962,0.702419,0.0473467,0.327592,0.292605,-0.786301,-0.583981,0.898028,0.608073,1.08085,0.0196412,0.786069,-0.785876,0.0169474,-0.807697,-0.235896,0.241592,-0.863805,-0.250148,-0.837187,0.0702193,-0.593389,0.879458,-0.235119,0.331949,0.649262,-0.153182,0.63399,0.800232,-0.15548,0.26054,-0.118498,0.0905901,0.0922555,0.297763,1.09678,-0.0812324,-0.372735,-0.185806,0.811163,-0.327558,0.874459,0.155534,0.932582,0.782954,-0.814307,1.01056,-0.613135,-0.118354,-0.760729,0.724594,-0.280165,-0.714211,0.394833,0.411367,-0.321907,0.837957,0.877678,1.0675,-0.239267,1.01111,0.767275,0.443088,0.0516243,-0.889556,0.532249,-0.821551,0.614727,-0.0817889,-0.764177,0.2973,-0.340629,0.919188,-0.162294,-0.5974,0.549817,-0.807912,0.829215,-0.590151,0.0411871,0.269306,0.356745,0.415436,-0.737812,0.135025,-0.756533,-0.657089,-0.159534,0.527349,0.0473182,0.696054,-0.579756,-0.890619,-0.742761,0.568012,0.840167,-0.789064,0.190703,0.727669,-0.0545486,-0.859927,0.366711,-0.473823,0.193142,-0.960812,0.704225,-0.0680636,0.911823,0.613801,-0.497182,0.674353,0.295582,0.818212,0.884299,-0.153998,0.108661,0.641988,1.01064,0.164837,-0.62434,0.79438,0.443093,0.341131,-0.603642,0.0215687,-0.117732,0.178713,-0.293373,-0.186763,-0.725706,-0.4514,0.770606,0.601769,-0.617328,0.607026,0.560271,-0.0130676,0.822053,0.0887473,0.612422,0.913056,0.875381,0.780423,-0.408602,-0.668173,-0.316742,0.373769,-0.761096,-0.901807,0.0331708,-0.867555,0.215599,0.0264614,0.857725,-0.962734,0.174577,0.744396,-0.616337,0.192753,-0.401002,0.702193,0.774949,-0.624074,0.267293,-0.838209,0.0291743,0.649645,0.445268,0.374644,-0.19803,-0.935849,0.255397,-0.176445,0.742526,-0.0792595,0.58262,0.588995,-0.933547,0.0693827,-0.0395906,-0.466656,-0.336786,0.731804,0.551577,0.197002,-0.916007,0.0942473,-0.750689,-0.691293,-0.570735,0.557013,0.9166,-0.60899,-0.985417,0.599865,-0.376412,-0.174259,0.69858,-0.492192,0.621031,0.413106,0.107574,0.851793,0.950522,-0.397714,0.585117,0.103954,0.648869,-0.930367,-0.691576,0.986396,-0.0529973,0.215814,0.712256,0.768419,-0.836237,0.0543874,0.0928669,-0.200197,0.522748,0.273175,-0.695889,-0.220105,0.858697,0.281042,0.630026,0.433245,-0.20983,-0.667096,-0.9546,0.970311,-1.00189,-0.971082,0.0793756,0.233902,0.191357,0.257042,-0.078225,-0.0594413,-0.0368397,0.750196,0.100939,-0.304118,0.875668,-0.129292,-0.309043,-0.126953,-0.991412,0.105089,0.89664,-0.265843,0.49964,0.339828,-0.47146,0.46413,-0.407772,0.233569,0.661378,-0.176104,0.622481,-0.56687,0.190535,-0.922238,0.652545,-0.809567,-0.382584,0.817174,0.942828,0.852872,0.466576,0.801847,0.895056,-0.316346,0.331776,-0.771946,-0.296677,-0.613794,-0.207393,-0.503631,0.436611,0.140014,-0.588277,0.82106,-0.281353,0.0313622,-0.97101,0.813461,0.0789405,-0.0453171,0.870549,-0.623619,0.926534,-0.718286,-0.102811,0.442728,-0.254664,0.453166,0.850536,-0.230536,0.579225,-0.741298,-0.510388,0.630889,0.405391,-0.859612,0.631384,-0.708647,-0.853448,0.785824,-0.319706,0.698482,-0.355893,-0.10378,-0.459341,0.0823699,0.231795,0.0631395,-0.000604282,-0.763421,0.34911,-0.222052,0.00584848,-0.566777,-0.384533,-0.145763,0.713099,0.351476,0.59626,-0.0245653,0.0487525,-0.0658731,-0.859512,-0.396855,-0.0935266,-0.789508,0.855143,0.200347,0.771587,-0.998052,0.230449,-0.827874,0.735064,-0.222867,-0.405045,-0.260952,0.58602,0.306503,-0.779945,0.0203215,0.266966,-0.518588,-0.43721,-0.905772,-0.427135,
-0.577014,0.795058,-0.422305,-0.534165,0.842078,-0.947301,-0.089743,-0.365039,0.233442,0.853742,0.414518,0.541395,1.04483,-0.318581,0.600094,-0.556,0.408676,0.884369,0.463531,-0.20221,0.122496,-0.585497,-0.421356,0.293124,0.716486,0.379975,0.0620473,0.388979,-0.266597,-0.881642,-0.834762,-0.477569,0.857664,0.254881,0.27384,-0.346081,0.708998,0.449133,-0.928047,0.239509,0.418071,-0.867602,-0.584122,0.427682,-0.34032,-0.393802,-0.420295,-0.565584,0.587506,0.245553,0.127276,0.703769,-0.092794,0.0120897,0.744041,0.433579,-0.924044,-0.722473,-0.652069,-0.358482,0.485236,0.26298,-0.0774327,-0.3424,0.906157,0.659769,0.810375,-0.280886,-0.460803,-0.529919,0.703717,-0.500447,-0.860693,0.0410337,0.301445,-0.490132,-0.567621,-0.447465,-0.619804,0.577013,0.822221,0.406228,-0.00793116,-0.230503,0.176861,0.60563,0.251872,0.575637,-0.252827,-0.58838,0.519978,-0.755313,0.0523399,-0.353003,1.06349,0.951112,0.0743378,-0.788717,0.088578,-0.630657,-0.421115,-0.751839,-0.263457,0.437987,-0.854632,-0.642339,0.197248,-0.17325,-0.831158,0.353384,0.734411,0.572867,0.808651,0.238344,-0.687486,0.586017,0.451552,0.127932,-0.401449,0.466253,-0.42439,-0.277461,-0.663382,-0.365306,0.366962,0.0290772,0.812546,0.0011185,-0.588411,-0.711073,-0.00932487,1.00791,0.817306,0.270588,0.66344,0.00249169,-0.398433,0.0664471,0.846759,0.459897,0.298584,-0.895778,-0.647859,0.481943,0.493209,-0.865,0.787714,-0.254115,0.519976,0.0608272,0.799663,-0.636181,0.603641,-0.441729,0.0172041,0.785134,-0.630414,0.776593,-0.838011,0.763258,0.4957,0.665774,-0.588338,0.840004,1.02548,0.957161,-0.0746284,-0.126125,0.305803,-0.60191,-0.260537,-0.886423,0.670278,0.143563,-0.859982,-0.502501,0.077482,0.824208,0.379115,-0.62848,0.564331,-0.101603,0.537558,0.290346,-0.38052,0.304364,-0.278091,0.459066,-0.070472,-0.211333,0.448151,0.897534,0.898192,0.611658,-0.0340673,0.229992,0.451697,-0.651454,-0.495747,-0.373645,0.995776,0.0101786,0.392098,-0.733205,0.748493,0.709632,-0.794878,0.0377238,-0.243201,0.268156,0.901143,-0.377426,0.162419,1.00868,-0.0840578,-0.126734,-0.580622,-0.158332,0.945271,-0.106358,-0.949715,0.532173,-0.174823,0.961442,0.950962,0.837231,0.924488,0.769361,0.626972,0.180425,-0.814224,-0.886841,-0.907332,-0.15289,-0.144099,-0.346453,0.751195,-0.858583,0.752171,0.701982,0.130692,0.284243,0.579939,0.350276,-0.452933,0.901186,0.537592,-0.376389,-0.37702,-0.103036,-0.796704,0.922963,-0.715802,-0.937766,-0.0438225,-0.662085,0.525094,0.332164,-0.729211,0.169649,0.441187,-0.789484,0.398359,0.128849,-0.0363458,-0.144055,-0.740439,-0.144039,0.386262,0.237744,0.22008,0.435739,0.735273,-0.243665,0.825258,0.903021,-0.120746,0.778444,0.630577,-0.48094,-0.781233,-0.978305,-0.390642,0.495237,-0.259924,0.894319,0.252678,-0.361537,-0.258364,0.385239,-0.218449,0.598741,0.464243,0.29046,0.518387,0.336049,-0.946317,0.576985,0.970893,0.872041,-0.963028,-0.096692,-0.10594,-0.366746,-0.0893403,-0.98045,-0.951311,-0.084922,-0.761296,-0.831188,-0.274275,0.781863,-0.753921,0.17041,-0.379158,-0.644632,-0.754495,-0.0218275,-0.359223,-0.782144,0.884484,-0.829636,-0.749915,0.893491,0.971658,-0.53232,0.653965,-0.000691161,-0.787657,-0.354519,-0.872801,0.412821,-0.776436,0.586847,-0.975165,-0.900887,0.193092,0.592065,-0.397917,0.584897,-0.502788,-0.525075,0.342925,-0.18425,-0.499842,-0.929301,-0.432964,0.924075,-0.803503,0.395257,0.697585,-0.910915,0.894231,-0.405765,0.56538,-0.539916,0.949128,-0.381956,0.736157,0.0658602,0.0311038,-0.159643,-0.110022,-0.015497,0.821625,0.122346,-0.644792,-0.613413,0.463508,0.535204,0.135396,-0.58222,0.321174,-0.803135,0.291192,-0.883136,-0.175912,0.448402,0.41952,-0.794168,0.54379,0.454955,0.929439,-0.0153098,-0.328671,0.634941,0.783647,-0.696978,-0.379215,-0.28629,-0.570687,-0.762567,
0.826036,0.714031,0.21826,-0.406066,0.671963,0.648201,0.175893,-0.125447,0.828267,-0.804862,0.53089,-0.0120518,0.00183855,-0.222632,-0.274438,0.00285411,-0.528516,0.944407,0.686207,-0.754896,-0.559413,0.553819,0.781021,-0.241079,-0.55522,-0.439749,0.468655,-0.42731,0.675602,-0.197405,0.0540964,0.647507,0.469918,-0.737059,-0.384632,0.462173,0.559929,0.229472,-0.707147,-0.451752,-0.20969,0.619137,0.412813,0.248444,0.829297,-0.925171,-0.306526,0.579305,0.981526,0.0182694,-0.698165,-0.197252,-0.536633,0.326616,-0.00673173,-0.479525,0.512718,-0.170364,-0.626938,0.50445,-0.341626,0.205487,-0.156649,0.924307,-0.0728402,-0.44307,-0.813972,-0.352005,0.36541,0.73898,0.0704767,0.0194412,-0.715946,-0.815254,0.717971,-0.0384538,0.851418,-0.738421,0.234119,0.533758,-0.908689,0.651648,0.360925,-0.420906,-0.220994,-0.892905,-0.391506,-0.21491,-0.680279,-0.0529692,-0.474712,-0.221361,-0.732213,0.998225,-0.121571,0.267761,-0.683911,0.174737,0.418418,0.822332,-0.81604,-0.655705,0.970281,-0.793914,-0.482924,-0.435555,-0.464308,0.0376933,0.977079,0.690814,0.62452,-0.346088,0.080439,0.389841,0.512715,0.375301,0.333649,-0.950059,0.875554,-0.344832,0.82641,-0.303114,0.483249,-0.663937,-0.640398,-0.433703,0.660449,-0.6291,0.784788,-0.760824,-0.221396,-0.37377,0.175861,0.702835,0.939424,-0.736464,0.758885,-0.0158285,-0.131035,0.605392,-0.486842,0.616599,0.969065,-0.461366,0.171696,-0.200094,0.57043,0.9633,0.881384,-0.599646,-0.819188,0.97618,0.587249,-0.211901,-0.943151,-0.0125529,0.26604,0.847512,-0.502098,0.43673,-0.0935514,0.24328,0.76892,0.453468,0.641561,0.423431,0.947576,0.433753,-0.0577098,0.682618,0.429408,-0.85359,0.263373,-0.714336,0.871186,0.861142,-0.0830968,-0.572498,0.43228,-0.192759,0.875892,0.559081,-0.700649,0.382349,0.581271,0.39545,-0.202783,0.27642,-0.902136,0.326433,0.070317,0.138722,0.692958,-0.610664,-0.81093,-0.729295,-0.801407,-0.760923,0.0444731,0.581029,-0.224239,0.826999,0.070209,0.576922,-0.513262,-0.528544,-0.711037,-0.542644,0.463826,0.756557,0.484529,0.606392,-0.112816,0.598166,0.122755,-0.28583,0.627639,0.139186,-0.325099,0.042217,0.352588,-0.741929,-0.502381,0.265421,-0.845029,0.10577,0.204229,-0.982797,0.550283,-0.0429091,-0.224028,0.705362,0.372908,0.363826,0.599473,-0.726551,0.876454,0.669216,0.475224,-0.494499,-0.929924,0.640936,-0.83056,0.594715,-0.355776,-0.578339,0.586869,-0.172156,-0.0703408,0.216041,-0.284809,-0.428081,-0.137208,0.640968,0.289027,-0.203209,-0.419069,0.322913,-0.79262,0.241523,-0.327004,0.876276,0.195608,0.914814,-0.0442277,0.544057,-0.051928,0.0678992,-0.845265,0.0927455,-0.428375,0.549569,-1.0066,0.253181,0.259837,-0.616941,-0.97838,0.160821,0.462578,0.0521856,0.186712,0.228522,0.491942,-0.515898,0.0887589,0.67297,-0.42519,0.448697,-0.0549069,-0.954615,0.0828287,0.439852,0.573821,0.709486,-0.293012,0.29672,-1.04299,0.510949,0.161868,-0.561,-0.277993,0.93289,-0.0677177,0.28269,0.247146,-0.334183,0.334009,0.888291,0.70431,0.292827,0.196593,0.171908,0.752266,0.280632,0.385824,-0.0254751,0.502933,-0.848747,0.233929,-0.454631,0.0921872,0.046955,-0.191707,-0.484639,0.520464,-0.243363,-0.862372,-0.619556,-0.575972,0.547889,0.429506,0.819871,-0.0104625,-0.904453,-0.0914282,-0.177509,-1.02071,0.670994,-0.183398,-0.477269,-0.50093,-0.0656233,0.288287,-0.775461,0.178107,-0.498082,-0.430687,-0.958595,0.102904,-0.715993,0.625651,-0.782281,0.881573,0.357232,0.294243,-0.13629,0.303073,0.904548,-0.485821,-0.47088,0.635014,0.320213,-0.561994,-1.02712,-0.529424,0.0899922,0.750286,-0.302959,0.698329,-0.686272,0.872117,-0.892652,0.573564,-0.883199,-0.231223,0.684779,-0.432313,0.229584,0.660795,0.423628,0.258532,0.274205,0.391827,-0.0550484,0.338642,-0.786137,-0.760555,-0.760278,0.159889,-0.450777,0.000788818,0.0784211,
-0.219949,0.980337,-0.237924,-0.754294,0.54766,0.493157,0.010092,-0.716888,0.790188,0.966712,0.267849,-0.243626,-0.816637,0.314401,-0.301704,-0.849997,0.104527,-0.535395,0.444681,0.677174,0.0642676,-0.222502,0.393535,0.222238,-0.184592,0.13385,0.491327,0.0112993,-0.139078,1.00484,-0.911503,-0.00689156,-0.541479,0.312987,0.769905,-0.809607,0.469258,0.122939,-0.769862,-0.0163842,0.972304,0.642054,0.419151,-0.273008,0.331462,0.692955,-0.850242,0.901607,0.86354,-0.0199846,0.555169,-0.759092,0.821148,0.817106,0.540001,-0.660441,-0.00283754,-0.614391,-0.0204257,0.0954849,0.845791,0.362761,0.135918,0.400967,-0.828797,-0.526039,0.585378,-0.797582,0.993445,0.595744,0.216009,-0.128833,-0.240837,0.0129002,0.590782,0.876717,-0.28499,0.265028,0.499694,0.857981,0.665787,-0.426292,-0.519234,-0.374297,-0.775171,-0.661706,-0.0971929,-0.356179,0.139015,-0.239366,0.116656,-0.375287,-0.924611,-0.208699,-0.856162,-0.710602,0.788546,0.876013,-0.201262,0.562588,-0.886927,0.292016,0.550714,0.459462,0.718138,-0.375429,0.83404,0.321296,-0.188752,-0.853404,0.976106,0.463204,-0.754667,0.707322,0.0702175,0.949527,0.197912,-0.0488461,-0.936186,0.284634,0.676551,-0.707247,-0.14931,0.0146968,-0.315519,0.303875,-0.0262387,-0.15512,0.938999,-0.456317,-0.0491532,-0.601542,0.0880395,-0.758778,0.590112,0.074125,0.794407,-0.411227,0.0924122,-0.000838121,0.681126,0.19418,-0.783454,-0.902367,-0.574886,0.404676,1.01731,0.889892,0.994522,-0.736412,0.672224,-0.62511,0.681437,-0.415179,0.056992,-0.294493,0.0685084,0.904322,-0.36702,0.888157,0.814341,0.932497,0.260073,-0.165741,-0.287321,-0.748887,-0.0409725,0.0863932,0.0349204,-0.0564228,-0.0963469,0.374629,-0.398088,0.607693,0.37208,-0.577195,-0.689436,0.265678,-0.968002,0.42149,-0.354558,-0.538886,0.444259,-0.257565,-0.553056,-0.0506627,-0.161521,0.723232,-0.125165,-0.0196021,-0.973066,0.743578,0.582219,-0.521127,-0.893985,-0.0568023,-0.586021,0.662917,0.771752,-0.146181,-0.624444,0.965516,-0.772494,-0.399699,-0.268885,-0.247879,-0.755401,-0.351318,-0.644263,-0.105474,0.00175524,-0.120426,0.263889,-0.151551,-0.509425,-0.210316,0.319807,0.614193,0.597576,-0.681791,0.383512,-0.907987,0.0446096,-0.677571,0.689528,-0.962517,0.484431,0.407811,-0.292195,0.83985,0.944218,0.0901939,-0.549091,0.70189,-0.710429,0.513968,0.290238,-0.302997,0.358483,0.0705699,-0.525485,0.888322,-0.572375,-0.623758,0.022,-0.578017,0.843114,1.01774,0.0635306,-0.285401,-0.766474,0.725811,-0.716344,0.241287,0.177754,0.308552,0.282308,0.339231,0.623217,-0.0488723,0.961709,0.560893,-0.670542,-0.0704373,0.0473278,0.804327,0.641913,0.0173551,0.180747,0.993067,-0.505246,-0.875331,0.278402,0.587014,-0.280495,0.54024,-0.428871,0.765396,-0.483514,0.36013,-0.412478,1.01887,-0.883406,0.24813,-0.388764,0.858006,0.567127,-0.606279,0.958138,-0.366408,-0.158365,0.634526,-0.190966,-0.128466,0.00666462,-0.150953,0.385481,-0.633146,0.726936,0.205135,0.803384,-0.29168,0.74608,-0.681336,0.684483,-0.213414,-0.850592,0.776863,0.302654,0.0592635,-0.94409,-0.811258,0.319248,-0.596141,0.658141,0.772319,1.00563,-0.487516,-0.224382,0.965074,0.248647,-0.835646,-0.602309,-0.0901262,-0.659975,0.983206,-0.608212,-0.203998,-0.88288,-0.956516,0.831904,0.708177,-0.970792,0.513572,-0.833341,0.951612,-0.29333,-0.802057,-0.60273,-0.416118,0.798894,-0.238273,0.0376609,-0.430022,0.750723,0.249262,-0.124065,-0.933829,-0.713129,-0.17827,-0.91124,0.856356,-0.83197,0.570807,0.462942,-0.113709,-0.829296,-0.932437,-0.307214,0.474013,0.59595,-0.558408,0.315927,0.559653,-0.0751924,-0.242965,-0.12525,0.838632,0.945269,0.0121945,0.953835,0.552787,0.0476782,-0.671248,0.652173,0.555627,0.846997,-0.53425,-0.646112,-0.967301,-0.954321,-0.129645,0.781813,0.663624,-0.132448,-0.0236415,-0.393862,-0.628887,0.558067,-0.4981,-0.349917,-0.320076,
0.900163,0.470842,-0.846969,-0.813867,-0.490754,0.839818,0.641525,0.0236399,0.557651,-0.418467,-0.0405223,0.863536,0.588142,0.256127,-0.755277,-0.903429,-0.245491,1.02541,0.921154,0.273797,0.0450786,0.927866,0.397531,-0.0468558,0.793467,-0.797811,-0.175175,-0.171877,0.324619,0.635916,0.831442,0.90876,0.403053,0.693673,0.717573,0.777179,-0.411842,0.497223,0.875884,0.828419,-0.834765,-0.397129,0.0259538,0.496836,0.74794,-0.21778,0.0642553,-0.780741,0.486109,0.464411,1.00806,-0.885276,0.964949,0.407247,0.646609,-0.566498,-0.313921,0.740402,-0.235512,0.285778,-0.478833,0.347637,-0.153504,0.988203,0.273768,0.593156,0.163604,-0.86117,-0.510894,-0.387621,-0.891013,0.553561,-0.83256,0.0650743,-0.303529,0.498442,-0.281801,0.771651,-0.589603,-0.141711,0.992201,0.453888,-0.965187,-0.940197,0.784131,-0.590773,-0.535952,-0.751528,0.00718356,0.103521,-0.87558,0.183131,0.818584,0.0278036,0.206839,0.0683686,-0.3034,0.575671,0.912146,0.409979,0.614172,0.750495,-0.15367,0.296704,-0.506839,0.813886,-0.462289,-0.441795,0.253469,-0.211797,-0.941042,0.976502,-0.52539,-0.700839,0.0946157,-0.0834139,0.696673,0.957197,-0.821726,-0.400316,-0.776056,0.0485835,0.86897,-0.844781,0.328763,-0.698761,0.88519,-0.0575498,0.845912,0.266897,-0.53508,0.810713,-0.190631,0.413951,0.0352351,0.890434,-0.424365,-0.718766,0.572897,0.473647,-0.784338,-0.0536557,0.574534,-0.455503,0.350902,0.906923,0.589175,0.552058,-0.0336679,-0.48889,-0.0332077,-0.65367,-0.0485235,0.665236,-0.821922,-0.499004,-0.428822,-0.912832,0.283052,-0.144133,0.12059,0.94557,-0.324779,-0.801339,-0.0589625,0.607896,-0.582445,-0.696367,0.0635969,1.01935,-0.230545,0.607024,0.232298,-0.126002,0.0413094,0.241756,-0.539865,-0.682532,-0.105503,-0.113077,0.173479,-0.0896084,-0.490314,-0.00296379,-0.212294,-0.40908,-0.207697,0.786324,0.981968,-0.929392,0.649805,0.74881,0.927831,0.627137,0.149994,0.00554911,0.228845,-0.281697,-0.594962,0.51404,-0.146593,0.462396,-0.641569,-0.539613,-0.766357,0.450626,-0.238302,-0.401521,1.00304,0.425236,0.900477,0.946941,0.448882,-0.894415,-0.427174,0.927445,-0.804225,-0.97972,0.172154,0.607625,0.559831,0.140883,-0.62513,0.348469,-0.000740443,-0.170449,0.710024,-0.771479,0.898467,0.799086,-0.624089,0.323066,-0.731727,0.0328705,-0.377469,-0.0868901,-0.104506,-0.60219,-0.545077,0.782574,-0.586107,0.532018,0.956394,0.0704995,0.338671,-0.158435,0.489239,0.176315,0.633489,-0.915407,0.503903,-0.851748,0.00553076,0.781494,0.950157,0.613847,0.590972,0.833507,0.539638,0.0537722,0.467332,-0.972606,0.766859,0.85371,-0.0913646,0.646855,0.606392,-0.712758,-0.417144,0.493554,0.377431,0.589484,-0.578678,-0.782709,-0.885897,-0.794044,0.811522,-0.963732,-0.229735,-0.254819,0.968988,-0.722049,0.896015,-0.337288,0.277324,0.508083,-1.02056,-0.260445,0.117215,0.917308,-0.166084,-0.90243,-0.922224,-0.41577,-0.357123,-0.122616,0.291829,-0.311757,0.520235,0.846465,0.330826,-0.679735,0.746872,0.144669,-0.197423,0.737305,-0.474012,-0.103217,0.334337,-0.387895,0.860079,-0.452766,0.805081,0.365703,0.491317,-0.94311,-0.779213,0.698209,-0.0198103,-0.148136,0.653185,0.0504112,0.685999,-0.448663,0.885304,0.867096,0.775887,0.666966,-0.969541,-0.839058,0.127249,-0.140339,0.482883,0.688538,0.735737,0.736517,-0.151037,0.262465,-0.414013,-0.871743,0.133557,0.865147,0.617426,-1.02056,0.882966,0.377374,0.800854,0.457015,0.921737,-0.266941,-0.103682,0.707821,-0.941462,0.269157,0.78339,-0.701461,-0.858668,0.67369,-0.456652,-0.447818,-0.108021,0.512001,-0.131827,-0.154852,0.139783,0.0749877,-0.302539,0.265052,-0.418288,0.57433,0.927316,-0.812996,0.0556836,0.222028,0.374892,0.894898,-0.279997,0.431087,-0.20747,0.805256,-0.720894,-0.194611,0.732864,-0.0704768,-0.416385,0.424312,-0.652664,0.728946,-0.933188,0.828298,0.497446,-0.343683,
0.569723,-0.883134,-0.444087,0.329286,0.0560894,-0.790793,0.159826,-0.333084,0.304174,0.192597,-0.344498,-0.221769,-0.754971,-0.436278,0.431833,0.435523,0.746238,0.227265,0.0615611,0.0289633,0.941635,-0.846864,0.229833,0.0476738,-0.611981,0.838823,-0.743951,0.0494348,1.01769,-0.599123,-0.836963,-0.154019,0.255964,0.638251,0.739216,0.995368,-0.190659,0.993462,-0.671654,-0.505651,0.972263,0.595576,0.91794,-0.519218,-0.876055,0.777976,-0.0113641,0.0951581,0.362693,-0.724723,0.709709,0.212721,-0.304411,0.786858,0.509012,0.574137,0.404975,0.302581,0.119312,-0.158956,-0.0160869,-0.552247,-0.489206,0.483417,-0.842159,-0.377,-0.0484319,0.256928,1.00009,0.955733,-0.010607,0.600129,0.809769,0.20669,0.734823,-0.159793,-0.0451913,-0.036539,-0.539886,-0.739075,-0.801277,-0.137706,-0.434265,-0.204906,0.977001,-0.380201,-0.757604,0.17748,-0.882154,0.684241,-0.129922,0.35674,-0.807457,0.925008,0.151323,0.706239,-0.846991,0.186998,-0.366527,-0.730581,-0.413736,-0.174276,-0.20558,1.00533,0.176407,-0.553148,0.699051,-0.0922671,-0.546941,0.527379,0.823846,-0.0111146,0.979139,-0.211852,-0.860058,0.69658,0.817862,0.0231632,0.912247,0.972523,-0.493375,0.594503,0.84598,0.569136,-0.597586,0.975895,-0.612593,-0.683949,-0.33596,-0.0842242,-0.465073,-0.86112,0.123415,0.0251885,-0.031055,-0.332966,-0.690917,-0.893719,0.885274,0.83717,0.500556,0.902636,-0.243803,0.945278,0.870607,-0.856596,0.0289038,-0.234539,-0.153879,-0.105731,0.109646,0.701847,-0.681361,-0.379852,0.457064,0.123949,-0.349429,0.0622215,0.0390464,0.94784,-0.352757,0.757549,0.585701,0.0327593,-0.326356,-0.333043,0.282282,0.279305,0.149045,-0.916732,0.897789,-0.899428,-0.691344,-0.318324,0.374613,0.700181,-0.0725122,-0.568534,0.155827,0.904923,-0.393685,0.00902162,-0.440262,0.423975,0.870442,0.172322,-0.654314,-0.829262,0.466297,0.949925,-0.524816,-0.71583,0.55313,-0.193054,0.344976,-0.376921,0.131761,-0.476771,0.303848,0.828968,-0.722233,-0.930452,-0.576398,0.960109,-0.037026,0.173766,-0.333693,-0.0986992,0.192896,-0.202447,-0.0470582,-0.907475,0.137918,0.539776,0.753378,-0.775119,0.277213,0.33411,0.729366,0.202288,-0.165449,-0.69716,-0.0436517,-0.929546,0.784299,0.377651,-0.457363,0.19506,0.72981,0.620803,0.0593939,-0.213888,-0.513199,0.976205,0.0161008,0.949152,-0.742592,0.929452,-0.167612,-0.535127,0.487204,-0.712331,-0.175585,0.325223,-0.819087,-0.56155,-0.312441,0.601955,0.666523,1.0331,0.44372,-0.590417,0.904389,0.00815807,0.942086,0.681267,-0.130229,0.62112,-0.617832,-0.663787,-0.358258,1.00881,0.641119,-0.347408,-0.879552,0.692766,-0.714139,0.954157,0.176759,0.416974,-0.280861,0.614769,-0.726931,0.401377,0.19051,0.344846,-0.540572,-0.409746,-0.395337,0.752252,0.470052,-0.776301,-0.571733,-0.887698,0.360649,-0.235645,0.418265,-0.698564,-0.00684008,0.631448,0.559526,0.682032,0.26379,-0.296217,-0.170935,-0.686584,0.682928,-0.599235,0.670878,-0.787017,0.843536,-0.855657,-0.72327,0.384657,-0.36509,-0.73083,-0.792739,0.610832,-0.17161,-0.356019,-0.782693,0.131419,0.944776,0.677258,0.0364749,-0.0614118,0.383959,0.191877,0.685078,-0.808858,0.0845068,0.369554,0.748794,-0.895174,-0.667345,-0.680395,0.0728179,0.474498,-0.0962555,-0.235959,0.653731,0.0200679,-0.0594727,-0.309282,0.331594,-0.514521,0.64456,0.692869,-0.0500813,0.311982,0.560986,-0.286588,-0.921118,0.221208,-0.201069,-0.812631,-0.721956,0.129619,-0.276345,-0.718012,0.245811,0.775105,0.82833,0.11367,0.35592,0.12328,0.603265,-0.885103,-0.9296,-0.499036,0.0463473,-0.88566,0.926725,0.115397,-0.449908,0.071525,0.642824,0.271898,0.256049,-0.822716,-0.285541,0.650274,0.901248,0.843256,0.625442,-0.784814,-0.602277,-0.0730391,0.182377,-0.592152,0.921757,-0.548624,0.178519,0.379655,-0.534581,0.802814,0.532628,0.0639052,0.880022,-0.560272,0.757446,-0.475302,
-0.422368,0.406573,0.795767,-0.444888,0.29132,-0.544571,0.997753,0.37885,-0.744811,-0.0433185,-0.523854,-0.253056,1.02808,0.827753,-0.0274705,0.809915,-0.10278,0.668893,-0.648104,-0.885583,0.452355,0.601405,-0.854775,-0.860783,0.154355,0.228659,0.834991,-0.39709,0.198149,-0.891863,-0.821102,0.599895,-0.717118,-0.621184,-0.434481,-0.783724,-0.131707,-0.914592,0.842772,-0.479872,-0.567121,-0.621711,-0.731724,-0.627797,-0.941328,-0.0104818,-0.363358,-0.546433,0.514971,0.564168,-0.725234,-0.441827,-0.25212,0.22755,0.973927,0.0191121,-0.70622,-0.619763,0.77835,0.68681,-0.784816,-0.640607,0.189825,-0.950512,0.553755,-0.719385,0.502916,0.871215,0.543388,0.278804,-0.15094,0.958868,-0.721101,-0.580201,0.953799,0.918691,0.255894,0.154575,0.504304,-0.630002,-0.898926,0.696489,0.571844,0.369376,0.0514256,-0.407453,-0.49012,-0.00370444,-0.549723,0.981112,1.05334,-0.911345,0.673855,-0.202768,-0.16386,-0.34029,-0.20196,0.0509216,0.471739,0.29395,-0.0139655,-0.922213,0.17925,-0.39198,0.737671,-0.920927,0.542605,-0.0351232,-0.502388,0.0248867,-0.294487,-0.55229,0.0790853,0.787707,0.161037,-0.762931,0.0194496,-0.65145,0.59248,-0.146481,0.471497,-0.0225048,-0.61327,0.947879,-0.648309,-0.51436,0.750909,0.257852,-0.291415,0.0948128,0.930612,0.918576,-0.443299,-0.222525,-0.0705116,-0.542132,0.544805,0.317565,-0.718149,0.277754,-0.912492,0.673344,-0.455905,0.190594,-0.331048,0.415869,0.386536,0.0848902,-0.263309,0.180053,0.33451,-0.59772,-0.183741,-0.928698,-0.656783,-0.18846,0.399902,-0.736079,-0.269092,-0.776392,0.244341,0.363072,0.755609,0.575106,-0.396931,0.0835973,0.343945,0.169374,-0.519438,0.976181,0.605574,0.903759,0.502542,-0.734098,-0.0349792,-0.888005,-0.338768,0.268683,-0.347555,0.747843,-0.943774,0.922053,-0.510089,0.450012,-0.0106248,0.336216,-0.19378,1.00115,-0.0601727,0.498102,0.836689,0.498381,0.373524,-0.230319,0.770084,0.582881,0.81433,-0.703077,0.689064,0.999881,0.231933,0.92141,-0.961123,0.683208,-0.809745,-0.321099,-0.661176,-0.358757,-0.540497,-0.368824,0.894321,-0.839358,0.498598,0.89591,-0.210468,0.166039,0.0106593,0.554769,-0.345328,0.587732,0.0920493,-0.627048,-0.0066757,-0.832194,0.521949,0.452242,-0.720231,-0.625891,0.0336986,0.587402,-0.505988,0.46522,-0.438514,0.872775,-0.522344,0.892762,0.489792,0.911386,0.713657,-0.0454104,-0.726964,-0.823988,0.872272,-0.163926,-0.524614,-0.0599137,-0.423612,-0.373228,0.466382,0.81279,0.539413,-0.609417,0.0333928,0.649405,0.931536,0.93671,-0.840749,0.0412569,-0.0695863,0.60385,0.525211,-0.835378,0.336122,-0.213921,0.391801,0.349478,-0.658265,-0.1237,0.693766,0.275115,-0.0298378,-0.592556,0.247318,0.971562,-0.839981,-0.83276,-0.295576,-0.0525808,-0.0856593,0.0978978,0.567953,0.163564,-0.0392707,0.636378,-0.763474,0.22028,0.968309,0.75509,-0.569574,-0.542544,0.789056,0.912688,-0.943075,-0.602109,0.481735,0.868063,0.80319,0.180192,-0.826599,-0.609748,0.585978,-0.900058,0.437005,-0.4777,0.920731,-0.040563,-0.897168,0.641021,0.403515,0.862654,0.441553,-0.179825,-0.380014,0.290792,-0.229019,-0.147271,-0.520163,0.226305,0.884574,0.638877,-0.854235,-0.416996,0.101857,0.797531,-0.000579594,0.75247,-0.577018,-0.557685,-0.546551,-0.101517,-0.669947,0.191319,0.0918238,-0.226205,0.194881,0.550531,-0.483138,0.843701,0.000391382,0.114515,-0.294024,-0.103202,-0.836216,0.423787,0.456425,0.885932,0.621478,0.299211,0.367754,0.271448,-0.721863,-0.815255,0.754835,0.533699,-0.292663,0.280093,-0.0396215,0.969159,0.567511,0.24673,0.331877,0.502671,-0.577344,-0.193108,-0.22748,-0.613469,0.881874,0.316143,0.374335,0.961408,0.0819228,-0.463855,-0.512298,0.38151,-0.147717,-0.94391,-0.227163,-0.0704544,-0.362647,0.206175,-0.540137,0.820262,-0.644209,-0.578998,-0.949703,-0.750721,0.0661655,-0.995358,0.373201,0.406774,0.753343,0.322356,
-0.698738,-0.665984,0.750968,-0.502741,-0.680192,0.468873,0.89244,-0.117431,-0.358325,0.301201,0.947805,0.234056,0.169405,0.8221,0.18205,-0.545453,-0.491207,-0.792627,-0.694186,-0.422141,0.929981,0.390081,-0.923905,-0.594961,-0.0511548,0.975718,-0.77038,-0.230346,-0.420866,0.232088,-0.445464,-0.576962,-0.888615,0.00417784,0.0789593,-0.43585,0.457336,0.7262,0.560657,-0.771251,0.0376054,-0.63856,-0.511295,0.143355,0.283513,-0.0639552,0.578083,-0.266587,-0.0718648,0.176105,0.264956,0.276534,0.728227,-0.865203,0.66413,0.239115,0.710783,0.151892,0.705052,-0.547906,-0.377402,-0.545076,-0.520517,0.221796,-0.356383,0.0582312,-0.799022,0.859869,-0.369619,0.968566,-0.887981,0.239982,0.890756,-0.108655,-0.469831,-0.496462,-0.767358,-0.525936,-0.0107903,0.0388954,-0.0112689,0.613047,0.924026,0.769164,-0.253896,0.0173573,0.941601,-0.371622,-0.328298,-0.487576,0.901714,0.642715,0.796607,0.936284,-0.239845,-0.413927,-0.0229865,0.737923,-0.561655,-0.212637,0.606622,-0.248853,0.410048,0.312446,-0.646749,0.462554,-0.222016,0.683911,0.113776,0.100916,0.611719,-0.924273,0.204338,0.0743179,0.323686,0.999069,-0.0966736,0.592899,0.582739,0.910609,-0.704316,-0.552889,0.315409,0.949794,-0.877776,-0.723428,0.625045,0.0506746,-0.197456,-0.738504,0.255657,0.737374,-0.335148,0.595583,0.294899,0.0695852,0.520642,-0.779919,-0.604126,0.421077,0.179219,0.721514,-0.0747546,0.394263,-0.404157,-0.332084,0.772802,0.617335,-0.875895,0.374539,0.433812,0.609853,0.286086,0.0899263,-0.788256,0.536471,0.514785,-0.389147,-0.29228,-0.578004,-0.696763,0.703143,0.493581,0.313869,-0.431803,0.210342,0.223762,-0.852705,0.562748,1.00565,-0.660941,-0.717599,0.207694,0.274905,0.507526,-0.76874,-0.435616,-0.822786,-0.532376,0.388539,-0.218746,0.395213,-0.932259,-0.732452,0.613165,0.492278,-0.341487,-0.0467897,-0.664823,0.294192,-0.814019,0.847361,-0.00137555,0.131252,-0.621829,-0.348904,-0.574287,0.857245,-0.229881,-0.386736,0.16565,0.751161,-0.549768,0.564365,1.06438,0.754321,0.871567,-0.650054,-0.365915,-0.0464808,0.499117,-0.281506,-0.590332,-0.292134,-0.83911,0.113677,0.438525,0.378481,0.190968,-0.545047,-0.367076,0.329067,-0.616103,-0.446693,0.491083,0.0811717,0.00778891,-0.664213,-0.770706,-0.388746,-0.901459,-0.717323,0.615956,0.890133,-0.84992,-0.507648,0.0624708,0.295512,-0.544366,0.675348,0.700681,-0.306185,0.31952,0.275478,0.374458,0.779201,-0.372615,-0.793571,-0.53379,0.160302,0.548307,-0.157863,0.200572,-0.436354,-0.125046,0.197425,0.484136,0.868406,-0.503017,-0.37471,-0.663113,-0.875694,-0.841556,-0.68309,0.535986,0.230504,-0.422158,-0.705846,0.471796,0.533523,-0.598625,-0.33713,-0.55115,0.0680118,0.587202,0.0714277,-0.256738,0.787405,-0.56597,0.075297,0.518509,0.833419,-0.855155,0.417797,0.000779983,0.591713,-0.899739,-0.0572395,0.74858,0.85201,0.337751,-0.212917,0.477718,0.741889,-0.873365,0.876412,-0.599516,0.388313,0.0953895,0.417502,0.980048,0.57811,-0.651423,0.925207,-0.572985,0.656209,0.598708,-0.395369,-0.0662202,0.166525,-0.0304959,0.0622538,0.0999991,0.0864265,-0.553246,-0.222879,0.0834031,0.413261,0.448146,-0.489891,-0.491091,0.636324,-0.0277493,0.331508,0.204154,-0.340442,0.767756,-0.140965,0.428431,-0.917701,-0.697258,-0.835907,-0.338541,-0.185594,0.925712,-0.225987,0.214773,-0.383006,-0.942637,0.799506,0.267138,0.10037,-0.884757,0.229118,-0.717687,-0.0345959,0.588747,0.0966992,-0.859489,-0.0073966,0.490703,0.225683,0.771763,-0.290608,0.960519,-0.0914775,-0.215843,-0.182619,-0.495581,0.4233,0.869705,-0.480387,-0.0434161,0.362699,0.264918,-0.0996024,0.939556,0.78516,-0.482051,0.758157,0.222097,0.59839,-0.321471,-0.848631,0.409519,1.03,-0.346616,-0.201359,-0.378805,0.564856,0.646128,0.626295,-0.367142,0.0619466,-0.94896,0.61853,0.866031,0.169527,0.829437,0.310557,-0.774355,-0.584517,
-0.388898,0.511889,-0.811923,0.289793,0.186278,-0.394566,-0.213752,0.457845,-0.419178,1.03856,0.610502,0.364214,-0.529315,-0.2944,-0.272842,-0.500903,-0.499612,0.273699,0.930247,0.169797,0.229351,-0.752904,-0.180357,-0.314138,0.142293,0.799853,-0.378992,0.23454,0.517089,-0.750524,-0.244836,-0.256406,0.0276918,0.102514,-0.0593468,0.593762,0.99588,0.630059,0.469533,-0.0352162,0.840861,1.0493,-0.758276,0.521219,0.781712,0.679901,-0.621853,-0.474457,0.230886,-0.239343,-0.451146,0.0672897,0.191711,-0.233379,-0.643221,0.0749699,0.504098,0.0566366,0.162171,0.816682,0.373753,0.934038,0.0666458,-0.611202,-0.0561259,-0.912708,0.892084,0.950279,-0.276547,-0.639023,-0.66504,0.515378,0.194956,0.0104492,0.373867,0.770156,0.0109102,-0.774419,-0.177658,-0.72672,-0.44447,-0.568764,0.404598,0.424892,0.456745,0.954228,-0.647986,0.0780542,-0.00935262,0.277802,0.579428,0.0493455,-0.205249,-0.909035,-0.488387,-0.776394,-0.0045679,0.703809,-0.166295,0.247218,-0.72563,-0.336353,-0.305559,0.936782,0.19377,0.239235,-0.863923,1.0438,0.731267,0.781265,-0.589006,-0.825265,-0.826324,-0.0540134,0.373074,-0.00116873,1.02203,-0.581545,0.981212,-0.806257,0.737287,0.417386,-0.383314,-0.695065,-0.360948,0.341669,0.890874,0.52142,-0.207649,-0.0554353,-0.140495,0.552612,0.855143,0.551815,-0.190468,-0.44908,-0.0129833,-0.0261543,-0.282827,0.168358,-0.771494,0.396392,0.121748,-0.615388,0.831636,-0.349698,0.117986,-0.256641,0.312782,0.925124,0.378629,-0.367934,0.735008,-0.817631,0.699024,0.511592,0.989912,-0.584259,-0.801137,0.658812,-0.848805,0.731351,0.54475,0.346917,-0.420512,-0.106258,-0.188247,-0.0107881,0.56476,0.616569,0.586751,0.819893,-0.443059,-0.432387,-0.294836,0.292413,-0.86919,0.216038,0.461565,0.581404,0.608809,-0.255024,0.925522,-0.625932,0.867072,-0.302404,0.851307,-0.644254,0.461954,-0.210908,-0.573781,0.877742,-0.126872,0.992762,-0.350068,-0.502929,-0.257822,-0.61766,0.363702,-0.275317,-0.564005,-0.89017,0.316237,-0.171007,-0.912729,-0.572627,-0.231978,-0.606262,-0.862221,-0.229366,0.510403,0.0645278,-0.298138,-0.70132,0.60001,-0.577991,0.369664,-0.387186,-0.336284,-0.846819,-0.88499,-0.715261,-0.059754,0.505734,0.866581,-0.646366,-0.379821,0.618887,0.716755,0.171656,-0.653473,0.579601,0.579391,0.836715,-0.760299,0.713379,-0.754285,-0.280281,-0.826609,-0.635031,-0.190198,0.881256,0.107785,1.04161,0.0927674,-0.0205013,0.987727,-0.209243,0.674036,-0.183525,0.101751,0.86476,-0.178183,0.073992,0.733972,-0.676704,1.03808,0.0568246,0.151571,-0.249639,0.620476,-0.299102,-0.782049,-0.266536,0.953815,-0.614194,0.518935,-0.147341,0.701819,0.760656,0.528344,0.453629,-0.675094,0.464665,-0.768106,0.780196,-0.125024,1.02553,-0.88235,-0.620873,-0.292312,0.9312,0.86144,-0.8369,0.373686,0.633514,-0.206817,0.283528,-0.686794,-0.691696,0.952042,0.698572,0.799311,-0.199879,0.514143,-0.0239878,0.927462,0.946114,-0.142025,-0.0556881,0.917889,1.00535,-0.881757,0.928318,-0.444684,0.985947,-0.0623232,-0.700695,0.308846,-0.368344,-0.0154402,0.945148,-0.172125,-0.468692,0.769595,0.99716,-0.835436,0.137974,-0.106719,0.0142453,-0.174004,0.273161,-0.485494,0.40575,0.628336,0.117361,0.778153,-0.5643,0.0144984,0.219732,0.525247,-0.63687,0.00806981,0.963769,-0.840563,0.429835,-0.398522,0.843261,-0.0879861,-0.0788922,-0.229484,-0.731102,-0.512914,-0.777142,-0.644293,-0.645569,0.0685649,-0.522426,0.42251,-0.452389,-0.361479,0.0289046,0.0999993,-0.0297462,-0.564885,-0.678962,-0.189526,0.105984,0.465995,-0.695431,0.342573,-0.440537,-0.154668,0.280307,0.0108217,0.740393,1.05397,-0.212695,0.0931137,0.828874,-0.102607,0.450737,-0.435943,0.0271899,0.83127,0.626029,-0.838317,-0.413543,0.935133,0.104746,0.307715,-0.603118,0.522629,0.844177,-0.161323,-0.143849,1.03656,-0.228285,-0.787863,0.193367,1.02703,-0.838914,
0.210532,-0.396355,-0.349557,0.0101823,0.522679,1.03668,0.199056,-0.39661,0.440443,-0.691046,0.356312,0.117452,0.0270391,0.351082,0.217901,0.759772,-0.000177852,0.993365,0.938173,-0.320522,-0.636622,0.012728,-0.552171,0.519404,-0.293183,-0.573382,0.787437,0.0583967,0.0503262,-0.409773,-0.294984,-0.29132,-0.314985,-0.0163805,0.843891,0.439938,0.899894,1.04156,-0.0222721,-0.619447,0.24426,0.132738,-0.374659,0.665279,0.843127,-0.304016,0.727836,-0.855199,0.190547,0.989751,0.484956,0.620946,-0.769746,-0.121839,-0.541371,0.753909,0.774877,-0.786403,0.0591572,-0.300306,-0.297307,-0.464993,-0.397967,0.387447,0.482148,0.831799,0.553551,-0.265962,0.6706,0.129565,0.473069,-0.812174,0.579647,-0.718916,-0.10328,0.858321,0.599107,0.419466,-0.081006,-0.158332,-0.262569,-0.725887,-0.0364935,0.234353,0.393065,-0.281395,0.165512,0.481208,0.809662,-0.647913,-0.635914,-0.714719,-0.708294,-0.900061,0.440111,0.169256,0.522866,-0.122458,0.236114,0.0681965,-0.537521,0.19019,-0.545642,-0.43788,-0.654161,0.0414708,-0.561371,-0.536978,-0.281391,0.679287,0.85175,0.0409932,-0.881059,-0.360058,0.0846024,0.681897,-0.464714,0.62204,-0.633645,0.585577,1.01162,1.00332,0.569872,0.853337,0.72528,0.90235,1.04369,0.115169,0.978057,-0.265208,-0.826183,1.06307,-0.823847,0.446124,-0.894578,0.297532,-0.399861,-0.167552,-0.4673,0.150182,0.534608,0.930385,0.0271709,-0.126703,-0.163526,-0.743741,1.03549,-0.848295,-0.806546,0.639301,0.179492,-0.359367,-0.144374,0.885821,-0.223351,-0.0217952,0.651669,0.679382,-0.771653,0.952799,0.30669,1.05809,0.615701,0.514806,0.491861,0.834647,0.170277,0.0902908,-0.904312,0.176247,1.02652,-0.898081,0.110753,0.323011,-0.857705,0.469182,-0.647858,0.160239,-0.136815,0.949656,0.682664,0.904165,-0.854492,-0.153114,0.658948,-0.815113,0.397036,-0.217643,0.23619,0.980997,-0.629426,0.137716,0.942612,0.584115,0.748964,0.906863,-0.661111,0.747861,-0.505085,-0.335078,0.684307,-0.221,-0.785671,-0.701257,0.611577,0.0162959,0.830775,0.205501,-0.841885,0.380667,-0.69157,-0.62879,0.128218,0.662493,0.915912,0.0901001,-0.33067,0.871917,0.0358867,-0.664574,-0.0254983,0.0400761,-0.571356,1.00389,0.820556,0.752597,-0.737025,0.996423,0.24329,0.590305,0.417172,0.664192,-0.324435,0.767935,-0.317034,-0.22744,0.864431,0.65964,0.426988,0.133839,-0.330289,-0.699255,0.268514,0.685368,0.746617,-0.338818,0.643851,0.998154,-0.316075,0.401904,0.0352407,0.547568,-0.0813821,0.92543,0.546978,0.312591,0.171234,0.296221,0.420559,-0.82177,-0.373108,0.534636,-0.159265,0.736194,0.594054,0.659101,0.889473,0.462762,-0.273496,0.601553,0.794492,0.684128,0.676679,0.389708,-0.264098,-0.689147,-0.941319,-0.525198,0.13938,-0.0927258,-0.11944,-0.491463,-0.715785,0.806426,-0.537773,0.750001,0.913946,0.266827,-0.822209,-0.414934,-0.65367,-0.424228,-0.162196,0.557063,0.593081,0.56238,-0.590095,0.628217,-0.548284,0.942492,-0.662793,0.524149,0.479486,-0.454179,-0.00475985,0.602916,0.85956,-0.715113,0.668795,0.213976,0.173403,0.109958,-0.361803,0.912831,0.66932,-0.604366,-0.168726,-0.174406,0.0683656,-0.941878,0.535439,-0.686716,0.68052,0.51228,0.595833,-0.101226,-0.0810567,0.827397,-0.724581,0.916309,-0.482122,0.0805036,0.0823252,-0.62209,-0.533662,0.124906,0.201906,0.201814,0.395539,-0.558446,0.198797,-0.678359,0.795561,0.322069,0.181617,-0.474278,-0.410348,-0.00319292,-0.594746,0.665147,-0.896596,-0.641404,0.718937,-0.374995,0.368377,-0.000929183,0.174739,0.147093,0.361051,-0.23442,0.0613757,-0.0985181,-0.381695,-0.403466,0.485808,-0.208065,0.530147,-0.854517,0.645013,-0.0471467,0.137185,-0.287287,0.521696,0.18456,-0.867762,0.333635,0.188467,-0.832765,0.90123,-0.361542,0.270003,-0.182177,-0.180493,0.356246,0.535601,0.378139,-0.837492,0.611914,0.45064,0.742458,-0.802396,-0.848613,
0.201305,0.223772,0.436163,-0.225388,0.237904,0.637475,0.34863,-0.651477,-0.416556,0.823405,0.755857,0.60905,0.979487,-0.0852678,-0.479821,-0.0566713,-0.125076,-0.129582,0.723337,0.978393,0.50709,0.504412,-0.484911,-0.80504,-0.838267,0.807329,-0.514188,0.62439,1.06336,0.214702,0.23488,0.642748,0.303386,0.747182,-0.640573,0.748606,-0.302636,-0.470747,-0.111898,-0.568898,0.412461,-0.787639,-0.14103,-0.590067,0.373607,1.02498,0.961182,-0.730095,-0.138175,-0.372368,-0.168122,-0.399619,-0.516505,0.935132,0.927027,-0.0326851,1.09306,-0.546713,-0.206728,-0.363872,-0.357175,-0.555387,-0.860064,-0.297553,-0.583388,0.327061,0.564422,-0.559175,0.696021,-0.409082,1.11232,0.172823,-0.555456,0.703104,-0.656131,-0.111171,-0.267966,-0.710688,-0.669591,0.291011,0.912242,0.785937,-0.665899,0.160416,0.983929,-0.0703852,0.188958,-0.687798,0.483531,0.991433,-0.604715,-0.00388514,-0.795671,-0.719322,0.378259,-0.329881,0.996978,0.99141,0.843201,0.364061,-0.438085,0.202775,0.917731,-0.75684,-0.209223,0.784295,-0.347843,-0.89136,0.848188,-0.821355,-0.404221,0.847484,0.728362,-0.824901,0.833847,-0.383451,-0.871545,1.05431,0.382934,-0.387707,-0.931456,-0.609846,0.447152,0.760628,-0.0946068,-0.133572,-0.0504101,0.0134825,-0.438576,-0.161116,-0.0488753,-0.271812,0.362059,-0.112403,-0.247104,-0.145417,0.598966,0.253904,0.797496,-0.337826,-0.266604,-0.791869,-0.0217984,-0.0737917,-0.299599,-0.525928,-0.910547,0.194576,0.51166,-0.675389,-0.518815,-0.811798,-0.46462,0.873437,0.000354033,0.0290313,0.279618,-0.659384,0.554695,0.162873,0.500627,-0.057692,-0.292631,-0.217542,1.04151,0.55968,0.349645,-0.892541,-0.44521,-0.0397265,-0.465831,0.362092,0.546222,0.267176,-0.0270394,-0.685935,0.774312,0.521016,-0.668169,0.0411459,-0.379406,0.113959,1.01866,-0.394885,1.09977,0.297618,0.372315,-0.397681,0.833901,0.19171,0.128179,0.717459,-0.271478,0.291828,-0.698584,0.400133,-0.602909,0.780444,0.656288,0.891502,0.400102,-0.373154,0.802009,0.43838,-0.0249065,1.01276,-0.850207,-0.0337476,-0.484179,0.973919,0.265968,-0.431084,-0.109652,0.892835,0.191179,0.170585,0.0105947,-0.748477,0.886605,-0.105492,-0.0301721,0.754381,-0.538318,-0.251512,0.186372,0.38294,0.47886,-0.44267,-0.725007,0.270735,0.793925,-0.771815,0.767821,-0.0276817,-0.856715,0.0820108,0.536164,-0.5229,0.332915,-0.621976,0.69316,0.921704,0.198022,0.262232,-0.458335,-0.473848,0.651334,0.509803,0.237429,-0.479833,-0.541412,0.222808,0.0856831,-0.486751,-0.698327,0.0115918,0.698075,0.811003,0.684221,-0.127907,-0.134002,0.350534,0.103495,0.784135,0.921493,0.326154,-0.0528978,-0.706527,-0.716253,0.285588,-0.434771,-0.827989,-0.910698,0.218981,-0.286396,-0.0863172,0.150943,0.468946,0.818228,0.956775,0.291036,0.291309,-0.0843657,-0.199075,-0.301875,0.601077,0.454575,-0.542348,0.926626,0.333436,0.0841708,-0.481102,-0.882703,0.10264,-0.182098,-0.418439,-0.239102,0.224499,0.239507,-0.0873387,-0.520789,0.687324,-0.297979,-0.0939564,-0.625201,0.347148,0.993115,0.341663,-0.182106,-0.491557,0.69552,-0.925399,0.20207,0.721643,0.489148,-0.260802,-0.0713331,-0.616272,0.736023,-0.506974,0.427411,-0.389788,0.809763,0.904962,0.896676,0.313723,-0.614375,-0.726459,0.570685,0.210309,0.811001,0.342509,0.261482,0.198478,0.128839,-0.774394,-0.0955332,0.488054,-0.540516,-0.82037,0.852022,0.967012,-0.869426,0.271553,-0.605119,-0.388368,0.364594,0.62131,0.0311122,-0.114553,0.0601844,-0.619012,0.793118,-0.453906,0.117076,0.63369,0.0228982,0.740015,0.58687,0.446049,-0.699353,0.473439,0.572914,0.732979,-0.139206,1.04814,-0.076154,0.901576,0.382913,0.497631,0.104447,0.819972,-0.80824,0.148115,-0.0865687,-0.945805,0.652013,0.504147,-0.00548281,0.274693,-0.497001,0.622168,0.480884,0.247191,-0.634136,-0.0462433,0.0508504,0.745532,-0.895184,0.24512,0.878337,0.734774,
0.305825,-0.688786,-0.812101,-0.280274,-0.342328,-0.577995,1.05837,0.394949,0.753063,0.93251,0.279824,0.428731,-0.381598,-0.823201,-0.165453,-0.132734,-0.803444,0.413886,-0.209742,0.953294,0.847565,-0.732647,-0.2541,-0.609643,0.142716,-0.900671,0.0969369,0.0992297,0.778194,0.161215,0.977587,0.00935634,-0.277431,0.206892,-0.0793156,0.379949,-0.33569,0.44549,0.399415,0.85523,0.144303,0.706005,-0.0941606,0.256712,-0.858282,-0.349426,-0.838898,0.708902,0.987653,-0.825582,-0.591035,-0.178879,-0.704162,0.112341,-0.689321,0.271121,0.906691,0.416487,-0.328051,-0.0137976,-0.181246,-0.0853733,0.381486,-0.245043,-0.597532,0.80756,-0.672576,-0.837009,0.754124,0.22565,0.559751,-0.664248,-0.568264,0.468171,-0.615174,0.17473,0.206061,-0.295568,-0.378618,-0.724376,0.138514,0.91653,1.01798,0.096196,0.223078,-0.500324,0.35001,-0.274762,0.954038,-0.123539,-0.365091,1.11634,0.0203311,-0.429601,-0.583798,0.300235,-0.375167,1.0521,0.252851,0.229616,0.946749,0.0604041,0.752365,0.63201,0.67669,0.711139,0.735792,-0.203728,1.10201,-0.759183,0.0916981,0.0664038,0.902181,0.30252,0.916694,0.585899,0.247003,-0.0813887,0.108092,0.860629,0.782039,-0.701313,-0.566857,0.747848,-0.150965,0.857109,-0.709084,0.529137,-0.498009,-0.582642,0.189221,-0.364254,0.731102,1.11629,0.897247,0.70247,0.959884,-0.862102,0.562248,0.584325,-0.118597,1.07422,-0.496996,-0.574395,-0.0556288,-0.864589,0.422081,0.254693,0.496189,0.540796,-0.321514,-0.631297,1.07803,0.046187,-0.318655,0.818568,0.10239,0.815918,0.970847,0.107824,-0.756837,-0.557292,0.0742905,-0.39717,-0.0681633,0.0453624,0.692962,-0.0128326,-0.215402,0.114352,0.202137,0.699928,-0.627272,-0.578127,-0.326502,-0.747005,0.194782,0.338729,0.452413,0.841039,0.751553,0.852072,0.146388,0.424638,-0.0458711,0.723244,0.532816,-0.733764,0.713448,-0.399814,0.698022,0.921288,-0.495143,-0.313763,-0.663819,-0.540414,-0.275999,0.376014,0.523886,-0.213838,1.05328,0.229917,-0.183894,0.661767,1.09847,0.84193,-0.0845479,0.0846172,0.94672,-0.132728,0.671768,0.60854,0.383861,0.593256,1.08189,1.0576,1.02577,0.498702,-0.252426,-0.687966,-0.599488,0.206366,-0.573813,-0.361561,-0.07826,-0.556149,0.57969,-0.0670873,-0.57722,-0.114523,-0.0781378,0.681437,0.507028,0.659164,0.655994,1.01692,0.0220308,-0.399041,-0.0407898,-0.327996,0.106799,-0.387767,0.13029,0.786326,0.539856,-0.0373405,0.271371,-0.666751,0.809254,-0.46704,-0.408343,-0.515131,-0.916299,0.877547,0.558079,-0.532402,-0.212421,0.941538,-0.247273,0.0131863,0.602942,0.807002,-0.561006,-0.493065,0.696764,0.283733,-0.216833,0.893315,-0.420294,0.760031,0.270563,-0.605364,0.338484,0.2758,-0.531088,-0.905878,-0.386387,0.617114,-0.36781,0.566652,-0.255014,1.01612,0.328783,-0.443583,0.133335,0.928494,0.518945,0.216317,-0.0558413,-0.340358,-0.40626,0.0843309,0.0218851,-0.818568,0.511196,0.963687,0.101019,-0.633726,-0.792887,0.883151,-0.44655,0.833326,0.0391169,-0.676549,0.457232,0.635184,0.858527,-0.587774,-0.325812,0.33841,0.340948,0.194693,-0.269111,0.799722,-0.238421,0.397154,0.668808,-0.735651,0.35884,0.810148,-0.589434,0.964712,0.414357,0.984251,-0.171297,-0.117328,1.00955,0.994595,0.324315,0.110804,0.89135,-0.000241561,0.771467,0.488181,0.197716,0.0157557,-0.931728,-0.710109,-0.568839,0.648024,0.0410107,-0.495415,-0.171652,0.00428218,0.486635,0.340811,-0.246265,-0.0591984,0.286809,0.530178,0.22266,-0.410058,0.275583,-0.485952,0.851091,-0.704221,0.162034,-0.893252,-0.618209,-0.653492,0.307831,0.184662,0.0882545,0.0284604,-0.933864,-0.0425166,-0.482066,-0.357373,-0.201811,-0.64319,-0.483153,0.200305,0.279638,0.961814,-0.64905,0.284842,-0.161006,0.623602,-0.5423,-0.882552,0.738558,-0.74967,-0.871943,0.668094,-0.946817,-0.649876,-0.771989,-0.275184,0.578601,0.38495,0.751549,-0.498491,
0.229211,-0.386772,0.916813,1.03975,0.0338285,0.582576,-0.613262,0.524461,0.572504,0.444949,0.313725,-0.575955,0.235994,-0.520184,0.1974,0.907641,-0.536249,0.233885,0.569554,0.18278,0.115725,-0.0581851,0.854329,-0.10757,0.960866,0.280043,0.813682,0.580785,0.612427,-0.323293,0.752785,0.860407,-0.210683,0.672796,-0.521042,-0.79368,-0.615777,-0.200523,0.40252,0.290286,-0.387804,-0.735737,0.961588,-0.734132,-0.165689,0.982698,0.0329645,0.0793532,-0.612302,-0.414168,0.593126,0.299057,-0.253253,0.070594,0.630168,-0.833156,-0.839679,-0.77366,-0.888267,-0.148614,0.935981,0.0283546,0.565767,-0.578243,-0.36365,1.0359,-0.636038,0.291716,-0.867826,1.00921,-0.493808,0.0289226,-0.594943,0.281716,0.963194,-0.300994,-0.837596,-0.792995,-0.351818,1.01824,0.949774,-0.604156,0.643392,0.00802798,1.0001,1.06284,-0.271666,0.379568,0.147354,0.516623,0.314226,-0.627232,0.486195,0.282227,0.305455,0.746665,1.10459,0.77854,0.942954,-0.671772,-0.196896,-0.609081,-0.651592,0.905242,0.233888,0.769623,0.767453,-0.0921627,0.235197,-0.0359364,-0.585168,-0.619253,-0.801475,-0.354222,-0.444211,0.673498,0.906516,-0.152542,0.428174,0.633085,-0.349906,0.311239,0.280266,0.775309,0.995555,0.573396,0.155782,0.967537,0.812454,0.268207,0.725842,0.275418,-0.630179,0.486687,-0.214263,0.323034,1.06996,-0.594502,-0.679495,-0.789359,-0.358849,0.467089,-0.0403333,-0.211709,-0.305777,-0.343389,1.02582,0.711094,-0.19498,0.785382,-0.618256,-0.0177428,0.414043,0.648637,-0.607574,-0.470387,-0.306625,-0.69811,-0.597024,-0.482417,0.238298,0.146736,0.896025,1.01374,-0.839532,0.10253,-0.276888,0.676156,0.359464,-0.862828,-0.607338,1.0176,-0.497693,-0.324657,0.153917,-0.779023,-0.881256,-0.585096,-0.382699,-0.055,0.631588,0.270732,0.293822,-0.54762,-0.485494,0.442395,-0.0876463,-0.712994,-0.272801,0.165269,-0.247088,0.710438,-0.297568,0.659369,0.832335,-0.437905,0.563139,0.287345,-0.671841,0.984355,-0.0769948,-0.809329,0.180672,0.620162,-0.711126,-0.229508,-0.0552762,0.598085,-0.775777,-0.465691,0.891791,0.843432,0.231267,0.104856,0.984565,-0.0328046,-0.172227,-0.119622,-0.0470783,0.937895,0.841587,0.965896,0.399786,-0.00547782,0.678725,0.497101,-0.136906,-0.375504,-0.672939,-0.0506137,0.767786,1.00449,-0.423172,0.158881,-0.239953,-0.409125,-0.750305,-0.449525,0.744664,1.08569,-0.596292,0.690307,0.196908,-0.64994,0.971691,-0.286647,1.05867,0.396397,-0.901892,-0.480987,0.993796,-0.498281,0.648423,-0.784607,0.486864,0.311614,0.437517,1.04248,-0.150824,-0.154986,0.560865,-0.347146,-0.582644,-0.470859,1.01916,-0.848465,0.241991,0.897659,-0.0784194,-0.457263,0.998595,0.476419,-0.760674,0.668493,-0.82546,-0.147329,-0.702259,0.641523,0.285982,-0.0141816,-0.642885,1.06327,1.01724,0.213505,0.0832268,0.990075,0.267714,-0.0529664,-0.530424,-0.128606,-0.424526,0.434166,-0.624951,-0.501751,-0.341274,-0.712543,0.447865,0.000596996,0.61718,0.0783988,-0.263124,0.108179,1.0288,0.95624,0.584289,-0.566632,0.551139,-0.683729,0.839868,-0.400977,0.811652,-0.138873,-0.191238,0.0161113,-0.899583,0.476186,-0.210384,-0.484073,-0.817176,-0.159976,-0.799468,-0.113745,-0.357875,-0.129327,-0.745798,1.04484,0.717358,0.957107,0.39666,-0.900388,-0.440403,0.495441,-0.138447,-0.0165123,-0.877484,-0.140443,-0.132027,0.953993,0.445165,-0.445873,-0.848197,-0.297098,-0.802025,0.118594,-0.56417,-0.680951,0.00289251,-0.598187,-0.0549084,-0.752683,1.04258,-0.171101,-0.218216,-0.228725,0.8424,-0.101353,-0.385849,-0.759047,-0.619047,0.418235,-0.671256,1.01969,0.179071,-0.832932,-0.108893,0.436153,-0.0649611,0.665737,0.849667,-0.247257,-0.516627,-0.747601,0.559319,-0.698088,0.277044,0.888445,0.127354,0.383271,-0.888498,-0.597609,-0.0493662,0.48721,0.343063,0.908484,0.404026,0.0667448,0.684197,-0.520209,0.905579,0.278121,0.550299,0.0720987,
0.35328,0.396765,0.76472,0.511961,0.0416286,-0.544714,-0.674454,0.675907,-0.615197,0.0483795,0.470248,-0.902268,1.03021,0.942632,0.743928,0.450505,0.121028,-0.111977,0.984688,0.661619,-0.461755,0.714562,0.252483,-0.296095,-0.183273,0.487794,0.389566,0.0390607,-0.277573,-0.371546,0.71032,1.03825,-0.0700167,0.930919,-0.760343,-0.564071,-0.884467,-0.577006,0.613925,-0.782464,-0.0561192,0.284651,-0.445685,0.739947,0.731653,-0.862441,-0.857905,0.107029,-0.338144,0.919311,-0.39932,-0.849833,0.28431,-0.260278,0.524804,-0.214892,-0.435536,0.974893,0.525719,0.86155,0.577456,-0.507726,-0.547584,0.913908,-0.188923,0.183156,-0.00519715,-0.447646,0.498726,-0.308582,0.811743,0.30921,0.708165,0.889284,-0.432646,0.0151409,0.939962,-0.0971778,0.907026,-0.530913,-0.26035,0.0384288,-0.336122,-0.59029,-0.765788,0.98461,-0.310953,0.320537,0.682616,-0.486209,-0.0315878,0.118812,-0.837249,-0.827084,0.869788,-0.0770107,-0.835134,0.0378211,0.630524,-0.461455,0.881851,0.250801,0.417712,0.74102,0.494364,0.95027,-0.146365,0.445644,0.919729,0.960212,-0.664212,0.499123,0.319824,0.597443,0.249179,0.850075,-0.255002,0.907801,0.691555,0.0875856,0.745895,0.594105,-0.78119,-0.873831,-0.733817,0.619177,0.982262,0.00706238,0.76247,0.117928,-0.539805,-0.860804,-0.574718,1.01163,-0.296372,0.446438,0.491803,0.943552,0.766066,-0.810019,1.06301,-0.0982662,-0.271826,0.123797,0.745328,0.0966211,-0.823588,0.249184,-0.226266,-0.782955,0.233457,0.487061,0.234836,0.928373,0.610332,-0.397043,-0.629058,0.195462,0.100781,-0.693982,0.477317,0.542324,1.04892,-0.328957,0.16896,0.179041,0.71083,-0.446613,0.123624,-0.89742,-0.90856,0.591142,-0.0209993,0.672625,-0.47742,0.0132921,-0.382893,0.673261,0.54558,0.252587,-0.505168,-0.234005,-0.58422,0.668726,0.848465,0.0856641,0.367521,-0.53467,0.00827671,0.326699,1.0494,0.962394,0.719555,-0.781024,0.211853,-0.305689,-0.015512,0.172792,0.594314,-0.585791,-0.492086,0.0626424,0.777898,0.445021,0.185949,0.480987,-0.699868,-0.868862,0.678396,-0.375737,0.0351405,0.692426,1.02267,1.05789,-0.807678,1.00567,-0.206264,0.672052,-0.761449,0.115955,-0.591316,0.90091,1.00727,-0.0051422,-0.707702,-0.579584,-0.171214,-0.0875815,-0.233501,-0.0715828,0.271452,0.822935,-0.413316,-0.427795,0.685061,-0.327771,-0.642048,-0.538653,0.537737,0.472726,0.0886372,-0.536711,-0.89569,0.891665,0.347612,1.01354,-0.00570821,-0.381466,-0.506213,0.65233,0.570098,0.937113,-0.678218,-0.305471,1.04514,0.669414,0.505143,0.216587,-0.447664,-0.332605,0.623864,0.280474,0.669239,0.172653,-0.101222,0.0437198,0.956152,0.0343829,0.547146,-0.101148,-0.499952,0.309879,-0.41549,0.895974,-0.574739,-0.282324,0.0892789,0.739691,1.03997,-0.394835,0.682093,0.592441,0.386641,0.784083,0.230792,0.210493,-0.516353,0.384642,-0.690192,-0.645592,-0.221621,-0.549348,0.591834,0.82603,0.905946,-0.707013,-0.124336,0.757167,-0.373112,-0.204873,-0.670757,0.681526,0.546943,-0.239356,0.0597315,0.995003,0.422086,0.162344,0.507007,-0.396283,-0.598876,-0.157774,-0.277858,-0.616873,0.83147,-0.34836,-0.782016,0.0884983,0.186446,-0.418597,0.921792,-0.389202,0.925807,0.202865,-0.264268,-0.784567,-0.457905,-0.480871,-0.229325,0.113287,-0.329748,0.192767,0.834076,0.118481,-0.853486,0.162361,-0.683023,-0.26708,0.887206,-0.440943,0.50051,0.184994,0.996385,-0.5196,-0.632544,0.175445,0.511695,-0.427039,0.00370402,0.487753,-0.10286,-0.22521,-0.424425,0.484459,-0.354825,0.510939,-0.0756167,0.281183,-0.886436,-0.818285,0.759614,-0.0137484,0.673457,0.135184,-0.329654,-0.111344,0.129595,-0.414444,-0.204868,-0.0983615,0.211985,-0.405448,-0.513261,0.173305,-0.130677,-0.61412,-0.428466,0.99705,-0.749681,-0.477278,0.657615,-0.499418,-0.733133,-0.173059,0.413175,-0.494162,-0.406702,0.291664,0.694639,-0.130169,0.0480834,0.272168,
-0.680074,-0.521158,-0.0536821,0.685418,-0.689321,-0.351832,0.382917,-0.398775,-0.281795,0.825215,0.0280755,0.0631056,0.374893,-0.456144,0.00831269,0.84954,0.938998,-0.387724,-0.203094,0.163387,0.927814,0.53558,-0.59246,0.561624,0.0127804,-0.212638,-0.75143,0.556696,0.629652,-0.486176,0.634553,-0.579863,-0.125288,0.901064,0.849171,-0.431586,0.735241,-0.816609,1.01622,0.749425,-0.864116,-0.388508,0.402249,0.220368,-0.254487,-0.5448,-0.175087,-0.300743,-0.906606,-0.519975,-0.10289,0.176803,0.286401,-0.289772,-0.75349,0.952165,0.975082,-0.394509,-0.666895,-0.565202,0.439516,0.816978,0.660026,0.82851,-0.2691,0.609743,-0.537269,0.643053,-0.281139,-0.477109,0.469908,0.540187,0.0101051,-0.690199,0.941879,0.48069,-0.480334,-0.773748,-0.218214,-0.839029,0.644621,0.554805,-0.0701406,-0.79569,0.978912,-0.373284,0.546571,0.911671,0.512001,-0.0789306,0.0190534,-0.112694,0.961913,-0.443773,0.811241,-0.634319,1.08325,1.03929,0.180875,0.381475,0.851556,0.799725,0.371574,-0.124076,0.097581,0.497561,-0.622272,0.369379,-0.414804,-0.882553,0.0278798,0.895383,0.926786,-0.0587034,-0.37321,-0.215544,0.672183,1.02579,0.907982,0.229889,-0.472419,-0.158198,-0.132764,0.761548,-0.522653,0.496515,-0.57115,-0.55088,-0.530764,-0.837028,0.132985,-0.303536,1.07764,-0.558758,0.125019,0.337656,0.0709689,0.194634,0.434742,-0.611762,0.734293,0.37689,-0.0891586,0.418978,0.601276,-0.769774,0.0264577,0.254113,0.782923,0.114193,0.340332,0.423619,-0.596406,0.836438,-0.235842,1.00394,0.362401,0.404854,-0.633737,0.271987,0.714959,-0.274785,-0.250742,-0.600123,-0.0398161,0.171203,0.736733,-0.863977,-0.552249,-0.877102,0.637832,-0.401241,-0.570279,-0.741588,-0.0714403,0.571883,0.642475,-0.21266,0.468848,-0.494473,0.901622,0.92109,1.00494,0.55778,0.316217,-0.0671002,0.572233,-0.424809,0.162343,0.879993,0.3215,0.274302,0.391891,0.627427,-0.171198,0.954788,-0.203916,-0.506454,0.708913,0.0566438,-0.195816,0.400395,0.142719,0.099103,0.0806758,0.957899,0.752774,-0.87584,-0.590625,-0.637492,-0.191693,-0.479192,-0.267226,-0.226031,-0.00764423,0.916647,0.421569,-0.0615042,0.573088,-0.604875,-0.532984,0.857161,0.413382,-0.12163,0.245231,0.114056,-0.636031,-0.0647393,-0.755343,0.0564473,0.780365,0.26614,-0.00622251,0.760471,0.544136,0.15176,-0.687036,0.403031,-0.649767,0.346104,0.15007,-0.102889,0.890348,-0.304129,-0.0283354,0.886986,-0.813237,0.273994,0.635645,-0.450407,-0.310649,0.892567,0.859134,0.634815,0.0756668,-0.319076,-0.565723,0.740424,0.906288,-0.453989,0.274095,0.615198,0.254466,-0.92906,-0.261998,-0.112922,-0.548876,0.458725,-0.0200569,-0.523817,0.131981,0.723563,0.616267,0.188443,0.625739,0.244026,0.0746015,-0.786057,0.635955,0.0830605,0.565409,0.446886,-0.00446413,-0.168858,-0.597311,0.542693,-0.21205,0.856271,0.187696,0.528282,-0.329286,0.0112916,0.682522,0.524242,0.18095,0.576178,0.955763,-0.00799436,0.173341,0.768372,0.98476,-0.814343,0.469687,0.841536,-0.0342513,-0.311162,0.388784,0.664252,-0.303073,0.308933,-0.190617,0.113128,-0.540867,-0.829407,-0.603124,0.873056,0.833064,0.997773,0.273405,1.02516,-0.858997,-0.320368,0.349613,0.320559,0.00922011,-0.91929,-0.951688,-0.0749219,0.540892,-0.424547,-0.751998,-0.950623,0.416863,0.653909,-0.161784,0.155234,-0.508225,-0.320537,0.587101,0.983149,0.224456,0.226772,0.395648,0.42577,0.708435,-0.391546,0.335991,-0.498777,-0.492425,0.513331,0.895308,-0.493727,-0.571541,0.844927,-0.163327,-0.783873,-0.614244,0.181944,0.884629,0.437605,0.681061,0.545342,0.74637,1.00906,0.241861,-0.0621453,0.880401,-0.0146353,-0.749833,0.218035,-0.716276,0.207382,-0.814504,0.0110386,-0.722353,0.421284,-0.587428,-0.0073144,0.742253,-0.359091,-0.197345,-0.816788,-0.770873,-0.253136,-0.506787,0.588626,-0.6854,0.688631,0.534777,-0.824109,-0.927942,-0.689358,
0.938087,0.610923,-0.501369,0.0455194,0.378364,0.159351,-0.585625,0.397425,-0.282178,1.00322,-0.105978,0.250753,0.119203,-0.257513,-0.24262,0.83598,-0.31135,-0.230007,0.194722,0.268983,-0.12856,0.582648,-0.670407,0.925981,1.00164,-0.12659,-0.473461,-0.0488381,1.09243,-0.496837,0.450813,0.537641,-0.214342,-0.548951,0.347105,-0.363859,0.374942,-0.801901,0.74266,0.700272,0.710437,1.05018,-0.619186,-0.429772,0.443655,0.251415,0.690097,0.639448,0.680813,-0.433644,-0.144195,1.01819,0.764491,-0.773335,-0.501723,-0.0914551,-0.52203,0.976316,-0.290609,-0.496082,-0.274735,0.86259,0.623897,0.149423,-0.619533,0.98456,0.941921,0.419174,0.0274976,-0.665668,0.889035,0.498256,0.527527,-0.458976,0.103451,-0.87486,0.660274,-0.245222,0.749258,1.09883,-0.00138976,-0.694403,0.421117,-0.333474,0.863352,-0.478021,0.451333,0.237925,0.780195,0.317014,0.537188,0.0482359,-0.161699,0.294157,0.157725,-0.082334,1.07443,1.08592,-0.385507,-0.468399,-0.113507,-0.730115,1.11538,0.258087,0.866372,-0.0387866,-0.29491,0.475251,0.258497,0.905006,-0.264504,-0.345354,-0.387068,-0.803743,-0.611434,-0.78377,-0.442522,-0.500177,-0.397191,-0.549478,0.248179,-0.537823,0.0352047,-0.456919,0.0549612,0.906045,0.736372,-0.800885,1.05944,-0.0333281,1.02524,0.265695,0.0269358,0.640736,0.674453,0.464372,0.383231,1.02152,0.733978,-0.625833,0.7328,0.485563,-0.0492786,0.0302067,0.119515,0.0277055,0.604404,0.29222,0.130703,0.396059,0.306872,0.211748,0.924793,0.637369,-0.187435,0.952419,0.550697,-0.418877,0.172786,0.160892,1.06392,0.394778,0.926734,0.453066,-0.526539,0.629978,-0.193269,-0.674288,0.67166,-0.224897,0.148675,-0.231168,0.782135,-0.0768445,0.363275,-0.725758,0.460391,-0.00896933,0.559278,0.556272,0.676109,0.226047,-0.618884,-0.116679,-0.669272,0.471302,0.279132,0.0799784,-0.507131,0.236696,0.0116876,-0.780862,0.763176,-0.42522,0.704296,0.647008,0.623066,0.16762,0.670701,-0.1429,0.807741,0.842261,0.0833892,-0.180276,-0.370992,0.735243,0.262478,0.942169,-0.566707,-0.279044,-0.399449,0.679729,0.408252,0.921093,-0.799245,0.984982,0.714365,0.341052,0.444077,-0.845716,-0.43689,0.228293,0.861543,0.887262,-0.502354,-0.0383466,0.370148,0.841846,-0.666632,-0.677675,-0.124463,-0.67727,0.581562,0.659229,-0.0955735,0.00176356,-0.674656,-0.77019,0.3261,-0.0905513,1.04403,-0.215617,-0.132832,0.400276,-0.621192,0.748435,0.247936,0.421744,1.05573,0.251616,0.5906,-0.525566,-0.843648,-0.497439,-0.496708,0.356539,0.845195,-0.219781,0.0326548,0.0396262,-0.0617826,-0.194985,1.01917,0.547593,0.422259,-0.153932,0.869079,-0.326553,-0.0145193,0.67451,0.674943,-0.407818,-0.240612,-0.300792,1.0244,0.920037,0.692997,-0.640426,-0.380544,0.0369797,0.600305,0.430119,0.658466,0.223844,-0.44843,0.0883514,0.8738,0.683078,0.215233,-0.26741,-0.290856,0.681681,0.704856,-0.237474,-0.400392,0.411774,0.480893,0.988168,-0.660479,0.233762,0.625286,-0.344599,-0.534894,-0.217212,0.192736,-0.712729,0.339067,0.113965,0.825443,-0.876922,-0.0208151,0.757556,-0.32987,0.584621,-0.464698,0.967873,-0.757654,-0.522807,0.275543,0.0846037,-0.714597,0.666656,-0.166218,0.959868,0.189023,0.164155,-0.774744,-0.412446,-0.589009,0.00603955,-0.530627,1.03736,0.987284,0.323614,-0.762799,-0.943323,0.989558,-0.511407,0.782435,0.880033,-0.122277,-0.190206,0.175748,-0.0975462,0.213441,0.624106,-0.884839,0.39343,0.0979143,-0.390276,-0.169651,0.834022,0.634456,0.987978,-0.615517,-0.500556,0.941962,-0.252378,-0.229492,0.523796,-0.300853,0.177996,-0.471696,-0.65922,0.165987,0.627273,0.827597,0.245273,-0.682525,0.0847833,-0.32223,-0.85233,0.67212,0.98084,-0.0138869,-0.922323,0.09302,-0.322912,0.657856,0.792745,0.431555,-0.299653,-0.101132,-0.466956,0.956921,0.248517,1.01769,0.0230413,0.710428,-0.591778,-0.686638,0.492605,
-0.752015,-0.215307,-0.523594,0.339525,-0.329253,-0.591172,-0.577872,0.145043,-0.144144,0.662816,0.151741,0.746756,-0.500606,0.571097,0.421476,0.2738,-0.552185,-0.412059,0.314236,0.745444,0.671777,-0.176282,-0.0462094,1.04921,0.102652,-0.0264388,0.92939,0.88317,-0.791964,0.920967,-0.676155,0.556179,0.948856,-0.56375,-0.389207,0.181603,-0.083808,0.783645,-0.427412,-0.488901,0.165074,-0.72829,-0.770405,0.885591,0.875078,0.620219,-0.376201,-0.612358,0.302034,-0.314593,0.865091,0.238204,-0.563123,0.799595,-0.828447,-0.4658,0.0568175,-0.464086,0.883085,-0.255428,0.105253,-0.741636,-0.570421,0.784212,0.844533,-0.655421,0.955127,0.0732527,0.27893,0.281825,-0.778957,0.315877,0.412248,0.213965,-0.778973,0.744242,0.488834,0.50082,-0.790917,-0.550122,0.0938513,0.489765,0.804454,-0.0914603,0.355225,-0.179556,0.381566,-0.58519,1.10353,0.864619,0.545731,-0.766885,0.904406,0.120919,-0.592656,-0.173057,-0.733651,-0.474522,0.237642,0.816374,0.593975,-0.675891,0.52429,-0.481184,-0.59346,0.860578,-0.0512271,-0.224767,-0.432499,0.360607,-0.500901,-0.225172,0.754364,-0.808696,-0.715341,0.688402,0.663764,0.273874,-0.613954,-0.667366,0.228243,0.959845,0.144346,0.391339,0.0112531,0.526062,-0.877052,0.633376,0.184679,0.00406163,0.327408,0.934098,-0.229711,-0.256541,0.998388,0.487488,0.563293,0.529436,-0.250467,0.73773,-0.257191,-0.543883,-0.661067,-0.327189,0.397332,0.926409,-0.448196,-0.614541,-0.155509,-0.592332,0.474919,-0.0512524,0.488495,-0.803304,0.265305,0.816626,0.0228327,1.03933,0.466133,-0.478273,0.340925,-0.794728,-0.244337,-0.118913,1.00508,0.680405,-0.278167,-0.177908,0.00969306,1.08243,-0.649696,0.209752,1.0752,0.993119,1.04029,0.328441,0.920272,0.697686,-0.760192,0.0277961,0.139591,0.546835,1.00319,-0.641889,0.880232,0.201807,-0.62712,-0.774693,0.387297,-0.565799,0.91696,0.884149,0.237713,-0.547636,0.405825,-0.793947,0.555124,-0.0105905,0.091442,0.489486,-0.806984,-0.377985,1.06585,-0.683049,0.201419,-0.406959,0.473323,-0.245189,0.742304,-0.720898,0.234864,0.558728,0.419972,-0.687687,0.3142,-0.0150942,-0.147799,-0.386759,-0.517749,-0.313485,-0.154789,1.04909,0.540625,-0.173479,-0.869992,-0.725912,0.291576,-0.689334,0.978937,0.091991,0.579274,0.269656,-0.315647,0.892057,-0.490497,-0.537322,0.155438,0.513259,-0.0379238,-0.182674,-0.84823,0.293409,-0.822771,0.203705,0.0574117,-0.044081,0.0343116,-0.247533,-0.0760886,-0.102677,0.407747,0.358628,-0.193367,-0.430001,0.621816,-0.471766,0.136698,-0.562917,-0.777652,-0.0453633,-0.532452,0.117104,0.493635,-0.508182,0.303399,0.747122,-0.565366,0.0317258,0.811344,-0.728725,-0.727233,-0.375433,-0.0329298,0.78001,0.81527,-0.16515,0.626298,0.368934,1.02142,0.812607,-0.917089,-0.543529,1.03067,-0.211173,0.410523,0.406802,0.677185,0.251821,-0.654872,0.651975,0.324697,0.394598,0.134663,0.996896,-0.450934,0.255551,0.866293,-0.343999,0.157272,0.684658,-0.0214432,-0.176208,0.872502,0.119873,0.156453,0.384219,-0.350779,-0.598435,-0.630781,0.530167,-0.546989,-0.476034,0.470083,-0.36904,0.118865,0.30894,0.514335,0.106683,0.736358,-0.237846,0.671111,1.00817,-0.841136,0.857888,1.06387,-0.428644,-0.425401,-0.753467,-0.516594,-0.143646,1.00613,0.982102,-0.0916722,0.623862,-0.371078,0.744577,-0.517043,0.134646,0.372593,-0.690741,-0.512611,-0.54769,0.99642,0.482922,-0.749988,-0.444732,-0.159119,-0.274399,1.05189,0.250705,0.983582,0.232377,-0.4216,-0.124937,0.0409488,0.898268,-0.171205,-0.72534,0.419743,0.271222,-0.750637,0.354443,-0.557802,0.34875,0.638917,-0.802536,0.176715,0.13389,-0.308301,1.01666,0.626594,-0.350363,0.738528,0.343805,0.885011,-0.161261,-0.418226,-0.469228,0.982391,0.254544,-0.853042,0.754562,0.105502,0.795356,0.916107,-0.533594,0.0393705,-0.44961,-0.897668,0.951655,-0.0963834,-0.374937,
-0.00241316,0.207383,0.36977,-0.552931,-0.0351943,0.506427,0.475529,-0.0191394,-0.251983,0.648169,0.774957,-0.401144,-0.135614,-0.586523,-0.258098,-0.361169,-0.212522,0.850352,0.0784249,-0.33487,0.894211,1.0731,-0.493822,-0.31495,-0.894093,-0.453164,-0.681309,0.146508,0.689453,0.140862,0.152185,0.544806,1.01463,0.994237,0.814206,0.577551,-0.638724,-0.615609,0.741797,0.511102,0.665592,1.01048,-0.554949,0.323822,-0.332694,0.0434953,0.979752,0.056677,0.0649922,0.633587,-0.304679,0.954781,0.588277,0.269431,-0.774123,-0.823422,0.780686,0.40108,1.01644,-0.683189,0.00810716,0.100017,-0.55068,-0.572063,1.1188,-0.571135,-0.0533977,0.494156,0.348745,-0.152595,0.331287,-0.356804,1.02852,-0.720859,-0.529162,0.179456,0.201742,0.079466,0.789476,-0.728729,-0.734413,-0.671812,0.451811,-0.0279194,-0.576834,-0.0035921,0.761012,0.822877,0.994326,0.406387,0.721794,-0.563712,0.964759,-0.692671,0.375748,-0.593685,0.950556,0.275004,0.270642,0.080749,0.282698,-0.604624,0.669854,-0.498421,0.0622986,0.855785,1.06695,-0.329947,0.391992,0.519387,-0.115979,-0.50723,0.591384,-0.312808,0.96071,-0.424845,0.155991,1.00852,0.596193,0.586775,0.65172,0.973417,-0.225117,-0.0338609,0.60836,0.13268,0.605345,1.07141,0.89691,-0.782711,-0.0670693,0.565158,1.09786,0.38865,-0.0559444,1.09421,-0.637741,0.387337,0.373287,-0.452482,0.127682,-0.409605,0.582974,0.343476,-0.37147,-0.416287,0.824023,-0.584367,1.04147,-0.179213,0.344916,1.08061,-0.121632,-0.685443,0.00691069,0.581332,-0.386256,0.986839,0.341386,0.246188,-0.207787,-0.625499,0.280554,-0.300073,0.570695,-0.774298,0.595502,1.00718,1.03574,-0.0789773,-0.828904,-0.295007,-0.254586,-0.30278,-0.523332,-0.418292,0.403082,0.161055,0.992951,-0.0961262,0.845543,-0.272963,-0.686695,0.995885,-0.583165,0.42271,-0.518901,-0.161408,0.556138,0.123504,0.0287806,0.243003,0.757521,1.06757,-0.0461531,0.260269,-0.825993,-0.000479141,-0.737333,0.672087,0.346718,0.0537789,0.931915,0.0973498,0.551627,-0.199665,-0.0498588,0.78879,-0.263503,0.957374,0.509872,-0.792078,-0.35112,-0.491674,0.927711,0.803183,-0.358068,-0.710817,0.39229,0.357109,0.11174,0.102073,0.112185,-0.289604,-0.862432,0.390965,0.867336,1.08739,0.554516,0.404695,-0.295832,0.417619,-0.017617,0.507661,-0.730376,-0.513111,0.255654,0.694323,0.138964,0.0141147,-0.360839,-0.680367,0.614353,1.02792,-0.0529915,0.0516423,-0.112776,-0.224803,-0.554887,0.607634,-0.677806,0.549796,0.549507,-0.790957,0.479071,-0.295995,0.221622,0.880739,-0.110819,0.502224,-0.861986,-0.793979,-0.851497,0.796733,-0.878732,0.463956,-0.325639,0.134392,-0.819542,0.939694,-0.293881,0.630982,-0.653955,0.0532707,0.510863,0.416347,0.794035,-0.681698,0.693985,-0.187068,1.01482,0.56593,0.165658,0.0487593,-0.73574,-0.626094,0.816168,1.00516,-0.412143,0.129674,-0.777987,0.144303,0.079677,0.907634,0.782387,-0.396245,1.08001,0.593726,-0.680832,0.116177,-0.223873,-0.0163664,0.0880773,-0.838349,0.42981,0.786221,-0.834291,-0.296327,-0.474665,0.712703,-0.717743,-0.880957,-0.498734,0.774681,-0.345072,0.48332,-0.13797,0.312593,0.266061,0.807433,-0.908062,-0.68103,-0.574593,-0.27833,-0.455628,-0.796347,-0.234487,-0.304564,0.00267894,1.02779,0.154778,-0.873653,-0.487041,-0.70118,0.266693,0.513509,-0.0557456,-0.0402448,-0.794552,0.437041,0.842507,0.671048,0.982839,-0.430471,-0.266459,-0.625026,-0.192362,0.824511,-0.0617066,0.565638,0.00526671,-0.175344,0.0162413,-0.756575,-0.638391,-0.215834,0.452035,0.38741,-0.127902,0.931104,-0.402189,0.778343,1.00926,0.507054,0.764144,1.02534,0.672312,-0.639698,-0.611615,0.752002,0.542957,0.660903,0.29524,0.465848,0.816209,-0.663149,-0.794787,-0.331552,0.101791,0.393486,0.313051,0.673463,0.0447872,-0.103369,0.788016,-0.77033,-0.15876,0.0925527,-0.876035,-0.840196,0.927985,-0.801664,
0.640681,0.263309,0.288677,-0.229159,0.129919,0.684371,0.232581,0.195368,-0.741138,-0.639461,0.389092,0.0194792,0.722013,-0.451116,0.488605,-0.309361,-0.512351,0.191952,-0.211197,-0.0795285,0.992046,0.53071,0.764651,0.0987283,-0.31618,-0.530509,-0.778347,0.279613,1.05896,-0.226759,0.199219,0.586922,-0.740234,-0.838379,0.158201,-0.235737,-0.550445,-0.0969428,1.03699,0.421955,-0.756454,-0.433394,-0.218668,0.550572,1.04125,0.711217,-0.785452,0.343371,-0.878147,0.32108,-0.225474,0.917527,9.10815e-05,-0.4906,0.539109,0.818688,-0.398086,-0.857974,0.810653,0.685458,-0.719889,1.03268,1.024,-0.767173,-0.189793,-0.309051,0.526757,-0.411811,0.0707558,0.300016,-0.551004,-0.600079,0.725346,0.323789,1.03181,-0.02585,-0.163557,0.844859,0.627308,0.16486,-0.719052,0.297517,0.585534,0.359637,-0.889606,0.429757,0.0696569,-0.211886,0.237336,0.874549,-0.423828,1.05572,1.02939,0.135401,-0.376494,0.158797,-0.138749,-0.0915009,0.616405,-0.209184,0.651816,-0.202506,0.337013,-0.572639,0.988878,-0.0759419,0.236276,-0.338861,0.648693,0.123552,-0.582215,-0.107233,-0.381989,0.981297,0.0321129,-0.355023,0.960158,-0.185493,1.05713,0.807864,-0.786383,0.359214,-0.0118377,-0.617629,-0.168468,1.06758,0.908156,0.858347,0.426837,-0.595886,-0.601269,-0.0513361,0.122911,0.763335,-0.45134,0.383117,0.71473,0.34,-0.0625365,0.371614,-0.447318,-0.268553,-0.426523,0.652987,0.172762,1.02823,-0.0142352,0.68494,-0.209102,-0.818663,-0.797547,0.282122,0.630592,-0.261857,-0.440655,-0.569402,0.946298,0.661275,-0.370323,1.0233,-0.121588,-0.222405,-0.869869,0.15643,0.723776,0.925157,-0.55291,0.464804,0.934426,0.53399,0.368875,-0.636219,0.182279,0.724796,-0.547705,0.692974,0.758165,-0.459553,0.432261,0.867416,1.01087,-0.36598,0.610351,0.0155493,-0.693839,0.50226,0.0220727,0.363927,0.634262,-0.875755,0.462666,0.43501,0.230972,0.328921,1.06106,-0.0833888,-0.415605,0.222242,0.345328,0.177785,0.963936,-0.342894,-0.735629,-0.160131,0.66831,0.167506,-0.594922,-0.176139,-0.512603,-0.562344,0.815231,0.413361,-0.181587,-0.747767,-0.275502,0.893517,-0.921107,-0.568966,0.895721,-0.328698,-0.779684,0.187936,0.0379237,0.612974,-0.542963,0.512041,-0.67809,0.407696,0.402184,-0.258963,0.375266,-0.597123,-0.660603,0.328183,0.297445,0.640591,0.334052,0.237553,-0.756033,0.378643,0.370203,-0.667366,-0.854368,0.320962,-0.861715,0.330656,-0.661137,0.254073,0.923094,-0.320518,-0.808587,0.824172,0.263184,0.564876,-0.0288286,0.822012,0.922093,-0.679945,0.915879,0.424796,-0.609381,-0.866229,-0.551785,-0.340218,-0.793887,1.02491,1.04599,0.215318,-0.707705,-0.720917,-0.533818,-0.558917,0.437073,-0.643545,0.806119,-0.43421,0.255656,-0.775837,0.755284,-0.808377,-0.806071,0.747858,0.993229,-0.734514,0.600518,-0.768319,-0.691518,0.22162,0.783499,0.0724842,0.414103,-0.692156,-0.913313,0.813572,-0.444393,0.661897,-0.457167,0.436698,0.481876,-0.813887,-0.675973,0.960033,-0.371653,0.932707,0.159507,0.46469,-0.752923,-0.417127,0.233807,-0.703744,-0.0058397,-0.227527,0.246356,0.801952,-0.0794325,-0.557825,-0.550427,0.642785,-0.826993,0.992581,-0.222841,0.854397,-0.364981,0.631144,-0.343861,-0.284625,-0.417585,0.0970625,-0.36735,-0.918517,1.02479,0.100988,0.894305,-0.175694,0.0895319,0.898226,0.838585,0.469324,-0.420425,-0.775054,-0.889715,0.852306,0.984349,0.46567,1.00044,1.03499,0.630436,0.905982,0.335677,-0.0473643,0.737731,-0.450183,0.462782,0.580932,0.128734,-0.0505669,0.317789,0.550405,-0.610745,0.456751,0.809487,-0.689068,0.90124,0.911282,0.338219,-0.72162,-0.525388,0.471542,-0.242129,0.0786743,-0.127608,0.0444676,-0.227999,0.210661,-0.706543,0.392739,-0.259341,0.34033,-0.095855,0.694081,0.144311,-0.411087,1.00232,0.155453,1.03289,0.171548,1.0126,0.686132,-0.72784,-0.414524,0.751299,0.923132,
0.0216146,-0.725219,-0.791918,-0.542752,0.876349,0.106542,0.755395,-0.226292,1.07336,-0.499536,-0.447001,0.3484,-0.128453,0.597955,-0.247684,1.08248,0.457791,0.703149,0.739412,0.118586,0.486473,-0.732732,1.06954,0.676731,-0.580164,1.06428,-0.656099,-0.0510336,0.319203,-0.78607,-0.223714,0.680862,0.515186,-0.891156,0.166699,0.491116,0.894218,0.65492,-0.735455,-0.614475,1.03273,-0.120673,-0.738257,0.245578,-0.289262,-0.62765,-0.756187,0.875139,0.529627,0.607064,0.376697,-0.51764,-0.37597,0.386385,0.121646,0.223914,-0.695013,-0.257275,-0.118209,0.0542876,-0.632447,0.916995,0.957963,0.49183,-0.398507,0.799196,0.117343,0.142447,0.4663,-0.312659,0.499007,0.987189,0.240156,-0.460571,-0.136692,0.98162,0.560955,0.152057,0.675747,-0.201378,0.8385,0.835256,0.462996,0.992973,-0.217138,0.504671,0.430437,-0.849452,-0.619263,-0.235938,-0.54729,0.544224,-0.739704,-0.831201,-0.704756,0.0606916,0.0576652,-0.689704,1.08247,0.404724,0.638555,-0.647237,1.10493,0.356768,1.099,0.347351,0.53416,0.731084,-0.49026,0.169567,0.203472,-0.0198586,0.63877,-0.108224,0.168173,-0.584271,0.505321,1.09005,-0.868005,0.779787,-0.595992,0.454383,-0.70733,-0.0315249,-0.794981,-0.359437,-0.78111,0.156445,-0.609728,0.650239,0.969632,0.252024,0.676958,-0.228602,1.06796,-0.142165,0.182187,0.122702,-0.284514,0.986678,0.480733,0.996946,-0.461391,0.464779,-0.266511,-0.592276,0.870007,0.539779,0.652655,-0.0588594,0.82389,1.02083,0.423114,-0.414432,-0.479204,0.0100884,0.377046,0.60217,0.268784,0.274942,-0.289046,0.439812,-0.532034,0.903448,-0.247885,0.238593,0.110266,0.496769,-0.031024,0.763689,-0.746665,0.816548,-0.660751,0.830437,0.43532,-0.540127,0.289692,0.0340456,0.123089,0.0944882,-0.623396,0.856207,0.133786,0.160102,-0.266108,0.374961,-0.805268,-0.249019,-0.0242902,-0.874525,-0.154201,0.893847,-0.663967,0.389653,-0.782155,-0.816877,0.676466,1.06753,0.720389,0.121898,0.160083,0.62968,-0.748781,-0.255458,0.430291,0.515935,-0.889575,0.339522,0.807656,1.0435,0.578306,-0.848263,0.329918,-0.766588,-0.597949,0.746004,-0.213903,0.809314,-0.482193,-0.0723938,0.957335,-0.773059,1.06523,0.774516,0.440994,-0.0363862,-0.259195,1.06047,-0.562677,-0.0802289,-0.375021,0.415854,0.152623,0.718506,0.623649,1.03154,0.479395,-0.0438879,-0.31505,0.474942,1.02235,0.540374,0.213432,0.78734,0.536668,-0.925315,0.137769,0.235777,-0.82248,-0.87474,0.181813,-0.23296,0.162127,-0.323537,-0.0858167,0.809648,0.769879,0.737028,1.06157,-0.299141,-0.112833,0.572824,0.282099,-0.786833,-0.930791,-0.176065,-0.670938,0.714954,0.525505,-0.517337,0.455194,0.66913,-0.227969,0.752427,-0.132694,0.890341,-0.842818,0.311092,-0.879697,0.705954,-0.175145,0.302257,0.394117,0.77974,-0.613491,0.277379,-0.000438961,-0.890553,-0.513833,0.248179,0.146592,0.039842,-0.47507,-0.366142,0.451022,0.0383898,0.480485,0.438874,0.156059,0.204416,-0.642693,0.610587,-0.619391,-0.84383,-0.426876,0.0994485,0.616345,-0.0702294,0.285781,0.598484,-0.456662,-0.487918,1.00594,-0.625522,0.144881,0.297536,0.551543,-0.325244,0.211103,-0.448501,0.498052,-0.150495,-0.296084,0.906503,0.764203,-0.612665,-0.303218,0.0524998,-0.143001,-0.590743,-0.208756,0.130702,0.827438,0.450301,-0.707164,-0.22448,0.929826,-0.0392122,0.39005,0.0779533,-0.14782,-0.771291,0.808949,0.601373,-0.317601,0.958539,0.801097,-0.297579,0.853473,0.898439,0.153615,0.664602,0.865057,0.869169,-0.886912,-0.633107,0.559926,0.0469351,0.317768,-0.825255,0.594093,-0.616168,-0.195778,0.513237,0.950175,-0.255603,0.992194,0.574565,0.134687,0.819598,-0.109621,0.854252,0.00395552,0.579912,-0.888415,0.423295,-0.532349,-0.368591,-0.138701,1.02194,0.391737,0.594377,-0.279099,0.140014,0.834135,-0.394907,0.8691,-0.80321,0.209979,-0.17955,-0.10802,-0.806035,
