0.757983,-0.977722,-0.635987,0.474555,0.11833,-0.831961,0.621249,-0.159283,-0.971161,0.208827,0.300926,-0.46566,0.876174,-0.157899,0.238837,0.165558,-0.907691,-0.333483,-0.689112,-0.473041,-0.839106,-0.127532,0.276961,-0.671736,0.109821,0.0293642,-0.508176,0.509956,0.67492,0.918498,0.34002,-0.672537,-0.883414,0.405796,-0.702128,-0.183728,-0.15156,-0.805544,0.11325,-0.17355,0.204214,0.592127,0.646877,0.701685,-0.191539,0.223901,0.813404,-0.0346525,0.728938,-0.180667,0.134954,0.860355,-0.38246,-0.413235,0.490169,-0.813896,0.437177,0.164753,-0.501526,-0.757689,-0.238886,0.829105,-0.972364,0.477901,-0.194044,-0.306144,-0.836969,0.432207,-0.129028,-0.810395,-0.207681,-0.504998,-0.703782,0.478395,-0.171876,0.607386,0.404841,0.131312,-0.164945,0.804726,-0.154833,0.663267,0.186916,-0.842962,0.675125,0.467471,0.444896,0.921756,0.453817,-1.04646,-0.885953,-0.16557,-0.286602,0.661303,-0.533497,-0.468992,-0.479987,0.190289,0.523624,0.439791,-0.63713,-0.0877867,0.356843,0.263862,0.162475,0.213981,0.933818,0.47929,-0.757015,-1.08057,-1.05492,-0.117677,-0.336041,-0.513217,-0.246274,0.0750576,-0.808005,-0.57386,-0.240601,0.705071,-0.446114,-0.885593,-0.785906,0.285662,-0.580868,-0.462321,0.643256,0.68186,-0.791306,0.931989,0.443921,-0.762819,0.332693,-0.0394625,-0.323343,0.222762,-0.468888,-0.104452,0.280761,-0.784943,-0.805759,0.610815,-0.577209,0.412926,-0.111641,-0.638736,-0.769274,-0.245627,-0.487122,0.193278,-0.66848,0.176593,-0.479999,0.316929,-0.83766,0.494023,-0.0353223,-0.992597,0.699038,-1.05103,-0.742317,0.178104,-1.02991,-0.761848,-0.411025,0.441251,0.932414,-0.266163,-0.443688,0.556707,-0.0131545,0.343319,0.22789,0.433643,-0.646069,-0.417704,0.1129,-0.957475,0.73959,0.71536,0.0659189,-0.852717,-0.323973,-0.660484,-0.966721,-0.361131,-1.01227,0.511907,0.448874,0.880133,0.484842,0.0959657,-0.83834,-0.0676142,-0.429197,-0.837793,-0.174504,-0.172436,-0.317977,-0.982643,-0.540271,-0.367021,-0.0546861,0.919233,-0.380232,0.0696319,-0.175988,-0.788021,-0.538802,-0.294307,0.882421,0.884396,0.727827,0.925638,-0.962596,0.123093,0.118162,0.321942,0.838624,0.0240964,-0.401124,-0.685373,-0.389204,0.742564,0.507599,-0.403544,-0.988894,0.811647,-0.934051,-0.0186708,0.32081,0.181828,-0.0658016,-1.08908,0.799661,-1.07992,-0.271254,0.565916,-0.300966,0.309016,-0.388099,-0.403395,0.108578,0.730908,-0.700049,0.697218,-0.216664,-0.817584,-0.841061,-0.66804,-0.286989,0.649116,0.580851,0.848615,-0.0802974,-0.435934,0.495751,-1.042,-0.0591127,-0.699913,-0.473047,0.554635,0.577115,0.0408273,-1.03524,0.440404,0.698812,-0.434281,0.89311,-0.890565,-0.578146,0.0503014,0.261054,-0.420027,-0.574639,0.664303,0.283583,-0.66111,-0.587656,-0.964923,-0.940079,0.850723,-0.313534,0.827383,0.909617,-0.380768,-0.726395,0.610073,-0.228578,-1.01359,-0.62131,-0.87642,-0.123372,0.413389,-0.106546,-0.261116,-0.0873701,0.444098,-0.52599,0.598587,0.638316,-0.230228,0.350645,0.576484,0.410402,0.236631,-0.452978,0.0359837,-0.840417,0.676187,0.788897,-0.715166,-0.983079,0.0589162,-0.156831,-0.662795,0.838433,0.21885,0.0663343,0.672212,0.854596,0.82922,-1.08334,0.897862,0.241042,-0.611059,0.481089,0.85346,0.84364,-0.485444,-0.618761,0.855851,-0.0770509,0.697908,-0.568542,0.753979,0.283527,0.631152,-0.941124,0.314345,-0.395425,0.909009,-0.205085,0.2087,-0.60956,0.400464,0.928272,-0.80723,-0.576882,-0.0220084,-0.388318,-0.7503,0.647047,-0.741894,-0.592281,0.392363,0.192855,-0.12813,0.400889,0.135101,0.593269,0.153298,0.916653,-0.416165,0.472698,-0.728445,-0.327659,0.813449,-0.899848,0.395993,0.471418,-0.296053,0.36092,-0.357231,0.0587239,-1.02446,0.13717,-0.217473,-0.298149,-0.624718,-0.259993,0.74294,-0.343802,-0.0898347,0.0696788,0.260406,-0.84368,0.544119,-0.245286,0.34165,-1.08532,-0.0873263,
0.604301,0.048624,-0.441799,-0.247306,-0.0277373,-0.846274,-0.925519,0.0636118,0.201199,-1.07303,0.60392,-0.505124,0.0708881,0.174312,-0.373169,0.537193,-0.881345,-0.461563,0.688706,-0.740525,-0.647565,-0.543613,-0.425311,0.358079,-0.930576,-0.914463,-0.0794624,-0.535389,-0.0625687,-0.0191191,0.822181,0.589874,0.405713,0.540937,0.630808,0.949457,-0.899396,-0.428065,-0.501248,-0.0762922,-0.645366,-0.775828,-0.699071,-1.02421,0.360344,0.574482,0.0148559,-0.435633,-1.00159,0.175693,0.201087,-0.558547,-0.500039,-0.157652,-0.810412,-0.104042,0.932074,0.734862,-0.421896,0.864415,-0.151606,-0.234418,-0.566611,-0.583648,0.102733,-0.371172,-0.180484,0.90163,-0.0354712,-1.03931,-0.129559,-0.0823248,-0.269266,0.113948,0.388365,0.740029,-0.560852,-1.00795,-0.785966,0.929569,-0.124774,0.799362,0.187511,-0.965804,-0.336831,-0.436257,0.0206188,-0.141464,-0.912327,0.374087,-0.0901491,0.378238,-0.274134,-0.431843,0.706469,0.783677,0.462391,0.755208,0.136554,-0.80055,-0.40417,0.439166,-0.68908,0.0538113,0.559662,0.886431,-0.8818,-1.00814,-0.711251,-0.290365,0.345568,-0.290229,0.5399,-0.0740057,-0.974273,-0.867951,0.0871566,-0.509877,0.608774,-0.946289,-0.165068,0.449487,0.893227,0.151172,-0.541491,0.519902,0.220912,0.809494,0.0348771,0.646393,0.33635,0.642266,-0.895486,0.467041,-0.126149,-0.632544,0.160113,-0.319021,-0.703016,-0.696596,0.673689,-1.01023,0.904487,-0.780728,-0.260085,-0.590127,-0.288168,0.276142,-0.744721,0.94517,-0.61626,-0.427802,-0.786597,0.110331,0.564761,-0.380804,-0.707728,-0.543572,-0.303758,0.305415,0.350331,-1.00059,-0.935881,-0.706702,-0.162245,-0.888564,0.511481,-0.303968,-0.451673,-0.827451,-0.356439,-0.403089,-0.448608,0.667851,-0.9475,-0.741262,0.464263,-0.599158,0.354046,-0.950636,-0.83569,0.198184,0.243837,0.906591,-0.799358,0.544821,0.906723,-1.00323,0.411572,-0.229637,0.95649,-0.958279,-0.226495,-0.393611,-0.741697,-0.837856,0.710938,0.788978,-0.81115,-0.311555,-0.677444,0.717674,-0.842055,0.737487,0.43659,-0.609466,-1.04315,-0.856506,0.35249,0.576538,0.727405,-0.196056,-0.0811433,0.382173,-0.70243,0.826555,0.0134175,0.188959,0.499826,-0.0540792,0.344279,0.346225,-0.329233,0.466914,0.275282,-0.134131,-0.306345,0.977368,0.505718,-1.00689,-0.945886,-0.496055,0.0496177,0.67189,-0.578191,-0.589897,-0.651776,-0.505376,-0.305629,0.223622,0.0939508,-0.172012,-0.739377,0.309618,0.116302,-0.285712,-0.130804,0.57056,-0.381724,0.179442,0.114999,0.863965,-0.0327115,-0.809879,0.459297,-0.849854,-0.885326,0.30965,0.577057,0.599379,0.661682,0.520028,0.170208,-0.0602277,0.0913591,-0.884742,-0.322542,0.762926,0.306753,-0.21776,0.554775,-0.144261,0.529506,0.728492,-0.111428,-0.361607,0.0141688,-0.212406,0.881609,-0.164802,0.209015,-0.56055,-0.490328,-1.04463,-0.65213,-0.914676,0.32123,-0.861482,-0.764386,-1.00217,-0.252022,0.759655,-0.813965,0.459179,0.866891,0.598918,0.855076,-0.187381,-0.21328,-0.748835,-1.01818,0.83203,-0.103791,-0.839918,-1.0445,0.97676,-1.0336,0.116611,0.979851,-0.578677,0.660039,-0.383334,0.836508,0.396099,0.324053,0.40347,-0.834278,-0.0269124,0.727844,0.0777457,-0.278105,0.76765,0.20563,0.908604,0.365907,0.187372,0.57247,0.536982,0.389853,-0.614762,-0.279789,-0.992698,-0.997799,0.708772,-0.125177,0.676153,-0.137861,-0.306864,0.817492,-0.507892,-0.612451,0.963011,0.34466,-0.793525,0.29445,-0.663216,0.0624369,0.133655,-0.998698,0.322045,0.691134,-0.488447,0.0345736,-0.237279,-0.888539,-0.336778,0.548867,-0.842142,0.513442,-0.590696,0.237402,-0.177799,-0.51591,0.83899,0.453006,0.6019,-0.148611,-0.684737,0.962945,0.432716,-0.315502,-0.461021,-0.784708,0.0163367,0.885403,0.84369,-0.696405,-0.950159,-0.244548,-0.758013,0.54716,-0.130973,-0.308015,0.504407,0.56098,-0.598956,0.814413,-0.4491,0.250926,-0.876974,-0.102928,0.12571,
-0.624263,-0.589771,-0.600864,-0.901564,0.595497,-0.667121,0.950649,0.375271,-0.470445,-0.109783,-0.75589,-0.387723,-0.40577,0.772958,-0.960846,-0.324407,0.979747,0.244488,-0.665625,0.989855,0.0363681,-0.373999,0.874685,-1.00734,0.983635,0.111736,0.537135,-0.905843,-0.624791,-0.51987,0.127816,0.390512,0.841425,-0.0475115,0.345941,-0.483012,0.566898,-0.994237,-0.597908,-0.198484,0.0328848,-0.821365,0.766199,0.738737,0.564779,-0.992438,0.790797,-0.136037,0.96358,-0.235169,-0.125727,-0.232428,0.877342,-0.320004,0.461641,-0.686529,0.219884,-0.581661,0.10017,-0.0305022,0.977054,-0.836796,0.574567,-0.152162,-0.847001,-0.727383,0.576166,-0.143157,-0.880367,0.807753,-0.499049,-0.796161,-0.75255,-0.352323,-0.145363,-0.0756412,-0.95797,-0.891036,-0.660911,0.448124,-0.762072,0.0936767,0.84316,-0.631859,-0.8834,0.949459,-0.936159,0.854155,-0.0911311,-0.964461,0.237129,0.0487735,0.486913,-0.497912,-0.258689,0.633518,0.358508,0.956344,0.285243,0.807976,-0.600123,0.469297,0.384988,0.601786,0.576356,-1.02913,0.46164,0.828078,-0.282616,-0.596416,-1.00089,0.801805,-0.0880174,-0.0714626,0.484045,-0.0431119,-0.564526,0.677695,0.105367,0.151494,0.872472,-0.189387,-0.0555093,-0.346467,0.563505,0.235415,-0.0616949,0.916779,0.967637,0.838214,-0.221036,0.811464,-0.783071,0.593198,0.312177,-0.568241,-0.51847,0.905543,-0.811237,-0.958426,-0.779422,0.883207,-0.0611462,-0.585215,-0.628093,-0.949238,-0.755757,0.179146,0.136655,-0.628241,-0.37205,-0.609,-0.549502,-0.529116,0.743446,0.12127,-0.37782,-0.242536,-0.495918,0.356123,0.92625,-0.794332,-0.191632,0.611529,-0.549117,-0.961396,0.220079,0.497148,-0.858252,0.558896,0.0190558,0.554299,-0.774404,-0.900343,-0.361757,-0.0713717,0.0813836,-0.319712,0.280775,0.356796,0.209583,0.568937,0.272454,0.95546,-0.846549,-0.516198,-0.87237,0.980948,-0.0964397,0.694012,-0.577092,-0.250268,-0.718487,0.860324,-0.976154,0.600136,-0.999061,0.848255,-0.510774,0.938289,-0.84008,-0.192368,-0.777464,-0.380167,-0.572973,0.158064,0.566738,-0.612509,-0.240418,-0.902798,-0.359932,0.0263308,-0.144867,0.0583347,0.435269,0.166917,0.474254,-0.0471832,-0.25313,-0.423218,0.256856,0.602025,-0.80273,0.420451,-0.25545,0.918764,-0.283305,0.547919,0.836255,0.197537,-0.814692,-0.33181,0.701335,-0.321299,0.476026,-0.258213,-0.509734,0.890003,-0.153861,-0.860339,-0.177101,0.758935,-0.997118,-0.736255,-0.348729,-0.779038,0.171634,-0.0352369,-0.569101,-0.575205,0.732415,-0.794855,0.798005,-0.822722,0.490308,0.470174,0.334443,0.726568,0.339964,-0.731392,0.0429966,-0.169023,0.953104,0.273193,0.094281,-0.550116,0.35321,0.0909085,-0.129731,0.159482,-0.975009,-0.444735,0.639499,-0.473588,0.697063,0.505456,-0.750835,0.393464,-0.944653,-0.844636,-0.516961,-0.38409,0.197359,0.690476,-0.454242,0.85982,-0.280516,0.87644,-0.97054,-0.62169,0.559252,0.132433,-0.628375,-0.152313,-0.411837,0.419183,-0.327796,0.287604,0.873909,0.538983,0.302069,-0.914782,-0.581012,-0.999765,0.12924,0.81989,0.937559,-0.16557,0.0472358,0.0928105,0.931046,-0.121975,-0.561622,-0.871875,0.236292,0.924456,0.474134,0.0722407,-0.340216,-0.717046,0.168366,-0.499522,-0.795924,-0.823974,-0.478216,-0.966306,-0.269505,0.125393,0.438116,-0.533633,-0.946559,-0.330578,-0.598295,-0.776198,-0.794019,0.881815,-0.135094,-0.657378,0.075834,-0.696478,-0.057564,-0.984259,0.563371,-0.164962,0.720716,-0.0311093,0.919249,0.224784,0.715456,0.388428,-0.381307,-0.482745,-0.198382,0.579422,-0.817985,-0.672851,-0.0610986,-0.768983,-0.609564,0.842467,0.783241,0.334026,0.864266,0.056661,-0.0337532,-0.213408,0.987306,-0.521666,-0.3601,-0.997553,0.951198,0.39633,-0.746611,-1.00223,0.353748,-0.396797,-0.405594,0.608136,0.193131,0.943273,-0.490352,0.24485,0.853689,0.145118,0.246042,-0.416448,0.169264,0.428552,-0.113622,0.854829,-0.469046,-0.727008,
-0.66959,0.359556,0.326667,-0.0664457,0.308038,-1.05133,-0.0331531,0.210235,0.170619,-0.0911225,-0.49545,-0.884229,0.863969,0.886911,-0.776021,-0.779697,0.654264,0.0177403,0.626896,-0.36392,0.571479,0.382016,0.59435,-0.487429,0.850503,0.7578,-0.470734,-0.453149,0.242103,-0.606294,0.855913,0.210772,-0.95622,-0.043339,-1.01621,0.902303,0.395429,0.393699,0.859257,-1.00175,-0.493958,-0.23722,0.487907,-0.462592,-0.725939,-0.311276,0.981122,0.822518,-0.292068,-0.695786,0.664666,0.44516,-0.902029,0.272409,0.388318,-0.0500548,0.10774,0.143503,0.0509681,-0.535451,0.433884,-0.565095,0.58301,-0.991449,0.23645,-0.966388,0.317498,-0.0464048,0.0800601,0.41476,-0.353641,0.985805,-0.603733,-0.821346,0.225399,0.657825,-0.564398,-0.0362447,0.113487,-0.732522,-0.0304856,0.774818,0.03492,-0.658789,0.953595,-0.917348,0.552241,-0.128163,-0.735323,-0.154729,0.777545,0.044992,-0.0465239,0.343753,-0.911673,0.863784,0.2803,0.942831,-1.00972,0.561627,-0.674266,-0.465203,-0.461829,-1.00051,-0.199988,-0.198358,-0.101006,-0.0442845,0.55921,-0.326156,0.549045,-0.602287,-0.491119,0.27781,-0.241049,-0.582063,0.162917,0.0306217,0.445283,0.878765,-0.936498,-0.717809,0.13867,0.271877,0.951841,0.225317,-0.672064,-0.39048,0.594736,0.752248,1.0012,0.0611606,-0.784619,-0.535661,-0.508651,0.830249,-0.447414,0.687314,0.878752,-0.775009,-0.820057,-0.0312061,0.812255,-0.219129,0.955484,0.372027,-0.93109,-0.792363,0.422139,-0.825221,-0.663351,0.0703595,-0.178855,0.959359,-0.73731,-0.97886,0.6704,-0.095241,0.378967,-0.7365,0.9545,-0.654567,-0.479,-0.549768,0.327722,-1.01336,-0.508408,0.833053,-0.428352,-0.120693,0.955363,-0.539916,-0.105137,-0.8454,-0.284406,0.357664,0.32077,0.718755,-0.976814,0.291069,-0.835128,-0.604218,0.288126,-0.127548,-0.793373,-0.107227,-0.179418,0.214599,-0.316996,0.866351,0.229446,0.0524674,-0.841688,0.965952,-0.431627,-0.94552,0.388275,0.0423871,0.0206575,0.0943562,0.0487056,0.659838,0.795267,0.340264,0.810254,-0.229265,0.125726,-0.769334,0.293911,-0.727386,0.230428,0.207177,-0.923434,0.543326,0.618327,-0.950446,-0.866464,0.884367,0.176586,0.955931,-0.0211965,-0.118498,-0.80994,-0.398184,0.90267,-0.801869,-0.392697,0.0739844,-0.96265,-0.463428,0.04136,-0.0801099,-0.971064,-0.844187,-0.281719,-0.887569,-0.955255,-0.14407,-0.0281506,-0.333267,-0.271949,-0.508584,0.118578,0.890692,0.8374,-0.403565,0.289121,0.638538,0.627415,-0.0964162,0.558289,0.212868,-0.17,0.0692785,-0.188447,0.425282,-0.498929,-0.915262,0.286729,0.161014,0.867966,0.843458,-0.733134,0.836723,-0.310794,-0.337513,-0.71183,-0.181679,0.557446,-0.154241,0.233577,-0.539038,0.443627,0.687126,0.281318,-0.191607,0.109861,0.211295,0.199191,0.218068,0.383631,0.842461,0.819925,-0.197256,0.265151,0.778631,0.84178,0.13441,-0.552044,-0.589151,0.670835,-0.412588,-0.999877,-0.0225203,0.637259,0.920198,0.989194,0.74402,-0.505246,-0.961136,0.102214,-0.932369,0.0993863,-0.658353,-0.151748,0.401692,0.684662,0.408956,0.671529,0.715654,-0.462848,-0.166547,-0.385729,-0.410523,0.742711,-0.817831,-0.921415,-0.42074,-0.364657,0.190411,0.367166,-0.234052,0.260858,-0.789036,0.568946,0.0917522,-0.182004,0.0602142,0.0583334,-0.170944,0.200113,-0.511656,-0.502682,0.0545294,-0.197127,0.592732,-0.629946,0.845143,-0.668653,0.41699,0.0322437,-0.153343,-0.564479,-0.308407,0.0304083,0.639393,0.281065,-0.849412,-1.01621,0.654167,0.154003,0.852203,-0.238097,-0.700092,-0.435595,0.848603,-0.831123,-0.284021,-1.00364,-0.113379,0.575398,-0.561039,-0.817272,-1.01246,0.221217,0.254258,-0.0774444,0.59852,0.531301,0.884498,0.917494,-0.206874,0.290913,0.990193,-0.557411,0.306732,-0.552367,-0.717098,0.445757,0.176615,-1.01764,0.0594632,-0.462831,0.384696,0.139004,0.283599,-0.555342,-0.255714,0.612074,0.982343,0.997554,0.294625,
0.764506,0.106263,0.771033,0.757699,-0.0286718,0.597312,0.33556,-0.806827,-0.142498,-0.710418,-0.878527,-0.858125,-0.114819,-0.848263,-0.863817,-0.0879965,-0.084339,0.267165,-0.818758,0.519351,-0.694701,-0.29803,0.682614,-0.513389,0.507976,0.415824,0.27278,0.0865024,0.32578,-0.11828,-0.543837,0.804431,0.14562,0.40111,0.514134,-1.01854,-0.148621,-0.307942,-0.999884,-0.265556,-0.273124,0.438325,-0.128956,0.637431,-0.519504,0.171183,-0.999003,0.305281,0.406108,0.776459,0.656835,-0.801251,0.0749861,-0.870803,-0.0939427,-0.743312,-0.424345,0.294634,-0.122736,-0.397356,0.464213,-0.420769,0.380672,0.103796,-0.630339,-1.00266,-1.02655,0.782694,-0.950465,0.276808,-0.691393,0.296466,-0.567002,-0.647502,-1.0117,0.964716,0.780071,0.896583,-0.515031,0.213456,0.0647606,-0.999464,0.630961,0.153908,0.354436,0.635866,-0.437261,-0.619955,-0.868668,-0.638627,0.966358,0.881024,0.12828,0.897765,0.56314,0.0516459,-0.869388,-0.292364,-0.729487,-0.513883,-0.563614,-0.9631,-0.313317,-0.746953,-0.381117,-0.452453,0.94073,-0.883864,-0.244658,-0.53414,0.670464,-0.981938,0.419469,0.880882,0.295383,-0.496372,0.206338,0.512755,-0.0843913,-0.876507,0.350995,0.887754,0.461321,0.272684,0.453065,0.120472,-0.322314,0.646884,0.333242,-0.321503,0.419875,-0.689088,-0.787498,0.666761,-0.509231,-0.482571,-0.51895,-0.761001,0.375397,0.812933,-0.0459049,0.857778,0.107354,0.442859,-0.306625,-0.437732,-0.30134,-0.177635,0.721536,0.105683,-0.924916,0.408699,-0.676879,0.148162,-0.658873,0.46487,0.85229,-0.633907,0.0770866,0.628894,0.341053,-0.796741,-0.780208,0.432786,0.960926,0.599564,0.778801,-0.393379,0.486781,-0.0545879,-0.512357,-0.240191,-0.941726,-0.72096,-0.364988,0.446614,0.170061,0.862106,0.153774,-0.625464,0.418612,0.615063,-0.192353,-0.127117,0.876876,-0.354663,0.0306928,0.724705,-1.01788,-0.108656,0.799186,0.641226,-0.235134,0.526584,0.371712,-0.185388,-0.116379,-0.378263,0.648172,0.704722,0.216511,-0.242714,-0.566675,0.263918,0.2192,0.960194,0.0993084,-1.03543,0.69405,0.662721,-0.418339,0.916708,-0.236005,-0.176593,-0.635943,0.610831,-0.508134,-0.569197,-0.107955,0.411338,-0.70813,-0.547305,-0.231626,0.910269,-1.03479,-0.661272,0.539466,-0.0929056,-0.373239,0.0983956,-0.840821,-0.0178804,-0.987959,-0.132456,0.328136,0.469355,0.652713,-1.00229,-1.01413,-0.714851,-0.833869,0.591355,0.929892,0.323636,0.60345,-0.741222,0.445577,-0.930182,-0.980709,-0.0574658,-0.947663,0.739332,0.136385,-0.330438,-0.0423466,0.378441,0.658431,0.890872,0.781773,0.409788,0.814536,-0.464986,0.884476,-1.02837,0.552226,-0.147081,0.249349,-0.348205,-0.957578,0.0460631,-0.353023,0.153836,0.836038,-0.788677,0.858241,-0.98166,-0.948619,-0.323626,-0.700307,0.0382972,-0.472212,-0.618956,-0.183814,0.313342,0.959926,-0.138039,0.728293,-1.02774,0.772342,0.971654,0.249399,-0.804175,0.374418,0.971752,0.265079,0.408101,-0.569012,0.189789,-0.82714,-0.0956051,-0.451396,0.342088,0.915166,-0.351382,-0.262518,-0.145728,0.774331,0.616696,-0.306886,0.0843364,-0.509299,-0.619677,0.456017,0.386395,-0.236553,0.767156,0.229019,0.231857,0.485591,0.789882,-0.0599835,0.730305,0.0388111,-0.235159,-0.708585,-0.100133,0.471019,0.464016,0.747376,0.639917,0.479431,-0.536926,-0.375368,0.294771,-0.333456,-0.916623,0.531084,0.254039,-0.270403,0.613349,0.518742,-0.0624162,0.518618,0.535327,0.226443,-0.373132,-0.11629,0.456457,0.480851,-0.890776,-0.985811,-0.739209,0.122251,0.347053,0.22032,0.933576,0.865881,-0.767723,0.472842,-0.650491,0.33956,-0.573353,-0.992195,0.45015,0.435324,0.551488,0.54918,-0.44356,-0.273329,-0.654163,-0.148284,0.684417,-0.0740816,-0.174948,0.63095,-0.637469,0.688631,0.698029,0.989126,0.379651,-0.719809,0.68734,-0.840299,0.377071,-0.142151,0.485766,-0.845975,-0.545199,-0.191399,0.0558231,0.855863,0.703771,
0.0552319,0.48637,-1.15303,0.400952,-1.17139,0.678908,-0.356871,-0.846588,-0.0430144,-0.739798,0.879905,-0.28869,-0.714167,0.964564,0.123923,-0.742618,0.520528,0.408993,-0.515162,0.125349,0.0890325,0.402603,0.143719,0.299153,0.782149,-0.828528,0.973133,0.247922,-0.572786,-0.701668,0.39077,-0.66447,-0.215509,-1.00321,0.223211,-0.927944,0.96368,-0.420431,-0.654077,-0.0415004,-0.784157,-0.253057,-0.816953,-0.195066,0.110792,0.74535,0.0465886,-0.153436,-0.323893,-0.540573,0.0305904,-0.772027,0.15072,0.063815,-1.00277,-0.569753,-0.688687,-0.155792,0.070389,-0.874528,0.423417,0.754317,0.949964,-0.127503,-0.366563,-0.226953,0.945227,-0.338858,-0.461072,0.245486,0.186105,-0.650021,-0.529202,0.0494641,-0.0348645,0.590733,-0.708844,0.351776,0.258314,-0.329193,0.846354,-0.0743462,0.83498,-0.225083,0.671591,-0.572429,0.883059,0.706743,-0.566449,-0.366979,-0.252523,-0.882221,-0.974834,-0.224215,-0.239323,0.61182,0.450526,-0.528094,-0.337991,0.830224,0.336964,-0.588094,0.272949,0.553714,0.79093,-0.21685,-0.229665,-0.427102,0.0740745,0.125338,0.724867,0.233792,0.536717,0.568068,0.86738,-0.0354513,-0.558471,-0.212292,0.138014,0.733048,0.420448,0.381934,0.758388,-1.04047,-0.90814,0.74406,-0.0324389,0.676198,0.623063,-0.0237085,0.277375,0.535389,0.95694,-1.02434,0.20154,-0.145851,0.26172,-0.732976,-0.167226,0.257647,-0.286587,0.0520041,-0.681897,0.943244,-0.950104,-0.96722,-0.826877,-0.475307,0.0189133,-0.221475,0.329267,0.797168,-1.01054,0.167523,-0.916652,-0.871209,-0.50712,-0.377499,-0.764372,-0.353092,-0.592995,0.576922,0.526566,-0.356149,-0.896355,0.396186,0.981818,-0.81548,0.912486,-0.344602,0.101606,0.351101,-0.941725,0.199056,-0.721455,0.844324,-0.440885,-0.473534,-0.429685,0.843402,-0.288831,0.646127,-0.506529,0.185808,0.740488,0.6699,-0.99748,-0.679214,0.465064,0.0903068,-0.828037,-0.0149107,0.52617,-0.208019,-0.996294,0.651896,-0.500711,0.327835,-0.864522,0.66301,-0.751912,0.798614,-0.651188,-0.708178,0.778019,-0.541289,0.899615,-0.969642,-0.908513,-0.744426,-0.286508,0.712006,0.242268,0.467314,0.035769,0.0297437,0.650452,-0.438949,-0.0753818,0.074552,0.462244,0.597777,0.880421,0.262297,0.609986,-0.449335,-0.146794,-0.444858,0.070789,-0.631857,-1.00462,0.848484,0.369655,-0.247422,-0.639239,-0.534341,0.956306,0.708865,0.562679,-0.858662,0.552805,0.245504,-0.465322,0.5017,-0.740932,-0.537678,-0.932689,-0.442322,-0.0820936,-0.400513,-1.01684,-0.32914,0.175782,0.097167,-0.800014,0.0919709,-0.199782,-0.79752,0.405427,0.405359,0.108654,0.368389,-0.777437,0.192508,-0.496518,0.696657,0.225967,0.35279,0.512929,-0.231706,0.856821,-0.666164,0.895919,0.794105,-0.874262,0.572414,0.0663483,-0.997716,0.177803,-1.01637,-0.569079,0.898232,0.0311018,0.440603,0.790433,-0.713086,-0.322412,-0.109551,0.584187,-0.788625,0.564563,0.543485,0.868809,-0.575843,0.889424,0.840551,-0.888297,0.603262,0.519504,-0.488646,0.909414,0.31437,-0.216361,-0.0640861,-0.430526,-0.95845,-0.143381,-0.252027,0.599922,0.130692,0.841138,0.451862,-0.83267,0.422504,-0.270002,0.957349,-0.674132,-0.806397,-0.291748,0.852753,0.0660963,-0.0915817,-0.826436,-0.777203,-0.18439,-0.927666,0.147375,0.0877284,0.726681,0.047875,-0.0704501,-0.654473,-0.734332,0.887633,0.73166,0.33385,-0.315404,-0.925527,-0.773619,-0.29141,0.925689,0.150683,0.948062,0.900463,0.19102,-0.825361,-0.663864,0.392269,0.619458,-0.474,-0.48005,-0.746285,-0.826518,-0.878004,-0.575215,0.84152,0.191532,0.117277,-0.254181,-0.916592,0.302125,0.0216907,0.541131,0.305541,0.738908,0.308431,-0.78965,-0.398988,0.451808,-0.513019,0.820871,0.0883866,0.653658,0.777864,-0.168025,0.591805,0.737374,0.876808,-0.067284,-0.267181,0.845779,0.341396,0.826173,0.830471,0.259009,-0.687597,0.493205,0.270016,0.981566,-0.914558,-0.662396,-0.0713432,
0.849469,-0.234148,-0.964569,-0.241079,-0.419965,0.556,-0.284524,-0.297078,-0.84205,-0.33409,-1.0039,-0.53562,-0.928569,-0.261643,-0.468098,-0.833189,0.784474,0.515649,0.326656,0.607977,0.535309,-0.537187,-0.686178,-0.907638,-0.522779,-0.282139,-0.110436,0.375702,0.676421,0.30003,0.761434,0.0902383,-0.774359,-0.646155,-0.862646,-0.342183,-0.0979611,0.872291,0.817601,0.557976,-0.119612,0.183018,0.163762,-0.937136,-0.735999,0.793688,0.496765,0.979561,-0.134456,0.691861,-0.9194,-0.146344,-0.95345,-0.40906,0.120466,-1.00155,-0.407076,-1.00102,-0.0977965,-0.747366,0.764297,-0.398025,0.212023,0.546423,-0.303443,0.532396,0.709025,-0.314004,0.152789,-0.276503,-0.069049,-0.0733786,0.159139,0.957872,-0.260716,-0.540637,-0.356633,0.687645,-0.47475,0.752982,0.0143203,0.816303,0.669186,-0.96069,0.918606,-0.755774,-0.261891,-0.918694,0.596747,-0.446197,-0.88228,0.264684,0.271318,-0.484875,0.731789,0.788455,0.960297,-0.362486,0.936559,0.691743,0.346347,-0.0828449,-1.00811,0.461906,-0.899445,0.572066,-0.162222,-0.848824,0.225574,-0.445785,0.858982,-0.245969,-0.688195,0.490186,-0.890444,0.765411,-0.691797,-0.0660377,0.195774,0.303264,0.3834,-0.799665,0.085947,-0.831585,-0.758532,-0.26605,0.45532,-0.0584029,0.621937,-0.676269,-0.978733,-0.864873,0.477169,0.757475,-0.898244,0.103937,0.647127,-0.176738,-0.952967,0.300257,-0.555394,0.153946,-1.03087,0.6646,-0.140884,0.884111,0.578278,-0.566851,0.629192,0.247427,0.787686,0.850835,-0.241042,0.0625551,0.612564,0.984632,0.123726,-0.694033,0.7798,0.437034,0.320561,-0.678829,-0.0575868,-0.199665,0.122256,-0.37237,-0.268423,-0.803036,-0.537767,0.710279,0.558607,-0.694901,0.553937,0.513063,-0.0962729,0.779831,0.0331181,0.562198,0.886323,0.855336,0.759823,-0.461075,-0.738611,-0.391577,0.324893,-0.829242,-0.959279,-0.0366194,-0.925617,0.188057,-0.0368157,0.816729,-1.0318,0.127047,0.703848,-0.679587,0.149139,-0.477536,0.662661,0.745464,-0.692869,0.225149,-0.908664,-0.0509729,0.615879,0.415094,0.339189,-0.256819,-0.987634,0.229218,-0.214786,0.731649,-0.120572,0.566025,0.574236,-0.967584,0.0597511,-0.0763149,-0.489572,-0.352857,0.736014,0.545101,0.172855,-0.961684,0.0863649,-0.811256,-0.738044,-0.628923,0.543341,0.914369,-0.639255,-1.02668,0.582539,-0.426075,-0.227262,0.677163,-0.559813,0.595493,0.391813,0.0849831,0.841034,0.951001,-0.437435,0.571608,0.0830368,0.63479,-0.961938,-0.725248,0.985142,-0.0977066,0.201952,0.704252,0.762368,-0.86745,0.0357695,0.0665301,-0.253287,0.505224,0.257528,-0.733116,-0.263284,0.848258,0.276044,0.634556,0.438754,-0.240925,-0.693657,-0.979138,0.982572,-1.02076,-0.989448,0.0750487,0.237408,0.198804,0.265423,-0.104773,-0.0846615,-0.0625966,0.755826,0.10297,-0.326385,0.890716,-0.150849,-0.32707,-0.146296,-1.00316,0.117965,0.909535,-0.294045,0.501576,0.343158,-0.494881,0.462972,-0.435514,0.242035,0.684459,-0.192934,0.644227,-0.576644,0.207535,-0.927142,0.676692,-0.81647,-0.395643,0.836345,0.963602,0.873077,0.482368,0.825051,0.911297,-0.33285,0.351795,-0.776644,-0.316932,-0.633387,-0.230135,-0.525659,0.450324,0.156966,-0.601614,0.831578,-0.306354,0.0334915,-0.988154,0.83848,0.0987888,-0.055085,0.900915,-0.634073,0.95554,-0.719847,-0.108459,0.460517,-0.258522,0.482424,0.887763,-0.235223,0.615782,-0.736323,-0.504167,0.666486,0.434713,-0.858058,0.671025,-0.69504,-0.828975,0.841703,-0.295025,0.752889,-0.336224,-0.0982186,-0.448911,0.118355,0.272612,0.0953651,0.0263278,-0.76052,0.380534,-0.21789,0.0380164,-0.562035,-0.382152,-0.146986,0.754939,0.396321,0.638145,-0.0151807,0.0851207,-0.0563812,-0.838464,-0.372104,-0.081313,-0.75784,0.92916,0.270254,0.850782,-0.937476,0.302818,-0.779314,0.807832,-0.179151,-0.363782,-0.217078,0.659537,0.383916,-0.726293,0.0890914,0.332947,-0.482472,-0.393783,-0.858548,-0.386228,
-0.731354,0.707242,-0.531211,-0.656487,0.698294,-1.08403,-0.243202,-0.527698,0.144203,0.756792,0.306975,0.437334,0.950382,-0.419306,0.514847,-0.684765,0.343052,0.815013,0.381001,-0.294107,0.0332492,-0.700578,-0.561717,0.212209,0.64417,0.313341,-0.0396377,0.325148,-0.357553,-0.962532,-0.90087,-0.555483,0.780389,0.18628,0.198509,-0.457653,0.645533,0.377399,-1.0153,0.158278,0.34838,-0.974268,-0.686997,0.357825,-0.446211,-0.492768,-0.526327,-0.667593,0.516496,0.183741,0.0583281,0.62855,-0.2035,-0.113555,0.670131,0.357379,-1.03123,-0.841014,-0.76448,-0.464747,0.414221,0.179441,-0.187535,-0.434559,0.840755,0.600646,0.755117,-0.392123,-0.55817,-0.643453,0.620702,-0.614289,-0.975947,-0.0891968,0.203862,-0.60737,-0.683071,-0.559487,-0.72285,0.496113,0.73589,0.32655,-0.117635,-0.3445,0.105822,0.527103,0.169971,0.481963,-0.378167,-0.711637,0.421537,-0.873297,-0.0844717,-0.477251,0.992821,0.890482,-0.0435172,-0.884787,0.0223057,-0.718611,-0.522369,-0.851708,-0.363506,0.385798,-0.917749,-0.704477,0.156337,-0.255384,-0.913834,0.288978,0.67742,0.527545,0.762283,0.188225,-0.761852,0.537399,0.39775,0.0713235,-0.486203,0.422678,-0.488815,-0.347167,-0.734789,-0.442364,0.304892,-0.0656769,0.757384,-0.0903331,-0.677816,-0.793169,-0.0958455,0.939866,0.750461,0.199152,0.599549,-0.0991492,-0.498253,-0.0404299,0.794668,0.405095,0.249933,-0.95682,-0.716682,0.442373,0.456004,-0.92304,0.752794,-0.326617,0.477258,0.0154397,0.770765,-0.701709,0.559001,-0.510022,-0.053571,0.754484,-0.697614,0.737894,-0.889924,0.749347,0.471701,0.619657,-0.660397,0.795046,0.980161,0.914551,-0.157824,-0.209252,0.252088,-0.686247,-0.333785,-0.957267,0.622792,0.092694,-0.931766,-0.577867,0.0235413,0.779093,0.342228,-0.689721,0.532372,-0.169937,0.48882,0.240767,-0.463918,0.254636,-0.350259,0.416439,-0.147731,-0.279468,0.407555,0.853279,0.854166,0.565778,-0.116497,0.186524,0.40598,-0.729867,-0.574058,-0.446122,0.954908,-0.0721912,0.341027,-0.808216,0.706923,0.670609,-0.867628,-0.0419058,-0.320244,0.224641,0.880293,-0.441898,0.130151,0.978057,-0.154977,-0.191424,-0.637646,-0.219152,0.933273,-0.150828,-0.997645,0.501484,-0.25053,0.924338,0.929562,0.793703,0.890771,0.730647,0.59937,0.150815,-0.863462,-0.945749,-0.96652,-0.223373,-0.214908,-0.418525,0.70515,-0.927563,0.716127,0.667138,0.0894272,0.252288,0.547582,0.31286,-0.519506,0.869476,0.50509,-0.438883,-0.440667,-0.172405,-0.858402,0.893013,-0.777058,-0.995072,-0.115645,-0.731739,0.485109,0.292013,-0.791497,0.131158,0.40507,-0.854231,0.365076,0.0972125,-0.0965257,-0.206025,-0.796008,-0.208159,0.359106,0.207533,0.18969,0.405533,0.712473,-0.300979,0.80452,0.882529,-0.179414,0.757358,0.603979,-0.536417,-0.830836,-1.02416,-0.442408,0.476533,-0.310401,0.880709,0.233703,-0.413563,-0.314032,0.359407,-0.273882,0.578813,0.436775,0.263196,0.497001,0.320475,-0.986318,0.56447,0.961872,0.86373,-1.00117,-0.143686,-0.155102,-0.413725,-0.142302,-1.02255,-0.993226,-0.138231,-0.803267,-0.877868,-0.325027,0.769388,-0.79396,0.14551,-0.432671,-0.693258,-0.80288,-0.0755155,-0.406486,-0.826841,0.866058,-0.879281,-0.800989,0.874905,0.964793,-0.573825,0.644113,-0.0458209,-0.829771,-0.398225,-0.913353,0.399355,-0.820316,0.575606,-1.01009,-0.937341,0.174238,0.581727,-0.439576,0.576418,-0.541914,-0.566661,0.32549,-0.228742,-0.538299,-0.955883,-0.464162,0.934685,-0.829481,0.39296,0.695126,-0.939852,0.895363,-0.438285,0.561517,-0.577481,0.945328,-0.420702,0.731927,0.0524508,0.0136554,-0.203877,-0.154782,-0.0575683,0.823899,0.112524,-0.678277,-0.646462,0.461348,0.536329,0.138787,-0.608906,0.326912,-0.812874,0.304232,-0.890493,-0.185819,0.465355,0.435214,-0.803868,0.563098,0.470764,0.955917,-0.0308155,-0.336918,0.659017,0.805855,-0.708637,-0.397647,-0.300246,-0.580953,-0.769659,
0.705724,0.629726,0.115613,-0.533131,0.52063,0.526866,0.0404573,-0.292645,0.743291,-0.923381,0.433296,-0.128957,-0.115497,-0.311149,-0.386499,-0.129392,-0.623653,0.879011,0.615337,-0.830752,-0.658552,0.478941,0.68583,-0.347998,-0.655269,-0.531858,0.406596,-0.526655,0.611369,-0.297207,-0.0283026,0.594897,0.387921,-0.832884,-0.486656,0.384221,0.496155,0.159928,-0.795073,-0.558691,-0.308949,0.54301,0.343353,0.180877,0.766978,-1.00948,-0.40984,0.515365,0.929374,-0.0598691,-0.778425,-0.301501,-0.63305,0.246127,-0.111277,-0.576933,0.444143,-0.283352,-0.718375,0.451266,-0.41649,0.148345,-0.233512,0.902348,-0.147148,-0.503852,-0.869289,-0.430654,0.328301,0.692989,0.0178576,-0.0657155,-0.796714,-0.903234,0.657339,-0.131119,0.798681,-0.816681,0.189859,0.484879,-0.992803,0.607334,0.3123,-0.499309,-0.294932,-0.966948,-0.473233,-0.313386,-0.772335,-0.152089,-0.574394,-0.315239,-0.824705,0.950901,-0.192875,0.23425,-0.760312,0.131786,0.389828,0.800802,-0.874311,-0.721512,0.94515,-0.841257,-0.520757,-0.472196,-0.503662,0.0174204,0.959317,0.665672,0.601379,-0.395152,0.0546582,0.372234,0.497602,0.355797,0.315306,-0.999451,0.854225,-0.386075,0.827491,-0.342315,0.468815,-0.705569,-0.693346,-0.489029,0.639271,-0.678296,0.764894,-0.81045,-0.272013,-0.442465,0.135987,0.673328,0.91889,-0.791777,0.734039,-0.0829066,-0.182621,0.594035,-0.52568,0.624392,0.973848,-0.492903,0.168656,-0.229853,0.56994,0.965529,0.88213,-0.629511,-0.8425,0.979406,0.580474,-0.245745,-0.96618,-0.0464347,0.260109,0.846828,-0.523663,0.453375,-0.114529,0.230289,0.767593,0.443849,0.634849,0.416698,0.94805,0.428652,-0.0992285,0.677258,0.434872,-0.876666,0.259041,-0.739697,0.875393,0.867687,-0.118115,-0.602134,0.443807,-0.218254,0.888116,0.564439,-0.730488,0.379413,0.576133,0.392729,-0.230661,0.276852,-0.924099,0.332462,0.0689608,0.130333,0.689876,-0.642788,-0.840759,-0.75326,-0.830428,-0.792934,0.0335337,0.581744,-0.26107,0.826243,0.0585616,0.573832,-0.546326,-0.558565,-0.74017,-0.571745,0.463038,0.761669,0.491991,0.612434,-0.140839,0.60028,0.121149,-0.311849,0.637626,0.145696,-0.340874,0.0561778,0.360117,-0.762999,-0.533754,0.260293,-0.861773,0.0975384,0.199632,-1.00597,0.558371,-0.0681359,-0.245883,0.714435,0.377469,0.367222,0.605552,-0.75162,0.87495,0.670447,0.476903,-0.523091,-0.953033,0.651785,-0.849442,0.597427,-0.385931,-0.604743,0.595097,-0.197965,-0.0975713,0.217678,-0.312585,-0.453491,-0.166786,0.647951,0.285677,-0.241671,-0.453425,0.317967,-0.819074,0.239549,-0.358957,0.878606,0.197408,0.930393,-0.0673136,0.554084,-0.0783931,0.0699306,-0.860154,0.0971407,-0.449536,0.558329,-1.01953,0.260799,0.267526,-0.63454,-0.991548,0.167515,0.470458,0.0564737,0.193565,0.235857,0.503695,-0.532523,0.0982034,0.688117,-0.440249,0.458775,-0.0805947,-0.969386,0.0881471,0.449599,0.584017,0.721505,-0.313256,0.312139,-1.04924,0.529091,0.174445,-0.570798,-0.292646,0.956183,-0.0847122,0.297963,0.260772,-0.350319,0.347102,0.906113,0.721512,0.300832,0.205904,0.182189,0.77208,0.288554,0.393855,-0.050756,0.513378,-0.862375,0.243719,-0.474298,0.0929257,0.0463504,-0.219416,-0.507574,0.536215,-0.261895,-0.87284,-0.630704,-0.591759,0.561564,0.438539,0.835768,-0.0320111,-0.916191,-0.111819,-0.196843,-1.03232,0.688264,-0.20099,-0.489333,-0.513655,-0.0858133,0.299216,-0.785104,0.192096,-0.505795,-0.438407,-0.959133,0.11968,-0.722382,0.646452,-0.78875,0.9067,0.377828,0.312412,-0.1535,0.316715,0.927142,-0.498668,-0.484871,0.650319,0.33284,-0.576071,-1.03313,-0.538727,0.102264,0.771824,-0.31578,0.720761,-0.691581,0.902712,-0.895216,0.600748,-0.876395,-0.232992,0.720139,-0.424811,0.259455,0.695055,0.454634,0.289943,0.303399,0.427298,-0.0545948,0.374524,-0.775446,-0.752784,-0.756832,0.185171,-0.446594,0.0305319,0.110598,
-0.391084,0.842029,-0.411706,-0.920833,0.391324,0.358201,-0.154561,-0.870741,0.697586,0.875844,0.174428,-0.351784,-0.910966,0.25691,-0.397959,-0.94924,0.0458829,-0.618926,0.387723,0.629897,-0.0190132,-0.309746,0.32731,0.161555,-0.276842,0.0715863,0.435681,-0.0804673,-0.223352,0.963749,-0.981437,-0.0872764,-0.626157,0.263346,0.721615,-0.888823,0.423078,0.0753504,-0.83934,-0.0997134,0.934608,0.594765,0.370803,-0.348006,0.281794,0.648687,-0.928195,0.855496,0.8201,-0.0975873,0.509305,-0.835356,0.770448,0.759855,0.486084,-0.746854,-0.0995758,-0.710139,-0.117355,0.0357656,0.798093,0.308714,0.0800084,0.352341,-0.90398,-0.60388,0.532144,-0.887589,0.941285,0.534828,0.149633,-0.224859,-0.33692,-0.0880103,0.524596,0.816142,-0.379799,0.201392,0.443126,0.803152,0.606031,-0.514984,-0.607624,-0.468055,-0.861448,-0.755044,-0.197226,-0.456397,0.0631983,-0.344125,0.0409279,-0.476553,-1.0229,-0.311171,-0.946346,-0.796824,0.722504,0.816591,-0.293525,0.504062,-0.972709,0.225916,0.49208,0.407528,0.674012,-0.450859,0.790197,0.269631,-0.275497,-0.934434,0.926027,0.410454,-0.834183,0.658361,0.0137168,0.903609,0.146513,-0.134529,-1.01211,0.235584,0.633697,-0.779741,-0.231571,-0.0691561,-0.39753,0.250763,-0.113416,-0.237872,0.892238,-0.538471,-0.134948,-0.688308,0.0233305,-0.843041,0.537962,0.0143604,0.744244,-0.496149,0.0355885,-0.0856152,0.635593,0.152467,-0.852853,-0.972886,-0.648052,0.359398,0.977176,0.848089,0.952929,-0.809286,0.631226,-0.701349,0.632411,-0.494887,-0.0224568,-0.372692,0.0137958,0.858864,-0.445273,0.851543,0.774776,0.885217,0.206995,-0.251706,-0.370494,-0.82509,-0.12585,0.0344665,-0.0488217,-0.138979,-0.171589,0.331373,-0.472181,0.565541,0.32826,-0.648981,-0.761922,0.218941,-1.0319,0.377106,-0.428996,-0.611002,0.397777,-0.334152,-0.627413,-0.128428,-0.235773,0.683712,-0.202844,-0.0949937,-1.04064,0.69783,0.533172,-0.598934,-0.968384,-0.137803,-0.663176,0.615051,0.725052,-0.227503,-0.702365,0.920982,-0.849665,-0.481556,-0.351531,-0.329913,-0.830315,-0.430073,-0.719525,-0.185589,-0.0774442,-0.199676,0.215392,-0.233201,-0.5855,-0.287999,0.273568,0.572713,0.559646,-0.745658,0.336701,-0.979907,-0.0420475,-0.756861,0.645468,-1.03864,0.432496,0.355796,-0.37034,0.800062,0.906856,0.0389508,-0.624523,0.657904,-0.783653,0.466517,0.234971,-0.385733,0.306661,0.0151598,-0.604574,0.84841,-0.646787,-0.700495,-0.0617587,-0.654478,0.80128,0.978979,-0.0134331,-0.364531,-0.840517,0.682126,-0.789518,0.192844,0.126091,0.256053,0.230951,0.288451,0.577061,-0.129092,0.921009,0.514108,-0.741872,-0.149042,-0.0309458,0.765238,0.600829,-0.0614348,0.13446,0.956282,-0.57735,-0.944166,0.234065,0.54649,-0.354104,0.499119,-0.500681,0.727037,-0.555882,0.315576,-0.485706,0.9824,-0.949709,0.203423,-0.460866,0.821965,0.528777,-0.675938,0.920924,-0.440194,-0.233638,0.594415,-0.26688,-0.205137,-0.0704227,-0.223695,0.344905,-0.698822,0.691769,0.163562,0.769154,-0.361496,0.711148,-0.746428,0.647589,-0.285325,-0.915217,0.738646,0.260254,-0.0136059,-1.00845,-0.875993,0.277856,-0.665923,0.617284,0.732816,0.968792,-0.558615,-0.297453,0.929041,0.202728,-0.90464,-0.675688,-0.168493,-0.725325,0.952405,-0.672971,-0.273658,-0.944375,-1.01829,0.79539,0.67167,-1.03622,0.475785,-0.896596,0.919203,-0.36439,-0.865686,-0.668776,-0.484439,0.764533,-0.310667,-0.038318,-0.49938,0.714628,0.20865,-0.194694,-0.994633,-0.777826,-0.249148,-0.973252,0.824502,-0.893804,0.535699,0.426069,-0.185124,-0.892029,-0.993301,-0.376267,0.436299,0.558513,-0.625647,0.275081,0.52423,-0.144634,-0.31158,-0.195323,0.807384,0.915454,-0.0571518,0.925898,0.518701,-0.0163797,-0.729828,0.622111,0.523925,0.823645,-0.594425,-0.704973,-1.02225,-1.00822,-0.194762,0.756422,0.635583,-0.194048,-0.086399,-0.45582,-0.691098,0.526186,-0.557515,-0.410231,-0.379909,
0.774353,0.376953,-0.970771,-0.939197,-0.661271,0.739349,0.534896,-0.141592,0.483042,-0.547963,-0.178239,0.774762,0.490754,0.193523,-0.872588,-1.02822,-0.33565,0.969514,0.855263,0.230746,-0.0606945,0.856272,0.284655,-0.160335,0.723793,-0.887709,-0.279095,-0.275952,0.252729,0.565555,0.780371,0.86018,0.308281,0.629447,0.645107,0.693931,-0.512559,0.427586,0.814684,0.748083,-0.936086,-0.522337,-0.0921302,0.422227,0.673777,-0.316963,-0.0526655,-0.879755,0.413846,0.411415,0.952928,-0.983549,0.893257,0.311279,0.563216,-0.680744,-0.43951,0.63594,-0.365176,0.199629,-0.584654,0.264505,-0.262954,0.92795,0.195626,0.532111,0.0964362,-0.973095,-0.607062,-0.496572,-0.996098,0.473407,-0.943785,-0.0590372,-0.42545,0.41688,-0.389594,0.701872,-0.681413,-0.248076,0.916029,0.380286,-1.05981,-1.03791,0.722672,-0.694885,-0.640568,-0.863036,-0.116693,-0.0183869,-0.997898,0.0896791,0.728851,-0.0934209,0.128553,-0.0295098,-0.422805,0.502985,0.85429,0.346063,0.543121,0.673894,-0.257514,0.23596,-0.582236,0.777005,-0.535915,-0.526429,0.189649,-0.309078,-1.03065,0.928481,-0.608667,-0.781217,0.037343,-0.179667,0.635726,0.900849,-0.914869,-0.483092,-0.840056,-0.0248595,0.822717,-0.920572,0.263024,-0.787723,0.828203,-0.151239,0.785628,0.202515,-0.62221,0.737646,-0.297139,0.341194,-0.0675251,0.827145,-0.526841,-0.819515,0.513589,0.417754,-0.857813,-0.117846,0.537218,-0.524501,0.312357,0.876517,0.545797,0.507801,-0.113859,-0.562999,-0.106243,-0.725934,-0.13619,0.621491,-0.88853,-0.568947,-0.504509,-0.982431,0.246192,-0.204397,0.0861924,0.898955,-0.403927,-0.880122,-0.148157,0.559168,-0.65972,-0.772091,-0.0194275,0.972203,-0.301685,0.565998,0.18396,-0.202991,-0.0381474,0.196505,-0.61279,-0.753306,-0.170451,-0.179963,0.136342,-0.159708,-0.564772,-0.0811516,-0.292668,-0.481873,-0.275878,0.752004,0.949363,-0.987282,0.616585,0.703741,0.882239,0.579113,0.0959459,-0.0677033,0.182357,-0.362931,-0.671221,0.474506,-0.227892,0.414544,-0.719461,-0.61745,-0.837717,0.408654,-0.313522,-0.471744,0.968099,0.385548,0.876467,0.917382,0.416501,-0.957826,-0.494091,0.897446,-0.862035,-1.03301,0.143289,0.592145,0.531421,0.101829,-0.697883,0.301731,-0.0668723,-0.252716,0.668506,-0.843213,0.868403,0.7722,-0.679306,0.281547,-0.797659,-0.0435553,-0.449846,-0.165509,-0.191304,-0.676796,-0.618854,0.742925,-0.656589,0.496193,0.923053,0.0229486,0.293452,-0.234479,0.452109,0.135111,0.596636,-0.981499,0.462313,-0.918032,-0.0705835,0.746792,0.911796,0.563631,0.542269,0.789796,0.496132,-0.020508,0.423239,-1.04347,0.732923,0.825004,-0.156145,0.615702,0.573912,-0.774788,-0.479483,0.460428,0.342882,0.556292,-0.639058,-0.839371,-0.941324,-0.851424,0.784289,-1.0192,-0.297114,-0.319966,0.942312,-0.781854,0.86992,-0.398333,0.246631,0.478766,-1.07066,-0.324592,0.0783865,0.888178,-0.231644,-0.959014,-0.9822,-0.480627,-0.420066,-0.181237,0.263698,-0.36799,0.494771,0.827442,0.304048,-0.731536,0.724188,0.114586,-0.257539,0.712128,-0.532372,-0.168141,0.304711,-0.450757,0.836313,-0.509767,0.784324,0.333255,0.459211,-0.998333,-0.838436,0.671257,-0.0833109,-0.211425,0.622021,-0.0147746,0.654,-0.513076,0.864312,0.8471,0.755283,0.646122,-1.02037,-0.890205,0.0937778,-0.199831,0.452365,0.666346,0.715335,0.717361,-0.210667,0.237173,-0.467404,-0.917622,0.107278,0.843187,0.589953,-1.06464,0.869043,0.362701,0.792734,0.447423,0.913574,-0.312498,-0.156293,0.692624,-0.982748,0.252346,0.770006,-0.749201,-0.906149,0.65593,-0.506015,-0.498254,-0.167418,0.488211,-0.189723,-0.207492,0.120282,0.0507365,-0.354745,0.242642,-0.466371,0.561308,0.925791,-0.848408,0.0457305,0.219956,0.374898,0.903255,-0.30559,0.434929,-0.236735,0.812494,-0.741129,-0.224353,0.741075,-0.0981609,-0.438108,0.431895,-0.673271,0.735711,-0.957411,0.836598,0.502711,-0.368015,
0.456726,-1.0076,-0.586104,0.220738,-0.10951,-0.91824,0.0588966,-0.479047,0.227333,0.0978606,-0.459606,-0.338561,-0.861273,-0.525877,0.348548,0.346538,0.693755,0.164617,-0.0353283,-0.0481901,0.888342,-0.934497,0.147628,-0.0497683,-0.702393,0.783253,-0.834007,-0.0520915,0.96323,-0.687066,-0.913339,-0.236404,0.176148,0.579962,0.676167,0.924052,-0.292199,0.931384,-0.762046,-0.607326,0.911149,0.517813,0.849015,-0.617201,-0.975333,0.710384,-0.123488,-0.0180093,0.287239,-0.811461,0.646392,0.141922,-0.411253,0.703252,0.432084,0.493993,0.319061,0.205912,0.0263467,-0.272987,-0.127736,-0.662843,-0.597676,0.413767,-0.943331,-0.476575,-0.154242,0.167689,0.9301,0.883288,-0.125819,0.520982,0.731142,0.119545,0.652989,-0.269419,-0.152336,-0.140524,-0.631346,-0.836095,-0.904014,-0.243118,-0.534415,-0.311408,0.914014,-0.491137,-0.865793,0.0858957,-0.994513,0.597199,-0.256982,0.266473,-0.926079,0.843355,0.065913,0.632732,-0.961703,0.099137,-0.474195,-0.835051,-0.524503,-0.295714,-0.321239,0.937991,0.108357,-0.645096,0.636891,-0.195649,-0.650324,0.448384,0.748936,-0.117633,0.91368,-0.314356,-0.956432,0.62464,0.746301,-0.0876568,0.841903,0.913281,-0.582175,0.533994,0.782475,0.503983,-0.69851,0.910007,-0.713173,-0.779358,-0.439397,-0.188534,-0.562583,-0.969037,0.040715,-0.0859094,-0.137149,-0.43558,-0.789617,-0.990777,0.822909,0.776737,0.439196,0.86235,-0.329301,0.89306,0.820705,-0.936176,-0.0668694,-0.327684,-0.24716,-0.199392,0.0486442,0.642752,-0.772009,-0.472419,0.398315,0.0617356,-0.440239,-0.0325191,-0.051632,0.904814,-0.432338,0.697462,0.526892,-0.0666776,-0.420879,-0.424238,0.220874,0.218825,0.0851917,-1.00073,0.852236,-0.975063,-0.772442,-0.403445,0.318991,0.649739,-0.162568,-0.65295,0.103179,0.860826,-0.473265,-0.0766197,-0.524632,0.371482,0.820462,0.117422,-0.729353,-0.904487,0.415178,0.910333,-0.601299,-0.800897,0.492833,-0.285805,0.282119,-0.460279,0.0715661,-0.563626,0.243259,0.779268,-0.807135,-1.01233,-0.665953,0.905886,-0.129514,0.114126,-0.419696,-0.187672,0.131516,-0.289249,-0.130754,-0.98524,0.0816507,0.484586,0.701799,-0.852018,0.225624,0.284209,0.689377,0.159092,-0.247918,-0.778644,-0.138316,-1.01426,0.737694,0.313889,-0.547258,0.131178,0.680285,0.573445,-0.0236324,-0.300615,-0.595435,0.926587,-0.0743056,0.899458,-0.832247,0.875383,-0.260666,-0.621975,0.429331,-0.793354,-0.264178,0.263611,-0.903326,-0.649535,-0.399944,0.546122,0.611118,0.980228,0.383578,-0.677965,0.849962,-0.0850765,0.885823,0.617787,-0.229395,0.559316,-0.705332,-0.751129,-0.450408,0.953252,0.586718,-0.432065,-0.956085,0.642559,-0.793698,0.907331,0.12165,0.36506,-0.363567,0.564103,-0.803307,0.351603,0.138067,0.294458,-0.619267,-0.49031,-0.478026,0.703958,0.418528,-0.853733,-0.650672,-0.962936,0.30838,-0.317606,0.368957,-0.776108,-0.0939908,0.581069,0.509372,0.633792,0.207445,-0.381987,-0.255636,-0.761573,0.637293,-0.673391,0.627059,-0.859215,0.800667,-0.92642,-0.797163,0.336052,-0.445137,-0.806573,-0.86821,0.560224,-0.255023,-0.440163,-0.860266,0.077394,0.901924,0.626892,-0.0525465,-0.149167,0.329949,0.136367,0.639584,-0.884964,0.0241914,0.31292,0.695294,-0.973962,-0.74127,-0.753262,0.0221427,0.429477,-0.177476,-0.316654,0.605307,-0.0646653,-0.146148,-0.388638,0.281714,-0.590568,0.595586,0.647298,-0.133037,0.261303,0.513399,-0.368547,-0.997188,0.168216,-0.283653,-0.883507,-0.793912,0.0811597,-0.355187,-0.791356,0.195841,0.731989,0.786502,0.0637619,0.308545,0.0710736,0.556731,-0.956804,-1.00161,-0.577227,-0.0405362,-0.9616,0.880525,0.0627675,-0.526257,0.0172535,0.595533,0.220842,0.20553,-0.893415,-0.360126,0.605754,0.864911,0.810629,0.589515,-0.847401,-0.66213,-0.144161,0.140801,-0.658224,0.891347,-0.615203,0.141425,0.344334,-0.595377,0.774624,0.498042,0.0207454,0.847503,-0.622838,0.728237,-0.536686,
-0.547713,0.324708,0.708886,-0.559756,0.181973,-0.652196,0.928399,0.283616,-0.829818,-0.149701,-0.622528,-0.352698,0.962593,0.783153,-0.132632,0.73817,-0.179483,0.620377,-0.728241,-0.947221,0.398515,0.545241,-0.956148,-0.949309,0.0882017,0.169177,0.777258,-0.489987,0.138671,-0.970978,-0.893046,0.556384,-0.817073,-0.703555,-0.523613,-0.876509,-0.222124,-0.995938,0.791599,-0.572995,-0.651152,-0.716955,-0.821036,-0.71132,-1.02705,-0.101879,-0.457338,-0.636951,0.453334,0.516129,-0.805492,-0.525301,-0.343805,0.149103,0.913523,-0.0837559,-0.806388,-0.734221,0.704231,0.621092,-0.874476,-0.732861,0.124436,-1.02793,0.495755,-0.796438,0.452947,0.809658,0.486859,0.214764,-0.248218,0.900412,-0.812736,-0.674054,0.893113,0.863268,0.195348,0.0937021,0.453279,-0.714246,-0.986758,0.64183,0.516885,0.310647,-0.038338,-0.504261,-0.587672,-0.113905,-0.656712,0.905697,0.977425,-1.01476,0.592501,-0.314112,-0.268681,-0.438179,-0.316305,-0.0593724,0.405239,0.224358,-0.118594,-1.02166,0.105223,-0.481906,0.692919,-0.993792,0.490856,-0.126584,-0.593538,-0.0751008,-0.392638,-0.641078,0.0129257,0.732335,0.0968257,-0.853876,-0.0784728,-0.742834,0.524827,-0.237507,0.421783,-0.109758,-0.700585,0.895949,-0.744099,-0.610475,0.686138,0.190067,-0.391909,0.0234038,0.871728,0.844864,-0.550483,-0.328666,-0.174032,-0.642209,0.472783,0.242083,-0.811554,0.209645,-0.99717,0.629803,-0.539315,0.132277,-0.414103,0.366879,0.332281,0.0264094,-0.350027,0.124967,0.28521,-0.678568,-0.276243,-1.00645,-0.733235,-0.269939,0.348322,-0.813833,-0.346885,-0.840253,0.200605,0.305063,0.707168,0.520532,-0.483214,0.0246629,0.2895,0.113134,-0.600821,0.92628,0.562889,0.862019,0.453288,-0.808889,-0.11703,-0.959722,-0.421954,0.214221,-0.41765,0.708809,-1.01062,0.883738,-0.587586,0.40277,-0.094756,0.289221,-0.267518,0.9649,-0.138174,0.460369,0.801629,0.447493,0.319045,-0.31428,0.723242,0.544395,0.774523,-0.7795,0.642092,0.962025,0.179815,0.877912,-1.03617,0.634557,-0.883236,-0.397424,-0.73373,-0.433176,-0.615356,-0.443164,0.86306,-0.90576,0.46006,0.856746,-0.28576,0.123853,-0.0598264,0.522212,-0.406481,0.562573,0.0524679,-0.69359,-0.0878041,-0.904233,0.487517,0.402596,-0.793507,-0.699855,-0.0397672,0.552557,-0.570155,0.424173,-0.508926,0.837298,-0.592149,0.854363,0.438265,0.872542,0.672478,-0.124478,-0.796636,-0.889169,0.835725,-0.241169,-0.5987,-0.138188,-0.49436,-0.444214,0.426759,0.775731,0.499278,-0.677167,-0.0419736,0.612893,0.895398,0.8938,-0.914636,-0.039665,-0.145808,0.564698,0.484323,-0.905409,0.296948,-0.281101,0.358676,0.314475,-0.720058,-0.191979,0.663134,0.239346,-0.0980164,-0.656218,0.212155,0.944844,-0.897113,-0.890116,-0.360514,-0.119107,-0.155989,0.0590445,0.53596,0.126468,-0.106234,0.605753,-0.821346,0.185004,0.944722,0.724077,-0.633632,-0.606925,0.759284,0.883388,-1.00379,-0.666943,0.448552,0.844432,0.777858,0.148539,-0.880231,-0.664794,0.559918,-0.951595,0.40693,-0.536779,0.895332,-0.107308,-0.953968,0.608514,0.369732,0.831647,0.407799,-0.244928,-0.441497,0.253987,-0.29717,-0.216461,-0.58614,0.188496,0.856278,0.606147,-0.916061,-0.485025,0.0566701,0.760886,-0.0655554,0.724994,-0.636396,-0.615814,-0.608531,-0.1688,-0.732988,0.153415,0.0501639,-0.292007,0.15812,0.518145,-0.549521,0.814596,-0.0689174,0.0779743,-0.358721,-0.174866,-0.899553,0.390911,0.426042,0.864956,0.597286,0.274292,0.340294,0.242048,-0.778305,-0.868689,0.730069,0.507976,-0.352458,0.246396,-0.105897,0.94532,0.53931,0.213614,0.296179,0.470254,-0.638292,-0.25519,-0.287472,-0.67154,0.857746,0.285876,0.345498,0.942125,0.0554321,-0.518676,-0.561962,0.363454,-0.198692,-0.984557,-0.270413,-0.120466,-0.410019,0.186008,-0.582552,0.807653,-0.683655,-0.620429,-0.983168,-0.787013,0.0466671,-1.03614,0.355002,0.392735,0.745679,0.310245,
-0.811011,-0.766322,0.680853,-0.6078,-0.805196,0.396807,0.830065,-0.242444,-0.445395,0.228628,0.879514,0.155477,0.0931539,0.775744,0.108436,-0.649715,-0.57445,-0.874903,-0.775847,-0.492724,0.884318,0.336668,-1.01195,-0.677515,-0.145994,0.927418,-0.855854,-0.321438,-0.50122,0.183863,-0.510861,-0.642334,-0.972307,-0.0806084,0.0205815,-0.523586,0.408072,0.67988,0.516753,-0.851706,-0.0484818,-0.72883,-0.598709,0.0847046,0.22033,-0.151754,0.518131,-0.361896,-0.163325,0.124559,0.210381,0.221279,0.669434,-0.958853,0.601037,0.168312,0.642651,0.0706451,0.633397,-0.646473,-0.475437,-0.6395,-0.614747,0.157738,-0.45177,-0.0362112,-0.886169,0.797178,-0.462258,0.907241,-0.981397,0.169713,0.82796,-0.212287,-0.565274,-0.589714,-0.856106,-0.616359,-0.10477,-0.0566572,-0.110624,0.555012,0.871778,0.712733,-0.345158,-0.0821694,0.881926,-0.476842,-0.4346,-0.594385,0.82947,0.566159,0.716103,0.859375,-0.345597,-0.510747,-0.139525,0.667781,-0.657278,-0.31127,0.540341,-0.35002,0.343986,0.251091,-0.727803,0.407933,-0.308644,0.628106,0.0437985,0.0280365,0.544233,-1.00749,0.142208,-0.0176284,0.26501,0.948091,-0.187535,0.53759,0.528853,0.866658,-0.781012,-0.631834,0.259381,0.902481,-0.959923,-0.808579,0.568651,-0.0403852,-0.287805,-0.820284,0.197375,0.67282,-0.435152,0.530656,0.227899,-0.0299406,0.456627,-0.87302,-0.696013,0.357028,0.11631,0.675614,-0.163614,0.337311,-0.48952,-0.417366,0.719502,0.562373,-0.959136,0.314843,0.378618,0.553452,0.224152,0.0267343,-0.869896,0.483433,0.458774,-0.478166,-0.377093,-0.652905,-0.774665,0.640158,0.434806,0.24696,-0.526037,0.144319,0.159118,-0.939021,0.502221,0.952194,-0.740561,-0.799269,0.14749,0.215779,0.45303,-0.851435,-0.525048,-0.907847,-0.616253,0.331148,-0.307505,0.33791,-1.016,-0.817506,0.553746,0.432835,-0.430275,-0.140252,-0.751842,0.236559,-0.898162,0.785993,-0.1031,0.0604261,-0.716032,-0.442727,-0.667848,0.795247,-0.328837,-0.480004,0.0951216,0.68825,-0.646361,0.496332,1.00606,0.69224,0.80857,-0.745072,-0.464435,-0.146718,0.436333,-0.37861,-0.681227,-0.389114,-0.929458,0.0474427,0.376909,0.317752,0.131804,-0.62677,-0.458023,0.264276,-0.710386,-0.544219,0.429505,-0.0227758,-0.0942499,-0.758729,-0.858313,-0.47846,-0.983764,-0.807695,0.553816,0.829759,-0.940149,-0.600798,-0.041885,0.224483,-0.640756,0.60988,0.635537,-0.401309,0.252867,0.206262,0.305314,0.715025,-0.467404,-0.883253,-0.626857,0.0902564,0.482292,-0.256473,0.131735,-0.530374,-0.225273,0.123828,0.415362,0.806397,-0.597443,-0.470767,-0.755597,-0.966681,-0.93183,-0.772892,0.474939,0.165698,-0.513906,-0.794155,0.412365,0.474839,-0.685796,-0.430481,-0.638783,-0.0263034,0.529535,-0.0216579,-0.346834,0.7331,-0.655022,-0.0200958,0.459677,0.778452,-0.937998,0.35895,-0.0922418,0.536821,-0.978382,-0.148537,0.693795,0.798494,0.278961,-0.302471,0.418387,0.685801,-0.955989,0.826859,-0.681796,0.333989,0.0374705,0.363537,0.932988,0.527336,-0.731857,0.877473,-0.655573,0.604026,0.545378,-0.482565,-0.155771,0.104596,-0.120918,-0.0272441,0.0421362,0.0247347,-0.638528,-0.312175,0.02147,0.35558,0.392115,-0.576067,-0.578346,0.579262,-0.123075,0.270372,0.14757,-0.423428,0.718647,-0.225984,0.374533,-0.996144,-0.780988,-0.916433,-0.427837,-0.272896,0.877971,-0.31158,0.155824,-0.466695,-1.01954,0.750217,0.21125,0.0405807,-0.965552,0.171624,-0.79754,-0.118436,0.541776,0.0456797,-0.93358,-0.0919812,0.438857,0.169508,0.723221,-0.371781,0.914439,-0.179696,-0.302778,-0.269952,-0.578167,0.368185,0.818849,-0.565333,-0.133661,0.308062,0.211493,-0.186728,0.891996,0.735702,-0.563934,0.710879,0.171708,0.550308,-0.39981,-0.919359,0.362783,0.993232,-0.417318,-0.276245,-0.452432,0.522466,0.607177,0.58469,-0.438837,-0.0152352,-1.01237,0.580461,0.828558,0.12104,0.786649,0.26518,-0.842259,-0.652929,
-0.516293,0.42849,-0.91344,0.195929,0.0701058,-0.509863,-0.332607,0.353753,-0.523107,0.96308,0.529117,0.276222,-0.647178,-0.394192,-0.389133,-0.627242,-0.600152,0.193365,0.861615,0.108882,0.156005,-0.854108,-0.299864,-0.416847,0.0659452,0.738132,-0.485424,0.161541,0.456187,-0.839573,-0.328617,-0.342069,-0.0878871,0.0337864,-0.164224,0.524182,0.944907,0.57287,0.416272,-0.13619,0.787581,0.991843,-0.843623,0.464323,0.723664,0.62512,-0.714398,-0.569344,0.167503,-0.319371,-0.535213,-0.0275188,0.122564,-0.343737,-0.743974,-0.0369958,0.426339,-0.0609895,0.080429,0.750139,0.303853,0.871815,-0.0360588,-0.700578,-0.155162,-1.00017,0.833707,0.884668,-0.37667,-0.739195,-0.765456,0.441937,0.118088,-0.0968146,0.299174,0.704058,-0.0926964,-0.867525,-0.274957,-0.820054,-0.544687,-0.662699,0.341003,0.359059,0.394096,0.892769,-0.743744,-0.0346048,-0.122587,0.193737,0.500541,-0.066759,-0.322482,-1.01591,-0.591733,-0.87165,-0.118669,0.636221,-0.265204,0.18013,-0.819002,-0.436644,-0.40295,0.887821,0.140065,0.186954,-0.938942,0.996972,0.67564,0.723183,-0.679223,-0.903174,-0.907054,-0.143683,0.318148,-0.0923923,0.971873,-0.665286,0.932468,-0.881029,0.693654,0.369195,-0.466386,-0.777334,-0.454947,0.276099,0.833162,0.463214,-0.302141,-0.149601,-0.232608,0.482749,0.788136,0.4827,-0.289708,-0.545363,-0.11591,-0.130174,-0.378961,0.100105,-0.857309,0.344154,0.0628281,-0.699544,0.781166,-0.435604,0.0539856,-0.349068,0.248418,0.86992,0.320369,-0.459883,0.673828,-0.905263,0.642775,0.453863,0.935977,-0.675056,-0.884327,0.610868,-0.928558,0.665591,0.482127,0.276722,-0.520548,-0.209579,-0.289018,-0.115554,0.497951,0.548975,0.527327,0.760379,-0.538362,-0.527932,-0.391592,0.224345,-0.962505,0.143771,0.396608,0.518215,0.545789,-0.351424,0.863133,-0.720233,0.802858,-0.401317,0.790152,-0.73834,0.393867,-0.306689,-0.668705,0.809017,-0.234931,0.924623,-0.455422,-0.601523,-0.36309,-0.719789,0.28773,-0.377248,-0.666805,-0.988114,0.239203,-0.279866,-1.01162,-0.673536,-0.339884,-0.709703,-0.964008,-0.336838,0.438719,-0.0438874,-0.401908,-0.802355,0.529282,-0.676331,0.300865,-0.486325,-0.431809,-0.934293,-0.979989,-0.816034,-0.172147,0.428043,0.801463,-0.755063,-0.48944,0.541545,0.647088,0.09786,-0.749955,0.505799,0.506091,0.76595,-0.862088,0.640619,-0.862239,-0.392636,-0.930715,-0.741705,-0.302282,0.810251,0.0266453,0.971718,-0.019989,-0.133422,0.918353,-0.317469,0.600811,-0.293833,0.0189105,0.793228,-0.287468,-0.0361406,0.659887,-0.782438,0.965633,-0.0555393,0.070485,-0.358885,0.545231,-0.407611,-0.883796,-0.372331,0.888616,-0.71314,0.448397,-0.253002,0.634896,0.69492,0.460508,0.383163,-0.770192,0.396819,-0.862219,0.715901,-0.226697,0.964731,-0.976506,-0.717938,-0.392288,0.868725,0.800052,-0.928696,0.306134,0.570721,-0.303095,0.214865,-0.781079,-0.78668,0.891564,0.635921,0.736525,-0.300079,0.448946,-0.120999,0.870953,0.891652,-0.235328,-0.150605,0.86336,0.953132,-0.966338,0.873887,-0.536377,0.930037,-0.159257,-0.791988,0.243735,-0.46494,-0.113879,0.888618,-0.266182,-0.562504,0.709229,0.939927,-0.924498,0.0693089,-0.202231,-0.0854835,-0.272495,0.204083,-0.581546,0.341337,0.57185,0.0555056,0.723757,-0.649606,-0.0794141,0.157886,0.466411,-0.723823,-0.0903327,0.910312,-0.923581,0.370754,-0.489771,0.789489,-0.180654,-0.171705,-0.320357,-0.815914,-0.602421,-0.861468,-0.729262,-0.726744,-0.0192394,-0.601192,0.367999,-0.536351,-0.448247,-0.0621832,0.0401956,-0.11776,-0.648377,-0.764653,-0.281465,0.0422686,0.407834,-0.781306,0.279305,-0.531977,-0.249604,0.219938,-0.0787852,0.685862,1.00264,-0.3039,0.0317257,0.779469,-0.185386,0.398278,-0.514412,-0.0530649,0.790847,0.585599,-0.901959,-0.484899,0.897579,0.0567117,0.265635,-0.67443,0.483354,0.808182,-0.234391,-0.21647,1.00178,-0.30512,-0.859699,0.148501,0.99355,-0.903043,
0.120882,-0.490034,-0.4476,-0.10093,0.422257,0.975504,0.126828,-0.521717,0.37684,-0.796858,0.276391,0.0331845,-0.089113,0.295119,0.145941,0.684265,-0.0833836,0.943195,0.890026,-0.383199,-0.720848,-0.0822904,-0.661129,0.461704,-0.378136,-0.649545,0.736217,-0.0294382,-0.0312349,-0.484358,-0.361462,-0.360506,-0.417589,-0.100126,0.790332,0.374492,0.852204,0.993924,-0.104067,-0.70839,0.192881,0.0690253,-0.458309,0.615584,0.792787,-0.380485,0.678814,-0.934026,0.132516,0.955167,0.438374,0.566815,-0.85736,-0.233378,-0.641968,0.685673,0.702698,-0.897862,-0.0618093,-0.409522,-0.401602,-0.568494,-0.501592,0.318086,0.408887,0.773716,0.490847,-0.378035,0.604416,0.0499224,0.394669,-0.918039,0.499125,-0.830798,-0.22166,0.787735,0.52737,0.347016,-0.183256,-0.267129,-0.3777,-0.827685,-0.142458,0.156709,0.324259,-0.391918,0.0821888,0.390038,0.724781,-0.766015,-0.756208,-0.831273,-0.828211,-1.01278,0.359414,0.0919898,0.435263,-0.234306,0.15975,-0.0395928,-0.640664,0.110865,-0.645489,-0.52917,-0.735893,-0.04989,-0.64557,-0.625154,-0.380664,0.612451,0.787595,-0.0527536,-0.967411,-0.453256,0.0202851,0.620552,-0.559794,0.561614,-0.726717,0.533945,0.973439,0.961286,0.516588,0.801498,0.659279,0.839442,0.982948,0.0477829,0.917643,-0.359929,-0.912309,0.990608,-0.927128,0.37132,-0.989565,0.224876,-0.503487,-0.27501,-0.562756,0.081027,0.476506,0.888225,-0.0618123,-0.21299,-0.245421,-0.817572,0.987534,-0.929076,-0.889794,0.584913,0.125543,-0.44687,-0.241647,0.832749,-0.308975,-0.109212,0.597323,0.62406,-0.847846,0.918496,0.257291,1.00158,0.558292,0.451583,0.426657,0.775398,0.102927,0.0203689,-0.993534,0.105323,0.976577,-0.981535,0.044477,0.259888,-0.941958,0.407917,-0.739825,0.090233,-0.226608,0.900305,0.629022,0.856025,-0.942699,-0.247519,0.596698,-0.901425,0.336694,-0.311361,0.1724,0.931783,-0.71447,0.0639611,0.877987,0.516368,0.682129,0.847934,-0.755449,0.680932,-0.602983,-0.430959,0.616466,-0.322601,-0.88173,-0.799262,0.544091,-0.0844025,0.767658,0.139204,-0.930189,0.318628,-0.770158,-0.712285,0.0707207,0.606123,0.864083,0.0321099,-0.412708,0.827016,-0.040647,-0.730113,-0.107435,-0.0488346,-0.662329,0.947397,0.775223,0.688819,-0.824836,0.937741,0.185095,0.542151,0.369143,0.609812,-0.412008,0.714603,-0.405228,-0.318895,0.801088,0.600341,0.367048,0.0722496,-0.418169,-0.777313,0.212074,0.631018,0.693017,-0.426602,0.592757,0.952938,-0.399763,0.347022,-0.0546378,0.495188,-0.167493,0.881345,0.494591,0.252132,0.109588,0.238166,0.367839,-0.897756,-0.455317,0.480228,-0.240925,0.693457,0.552011,0.616637,0.849836,0.417888,-0.347974,0.562045,0.756135,0.643192,0.638092,0.348845,-0.335709,-0.756491,-1.00523,-0.594863,0.0912599,-0.169035,-0.193645,-0.561853,-0.781071,0.772226,-0.603199,0.714721,0.884377,0.224432,-0.889118,-0.487154,-0.720741,-0.494043,-0.240151,0.514261,0.554686,0.528458,-0.65382,0.595534,-0.611572,0.914495,-0.72369,0.491053,0.444591,-0.518609,-0.0758419,0.568381,0.827736,-0.780035,0.634346,0.169807,0.132282,0.0705415,-0.427244,0.879391,0.631692,-0.671964,-0.244133,-0.245781,0.0271969,-1.00417,0.494035,-0.756534,0.638307,0.47156,0.564804,-0.16628,-0.147019,0.800816,-0.784582,0.887976,-0.547638,0.0408184,0.0387182,-0.683268,-0.594705,0.0893176,0.164663,0.167173,0.363271,-0.617969,0.164039,-0.740783,0.762567,0.288903,0.148939,-0.529514,-0.465079,-0.0601239,-0.648775,0.641076,-0.94976,-0.698545,0.692935,-0.431867,0.338218,-0.0693991,0.136097,0.109115,0.328099,-0.300295,0.0189366,-0.168483,-0.448223,-0.465946,0.457435,-0.273028,0.498318,-0.911654,0.616415,-0.110416,0.111138,-0.346212,0.500739,0.163133,-0.910111,0.31517,0.173197,-0.873086,0.888957,-0.409961,0.254353,-0.232805,-0.227257,0.339424,0.525814,0.365146,-0.876887,0.59567,0.430053,0.730344,-0.840834,-0.884458,
0.0574712,0.117942,0.342177,-0.363593,0.0802586,0.529257,0.235037,-0.824461,-0.554302,0.703903,0.642898,0.489035,0.859683,-0.207342,-0.615931,-0.203109,-0.22627,-0.251164,0.636135,0.920634,0.414594,0.405207,-0.640702,-0.929947,-0.957424,0.727268,-0.634915,0.540228,0.986678,0.135059,0.171449,0.581766,0.194282,0.668878,-0.758153,0.650095,-0.420825,-0.594337,-0.233624,-0.703497,0.323646,-0.91509,-0.268967,-0.709828,0.276475,0.944957,0.873862,-0.852009,-0.265165,-0.481334,-0.285807,-0.524421,-0.647624,0.818992,0.819473,-0.178676,0.980312,-0.71227,-0.366596,-0.516023,-0.503716,-0.700651,-1.00056,-0.433721,-0.727513,0.222444,0.469711,-0.712911,0.594926,-0.555114,1.00015,0.0474899,-0.710797,0.576396,-0.808487,-0.257702,-0.4108,-0.847252,-0.802004,0.171858,0.792931,0.678907,-0.797227,0.0468004,0.889216,-0.221405,0.0677582,-0.846515,0.349482,0.860769,-0.775507,-0.171368,-0.962506,-0.880425,0.254902,-0.470456,0.87327,0.883019,0.744339,0.261979,-0.578403,0.087264,0.818236,-0.872088,-0.318466,0.71349,-0.453365,-1.00596,0.754406,-0.948587,-0.533989,0.767238,0.643444,-0.939549,0.754216,-0.504233,-0.989363,0.970357,0.286361,-0.494791,-1.0196,-0.707108,0.366022,0.679422,-0.231504,-0.269486,-0.187023,-0.119145,-0.571858,-0.2929,-0.180232,-0.425023,0.241003,-0.263313,-0.391308,-0.289659,0.484737,0.133214,0.701165,-0.468399,-0.38686,-0.89229,-0.137507,-0.187753,-0.407231,-0.628916,-1.01755,0.105868,0.424877,-0.78687,-0.625338,-0.922565,-0.591357,0.790732,-0.116171,-0.085834,0.190426,-0.775947,0.477863,0.0922475,0.423887,-0.191896,-0.41763,-0.350328,0.945137,0.462002,0.250128,-1.01888,-0.579041,-0.184346,-0.590181,0.260865,0.444895,0.165267,-0.15925,-0.810935,0.675662,0.41948,-0.784156,-0.0808841,-0.49788,0.0251722,0.923834,-0.524512,1.00523,0.196478,0.277661,-0.523117,0.744879,0.102679,0.0344983,0.614709,-0.409533,0.184379,-0.831173,0.301275,-0.731548,0.67654,0.553226,0.799183,0.291456,-0.510064,0.695851,0.327733,-0.16171,0.924812,-0.977059,-0.164839,-0.611722,0.885554,0.183844,-0.547716,-0.22491,0.806593,0.10041,0.0850429,-0.102169,-0.852069,0.821699,-0.201546,-0.140526,0.675333,-0.662355,-0.379696,0.104927,0.278607,0.385451,-0.572589,-0.838611,0.187479,0.720617,-0.887451,0.680757,-0.154585,-0.974159,-0.0488375,0.430292,-0.651259,0.236973,-0.740139,0.606472,0.846524,0.111228,0.171966,-0.576434,-0.592991,0.570379,0.429849,0.151803,-0.593897,-0.655436,0.134275,-0.0336338,-0.596594,-0.810347,-0.116189,0.607982,0.724352,0.59987,-0.245292,-0.252465,0.260191,0.0212762,0.714446,0.857924,0.253088,-0.158852,-0.805716,-0.81137,0.214957,-0.531927,-0.923497,-1.00172,0.150052,-0.383783,-0.186926,0.0803436,0.401583,0.750973,0.893978,0.224133,0.222855,-0.181697,-0.292708,-0.392157,0.541941,0.397245,-0.634252,0.86469,0.263193,0.0162245,-0.57258,-0.976314,0.0301539,-0.275411,-0.50307,-0.326843,0.166021,0.180182,-0.175194,-0.603832,0.635776,-0.385594,-0.185193,-0.712057,0.284502,0.93792,0.276373,-0.275193,-0.586612,0.636961,-1.00643,0.141268,0.66112,0.423858,-0.356512,-0.172417,-0.706692,0.679783,-0.600253,0.3587,-0.48893,0.743181,0.83934,0.842152,0.252945,-0.69992,-0.80959,0.509292,0.149456,0.756231,0.284511,0.19474,0.137952,0.0687496,-0.854704,-0.189168,0.432235,-0.626274,-0.900474,0.801626,0.911623,-0.959272,0.213865,-0.685473,-0.463987,0.318784,0.582799,-0.048056,-0.192541,-0.0273073,-0.698368,0.745496,-0.532426,0.0586243,0.577903,-0.0717909,0.684713,0.533334,0.389739,-0.786591,0.413757,0.51464,0.681664,-0.221651,1.00071,-0.164438,0.852161,0.329178,0.448162,0.0593972,0.778352,-0.874396,0.111435,-0.152971,-0.999258,0.631325,0.476789,-0.0693617,0.242117,-0.550321,0.593895,0.455955,0.218454,-0.681738,-0.101419,0.0207825,0.720122,-0.9496,0.216703,0.86002,0.716408,
0.181266,-0.813452,-0.95609,-0.432752,-0.523803,-0.725532,0.948571,0.25436,0.651804,0.822617,0.164066,0.316093,-0.533495,-0.937349,-0.31067,-0.282106,-0.906433,0.322462,-0.336383,0.893864,0.75745,-0.861829,-0.413995,-0.743284,0.0368381,-1.01956,-0.0425718,-0.0392546,0.687154,0.070268,0.912489,-0.097908,-0.421937,0.114286,-0.212712,0.267614,-0.464106,0.339802,0.301184,0.747642,0.0468078,0.600464,-0.228536,0.155845,-0.986595,-0.471274,-0.966998,0.605289,0.890175,-0.934048,-0.710052,-0.310262,-0.838193,-0.0486493,-0.833857,0.147613,0.782408,0.268152,-0.497336,-0.17674,-0.33227,-0.235382,0.263378,-0.384397,-0.739098,0.71003,-0.799732,-0.983643,0.653343,0.107911,0.444921,-0.808846,-0.717712,0.340039,-0.766293,0.0586904,0.0929257,-0.435855,-0.512179,-0.86512,-0.0212334,0.805991,0.915459,-0.0506931,0.112055,-0.651425,0.224282,-0.439717,0.82418,-0.297954,-0.538993,0.986883,-0.159632,-0.597184,-0.741567,0.178895,-0.540716,0.935335,0.136098,0.114547,0.832525,-0.0956025,0.643813,0.535637,0.592997,0.630104,0.655255,-0.331536,1.00345,-0.891757,-0.0511708,-0.0606148,0.812474,0.202991,0.82858,0.487642,0.143844,-0.213192,-0.0303669,0.777188,0.712801,-0.804947,-0.684846,0.659648,-0.292788,0.753844,-0.842618,0.42475,-0.638499,-0.718076,0.0795118,-0.519339,0.611769,1.00392,0.786105,0.590073,0.846291,-1.00787,0.456112,0.480566,-0.246716,1.0015,-0.613003,-0.688314,-0.171813,-0.966769,0.33278,0.160151,0.402299,0.451637,-0.433791,-0.746732,0.983749,-0.0817915,-0.437425,0.736462,-0.0230418,0.727325,0.897424,0.0356417,-0.861202,-0.686095,-0.0570503,-0.527967,-0.205955,-0.0917316,0.592129,-0.15342,-0.355024,-0.0358006,0.0985357,0.599726,-0.760131,-0.70708,-0.455424,-0.868698,0.0889482,0.233503,0.365492,0.759037,0.66695,0.773104,0.0418868,0.326783,-0.181515,0.628582,0.440362,-0.85542,0.620494,-0.517896,0.611125,0.819705,-0.630186,-0.450946,-0.796854,-0.666346,-0.409544,0.267076,0.418908,-0.344518,0.953726,0.121311,-0.323817,0.556249,1.00321,0.750701,-0.21858,-0.0419898,0.859673,-0.256021,0.595702,0.526408,0.302867,0.506435,1.00319,0.983808,0.953751,0.421543,-0.354865,-0.778152,-0.704122,0.120402,-0.693204,-0.48517,-0.191503,-0.683621,0.489022,-0.198309,-0.6914,-0.22732,-0.187835,0.595926,0.419519,0.573153,0.569781,0.932955,-0.11333,-0.521587,-0.16425,-0.446026,0.0152196,-0.498041,0.0436346,0.703091,0.453594,-0.158438,0.186804,-0.77248,0.731887,-0.578752,-0.521499,-0.626506,-1.02317,0.801461,0.473263,-0.652365,-0.336016,0.857617,-0.364596,-0.105843,0.518949,0.722151,-0.666492,-0.593994,0.629814,0.209442,-0.320622,0.824822,-0.520223,0.691124,0.195647,-0.706152,0.265622,0.204632,-0.6279,-0.999024,-0.485465,0.548893,-0.471975,0.496409,-0.354886,0.952484,0.259095,-0.538009,0.0644903,0.867719,0.457517,0.145706,-0.161566,-0.444359,-0.504766,-0.0192653,-0.0876869,-0.915975,0.444188,0.909451,0.0351425,-0.720338,-0.87921,0.829552,-0.535298,0.778542,-0.0569387,-0.764282,0.394386,0.573364,0.799007,-0.68146,-0.420885,0.26682,0.27298,0.127419,-0.362895,0.732922,-0.342612,0.324438,0.597358,-0.829983,0.289891,0.744256,-0.69285,0.893877,0.337471,0.913252,-0.268813,-0.214965,0.952758,0.93872,0.253754,0.0424305,0.828362,-0.0999461,0.703464,0.423257,0.130443,-0.0815586,-1.02381,-0.799274,-0.660317,0.587486,-0.0564033,-0.593874,-0.277255,-0.0929715,0.426349,0.284171,-0.331421,-0.142668,0.230575,0.475544,0.15675,-0.503317,0.21035,-0.574781,0.793069,-0.796874,0.0882557,-0.984671,-0.710568,-0.7476,0.233448,0.111132,-0.0163337,-0.072476,-1.01935,-0.142801,-0.577027,-0.453869,-0.297322,-0.731191,-0.566255,0.138147,0.223142,0.919772,-0.723781,0.23565,-0.231822,0.58233,-0.616037,-0.953092,0.701847,-0.821787,-0.937539,0.62739,-1.00766,-0.715384,-0.840614,-0.353178,0.530717,0.339541,0.712885,-0.565798,
0.118655,-0.514624,0.824731,0.946678,-0.116914,0.492178,-0.73859,0.410328,0.482499,0.346493,0.220063,-0.696591,0.134376,-0.633703,0.098598,0.819397,-0.639353,0.146388,0.489215,0.109749,0.0298742,-0.1763,0.762977,-0.225831,0.883986,0.197034,0.734213,0.501202,0.536744,-0.427465,0.688698,0.797599,-0.332057,0.600152,-0.628023,-0.902341,-0.721776,-0.315423,0.319875,0.201326,-0.499072,-0.851448,0.883391,-0.840927,-0.282708,0.908901,-0.0898107,-0.0434191,-0.726395,-0.517532,0.519027,0.217845,-0.372105,-0.063987,0.54037,-0.950461,-0.963641,-0.902121,-1.01089,-0.270904,0.854015,-0.0926043,0.481871,-0.684033,-0.47492,0.967854,-0.740659,0.19952,-0.9747,0.926978,-0.613711,-0.0973082,-0.71331,0.187959,0.876615,-0.418429,-0.946167,-0.901472,-0.462407,0.939271,0.865425,-0.718031,0.560506,-0.114437,0.919128,0.976223,-0.397943,0.277146,0.0393789,0.412373,0.205209,-0.760157,0.376706,0.172378,0.204553,0.657444,1.00708,0.684374,0.856914,-0.789463,-0.322842,-0.731253,-0.769405,0.827298,0.154912,0.694916,0.693354,-0.207132,0.145407,-0.158935,-0.70158,-0.727831,-0.908583,-0.466208,-0.554258,0.592696,0.828923,-0.266926,0.341143,0.558655,-0.453296,0.232411,0.197471,0.698483,0.915512,0.487358,0.0660354,0.889083,0.729176,0.181059,0.644391,0.172968,-0.754468,0.391779,-0.338631,0.229837,0.98415,-0.715635,-0.794722,-0.903253,-0.470806,0.395182,-0.153449,-0.324239,-0.415305,-0.449298,0.951306,0.629876,-0.31237,0.706398,-0.722327,-0.135839,0.328055,0.56798,-0.713378,-0.577129,-0.417426,-0.804889,-0.702189,-0.583817,0.159604,0.0538041,0.816254,0.931457,-0.953754,-0.0196945,-0.395736,0.590427,0.270858,-0.975822,-0.715231,0.940872,-0.612,-0.440517,0.0662818,-0.889309,-0.992897,-0.701457,-0.49555,-0.1729,0.548453,0.183769,0.200387,-0.662367,-0.607805,0.352244,-0.207886,-0.826838,-0.393207,0.0759521,-0.366553,0.617198,-0.425257,0.565076,0.74002,-0.557796,0.470369,0.188341,-0.794956,0.897582,-0.207429,-0.931672,0.0787603,0.523739,-0.832987,-0.355282,-0.183939,0.506471,-0.895747,-0.588419,0.808987,0.758043,0.142496,-0.0226431,0.899062,-0.154969,-0.29107,-0.236265,-0.161413,0.866188,0.759312,0.883148,0.304541,-0.135489,0.593013,0.401802,-0.263651,-0.498308,-0.787656,-0.17157,0.686765,0.921758,-0.541672,0.0667555,-0.359972,-0.529341,-0.872731,-0.572671,0.654869,1.00004,-0.716731,0.605171,0.103394,-0.769725,0.884938,-0.410498,0.975248,0.306377,-1.01548,-0.601096,0.90803,-0.617467,0.559862,-0.898245,0.394424,0.212813,0.340509,0.954944,-0.274254,-0.278334,0.470298,-0.47135,-0.698658,-0.587938,0.940034,-0.959747,0.152106,0.815822,-0.197155,-0.572069,0.919218,0.389412,-0.870583,0.586308,-0.934582,-0.264673,-0.812875,0.558983,0.197361,-0.13436,-0.754318,0.985592,0.940527,0.128504,-0.0320378,0.915436,0.187912,-0.169018,-0.64299,-0.246179,-0.536255,0.351378,-0.738943,-0.616136,-0.453834,-0.815757,0.369329,-0.110834,0.541667,-0.0324558,-0.370747,0.0276748,0.958344,0.884888,0.507167,-0.672724,0.473227,-0.790912,0.765064,-0.51255,0.73712,-0.249253,-0.301683,-0.10069,-1.00612,0.393707,-0.326469,-0.594889,-0.922742,-0.274856,-0.910122,-0.233616,-0.476338,-0.249345,-0.849791,0.974572,0.64241,0.885766,0.315934,-1.00255,-0.550747,0.415883,-0.255603,-0.130568,-0.9811,-0.252995,-0.247164,0.880172,0.365099,-0.554735,-0.952168,-0.411404,-0.912653,0.0332606,-0.6716,-0.78415,-0.107803,-0.700524,-0.166182,-0.855779,0.970387,-0.282877,-0.328998,-0.33887,0.768549,-0.216334,-0.499079,-0.867185,-0.726647,0.334856,-0.784058,0.941306,0.0904018,-0.939027,-0.220886,0.352943,-0.180295,0.586406,0.773398,-0.357695,-0.619486,-0.850995,0.486142,-0.797206,0.201592,0.821701,0.0576071,0.312943,-0.983713,-0.696731,-0.150764,0.415585,0.273305,0.844558,0.337473,-0.033699,0.616614,-0.622019,0.838392,0.207102,0.483754,-0.0270439,
0.244792,0.287906,0.655864,0.405571,-0.113932,-0.681768,-0.81256,0.563771,-0.730789,-0.0817795,0.386202,-1.01022,0.955992,0.882028,0.670206,0.374918,0.0604335,-0.210454,0.929828,0.611537,-0.552061,0.653997,0.172423,-0.392848,-0.281104,0.425919,0.322883,-0.0637309,-0.372469,-0.459642,0.658615,0.99053,-0.172469,0.876564,-0.85071,-0.662439,-0.975477,-0.674142,0.548972,-0.879664,-0.153865,0.208314,-0.545623,0.672915,0.66047,-0.954338,-0.958168,0.0259721,-0.446438,0.857216,-0.495658,-0.942594,0.205326,-0.377507,0.443713,-0.330255,-0.553916,0.884889,0.434235,0.7787,0.496213,-0.617732,-0.657107,0.843867,-0.300256,0.106728,-0.112738,-0.559683,0.424899,-0.419724,0.734321,0.224491,0.628344,0.808028,-0.545063,-0.0950867,0.872866,-0.202425,0.845372,-0.634532,-0.373348,-0.0730144,-0.441731,-0.696851,-0.869905,0.906913,-0.426918,0.227296,0.59354,-0.607408,-0.158769,0.0235593,-0.956242,-0.94298,0.787903,-0.191095,-0.952723,-0.0849416,0.549071,-0.573917,0.802902,0.1617,0.335551,0.668526,0.426018,0.885926,-0.247447,0.37382,0.848269,0.88712,-0.769694,0.427366,0.24795,0.528293,0.175435,0.783419,-0.357124,0.842022,0.621796,0.0187389,0.688521,0.533339,-0.876496,-0.967352,-0.832541,0.548448,0.915219,-0.099905,0.692148,0.0424755,-0.638403,-0.969074,-0.6852,0.936914,-0.405138,0.369547,0.412997,0.870271,0.694291,-0.910258,1.00327,-0.191,-0.368746,0.0507519,0.682303,0.0263912,-0.920024,0.173397,-0.331537,-0.879813,0.163386,0.413762,0.157698,0.861031,0.543313,-0.494478,-0.724151,0.124899,0.0294567,-0.782451,0.41297,0.467793,0.98415,-0.435027,0.0885629,0.100259,0.63718,-0.551084,0.0419716,-0.999233,-1.00127,0.521116,-0.128346,0.602706,-0.574704,-0.0880842,-0.484177,0.603343,0.482902,0.18725,-0.597389,-0.328927,-0.680517,0.603632,0.783552,-0.0157017,0.299669,-0.630369,-0.0921297,0.261075,0.991258,0.897434,0.650865,-0.876761,0.137098,-0.405917,-0.120011,0.0974797,0.524148,-0.682557,-0.592506,-0.0436127,0.709925,0.372962,0.110715,0.411817,-0.796946,-0.962291,0.611272,-0.473926,-0.0630603,0.630266,0.966279,0.998233,-0.897151,0.950262,-0.299812,0.613041,-0.846188,0.0532853,-0.682014,0.84125,0.943399,-0.110255,-0.796989,-0.678241,-0.272872,-0.190555,-0.330859,-0.169802,0.20814,0.762825,-0.507395,-0.521695,0.623133,-0.425216,-0.741885,-0.637013,0.469307,0.403426,-0.0152556,-0.628824,-0.985386,0.827529,0.276797,0.950884,-0.107059,-0.475517,-0.600897,0.586983,0.50301,0.875976,-0.77152,-0.402074,0.984105,0.60011,0.434122,0.142943,-0.544981,-0.430186,0.557948,0.208121,0.608169,0.105796,-0.195432,-0.0531985,0.900139,-0.0625155,0.486778,-0.196576,-0.590545,0.245933,-0.505889,0.841684,-0.661986,-0.373117,0.0250672,0.683462,0.986205,-0.485483,0.62506,0.534086,0.327295,0.729971,0.171189,0.150171,-0.598213,0.325276,-0.77604,-0.731981,-0.312115,-0.63583,0.53257,0.76964,0.854196,-0.786599,-0.211893,0.70765,-0.456709,-0.289291,-0.749741,0.630724,0.49446,-0.324575,-0.0298418,0.946865,0.366475,0.101471,0.452003,-0.483256,-0.682195,-0.245201,-0.363829,-0.70361,0.775186,-0.439676,-0.86939,0.0242768,0.124647,-0.507864,0.86536,-0.482035,0.866985,0.136375,-0.351624,-0.865614,-0.542912,-0.5656,-0.318384,0.0530327,-0.417731,0.133217,0.779015,0.0582897,-0.933697,0.102709,-0.769003,-0.354957,0.83645,-0.526169,0.445009,0.121963,0.942087,-0.605078,-0.715437,0.117591,0.458772,-0.509983,-0.085679,0.433316,-0.192364,-0.313038,-0.509838,0.429968,-0.441082,0.453132,-0.170108,0.220324,-0.967458,-0.90136,0.701264,-0.107802,0.616415,0.0739957,-0.414997,-0.201773,0.068318,-0.501204,-0.294152,-0.187728,0.155169,-0.489872,-0.595164,0.116229,-0.217214,-0.694794,-0.506498,0.952536,-0.827493,-0.558393,0.610144,-0.580265,-0.809925,-0.257807,0.363927,-0.572672,-0.488673,0.234819,0.642741,-0.215469,-0.0380401,0.219389,
-0.828602,-0.665201,-0.204792,0.568604,-0.84965,-0.498196,0.263844,-0.552428,-0.411795,0.722398,-0.101615,-0.0655256,0.279487,-0.564258,-0.116738,0.76738,0.881631,-0.491665,-0.308908,0.0939289,0.86264,0.460344,-0.713514,0.482925,-0.0987211,-0.320508,-0.859429,0.478493,0.559737,-0.578724,0.578361,-0.667457,-0.242767,0.836841,0.779149,-0.543223,0.664028,-0.918681,0.949342,0.672324,-0.956282,-0.498237,0.326059,0.145822,-0.35979,-0.643059,-0.285118,-0.410606,-1.01118,-0.620272,-0.207306,0.0983697,0.20497,-0.414295,-0.867074,0.869448,0.886003,-0.530867,-0.793076,-0.68769,0.347369,0.733743,0.576002,0.755384,-0.38355,0.536232,-0.64174,0.55598,-0.393177,-0.595211,0.380351,0.451821,-0.11334,-0.80865,0.860217,0.400412,-0.587641,-0.876628,-0.322141,-0.944541,0.559072,0.475776,-0.182515,-0.902849,0.902809,-0.493958,0.456622,0.821764,0.417056,-0.210074,-0.114514,-0.240758,0.870048,-0.566651,0.726884,-0.741679,0.998318,0.959242,0.0952,0.296151,0.772286,0.716747,0.289749,-0.228959,0.0289719,0.434308,-0.712344,0.30027,-0.519565,-0.983079,-0.0866985,0.832301,0.865396,-0.163773,-0.475502,-0.320223,0.602919,0.959273,0.836548,0.157953,-0.564489,-0.255529,-0.239538,0.692798,-0.629963,0.418212,-0.677005,-0.655897,-0.63891,-0.938674,0.0522906,-0.424705,0.997828,-0.672949,0.0378027,0.254243,-0.0500613,0.103953,0.353339,-0.719512,0.665851,0.312846,-0.192929,0.346687,0.5345,-0.861861,-0.0837382,0.173564,0.70736,0.0322625,0.267961,0.344787,-0.704022,0.764337,-0.341179,0.938053,0.287649,0.330786,-0.732276,0.208222,0.651027,-0.386952,-0.359816,-0.708714,-0.156688,0.086878,0.657989,-0.969347,-0.663603,-0.986449,0.564739,-0.508562,-0.676974,-0.845493,-0.180834,0.499463,0.567263,-0.323087,0.40068,-0.590424,0.838392,0.861177,0.93685,0.485694,0.238794,-0.17203,0.500932,-0.526874,0.0868327,0.816315,0.251274,0.19711,0.315568,0.555196,-0.278903,0.889891,-0.307656,-0.608904,0.637758,-0.0486904,-0.303074,0.324735,0.0638567,0.0207912,-0.0280468,0.891938,0.682612,-0.971418,-0.690527,-0.734429,-0.289251,-0.57624,-0.364216,-0.327391,-0.111322,0.856449,0.35707,-0.157557,0.513858,-0.691853,-0.626216,0.793604,0.341762,-0.226492,0.17687,0.037385,-0.73409,-0.169739,-0.848751,-0.0452339,0.719731,0.195809,-0.108438,0.698002,0.478479,0.0794302,-0.787408,0.331711,-0.746655,0.275968,0.0777075,-0.200829,0.830169,-0.403258,-0.131504,0.823668,-0.903576,0.207985,0.573808,-0.546577,-0.408606,0.831887,0.798172,0.572983,-0.0247488,-0.420306,-0.663665,0.674451,0.844793,-0.547571,0.206345,0.549415,0.191746,-1.01071,-0.350514,-0.205267,-0.63584,0.399126,-0.112076,-0.611535,0.0683704,0.666941,0.560791,0.128144,0.571784,0.184744,-0.0131198,-0.86817,0.579685,0.0219773,0.511818,0.391339,-0.0924587,-0.254498,-0.676478,0.491342,-0.293728,0.806459,0.128294,0.473064,-0.415374,-0.07923,0.627828,0.467798,0.125266,0.530127,0.913465,-0.0894443,0.122383,0.725938,0.944767,-0.885152,0.423594,0.8,-0.115763,-0.390474,0.338881,0.615657,-0.383358,0.253535,-0.273923,0.058994,-0.617467,-0.908604,-0.686244,0.822796,0.781454,0.95083,0.218791,0.978548,-0.941489,-0.410157,0.289836,0.261631,-0.0752624,-0.99252,-1.02519,-0.158391,0.4895,-0.504995,-0.828679,-1.02469,0.361578,0.605187,-0.245419,0.100391,-0.591294,-0.402803,0.537559,0.939679,0.171684,0.170366,0.340094,0.375469,0.662822,-0.467101,0.289471,-0.572223,-0.567165,0.46808,0.854531,-0.567808,-0.644045,0.805408,-0.24053,-0.856736,-0.691804,0.130211,0.843918,0.389228,0.630863,0.495843,0.699341,0.969522,0.195096,-0.143973,0.838642,-0.0960433,-0.821804,0.171819,-0.783997,0.161183,-0.878717,-0.0624447,-0.788296,0.38016,-0.649492,-0.0800511,0.706162,-0.428783,-0.266572,-0.88094,-0.832106,-0.322915,-0.570922,0.555495,-0.751191,0.648738,0.494837,-0.886976,-0.989834,-0.750311,
0.78138,0.480121,-0.690952,-0.144524,0.1972,-0.0212283,-0.764962,0.233003,-0.442133,0.874846,-0.270907,0.11928,-0.0429475,-0.394451,-0.407951,0.705272,-0.433674,-0.366811,0.0841191,0.179327,-0.260342,0.478471,-0.833247,0.815044,0.89284,-0.274721,-0.626384,-0.207858,0.979981,-0.635464,0.351526,0.444983,-0.373845,-0.682253,0.229616,-0.529363,0.250777,-0.948293,0.628925,0.576216,0.602958,0.933735,-0.76684,-0.569898,0.328248,0.138307,0.571186,0.518478,0.560475,-0.569869,-0.288048,0.912935,0.650173,-0.932149,-0.655451,-0.252057,-0.690235,0.823258,-0.470722,-0.667722,-0.445099,0.727883,0.485917,0.0185874,-0.78214,0.866432,0.823564,0.277112,-0.128774,-0.822219,0.763088,0.367669,0.390331,-0.627956,-0.068838,-1.0283,0.540007,-0.394821,0.643781,0.987545,-0.165139,-0.842755,0.302999,-0.477694,0.75394,-0.630444,0.323918,0.102714,0.648865,0.175661,0.392773,-0.123576,-0.338598,0.149901,0.0188311,-0.241265,0.936222,0.955082,-0.545462,-0.6278,-0.282298,-0.90027,0.989238,0.13278,0.760618,-0.181003,-0.431755,0.364248,0.135636,0.789018,-0.420112,-0.484927,-0.523847,-0.940093,-0.75146,-0.924924,-0.585389,-0.644869,-0.544973,-0.68459,0.150183,-0.664555,-0.109538,-0.592988,-0.0964561,0.796848,0.623467,-0.942357,0.946078,-0.183772,0.917111,0.133389,-0.13429,0.517082,0.554799,0.34332,0.256142,0.900549,0.616106,-0.772438,0.624949,0.388472,-0.188681,-0.110107,0.0140334,-0.104341,0.5019,0.18342,0.0184158,0.289935,0.207852,0.104191,0.823414,0.537797,-0.316473,0.862129,0.453769,-0.545474,0.078939,0.0762942,0.984552,0.290141,0.833373,0.348855,-0.659429,0.529699,-0.330815,-0.804865,0.567397,-0.368964,0.0438263,-0.367194,0.679798,-0.212286,0.262429,-0.84575,0.361082,-0.141889,0.475748,0.469388,0.590619,0.136997,-0.742159,-0.244158,-0.792298,0.377286,0.187131,-0.0436152,-0.623934,0.147201,-0.11078,-0.906093,0.665382,-0.556436,0.606044,0.552733,0.527889,0.0659275,0.575316,-0.272001,0.714046,0.749285,-0.0507248,-0.310168,-0.496267,0.6462,0.167454,0.861081,-0.682349,-0.396727,-0.511077,0.597695,0.322612,0.837183,-0.912029,0.905147,0.63248,0.258478,0.364461,-0.946004,-0.549902,0.138205,0.775357,0.799862,-0.617261,-0.166728,0.276616,0.753116,-0.784133,-0.79054,-0.239189,-0.793258,0.493119,0.574235,-0.216436,-0.121064,-0.797263,-0.884597,0.23719,-0.209948,0.965073,-0.331702,-0.250436,0.312368,-0.736219,0.665026,0.160969,0.336385,0.979409,0.162746,0.507259,-0.638306,-0.95225,-0.608394,-0.609452,0.265755,0.760708,-0.340637,-0.0876155,-0.0794488,-0.180827,-0.31454,0.944513,0.471365,0.346941,-0.263124,0.796082,-0.435265,-0.125131,0.598615,0.599053,-0.515545,-0.349149,-0.407358,0.955964,0.849598,0.61977,-0.742894,-0.487382,-0.0735594,0.527064,0.354567,0.588454,0.150093,-0.546245,0.015066,0.813756,0.612823,0.136276,-0.374401,-0.395308,0.610611,0.630554,-0.344946,-0.500824,0.344825,0.413886,0.928724,-0.752951,0.166254,0.56276,-0.438667,-0.627493,-0.31384,0.122032,-0.805622,0.268452,0.0385176,0.760363,-0.974083,-0.125938,0.691255,-0.427568,0.511283,-0.568076,0.899895,-0.857682,-0.624262,0.201326,-0.0221969,-0.817363,0.591904,-0.275668,0.887565,0.116935,0.0917625,-0.868932,-0.510364,-0.689846,-0.0993628,-0.631069,0.972408,0.916469,0.249511,-0.860136,-1.03724,0.916363,-0.612357,0.712748,0.813205,-0.226187,-0.302464,0.0900694,-0.204156,0.137986,0.558899,-0.974577,0.328309,0.02846,-0.484567,-0.27144,0.770501,0.569091,0.927681,-0.709436,-0.602101,0.871179,-0.356769,-0.331768,0.450275,-0.41219,0.096561,-0.578206,-0.759804,0.0931918,0.553814,0.757766,0.168111,-0.782432,-0.0199086,-0.418143,-0.945453,0.61016,0.927547,-0.108255,-1.00606,0.0374739,-0.410107,0.601266,0.737258,0.376438,-0.389766,-0.188851,-0.551464,0.909299,0.193544,0.967285,-0.0717096,0.654985,-0.674785,-0.768779,0.439518,
-0.930967,-0.378605,-0.704884,0.18649,-0.526663,-0.768131,-0.748873,-0.0435153,-0.309007,0.52992,0.0184594,0.624167,-0.659257,0.460857,0.299678,0.144657,-0.684011,-0.548931,0.206661,0.658643,0.575294,-0.314049,-0.205842,0.945303,-0.0423927,-0.17019,0.817742,0.771288,-0.926121,0.827527,-0.794823,0.465222,0.838373,-0.690467,-0.525778,0.0629397,-0.223662,0.681762,-0.558353,-0.629031,0.0626163,-0.863917,-0.903167,0.788956,0.77511,0.525478,-0.512165,-0.74883,0.187333,-0.442155,0.770749,0.133778,-0.698805,0.683463,-0.966488,-0.611693,-0.102819,-0.63171,0.751082,-0.417721,-0.0577991,-0.894158,-0.723047,0.667757,0.724915,-0.800518,0.844265,-0.0866675,0.162371,0.159207,-0.925836,0.190572,0.286173,0.0819609,-0.928287,0.627227,0.370264,0.38287,-0.924884,-0.694357,-0.0657877,0.372063,0.694389,-0.242365,0.235616,-0.336927,0.25305,-0.743416,0.979517,0.736952,0.411746,-0.923097,0.774149,-0.0463823,-0.749346,-0.329017,-0.894221,-0.633525,0.112607,0.696759,0.472699,-0.829945,0.40347,-0.625701,-0.730508,0.757254,-0.188895,-0.361521,-0.577053,0.241783,-0.648585,-0.363226,0.652719,-0.942608,-0.85161,0.577753,0.555688,0.15939,-0.753781,-0.797563,0.125732,0.867555,0.0339898,0.286596,-0.132241,0.418587,-1.00892,0.525586,0.0672728,-0.13869,0.218842,0.818047,-0.38094,-0.40656,0.889205,0.374745,0.446914,0.411517,-0.396368,0.627194,-0.394966,-0.668212,-0.792485,-0.464238,0.292037,0.830069,-0.583658,-0.750529,-0.297407,-0.729517,0.370557,-0.197071,0.374515,-0.941033,0.154045,0.713294,-0.120143,0.939264,0.362607,-0.601474,0.239686,-0.93272,-0.385489,-0.264378,0.898603,0.571842,-0.421129,-0.323229,-0.137576,0.973305,-0.784424,0.0955705,0.969894,0.887989,0.939325,0.220455,0.815334,0.590786,-0.88313,-0.10466,0.0365531,0.450186,0.906662,-0.772311,0.780603,0.0954446,-0.756244,-0.901076,0.285398,-0.692896,0.822112,0.781715,0.125758,-0.685026,0.296135,-0.923837,0.448988,-0.151528,-0.0504453,0.384281,-0.937993,-0.51505,0.964136,-0.816741,0.090472,-0.540016,0.368236,-0.378221,0.643601,-0.847257,0.134758,0.4603,0.321309,-0.814277,0.211681,-0.146045,-0.276555,-0.510759,-0.637426,-0.434853,-0.283541,0.955181,0.438116,-0.307645,-0.990488,-0.85464,0.186416,-0.817738,0.883527,-0.0418487,0.485485,0.167803,-0.446146,0.79739,-0.618975,-0.665953,0.0450718,0.412938,-0.172889,-0.314513,-0.973035,0.194095,-0.94441,0.099618,-0.078857,-0.177789,-0.0968057,-0.374809,-0.204045,-0.2336,0.309681,0.261105,-0.320982,-0.552869,0.529119,-0.59834,0.0346856,-0.688264,-0.898078,-0.173455,-0.65566,0.0159548,0.4015,-0.625781,0.214119,0.661262,-0.681763,-0.092333,0.727744,-0.843651,-0.842177,-0.494643,-0.155074,0.6966,0.732274,-0.28447,0.540982,0.280459,0.940951,0.729577,-1.02617,-0.657362,0.952753,-0.327148,0.32665,0.322413,0.599819,0.16435,-0.767036,0.568129,0.237937,0.308563,0.042103,0.916129,-0.563062,0.174193,0.791525,-0.452226,0.074745,0.609825,-0.132969,-0.285605,0.799981,0.0381074,0.073931,0.304496,-0.460898,-0.707622,-0.737914,0.446109,-0.656821,-0.58424,0.392616,-0.48345,0.0297622,0.222825,0.429883,0.018677,0.657276,-0.352628,0.586345,0.926776,-0.952275,0.776624,0.991246,-0.537455,-0.534914,-0.857113,-0.626904,-0.258327,0.928941,0.905199,-0.211124,0.543399,-0.483033,0.665597,-0.632074,0.0476954,0.290272,-0.797667,-0.621706,-0.661828,0.915647,0.401956,-0.854912,-0.550916,-0.269954,-0.382609,0.980357,0.168105,0.911009,0.1497,-0.529455,-0.236217,-0.0721972,0.820191,-0.289216,-0.835648,0.337738,0.185217,-0.862793,0.26819,-0.66993,0.264935,0.559866,-0.909258,0.0907702,0.0468549,-0.421635,0.941022,0.548781,-0.462435,0.663112,0.264789,0.811999,-0.271969,-0.518629,-0.573867,0.911214,0.17445,-0.950607,0.680388,0.0272522,0.723135,0.849005,-0.632637,-0.0713227,-0.555728,-0.998353,0.882526,-0.20452,-0.477091,
-0.165538,0.0749521,0.228983,-0.722027,-0.215175,0.371084,0.345263,-0.185124,-0.397739,0.538211,0.671158,-0.534163,-0.272942,-0.715993,-0.39544,-0.500798,-0.337367,0.761785,-0.0492081,-0.454327,0.809535,0.986115,-0.627792,-0.443484,-1.01806,-0.580494,-0.81412,0.030481,0.586817,0.0407323,0.0527156,0.454519,0.91622,0.900355,0.713794,0.470281,-0.770849,-0.747805,0.640847,0.40316,0.570336,0.912731,-0.686574,0.219928,-0.468053,-0.0925349,0.879864,-0.0861938,-0.0772073,0.537553,-0.432442,0.859001,0.485075,0.15504,-0.905846,-0.960394,0.665159,0.269673,0.897619,-0.835205,-0.149301,-0.0564213,-0.700152,-0.717896,1.0045,-0.716622,-0.203032,0.373462,0.232476,-0.305301,0.208792,-0.506187,0.915765,-0.870704,-0.6772,0.0599786,0.0850166,-0.0672742,0.686275,-0.865153,-0.879076,-0.811375,0.339685,-0.175187,-0.716102,-0.157203,0.646414,0.706388,0.880656,0.286034,0.604224,-0.707132,0.852894,-0.83681,0.259218,-0.734167,0.835125,0.153947,0.154553,-0.069315,0.164387,-0.75159,0.557292,-0.638793,-0.081125,0.749458,0.964847,-0.470705,0.274285,0.406444,-0.265389,-0.64517,0.487077,-0.451737,0.859442,-0.563045,0.0450137,0.908579,0.489695,0.484662,0.556285,0.881639,-0.359797,-0.169449,0.503872,0.0251069,0.504532,0.976293,0.797197,-0.910474,-0.202858,0.45495,0.996917,0.280196,-0.195307,0.996383,-0.772857,0.275395,0.264719,-0.588021,0.0233048,-0.532474,0.484012,0.239225,-0.502387,-0.546661,0.720887,-0.720156,0.93947,-0.320706,0.235691,0.978318,-0.264111,-0.821041,-0.135092,0.47578,-0.520628,0.888047,0.234512,0.143805,-0.340556,-0.759428,0.172046,-0.437949,0.466878,-0.904996,0.490833,0.909556,0.937638,-0.218503,-0.954917,-0.42793,-0.388791,-0.436229,-0.651163,-0.545149,0.302747,0.0578098,0.906521,-0.222501,0.756734,-0.396041,-0.808326,0.906602,-0.705816,0.328345,-0.642467,-0.288441,0.463213,0.0245889,-0.10099,0.142105,0.662189,0.976043,-0.178569,0.160053,-0.947734,-0.132229,-0.860149,0.578138,0.24606,-0.080416,0.837734,-0.0359607,0.453765,-0.328999,-0.183027,0.696281,-0.390844,0.868153,0.41638,-0.910575,-0.473741,-0.614054,0.839265,0.712195,-0.481232,-0.830295,0.29857,0.262965,-0.0165036,-0.0275522,-0.0172785,-0.415409,-0.980072,0.29429,0.77701,0.999692,0.460473,0.309912,-0.419123,0.32298,-0.145505,0.414142,-0.849628,-0.634988,0.15538,0.600946,0.0396997,-0.115368,-0.48578,-0.800214,0.522528,0.939568,-0.181665,-0.0780623,-0.239504,-0.348955,-0.676255,0.514628,-0.79913,0.456795,0.455281,-0.910682,0.383981,-0.422927,0.123521,0.789482,-0.238791,0.407436,-0.982039,-0.914887,-0.968149,0.710425,-0.992517,0.372805,-0.446825,0.0387334,-0.93338,0.853919,-0.415976,0.541419,-0.770466,-0.0703475,0.422267,0.325382,0.707709,-0.797871,0.606416,-0.309239,0.932307,0.47769,0.0728242,-0.0748374,-0.849804,-0.741722,0.73254,0.922636,-0.530366,0.0363991,-0.891774,0.0512075,-0.0451695,0.822687,0.698419,-0.512222,1.00084,0.50981,-0.792139,0.0264141,-0.340721,-0.135731,-0.0318665,-0.947746,0.343882,0.704667,-0.943738,-0.412297,-0.588472,0.629026,-0.829822,-0.991052,-0.612249,0.689323,-0.464108,0.395041,-0.259721,0.222784,0.175681,0.723698,-1.02149,-0.797974,-0.692059,-0.398186,-0.572104,-0.908692,-0.353645,-0.422872,-0.120635,0.945567,0.0618092,-0.986057,-0.606034,-0.81468,0.176331,0.427358,-0.179489,-0.161098,-0.905703,0.349983,0.76035,0.582519,0.897597,-0.546037,-0.384013,-0.738233,-0.310815,0.74221,-0.181744,0.478935,-0.116795,-0.294555,-0.105813,-0.868187,-0.752648,-0.336437,0.360303,0.296421,-0.248355,0.846446,-0.524148,0.690588,0.924343,0.417208,0.678657,0.941838,0.584475,-0.756387,-0.728642,0.665146,0.456149,0.574281,0.206419,0.379145,0.733167,-0.776987,-0.902278,-0.447108,-0.0192804,0.305912,0.226921,0.589316,-0.0739174,-0.220463,0.708929,-0.878155,-0.275183,-0.0261561,-0.98376,-0.948355,0.849395,-0.909072,
0.518169,0.132257,0.14778,-0.397386,-0.0434284,0.554317,0.100065,0.0640397,-0.87581,-0.77575,0.292307,-0.10865,0.628387,-0.56734,0.400197,-0.433848,-0.62061,0.10534,-0.327605,-0.196022,0.916912,0.444194,0.670886,-0.0216684,-0.438924,-0.650635,-0.900136,0.180169,0.971725,-0.342458,0.108537,0.50179,-0.862256,-0.953786,0.0610817,-0.365919,-0.674562,-0.225594,0.951366,0.326106,-0.868243,-0.557302,-0.343966,0.462744,0.958038,0.624612,-0.905371,0.245373,-1.00003,0.227176,-0.347008,0.831035,-0.127881,-0.619805,0.443977,0.723432,-0.535337,-0.996082,0.705703,0.576974,-0.855505,0.931818,0.922348,-0.896038,-0.327803,-0.44379,0.425659,-0.548305,-0.0650852,0.190864,-0.685397,-0.734376,0.621614,0.21226,0.929399,-0.163953,-0.299411,0.747072,0.533153,0.0610034,-0.851649,0.191819,0.486084,0.255825,-1.01407,0.324108,-0.0708878,-0.350888,0.126625,0.772158,-0.562653,0.957227,0.929354,0.0236971,-0.511711,0.0519479,-0.28157,-0.232235,0.514796,-0.345366,0.550292,-0.341173,0.23314,-0.699962,0.900344,-0.204394,0.139493,-0.464749,0.550062,0.0209069,-0.710334,-0.234361,-0.500468,0.894068,-0.0950278,-0.479495,0.87476,-0.309388,0.972623,0.725613,-0.891627,0.27727,-0.130889,-0.727908,-0.288487,0.988325,0.826979,0.776534,0.337278,-0.710093,-0.714782,-0.180402,0.0247791,0.675401,-0.570494,0.292344,0.622577,0.240948,-0.189707,0.278402,-0.56284,-0.380968,-0.542463,0.567222,0.0812923,0.94624,-0.139863,0.593651,-0.334713,-0.937778,-0.912661,0.185951,0.538685,-0.385615,-0.562209,-0.690153,0.860682,0.573183,-0.488227,0.946193,-0.238397,-0.344199,-0.981381,0.0635429,0.640203,0.844146,-0.669443,0.376976,0.853386,0.444626,0.282229,-0.749769,0.090929,0.640277,-0.66064,0.612715,0.677548,-0.572311,0.353093,0.791798,0.937011,-0.475132,0.530356,-0.100464,-0.801415,0.422159,-0.094006,0.281897,0.555782,-0.979903,0.380117,0.351834,0.144542,0.243693,0.984814,-0.198899,-0.527087,0.13571,0.260299,0.0919123,0.8865,-0.456087,-0.844448,-0.275929,0.587246,0.0827372,-0.703923,-0.289305,-0.621689,-0.669608,0.740854,0.334047,-0.292248,-0.852944,-0.387462,0.8177,-1.02463,-0.67608,0.823474,-0.437573,-0.884311,0.102194,-0.0800571,0.53213,-0.651679,0.430268,-0.786388,0.325797,0.320293,-0.370576,0.294397,-0.704212,-0.766871,0.246529,0.215478,0.562848,0.250093,0.151491,-0.863384,0.295471,0.287921,-0.773355,-0.958923,0.236854,-0.967504,0.249461,-0.765981,0.174028,0.850041,-0.430208,-0.913092,0.748682,0.179587,0.484982,-0.143778,0.744055,0.845663,-0.787,0.840293,0.343183,-0.717291,-0.971025,-0.657973,-0.447735,-0.895902,0.953572,0.974964,0.133575,-0.810101,-0.826254,-0.641424,-0.666219,0.35805,-0.746402,0.734069,-0.539441,0.17599,-0.878069,0.681388,-0.910215,-0.906815,0.674773,0.923474,-0.836027,0.525943,-0.868223,-0.792338,0.142395,0.71117,-0.0383401,0.33724,-0.794184,-1.01388,0.740391,-0.549351,0.589297,-0.560822,0.362554,0.408286,-0.912001,-0.775759,0.892325,-0.47513,0.864652,0.081961,0.39089,-0.851777,-0.520052,0.157174,-0.803462,-0.113753,-0.332747,0.171098,0.729851,-0.188892,-0.660734,-0.653162,0.569951,-0.926168,0.924041,-0.330561,0.782177,-0.470972,0.558157,-0.448895,-0.390377,-0.521725,0.0175649,-0.472161,-1.01778,0.95543,0.0205274,0.822859,-0.282768,-0.01992,0.828528,0.765736,0.393805,-0.524531,-0.87486,-0.988207,0.780108,0.913266,0.390662,0.932001,0.96697,0.557452,0.836386,0.259083,-0.155679,0.667575,-0.550981,0.39039,0.509328,0.0523468,-0.156161,0.242772,0.479438,-0.709543,0.384634,0.7393,-0.788136,0.833358,0.844744,0.264647,-0.819075,-0.625244,0.399404,-0.345733,-0.0279451,-0.231955,-0.0619914,-0.330237,0.136744,-0.8036,0.319964,-0.358743,0.269212,-0.199678,0.626116,0.0708069,-0.51108,0.939345,0.0820436,0.971334,0.0984505,0.948493,0.616134,-0.822861,-0.513266,0.685113,0.860303,
-0.149907,-0.864361,-0.95806,-0.71281,0.738733,-0.0601551,0.626298,-0.393186,0.964004,-0.648456,-0.593177,0.233876,-0.275523,0.498716,-0.391326,0.972387,0.358269,0.603511,0.643214,0.0229845,0.394673,-0.857666,0.960152,0.574237,-0.717555,0.959906,-0.802341,-0.206301,0.202116,-0.916279,-0.358465,0.587725,0.39984,-1.01918,0.0539418,0.376179,0.786962,0.549694,-0.866473,-0.756609,0.94118,-0.262288,-0.867433,0.140915,-0.424186,-0.755804,-0.890003,0.769415,0.419942,0.509604,0.276193,-0.647132,-0.508745,0.272416,-0.0186669,0.109587,-0.841179,-0.422156,-0.280246,-0.109737,-0.788019,0.796851,0.839559,0.373872,-0.551892,0.68556,-0.0305824,0.0155091,0.358496,-0.456693,0.387369,0.879199,0.122412,-0.611118,-0.288294,0.874267,0.452774,0.0410084,0.578383,-0.340776,0.727102,0.727311,0.352796,0.891847,-0.356646,0.392467,0.317751,-0.987606,-0.760062,-0.383031,-0.694569,0.432599,-0.883932,-0.974884,-0.848236,-0.0876436,-0.099402,-0.835857,0.976532,0.288717,0.524491,-0.799326,0.997591,0.244669,1.0051,0.242689,0.437564,0.632283,-0.625831,0.0587951,0.0929675,-0.15165,0.546126,-0.241329,0.0653746,-0.715416,0.403987,0.992591,-0.99549,0.686534,-0.714324,0.36359,-0.829991,-0.15835,-0.919529,-0.486163,-0.903352,0.0527595,-0.740189,0.551775,0.878108,0.14285,0.576042,-0.362453,0.976288,-0.273262,0.0773883,0.0151015,-0.415204,0.895129,0.387546,0.921026,-0.579885,0.372793,-0.386825,-0.706644,0.783368,0.446545,0.559535,-0.187703,0.737886,0.932655,0.325287,-0.5363,-0.601441,-0.117605,0.283317,0.512029,0.178172,0.190955,-0.40477,0.347035,-0.650644,0.818522,-0.366355,0.148455,0.0162975,0.408011,-0.153999,0.673281,-0.856481,0.734632,-0.774721,0.748376,0.350789,-0.650085,0.200861,-0.0861913,0.0431586,-0.0166701,-0.727473,0.782772,0.0478578,0.0735486,-0.37887,0.293349,-0.908443,-0.35673,-0.135111,-0.974356,-0.261703,0.816741,-0.771947,0.306203,-0.888158,-0.91906,0.601273,0.996634,0.644503,0.0420486,0.0758701,0.550339,-0.856539,-0.36813,0.348433,0.438707,-0.991892,0.262292,0.73467,0.975703,0.506269,-0.946077,0.255006,-0.866028,-0.698857,0.676596,-0.319272,0.743195,-0.582397,-0.177817,0.888171,-0.874631,0.99634,0.700325,0.366365,-0.147394,-0.367037,0.991311,-0.666484,-0.188786,-0.47763,0.33999,0.0720906,0.646784,0.55036,0.9636,0.398109,-0.153221,-0.420576,0.398861,0.954494,0.467122,0.137027,0.716714,0.460977,-1.0233,0.0606654,0.15893,-0.918785,-0.973089,0.103592,-0.337894,0.0850838,-0.426314,-0.193187,0.739435,0.699477,0.666047,0.995668,-0.401554,-0.218695,0.500924,0.209055,-0.879672,-1.02067,-0.275902,-0.764679,0.649687,0.4598,-0.61345,0.38674,0.603302,-0.326373,0.690059,-0.231033,0.829669,-0.932546,0.243311,-0.968978,0.643019,-0.271847,0.23527,0.328576,0.718932,-0.703978,0.210405,-0.0991623,-0.978483,-0.606331,0.180847,0.0780124,-0.0592557,-0.569257,-0.46165,0.386253,-0.0593575,0.417228,0.376324,0.0900375,0.138988,-0.731191,0.550144,-0.706959,-0.929118,-0.518955,0.0327627,0.555755,-0.165668,0.221352,0.536672,-0.54863,-0.578295,0.950351,-0.717885,0.075059,0.229118,0.487381,-0.420099,0.143313,-0.541792,0.432502,-0.24938,-0.392436,0.847241,0.703205,-0.703965,-0.397063,-0.0454492,-0.238851,-0.682296,-0.30496,0.0614961,0.765516,0.385449,-0.797325,-0.320075,0.867222,-0.136804,0.32568,-0.0199782,-0.243615,-0.86257,0.744836,0.539598,-0.411261,0.901147,0.741455,-0.392699,0.793571,0.839088,0.0851093,0.601163,0.804155,0.809458,-0.974886,-0.725379,0.492788,-0.0546395,0.249403,-0.916415,0.526163,-0.712369,-0.296982,0.446716,0.889017,-0.35489,0.930331,0.507576,0.0610847,0.755608,-0.210285,0.790825,-0.097213,0.51543,-0.979447,0.354576,-0.623402,-0.464078,-0.238185,0.961675,0.326171,0.528859,-0.374441,0.0713522,0.776437,-0.486455,0.809407,-0.89098,0.143397,-0.27512,-0.204235,-0.892551,
