0.284314,-0.122855,0.110412,-0.555714,-0.299628,0.452227,0.0453522,-0.684481,0.252615,-0.33496,-0.38884,0.681357,-0.824386,0.484109,-0.24125,-0.0567979,0.748897,-0.437114,0.505221,-0.51358,0.514703,-0.998873,-0.194219,-0.717658,0.543723,-0.94899,-0.777212,0.863055,-0.798313,-0.113736,-0.227965,0.799562,-0.0917301,0.632232,0.179737,-0.149603,0.419926,-0.0754944,0.412832,0.521753,-0.474951,-0.178563,-0.738819,-0.818247,0.686522,-0.856487,-0.174831,0.554763,-0.876706,-0.819152,-0.615881,-0.980996,0.430034,0.0637245,-0.775924,-0.362101,0.842328,-0.777325,0.911561,0.435596,-0.0936894,-0.943251,0.904776,-0.380188,0.346069,0.477025,-0.741529,-0.465221,0.180679,-0.956881,0.908305,0.569666,0.298943,-0.953835,0.35901,0.677343,0.18528,0.271236,-0.282797,0.282171,0.631754,0.671457,0.941545,0.958664,0.563167,0.708206,-0.854508,-0.0457951,0.534328,0.175697,0.790676,-0.55962,-0.931011,0.610473,0.268829,0.0852802,-0.405091,0.209908,-0.855064,0.388287,0.184919,-0.504613,-0.055663,-0.56849,0.179886,0.577891,0.313435,0.963438,0.38942,-0.552239,-0.584401,0.359557,-0.662065,0.482809,0.899602,-0.0521756,-0.225346,0.330322,-0.288971,0.294856,-0.866905,-0.960818,-0.00749218,0.811418,-0.565028,0.283692,0.833196,-0.480542,-0.829706,0.52731,0.678783,-0.499418,0.413294,0.0662274,0.452687,0.389751,0.178164,-0.25146,0.0314756,-0.108526,-0.670452,0.0842375,-0.239457,0.873637,0.24978,0.826392,-0.471735,0.0937107,-0.768263,-0.144285,-0.139094,0.288105,0.707419,0.337743,-0.0618778,0.714904,-0.362877,0.223383,0.232296,-0.0921533,0.788651,-0.578273,0.683291,0.57121,0.00895352,0.357084,-0.00110326,-0.447277,0.717265,0.0903641,0.0620446,-0.697157,-0.0469477,0.670788,-0.578548,0.809296,-0.402178,0.968141,-0.17798,0.146901,0.732096,0.628886,0.711083,-0.923526,-0.872785,0.845921,0.685604,0.630604,-0.666392,-0.991347,0.376943,-0.123158,0.0295856,-0.577441,-0.549766,0.590544,0.633965,-0.771952,0.804006,0.0891729,0.150034,0.204037,0.950916,0.328306,0.669165,-0.631275,-0.707593,-0.724916,0.739613,-0.934861,0.0527155,-0.346844,-0.770225,0.126731,-0.240759,-0.758251,-0.727918,0.464798,-0.813496,0.795012,0.971648,-0.612375,-0.856796,0.70942,0.0841646,-0.106175,-0.120473,-0.636824,-0.13611,0.828108,-0.400159,0.438776,-0.218193,-0.119362,0.89726,0.750768,-0.00611164,0.71956,-0.897854,-0.780538,0.990582,0.314628,-0.130404,-0.380739,-0.273886,-0.81648,-0.961217,0.887887,-0.208779,-0.832069,-0.390287,-0.410332,0.134327,-0.687276,-0.104053,-0.967673,0.153006,0.898176,-0.519142,0.306463,0.377215,-0.638042,0.374957,0.884572,-0.654897,0.399782,-0.821099,0.259382,-0.838226,-0.0967429,-0.783273,0.57371,-0.0268744,-0.760458,-0.744042,-0.778793,0.540696,0.702133,0.206089,-0.894366,0.277313,-0.307253,-0.820224,-0.872761,0.787766,-0.143423,0.555779,0.241623,-0.251071,-0.683807,-0.758886,0.762401,0.781709,0.334591,0.0846604,-0.844868,0.785097,0.637781,-0.959424,-0.300989,0.361741,0.34099,0.852969,-0.757891,0.254224,-0.814522,-0.0682743,-0.908209,-0.751151,-0.653229,-0.398525,-0.22835,-0.69115,-0.675729,-0.877796,-0.569463,0.67437,-0.304695,-0.0844156,-0.902831,-0.0797165,0.402763,0.00781543,-0.347791,-0.311987,-0.382166,0.781204,0.6621,0.189756,0.311891,0.490517,0.613939,-0.345359,-0.989369,-0.0545789,-0.688643,-0.953828,0.152496,0.0056643,0.121246,0.505253,-0.314046,0.643725,-0.82913,0.829732,-0.0294981,-0.312342,0.0417256,-0.849826,-0.630773,0.108643,-0.938306,0.179417,-0.282759,-0.73129,0.321661,-0.383816,-0.311917,-0.565511,0.662413,0.524719,0.619078,0.0402105,-0.0586541,0.366304,-0.0813807,0.40438,0.645812,-0.875412,-0.136023,-0.161261,-0.557927,0.78773,-0.578435,0.694999,0.601223,-0.161822,0.510704,-0.302407,-0.252687,0.443652,-0.261998,0.49324,0.216461,-0.501612,-0.345657,0.86615,-0.0803876,-0.65016,0.264971,-0.00842937,-0.0387253,-0.34128,0.28776,-0.962938,-0.564172,-0.919886,-0.27251,-0.92724,-0.709494,0.0622593,-0.73624,-0.11838,-0.172049,0.896558,0.319685,0.696398,-0.701537,-0.146517,0.589154,0.906598,-0.0703786,-0.666997,0.165378,0.769676,0.064478,0.434542,-0.563035,0.807464,-0.217793,-0.318802,-0.442605,-0.233913,-0.574454,-0.438361,-0.785119,0.182374,-0.557271,-0.996524,-0.0340592,-0.147671,0.557409,0.0431648,0.616795,0.679992,-0.218794,-0.988827,0.0936244,-0.286211,-0.0552676,0.543472,-0.77991,0.453418,-0.439017,-0.418632,0.509816,-0.347296,-0.419138,-0.486337,0.468869,-0.751198,-0.465551,0.511229,0.615505,0.76405,-0.967094,0.557781,-0.50416,-0.336817,0.212743,0.0783423,0.764785,0.311561,-0.741719,-0.790127,-0.388821,-0.443787,0.529115,-0.261265,0.444751,0.988172,0.898038,0.232461,0.388676,-0.605601,0.906297,0.0424513,-0.184313,0.945255,-0.0124423,0.122217,0.621396,0.0377663,-0.644655,-0.959973,-0.453202,0.600763,-0.974159,-0.101072,0.867966,0.440847,0.21212,-0.17418,-0.0606703,0.686964,-0.378848,-0.840538,-0.402115,0.0210171,-0.476143
-0.301177,0.437061,0.325802,-1.04472,-0.126207,0.470661,0.666513,-0.761186,0.0910288,0.304393,-0.81293,0.511499,0.00180177,-0.158801,-0.0274588,0.804488,-1.0902,0.0379651,0.620233,-0.560608,0.781351,0.888907,-0.509304,-0.154548,0.313436,-0.865401,-0.215026,0.253318,-1.06754,-0.696086,0.504223,0.0259857,0.342405,-0.409414,0.530919,-0.253537,0.0829854,-0.31396,0.144575,0.266794,-0.151376,0.116333,-0.747069,0.902358,-0.726259,-0.883229,-0.745721,0.743363,-0.619617,0.310547,-0.379382,0.753043,-0.817274,0.429352,-0.838132,0.0449365,-1.06401,-0.466053,0.401485,0.884318,0.764131,-1.047,0.670144,0.378694,-0.0382545,0.848491,-0.256417,-0.927264,0.81195,0.42968,-0.362753,-0.145043,0.14291,0.931637,-0.701728,0.445749,0.866655,-1.05122,-0.777963,-0.250058,-0.184837,0.296983,0.699161,-0.415212,0.755157,-0.253819,0.731519,0.72022,0.400295,-0.288816,0.102469,-0.580012,0.562151,0.18831,0.577233,0.77692,-0.90052,-0.723028,-0.58833,-0.066456,0.168836,-0.569769,0.834208,-0.960379,0.909099,-0.0744309,-0.906444,-0.640958,-0.395234,0.435457,0.577808,0.398186,-0.21633,-0.90017,0.308172,0.0758916,-0.239152,-0.196502,-0.744122,0.345599,-0.666988,0.282201,0.107865,-0.616865,-0.592079,0.36757,0.235661,0.754681,0.626235,0.927482,0.112645,-0.926181,-0.139283,0.16133,0.476491,0.25741,-0.581468,-0.840861,0.625053,-0.0794108,0.661728,-0.00655069,0.95752,0.739281,-0.82404,-0.828276,-0.667864,-0.366993,0.070659,0.150708,0.590396,-0.555409,-0.548996,-1.02971,0.402323,0.181402,-0.361322,-0.262986,0.192279,-0.786682,0.822365,0.770881,-0.757673,0.408538,0.199582,-0.386087,0.63005,0.298228,-0.742104,-1.05915,0.11863,-0.734865,0.5804,-0.516837,-0.418689,-0.120506,-0.963447,-0.257024,0.520503,0.397144,-0.59235,0.925466,-0.165372,-0.63006,-0.664385,-0.0509377,-0.0346559,-0.90879,-0.146495,0.381911,0.0925091,-0.356774,0.345391,-0.147722,-0.77901,0.270702,0.906734,0.340589,0.43239,-1.01189,0.809685,0.825207,-0.584694,-0.432818,0.0538178,0.864428,0.329784,0.436881,-0.125625,-0.803711,-0.588516,-0.184696,-0.265466,0.581176,0.962448,-0.523436,0.0662338,-0.636546,0.477287,-0.480679,0.0225935,-0.408698,-0.177442,0.0176863,-0.651628,0.537454,0.421615,-0.136837,-0.748996,-0.225138,0.790267,-0.179251,0.753794,0.449894,0.523368,-0.317251,-0.154442,-0.837723,0.408698,0.00500691,0.613579,0.75327,-0.597199,-0.794444,-0.436377,0.931449,-0.0707363,-0.184885,0.340095,0.918958,0.279275,-0.193203,0.580237,-0.614428,0.765567,0.858039,0.0624254,-0.33039,0.530404,-0.907521,-0.848245,0.570538,-0.0881933,-0.61842,-0.80146,-0.988661,0.362596,-0.151381,-0.452439,0.00568077,0.0872301,0.843991,-0.722464,-0.188924,0.510292,0.291708,0.142713,0.782897,0.304108,-0.882772,-0.0799428,-0.82007,-0.956643,-0.790715,-0.463165,0.52556,-0.228065,0.229574,-0.182795,-0.70148,0.810945,-0.107773,0.360694,-0.318615,-0.441933,0.849852,0.852935,0.750503,-0.0651373,-0.378501,-0.918258,0.762124,0.244678,-0.288724,-0.744339,-0.669568,0.319294,0.238484,0.822169,-0.137006,0.198347,-0.999909,0.553573,0.4659,0.675648,0.747375,-0.900988,-0.559454,0.665831,-0.910939,-0.560304,0.611517,0.733068,-0.84374,-0.225304,0.288687,-0.800768,0.0909971,-0.253809,-0.579031,-0.648478,0.181729,0.318345,-0.0179702,0.0852642,-0.102619,-0.915116,0.636813,-0.6217,0.889067,-0.834721,0.475892,0.763694,-0.37191,-0.169945,-0.922161,0.184663,0.77761,0.556913,-0.807591,0.347183,0.319005,-0.213777,0.496016,0.708716,0.62091,0.567414,0.293536,0.541777,0.857944,-0.020174,-0.821523,0.117064,0.0482894,-0.207715,0.189756,0.242942,-0.0500715,0.467755,0.507315,0.859667,-0.329919,-0.291875,0.587711,0.855478,0.657242,-0.254097,0.635831,-0.334143,-0.713045,0.59851,-0.601136,-0.977482,0.532579,0.393112,0.45226,0.715618,0.0842172,0.910067,0.927458,0.812745,-0.953475,0.574134,-0.236996,0.867143,0.270512,-0.392364,-0.576198,0.889125,0.754357,0.316093,-0.223155,-0.458629,-0.203952,-0.465453,0.39579,-0.116745,-0.542403,-0.700229,0.900412,-0.887467,-0.217377,-0.136415,0.359656,0.937654,-0.720735,-0.767197,-0.526626,0.758746,-0.546784,0.549108,-0.467698,0.387311,0.213349,0.826472,0.0204111,0.500916,-0.495129,0.404207,-0.984489,0.480949,-0.467801,0.797913,-0.685077,-0.211994,0.314894,-0.590505,-0.0552626,-0.134896,-0.905544,-0.199196,-0.813886,0.386342,-0.387852,-0.584622,0.151852,0.0845331,-0.190105,-0.412605,0.926127,0.507734,0.165038,-0.227529,0.773934,-0.175313,-0.404865,0.717153,0.0537744,-0.630613,0.803951,-0.261731,0.669479,0.468198,-0.619558,-0.344319,0.367122,0.265239,-0.356843,-0.940106,0.451517,0.0722426,-0.290036,0.459663,-0.298986,-0.762787,0.0800898,-0.315734,0.150668,-0.218445,-0.678124,-0.0856717,0.926315,0.518863,-0.00974736,-0.199246,-0.497527,0.677624,0.121834,0.468937,-0.682868,0.325338,-0.810396,-0.243476,-1.03819,-0.147199,-0.780635,-0.365463,-0.262432,0.676189,0.92855
-0.974614,0.115709,-0.977316,0.0289775,-0.563578,0.390554,-0.411918,-0.374376,-0.923712,-0.460075,-0.223014,0.0895434,0.0439692,0.517756,0.789967,0.457918,-0.651547,0.670222,0.56343,0.81701,-0.6764,0.588277,0.97837,-0.288353,0.303503,-0.119281,-0.247759,0.250627,0.1007,-0.127977,0.473555,-0.445132,-0.489981,0.809841,-0.78038,-0.509031,0.377293,-0.310289,-0.347991,-0.946925,0.216102,-0.304699,-0.495119,-0.756535,0.569006,0.448085,-0.194766,-0.704342,-0.970538,0.68361,0.454431,0.692391,0.811121,0.234558,-0.107077,-0.791935,0.786987,0.02712,0.397684,0.0380814,-0.445259,-0.0679189,-0.359478,-0.172396,0.991584,-0.844839,0.744545,0.177997,-0.0407221,-0.714201,0.148863,-0.998214,0.54573,-0.311201,0.00205882,-0.312184,0.512165,0.84095,-0.651093,0.570551,0.50687,0.380269,0.272863,0.692524,0.583409,-0.669151,0.258863,0.449229,0.260829,0.00929857,-0.512517,-0.198585,0.304297,-0.514554,-0.606743,0.848598,0.699859,-0.802027,-0.474962,0.106876,0.412865,-0.428394,-0.449052,-0.183914,-0.209193,-0.62948,0.310891,0.240101,-0.712668,0.208625,0.431617,0.121657,-0.207063,0.809593,0.0433685,-0.597484,-0.686368,0.958707,0.476178,0.753863,-0.103445,-0.819327,-0.554676,0.944613,-0.25315,0.941684,-0.807062,0.557771,-0.234997,-0.132374,0.972793,0.0428314,-0.435654,0.961804,0.871116,0.0275013,0.442601,0.415682,-0.865672,0.970175,0.171677,-0.223788,0.118797,0.850452,-0.725682,-0.608509,0.339018,0.908608,0.665266,-0.834043,-0.396542,-0.267817,0.335645,0.81926,0.464903,-0.182449,-0.640801,0.943733,0.948888,-0.651975,0.658987,0.566487,-0.348713,-0.716319,0.19617,-0.319194,-0.354647,0.952562,-0.914927,0.825006,0.229025,-0.069197,-0.722588,-0.780138,-0.707574,-0.725338,0.596757,0.382889,0.153976,-0.91754,-0.814725,0.302482,-0.0527128,0.238965,-0.0756586,-0.831567,-0.826969,-0.818491,-0.29325,0.72555,-0.0747047,0.927545,-0.0495757,-0.634685,0.0428024,-0.379907,-0.484407,-0.72135,-0.632877,-0.519737,-0.845028,-0.103415,0.279905,0.57447,-0.0465438,-0.602532,-0.114883,0.926785,-0.00778406,-0.245399,-0.698054,0.434338,-0.375666,-0.491683,0.617689,-0.0107055,0.11709,0.245246,-0.600485,0.902337,-0.755205,-0.244408,0.298864,0.559461,0.405938,0.386768,0.148376,-0.463049,-0.539271,-0.642679,-0.654347,-0.729777,0.661079,-0.580212,-0.995657,0.0816608,-0.0735394,0.253869,-0.503051,-0.828738,0.644187,-0.119145,-0.197674,0.825963,0.852936,0.018069,-0.598373,0.303063,0.836281,-0.188945,-0.731891,0.710859,-0.761867,0.170113,-0.14899,-0.0689839,0.984042,-0.646604,-0.330308,-0.0647029,0.564059,-0.51488,0.699462,0.694209,-0.865982,0.0897623,-0.31367,-0.667444,-0.743316,0.764079,-0.488976,-0.398346,-0.43602,-0.156781,-0.540625,-0.268352,-0.973631,-0.637062,-0.259652,-0.227942,0.194512,0.225093,0.630512,0.779578,-0.991386,0.870686,0.40574,0.409421,0.614558,-0.719216,-0.245368,-0.0420679,0.131063,-0.374321,-0.0633175,0.124359,-0.829239,-0.201358,-0.976715,0.310556,-0.144292,0.657981,-0.763152,-0.159817,-0.298346,-0.681446,-0.277962,-0.671378,-0.792132,-0.799233,0.532277,-0.915584,0.986337,0.961492,-0.791596,0.0124319,0.572312,0.555083,0.788896,-0.00128636,-0.831654,-0.490906,-0.781372,0.564115,-0.227503,0.0912995,-0.972919,-0.148018,0.223903,0.731225,0.754815,0.668923,0.587049,-0.927152,0.0783639,0.63822,-0.82709,-0.126512,0.878252,0.740798,0.95846,-0.213422,0.905368,0.111469,-0.539076,-0.813853,-0.104897,0.0978022,0.985274,-0.91494,0.704379,0.871227,0.346289,-0.586748,0.865876,0.212279,0.5384,0.341712,0.962688,0.302118,0.897474,-0.0883548,0.0282672,0.580464,0.838086,0.0216135,-0.512899,-0.534999,-0.602468,-0.0519834,-0.770629,0.262396,0.326149,-0.496573,0.604749,0.13827,-0.299848,-0.887209,0.951031,-1.00401,-0.675998,0.118627,-0.36413,0.277923,-0.412022,-0.47217,0.766719,0.932058,0.251609,-0.762072,0.338679,-0.260884,0.938286,-0.747411,0.681091,0.105787,0.68448,-0.369566,-0.0837347,-0.191254,0.116981,0.9887,0.239936,0.59795,0.230464,-0.829199,0.415484,0.850897,-0.435188,0.149278,0.448672,-0.558404,0.317594,0.232952,-0.775966,0.929181,-0.507681,0.972912,-0.0625851,0.320409,-0.830304,-0.637403,-0.429206,-0.712374,0.877945,0.409113,0.0983852,0.437706,-0.454079,-0.950997,-0.393067,0.171305,-0.59326,0.625565,0.26015,-0.027487,0.0993884,-0.661161,-0.350738,-0.216286,0.315184,0.845756,0.134072,-0.881116,0.709013,-0.0545859,0.447593,-0.53005,-0.379402,0.312512,0.723621,0.156365,-0.643558,-0.69448,-0.722613,0.235636,0.692568,-0.697045,0.930854,-0.114176,-0.274635,-0.169391,-0.596988,-0.0389444,-0.935795,0.135959,0.509592,-0.280612,-0.911062,-0.1569,-0.685955,-0.463502,0.973948,-0.483984,-0.391637,0.802585,0.649655,-0.941555,0.261654,0.351238,-0.0925713,-0.725171,0.77513,0.860637,0.852246,-0.692846,-0.968802,0.344472,-0.773667,-0.866746,0.62849,-0.165241,-0.312595,-0.428911,0.800336,-0.899687,-0.566324,0.390547,0.521875,0.353873
-0.703165,-0.592461,-0.115635,0.0803087,0.188604,-0.655207,-0.238596,0.779543,0.263453,-0.784277,0.861079,-0.392444,-0.380472,-0.674271,-0.0846469,0.0760277,0.643054,-0.365637,-0.415456,0.536396,0.0131812,-0.620051,-0.65445,0.213594,0.267654,-0.0827848,0.713118,-0.563808,-0.969815,0.0918501,0.062054,0.897425,0.0131282,0.0838243,-0.739274,0.332934,-0.177733,-0.384278,-0.276972,-0.685673,-0.0277511,-0.157214,0.117605,0.6256,-0.39126,-0.572543,0.182009,-0.915141,0.888534,-0.469861,0.0258101,0.585791,0.504521,-0.514826,-0.0723163,-0.936993,-0.985103,0.197238,0.67044,-0.761785,-0.801123,0.73983,-0.846618,-0.723078,0.637596,0.5574,0.265283,0.88879,0.747964,-0.28992,0.753826,0.46361,0.448821,0.196364,0.265074,0.721173,0.751767,0.0688599,-0.697412,0.71299,0.703355,-0.219424,-0.200155,-0.239651,-0.764953,0.432614,-0.897106,-0.106608,-0.694892,0.10011,0.126033,0.330976,-0.303827,0.581319,0.194136,0.432993,0.168899,-0.530078,-0.890186,-0.803441,0.213771,0.5035,-0.0163598,0.414805,-0.880455,0.848612,-0.548363,0.740854,-0.183954,-0.896923,-0.0397128,-0.0678734,-0.597159,-0.0205301,0.359496,-0.220121,0.841614,0.93535,0.000461232,-0.933851,0.908664,-0.314925,-0.863745,0.271181,0.832534,0.56331,0.383526,0.0254712,0.217399,-0.458109,0.426792,0.167296,-0.133586,0.580233,0.476389,0.281055,-0.0140477,-0.699503,-0.888943,0.151611,-0.809026,-0.234393,0.0732344,-0.641816,0.683508,-0.929182,-0.419806,-0.909996,-0.332832,-0.108541,-0.255002,-0.731699,-0.148699,-0.824137,-0.273113,-0.564873,-0.825028,0.428976,-0.898397,-0.486534,0.487461,-0.698169,0.448171,0.20932,0.812982,-0.600153,-0.800203,-0.105101,0.173972,0.497428,0.833022,-0.80503,0.369682,0.201528,0.600107,-0.0219464,-0.382607,-0.382762,0.742719,0.636931,-0.588362,-0.519702,-0.947052,-0.524701,-0.0813058,-0.585221,0.104839,0.366906,-0.793932,-0.076761,0.700722,0.968026,-0.149954,0.956956,-0.233315,0.632076,-0.0241464,0.550447,0.108025,0.331429,-0.887102,0.254355,-0.832782,-0.710722,-0.609253,-0.100547,-0.716057,-0.854055,-0.885519,0.23107,-0.940096,0.763179,0.503957,0.2772,0.544535,0.599937,0.980256,-0.311296,-1.0116,-0.934419,0.173018,0.781928,0.255717,-0.514519,-0.565749,-0.332422,0.290112,-0.272633,-0.275637,-0.609662,-1.00865,-0.531587,0.2202,0.297859,0.762991,0.145848,-0.282388,-0.839878,0.57119,-0.368129,-0.463625,-0.922812,0.305019,-0.152102,-0.827342,0.307325,-0.29741,0.199691,-0.4436,0.240435,-0.418932,0.610093,0.660663,0.819785,-0.909029,0.778713,-0.692642,-0.0976798,0.328953,-0.478486,-0.370341,0.248886,-0.219165,0.594207,-0.219615,0.764202,0.905971,0.140683,0.0234476,-0.386837,0.809096,0.619329,-0.0926703,-0.58458,-0.373319,0.598691,-0.75008,0.385304,-0.951918,0.108926,0.232276,-0.233739,-0.0594134,-0.000565936,-0.684263,-0.214757,0.96937,-0.515913,-0.40743,-0.495219,0.688829,0.0591434,0.69601,-0.224466,0.969734,-0.837378,0.419039,0.390101,0.53359,0.586097,-0.574273,0.273307,0.778855,-1.00883,-0.507969,0.709716,-0.142647,0.68298,-0.632044,0.83174,0.0825936,0.75717,0.583046,-0.350429,0.652075,0.0104839,0.711993,0.912524,-0.535617,0.580333,0.0098556,0.177778,-0.20855,0.64512,0.623358,-0.0614376,0.228636,0.587779,0.871459,0.385233,0.0642317,0.146513,0.447132,0.166958,-0.461518,0.534873,-0.709885,0.46362,-0.291833,0.904475,0.164795,0.698654,-0.553107,0.59696,-0.377242,-0.65342,0.742958,0.576493,-0.0129818,-0.36142,0.982922,-0.975898,-0.158638,0.175979,-0.405367,0.0898506,-0.674435,-0.53882,-0.939105,0.303033,0.383123,-0.0319435,0.886431,0.83672,-0.573362,0.561891,-0.389966,0.550612,-0.34656,0.524617,0.554599,0.215305,-0.878966,-0.197338,-0.995437,0.594641,0.616151,-0.306101,0.395993,0.735224,0.507535,-0.610713,0.136211,0.642611,-0.679297,0.204539,-0.0109956,-0.269156,0.467129,-0.610849,-0.534562,0.65841,0.356156,0.058964,0.900956,-0.405173,0.971947,-0.0114638,0.514587,-0.848127,-0.688919,0.837257,-0.757671,-0.996644,0.648664,-0.207328,0.716063,0.673344,0.569305,0.385985,-0.202795,0.265708,0.822106,-0.897552,0.0262256,-0.3115,0.443127,-0.589348,0.402477,0.591664,-0.315459,0.547207,-0.375792,-0.182467,0.0930801,0.182189,0.112997,-0.844101,0.851376,-0.511503,-0.723848,0.519984,-0.790995,-0.341917,0.477461,-0.521861,0.557874,-0.484841,-0.0583244,-0.343997,0.708554,-0.715541,-0.94021,0.820447,0.772027,-0.411683,-0.0906489,0.308799,0.0335833,-0.587497,0.412469,-0.0443257,-0.98021,0.0465833,-0.505832,-0.137588,0.0407704,0.68616,-0.426406,0.249797,-0.763058,0.127183,-0.590909,-0.886077,-0.893888,-0.404396,-0.0343028,0.590964,-0.513963,0.651242,-0.60258,0.555852,-0.184756,-0.206581,0.674914,-0.194504,0.0105402,-0.692857,-0.760913,0.668626,0.134136,0.936246,-0.905374,0.614818,-0.143013,0.287534,-0.573147,-0.726526,-0.528847,-0.126202,0.372715,0.136465,0.403929,-0.670954,0.749976,-0.574918,0.14396,-0.941229,-0.378029,-0.240167
0.102808,-0.754894,0.740428,0.195979,-0.175363,-0.631443,-0.409862,-0.630611,0.533226,-0.284195,0.781393,0.268071,0.695963,0.702495,0.988336,0.604702,0.175031,-0.894689,0.685301,-0.72221,-0.794238,0.306977,0.143402,0.0371574,0.840574,-0.277668,0.51122,-0.237033,0.20343,0.344553,-0.860863,0.101623,-0.73813,0.684635,-0.728256,0.766422,0.537738,0.802011,-0.850748,0.59673,0.243648,0.82826,0.350898,0.803479,-0.910717,0.230259,-0.330609,-0.119175,-0.265595,0.285053,0.411771,-0.615736,-0.76078,-0.878887,0.228504,0.727627,0.676047,0.126531,-0.0174151,-0.73835,0.0391823,0.168279,0.385109,0.373304,-0.636556,-0.638565,-0.778495,-0.579193,-0.176323,0.415516,0.371607,-0.987835,-0.783362,0.680217,-0.262112,0.915563,-0.840053,0.58958,-0.568784,-0.894412,0.822342,-0.740803,-0.309124,0.0609724,0.491384,0.800548,0.966563,-0.24296,-0.309453,-0.4066,0.533055,-0.821457,-0.847251,-0.694711,0.0788915,-0.237267,0.849147,0.982389,0.823037,0.64813,0.750859,0.311356,0.776583,-0.627695,-0.0699387,0.469485,-0.126815,-0.510619,-0.757959,0.47641,-0.705382,0.539536,0.820135,0.388369,-0.607995,0.333661,-0.859145,0.766691,0.273376,-0.404301,-0.34534,-0.463849,-0.158951,-0.783196,-0.758971,-0.911343,-0.565534,0.979933,0.353686,0.751756,0.258144,-0.944198,-0.00688256,0.219678,0.509115,0.530989,0.0408485,-0.744414,0.389423,-0.0178039,0.30006,-0.810396,-1.00179,0.402349,-0.940608,0.0857532,0.438615,-0.296423,0.737388,0.943869,-1.01325,0.847083,0.20033,0.650205,-0.346313,0.380525,0.761181,-0.840789,0.0892938,-0.106182,0.863631,-0.804123,-0.321687,0.510419,0.878748,0.690568,-0.59562,0.144008,0.34567,0.0910648,-0.549329,0.458598,-0.997688,-0.85666,-0.811231,-0.254282,0.651621,-0.497395,0.31994,0.441363,0.324041,-0.264201,0.769784,0.35685,-0.812609,0.519549,0.661628,0.775415,0.82446,-0.828443,-0.722332,0.93328,-0.768495,0.0755334,-0.17998,0.331846,-0.381445,-0.508392,0.76121,0.0244271,-0.711688,0.56332,0.628627,-0.755704,0.608756,-0.374039,0.457568,-0.916103,0.82174,0.519829,-0.00498701,0.585485,0.679807,0.990655,0.208395,-0.967849,0.655057,0.122458,-0.926078,0.217958,0.412267,0.0240614,-0.837067,0.0337609,-0.638824,-0.0836155,-0.165746,-0.656691,-0.186404,0.0226227,0.0364042,-0.435761,0.839559,-0.613807,-0.163871,-0.534501,-0.253811,0.253601,-0.581739,-0.634465,-0.145215,0.882652,0.909986,0.0256916,0.807135,-1.01687,-0.76279,-0.511143,-0.225117,0.963077,0.0405359,-0.210928,0.350118,-0.949164,0.130744,-0.472859,0.346708,0.257241,0.0653984,-0.0748814,-0.213227,-0.456043,-0.971659,-0.506283,-0.589814,-0.129781,-0.84449,-0.326485,-0.563941,0.0596147,-0.590781,-0.481806,0.443367,-0.923101,0.874568,0.482949,-0.196329,0.368446,-0.202106,-0.77647,-0.833184,0.736172,0.47547,-0.0447952,-0.449218,0.231863,0.135839,-0.182468,0.912548,0.32991,0.275401,-0.286141,-0.806635,0.00675581,0.672676,0.462491,0.100056,-0.55608,0.762693,0.660346,-0.684548,-0.0578229,0.0436407,0.257486,0.674012,-0.330376,0.224755,0.631233,-0.0784824,-0.277149,-0.659787,0.237298,-0.420323,-0.404556,-0.369755,-0.931278,-0.134744,-1.00281,-0.527118,-0.546152,-0.290382,-0.849326,-0.49951,-0.868211,-0.839633,0.614744,0.264205,0.879776,0.0543394,0.802975,0.787573,0.493598,0.17477,-0.931499,0.883252,0.730679,-0.0631969,-0.445277,-0.795646,0.675022,0.990631,-0.927092,0.486576,-0.238714,-0.929247,-0.00287671,0.795695,-0.43798,-0.463927,0.320322,-0.596991,0.318829,-0.124047,-0.0268597,0.823839,0.107806,-0.318693,0.239071,0.183616,-0.721757,-0.319349,-0.0929662,-0.548288,0.89671,-0.693157,0.676333,-0.465982,0.613221,-0.592595,0.424345,0.792677,-0.791094,-0.514827,-0.483434,-0.654228,-0.853327,-0.743495,-0.107361,0.303035,0.536849,0.950632,0.363521,0.00159525,0.83706,0.188072,-0.66286,0.269674,-0.173438,-0.857242,-0.0751792,0.490888,0.0481384,-1.01012,0.810993,-1.02686,-0.822238,-0.447847,-0.232156,-0.470552,-0.346936,-0.219531,0.767553,-0.0414824,0.821943,-0.189059,0.506202,-0.499794,0.643602,0.332823,0.908882,0.383392,-0.372064,-0.851064,-0.982511,-0.323671,-0.497304,-0.808972,-0.0294539,-0.0120955,0.115284,0.316284,0.862458,-0.994405,-0.630985,-0.652657,-0.987586,0.393041,0.472469,-0.58346,0.137993,0.847483,0.715168,-0.248709,0.693698,0.356086,-0.481534,-0.181211,-0.84351,0.53164,-0.013402,-0.975983,-0.27172,0.718806,0.0303213,-0.372047,-0.135772,0.672244,-0.905458,-0.650421,-0.446686,-0.661316,-0.148441,0.0428431,0.769375,0.144863,-0.685244,-0.603,0.123035,-0.692441,0.741509,-0.865451,0.684787,0.0988483,-0.311486,0.290684,-0.243268,0.654493,0.165521,-0.3023,0.70951,-0.198494,-0.848184,0.891721,0.335784,-0.628336,0.319457,0.765707,0.709333,0.226466,0.300564,0.134313,-0.359697,-0.610454,0.282337,-0.507256,-0.680791,0.55771,-0.880392,-0.605811,0.797012,-0.849408,-0.117454,-0.395621,-0.288053,0.491339,0.276098,-0.397872,0.770315,0.395315,-0.702002
0.744787,0.0448981,-0.526225,0.638464,-0.793827,-0.473958,-0.715222,0.441194,-0.0477634,-0.590486,-0.82938,-0.640114,-0.0874166,0.83066,-0.447912,-0.601797,0.561909,0.456856,0.692299,0.410455,-0.969813,0.936753,-0.26419,0.595218,-0.220627,0.0796959,-0.947929,0.757555,-0.153766,0.444213,-0.0457942,-0.29903,-0.880308,0.855076,0.165355,-0.436146,-0.00518248,-0.284721,-0.0170177,0.359063,0.596895,0.860155,0.432935,0.792389,0.133569,0.713939,0.809696,0.158498,0.122302,-0.132954,0.766276,-0.854359,0.552996,0.599323,-0.387512,-0.388467,0.673495,-0.00822665,-0.866451,-0.039311,0.299801,-0.169718,0.0784992,-0.192198,0.527475,0.106423,-0.651906,0.951203,-0.629697,0.508797,0.172322,0.540793,0.0221278,-0.595111,-0.689535,-0.576124,0.883106,0.357832,-0.637803,-0.130888,-0.731927,-0.12995,0.271507,0.917328,-0.985759,-0.187332,0.0069887,-0.474419,-0.931289,-0.803818,-0.690989,-0.588014,-0.767004,0.202917,0.765464,0.311255,0.341667,-0.427764,0.576608,0.134588,-0.492743,0.426669,0.376167,0.0491997,0.635945,-0.346117,0.0581534,-0.480603,-0.621267,-1.00229,-0.711016,-0.612359,0.232842,0.488741,-0.666223,0.895072,0.850165,-0.922472,0.574948,0.458779,-0.0446436,0.726213,-0.581144,0.00997034,-0.739099,-0.598524,0.708069,-0.313906,-0.870864,-0.125406,-0.210586,-0.974147,-0.333233,-0.404404,-0.348433,0.176932,0.827797,-0.558616,-0.296983,0.944656,0.229251,0.139244,-0.895964,-0.687206,0.173298,-0.00339418,-0.46457,0.10402,0.0390806,0.163479,0.684839,-0.867381,-0.72311,0.472759,-0.0770192,0.817904,-1.01467,0.884384,0.0220934,-0.000237592,0.59676,-0.00180321,0.442995,-0.93926,-0.433185,0.0126671,-0.652446,-0.822987,0.642504,-0.552662,-0.452396,-0.825522,-0.143006,-0.365117,-0.637844,-0.503001,0.0193997,0.858669,-0.835875,-0.671689,0.532306,-0.281123,-0.143431,0.672612,-0.702975,0.649721,-0.875709,0.35928,-0.977374,0.894687,0.00297745,-0.969636,-0.512221,0.307501,0.328417,0.43588,0.0686281,-0.821956,0.657399,0.223254,-0.507429,-0.375764,-0.421062,-1.04351,0.00591261,0.577306,-0.729098,0.259835,0.0967174,-0.270932,0.715403,0.442765,0.193223,0.0974292,-0.154163,0.842116,0.797325,-0.274352,-0.145432,0.639258,-0.500627,0.106244,-0.732094,0.666718,0.47957,-0.0637043,0.35184,0.67719,0.0684622,-0.480365,0.225904,0.299626,-0.410806,-0.703393,-0.0759869,0.123012,-0.331746,-0.0808224,0.114468,0.902947,0.926335,0.730562,-0.794277,0.579794,0.429827,0.279463,0.505052,0.728612,0.684119,0.91956,-0.731367,0.162493,-0.546965,-0.796106,0.545183,-0.801319,0.351777,-0.978021,0.643357,-0.402215,-0.20942,-0.268612,-0.416992,0.784048,-0.807895,-0.406989,0.153084,-0.306626,0.569448,0.288375,-0.508467,0.432669,0.646863,0.947522,0.137173,-0.203915,0.735747,0.48934,-0.473463,-0.838506,-0.664719,-0.948121,0.917029,0.579683,-0.290499,0.9011,0.143891,-0.552608,0.409347,-0.110403,-0.0493422,0.254271,-0.617636,-0.0106338,0.618824,-0.879086,-0.0687943,0.467781,0.578541,0.241611,-0.527006,0.280774,-0.847978,0.20132,-1.00953,-0.198119,-0.878527,-0.214406,-0.191315,-0.671044,0.443342,-0.874985,0.418556,-0.800486,-0.0248285,-0.478123,0.488654,0.0883041,0.342126,0.573218,-1.00511,0.51407,0.883317,-0.258604,-0.417515,-0.735328,0.511191,0.301084,-0.654761,-0.813265,0.586332,-0.12353,-0.336233,0.446716,-0.211935,-0.859264,-0.627599,0.540331,-0.407945,-0.000346525,-0.493362,-0.872551,-0.829825,-0.46889,0.452158,0.587454,-0.747069,0.148792,0.112717,0.0648375,0.810263,0.579873,0.875212,0.85566,0.0297812,0.341331,-0.126307,-0.638335,-0.868939,-0.492712,0.885454,0.951919,0.517911,-0.460868,-1.01387,-0.0516265,-0.626591,0.0207609,0.484894,-0.221648,-0.389346,-0.745405,-0.224369,-0.859153,-0.381802,-0.598012,-0.586282,-0.899612,-0.54304,0.622251,-0.693007,-0.292118,-0.119552,0.0244542,0.845485,0.359688,0.681576,-0.867863,-0.459089,0.831954,-0.953639,-0.57289,-0.193032,-0.250146,-0.344011,-0.429421,0.684318,0.919267,-0.513221,0.625866,0.394858,-0.403246,-0.236512,-0.00748515,-0.484728,-0.418869,-0.0516989,0.192715,0.0900624,-0.706905,-0.387005,0.393456,0.963486,-0.229576,0.0814291,-0.3666,-0.252492,-0.31079,0.0092992,0.130251,0.403225,-0.248759,0.768458,0.49897,0.548129,0.349684,-1.03558,0.0440213,0.126681,0.325833,0.880846,-0.383225,-0.866053,0.00205833,-0.436006,-0.476129,-0.304334,0.634524,0.0976914,0.965814,0.936013,0.800691,0.204583,0.313983,-0.363251,-0.936505,-0.98188,0.28809,-0.38654,0.262104,0.9124,0.512193,0.41221,-0.671413,0.836519,0.451656,-0.34108,-0.23272,0.165772,-0.774506,0.560975,0.0143571,0.518358,0.219033,-0.222406,-1.00373,0.863876,-0.338899,-0.3591,-0.865018,-0.0322121,0.965939,0.778073,0.471237,0.942775,0.628616,0.583943,-0.117136,0.497888,-0.202205,0.253071,-0.543415,0.799733,0.745559,-0.0739844,-0.613612,0.426675,0.782107,-0.766915,0.454742,0.334198,-0.505527,-0.375284,-0.254988,0.812784,-0.506043,-0.46931,0.907918,-0.821581,0.231116
-0.797448,-0.0404304,0.273055,-0.831911,-0.969192,0.649154,0.289229,-0.0466762,-0.609697,0.908629,-0.534386,0.17481,0.648319,0.151836,0.191572,-0.846488,0.228545,-0.121355,0.363881,-0.911131,-0.213693,-0.00242697,-0.736357,-0.0372465,0.769037,0.532195,0.654538,-0.347407,0.319612,-0.720999,-0.926411,0.245611,-0.731395,0.758635,-0.363528,0.328931,0.521515,0.737486,-0.154546,0.0854912,0.754215,-0.582472,0.7804,-0.802461,-0.126804,-0.503518,0.920589,-0.579759,0.85284,0.139227,0.94883,-0.771296,-0.74339,-0.438603,-0.383717,0.0814491,-0.13687,-0.729918,0.0256471,-0.790413,-0.170038,0.75043,0.776519,0.352281,-0.626984,0.203401,-0.589979,-0.545285,0.111273,0.8642,0.93667,0.189004,0.611102,-0.865934,0.968175,-0.504793,-0.888219,-0.910306,-0.831803,0.144142,-0.453648,-0.954983,-0.596331,-0.0973427,-0.191064,0.888338,0.585151,0.801671,0.702055,0.349419,0.274295,0.376286,-0.843999,0.0671466,-0.815902,0.657044,0.420277,0.191726,0.00721668,-0.921211,0.842551,-0.519486,0.684289,0.775864,-0.885231,0.952758,-0.615374,-0.473036,-0.487175,0.933069,-0.504043,0.168097,0.469703,-0.576525,-0.687003,0.437176,-0.615398,-0.88889,-0.164451,-0.43539,-0.615118,-0.601607,0.0368716,-0.37977,-0.637407,0.721847,0.924988,-0.390187,-0.945227,0.0894736,-0.546145,-0.284958,0.158884,-0.0480261,0.460458,0.574395,-0.604663,0.00961027,0.0921841,-0.131333,0.583217,-0.514304,0.902731,0.379782,-0.61386,0.5669,-0.661424,-0.158202,0.361597,-0.870467,-0.154899,0.234826,0.0856652,-0.594451,-0.349496,-0.318265,-0.513718,0.052134,-0.61114,-0.223559,0.330098,-0.834139,-0.259328,0.566107,-0.685181,-0.784803,-0.301849,-0.825607,-0.276561,0.992406,0.292944,0.956461,0.839124,0.294483,-0.455434,0.387515,0.270846,0.746596,0.0453221,0.87772,-0.941341,0.316754,-0.391682,0.112665,0.708557,-0.524823,-0.0749916,0.500607,0.194005,0.338255,0.567557,0.190057,-0.962424,-0.67674,-0.89309,-0.158775,-0.345627,-0.317656,0.467332,0.570861,-0.606833,-0.692603,-0.52433,-0.0897858,-0.341593,0.0856391,0.00380402,-0.572068,-0.964561,-0.157268,-0.45562,0.414635,-0.00682225,-0.996609,-0.8263,-0.736271,-0.0198734,-0.972159,0.550151,0.751143,0.574064,-0.919408,-0.902665,0.106893,-0.259314,0.0368307,0.791599,-0.0889273,0.619173,-0.769979,-0.003918,-0.0658111,-0.185405,-0.398647,-0.825495,-0.0508245,0.604378,-0.121301,0.497921,0.365635,-0.54973,-0.612674,-0.503957,0.120055,-0.597934,-0.915687,-0.391084,0.0699083,0.212559,0.739677,-0.790713,0.745909,0.170903,0.802718,0.607488,-0.471613,-0.21439,0.567147,0.203218,-0.569206,-0.592654,0.41707,-0.43955,0.43132,0.205596,-0.183243,-0.494381,-0.677257,-0.580738,0.458746,-0.687863,-0.619866,0.493633,-0.0627049,-0.130585,0.0599172,0.626778,0.42337,0.97863,-0.267253,-0.913241,-0.0167379,-0.285655,0.668766,-0.901828,0.803045,-0.19853,-0.138163,0.154954,-0.40402,0.359264,-0.0532283,0.789128,-0.526106,-0.0570454,-0.445321,-0.789758,-0.505577,-0.916087,0.650621,0.523364,0.182964,0.582333,-0.251773,-0.681022,0.627436,-0.851009,0.0729657,0.884585,-0.512354,-0.380393,-0.31357,0.457231,0.844274,-0.531374,0.825759,-0.221432,0.0383876,0.725162,-0.137855,-0.36873,-0.908643,-0.923275,0.922693,-0.0515057,0.762091,-0.92663,0.24033,0.767763,0.0734043,-0.560397,0.472767,0.062508,0.364858,-0.559887,-0.429139,0.134948,0.643779,0.921642,0.113444,0.0412667,0.353434,0.128516,-0.483816,0.168122,-0.334535,-0.410758,-0.307412,0.288885,-0.887395,0.658015,0.170197,0.995118,0.497183,-0.789744,-0.352161,-0.734488,0.81313,0.2577,-0.247849,-0.29054,0.775491,-0.207661,-0.0548785,0.791722,-0.114024,-0.688695,0.0439357,-0.466153,-0.54581,0.942797,-0.837665,0.27596,0.65732,0.736442,-0.781329,0.21579,0.888301,-0.341487,-0.311483,-0.797264,-0.858794,-0.842122,-0.990187,-0.689719,0.19085,0.454586,0.823819,0.353822,-0.584748,-0.382786,-0.493142,-0.558805,0.963434,-0.818127,0.13796,0.372853,-0.943362,0.418152,-0.740489,0.997771,0.800323,-0.441249,0.166879,-0.488912,-0.288622,0.301018,-0.25073,-0.840242,-0.855779,-0.658798,0.222683,-0.27288,-0.51143,-0.920572,0.196396,0.8658,0.462654,-0.363451,0.906989,0.178135,0.187846,0.284221,0.170949,-0.172452,-0.547964,-0.871297,0.000162567,-0.715622,-0.414458,-0.167716,-0.0444417,-0.136084,0.0668814,0.757739,-0.234074,0.147125,0.797943,-0.115424,-0.688033,0.825408,0.764546,-0.253997,-0.0177741,-0.913258,-0.501423,0.165258,0.808786,0.167775,-0.899508,-0.456193,-0.0390448,-0.164097,0.882529,-0.930007,0.883153,-0.961895,0.00726499,-0.756391,0.787222,0.972258,0.584257,-0.725436,0.487757,0.162013,0.366529,0.349841,0.000949121,0.89514,-0.861886,0.749829,-0.029908,0.916941,0.0645392,-0.349104,-0.941813,0.707545,-0.952389,-0.579967,-0.0663399,-0.524089,-0.681751,0.665369,-0.283044,-0.708499,-0.92645,-0.239291,0.460086,-0.917584,0.425328,-0.289369,-0.96113,0.313725,0.690924,0.297464,0.905062,-0.413807,-0.924929,0.491197,0.771111
-0.21031,0.501105,-0.974914,0.498728,0.538374,0.185571,-0.755125,-0.391368,0.19439,-0.620598,0.369625,0.744379,-0.441807,0.0694642,-0.225789,0.0611534,0.772169,-0.446805,-0.56192,0.638046,0.891194,0.748403,-0.332088,-0.53475,0.879189,0.618004,0.639653,0.461209,0.8404,-0.420228,0.160264,0.380698,0.865642,0.62282,0.928963,0.707603,-0.249929,0.817696,-0.69483,0.245215,-0.294112,-0.938154,-0.279894,0.785999,0.238193,-0.85018,-0.0335416,0.372471,0.633675,-1.03121,0.678558,0.0872535,-0.124603,0.52157,0.394576,-0.298723,-0.2171,0.798245,-0.753618,0.403729,0.294209,0.748589,-0.627544,0.486734,-0.0894166,-0.387406,0.395606,0.358567,0.0485464,-0.0438337,-0.587368,-0.68302,0.559623,0.376256,0.292469,-0.683444,0.659055,0.242841,-0.561324,-0.783574,0.00520153,0.0639127,-0.981829,-0.897926,0.928147,-0.415442,0.28411,-0.93681,-0.709047,0.816788,-0.491418,-0.641434,-0.108484,0.787837,0.125226,-0.0964162,-0.316257,-0.588932,-0.498824,0.149675,-0.943877,0.585605,0.407227,0.582519,0.437683,0.58228,0.177907,-0.412818,0.0335108,-0.732298,0.891376,0.0555235,0.145783,-0.337495,0.284384,0.185849,-0.162166,-0.152727,0.577824,-0.143948,-0.0926886,-0.988521,-0.616876,0.712624,0.437787,0.172608,0.21878,0.238698,0.186459,-0.231029,-0.797214,0.165075,-0.827189,0.560761,0.107879,0.611478,-0.0161031,0.115746,0.201835,-0.17025,-0.738686,0.116078,-0.55166,0.0693538,0.60996,-0.925598,0.377509,0.439633,0.890986,-0.0528491,0.503594,-0.00988407,-0.229846,0.174959,0.190903,0.504212,0.471824,0.112981,-0.998731,-0.231302,0.189547,0.480816,-0.0403984,0.0630909,-0.263799,0.91843,0.862661,0.614591,-0.833749,-0.783007,-0.470518,-0.0443386,0.829059,0.632312,0.557667,-0.209926,-0.0667813,-0.00908245,-0.144053,0.0191423,0.743674,-0.832562,0.205548,0.235856,-0.320456,0.288668,0.286269,-0.0270583,-0.976236,-0.571374,-0.534616,0.805612,-0.312479,-0.102256,0.555029,0.953561,-0.962957,-0.892957,0.125833,-0.617636,0.42297,-0.98332,0.453004,-0.839915,-0.518609,-0.281055,0.664709,-0.339819,-0.582214,0.963218,-0.666083,-0.0828271,-0.445344,-0.829969,0.538104,-0.83656,0.207503,0.362369,-0.413247,-0.340933,0.503498,-0.289352,0.822933,-0.53446,0.813719,-0.243042,-0.00374646,0.686199,0.85669,0.491001,0.119895,0.0877106,0.735516,0.0492716,-0.635368,-0.407112,0.0558238,0.0186523,-1.01864,0.522067,0.473142,-0.240172,-0.667132,-0.154553,-0.254364,-1.00787,0.470094,-0.339137,0.157163,-0.220945,0.629898,0.141497,-0.129196,0.942945,0.102936,-0.322216,0.306491,-0.41078,-1.02715,-0.921371,0.132333,-0.765312,0.213053,-0.535994,0.467124,-0.750213,-0.342125,-0.127934,0.578042,-0.460035,-1.0254,-0.886012,-0.429727,0.231992,0.119106,-0.28963,0.613353,-0.00513888,-0.159726,0.930083,-0.825344,0.875859,0.749674,0.250257,0.23425,-0.41797,0.361452,-0.977103,0.819876,0.373574,0.749629,-0.0687332,0.415224,-0.537844,0.249365,0.473744,-0.184937,0.523286,0.698874,-0.195213,0.660531,0.351978,0.723133,-0.668868,-0.0108442,-0.69572,-0.105691,0.0647671,0.841742,0.0305144,0.65558,0.288656,-1.01204,-0.540508,0.531869,-0.028557,0.0126666,-0.256776,-0.531177,0.345875,0.896955,-1.053,-0.681618,0.182523,-0.745444,0.026493,-0.611075,0.518928,0.875063,-0.930295,0.424455,0.10252,0.790234,-0.653149,0.887142,-0.378237,0.418679,0.258179,-0.801256,-0.911733,-0.748107,-0.983361,0.547078,0.405786,-0.160941,0.50382,0.503001,0.0769446,0.146963,0.565558,-0.958971,0.836825,0.622931,-0.184608,-0.895609,-0.39843,0.848747,0.966866,0.427621,0.00553707,0.0967706,-0.126847,-0.992389,-0.37008,-0.328141,0.0988029,0.27283,0.424546,-0.855132,0.636803,0.754025,0.75813,-0.892497,0.652649,0.562041,-0.612064,0.843674,-0.618586,0.174714,0.545973,0.107798,0.939763,-0.946024,0.463474,0.659868,-0.164092,-0.0683906,0.165479,-0.488981,-0.226949,-0.139179,-0.683883,-0.322554,0.368593,-0.997507,-0.572551,0.782838,0.787629,-0.0260968,0.62033,-0.354586,0.864683,0.520409,0.0723748,-0.983534,-0.276667,-0.652808,-0.041139,-0.461498,-0.284447,0.0463728,-0.607625,-0.464519,-0.593313,-0.227376,0.710535,-0.592213,0.162468,0.035869,-0.800821,-1.04399,0.351504,0.358548,0.634832,-0.627305,0.0742001,-0.556078,0.189816,0.442618,-0.877578,-0.781578,-0.742383,-0.317399,0.708825,0.0492627,0.665471,0.775759,0.572152,-0.695924,-1.00798,0.39134,-0.531278,-0.374444,-1.02757,-0.321201,0.569501,0.594838,0.609135,-1.01647,-0.500979,-0.142631,0.397814,0.283552,0.666937,0.910245,-0.241731,-0.956816,0.820153,-0.457878,-0.552999,-0.524661,0.370218,0.137963,-0.915568,-0.448833,-0.130275,0.892805,0.00450519,-0.80722,-0.918644,0.704305,-0.495739,0.122384,0.0313335,0.691218,-0.375885,-0.516531,0.00177807,-0.97708,0.531967,-0.454645,-0.640139,0.416219,-0.788481,0.709291,-0.365397,-0.194292,0.684305,0.58648,0.585422,0.706056,0.645221,0.131016,-0.856565,0.833145,0.460545,0.328846,-0.84187,-0.00919162,0.457509
-0.533425,-0.743883,0.170519,0.308082,0.067912,-0.898682,0.620235,-0.170103,-0.741677,0.828676,-0.847449,-0.5938,0.481572,0.94188,-0.913169,-0.0348909,-0.694859,-0.446885,0.210922,-0.753161,0.0979565,-0.149524,0.326165,0.471863,0.0451812,-0.977018,-1.02047,-0.744399,0.435615,0.0587665,-0.571192,-0.468068,0.276049,0.969159,0.704764,0.792557,-0.581781,0.636881,-0.495687,0.841064,-0.97219,0.976041,-0.423418,0.100522,0.87123,0.115248,0.411364,0.717594,0.657194,0.540344,0.902033,0.975816,-0.821952,-0.946052,-0.0290576,0.540083,0.764944,0.954301,-0.626179,-0.966456,-0.842212,-1.012,0.239159,-0.336272,-0.461548,-0.688948,-0.737799,0.57751,0.351359,0.899864,0.635399,0.838375,0.207407,-0.0719016,-0.71016,-0.5714,0.694411,0.700597,0.850919,-0.909459,-0.500176,-0.89541,0.852435,-0.759289,0.223038,0.815015,0.683036,0.845434,-0.377692,-0.308055,-0.832829,0.974278,0.00306073,0.735007,-0.805819,-0.167908,0.228653,-0.55899,-0.771546,0.712888,-0.785709,-0.313378,0.108996,-0.94184,-0.131974,-0.451836,-0.461392,0.457125,-0.885109,0.173138,0.604287,-0.98157,0.90712,-0.417879,-0.546764,-0.40741,0.568277,0.0791843,0.885432,-0.24271,-0.288563,-0.941219,-0.325859,-0.659309,-0.28444,0.0948583,-0.517001,0.428418,0.866888,-0.570526,0.449377,0.588706,-0.561492,-1.00357,0.700559,-0.524427,0.455808,-0.505444,-0.0500664,-0.463085,-0.927992,-0.743846,-0.828708,0.380784,0.620222,0.134478,-0.0357248,0.422966,0.465017,-0.872778,-0.435509,0.594259,-0.332036,0.310105,0.888608,-0.133659,0.658584,-1.00205,-0.464127,-0.491966,-0.857273,-0.55227,-0.66262,-0.402879,0.308997,0.858367,0.789977,0.910378,-0.513147,0.0314387,0.580604,-0.804493,-0.788866,0.756606,-0.483758,-0.416895,-1.00283,0.343418,-0.522653,-0.852689,-0.162869,-0.71678,0.0730576,-0.517847,0.24752,-0.571534,-0.360554,0.00492903,-0.227444,0.808655,0.423409,-0.300697,-0.787998,0.630156,0.382863,0.317332,0.15313,-0.609568,0.0374134,-0.721028,0.438878,-0.90811,-0.264581,0.756342,0.733838,-0.0557681,-0.587679,0.927669,0.265823,-0.472766,-0.917812,0.615878,-0.750336,-0.731563,-0.87634,-0.611102,0.832455,-0.833655,-0.0802691,-0.589046,-0.830166,-0.336578,0.442804,0.179787,0.716851,-0.460051,-0.930041,0.711842,0.317703,0.9195,-0.414314,0.331747,0.741651,0.0158416,-0.353449,-0.993915,-0.509875,-0.0961611,-0.0317564,0.600939,0.468196,0.62561,0.614497,-0.576774,-0.604573,0.401561,0.949725,0.107556,-0.463077,-0.110996,0.205294,-0.477084,-0.408107,-0.606554,0.549965,0.618299,-0.745969,0.821791,0.558107,-0.162258,0.680721,0.235903,0.620071,-0.0151636,0.0902048,0.373621,0.289611,-0.133811,0.638305,0.401141,-0.728294,0.339126,0.48151,0.73444,-0.885381,0.827555,0.230271,0.27593,0.750058,0.138636,-0.978972,0.606671,-0.851236,-0.175143,-0.122887,0.162542,-0.951217,-0.339023,-0.0176584,0.231417,0.824412,0.454343,0.306601,-0.673695,0.217791,0.24001,0.552884,0.416711,-0.461754,-0.727248,0.824423,-0.580184,0.125462,-0.391401,-0.441684,0.276349,0.321036,0.433054,-0.240467,0.251332,0.44106,0.113195,-0.433458,-0.123188,0.160508,-0.963385,-0.9283,0.655956,0.110021,0.260964,0.267438,-0.195131,-0.67766,-0.48587,0.757147,-0.264647,-0.255064,-0.0437926,-0.379792,-0.851317,0.181398,-0.0795559,-1.0124,-0.517686,0.149106,-0.29294,0.366639,-0.507286,0.170748,-0.360383,0.171512,-0.488264,0.572547,-0.429816,-0.950154,-0.0560154,0.900818,-0.0776799,0.955374,-0.101768,-0.925201,0.211022,-0.978313,0.548309,-0.34389,-0.543349,-0.830777,-0.831366,-0.555928,-0.588775,-0.048237,-0.261583,-0.922869,-0.184506,0.785074,-0.537663,-0.582493,-0.869541,0.874851,-0.574464,-0.099485,-0.00928965,0.932603,-0.95265,-0.104193,0.706555,0.0108926,0.0990606,0.671941,-0.925099,0.504008,-0.233805,-0.0318414,-0.231442,-0.37489,-0.788746,-0.613931,-0.109124,0.91382,-0.525747,0.396731,-0.224962,-0.934857,-0.14447,0.306675,-0.145369,-0.590137,0.273462,-0.417189,-0.230404,0.067754,-0.107805,-0.182551,-0.741854,-0.180399,0.717776,0.873177,0.453447,0.768968,-0.42434,0.338114,-0.329196,-0.439124,-0.435364,-0.0400423,0.720088,-0.369415,0.440691,0.868293,0.817993,0.928171,-0.211026,-0.721098,-0.418398,0.1912,-0.651871,0.127411,-0.816591,-0.324069,-0.256225,0.82552,-0.0882561,-0.274766,0.188067,-0.642068,0.787385,-0.316468,-0.654927,0.719875,0.787894,0.410067,-0.487745,-0.279488,-0.433464,-0.275438,0.467922,-0.164226,0.782846,-0.206609,-0.397623,-0.416147,-0.693696,0.517801,0.387907,-0.747992,0.812075,-0.147072,-0.214816,0.0313436,0.77942,0.471893,-0.246898,-0.848256,0.107277,0.393752,0.483442,0.445577,0.60729,-0.00682071,-0.528715,-0.624476,-0.00193001,-0.577665,-0.316391,-0.348655,-0.248249,-0.270589,-1.00478,-0.0251983,-0.0156741,-0.363926,0.648215,-0.232794,0.0897799,-0.0600759,-0.540418,0.342043,-0.877744,0.0521538,-0.608406,-0.375325,-0.966029,0.444564,0.552874,0.569702,0.75738,-0.481217,0.855248,-0.129292,0.238673
-0.0203392,-0.46943,0.916653,0.101751,0.738895,0.554595,0.627986,-0.749627,-0.17735,0.696648,-0.185931,-0.507144,0.0541578,-0.2544,-0.00547381,0.90966,0.0783194,-0.371368,-0.783441,0.824769,0.0638567,0.145697,-0.5078,-0.478756,-0.201059,-0.667625,-0.143979,-0.628352,-0.0105132,-0.244962,0.799788,-0.563374,-0.876249,-0.478609,-0.986575,0.540584,0.584105,0.46178,-0.675307,-0.284499,0.28374,0.15801,0.788531,0.59866,0.21723,0.378467,0.801857,-0.808492,-0.633796,-0.682992,-0.872436,-0.860986,-0.477863,0.599007,0.168383,0.915071,-0.642105,0.484664,-1.01866,0.816642,0.808892,-0.559596,0.170448,0.685361,-0.58607,0.549424,0.426259,-0.342334,-0.364481,0.00546589,-0.141829,-0.412451,-0.169488,-0.448073,-0.920959,-0.990445,-0.705651,0.68071,0.247402,-0.696842,-0.922282,-0.501216,-0.739575,-0.464002,0.831213,0.196395,0.674381,-0.252609,-0.521902,0.615886,-0.358803,0.679849,-0.545972,0.576426,0.919443,0.17772,-0.250343,0.387499,0.149658,-0.772051,-0.0637298,0.677983,0.392764,0.233546,-0.0336957,0.242872,0.177787,0.372436,-0.632708,0.475225,0.102702,0.589014,-0.701162,0.940068,0.0380422,0.685511,0.400574,-0.59433,-0.204407,-0.618063,-0.702033,-0.998158,0.596792,0.849801,-0.15929,-0.462506,0.555574,-0.403572,0.331868,0.944593,-0.860449,0.518735,0.631819,-0.129869,-0.208541,-0.213704,-0.105353,-0.11748,0.378016,0.598172,0.340098,0.938539,-0.146668,0.365789,0.61837,0.886942,-0.32754,-0.601516,-0.673159,-0.759781,-0.218886,-0.710999,-0.30502,-0.284448,0.42856,-0.251245,-0.00945467,0.847344,0.4552,0.929824,-0.428171,-0.538799,0.20608,0.837665,0.0354784,0.938458,-1.02333,-0.608159,0.850564,-0.191287,-0.0156047,0.834637,-0.570188,0.224533,0.714027,-0.433811,0.915068,0.683714,-0.69317,-0.337416,0.0530564,-0.0416817,0.223945,0.180555,0.570396,-0.626951,0.0416054,0.839015,-0.520858,-0.632783,0.467379,-0.435899,0.0370008,0.15908,-0.335288,-0.526992,-0.874922,0.806683,-0.344271,0.337195,0.955404,-0.946321,-0.743581,0.84584,0.508566,0.624466,-0.495732,-0.952369,0.861863,0.184751,-0.67676,-0.181749,-0.795957,0.714952,0.587578,-0.947978,-0.640651,-0.888803,-1.03143,0.940084,-0.548439,-0.700208,-0.183134,0.278356,0.0759388,-0.14142,-0.223481,0.317581,-0.951822,0.0359911,-0.237695,-0.499204,-0.715368,-0.0830301,0.572985,-0.630887,0.0065171,0.0042805,0.699278,-0.074706,0.0343381,-0.689488,0.0719173,-0.0186545,0.601721,0.278004,-0.744672,-0.557084,0.147314,0.632042,-0.381577,-0.720368,0.599338,-0.840598,0.0830431,0.284465,-1.01319,0.754476,0.0829936,-0.815077,0.820254,0.00838252,0.0817732,0.129224,0.214062,0.364284,-0.784185,0.563749,-0.387367,-0.85967,-0.151454,0.856228,-0.740019,0.463425,-0.341406,-0.536494,-0.556618,-0.882917,-0.56046,0.404509,0.492111,-0.544236,-0.530624,0.312534,0.831725,0.0644847,-0.507008,-0.295859,-0.177954,-0.285984,0.634454,-0.273255,0.902224,-0.810201,0.691703,-0.512334,-0.283261,0.617812,0.77134,0.386329,0.34226,-0.401987,-0.0231487,-1.04171,-0.916444,0.176139,0.0799906,0.439945,0.672729,0.0785551,-0.851521,-0.248643,0.711093,0.568718,0.0576604,-0.468255,-0.584392,-0.104971,0.309796,0.821333,-0.0628461,0.164991,0.103729,0.450394,-0.0942768,-1.00143,0.735982,0.115185,-0.529542,-0.431363,-0.139178,-0.569612,-0.998949,0.942606,-0.64155,0.310885,0.049197,0.32725,-0.307734,-0.92256,0.19273,-0.357235,0.368869,-0.60539,0.107543,-0.859177,0.255968,0.679705,0.139071,0.473275,0.534235,-0.33241,0.630249,-0.926024,-0.705342,-0.142554,-0.360992,0.230541,0.86365,0.613063,0.133917,0.274995,0.0662522,0.676175,-0.533046,0.414424,-0.123602,0.492217,-0.00973841,-0.314903,0.874088,-0.27934,0.262895,0.510572,-0.929522,-1.02514,-0.253564,-0.62724,0.750298,0.923764,0.392199,-0.0328713,0.570997,-0.414444,0.289335,-1.066,0.525264,0.0828449,-0.782015,-1.02095,-0.193565,0.794423,-0.792591,-0.369508,0.511576,0.0834319,0.00221385,-0.0727588,0.0979227,0.00473413,0.681213,0.238375,-0.837994,0.301499,0.733053,-0.867519,0.897215,0.154134,-0.871719,-0.261654,0.752535,-0.477508,0.815183,0.0242687,0.559391,-0.16719,-0.552348,-1.0025,0.180032,-0.120496,0.118941,-0.958465,-0.0840917,-0.876534,-0.403614,-0.773287,0.136098,-0.0445851,-0.49906,0.41374,-0.534659,-0.188299,0.795767,0.167534,-0.551915,0.263478,0.69305,-0.925073,-0.0526279,0.146408,-0.677981,0.791172,0.879019,0.349487,0.596013,-0.63721,-0.255435,0.158931,0.733205,0.940162,0.473455,-0.296791,0.620313,-0.513618,-0.895992,-0.579334,0.357162,-0.730591,0.853401,0.865947,-0.906417,0.125954,-0.749896,-0.898667,0.920504,0.901404,0.787821,-0.969718,-0.721372,-0.675792,-0.171601,0.7755,0.336297,-0.476181,0.550083,0.792781,-0.292378,0.161759,-0.847715,0.936033,-0.163434,-0.249866,-0.333407,-0.868492,0.647171,0.127572,-0.223236,-0.402967,0.919505,0.540506,0.932698,-0.104089,0.589734,0.832721,0.700861,-0.696047,-0.673986,-0.191539,0.850391,0.252826
0.456419,0.775056,-0.158104,-0.295356,-0.674054,0.434271,-0.0907164,0.805371,0.728442,0.793907,-0.771575,0.856711,-0.156427,-0.477974,0.746776,0.93346,0.335132,0.660293,0.394763,0.0690812,-0.435702,-0.915427,-0.405209,-0.815106,-0.203139,-0.592546,-0.257929,0.510304,0.42278,-0.904204,-0.437351,-0.629859,0.458828,0.0680632,-0.223289,-0.281536,0.429182,0.907743,-0.291026,0.950723,-0.847847,0.584777,-0.367507,0.950131,-0.566944,-0.145954,-0.145936,-0.186438,-0.719022,0.661801,-0.854966,-0.765228,0.442715,-0.888209,-0.901207,-0.833049,0.829452,0.0217549,0.628545,0.464718,0.418946,0.0748007,0.85741,-0.756937,-0.339644,0.493775,-0.746144,-0.681072,0.662804,-0.743591,-0.753443,-0.873959,0.497498,-0.493501,-0.531768,-0.339004,0.876179,-0.455194,-0.450567,-0.451854,-0.266962,-0.269926,0.659647,0.43403,0.701515,-0.71517,0.0798639,0.418368,0.686701,0.971625,0.295859,-0.631085,-1.01464,0.0123156,-0.265208,-0.894163,-0.168579,0.046906,-0.934111,0.476281,0.971377,0.0713297,-0.839831,0.978952,-0.212723,-0.466364,0.869456,0.934365,0.972492,-0.610869,-0.53209,-0.807728,-0.489687,0.890059,-0.622162,0.696779,-0.678612,-0.0926818,-0.658432,-0.120197,-0.809478,0.950489,-0.0302948,-0.586756,-0.524144,0.475043,-0.743223,0.70449,-0.767665,-0.0812728,0.254349,0.0250246,0.576836,0.03522,0.153525,-1.00385,-0.242383,-0.271145,-0.154834,0.219638,-0.414152,0.865277,-0.236481,-0.826733,0.632785,-0.149895,0.217767,0.351893,-0.257242,0.513722,0.943862,0.274876,-0.51397,0.327632,-0.537036,-0.6258,0.0758445,-0.597696,-0.448759,0.290548,0.518559,-0.561836,0.906696,0.409172,0.188172,0.112041,0.167358,0.681263,0.776953,-0.812589,-0.128521,-0.825547,0.219187,-0.935615,-0.791584,0.920842,0.419577,-0.737044,0.329705,0.189399,-0.529228,-0.00823673,0.814456,0.73915,0.84794,0.528314,-0.685646,-0.514177,0.344045,-0.194458,0.24985,0.542911,-0.599092,-0.834218,-0.780643,-0.103477,0.0958797,-0.210187,-0.368613,0.550561,0.928245,0.428649,0.259244,0.572462,0.777289,0.942523,0.844327,-1.01591,0.865151,-0.809815,0.0290211,-0.539222,-0.550213,0.414478,-0.524257,-0.652288,0.361997,-0.869277,-0.873238,0.159209,0.976044,0.800761,-0.857043,-0.779636,0.656272,0.0510274,0.57504,0.511799,0.384428,-0.537329,0.766371,-0.221099,0.169959,-0.53254,-1.00591,0.478363,-0.998193,0.591792,0.113133,-0.764686,-0.191509,0.324908,0.644596,0.65578,0.326877,-0.430075,0.083418,-0.441401,-0.396486,-0.890783,0.0797823,-0.47857,0.281296,-0.226735,-0.81923,-0.421324,0.64807,-0.0193353,0.851193,-0.0564644,0.209194,0.927437,0.673911,0.0295682,-0.396194,-0.263395,-0.722186,-0.215207,0.715997,-0.626884,0.0152489,-0.162881,-0.931363,-0.0895599,0.65414,0.622394,-0.548225,-0.265307,-0.252527,0.16555,0.690255,0.487346,-0.924405,0.299139,0.825232,-0.637437,0.779375,-0.724803,0.234632,-0.558295,0.349025,0.49837,-0.455489,0.204269,-0.381577,-0.189089,0.150792,-0.28257,-0.572114,0.465487,-0.0333114,0.837602,0.0656292,0.396085,0.0392439,-0.918263,-0.259457,0.449542,0.421295,-0.356671,-0.461323,0.618155,0.671288,0.347572,0.729406,0.516564,-0.592501,0.164542,-0.905498,0.441531,0.866685,-0.827596,-0.62434,0.363369,0.693115,0.449834,0.895865,0.685482,0.593718,-0.603824,0.607475,-0.966473,0.514623,-0.160299,-0.404877,-1.00108,-0.106999,0.659109,-0.51901,0.388538,0.937932,-0.129381,-0.168719,0.0656439,-0.223249,0.205496,-0.573037,0.373143,0.580199,-0.0675777,0.329843,-0.753318,-0.107334,-0.569372,-0.816978,0.243726,-0.476963,-0.90217,0.946249,-0.538579,0.856203,-0.12906,0.804138,0.372026,0.486884,0.449305,-0.0269247,-0.45421,-0.138804,-0.911863,-0.964734,0.17626,0.799196,-0.303438,0.928364,-0.30862,0.0217663,-0.152799,-0.966213,0.158304,0.938282,-0.447852,0.544613,-0.284687,0.835494,-0.207131,-0.287051,0.0758396,0.941553,-0.191457,-0.722465,0.827432,0.0961065,0.604659,-0.122437,0.263835,0.246696,-0.814261,-0.287465,0.341604,0.379698,0.923575,0.688244,0.495731,0.536478,-0.536245,-0.268619,-0.950731,0.164781,-0.192475,-0.975773,-0.628166,0.479447,-0.971159,-0.104846,-0.557588,-0.17113,-0.79576,0.546553,0.358221,0.603163,-0.56356,0.229224,0.572231,-0.538237,-0.0373912,-0.882102,0.0570806,-0.0937768,-0.235649,-0.275726,0.777203,0.746697,0.605929,-0.83735,0.0207731,-0.594756,0.472401,-0.298851,-0.806976,0.209038,-0.0479547,-0.447346,-0.505779,0.595535,0.470469,0.551156,0.0488256,0.260604,-0.468734,-0.00368475,-0.35596,-0.905367,-0.578126,-0.695468,0.982412,-0.00960852,-0.387582,0.085747,0.382932,-0.837288,-0.365384,0.673363,-0.789666,0.252553,0.220533,-0.445491,-0.877201,0.363172,0.631548,-0.453127,0.480662,-0.263692,0.385297,0.422681,-0.584697,-0.652689,0.830572,0.5941,0.478463,0.961568,-0.250377,-0.87975,0.732023,-0.0616771,-0.0513534,0.521139,-1.01247,-0.70629,0.821718,-0.562839,-0.819259,-0.962861,0.128377,0.502457,-0.420636,-0.551229,-0.542515,-0.143016,-0.185638
0.721915,0.51446,-0.783739,0.732588,-0.614843,0.858732,-0.234017,-0.921921,-0.679982,0.736607,-0.872954,0.580869,-0.0263695,0.108372,-0.758167,0.0687267,0.386406,-0.120252,0.378571,-0.0359974,0.815189,0.179469,0.0502498,-0.379866,-0.359068,-0.973302,0.254132,0.667297,-0.91896,0.426868,0.284525,-0.00559109,-0.46307,0.407215,0.728049,0.536435,-0.844015,0.0958964,0.760521,-0.574885,-0.248052,-0.352561,0.804185,-0.577071,0.663184,0.491085,0.96786,-0.46028,0.417596,0.831559,-0.601196,-0.115032,-0.433686,0.523829,0.341673,0.0527785,0.114467,0.552578,-0.1462,0.59957,-0.8902,-0.538314,-0.233842,0.704075,0.831339,0.511741,-0.660678,0.84146,-0.575115,0.0595914,0.779337,0.959711,0.365602,0.954269,0.751821,-0.64543,0.191844,0.890095,0.511561,0.322323,-0.782043,-0.277644,0.669097,-0.734119,-0.391098,-0.86728,0.970625,-0.347421,-0.12191,-0.770876,-0.109127,-0.0114939,0.249997,-0.748856,-0.0885436,-0.916242,0.101771,-0.84053,-0.874234,-0.445449,-0.220052,-0.678704,-0.155112,0.891988,0.0966372,0.28895,-0.640507,0.832884,-0.22958,0.112069,-0.786408,0.596283,-0.90498,-0.930518,0.453794,0.54708,0.982336,-0.275984,0.701205,0.203891,0.902037,-0.681941,0.617291,-0.930331,0.00935327,-0.816278,0.218541,0.405555,-0.999083,0.128715,0.559648,0.726317,0.111431,0.830833,-0.126812,-0.178371,-0.536407,-0.0621937,0.211032,0.346067,0.750555,0.839257,-0.186383,0.950754,-0.812548,-0.868102,-1.00201,0.135852,-0.424999,-0.897245,-0.301652,-0.9161,0.06021,0.34114,-0.255443,0.0583955,-0.109775,-0.196709,-0.192681,0.726231,-0.33305,-0.972982,-0.898959,0.0751863,0.968639,0.250186,0.722535,0.109362,0.417212,0.214965,-0.159841,-0.0101573,0.700845,0.000727876,-0.22176,0.664435,0.72644,-0.881437,-0.8751,-0.145087,0.678098,0.676651,0.257894,-0.396878,0.886956,-0.431111,-0.430449,-0.664537,0.291,-0.299515,-0.454727,0.346577,0.736161,-0.583305,0.215754,0.333907,-0.672142,-0.79503,-0.629098,-0.412615,-0.613893,-0.919016,0.951337,-0.78831,-0.649013,-0.725863,0.25592,0.317115,-0.414929,0.349421,-0.734,-0.621309,0.654468,-0.87392,-0.942047,-0.132305,0.0529205,-0.420024,0.338659,0.935927,0.0813241,-0.877999,-0.893279,-0.630089,-0.71875,0.737141,-0.326034,-0.630324,0.124708,0.259651,0.683028,0.897592,-0.824679,0.214903,-0.00148203,-0.411958,0.105197,-0.601669,-0.952378,-0.0132257,0.374185,0.965118,-0.509022,0.706506,0.85981,0.517032,0.893769,0.720811,0.158838,-0.549353,0.485555,0.141506,0.101125,-0.748681,0.49075,0.438771,-0.250308,-0.189077,0.857134,0.609678,0.404676,0.382652,0.00928123,0.631646,-0.356566,0.783734,-0.811154,0.311071,0.425762,0.867015,0.746356,0.812723,-0.541228,0.34254,-0.055457,0.163817,0.876042,-0.373643,-0.0964534,0.302417,-0.535118,0.70859,-0.801032,-0.64321,-0.87435,-0.72159,0.339655,-0.448742,0.632977,-0.9231,0.374968,0.584541,0.732807,0.791376,-0.492374,0.786549,0.516509,0.19749,-0.716161,0.881678,0.336051,-0.784302,0.170039,-0.159993,-0.730452,-0.865752,0.260919,-0.153951,0.777938,-0.0212694,0.0913343,-0.80739,0.223975,0.153436,0.00765271,0.225265,-0.569124,-0.787897,-0.644156,-0.297488,0.781584,0.751805,0.136388,0.934651,0.698536,0.832274,-0.648564,-0.419759,-0.421596,-0.72085,-0.834583,0.654026,-0.251227,-0.624436,0.278816,-0.517413,0.735743,-0.355136,-0.891613,-0.879141,-0.528185,0.737253,-0.862412,0.89125,-0.471476,-0.993013,-0.764095,0.158746,-0.413443,-0.461846,0.0386093,0.555027,-0.657154,0.947506,0.579387,-0.195316,-0.0712174,-0.11289,-0.410957,-0.432238,0.53922,0.282015,-0.719298,-0.608082,-0.106674,0.162688,-0.71466,-0.0154528,0.308966,0.0217803,0.330642,-0.48147,-0.0705859,0.519363,0.570864,-0.459297,-0.406959,0.0223104,0.590083,-0.720811,-0.614594,-0.636217,-0.25186,-0.704014,0.699857,-0.235399,-0.222476,0.851713,-1.01266,-0.0321411,-0.775754,-0.698498,-0.722889,-0.134091,0.547547,-0.0167185,-0.816572,-0.640023,-0.781101,-0.0910891,0.256362,0.776498,0.148388,-0.574886,-0.34642,-0.795981,-0.0903791,0.901217,0.65422,-0.866943,0.88756,-0.0261582,-0.487463,-0.702644,0.627963,0.0880118,0.747149,-0.372433,0.616937,0.0805594,-0.724974,-0.895863,0.012411,0.584855,0.548348,0.651006,0.619079,0.50064,-0.0689127,-0.308972,-0.895306,-0.972061,-0.0319701,0.487003,-0.891915,0.167936,-0.0745348,0.757018,-0.836571,-0.0272558,0.967091,-0.426224,-0.975232,-0.276489,-0.848058,-0.676806,-0.153227,-0.368565,-0.146345,-0.542298,0.939308,-0.681675,0.492746,0.286608,-0.451379,-0.240898,-0.658696,-0.439058,0.794236,-0.885821,-0.319482,-0.294794,-0.894158,-0.566704,-0.997352,0.18769,-0.333139,-0.815509,0.609911,0.113466,0.841802,-0.638687,-0.5655,0.609343,0.361766,0.109597,0.275983,0.373213,-0.963085,-0.298256,0.357517,0.904412,-0.67731,0.155516,-0.064451,0.0213336,0.187251,0.24102,-0.457656,0.0880208,-0.469463,0.619043,-0.676684,0.835094,0.425826,0.383858,0.2696,0.896847,-0.682267,-0.656688
-0.129736,0.0261351,0.951371,-0.990595,0.725888,0.956938,0.28118,0.652864,0.499834,-0.220577,-0.0964816,0.655902,-0.793954,-0.183817,0.111202,0.565691,0.236695,0.525771,0.410221,-0.938594,-0.0705039,0.547562,0.064393,-0.831619,0.768836,0.817769,0.648653,-0.216341,0.751002,-0.472762,0.317466,-1.00524,-0.455282,0.768589,-0.753084,-1.02053,-0.000904773,-0.829156,-0.06647,0.416136,0.0660547,0.602174,0.740199,-0.313766,0.19047,-0.175179,-0.761016,-0.932361,0.143235,0.878365,0.55298,0.58397,0.834101,-0.747473,0.261986,0.264662,0.32196,0.167978,-0.403681,0.32193,0.0330399,-0.550747,0.621,0.704642,0.215332,-0.377144,0.922984,-0.815884,-0.800405,0.893708,-0.0392095,-0.557047,0.596048,0.139647,0.885601,0.415957,0.103036,0.584345,-0.0264636,-0.00029939,0.0147948,-0.746595,-0.0649176,-0.14469,-0.350499,-0.125081,0.41642,-0.937803,0.547251,0.865288,0.0742041,-0.690952,0.789765,-0.863061,-0.990228,0.0652613,-0.381042,0.690988,-0.0941514,0.626799,-0.750447,0.477451,0.81439,-0.0149162,0.796951,0.178698,0.620837,0.661582,-0.704549,-0.747675,-0.149525,0.880234,-0.273997,0.628961,-0.413885,0.112278,0.602313,-0.345455,0.718982,0.369217,0.257053,0.0936193,-0.783576,-0.442008,-0.933401,-0.482491,-0.849254,0.803944,0.693518,0.553743,-0.109125,0.0279931,-0.552458,0.624402,0.810319,-0.715338,-0.660894,-0.513687,0.379333,-0.779252,0.802342,-0.283384,0.79096,-0.411979,-0.543515,-0.168352,0.189296,-0.174422,0.133713,0.797814,0.297686,-0.121693,0.104686,0.399729,-0.570067,-0.439599,-0.23361,-0.209402,-0.857019,0.368163,0.613334,0.542287,-0.9874,-0.717325,0.295322,0.258784,0.725707,-0.747372,0.543648,-0.442306,0.152691,-0.203834,-0.24049,-0.708374,0.0483437,0.719912,0.333632,0.413169,-0.382963,0.305638,0.399025,0.115203,-0.0390559,-0.682511,-0.864693,0.607171,0.738542,-0.560586,-0.329377,0.0144174,0.835552,-0.774757,-0.171117,0.40658,-0.826614,-0.0528268,0.686481,-0.923281,-0.0434222,0.152605,0.729252,-0.796875,-0.7817,0.284123,0.825338,0.231814,0.906143,0.0973074,-0.899168,0.609488,0.0927277,-0.195973,0.750485,0.728604,-0.4117,-0.469181,0.461512,0.245114,-0.341944,-0.142474,-0.194494,0.339539,-0.703385,-0.545909,-0.88293,-0.943881,0.326941,0.0948008,-0.500518,-0.82149,-0.496436,0.492504,0.180701,-0.153952,-0.239554,-0.33133,0.63307,-0.275145,0.656976,0.599879,0.604949,0.770879,0.0836433,-0.0949707,-0.746667,0.1199,-0.413096,-0.714654,0.25075,-0.726116,0.271139,0.142273,0.771486,-0.0488146,-0.012439,0.149015,0.161333,-0.419857,0.0227527,-0.752797,-0.80374,-0.0754019,-0.303245,0.816281,-0.588666,0.0283093,0.468632,0.385043,-0.233013,-0.0321626,0.154898,0.492352,0.563864,-0.480251,-0.400406,-0.869311,-0.331148,-0.0181687,0.744167,-0.824169,-0.775028,0.562996,-0.796992,0.21164,0.452404,-0.49067,0.430391,0.797304,0.923058,-0.521544,-0.666721,-0.490607,0.334774,-1.00305,0.797612,0.854669,-0.993508,0.525431,-0.922765,-0.409794,-0.0134485,0.678299,0.0822933,0.199279,0.902182,0.61115,0.330785,0.600068,0.573147,-0.907783,-0.524654,0.631474,0.539871,0.202369,-0.0688841,0.200869,0.919476,0.337831,-0.347383,-0.680874,0.383709,-0.317232,0.218285,-0.599851,-0.67506,-0.162031,-0.378728,-0.372092,-0.410177,-0.300194,0.0833124,0.529746,-0.0847036,-0.578037,-0.345639,0.101187,-0.455966,0.335343,-0.708191,0.314544,-0.280683,0.0875586,-0.05184,-0.79452,-0.46275,-0.435917,0.374283,0.355484,-0.0440976,0.284681,-0.881553,-0.395432,0.192892,0.200291,-0.792145,0.360155,-0.847564,-0.794894,0.916134,-0.0768984,-0.31254,-0.841057,0.667094,0.358964,-0.0955514,-0.695607,-0.369508,0.254172,-0.509001,0.812802,0.653475,-0.816455,0.644669,0.467461,0.72192,-0.495564,0.937021,-0.76153,0.502838,-0.913477,-0.921671,-0.601516,-0.213159,-0.859423,-0.539436,0.545791,0.818843,-0.993402,-0.887372,0.0225765,-0.653853,-0.45911,0.647339,0.773053,0.0201552,0.449969,-0.49782,-0.225258,0.76018,0.270349,0.170892,0.798695,-0.2174,0.960527,0.128217,-0.983727,-0.0505954,-0.672774,-0.922621,-0.856125,0.416036,-0.158956,0.735693,-0.409556,0.910347,-0.567353,-0.491512,0.0413944,-0.75906,-0.210213,-0.725073,-0.524338,-0.0379222,-0.738194,-0.617357,-0.394789,-0.28787,-0.50144,-0.73282,-0.897655,0.149837,0.266605,-0.444041,0.794284,-0.690425,0.288389,0.592251,-0.245751,0.697386,-0.77612,0.760305,0.635565,-0.979463,0.0206922,-0.131271,-0.599372,0.107226,0.899379,-0.16404,0.340383,-0.249028,0.910065,-0.0902718,-0.0615094,0.174578,0.364129,-0.770411,0.562436,0.161197,-0.287541,-0.656535,-0.925382,-0.554171,-0.276943,0.649121,0.0247908,0.309681,0.78722,0.480526,-0.98606,-0.100373,0.140349,0.0245428,-0.548659,0.138748,-0.755085,0.676346,0.764058,0.292147,0.0798868,0.631039,0.131624,-0.322003,-0.77544,0.843159,0.242337,0.938965,0.788883,0.447241,-0.0821902,-0.791276,0.322542,-0.410866,0.46579,0.187143,0.000164473,-0.548669,0.294337,-0.31464,0.773262
0.0188337,-0.951786,0.118429,0.814065,0.135482,0.50922,0.0938163,-0.554654,-0.985322,0.937405,0.286555,0.579232,0.861991,0.933884,-0.595667,0.914591,-0.232741,-1.03293,-0.44672,0.382695,-0.678574,0.446599,0.742354,0.0142602,-1.00674,-0.251652,-0.523874,-0.810089,0.88004,0.331339,-0.841189,0.592079,0.567386,-0.52932,-0.90079,0.225621,-0.706927,0.443211,-0.659876,-0.901317,0.615834,-0.0774352,0.435141,-0.914874,-0.92858,-0.87551,-0.121363,0.288054,0.0192637,-0.800351,-0.112279,-0.286707,-0.521124,0.419399,0.522975,-0.674319,0.774233,-0.976698,0.816372,-0.462491,-0.25185,0.700531,-0.421109,-0.628637,0.0880971,-0.0567196,0.515691,-0.444931,-0.529802,-0.277651,0.285609,-0.872083,0.446641,0.110832,-0.108371,0.0711227,-0.929136,0.376385,0.438921,-0.719236,0.916088,0.0546122,-0.631388,-0.820617,0.725539,-0.486964,0.473556,0.37146,-0.53522,0.0673786,0.71054,-0.84262,-0.999381,-0.542381,0.836788,0.139001,0.50424,0.24809,0.807598,0.821699,-0.921991,-0.427668,-0.704311,0.534183,-0.465233,0.605805,0.177512,-0.919639,0.619878,0.858212,-0.0521494,0.727325,0.134848,-0.832649,0.444595,0.318549,-0.346383,-0.631601,-0.0855498,-0.45869,-0.579285,-0.0505839,-0.836075,0.546963,-0.684256,-0.36701,-0.322898,0.0967862,-0.60355,0.183267,0.0947691,-0.061035,-0.573908,-0.446051,-0.278615,0.368602,-0.349355,-0.474906,-0.111544,-0.240002,-0.213622,0.090624,0.620274,0.627298,-0.685987,-0.728327,-0.678549,-0.594439,-1.01851,0.885254,-0.953612,0.728207,0.748572,-0.575037,-1.03008,-0.744777,0.153071,-0.889498,0.302959,0.696874,-0.570427,-0.209996,-0.393857,-0.964858,-0.887108,-0.184391,0.127198,-0.914488,0.343917,0.864876,-0.89091,-0.769656,-0.15347,-0.172851,-0.834444,-0.233654,-0.287664,0.640196,-0.0306907,-0.526307,0.820173,0.280469,0.34261,0.36772,-0.729646,0.245564,0.267431,0.226264,-0.797526,0.714991,0.00560696,0.923364,0.264389,-0.826403,0.593363,-0.656369,-0.590292,-0.228798,-0.0992924,0.442303,0.719426,-0.00923561,-0.586005,0.356303,-0.400149,0.840462,-0.522906,0.755424,-0.247699,0.831737,-0.972149,0.564891,-0.464664,-0.677426,-0.351646,0.443437,0.344621,0.786067,0.893481,-0.495265,-0.884696,0.426236,0.765807,0.896754,-0.576269,-0.128822,0.903836,0.534307,0.605402,-0.579934,0.157131,-0.614509,0.0434271,0.885226,-0.00272516,0.265333,0.216879,0.647745,0.56336,-0.184917,0.944168,0.0185532,-0.744887,0.200813,-0.658314,0.249695,-0.675051,0.961441,0.555672,0.405689,0.741123,0.416661,0.0300548,-0.270037,-0.737338,0.0545171,-0.884066,-0.265315,-0.880467,-1.00697,0.190307,0.880748,-0.044417,0.0456332,0.900586,-0.157102,0.328088,0.952313,-0.45669,0.0442399,-0.968073,0.223794,-0.422451,0.567768,0.520638,0.73456,-0.0722206,-0.73232,0.257346,-0.830945,-0.0977247,0.690089,0.295498,-0.774586,0.693922,0.79132,0.533021,-0.0873362,-0.697665,-0.106595,0.688822,-0.720744,-0.109989,0.390274,0.23796,-0.336866,-0.378104,0.651189,-0.438931,0.104701,-0.986558,-0.905162,0.336638,0.0212639,0.952241,0.682861,0.702629,-0.0454004,-1.02837,0.942723,-0.584512,-0.297143,0.137152,-0.502299,0.942486,-0.983944,-0.00998113,-0.564274,-0.133083,0.251056,0.520556,0.750596,-0.194139,-0.911458,0.209501,0.846949,0.314941,0.729773,0.0197586,0.630696,0.50223,-0.582853,0.485564,0.0482775,0.656155,-0.538487,-0.0569159,-0.93943,-0.5017,0.447702,0.110984,0.423812,0.222227,0.451121,0.808896,0.17525,0.554232,0.906654,-0.360474,0.121674,-0.088056,0.0944121,-0.712259,0.526548,0.41387,-0.807272,-0.0258574,-0.980575,-1.02802,0.0723577,0.427517,0.426017,-0.448917,-0.564042,0.0511372,-0.0916231,-0.0768666,0.880648,0.461164,-0.511653,-0.828163,-0.959828,0.560732,0.414205,-0.950583,-0.128929,-0.113458,0.565406,-0.635607,-0.772672,-0.0411223,-0.897322,0.386198,-0.807985,0.505505,0.853303,-0.855711,-0.43047,-0.519536,-0.839134,0.363949,0.509196,0.683153,-0.0286897,0.82209,-0.408688,-0.571935,0.35953,0.633057,-0.203022,-0.0790122,-0.13295,0.277987,0.477855,0.0752101,-0.355524,0.842979,-0.321704,-0.673553,-0.613746,0.755116,0.195435,-0.0691963,0.265957,0.626078,-0.895688,-0.442552,-0.779105,0.390213,-0.54767,0.416199,0.620892,-0.876977,-0.239725,0.758127,-0.0457085,0.318218,-0.803188,0.662326,0.931987,0.0688047,-0.472178,0.818377,-0.751138,-0.72986,0.090392,-0.333398,-0.95972,0.141098,-0.831083,-0.612977,-0.107688,-0.335074,-0.230008,0.619108,0.169861,-0.53631,-0.382957,-0.818295,0.447503,0.468829,0.667731,-0.563258,-0.194967,0.945299,-0.0642137,-0.759794,0.177126,-0.161491,0.0255265,0.123885,0.370847,0.0950388,-0.123355,0.320417,-0.77325,-0.341729,-0.0627071,0.722098,0.306757,0.696283,-0.982316,-0.855498,0.886671,-0.97092,0.117751,-0.579228,-0.804446,0.0197262,-0.481991,0.321729,-0.145611,0.232394,0.0400577,0.205757,-0.693475,-0.78223,-0.672492,0.634122,0.27739,-0.513748,-0.562133,-0.71893,0.271829,-0.326363,0.564298,0.1259,-0.0822117,0.441671,-0.672084
-0.974166,0.912042,-0.778684,-0.965751,0.920427,-0.790168,0.9072,0.862414,-0.276518,0.721416,0.261313,0.901597,-0.583504,0.952911,-0.0584432,0.936259,-0.89385,-0.181388,-0.798839,0.0627154,-0.383658,0.134754,-0.110163,0.0491763,0.101888,-0.173159,0.956197,-0.0681085,0.654146,-0.332673,0.948591,0.203793,0.303596,0.312958,-0.482351,-0.460001,0.674536,-0.570045,-0.622225,-0.299673,-0.0436858,0.180376,-0.121773,-0.344331,-0.275333,-0.198199,-0.660997,0.47997,0.766874,-0.143186,-0.578419,-0.889809,0.057152,0.653439,0.544768,0.0794635,-0.877624,-0.361437,0.198722,-0.274182,-0.176606,-0.0038195,0.291026,-0.550795,0.255553,0.902225,-0.933215,0.11786,0.724512,0.336197,0.0325155,-0.446549,-0.148728,0.505245,-0.699303,-0.593327,0.917147,-0.581398,0.373501,0.325987,-0.202377,0.242587,-0.298435,-0.229788,0.479243,-0.642103,0.111472,-0.520288,-0.294534,-0.305973,-0.0347639,0.01643,-0.411142,-0.427976,-0.900517,0.48935,-0.52203,0.22491,0.97296,0.764377,0.0758443,-0.453752,-0.0760128,0.0584135,-0.0262793,-0.769693,0.855192,-0.133071,0.44714,-0.257034,-0.869626,0.291984,-0.203238,0.767376,-0.242315,0.958954,-0.0786375,0.597968,0.461416,0.8545,0.111639,-0.328388,0.575194,0.0612779,-0.958317,0.714455,-0.283962,-0.877493,0.476277,0.483133,0.602833,0.687681,0.430994,0.434368,0.214333,-0.959833,-0.0657663,0.00766288,0.0238052,-0.918105,0.963977,0.129402,0.417715,0.708814,-0.239002,-0.635033,0.193514,0.294347,-0.0917738,0.611162,0.4855,-0.0812323,0.683248,0.446462,0.896447,0.986451,-0.785273,0.934322,-0.780267,0.25474,-0.218077,0.0791038,-0.193947,0.941287,-0.974522,-0.525826,-0.545285,0.87555,-0.539516,-0.690927,-0.284123,-0.366457,0.317737,0.690184,0.968149,-0.974572,-0.774996,-0.254043,-0.431147,0.612126,0.256448,0.911568,-0.662045,0.809163,-0.854278,-0.982148,-0.138257,-0.35725,-0.596045,-0.422419,-0.416478,-0.165133,0.0242994,-0.624034,0.085976,-0.0758298,-0.121527,-0.862198,0.760742,0.756267,-0.0529062,-0.820688,-0.175771,0.151626,-0.520479,0.189762,0.551403,-0.902103,-0.7426,0.369986,-0.896243,0.157575,0.557989,-0.17506,0.1006,0.337599,0.244689,-0.597856,0.293733,-0.993307,0.234288,0.931874,-0.902268,-0.261003,-0.240121,0.728352,0.0599297,-0.790529,0.761684,-0.384853,-0.0263024,-0.32075,-0.895572,0.405946,0.246189,-0.855894,-0.774066,0.765935,-0.907795,-0.732147,0.852736,0.019499,-0.184299,-0.146818,0.462517,0.871655,0.0984903,-0.220192,-0.139693,0.346314,0.97974,0.00720673,0.59973,-0.213445,-0.756091,0.54176,-0.115678,0.37575,0.206131,-0.404794,-0.330396,-0.815204,-0.46646,-0.335898,-0.765224,0.395618,-0.674096,-0.928891,-0.250177,0.692981,-0.651372,0.866697,0.88271,0.24362,0.337311,-0.737695,0.908933,-0.0120574,0.845151,-0.5071,0.58248,0.262876,-0.253013,0.530844,0.455699,0.0190549,-0.176747,0.224966,0.345682,0.308817,-0.224326,0.148714,0.136498,0.988511,-0.56164,-0.666912,-0.182467,-0.404639,-0.767049,0.121899,-0.948529,0.0333203,0.806676,-0.590488,0.686275,0.0634343,0.939448,0.783776,0.076145,-0.625956,-0.794552,0.739121,-0.650946,0.263858,-0.772195,0.154128,-0.0989108,-0.787463,-0.726912,0.0821359,0.44806,-0.66311,-0.963289,0.558411,-0.094472,-0.186718,-0.0752403,0.316575,0.0794733,-0.0828866,0.427749,-0.653308,-0.796366,-0.778533,0.478091,0.354623,0.882503,-0.212004,-0.52718,0.440322,0.379502,-0.927615,-0.561384,0.107893,-0.944256,-0.838231,-0.249267,-0.444884,0.917378,0.0866359,-0.776079,-0.188153,-0.0317476,0.25357,-0.567281,0.530915,-0.987214,0.0731311,0.509566,-0.225461,-0.98994,0.613705,-0.595922,-0.727352,-0.0649811,-0.636633,-0.564177,0.886834,-0.247754,-0.853768,-0.588573,0.263795,0.635976,-0.869988,0.369507,-0.730324,-0.882101,0.235303,0.128209,0.154623,0.110831,0.281688,-0.142557,-0.00441158,0.946637,-0.432053,-0.985199,-0.682045,-0.0667403,-0.602848,0.529899,0.0758338,0.0606993,-0.76955,-0.126906,-0.277393,-0.83754,-0.49592,0.579202,0.839263,0.926294,0.275283,-0.606001,0.416385,0.180339,0.357834,0.339391,0.988223,-0.0283106,-0.364177,0.389333,0.938983,0.704469,-0.796953,-0.709692,0.929953,0.85801,-0.00660253,-0.197539,-0.388367,-0.703457,-0.430053,0.252382,-0.12087,-0.147566,0.815658,0.892407,-0.522345,-0.556706,-0.555423,0.187722,0.51985,0.0187215,-0.610923,0.710893,-0.086656,-0.504157,-0.34048,0.638119,-0.563101,0.359816,-0.852713,-0.813377,0.588801,0.280646,-0.914992,-0.235253,-0.317239,0.621032,0.400437,0.343533,-0.215729,-0.378597,0.568773,0.0402235,0.908616,-0.174861,0.90308,-0.468952,-0.576475,-0.0643518,0.20416,-0.207418,0.329021,0.329678,-0.837325,0.610827,-0.89164,-0.693746,-0.040133,0.924576,-0.617777,-0.983557,0.466211,-0.75504,-0.57134,-0.314537,0.363001,-0.902139,0.313446,0.303047,0.686542,-0.939881,0.53162,0.00962049,0.773865,0.619973,-0.0737915,-0.992647,-0.507812,-0.772146,-0.996748,0.0873736,0.403875,0.804725,-0.0629805,0.48102,-0.868378,0.333197,-0.548069
-0.92321,-0.99563,-0.613514,0.384082,-0.159186,-1.00379,-0.791234,-0.0431683,0.816542,-0.591012,-0.397267,0.269664,-0.222619,0.12532,-0.590134,-0.408947,-0.130335,0.575512,0.294785,-1.00372,-0.128396,-0.845998,-0.415746,0.518178,0.490134,0.952504,0.746517,0.648225,-0.418175,-0.824705,0.919647,-0.423975,0.367216,0.795031,0.644521,-0.127857,0.243075,-0.310053,-0.882124,0.499139,-0.241642,-0.769969,-0.971035,0.328315,0.455134,-1.01773,-0.791471,0.321318,-0.661228,0.880682,-0.475613,0.0947152,-0.0236572,0.415042,-0.486568,0.919129,-0.917989,0.270499,-0.995251,0.658018,0.404814,-0.683205,-0.550046,-0.8936,-0.148057,-0.171502,-0.577904,0.413363,0.472585,0.620104,-0.937504,0.737648,0.0540797,-0.348299,0.316653,0.658511,0.0280852,-0.924897,0.282532,0.211404,0.973896,-0.0619841,0.265795,0.856558,0.0963522,0.345004,-0.0919537,0.38819,0.702987,0.816286,-0.024279,0.901746,0.496919,-0.409414,0.687447,0.967847,0.68717,0.753699,-0.889627,-0.389286,-0.726743,-0.482611,-0.269405,-0.662589,0.354156,-0.748306,-0.202227,-0.991459,0.913408,0.110733,-0.678257,-0.0745835,-0.227509,-0.0115973,-0.122275,-0.759121,0.0836127,0.339791,0.426011,-0.052573,0.283588,0.878919,0.81525,-0.817699,0.676193,-0.18122,-0.530648,-0.877185,-0.655718,-0.657231,-0.515921,-0.456524,0.0762053,-0.755172,0.164518,0.902128,0.954907,0.225705,-0.917207,-0.407692,0.487232,-0.146563,-0.382993,-0.20591,-0.995518,-0.71557,-0.275882,-0.219035,0.216457,-0.989523,0.116429,-0.91638,0.395908,0.764294,-0.555221,0.875772,0.167864,0.699866,0.577592,0.261081,-0.973291,0.643121,0.165421,0.418086,-0.499671,-0.832913,0.037783,-0.639941,-0.623559,-0.789767,-0.803346,0.883202,0.846576,-1.00517,-0.357436,0.0649006,-0.188536,-0.872622,0.401539,0.0662511,-0.885043,-0.916596,-0.975269,0.604923,0.0864201,0.178008,-0.518608,-0.685719,0.155623,-0.970777,-0.234127,-0.0485192,0.825164,-0.775918,0.0207398,0.316739,-0.802481,-0.104956,0.670222,-0.652745,0.795907,0.0531622,0.51163,0.595786,-0.11712,0.00828331,-0.411849,0.402474,0.416968,0.437772,0.915857,-0.590126,0.50014,-0.603312,0.935088,0.874978,-0.186032,0.266673,-0.724286,-0.582979,0.759748,0.458917,0.588432,0.807469,0.505079,0.150626,0.205722,0.195771,-0.0615088,0.0781208,0.959797,-0.690232,-0.997405,0.652413,-0.420789,-0.6605,0.615592,-0.838934,0.867563,0.776426,-0.383903,-0.533148,0.531115,0.895697,0.490043,-0.81572,-0.8036,-0.0700555,0.942033,-0.263752,-0.691644,-0.840767,-0.149667,-0.316567,-0.309078,-0.285741,0.253831,-0.162782,0.785647,-0.141621,0.387705,-0.761327,0.906255,0.67754,-0.262035,-0.57098,-0.106571,-0.730774,0.37225,0.816086,0.352984,-0.200808,-0.87327,0.0288819,0.772573,0.557027,-0.344441,0.525757,0.488873,0.454097,0.859206,0.155698,-0.119193,-0.231704,0.757679,0.894959,-0.297614,0.327969,-0.0503068,-0.534059,-0.460962,0.98535,0.43522,0.928553,-0.851443,-0.489472,0.166202,0.60798,0.680301,-0.0430639,-0.934465,0.689819,-0.639224,-0.980257,-0.412261,-0.696186,-0.752669,0.502834,-0.682075,-0.763171,0.19562,-0.398682,0.339628,0.76592,0.501183,-0.0153067,0.105324,-0.972938,-0.256853,0.905549,-0.200181,0.620511,-0.136567,0.782929,-0.43823,0.618908,-0.465768,-0.198433,0.197045,0.204055,-0.118892,-0.970141,0.626317,-0.32456,-0.643304,0.0119942,-0.198705,0.568234,-0.294662,-0.459988,-0.289152,-0.996555,0.734923,-0.361068,-0.171762,0.0769894,-0.084625,-0.309315,0.771422,0.147135,0.561677,-0.426014,0.0233028,-0.0526703,-0.724083,-0.281395,-0.461118,-0.930225,-0.237572,-1.00254,-0.922544,-0.24861,-0.508237,-0.451011,0.121764,0.937598,0.246571,0.369338,-0.28615,0.381744,0.589979,-0.802767,0.670109,-0.897715,0.383884,0.436414,0.616711,-0.677121,-0.863759,0.558248,0.972009,-0.316116,0.255256,0.811067,0.831731,-0.352019,0.420152,0.424678,0.489418,-0.795786,0.388873,0.185049,-0.589342,0.0288249,-0.762038,0.953173,-0.743842,0.351623,-0.288103,0.456464,0.0333213,0.351771,0.77811,-0.569573,-0.955215,0.305952,0.16711,0.728123,-0.0296136,-0.00755729,0.747111,0.146461,-0.919626,0.987724,0.0753412,-0.630263,0.174608,-0.325616,0.902432,0.410935,0.0852537,0.864375,-0.395137,-0.20268,-0.113929,0.121469,0.326745,0.115811,-0.479357,-0.219233,-0.764452,-0.150284,-0.151735,-0.863208,-0.629049,0.257465,0.779826,0.340707,0.350851,-0.437024,-0.735585,0.315953,-0.634302,-0.86086,0.00307589,-1.01771,0.581352,0.908016,-0.979654,-0.150449,0.227013,0.0774958,0.511704,-0.16023,0.00926991,0.0357911,0.342418,0.735917,0.726736,-0.197379,0.642969,-0.289631,-0.555578,-0.466738,0.850176,0.210444,0.622537,0.0500551,0.0774012,-0.401026,-0.985717,-0.0334534,0.293832,-0.679389,-0.741006,0.0129828,0.70468,0.505392,-0.0627506,0.651569,0.299818,-0.574501,0.102673,0.028224,0.0587919,-0.483356,-0.733809,-0.934087,0.760163,0.803891,-0.282329,0.359457,-0.476488,-0.648196,-0.977024,0.319015,0.136486,-0.801434,0.0856141,0.171626
0.818352,0.654644,-1.01862,0.753103,-0.0846372,-0.957187,0.060466,0.79715,0.834287,-0.411979,0.206172,0.517952,0.836906,-0.260652,-0.960624,0.677249,-0.610506,-0.433205,0.897014,-0.537304,-0.232416,-0.824263,0.941565,0.856342,-0.258251,0.275067,-0.880759,0.560684,0.54764,0.286955,-0.383244,-0.281894,0.623918,-0.492608,0.319908,0.495115,0.884834,0.447407,0.412292,-0.484232,-0.809433,-0.571106,-0.685046,-0.805717,-0.783524,-0.801665,-0.175895,-0.405849,0.667766,-0.162073,-0.226946,-0.0524914,0.553261,0.813456,-0.461651,-0.721265,0.821397,-0.576768,0.315049,-0.16479,0.393603,0.744681,-0.12467,-0.638576,-0.65551,-0.0459649,0.854586,-0.562313,0.140834,0.245272,0.290387,0.973004,0.487775,-0.0681198,0.258082,-0.619906,-0.842603,-0.413408,-0.53307,-0.797765,-0.139964,0.972991,-0.632112,-0.00815202,-0.00278538,-0.794673,0.669769,-1.0064,0.506994,0.76576,0.716444,0.717491,-0.779593,0.665179,-0.52376,-0.706146,0.00180081,-0.558813,0.876687,-0.402089,-0.206543,0.615204,0.624424,-0.369823,0.0620621,0.491478,0.630771,0.800697,-0.840278,0.462858,0.250455,-0.602153,-0.860601,-0.911586,0.588536,0.890228,-0.00959291,0.463426,0.91925,0.103088,0.687868,0.72344,-0.994411,-0.622212,0.592469,-0.516905,-0.440903,0.143041,-0.884118,-0.903616,0.111063,0.580692,-0.660019,0.613169,-0.404802,0.738167,0.503888,0.632713,-0.957724,-0.0780224,0.235454,0.521905,-0.59807,-0.84203,0.573008,-0.586807,-0.365572,0.318709,-0.499776,0.35711,0.92517,0.860703,0.28786,-0.445248,0.300247,0.0515164,0.181589,-0.907487,-0.546565,0.750799,0.733067,0.214023,-0.723027,0.499297,0.254734,-0.382338,-0.597264,0.964856,0.427888,0.631867,0.0652747,0.337865,-0.337798,0.227062,0.715777,-0.204985,0.873172,0.819997,-0.761459,-0.460784,-0.620418,0.861572,0.431559,-0.920553,-0.354085,0.93659,0.378257,-0.43991,-0.408214,-0.8482,-0.433127,-0.696745,0.0404158,0.669955,-0.781885,-0.828106,-0.59348,0.963111,-0.213927,-0.0387889,-0.139742,-0.918799,-0.290379,0.828715,0.0925579,-0.690658,0.60934,0.72502,0.924783,-0.156574,0.0993433,-0.187859,0.947738,-0.547675,0.461994,0.655641,-0.763052,-0.48193,0.713409,-0.985636,0.912139,-0.0765484,-0.0130911,0.547297,0.606944,0.0203118,0.753644,-0.192467,-0.616474,-0.994351,0.702966,0.315282,-0.874148,0.915341,-0.468634,-0.603269,0.377079,-0.529496,0.82892,0.499541,-0.926271,-0.115668,-0.944556,0.00354863,-0.78387,-0.355219,-0.900628,0.791435,-0.254788,0.822455,0.137819,0.750511,0.201905,-0.893357,0.421969,-0.142172,0.635257,-0.342108,0.00816507,0.154099,-0.322614,-0.187948,-0.0859317,-0.0212307,0.498309,-0.874144,-0.288318,-0.235342,-0.979547,-0.768727,0.966825,-0.74493,-0.378199,0.790847,0.412155,-0.400712,-0.930182,-0.826918,-0.22662,0.550879,0.797861,-0.601293,0.0947959,-0.328339,0.0430624,-0.482833,-0.00810861,0.318653,0.430937,0.364392,0.817442,0.440991,0.0083115,0.360315,0.534216,0.119765,-0.45866,0.711101,-0.818598,0.378141,-0.375156,-0.381385,0.519273,-0.0233931,-0.93414,0.28384,0.733818,-0.30917,0.655772,-0.916757,-0.117498,0.816639,0.663453,-0.638029,0.747948,-0.664081,0.340983,0.706981,-0.668542,-0.0929958,-0.546621,-0.791329,-0.938027,-0.813755,-0.98779,0.219713,-0.608732,-0.798357,-0.467802,0.732356,-0.0691502,0.65337,0.460589,0.373793,0.117115,0.262982,0.120022,-0.223941,0.906828,0.887384,-0.773496,0.103285,-0.564593,0.272462,-0.29322,-0.605712,-0.745725,0.829532,0.726577,0.490456,-0.602137,-0.895697,-0.559392,-0.543479,-0.890256,-0.347453,-0.655127,-0.932131,-0.739515,0.106842,0.73971,-0.876538,0.665674,-0.466568,-0.932138,0.767896,0.352305,0.192689,0.949946,-0.377067,0.846429,0.320777,-0.964953,0.700977,-0.569848,-0.690153,0.68031,0.777649,-0.817071,-0.0756259,-0.917991,0.060278,-1.01688,-0.045626,0.440647,-0.0126091,-0.00723354,-0.918502,0.328515,0.869742,0.536343,-0.383569,-0.97467,0.959942,-1.01493,-0.168377,0.602255,-0.216621,0.904568,0.963122,-0.000635527,-0.405109,0.119003,0.961827,-0.719215,-0.436896,0.879791,0.728489,-0.815521,-0.637115,0.192446,-0.331845,0.54448,-0.132102,0.329644,0.405209,-0.4875,-0.327006,0.414614,0.174955,0.385032,0.458398,0.0952478,-0.986117,0.640306,0.369013,-0.811492,-0.0509912,0.888806,0.908206,0.970058,0.655469,-0.466632,-0.206563,-0.640773,-0.858592,0.947072,0.127747,-0.735118,0.66027,0.171927,-0.302492,-0.592414,0.497172,-0.749043,-0.21166,0.183489,0.386075,-0.540807,0.928467,0.165336,-0.945259,-0.517416,0.761975,-0.176095,-0.898579,-0.840799,0.702304,-0.391061,0.140994,0.120967,-0.10926,-0.86518,0.15554,-0.703604,0.459941,0.169476,-0.785131,-0.818319,0.0056747,0.39924,-0.82301,0.241236,-0.794713,0.255985,0.0706782,0.608004,0.528626,0.850741,-0.323131,-0.416937,-0.0306128,-0.301814,-0.728202,-0.871185,0.369112,-0.171638,0.946412,0.393685,-0.574448,-0.736519,-0.935238,-0.453807,-0.506697,0.854707,0.066619,0.149776,-0.0683177,-0.971087,0.415506
-0.391882,0.726667,-0.624106,-0.342393,-0.112173,-0.263905,-0.216815,0.302114,-0.696174,-0.396947,-0.498679,0.266151,-0.599327,0.741995,0.586361,-0.374007,-0.172004,0.381479,0.256725,-0.0177624,0.533572,0.307344,0.429555,-0.926206,-0.539742,0.730429,-0.995276,-0.503078,0.839473,-0.478966,-0.470494,-0.91628,0.416302,0.0358113,-0.460139,-0.773463,-0.882474,-0.648509,0.30145,-0.351777,-0.495284,-0.943284,-0.340624,-0.601248,0.553314,-0.117741,0.0262845,0.420497,0.655274,-0.0169917,0.237183,-0.51494,0.432737,-0.587709,-0.244587,0.718456,-0.969881,0.00819784,-0.270273,-0.437444,0.737754,0.752299,0.565966,0.404073,0.615947,0.763563,0.092802,0.683784,-0.330754,-0.514396,0.635865,0.757138,-0.410229,-0.495721,0.488457,0.24841,0.282263,-0.309294,-0.0852676,-1.00316,0.553628,0.0659082,0.676838,-0.791055,0.167259,0.31443,-0.0952259,-0.236096,-0.869861,-0.325234,0.217116,-1.00499,0.613849,0.232496,0.192204,-0.55053,-0.903968,-0.366635,0.3273,-0.0704207,-0.19121,0.587983,0.0495061,-0.205518,-0.932721,0.0151991,0.396798,0.014746,0.679187,-0.00234237,-0.632383,-0.404971,0.48076,0.291123,0.849314,-0.567044,0.213034,-0.751998,0.461714,-0.596985,0.778266,0.157239,0.312059,0.0763855,0.234131,-0.139686,-0.488145,0.0689452,-0.770889,-0.6534,0.53398,0.857042,-0.995725,-0.191407,0.910656,0.518434,0.844865,0.0530472,0.761371,-0.567523,0.0390405,-0.417715,-0.230243,0.712821,-0.26691,0.807851,-0.571626,-0.351989,-0.328484,0.684945,-0.900193,-0.223209,-0.774197,-0.783873,0.054336,-0.655833,0.210977,-0.469481,-0.511656,0.322747,-0.327354,-0.870737,-0.504579,-0.833754,0.188708,-0.44769,-0.495625,0.126063,0.823951,0.142796,0.555187,0.510608,-1.00467,0.829926,0.586671,0.00560875,0.00489478,0.415115,0.398677,-0.416387,0.256586,-0.900484,0.850094,0.783599,-0.287505,0.385219,0.128993,-0.575409,-0.375096,-0.918818,0.323144,0.309759,0.343577,0.296809,-0.270034,0.483738,-1.00311,-0.679256,-0.506724,-0.84001,0.373893,0.829896,-0.0684017,-0.485263,0.681652,0.789926,0.715534,-0.0281702,-0.991811,0.31329,0.307938,-0.346617,0.233109,-0.568137,0.161747,0.933022,-0.153426,0.807197,-0.890835,0.340759,-0.373584,0.0729162,0.759328,-0.730748,0.292717,0.628705,-0.800037,-0.382347,-0.714004,0.946958,-0.854951,0.567383,-0.671322,0.522203,-0.398626,0.895496,0.431938,0.289591,-0.832164,0.658855,0.414906,-0.359898,-0.0321074,0.0724291,0.679883,-0.530534,-0.371015,0.734066,0.113436,0.0682432,0.924731,0.43625,0.249664,-0.584756,0.748168,-0.803235,0.564048,-0.46408,0.79267,-0.44664,0.272318,0.687816,-0.417541,0.467691,0.21838,-0.154171,-0.673125,-0.650295,0.445787,-0.353282,0.782774,-0.340251,-0.590659,-0.408523,0.923415,-0.0608917,0.492522,-0.575949,0.532279,0.196139,-0.36078,-0.817871,0.608783,0.341685,0.106241,0.140733,-0.393051,0.258846,0.0457464,-0.43311,0.770053,0.0599605,0.206991,0.472113,-0.625762,0.250177,0.92066,0.452367,0.919607,-0.322082,-0.573394,0.299798,-0.101335,-0.470414,-0.765442,-0.0526577,-0.769104,-0.584402,-0.685276,-0.483697,0.488433,0.45329,0.764049,0.916088,0.48866,-0.645704,0.826664,-0.798564,0.437385,-0.0611524,-0.178057,0.0731828,0.281559,-0.098825,-0.573515,-0.526204,0.63358,-0.287014,0.412925,0.70155,-0.137396,0.958057,0.874551,-0.571495,-0.451601,-0.476793,-0.528132,0.902478,-0.435633,0.626456,-0.839939,0.914986,0.67695,0.201146,-0.859472,-0.0154761,-0.390188,-0.852145,0.671651,-0.763362,0.286456,0.460501,0.555105,-0.366157,0.533479,-0.346827,0.0845965,-0.318777,0.304673,0.51205,0.658174,0.881686,-0.95753,0.238022,0.71553,-0.587592,-0.288798,-0.619337,0.83893,0.838574,-0.255251,0.781017,-0.599923,-0.834724,0.0404454,-0.842706,0.430801,-0.0108155,-0.840113,-0.301771,-0.167373,-0.0392289,0.364128,-0.236822,0.541743,0.245529,-0.656177,-0.40504,0.515439,0.285139,0.0742752,0.464626,0.68291,0.29766,-0.958657,0.780062,-0.960521,-0.755342,-0.558704,-0.146247,0.392745,0.644997,0.825412,-0.439054,-0.136257,0.550501,0.870331,-0.524855,-0.673777,-0.967402,0.583685,-0.309891,-0.70834,-0.452162,0.581764,-0.014283,0.132529,0.265756,-0.95252,0.897996,-0.192395,-0.551397,0.567862,0.797242,-0.58974,-0.219284,-0.919311,0.76167,-0.466908,0.420883,0.200135,-0.0449089,0.138047,0.963305,-0.993253,-0.372636,-0.721705,-0.0992407,-0.708235,0.652835,-0.197761,-0.232333,0.862973,-0.6834,-0.800542,-0.468087,-0.283299,0.269059,-0.411778,-0.995734,-0.554638,0.262876,0.400089,-0.634479,0.604895,-0.585392,-0.538419,0.394562,-0.117226,0.681453,0.823425,0.111478,0.611053,-0.863175,0.907204,0.11147,0.772007,-0.270073,0.380131,-0.781761,-0.608927,0.5746,-0.00723468,0.701707,-0.514523,0.646456,0.899059,-0.240606,0.905029,-0.78391,0.655095,0.531777,-0.658196,0.797551,-0.0904828,0.430799,-0.459088,0.00680013,0.188105,0.926481,0.416478,0.783657,0.0757065,-0.953755,-0.210581,0.837715,0.394027,0.703135,-0.994686,0.919517
0.652561,0.878339,0.32796,0.179053,0.847891,-1.03067,-0.67555,-1.01502,-0.715949,0.792671,-0.0852953,0.133102,-0.841696,0.769095,-0.961519,0.941269,-0.088299,-0.56116,0.698619,-1.01455,-0.804973,-0.676015,-0.0970206,0.0746101,-0.151154,-0.49919,0.687801,-0.269277,0.866434,0.701161,-0.234866,-0.136801,0.953603,0.39541,0.12782,-0.170218,0.309262,-0.86091,0.650384,-0.0141558,-0.9883,0.232686,-0.103598,0.357251,-0.526634,0.335488,-0.473076,-0.280291,-0.0815537,-0.36905,-0.663621,0.759082,0.370248,0.912461,-0.15132,0.907856,-0.488558,-0.727366,0.307419,-0.715171,0.568131,0.0791153,-0.68298,-0.554258,-0.4067,0.379059,-0.0949861,-0.122194,0.0717567,-0.405279,0.958059,0.436834,-0.912381,0.02864,0.948108,0.865965,0.303789,-0.634732,0.253325,0.665107,0.77681,0.130382,0.0721799,-0.179846,-0.870855,0.41249,-0.660195,-0.00762476,-0.153703,-0.987729,-0.646873,0.104717,0.58694,-0.137616,0.234966,-0.510924,-0.671194,-0.124967,0.0986036,0.139744,0.835076,0.557003,-0.968727,0.795477,0.467222,0.922525,-0.618311,-0.243703,0.455902,0.300457,0.7315,0.184585,0.656568,-0.448089,0.567912,0.165492,-0.270449,0.376069,-0.252059,0.796411,-0.379205,-0.689986,-0.251286,-1.03386,0.0429676,-0.977217,-0.86234,0.276893,-0.197366,-0.256787,-0.206185,0.120011,0.930417,0.119087,0.398027,-0.640634,-0.91466,0.361488,0.910081,0.661365,0.856806,0.615779,-0.666015,-0.932911,-0.762269,0.5021,0.245658,-0.235622,0.593968,-0.140947,0.160353,-0.473956,-0.346777,-0.705259,0.550156,0.291938,-0.00622431,0.710804,-0.9049,-0.455747,-0.637249,-0.651595,0.851899,-0.262664,-0.147735,-0.123483,-0.476389,0.133196,-0.762389,0.601763,-0.473463,0.346397,0.094319,0.283087,-0.55442,0.204319,-0.0372934,0.987044,-0.17561,0.275299,0.156539,0.483464,0.626242,-0.933145,-0.147375,0.608285,-0.78017,-0.13927,0.502661,-1.02142,-0.034874,-0.23807,0.354036,-0.707931,-0.597204,-0.00817923,-0.653751,-0.929697,0.592843,-0.130731,-0.380956,-1.00515,0.174607,-0.744042,-0.162478,-0.407919,0.411226,0.78766,0.856193,0.803331,-0.636399,0.694432,0.526236,-0.477941,0.901143,0.526022,0.856728,0.187113,0.60992,0.704979,-0.636539,0.380332,-0.968778,-0.0378661,0.0552265,-1.01392,0.635034,0.0946141,-0.685561,0.552508,0.440008,-0.850649,-0.256441,0.375466,0.416989,-0.236485,0.506572,-0.562267,-0.34251,-0.994747,-0.36091,0.178641,0.710778,0.863309,0.723427,0.904061,0.626651,-0.0214894,-0.145828,0.779352,-0.456989,-0.0216163,-0.273917,0.620991,-0.366643,-0.0725724,-0.235908,0.836285,-0.602075,-0.346826,0.687299,-0.90263,-0.943534,0.857384,0.327723,-0.306916,0.401463,-0.859113,-0.104958,-0.703174,0.421062,-0.188985,-0.244001,-0.381144,0.554039,0.451869,-0.661092,0.84799,0.960572,-0.832586,-0.0685403,-0.832138,0.107535,-0.541043,-0.714579,-0.954618,-0.531251,0.897025,-0.501848,0.218182,0.703092,-0.361896,-0.713162,-0.0725897,0.777913,-0.9633,-0.489162,-0.958083,-0.838353,-0.41922,0.864433,0.729406,-0.936683,-0.234277,-1.0116,-1.02326,-0.955337,0.203578,-0.753179,-0.842109,-0.0164104,0.196464,0.0118365,0.541997,-0.845982,0.839284,-0.231668,-0.945436,-0.944137,-0.536746,-0.404408,0.655578,0.00968271,0.352708,-0.889839,0.138144,-0.419424,-0.927485,-0.585122,-0.834073,0.284955,-0.405435,0.0581965,0.396886,-0.204046,-0.218675,-0.400591,-0.431173,0.278101,-0.124903,-0.400514,0.481842,0.292088,-0.662,0.351339,0.949763,-0.286449,0.713774,-0.793334,0.193116,0.378853,0.667064,-0.258144,0.941254,0.0606225,-0.418814,0.941365,-0.227468,0.923358,0.408174,-0.977248,-0.00988749,0.686928,-0.3777,-0.142271,-0.692237,0.870474,0.54268,-0.542501,-0.81155,0.814128,-0.351858,-0.436073,0.610885,-0.956252,0.00884769,0.0387365,-0.30387,0.783174,-0.0962824,-0.916114,-0.75115,-0.327703,0.480652,0.797609,0.200355,0.229738,-0.937003,0.725038,-0.0606658,-0.939059,-0.389993,-0.955689,-0.150407,-0.622947,-0.397975,0.60196,-0.98742,-0.0443791,-0.0770223,0.381298,0.0897505,0.371451,-0.725866,0.761961,0.942715,0.753677,-0.79961,0.67173,-0.609494,-0.372392,0.683017,0.918439,0.715803,0.899201,0.354867,0.217885,0.110898,0.551618,-0.30949,-1.00541,-4.78502e-05,-0.612134,0.0997793,-0.273444,0.848735,-0.502339,-0.399418,-0.710062,-0.0508065,0.597639,0.41665,-0.252262,0.147265,0.894675,0.496132,0.803808,-0.582994,-0.36401,0.0433711,-0.848103,-0.497601,0.533709,-0.218804,-0.349332,-0.507523,0.570894,-0.0290343,0.702477,-0.981915,-0.832532,-0.958757,-0.44738,0.0431581,-0.781894,-0.453727,0.793521,0.581104,-0.505714,-0.0399351,0.0295961,-0.656684,0.31235,-0.853312,0.401004,0.537037,0.222201,0.748054,0.405731,0.804824,0.0718121,0.914341,-0.635848,0.94309,0.579674,0.829816,0.372047,-0.704742,0.680438,0.831383,0.0856258,-0.902179,-0.713217,0.494123,-0.229199,0.492057,-0.429106,0.309056,0.282748,-0.0523023,-0.20224,0.865675,0.11775,0.957293,0.530216,-0.161074,0.86867,0.313561,0.633071,0.557972
0.101067,-0.301809,-0.935849,0.626645,-0.96689,0.721386,-0.604928,-1.02984,-0.253236,-0.927685,-0.0877257,0.873808,-0.959965,0.486143,-0.419336,0.563252,-0.85131,-0.8925,-0.201168,0.737328,0.322658,-0.847275,0.675405,-0.0180025,0.492292,0.960006,-0.15427,-0.259714,0.751261,0.502548,-0.0970263,0.527052,0.805223,0.523161,-0.342726,-0.723908,-0.468505,-0.960598,-0.191445,-0.892724,-0.399309,-0.918406,-0.622901,0.766942,0.852331,-0.111402,-0.0344426,0.798017,-0.620219,-0.122537,0.345554,0.0342105,-0.97271,-0.23305,-0.0765262,0.216409,-0.115855,-0.448832,0.203623,0.316886,-0.928492,-0.410137,-1.00297,0.933737,-0.933459,-0.981451,0.245863,-0.639246,0.439514,0.390261,0.187368,0.958219,-0.762535,-0.492452,-0.821291,-0.972699,0.393565,0.381277,-0.517889,0.476029,-0.300203,0.393369,0.197451,-0.579805,-0.0458231,0.38501,-0.923527,-0.279181,0.699778,-0.113161,0.280632,0.785175,0.363908,-0.144359,0.912458,-0.679102,-0.92622,0.109846,-0.252589,-0.957951,0.225616,0.842694,0.143584,0.462775,-0.0207154,0.916649,-0.54665,-0.155847,-0.619983,-0.195194,-0.913404,-0.430676,-0.216958,0.284256,0.0767099,-0.807383,-0.056324,-0.213255,-0.0691868,-0.815336,0.88187,0.46009,0.716883,-0.126297,0.663759,-0.290884,0.400395,0.924396,-0.528027,-0.500074,-0.0381557,-0.327066,-1.00028,0.937804,-0.0656942,0.185689,0.400386,-0.894446,-0.613106,-0.802274,0.147595,-0.144283,0.925932,-0.740223,-0.927307,0.737752,0.541869,0.817103,-0.328113,0.704802,0.184157,0.806356,0.828753,0.148695,-0.458208,0.605423,0.0678803,0.707272,0.608964,0.837483,0.524628,0.598272,-0.251666,0.703373,-0.803754,0.482411,0.0101776,0.821329,-0.563579,-0.890207,0.712553,0.923856,-0.930012,0.804989,0.209563,-0.849745,0.370489,-0.64501,0.748762,0.24905,-0.697109,0.958507,0.564074,-0.435571,0.727583,-0.874626,0.68981,0.256535,-0.778123,0.497674,0.776711,0.437462,-0.00305682,-1.00944,-0.882691,-0.150323,-0.452077,-0.388659,-0.182248,-0.733887,-0.465307,-0.151975,-0.164242,-0.0250377,0.817869,-0.73273,0.207679,-0.322789,-0.133457,-0.953389,0.506406,-0.553154,0.316458,-0.298915,0.0646003,0.534066,0.0108459,0.497792,0.800751,-0.581616,0.176069,-1.0026,-0.0976002,-0.952619,-0.284441,0.936419,0.851788,0.740506,0.510027,0.536452,-0.630857,0.815441,-0.543543,0.742939,-0.792073,0.67149,-0.835561,0.488138,0.226976,-0.404592,0.00899145,-0.73039,-0.0443312,0.353586,0.101686,0.365917,-0.0466603,0.580703,-0.618266,0.658714,0.127564,0.693895,-0.856335,-0.414621,0.886732,-0.871233,0.689398,-0.274886,-0.979902,-0.185054,-0.484482,0.764342,0.469515,-0.886421,0.105396,0.507339,-0.937973,-0.0335124,-0.896769,-0.866533,0.800575,0.882194,0.353287,0.147064,0.212401,-0.994359,0.675218,-0.817933,-0.700203,0.745823,0.578785,0.0914975,-0.59256,-0.121405,0.460612,0.270192,0.777326,0.359321,0.424018,-0.256939,-0.118561,0.617,0.271387,-0.6966,0.217171,-0.210434,-0.0451501,0.268003,0.831695,0.146942,0.938811,-0.13694,-0.502155,0.82601,0.582101,0.743273,-0.978198,-0.22252,-0.926085,0.921353,-0.533249,-0.432267,-0.234792,-0.913858,0.718261,-0.616548,-0.513869,0.628864,-0.506859,0.934878,0.619628,0.106814,0.806556,0.219007,-0.0868935,0.15962,0.488544,0.918722,0.535797,0.344049,-0.733581,0.534781,0.919827,0.204104,-0.189943,-0.531942,0.0916551,-0.57065,-0.323366,0.935874,-0.629563,0.370929,0.357073,0.291576,-0.447752,0.250447,0.109028,-0.570274,-0.141988,0.598739,-0.820602,-0.0737579,-0.498723,0.270175,-0.0817105,0.608147,-0.329093,-0.260321,0.944305,-0.65445,0.449328,-1.00311,-0.051675,-0.993399,0.161947,-0.270584,0.0257989,-0.866357,-0.869349,-0.904068,0.217869,-0.485421,0.288989,0.255167,-0.187141,-0.385275,0.256846,0.676095,-0.819737,-0.400356,-0.957361,0.728554,-0.525893,-0.295364,-0.623355,0.282514,0.753215,-0.116427,-0.491052,-0.0929101,-0.714521,-0.249976,0.748678,0.263181,-0.272366,-0.275476,-0.618432,0.776281,0.864591,0.0206935,0.433358,0.912929,-0.0599413,0.188275,-0.324239,0.621282,0.775391,-0.438325,-0.0881233,-0.0110751,-0.0814073,0.335024,0.45067,0.911167,-0.950106,-0.575226,0.409627,-0.526375,0.00846115,-0.161411,0.429174,0.911941,-0.404919,-0.434469,0.819317,0.469699,-1.00415,-0.60451,-0.548122,0.422727,-0.472135,0.343588,-0.440244,-0.683068,0.817511,-0.755041,0.0669735,0.318238,-0.29782,-0.0536357,0.735379,0.0417655,-0.152454,0.836015,0.412878,0.018289,-0.13753,-0.189082,0.925495,-0.866755,-0.413568,0.156119,-0.775707,0.490313,-0.7641,0.448551,0.204137,-0.49873,0.703844,0.180537,-0.147397,-0.785156,-0.111296,-0.746894,-1.00513,0.910556,0.0862063,-0.0817047,0.766929,-0.354981,0.19869,-0.577226,-0.295385,-0.0611495,-0.686259,-0.493184,-0.254536,0.512583,-0.0502392,-0.583402,-0.196282,-0.601529,0.393743,0.0157903,0.449326,0.369826,-0.0807236,0.000531918,0.156905,-0.493381,0.649188,-0.218022,0.59404,0.0422844,0.631154,-0.380563,0.499524,-0.405685,-0.629257,-0.92407
-0.14982,-0.895626,0.0984449,0.124916,0.37491,-0.629769,0.346733,-0.660351,-0.79418,-0.587028,-0.254043,0.184581,-0.0620814,-0.79876,-0.192481,-0.364786,0.990761,-0.0991559,-0.472803,-0.165911,-0.297604,0.445273,-0.158942,-0.950484,0.0668902,0.940661,0.00994415,0.540505,-0.541424,-0.327662,0.213653,-0.116096,0.542141,-0.922561,0.307485,-0.791242,-0.327142,-0.729989,0.0694233,-0.519147,0.308947,-0.462091,0.332929,-0.834002,-0.777503,-0.502464,-0.980311,0.191472,-0.355232,0.880575,-0.766892,0.896243,0.561451,0.888814,-0.296911,-0.724087,-0.144582,-0.60835,-0.681925,0.448953,0.411529,-0.318843,-0.541142,-0.703844,0.91675,-0.746285,-0.724067,0.260981,0.213901,-0.0621115,0.888606,-0.992716,0.394781,-0.728689,-0.0446884,-0.388918,0.0181411,0.195124,0.770636,-0.235738,0.624097,0.432399,0.361192,-0.856916,0.628339,0.183049,0.404814,0.0100655,0.0916051,-0.824573,0.801525,-0.314912,0.235299,-0.305312,0.340688,-0.75343,-0.821147,0.259277,0.00168326,-0.972124,0.40105,-0.193052,-0.960277,0.541592,0.452303,-0.218879,0.144176,-0.556825,-0.332488,-0.222725,0.521581,0.290158,-0.423295,-0.344276,0.461447,0.472341,-0.560916,-0.61583,-0.574503,-0.850102,-0.570387,-0.965988,-0.140285,0.701155,0.995342,0.00957877,0.00335714,0.220891,-0.565348,-0.111286,-0.420327,-0.0427325,0.0712004,-0.522183,-0.211583,-0.41472,0.322173,0.817637,0.739068,-0.174496,0.954488,-0.844495,0.378563,-0.21149,-0.9822,0.793304,-0.118345,-0.437285,0.762253,-0.571581,-0.999288,0.736675,0.935067,-0.0172987,-0.739234,0.150177,0.404708,-0.781699,-0.805751,-0.0500895,0.0731257,0.855714,0.285062,0.625648,-0.56225,-0.141925,0.984605,0.659857,-0.536207,-0.14166,-0.0187501,-0.763562,0.721111,0.0483425,-0.989688,-0.275445,0.339171,-0.240226,0.905508,0.691073,0.0289198,0.95596,-0.914126,-0.0819628,-0.921533,0.85536,-0.901063,0.594165,-0.8627,-0.25417,0.939682,0.583317,-0.0616008,-0.289699,0.34763,0.595056,-0.493956,-0.159165,-0.852097,0.47297,-0.854514,-0.557258,-0.186301,-0.673351,0.485211,-0.287152,0.82598,-0.260714,0.485252,-0.70923,0.164978,0.442724,-0.837425,-0.189065,0.735324,0.0446656,0.048875,0.637867,0.809997,-0.445874,-0.361758,-0.0503854,0.677591,0.607534,0.696492,0.952818,-0.745865,0.89417,0.804725,-0.808925,0.102533,-0.87876,0.10616,-0.549751,-0.80395,-0.0595912,-0.963986,0.119907,-0.235018,-0.719347,0.518997,0.96514,0.969534,-0.253013,0.16393,0.485737,0.284015,-0.725488,-0.0266208,-0.753228,-0.132084,0.131649,-0.679906,0.517018,-0.57571,0.636498,0.514756,0.926888,-0.814058,0.378351,-0.850679,-0.151055,0.0433241,-0.428824,-0.84591,-0.346025,-0.154037,-0.8969,-0.298481,-0.103276,0.0957162,0.928974,-0.357282,0.781338,0.581934,0.929095,-0.906755,-0.388902,-0.794788,-0.726424,-0.482235,-0.797926,0.398234,-0.566805,0.110287,0.964635,0.899787,0.722578,0.941608,-0.53329,-0.36762,-0.800988,-0.812668,-0.0993982,-0.300812,-0.71382,-0.929399,-0.634599,-0.417085,0.619866,-0.586375,-0.466592,-0.0667987,-0.35314,-0.664591,-0.682565,-0.693062,-0.28299,-0.637985,-0.287581,0.901602,0.151903,0.917227,-0.928823,0.804082,-0.356853,0.898256,-0.524495,0.646871,-0.250336,-0.501045,-0.856869,-0.706471,0.270841,-0.444503,-0.678621,-0.634582,0.369091,0.830631,-0.30479,-0.0994361,-0.824424,-0.220141,0.586619,-0.298479,-0.958251,-0.321379,0.511126,0.265073,0.929719,0.421701,-0.0914764,-0.432112,0.436907,-0.17661,-0.490805,-0.805217,-0.837395,-0.017121,0.420051,0.503723,-0.451229,0.0850237,-0.712814,0.263567,-0.670097,0.0682729,0.259963,0.80885,0.224039,-0.960791,0.595477,0.107923,0.919328,-0.10356,-0.209542,0.65908,0.201937,-0.62023,0.66465,-0.053432,-0.442657,0.919311,-0.528851,-0.936683,-0.939832,-0.617059,0.807858,0.748422,0.128651,0.812471,0.267118,0.0710792,0.795478,0.184165,0.840394,-0.973466,-0.471887,-0.215899,0.637675,0.0973046,0.693536,0.495991,0.96739,-0.839337,0.547571,-0.00702219,0.413754,-0.209007,0.662535,0.319218,-0.7475,0.939572,0.507401,0.360035,0.31165,-0.956332,-0.899442,-0.0865286,-0.672314,0.829825,-0.677185,0.384116,-0.27927,-0.753775,-0.449279,0.84405,-0.223535,0.739028,-0.443169,0.0338341,0.647883,-0.238865,-0.898684,0.412,-0.905474,-0.984726,0.971397,0.590286,-0.214721,-0.90533,0.397666,0.732074,0.26756,-0.479318,-0.974575,0.0976194,-0.674063,0.235342,0.0317071,-0.826182,0.633296,-0.0296729,0.253041,0.797034,0.669836,0.848886,0.0436168,0.733169,-0.341323,0.875222,-0.567534,0.624555,-0.339202,-0.156724,0.329002,-0.78241,0.380874,0.901793,-0.118381,-0.93801,-0.946858,-0.443815,-0.783897,0.462743,0.852517,0.0978015,-0.717562,-0.0294402,-0.437295,-0.46204,0.82992,0.480608,0.322857,0.433065,-0.880612,0.768284,0.266712,-0.284119,-0.865199,-0.0677086,-0.93514,-0.123259,0.770952,-0.841478,0.972654,0.122567,0.858267,-0.956563,0.0651414,0.172586,-0.0329923,0.434702,0.741933,-0.802725,0.209778,0.981758,0.620946,-0.441412,0.696797
