0.579829,0.699139,-0.123282,-0.368379,0.0906635,-0.992296,0.807883,-1.05803,-0.271952,0.623974,0.487031,0.586555,0.581765,-0.444767,-0.651726,-0.378665,-0.428822,0.925299,-0.975843,0.0954161,0.112724,0.22285,0.643452,0.605382,-0.710835,-0.470962,0.600137,-0.704033,0.868988,-0.353853,-0.957547,0.712735,0.487828,0.249637,-0.326411,-0.536698,0.262542,-0.85876,-0.792901,-0.510921,-0.78726,0.772133,-1.02495,0.149516,0.869357,-0.701709,0.157616,-0.965398,-0.941563,0.322413,-0.435927,0.833956,0.0755468,-0.82127,-0.320757,-0.120751,-0.0275072,-0.573045,0.0926598,0.0284362,0.345429,0.0571275,-0.8398,-0.947092,-1.01159,0.473884,-0.577714,-1.02857,-0.17689,0.361399,-1.07646,0.785413,-0.115344,0.903337,0.570824,-0.671616,0.675045,-0.0825161,-0.313093,-0.209849,0.537157,0.210197,0.623685,-0.236615,-0.825773,-0.688047,0.166019,0.0637959,-0.377674,-0.558998,0.722914,-0.0721293,-1.02429,-0.515504,0.282793,0.917195,-0.443221,-0.463387,-0.54923,-1.02959,-0.0970435,0.474584,0.652609,0.110171,-0.365766,-0.41736,-0.247062,-0.736596,-0.234558,-1.09364,-0.857747,0.612601,0.927736,-0.044752,-0.514379,0.247905,-0.794253,-0.590574,0.486529,0.889159,-0.227861,-0.954107,0.345548,0.026387,-0.387045,0.490513,-0.198901,0.252806,0.0569489,-0.685355,0.847214,-0.168953,-0.2086,0.911423,0.54952,-0.667012,0.793243,-0.887065,-1.01994,-0.359733,0.77503,0.665181,-0.862517,-0.890774,-0.139128,-0.717342,-0.954335,0.399597,-0.799613,-1.04668,0.0950411,0.281789,-0.963648,-0.382669,0.895221,0.0306183,-0.383624,-0.82749,0.143886,0.501077,0.924077,-0.792747,0.231547,-0.123482,-0.582333,-0.973709,-0.969507,0.109938,0.0438401,-0.66669,-0.385038,0.3754,-0.659899,0.0407325,-0.587231,0.207097,0.511018,-0.819661,-1.01189,0.210784,0.854524,0.81358,-0.399582,-0.225911,-0.164197,0.573164,-0.304598,0.799735,-0.615012,0.290107,-1.01697,0.337214,-0.147179,-0.353959,-1.03544,0.207485,-0.215579,-0.231885,-0.791218,-0.67037,-0.64943,0.628666,-0.97147,0.634805,-0.507051,0.478844,-0.488975,-0.592949,0.940085,0.856642,-0.581418,-0.360601,-0.701301,-0.74472,-0.528532,-0.133463,-0.316813,-0.456138,0.799759,0.938044,-0.384834,0.770764,0.258752,-0.546944,0.567567,0.226711,-0.373746,-0.163423,-0.616947,0.228176,-0.0346825,0.824771,0.584691,0.0945755,-0.850733,0.396372,0.674267,0.402117,0.483473,-0.390601,-0.0165146,0.00699048,-0.396518,0.38827,-0.164559,0.635392,0.229822,-0.879681,-1.0039,-0.073662,-0.550155,-0.96331,0.252534,-0.105005,0.249265,0.354484,-0.189101,0.480522,-0.413924,0.762826,-0.363153,0.0170112,0.404055,-0.51196,-0.606358,-0.230172,0.567242,0.567604,-0.166886,0.383454,0.0168883,0.455697,-0.0311136,-0.247358,-0.620857,-0.638203,0.621136,0.442965,0.565176,0.337662,-0.279456,-0.679953,-0.975024,0.670526,-0.641199,-0.734912,-0.457545,-0.792178,0.0696478,-0.227109,0.711337,-0.917281,-0.469162,0.284695,-0.837418,-0.659227,0.386705,0.778176,0.531919,0.584457,-0.355265,-0.471987,0.746158,0.235561,0.719568,0.783875,-0.619923,0.665911,0.192363,0.0882894,0.525086,0.183341,-0.509681,-0.135648,-0.207239,-0.857362,0.0776419,0.386627,-0.401561,0.425694,-0.211393,0.382716,0.721489,0.673503,0.225346,0.445023,-0.600638,-0.497858,-0.923505,-0.948914,-0.398877,-0.504759,-0.524766,-0.733269,0.0218053,0.559476,-0.922185,0.700445,-0.41581,0.0610481,-0.042388,0.792235,-0.284399,-0.331197,0.807963,0.465002,0.819439,-0.296176,0.229124,0.71816,0.110501,0.519052,0.749359,-0.576244,0.649197,-0.960084,0.351006,-0.106918,-0.910064,-0.70944,0.82678,0.971406,0.283961,-0.929938,-0.721899,-0.260103,0.121532,-0.325849,0.716516,-0.162709,0.758227,0.656788,-0.360438,-0.682014,-0.598264,-0.298486,0.271663,-0.966359,0.854143,-0.761924,-0.0540246,-0.183401,0.635005,-0.326294,-0.0615136,-0.91617,-0.888168,-0.55292,0.626456,0.40548,0.617606,-0.511597,
-0.152826,-0.50003,0.632844,0.188147,-0.786917,0.0498569,-0.981738,-0.173261,-0.765787,0.202152,0.852002,-0.756002,-0.515896,0.237602,0.571153,0.0240896,-1.07258,0.724648,0.877332,-0.537561,0.0442269,-0.0293091,-0.878919,-0.092131,0.0302304,0.243013,-0.390071,0.0057259,0.0190326,0.535719,-0.770578,-0.817851,0.101117,-0.681624,-0.966582,-1.11449,0.573023,-0.195638,-0.494837,-1.16384,-0.686957,-0.249728,-1.08305,0.341301,-0.755928,0.0282315,-0.415117,0.62027,-1.00472,0.0253318,0.303005,-0.55319,0.263219,-0.945326,0.884341,0.183716,0.100814,0.0629479,0.0910726,-0.436564,0.47899,0.481253,0.585287,-0.519755,0.134094,0.486854,0.754966,-1.09889,-0.423872,-0.373402,-0.414537,-0.336202,0.379306,0.0323795,-0.652815,0.467388,-0.936876,-0.869249,-0.491629,-0.919676,0.775561,-0.958409,0.630629,-0.378155,-0.907826,-0.116025,0.455776,-1.01973,-0.687571,-0.294956,0.202573,0.250892,0.685381,-0.375802,0.809676,-0.999163,0.77125,0.576011,-0.382742,-0.723588,0.0430995,0.0125291,-0.224512,-0.458358,0.681887,-0.958196,-0.527403,-0.946089,-0.183939,0.163679,-0.198004,0.76556,-0.143035,-1.0699,0.733308,0.349132,0.614027,-0.533135,0.427376,0.479919,0.76678,0.274355,-1.14345,-0.207591,0.809283,-0.599371,0.778491,-0.934115,0.176596,-1.07229,-0.0938157,-0.0598707,-0.55894,0.4932,-0.718648,-0.699111,-0.130239,0.0271829,0.800366,0.814686,-0.174872,0.412623,-0.730682,0.3796,-0.714572,0.41479,-0.999356,0.608445,-0.235797,-0.373524,0.358901,0.707439,-0.884989,0.405003,-0.329636,-0.767611,0.127995,0.556439,0.757899,-0.858584,0.685965,-0.976449,0.737858,-0.814827,0.45692,-0.956307,0.666108,-0.715649,0.720315,0.025838,-0.148856,0.0640259,0.173558,-0.469044,-0.237974,-0.598046,-0.336088,0.424168,0.0155973,-0.863466,-0.601083,0.333008,0.303301,-0.112881,-0.140921,-0.757222,0.384261,0.509547,0.463793,-0.789958,0.0297113,0.406127,-0.04696,0.229482,-1.21213,-0.0561253,-0.750495,0.564287,-1.01091,-0.652151,0.109245,-0.193093,-0.565308,0.460423,0.41606,-0.396696,0.868335,0.0422974,0.762975,0.223499,0.890728,0.0795614,0.409167,0.405967,-0.609284,-1.00691,0.231019,0.671063,-0.486304,-0.455548,-0.0428054,-0.996019,0.405739,-1.01726,0.338072,-0.321835,0.795911,0.0452902,0.115705,-1.08988,0.516281,0.679069,-0.156307,0.0383669,-0.0785866,-0.58235,-0.705753,-0.54767,0.0227663,0.648353,0.739581,0.499317,0.151577,0.393794,0.535108,0.0271231,-1.21406,-0.875804,-0.0659198,0.448198,-0.0616793,-0.12525,0.658968,-0.757712,0.675719,-0.736474,-0.660895,0.680371,-0.304766,0.129192,-0.97857,-0.7451,0.0509976,0.180211,0.223636,-0.621126,0.818751,-0.518312,0.923363,-0.970066,-0.222501,-0.162937,0.478821,0.30568,0.28416,-0.305594,0.461755,-0.132919,0.572042,0.607825,-0.822828,0.550976,-0.62467,0.135657,0.414592,-0.352675,-0.19998,-0.335369,-0.684368,-0.758079,0.950237,-0.0157374,-0.412073,0.400255,0.500058,-0.662849,0.391835,0.519167,0.292671,0.139542,-0.136868,0.842044,0.523806,0.524189,0.168807,0.483846,0.0199743,-0.198169,-0.346218,-0.733156,-0.686522,-0.461488,0.734617,-0.478017,-0.150551,0.263681,-0.779788,-0.110376,0.438266,-1.15843,0.446073,0.0840121,0.0726051,-0.262337,0.54673,0.433617,0.39098,-1.00281,-0.25257,-0.601931,-0.343464,-0.0721853,0.0461703,0.230135,-0.348398,-0.313861,-0.757354,-0.189726,0.23963,0.340758,-0.989669,0.606354,0.608473,0.484651,0.0306853,-0.44421,-0.764813,0.552399,-0.177369,0.581102,-0.324151,0.477805,0.237095,0.292185,-0.329475,-0.983472,0.44812,0.17155,0.0868437,-0.651958,-0.47928,-0.380205,-0.635769,0.260887,0.477448,0.440173,-0.100355,-0.652377,0.201388,0.844126,0.711482,-0.53064,-0.383641,0.52632,0.332936,-0.927304,0.207559,-0.198768,-0.796551,-0.0738438,-0.305842,0.588306,-0.172641,-0.415161,0.14153,0.788715,-0.468813,-0.128095,-0.721748,-0.913076,-0.0592606,-1.04126,
0.566118,-0.403891,-0.914767,-0.566608,0.525931,-0.442764,0.209706,0.366524,-1.00624,0.13716,0.215373,-0.0691822,-0.142289,0.344423,0.102747,-0.174981,0.439798,0.96697,0.532138,0.801882,0.134721,0.0658441,-0.844707,-0.585856,0.511938,-0.0504351,-0.903522,0.476044,0.406874,-0.9426,0.253106,0.81517,-0.1771,0.484369,-0.232222,-0.400492,0.504874,0.161154,-0.875847,0.735121,0.554198,-1.06449,0.0328961,-0.77887,0.278629,0.79117,-0.150424,-0.0182017,-0.423502,-0.816096,0.966815,-0.471246,-0.70243,0.823043,-0.562673,-0.518002,-0.0771612,-0.809725,-0.208925,-0.577654,-0.781257,0.436933,0.398685,-0.889795,0.449905,0.00231498,-0.15835,0.284255,0.881635,-0.0444001,-0.286084,-0.207553,-0.0657317,-0.578088,-0.293283,0.0685852,0.623996,-0.712933,-0.780967,-0.727822,-0.203808,0.271662,-0.294147,0.643325,-0.407175,0.643968,-0.708629,0.228354,0.240984,-0.823541,0.283855,0.209495,0.0725323,0.423554,-0.898931,0.379485,-0.192662,-1.07765,-1.07321,0.0645807,0.184806,-0.883201,0.691014,0.310844,-0.234776,-0.677143,0.778015,0.497329,0.255523,-0.269692,-0.522254,0.823497,-0.878563,-0.60105,-0.45723,0.840116,-0.684417,-0.732759,-1.00145,-0.502137,0.0137678,0.0559638,-0.156001,-0.334621,-0.779368,0.861488,0.587134,-0.706411,0.291034,-0.355457,-0.414957,0.569408,-0.746324,-0.938615,-0.382469,0.511857,-0.0500734,0.862219,-0.236756,-0.732152,0.678691,0.14685,-0.932174,0.683979,-0.539568,-0.595196,0.19469,-0.230027,-0.262823,-0.328083,0.0393162,-0.956837,0.297125,0.340861,-0.297208,-0.217503,-0.357729,-0.517176,-0.0855777,-0.549907,-0.184534,0.49468,0.0786915,-0.306029,-0.593604,0.182873,-0.811598,-0.363542,0.765909,-0.105003,-1.10202,0.765596,-0.603453,0.470619,-0.12843,0.242765,0.698937,-1.02058,0.866013,-0.904921,-0.636708,0.420495,-0.121837,-0.703544,-1.0597,0.295365,-0.204386,0.452485,0.469786,-1.01949,-0.879651,0.289543,-0.831639,0.703435,-0.370924,0.611274,-0.924047,0.738096,0.748006,0.589123,-0.14721,-0.488243,-0.170266,-0.727623,-0.19091,0.142558,0.588664,-0.961421,0.154302,0.444284,0.208025,-0.661954,0.042364,0.670418,-0.380386,-0.191867,-0.44668,0.85902,0.16157,-0.951702,-0.342558,-0.832382,-0.182946,-0.669934,0.675905,0.0302735,0.163611,0.141512,-0.520831,0.390064,0.433654,-0.668677,-0.298406,0.943526,0.314183,0.815075,0.899784,0.822099,-0.335805,0.289781,0.52632,0.129456,0.0663948,0.697936,-0.0929291,-0.0420326,-0.15648,-0.803447,-0.155608,0.572746,-0.652771,0.501265,0.165049,-0.180121,-0.132837,-0.432676,-0.610686,0.473918,-0.372027,0.131299,0.889404,-0.845178,0.604434,0.748101,0.510293,0.837891,-0.339028,-0.439307,-0.0982702,0.339144,-0.17684,0.335002,-0.411938,0.129686,-0.26737,-0.0909195,0.441521,-0.137532,-0.292212,0.859262,-0.809425,0.147492,-0.0786983,-0.0649119,-0.0771227,0.587414,0.507908,0.674653,0.775177,0.866997,0.219249,-0.77485,-0.254186,0.289442,-0.77105,-1.12218,-0.339698,0.78903,0.547778,0.0309056,-0.91986,-0.737968,0.652384,-0.920105,0.1786,-0.14638,0.591948,-0.677459,0.047588,-0.0684054,-0.132137,0.572667,0.196717,0.884317,0.705265,-1.06437,-0.613584,0.259682,-0.349245,-0.836366,-0.555515,0.491008,-0.691925,-0.188081,0.0288133,0.666084,-0.286134,0.425949,0.023432,0.628813,0.517832,0.72106,0.269665,-0.499339,0.160843,-0.551926,0.644169,0.437051,0.217535,-0.80635,-0.4206,0.23693,-1.03504,0.295145,-0.787104,0.493483,-0.116139,0.0935591,0.315666,-0.405938,0.573817,-0.933039,0.218854,0.259201,-0.528702,0.191835,-0.720787,-0.576438,-0.60297,-0.36791,-0.132077,0.322787,-0.940068,0.37161,-0.842313,0.367278,-0.969375,0.205345,-0.295144,-0.755534,0.823523,-0.421252,-0.528702,0.0464241,-0.682544,-0.247406,-1.13002,0.900248,0.447435,0.819056,0.842069,-0.342251,-1.16833,-0.348061,-0.263807,0.619612,-0.909757,0.384535,-0.586637,0.124279,-0.0248951,-0.511921,
0.273566,-0.488698,0.627209,0.0673926,-0.733835,0.233506,-0.144627,0.690504,-0.910139,-0.250205,-0.191077,0.65727,0.847972,0.572301,-0.333681,-1.03893,-0.307718,-0.256212,0.716746,0.0305108,-0.473513,0.641909,-0.823019,-0.0432061,-0.591178,-1.05335,-0.573196,-0.931243,-0.233704,0.199715,-0.853258,-0.538705,-0.885853,-0.684375,-0.882905,-0.433562,-0.142394,0.849141,0.692287,-1.12437,0.326735,-0.493415,-0.843536,-0.163057,0.233648,-0.949233,-1.0226,0.358543,0.0427116,-0.256893,-0.771024,-0.165614,-0.626303,0.346513,-0.885158,-0.687329,0.120833,0.790235,0.0156233,-0.0292999,0.128568,-1.01219,0.0670241,-0.366786,-0.209368,0.446974,-0.923331,-0.0147427,-0.239493,0.573908,-0.173295,0.607826,-0.844762,-0.196481,-0.334677,-0.980476,0.183217,-0.252811,-0.315115,-0.358446,0.504919,0.657103,0.906972,0.0520933,0.90685,0.641459,-1.13395,0.578752,0.43169,0.665306,-0.375041,-0.1385,0.776231,-0.67934,0.835396,-0.176384,0.443868,-0.763171,-0.267154,-0.874253,-0.231977,0.766464,0.530135,-0.401309,0.224195,0.507631,-0.237983,-0.249459,0.151281,-0.876509,-0.552896,-0.887337,0.213752,0.431035,0.272228,0.700718,-0.382446,0.148879,0.369909,-0.150387,0.545542,0.483284,-1.12606,-1.16486,-0.127122,-0.0355658,0.360679,0.183557,0.0336,0.482899,0.190699,0.341498,-0.759383,-0.835134,-1.00941,0.601475,0.735453,-0.512338,-0.899421,0.181846,-0.131857,-1.00054,-0.887281,0.0772462,-0.0442821,-1.01035,-0.88016,0.240699,-0.999232,-0.192446,-0.299511,-0.24915,-0.190034,-0.271726,-0.790229,0.831222,-1.00176,0.536236,-0.825271,-0.574874,-1.02214,0.440412,0.817304,-0.637001,-0.0987419,-0.476204,-0.160195,-0.163755,0.781892,0.529647,-0.964301,-0.454792,-0.880261,-0.73327,0.594069,0.207358,-0.86369,-0.223659,-1.04491,-0.142716,0.561576,0.0137168,0.213548,0.748938,-0.769802,-1.01842,-0.218835,-0.358341,-0.746813,-0.520403,0.577109,-0.286536,-0.260685,-0.663866,-0.184669,0.170491,0.348662,-0.0620574,-0.361532,-0.222855,0.438029,-0.264791,0.588608,-0.831394,0.401123,0.537837,0.208325,0.0335505,-0.488944,-0.105106,0.812097,-0.822564,0.412022,0.567778,0.408125,0.280068,0.558426,0.0906174,0.797236,-0.115131,0.916054,0.822032,0.580614,0.769975,-0.15509,0.440965,0.0143659,-0.440809,0.532421,-0.341434,0.10552,-1.04489,-1.06668,0.160522,0.0356908,0.864339,-0.361476,-1.09336,0.0791844,0.574432,-0.395649,-0.168709,-0.134105,0.581701,-0.515147,0.89367,0.427104,-0.103025,-1.02913,0.310378,0.657436,-0.421827,0.890874,-0.167762,0.783272,0.164464,0.585885,0.29036,0.430763,-0.754469,-0.036816,-0.348056,-0.811072,0.0762747,0.679169,0.684764,0.684081,0.691463,0.40863,-0.687332,0.206931,0.924107,-1.19024,-0.825197,0.449734,-0.463111,0.67708,-0.538682,0.28363,0.513525,-0.723061,-0.112873,0.473143,0.709245,-0.354387,-0.914734,-1.0162,0.463718,0.434344,-0.977023,0.971186,-0.976401,0.883471,-0.75359,-0.458052,0.0911592,0.657407,-0.123512,0.688982,0.780101,0.61537,-0.461558,0.34131,-0.218021,0.675508,0.258101,0.447957,-0.695452,0.435114,-0.0842104,0.0787159,0.850699,-1.05915,-0.155934,-0.0177016,-1.10062,0.0346688,-0.336295,-0.668315,0.464266,-0.276441,-0.32672,-0.632454,-0.446034,0.133009,-0.608125,-0.372282,-0.28577,-0.235869,0.257587,0.396059,-0.0245867,0.416933,0.203892,-0.0873416,0.129488,0.42413,0.738642,-0.576201,-0.57029,-1.08186,-0.89445,0.794677,-0.233513,0.188668,-0.18176,0.58798,-0.464767,0.28191,-0.481448,-0.562931,-1.16405,-0.432162,-0.0481015,-0.591258,0.651179,0.921849,0.248692,0.116212,0.892492,0.652403,0.800009,0.307543,0.599375,-0.336107,0.114744,0.661845,-0.627994,-0.135768,-0.0543583,-0.132775,-0.527373,-0.173026,-0.359242,0.153513,-0.932447,-0.00558632,-1.03893,-0.768651,0.228604,-0.561613,-0.193227,-0.516202,0.705425,0.822178,0.668396,-0.651649,-0.66174,-0.0759872,0.775089,-0.919924,-0.90813,
0.599292,-1.03512,-0.463044,0.576326,0.623849,-0.626095,-0.880391,-0.624728,0.465273,-0.694441,-0.761308,-0.887546,-0.913905,0.0925109,-0.155086,0.503684,0.0187904,0.714071,-0.466721,0.127231,-0.194386,0.667195,-1.02369,0.0871798,0.173891,0.619285,-0.313732,0.186953,-0.0406405,0.605834,-0.157155,-0.72762,-0.776878,-0.320719,-0.0714106,-0.0983267,0.348628,0.00166645,-0.863162,0.769317,-1.11411,-0.575769,-0.41344,-0.377048,0.536156,-0.352855,-0.853083,0.539051,0.568057,0.29967,-0.630324,-1.05559,-0.575035,0.0672598,-0.603265,-0.350792,0.599633,0.527168,0.402815,0.686198,-0.521065,0.534516,0.146218,-0.326311,-0.172645,-1.04425,-0.466199,-0.227557,-0.150347,-0.886249,0.64254,0.532537,-0.0068388,-0.917247,-1.04975,-1.08422,0.450192,-0.0174249,0.0945743,-1.02963,0.476595,-0.225901,-0.386397,0.346412,0.220634,0.110369,-0.80493,0.427179,0.594256,0.00588016,-1.0454,0.813593,-0.43923,0.446644,0.671334,0.494117,0.948158,0.557327,-0.189669,-0.636876,0.0115219,0.406584,-0.36891,0.87611,0.628936,0.377628,-0.32093,0.780397,0.231715,0.368811,-1.05081,0.650013,0.934622,0.467205,0.474222,-0.193262,-0.9795,-0.347739,-0.631195,-1.0702,-0.538287,-0.0634777,0.426895,0.548533,0.404178,-1.01048,-0.122397,-0.349903,0.724085,-0.0727683,-0.0635908,-0.430688,-0.948936,0.878333,-0.171182,-0.788956,-0.19919,0.0799635,0.0587423,-0.802165,-0.257424,0.580648,0.671088,-0.814578,-0.700317,-0.370014,-0.2613,0.164635,-0.434952,0.785596,0.700386,0.912982,-0.356932,-0.648412,0.494719,-0.23255,0.76376,0.790553,0.429293,-1.08507,-0.268609,-0.216264,-0.507482,-0.194745,-0.567713,0.554471,-0.738042,0.145613,0.741028,-0.211047,-0.321644,0.328414,-0.537246,0.418986,0.688623,-0.962949,-0.812695,-0.0580585,-0.863509,-0.317607,0.388818,-0.00620557,0.750598,0.455048,-0.849429,0.268073,-0.697204,0.560879,0.809781,0.463704,-0.121098,-0.72082,0.677424,0.0211325,0.189743,-0.398151,-0.571777,0.261659,-0.166961,0.64757,-0.450479,0.278071,0.641724,0.351465,-0.302619,0.569496,0.405052,-0.456777,-0.587019,-0.674703,0.511948,-0.996849,0.530733,-1.08444,-0.60376,-0.538804,-0.267423,-0.405555,0.255228,0.245316,0.31504,0.197812,-0.284303,0.286534,-0.139802,0.418811,0.483741,0.181838,-0.655533,-0.353849,-0.428374,-0.367124,0.295414,0.392781,0.108319,0.125498,-0.0528162,-0.576701,-0.229427,-1.0073,-0.801191,0.460774,-0.666256,0.314415,-0.404617,0.237059,0.593593,-0.259378,-0.273561,-0.743152,0.641676,0.791933,0.334563,0.764302,0.819282,0.232837,-0.517553,-0.818534,0.162041,-0.687588,-0.203696,0.564918,-0.780939,-0.767609,-0.694494,0.298891,-0.469762,0.00314575,-0.0976763,0.819176,-0.215337,0.290111,-0.626955,-0.824426,-0.776006,-0.676215,0.17822,0.766631,0.058863,0.0186562,-0.607765,-0.748073,0.267175,-0.45835,-0.414314,0.631986,-0.67974,-0.195946,-0.799768,0.490797,-0.401535,-0.879437,-0.841217,-0.134382,-0.218082,-0.787154,0.119534,-0.232673,0.195025,0.533793,-1.09471,0.801708,0.368178,0.0107645,0.0727135,-0.177433,-0.886275,0.0157074,0.382642,-0.017391,-0.694305,0.0968379,0.688541,0.559583,-0.255904,-0.87643,0.618364,-0.696843,0.722957,-0.606378,-0.675343,-0.52761,-0.859951,-0.67235,-0.619922,-1.08466,-1.00472,0.667587,-0.530143,0.849732,-0.121846,-0.746215,0.100282,-0.683441,-0.522442,0.785675,-0.501671,0.931433,-0.756228,-0.355369,0.420165,-0.0371677,-0.619941,-0.869685,-0.548588,0.525135,0.349892,0.379833,-0.188754,-0.844008,-0.42948,-0.98339,-0.474,-1.00175,-0.211378,-0.943261,0.428446,0.804238,-0.815273,0.0360091,0.514725,-0.802892,0.0943376,0.206217,-1.2073,0.0625204,-0.405857,-0.0796339,-0.910587,-0.654967,0.429294,-0.334773,-0.235814,0.253224,-0.311317,-0.712748,-0.630025,-0.542574,0.668582,-0.598382,-0.22654,-0.170299,-0.750594,-0.844657,0.53088,0.727369,-0.867858,-0.503424,0.641039,0.317249,-0.97784,0.471197,
0.94342,0.147333,0.256517,-0.676266,0.658784,-0.479552,-0.62742,0.0695095,-0.21303,0.0183119,-0.0632199,0.025165,0.922363,0.180338,0.043394,-0.878561,-0.876751,-0.996717,0.608131,-0.979421,-0.237742,-0.660429,-0.17345,0.665351,-0.0631418,0.845168,0.358211,-0.340831,0.87444,-0.401602,-0.00172745,0.307526,-0.284774,-0.0739989,0.577071,-0.95086,-0.835301,0.351786,-0.264804,0.785914,-0.272716,0.743536,-0.0238061,-0.672405,-1.02203,0.269051,-0.651265,0.857301,-0.861354,0.58541,0.587059,0.187433,0.127434,0.477214,-0.638036,-0.356511,-0.473543,0.840428,-0.432143,0.457099,0.183812,-0.252156,0.320696,0.130521,-0.477431,-0.685311,0.252388,-1.03639,0.290725,-0.156147,-0.51898,0.893121,-0.482146,0.881072,0.842705,0.634729,-0.868645,0.410382,0.271481,0.339352,-0.167112,0.73171,0.77284,-0.0780514,0.0559373,-0.767194,-0.655866,-0.605083,-0.759904,-0.157142,-0.464356,-0.243383,0.822243,0.0944005,-0.470753,-0.370567,-0.893352,0.567389,0.827193,0.0344709,-0.804828,-0.157193,0.571105,-0.788447,-0.151975,-0.059333,0.526264,-0.38561,0.560183,-0.349507,-0.303798,-0.691971,-0.457259,0.734421,-0.344511,0.295192,0.379681,0.767091,0.237766,0.0812093,-0.958465,-0.107976,-0.423471,0.209865,0.246283,0.46585,0.787492,0.399336,0.7505,0.144794,0.519282,0.82833,-0.422593,-0.147647,-0.70633,0.690503,0.190618,-1.00944,-0.474712,0.0563446,-0.832968,-0.469418,0.539519,0.781553,0.0687762,-0.731731,-1.0686,-0.55537,0.763695,-0.295027,-1.03163,-0.264557,0.820574,-0.652701,-0.734308,-0.420443,-0.386143,0.323032,-0.955045,0.177312,0.836801,-0.918406,-0.921241,0.247108,-1.00066,0.578513,0.160828,0.555431,0.567281,-0.805505,-0.107937,0.0669209,0.432673,0.0474199,0.246396,0.553583,0.00619778,0.0770402,0.307026,0.0922838,0.309549,0.283087,-0.6058,-1.00883,0.588618,0.195828,0.130913,0.365287,-0.358145,0.599019,0.0534241,-0.962929,0.303077,0.699635,0.450513,0.640563,0.128732,0.575461,0.110824,0.66774,0.659912,0.110427,-0.676933,0.311223,0.56761,-0.41041,0.0553394,0.0267603,-0.0493771,-0.847317,0.512437,0.495293,-0.855221,-0.127076,0.686512,-0.643575,0.201164,0.637295,0.0652429,0.314082,-0.239148,-0.906473,0.620584,-0.232457,-0.713808,0.4016,-0.760168,-0.152913,0.071454,0.64577,-0.982442,-0.475328,0.705965,-0.969917,-0.865314,-0.169523,-0.65077,0.273691,-0.260641,0.064888,-1.10929,-0.00260088,-0.317418,0.298311,-0.507937,-0.119643,0.603094,0.114327,-0.304171,-0.64073,-1.03496,0.799959,0.00809431,-0.786477,-0.40942,-0.928881,-0.879857,-0.954929,0.0539827,0.349733,-0.577635,0.782377,0.04411,-0.347225,0.827777,-0.52166,-0.318073,-0.561411,0.725797,-0.993929,-0.975707,-0.512001,-0.37554,-0.805878,-0.836548,0.22703,0.786966,-0.52176,0.760167,-0.144005,-0.306843,-0.0572072,0.940779,0.312804,-0.356304,0.189239,0.67418,0.125205,-0.665773,-0.668619,0.5732,-0.240068,0.856548,-0.490856,-1.00752,-0.559191,-0.681487,0.752702,-0.583525,-0.319454,-0.43359,-0.322233,-1.07883,0.160728,-1.00736,-0.688624,0.617961,0.721203,-0.706989,-0.662837,0.028493,-0.627541,-0.899698,-0.644026,-0.477614,0.37109,-0.679357,-0.575131,-0.486907,0.464617,-0.142564,0.674964,0.288213,0.151044,0.470251,-0.334907,0.161182,0.412628,0.00823023,-0.887955,-0.796675,-0.820666,0.640913,0.18077,0.00270377,-0.424107,0.22917,-0.329657,-0.75948,-0.742764,-1.04098,0.514524,0.315673,-0.277891,0.32932,-0.116285,0.464738,-1.08016,0.657764,0.7735,-0.491704,-0.532877,-0.847197,0.74749,0.708162,-0.0973863,0.096805,0.610416,-0.202729,0.265801,0.772055,-0.155824,-0.348909,-0.538646,-0.607034,-0.839017,-0.35733,0.119025,0.378879,-0.529012,-0.697272,-0.716435,-0.809365,0.455233,-0.472015,-0.852859,-0.573875,0.715102,-0.754399,0.586707,0.556733,0.5542,-1.15909,-0.837823,0.859335,0.825565,-0.112457,-1.0039,0.544503,0.598085,0.330588,-0.588551,
0.661769,0.482937,0.118172,0.533926,-0.135132,-0.760399,0.713439,-0.595244,0.796659,-0.420684,0.671801,0.0552411,0.809947,0.0464089,0.904337,0.00736186,-0.0422586,0.337016,-0.031989,0.0452895,-0.578242,-0.987525,0.70552,-0.428965,0.486197,0.57538,0.857075,-1.08619,-0.429046,0.65285,0.160094,-0.899365,0.298421,-0.408127,-0.128433,-1.01231,0.731992,0.317508,-1.00347,-0.548581,0.0231437,-0.460367,-0.103816,-0.527368,-0.842597,-1.06766,-0.147196,-0.530845,-0.510394,0.384018,0.0616832,0.0666343,0.793944,-0.223471,-0.254582,-0.61776,0.562245,0.387691,0.355738,-0.943012,0.052718,0.505129,0.29955,-0.341514,-0.681778,-1.0204,-0.951554,-0.798851,0.545163,-0.0945518,0.786537,-0.361811,0.0335946,0.0264043,-1.04821,0.400912,0.239858,0.221702,0.0589749,0.642847,0.50323,0.693254,0.663562,-0.271757,-0.996127,0.450348,0.677001,0.949354,0.55802,-0.937648,0.0328036,0.69233,0.62,0.201872,0.396618,0.796269,0.452094,-0.286272,0.39613,-1.02375,0.39233,0.766892,0.825679,-0.841278,0.791368,0.0914116,-0.709486,0.033457,0.21421,0.279594,0.0589471,-0.081769,-0.95441,0.750989,0.201016,0.884381,-0.444226,0.0684745,0.0346861,-0.316737,-0.354361,0.371945,-1.04863,-0.617597,0.671782,-0.687323,-1.02288,-0.956233,0.583747,0.00815052,-0.0254174,-0.257548,-0.835745,0.897153,0.348307,0.36144,0.181899,-0.588965,0.643201,0.321102,0.234952,-0.391067,-0.685416,0.514289,0.661821,-0.933711,0.497006,-0.964082,-0.0452916,0.104464,0.538986,-0.713907,-0.436833,0.136664,0.468374,-0.112611,-0.213295,0.893078,-0.437373,-0.868881,-0.687097,-0.079711,0.0441131,0.00562734,0.466536,0.280536,0.715959,-0.94473,-0.0899881,-0.0851289,0.522044,0.528269,-0.809245,-0.994358,-0.407608,0.526564,-0.145868,0.379965,-0.190482,0.599391,-0.743081,0.681223,0.424374,-0.638825,0.08135,-0.207263,-0.113392,-0.555673,0.707344,0.515591,-0.0813974,0.530703,-0.919832,-0.364552,-0.551585,0.423108,0.449431,-0.296785,0.558468,0.813583,-0.254542,-0.992655,-0.110761,0.521858,0.0541951,-0.414134,-0.967642,0.240377,0.667263,-0.352758,-0.427945,-0.975978,0.405948,-0.811402,0.661302,0.45907,-0.624553,-0.159779,-0.817632,0.542142,0.643685,-0.260655,0.101693,-0.357525,-0.741941,0.628153,-0.72629,0.690356,-0.866418,0.287662,-0.53318,-0.916395,-0.855236,-0.130122,-0.243862,0.221626,0.518913,0.215173,-0.54553,0.624996,0.0056339,0.250983,0.649653,0.44471,-0.0233174,-0.848135,-0.267907,0.139993,0.141953,0.795513,-0.496074,-0.670381,0.591422,0.0731418,0.882099,-0.733708,0.870405,0.618586,0.479764,0.31978,0.244924,0.412504,0.339817,-0.173535,0.343479,-0.700397,-0.616709,-0.624427,0.464669,0.0671567,0.39198,-0.732942,0.135288,0.649292,-0.949547,0.0255324,-0.0536604,-0.0403775,0.711078,-0.346234,-0.723332,-0.058708,-0.862868,-0.835174,0.559226,0.860466,-0.442588,0.0975995,-0.584243,0.200212,0.519385,-0.728151,-0.164121,-0.215052,-0.763164,-0.103711,-0.0805873,0.25435,-0.0314115,0.421266,-0.00921446,-0.960533,-0.705424,-0.0859495,-1.03923,-0.952737,-0.704368,-0.0745303,-0.276122,0.155689,0.07732,-0.488832,0.109143,0.792698,0.951983,0.31684,-0.229951,-0.671176,-0.905004,0.390969,0.697199,-0.0878938,-0.143889,-0.473477,-0.575073,0.371651,0.714848,-0.472172,-0.957629,0.627086,-0.299378,-0.210064,-0.241858,0.372036,-1.01627,0.262796,0.824804,-0.428669,-0.749292,-0.913082,-0.674076,-0.725051,-0.846814,-0.486645,-0.657389,-0.831653,0.382605,-0.174922,0.730067,-0.145064,0.292212,-0.0506631,-0.349249,-0.0727823,0.39618,-0.904756,-0.032812,-0.957778,0.537003,-0.655653,0.765698,-0.678746,-0.388767,-0.789349,-0.636987,0.81345,0.0181858,0.800507,0.0893954,-0.215283,-0.948459,-0.71216,-1.0482,-0.451721,-0.67018,0.899583,0.302453,0.231633,-0.482538,0.474818,-0.587485,0.327596,-0.791833,-0.634535,-0.923887,-0.856512,0.453769,-0.257472,0.209843,-0.0667185,0.876644,0.674644,
-0.583014,-0.814163,0.47546,-0.620729,-0.0287098,0.0484488,-0.155795,0.864418,-0.741733,-0.165347,-0.689109,0.00514984,-0.414814,0.277367,0.800943,0.468524,-0.43942,0.348627,-1.00022,-0.86909,0.171508,0.160044,0.67973,0.075305,-0.13239,-0.835018,0.872409,-0.0591273,-0.206952,-0.760458,-0.900217,-0.785774,0.493592,-0.946878,-0.114002,0.112889,0.783589,-0.954208,-0.738294,-0.205105,0.770413,0.0404698,0.843886,0.783749,-0.893048,-0.145795,-0.859434,0.362105,0.586306,-0.622865,-0.982404,-0.608404,0.796787,-1.05337,0.151232,0.0704686,-0.401395,-0.901217,-0.0545152,-0.334928,0.973986,-0.208491,0.931192,-0.873361,-0.328013,-0.0471522,0.97018,0.411825,0.632792,0.0810264,0.838891,0.828938,0.0454328,-0.257182,0.674755,-0.357568,0.652443,-0.443916,-0.759763,-0.948113,0.939528,-0.374965,0.492197,-0.157936,0.431146,0.733646,-0.150083,0.7119,-0.796214,-0.862944,0.282221,-0.207699,-0.634057,0.761277,-0.687074,-0.756818,0.443193,-0.200772,0.427183,-0.852172,0.877831,-0.36748,0.874165,-0.25636,0.462265,0.451784,-0.537949,0.914457,0.167701,0.06123,0.343616,0.258071,0.962241,-0.668493,0.114091,0.968237,-0.901177,-1.00119,0.934004,-0.246639,-0.888083,0.0372594,-0.609301,-0.554852,-0.176916,0.367582,-1.02675,-0.77971,-0.762661,-0.795946,-0.861231,0.924964,0.133445,-0.894332,-0.673602,-0.114291,0.575661,0.26033,0.371296,-0.297982,0.332426,0.772903,0.820659,-0.0199208,0.912067,0.766245,0.603935,0.514466,-0.844118,0.717038,-0.560183,-0.205389,-0.158824,0.266558,0.213053,0.888321,-0.380127,0.175535,0.838311,0.571744,-0.707566,-0.0353914,-0.0565425,0.615168,0.535347,0.494155,0.966444,-0.524542,0.305027,0.496796,0.489227,-0.0248934,-0.585856,0.365035,0.962023,-0.254629,0.853407,-0.1183,-0.216601,-0.203849,-0.43068,-1.00768,-0.640326,-0.873095,-0.188396,-0.479128,-0.598535,-0.250022,0.0741089,0.794172,-0.609294,0.247898,0.127675,0.232278,-0.110415,0.150893,-0.0810053,-0.733437,0.861268,-0.270514,-0.312572,-0.423285,0.351732,0.497777,0.710487,-0.456196,0.0459382,-0.253794,-0.174674,-0.132618,-0.803638,-0.792845,0.958184,-0.183045,0.712875,0.474268,0.669884,-0.36046,-0.182526,-0.62732,-0.16089,-0.341785,-0.621402,-0.821847,-0.454563,-0.576793,0.604104,0.399051,-0.910383,0.181885,0.914785,0.258918,-0.426384,-0.896075,0.35677,0.873593,0.670536,0.0937449,0.120508,-0.950677,-0.980401,-0.903251,0.727206,0.0526233,0.414284,-0.672665,0.814464,-0.471989,-0.360538,0.086651,-0.378736,0.309485,-0.746073,0.548698,0.452314,-0.517544,-0.135236,0.341951,0.144052,0.50749,-0.593777,0.464682,-0.521946,0.745522,-0.639501,-0.867301,-0.216499,0.827162,-0.431442,-0.865539,-0.693947,-0.728568,0.098395,0.502805,-0.267434,-1.00773,0.127192,-1.03719,-0.789017,-0.686363,-0.521792,0.88668,0.656691,0.795599,0.72878,-0.0327225,0.919132,-0.0393028,0.24927,-0.593691,-0.875444,-0.254045,0.0453874,-0.263842,0.0407865,-0.0409778,-0.346508,-0.99056,0.789039,-1.00315,-0.033527,0.36097,-0.927725,0.0128469,-0.276908,-0.920394,-0.767543,0.259178,-0.297481,-0.841716,0.00647334,0.20663,-0.24163,-0.128032,0.187305,0.849734,0.797675,-0.0807876,-0.630922,-0.995646,-0.186002,-0.14393,-0.895126,0.738435,-0.551733,-0.265985,0.398248,-0.696368,-0.0734661,0.264001,-0.584659,-1.01278,0.186156,0.414534,-0.694769,0.488028,0.410902,-0.261337,-0.458056,0.0537725,-0.700236,-0.493561,-0.763154,-0.557033,0.823351,-0.484714,-0.938514,-0.543009,0.975815,-0.2863,-0.349413,0.42825,-0.982263,-0.77043,-0.487446,0.669038,-0.0384435,-0.816545,0.0830751,0.38916,0.779612,0.414481,0.24938,0.485752,0.125296,-0.407465,-1.05839,-0.372241,-0.497199,-0.907905,0.127947,0.230855,0.0846349,-0.769347,-0.185156,-0.75637,0.485942,-0.639913,-0.291186,-0.594364,-0.471471,-0.788271,-0.0949702,-0.447874,-0.746964,-0.827877,0.833988,0.50707,-0.341112,-0.549224,0.339836,-0.407227,
0.806383,-0.211932,-0.180916,-0.843488,-0.542272,-0.0692194,0.353006,0.329985,-0.586655,-0.886649,0.709346,0.395813,-0.678905,-0.451184,-0.629433,0.717807,0.405182,0.808419,-0.311816,-0.865305,-0.075052,-0.671113,-0.106084,-0.499789,0.8328,0.757595,-0.455513,-0.822974,0.904374,0.838583,-0.100576,-0.571039,0.0269238,-0.302024,0.626213,-0.493277,-0.00948039,-0.601558,-0.706479,0.294645,-0.327414,0.404447,-0.765548,0.876216,0.708373,0.328547,0.25849,0.0574637,0.590955,-0.55037,0.143509,0.307164,-0.152366,-0.875933,0.169558,-0.170529,0.823923,0.443076,-0.269094,0.393732,0.975959,-0.89721,0.614628,-0.694415,-0.854804,0.0876186,-1.02533,-0.893287,0.929046,-0.323178,-0.516735,-0.0399043,-0.536119,-0.819136,0.509029,-0.264071,-0.312192,-0.584516,0.180445,0.0251165,-0.961791,-0.0146758,-0.044845,0.848098,0.854933,0.450916,0.14208,0.411988,-0.922631,-0.665356,-0.531549,-0.853196,-1.00056,-0.0459658,-0.219612,0.928652,-0.327042,-1.0138,0.238706,0.748906,-0.781991,-0.184975,0.888493,-1.01774,-0.723429,0.541017,-0.446819,0.654948,0.32187,0.41975,0.410545,-0.550053,0.837752,0.839429,0.0719811,0.246292,-0.2479,-0.702395,-0.690862,0.560492,0.135767,0.714363,-0.854852,-0.216819,0.0257806,-0.437549,0.520981,0.210282,0.667251,0.337715,0.658492,-1.02515,-0.337581,-0.419986,-1.10685,0.516441,0.698791,-0.0619389,0.299937,-0.238767,0.890536,-0.517416,-0.291944,-0.789572,-0.25563,0.189347,-0.828373,-0.45587,0.174928,-0.0512795,0.356025,0.52033,-0.386509,-0.776546,-0.554593,0.43425,-0.289262,-1.03604,-0.327585,-0.192076,0.551163,0.579417,-0.131912,-1.14605,-0.402311,-0.802469,0.278069,-0.853856,0.769549,0.186165,0.393619,0.0526451,0.624411,-0.114973,-0.729605,-0.0401089,0.872285,-0.774002,-0.117108,0.319025,0.930054,0.761445,0.0838956,-0.574894,-0.557705,-0.982571,-0.156044,-0.827432,-0.91185,-0.189763,-0.896742,-0.67691,0.810616,0.50412,-0.396084,0.516888,-0.179629,0.88486,0.349338,0.797177,-0.442692,-0.469011,-0.121365,-0.381153,0.447711,-0.37392,-0.998788,0.056809,-0.333943,-0.987168,0.397896,-0.885419,0.709249,-0.761723,0.606495,-0.101853,-0.70472,-0.645215,0.536469,0.711401,0.593805,0.887026,-0.229368,-0.896095,0.821391,-0.375349,0.745662,0.771829,-0.606222,-0.098443,-0.305446,0.888385,0.0856479,0.626742,-0.23562,-0.901887,-0.393739,0.291637,0.77126,0.409841,0.224607,0.733181,0.667851,0.267286,-1.03117,-1.05436,-0.392855,-0.449359,0.421741,-0.682366,-1.00562,-0.931172,0.382382,-0.714164,-0.41848,0.653748,-0.591474,-0.503499,0.238401,0.208772,-1.03459,-0.515696,0.180014,-0.730579,0.373753,-0.860456,-0.698123,-0.284886,-0.432837,0.344822,0.559814,-0.624934,-0.120592,-0.610619,-0.971544,-0.873461,0.306617,-0.0812705,-1.10504,0.322421,0.515831,0.481667,-0.98873,0.612957,0.381152,0.115599,-0.225428,-0.0568209,-0.407473,0.299141,0.921569,-0.433528,-0.118743,0.26741,-0.626846,-0.266605,0.606835,0.84807,0.332301,-0.349234,-0.846557,0.106426,0.707515,0.153081,0.292879,-0.674888,-0.321246,0.378086,-1.04437,-0.229985,0.190684,0.202002,-0.56597,0.00115906,-0.434096,0.0668932,-0.520976,0.572093,-1.09212,-0.0807581,0.606838,0.303886,-0.816687,-0.835475,-0.0932403,0.852352,-0.156649,-0.759327,-0.597822,-0.153361,0.454324,0.314559,0.545838,-0.890356,0.813676,0.235323,0.614034,0.313629,-0.841514,0.588023,0.696428,-0.651069,0.670886,0.715488,0.482607,0.909659,-0.914145,0.331017,-0.730185,0.312433,-0.789435,-1.06916,0.557714,0.0747225,-0.755527,0.28323,0.795874,0.789104,-0.638581,-0.657571,0.235358,-0.151811,-0.197991,-0.307731,-0.341342,-0.13739,-0.985041,-0.31419,-0.0716129,-0.0777858,0.840547,-0.760208,-0.371275,0.356453,0.37155,-0.98154,-0.0273509,-0.0621482,0.0134654,0.29491,0.0929841,-0.773456,0.605499,-0.915982,-0.581581,0.812359,-0.464286,0.623321,-0.0643266,0.396767,0.783806,0.259458,
-0.676644,-0.756959,-0.638978,0.965533,-0.871163,-0.109574,-0.459554,-0.823206,0.326369,-0.916991,-0.390159,-0.146485,-0.488058,0.129004,0.913964,0.325522,-0.271648,-0.993457,0.65296,0.439895,0.701818,0.528978,-0.432635,-0.203684,-0.515654,-0.192664,0.117393,0.297416,-0.181099,0.462571,0.215507,-0.494207,-0.392311,0.801743,-0.829453,0.781731,0.244679,0.126613,-0.794632,0.537408,-0.171167,0.329822,0.686208,-0.490863,-0.883356,-0.160307,-0.467538,-0.0498576,-1.00038,-1.00788,0.221883,-0.112945,0.277976,-0.537894,-0.582169,0.214879,-0.34526,0.500032,0.506584,0.835593,0.225114,0.436294,-1.11255,-0.447619,0.31236,0.320098,-0.555758,-0.577617,-0.212531,-0.149834,-0.202395,-0.955447,0.224132,-0.383205,-0.157053,-0.674443,-0.846638,-0.615182,-0.643232,-0.246508,0.285123,0.88117,0.467953,0.0339974,-0.308206,0.054986,-0.176057,0.524562,-0.558138,0.630297,-0.250803,0.635877,-0.00774616,-1.00747,-0.279256,0.419175,0.401941,-0.0785501,-0.395927,0.605216,0.412602,0.703492,0.755069,0.685459,0.376182,0.594557,0.129302,0.625994,0.0533376,0.445451,0.692177,-0.853392,-0.178058,0.368643,0.282947,-0.162499,0.41482,0.451806,-0.438581,0.652981,-0.483103,-0.924662,0.716858,0.711894,-0.755585,0.0118293,-1.04811,-0.8479,0.269652,0.897821,0.497329,-1.05866,-0.88121,-0.893083,-1.06712,0.371551,0.013139,-0.659639,0.30911,-0.619511,0.949078,0.22499,0.0764625,-1.03772,0.511538,0.524143,-0.450446,-0.323641,-0.13674,-0.491432,-0.801057,0.484872,0.506642,-0.695549,-0.0250603,0.734815,0.81805,0.540736,-0.864687,-0.875194,-0.865992,-1.02157,-0.61354,0.661317,-0.220971,0.39824,0.068633,-0.344837,0.347085,-0.347344,0.790862,-0.351224,0.806842,-0.911745,-0.652781,-0.92587,-0.217481,-0.828609,-0.708311,-0.910073,0.553332,0.686919,-1.01063,-0.446456,0.477619,-0.968897,-0.296571,0.145815,-0.658313,-0.654212,-0.156808,0.852196,-0.964842,-0.245742,-0.425837,0.649694,-0.64446,0.104752,-0.887886,0.917057,-0.27158,0.824946,-1.01539,-1.02741,0.125586,0.609985,0.613094,0.023068,-0.401093,-0.120437,0.777966,-0.653687,0.667411,0.824149,-0.53913,0.308863,0.306934,-0.861284,-0.262762,-0.950471,-0.899984,0.611192,-0.42011,-1.11908,-0.240114,0.488765,-0.818616,0.518376,0.532379,-0.40417,-0.209909,0.349805,-0.765551,0.0883309,0.715203,-0.902014,0.280549,-1.0187,-1.0143,-0.808222,-0.656615,0.640509,0.637987,0.800483,-0.689879,0.934271,0.5781,0.365347,-0.79102,-0.869845,-1.07428,0.892315,0.292264,0.861987,-0.982284,-0.120522,-0.408754,-0.558349,-0.315629,-0.0197078,0.118727,0.204518,0.287982,0.859561,0.920834,0.961192,-0.659326,-0.847176,-0.316279,-0.32043,0.860148,-0.784718,-1.17704,0.677629,-0.0244879,0.853516,-0.681402,0.255982,-0.739103,0.783971,-0.39576,-0.559255,-0.807778,-0.0707316,-0.727928,-0.313971,0.181505,-0.529287,-0.128316,0.112564,-0.182804,-0.936193,0.589793,0.478538,-0.710254,0.0686741,-0.89168,-0.749529,0.739139,-0.312195,-1.08698,0.849527,-0.664152,0.218828,-0.146467,0.819297,-0.683579,-0.155288,0.231148,-0.599947,-0.814094,-1.04254,-0.826893,-0.214254,-0.408394,0.707717,-0.391595,-0.30629,-0.862069,0.162735,-0.0655612,0.481732,0.720613,-0.492343,0.853218,0.748803,-0.433918,-0.655332,-0.0548076,0.100013,0.443943,0.337487,-0.668145,0.935786,-0.972057,-0.947378,-0.162146,-0.239151,0.0924774,-0.598444,-0.825474,0.279122,-0.107074,-0.284873,-0.730683,-0.0923326,-0.961835,-0.188041,-0.527229,0.339863,-0.983763,0.111218,0.33038,0.79055,0.902601,0.167645,-0.309242,-0.442602,-1.13138,-0.55189,0.511365,0.916761,-0.468118,-0.17882,-0.0746611,0.652979,-0.409864,0.0840818,-0.410815,-0.743504,0.245695,0.402124,0.531174,-0.359706,0.0112983,-0.101994,-1.04935,0.0460157,0.34538,-0.623384,-0.692301,-0.266534,-0.829544,0.312114,-0.767399,-0.10856,0.94491,0.299212,0.232286,-0.298354,-1.06332,0.472205,
0.5998,0.50779,0.671852,0.753125,-0.600533,0.889587,0.815732,-0.31807,-0.980403,0.115287,-0.880307,0.507409,-0.482839,-0.687803,-0.418527,-0.135334,0.331002,-0.675858,0.565002,-0.0959947,0.212038,-0.376874,0.312002,0.336707,-1.08143,-0.564698,0.819891,0.554475,0.777396,-0.924168,0.0830982,-0.177298,-0.586663,-0.933355,0.104214,-0.554094,0.559809,-0.417758,0.197189,-1.03311,0.438169,0.332903,-0.427589,-0.686404,0.322733,-1.0836,-0.371641,-0.665215,-0.624749,0.616564,-0.535146,-0.0956996,-0.942247,-0.956467,0.857877,-0.468627,-1.08279,-0.412777,0.891637,-0.634172,-0.141637,-0.716227,0.0432637,-1.10237,0.773371,-0.486075,-0.410507,-1.00789,-0.314073,0.101723,-0.994115,0.390087,-0.515271,-0.599196,-0.364059,0.490719,-0.711865,-0.898124,0.367496,-0.380429,0.56092,-0.439193,-0.92938,-0.386896,0.473049,-0.780228,-0.234347,-0.431967,-0.172188,0.0935212,-0.361832,-0.696189,-0.228087,-0.578477,-0.024505,0.310696,-0.312457,-0.265222,-0.114269,0.449334,0.686229,0.510457,0.855377,-1.08065,-0.700828,-0.577968,-0.948659,-0.357721,0.836423,-0.690911,-0.82041,0.88679,-0.203386,-0.511387,0.823116,-0.861996,-0.441702,-0.442498,-0.235122,-0.64686,0.662458,0.454514,-0.936278,0.431282,0.528866,0.603338,0.68655,0.429354,-0.125946,-0.257939,0.263492,-0.566304,0.855338,-0.239401,-0.319609,0.747914,-0.790212,-1.0982,0.795642,0.818244,0.182277,-0.48569,0.273839,0.191005,0.0226529,-0.362176,0.634991,0.190637,0.378866,-0.312251,-0.802306,-0.397047,-1.02893,0.647385,0.101882,0.101787,0.828299,0.211272,-0.579494,0.258275,0.2189,-0.222004,0.342791,-0.234339,-0.477692,-0.797303,-0.321686,-0.954833,0.172966,0.709753,-0.613337,-0.467551,0.433137,-0.134103,-0.0246752,0.312227,-0.512513,-0.451871,0.246591,-0.703284,-0.983704,0.730766,0.615861,-0.203959,0.333638,-1.07912,-0.765568,0.711291,0.580119,0.638365,0.495668,-0.78719,-0.926456,0.53362,-0.235683,0.241711,0.248514,0.586077,-0.283113,0.697963,-1.19024,0.504364,-0.171498,0.959842,-0.470651,-0.562463,-0.682067,-0.0790371,-0.621382,-0.854608,0.838583,-0.340192,-1.00003,-0.636319,-0.712747,0.742204,0.64216,-0.698921,0.719121,-1.03329,0.684978,-0.908958,0.198769,-0.815574,0.656898,-0.7645,0.243518,-0.237908,0.161382,0.779688,0.0996046,0.448807,0.515144,0.790364,0.777306,-0.375428,0.789838,0.501668,0.366927,0.72787,-0.115531,-0.704822,-1.02595,-0.174761,-0.216457,0.22422,-1.25997,-0.671612,0.140306,-0.509569,-0.0658649,-0.427971,0.602386,-0.616959,-0.671494,-1.09764,-0.796639,-0.808655,0.850063,0.490338,-0.798418,-0.730723,0.315254,0.599724,-0.0717301,-0.930251,0.368529,0.382804,-0.0245223,-1.15356,0.67754,0.293677,-0.595674,0.606381,0.76684,0.866556,-0.250901,-0.800549,0.484024,0.632097,-0.725382,0.617776,-0.270995,0.776942,-0.0841189,0.286809,0.3763,-0.495897,-1.04317,0.544337,0.447728,0.311182,-0.598123,0.380967,-0.243739,0.658921,0.573856,0.412495,-0.271529,0.455627,-0.45244,-0.839077,0.441982,-0.814452,0.0442252,0.589088,-0.47989,-0.273335,-0.961283,0.580859,-0.778372,-1.09569,0.723919,0.652789,0.753068,0.484611,0.260746,0.0647728,-1.05633,0.185525,0.553923,-0.0856207,-0.453389,-0.586576,-0.493265,-0.284349,-0.042297,0.438079,-0.212524,-0.271392,0.864,-0.0985704,0.197918,-0.10367,-0.544316,0.0954401,0.639242,0.523246,-0.637519,-0.947585,0.0152397,-0.0748343,-0.635727,0.764237,-0.139969,0.104675,-0.675728,0.495841,0.791214,0.324512,0.151991,-0.110881,0.694533,0.661132,0.44847,-0.126806,0.315238,0.11923,0.193905,-0.913779,-1.06068,0.609761,0.13129,0.551827,-0.363151,0.284854,-0.931206,0.493084,0.472462,0.661639,-0.587121,0.821323,0.322813,-0.694448,0.539838,-0.518445,0.646518,0.722722,-0.0173355,-0.644424,-0.201961,-0.926144,0.0559915,-0.304529,-0.71487,-0.333066,-0.214252,0.818803,0.875863,-0.24823,-0.124968,0.118224,
-0.741534,0.228216,-0.329878,0.309511,0.623471,0.670637,0.849036,0.743435,-0.832408,-0.663554,-0.993667,-0.110196,-0.681053,0.0275909,0.671755,0.203579,-0.345292,0.842155,-0.727657,-0.695568,-0.395268,0.578798,-0.612346,0.909627,-0.205842,-0.0397502,-0.684002,-0.233838,0.186041,-0.720144,-1.07606,0.158902,0.043814,-0.943024,0.224528,-0.935189,-0.435113,0.855283,-0.841983,0.708221,0.592388,-0.834511,0.512901,0.28345,-0.725099,0.631274,0.159183,0.571863,0.486266,-0.691613,-0.531906,-0.629461,-0.209256,0.744828,-0.813134,0.841117,-0.535272,0.318594,-0.340296,-0.262044,0.0783708,-0.14972,-0.0389378,0.241866,0.594102,-0.568175,0.557566,0.653503,0.60804,0.144147,-0.620888,0.0768693,-0.674554,-0.850082,-0.303806,-0.828329,0.188004,-1.02596,0.118522,0.408814,-0.0385736,0.176637,0.125743,0.698141,0.585041,0.447446,0.958051,0.105711,-0.852828,-1.04575,-0.87292,0.804739,-0.255763,0.504572,0.689743,-0.900201,0.810391,0.479452,0.635053,-0.46292,-0.953597,-0.658377,-0.107286,-0.928327,-0.964919,-0.446035,0.338499,0.221807,0.174406,0.27424,0.112363,-1.01296,-0.819693,0.189907,0.264206,-0.915546,0.775752,0.159929,0.574225,0.752002,0.696862,-0.629953,0.21268,-0.0840024,-0.643198,-0.766947,-0.813137,0.545184,-0.846627,0.779847,0.269085,-0.996386,-0.298849,-0.193356,0.927456,0.452542,0.772504,-0.17959,0.302648,0.489566,0.0537251,0.376165,-0.843972,-0.100008,-0.838554,0.515846,0.394597,0.68192,0.949025,-0.589444,0.134431,-0.551138,0.862625,-0.615502,-0.879852,-0.482122,0.35754,-0.487318,0.538638,0.67588,0.954706,0.22762,0.218898,0.541278,0.386927,-0.0588864,-0.472379,-0.19984,-0.800164,-0.0221416,-0.967142,-0.205867,0.095751,0.447747,0.974586,-0.199572,0.404405,-0.698132,0.685683,0.311481,0.277564,-0.0385294,-0.528639,-0.629877,-0.324964,-0.27939,-0.681401,0.951762,0.107061,0.623419,0.407572,0.915495,-0.274758,-0.922785,-0.80069,-0.527746,-0.449975,0.363155,-0.083779,0.624344,-0.79951,-0.208865,0.832012,-0.44612,0.0836157,-0.66213,-0.751741,0.502243,-0.123257,-0.843441,0.120902,-0.380879,0.56383,0.142742,0.483021,-0.0352837,-0.847105,-0.721662,0.91663,-0.487963,0.280855,-0.712529,0.263131,-0.966687,-0.778041,-1.0302,-0.969328,-0.898449,-0.665094,-0.967385,-0.324853,0.728272,-0.868136,0.855468,-0.0434522,-0.0495546,0.919088,0.369147,-0.516998,0.733879,-0.856984,-0.806774,-0.448874,-0.646035,0.738929,0.601911,0.426608,0.476279,-0.915141,0.17344,0.896408,-0.834592,-0.706436,-0.0175235,-0.941454,0.855561,-1.02178,0.0552736,-0.0680413,-0.101638,-0.961168,-0.802451,-0.26285,-0.467607,0.747254,0.241995,0.305809,0.66468,0.55024,-0.0922369,-0.900396,0.90985,-0.167062,-0.706219,-0.972947,-0.284515,-0.297907,-0.938891,-0.449893,0.815506,0.70051,0.561397,0.426821,0.837762,0.696403,0.757789,-0.612746,-0.277702,-0.984199,0.804975,0.891299,0.58138,0.739852,-0.682422,0.962204,0.815971,0.572226,0.882376,0.653867,-0.968515,-0.987977,0.0504659,0.462499,-1.01006,-0.119772,0.789278,0.214885,0.467829,-0.6762,-0.0753576,0.802267,-0.73535,0.82475,-0.914882,-0.322633,-0.130856,-0.391118,0.748932,-0.474805,-0.422156,-0.324526,0.654174,-0.12638,-0.894068,-0.822434,-0.75458,-0.371879,0.668798,0.457755,0.776175,-0.64291,-0.476339,-0.792573,-0.601295,-0.226342,-0.877053,0.758705,0.334137,-0.437595,-0.681942,-0.362027,0.856962,-0.366129,0.800287,0.328601,-0.186559,0.869564,-0.130986,-0.087333,-0.226539,-0.399767,-0.272451,-0.717957,-0.197064,0.11875,-0.449544,0.029953,-0.756513,-0.524447,0.247701,0.089041,-1.01327,0.350583,-0.781477,-1.05756,0.796707,-0.29817,0.00203758,0.940799,-0.143486,-1.03215,0.945972,0.437906,-0.774196,-1.05064,-0.831344,0.33198,-0.556537,0.619057,-0.252262,0.547105,-0.675495,-1.043,-0.741656,0.744357,-0.164922,0.652214,-0.26376,-0.67405,-0.504748,0.443004,-0.791447,
0.745818,0.762809,0.424499,0.352337,0.0872354,0.759187,0.424691,0.459154,0.324454,0.740515,-0.33526,0.821683,-0.474371,0.302447,-0.575779,-0.63421,0.677997,0.426852,0.253796,0.3578,0.581139,0.0499408,0.177101,0.675673,-0.526443,-0.750774,0.688847,0.537258,0.0558502,0.441782,0.464457,0.275514,0.130508,-0.398776,0.834189,-1.03104,-1.15111,0.187617,0.427358,-0.675438,-1.26667,-0.326464,0.42975,0.0946919,0.267829,0.29218,0.628533,-0.377916,-0.535535,0.0715325,-0.667359,-0.414895,0.251197,-0.0110784,0.372853,-1.25716,-0.00373709,-0.792453,-0.726246,-0.559805,-0.617297,-0.330086,-0.22938,-0.496402,-0.0802023,-0.0261852,0.815332,-0.801873,-0.748897,0.552312,0.677571,0.352214,-0.449242,-0.45359,0.235429,0.238868,-0.90732,-0.824527,0.533466,0.00691488,-0.243116,0.333711,-0.907811,0.369509,0.685203,0.523741,0.748646,0.61334,-0.323526,0.475183,0.080359,-1.03278,-0.0844266,0.265357,-0.652735,-0.711601,0.470364,0.323016,0.758076,-0.796265,-0.214457,-0.361969,-0.210981,0.0644904,-0.955704,0.668308,0.34571,-0.166171,0.125432,-0.478239,-0.391633,0.815818,-0.819074,-0.318526,-0.798362,-0.974227,-0.0815555,0.251143,0.578911,-0.702278,0.156607,0.384313,-1.23201,0.0885375,-0.399439,-0.352865,0.51387,-0.943912,0.0877898,-0.979792,-0.966076,0.169815,0.333624,0.544006,-0.496989,-0.0260338,0.831567,-0.913852,-0.917709,-0.357309,-0.706457,0.784901,-0.54964,-0.0663001,0.0611828,0.698934,0.226956,0.855845,-0.331507,-0.50915,-0.785748,0.364542,-0.428142,-0.684748,0.179549,-0.0615835,-0.413608,0.810635,-0.444345,0.25588,-0.874856,-0.561364,0.386977,-0.118577,0.0241781,-1.31654,-0.905863,-0.313331,0.596893,0.207918,0.614477,0.29375,0.384737,0.918088,0.342936,-1.10731,0.0423429,-0.385115,-0.717138,0.741108,0.609121,0.70692,-0.182498,0.392031,0.713264,0.407906,-0.895248,0.111156,-0.138527,0.476013,-0.789166,0.29756,0.92255,0.014469,0.360818,-1.15441,0.0868296,-0.793209,-0.745458,-0.967465,0.378865,0.389739,-1.05562,0.322633,0.214554,-0.998482,0.545332,-0.289843,-0.944336,-0.662432,-0.869252,-0.168343,-0.498228,-0.711824,0.200481,0.104719,0.31712,-1.02785,0.0373959,-0.514647,-0.751654,-0.761813,-0.736736,0.455273,-0.0594364,-0.916681,0.518735,0.173726,0.121977,0.307033,-0.0295765,0.440497,0.645648,0.331747,0.607292,-1.0194,0.404564,0.3913,-1.01598,-1.00287,0.141955,-0.489551,-0.186785,-0.711324,0.0252572,0.806,-0.661162,0.437389,0.466251,-0.403648,-0.047216,-0.906456,0.624124,-0.611851,0.0948119,-0.250671,-0.378363,-0.991392,-1.03468,0.669896,0.824917,-0.425647,-0.991499,0.166153,-0.137193,-0.0447687,-0.419257,0.62659,0.756787,-0.900993,-0.953183,0.0898857,-0.897488,0.3543,-0.773631,0.39965,0.524352,-0.283441,0.372673,-0.845798,-0.416908,0.716411,-0.141755,-0.518327,-0.410731,-0.367355,-0.898974,-0.129773,-0.353831,-0.326592,-0.373457,-0.764011,-1.01803,0.0221644,0.54528,0.076043,-1.13077,0.817867,-0.465127,-0.327787,-0.170904,-0.610955,0.00849405,-0.336233,-0.383102,0.768576,0.340721,-0.201987,-1.02592,0.0941514,-0.578592,-0.658152,-0.562782,0.63338,-1.05548,0.555396,-0.485886,-0.790447,0.214732,0.512854,0.0199385,-0.968935,-0.480682,-0.952786,0.262327,0.619424,-0.177964,-0.269201,-1.02659,-0.286675,-0.780878,0.724147,-0.211113,-0.470355,-1.00253,-0.536274,-0.231733,0.076527,0.42763,0.2642,0.589562,0.415542,0.0518227,-0.428892,0.251124,-0.326124,0.53837,-0.872676,0.0600038,0.676033,-0.833471,-1.16784,0.179171,-0.707184,0.649882,0.313816,-0.402308,0.447351,0.344962,-0.525896,-0.395956,-1.07052,0.747911,-0.910481,-0.717637,-0.225713,-0.214118,-0.297662,0.224207,-0.825642,0.699499,-0.843759,-0.0580673,0.473821,-1.02181,-0.0642829,-1.22495,-0.17211,-0.839676,0.764639,-0.851427,-1.16845,0.609242,-0.0698148,0.0698852,-1.01255,-0.207083,0.815368,-0.39674,0.293574,0.166357,-0.607155,
0.706793,0.505934,-0.29154,0.466669,0.318323,-0.1677,-0.921778,0.154747,-1.01989,0.022109,-0.895757,-0.89817,0.847014,-0.633011,-0.83264,-0.324553,-0.289262,-0.201953,0.474917,0.283135,0.235756,-0.217594,-0.981336,-0.531857,0.0623174,0.823358,-0.029704,-0.0745828,-0.889289,-0.0393192,0.485558,-0.642696,0.543629,-0.412962,-0.247034,0.173247,-0.716158,-0.713798,0.577333,0.465034,0.140811,-1.03394,-0.81018,-0.703386,0.676179,-0.370996,-0.842537,0.782441,0.0443827,-0.14511,0.909133,0.284649,0.00784552,-0.45961,0.818115,0.132379,0.870335,0.957528,-0.496897,-0.991951,0.538737,-0.404982,-0.688351,0.384768,0.0794839,-0.0722523,-0.0982423,-1.04329,-0.393096,0.248319,0.459856,0.150019,-0.53655,-0.244302,-0.777211,-0.584501,-0.658783,0.435013,-0.502349,-0.135924,0.266059,-0.37617,-0.362975,-0.771371,0.343132,-0.509317,-0.4804,0.109393,0.859669,-0.397867,0.579455,0.70116,0.312996,-0.194635,-0.492972,-0.797407,0.165796,-0.714996,0.630032,0.0927402,0.46996,-0.154105,-0.316882,-0.170414,-0.491988,0.348502,0.180767,-0.821944,-0.556751,-0.72285,-0.210587,0.33195,-0.997916,0.804145,-0.492259,0.941369,0.708334,-0.339522,-0.106378,0.647166,-0.396049,-0.741786,0.133279,-0.31612,-0.942053,-0.260704,-0.58948,-0.581521,-0.765549,0.152652,-0.564801,0.876326,-0.546487,-0.89758,-0.836687,0.420636,-0.64949,0.645682,-0.854395,0.326062,-0.516535,-0.458291,0.269798,-0.852455,-0.556874,-0.33368,0.0610762,0.605484,0.454313,-0.958175,0.366152,-0.387133,-0.970716,-0.389323,0.73509,0.946058,-0.0878592,0.743135,0.954116,-0.701361,-0.59557,-0.810495,0.714384,0.248677,-0.317267,0.422683,-0.393371,0.569316,0.243741,0.723998,-0.690201,0.865262,-0.166644,-1.01198,0.405786,0.273489,-0.227692,0.0465914,0.360636,-0.380966,0.261055,-1.01633,-0.320533,0.475112,-0.140384,-1.07582,0.550013,0.641625,-0.763422,-0.766224,-0.543298,-0.143822,-0.529234,0.130552,-0.161064,0.379199,-1.05369,0.382378,0.191497,0.214053,-0.687752,0.0305535,0.788872,0.340689,-0.473647,-1.03943,-0.855743,-0.930655,0.823286,-0.301973,0.32642,-0.841532,-0.325695,-0.278798,-0.704871,0.315336,0.741667,-0.185753,0.860488,0.573768,0.119071,-1.0089,-0.0767278,-0.801016,-0.220288,-0.762343,-0.741702,-0.679513,-0.701515,-0.580604,0.773937,0.0641701,0.772017,0.531747,0.196896,0.940313,-0.0773082,-0.383641,-0.0984745,-0.296149,0.267992,-0.754183,0.0169081,0.0443194,-0.456814,0.291603,-0.728018,0.603113,-0.985229,-0.869633,-0.174899,-0.202054,0.222492,0.428992,-0.300887,0.119923,0.201161,-0.372706,0.220524,0.830595,-0.193028,-0.404226,0.247364,0.222958,-0.396506,0.727339,-0.0591804,0.849629,-0.523679,0.472475,-0.620413,-0.603584,-0.369366,-0.812701,0.0323693,-0.85021,0.565505,0.537217,0.821493,0.481804,0.0725808,-0.751561,-0.501728,0.130653,0.88876,0.0641672,-0.282659,-0.869521,0.504782,0.114773,-0.839149,-0.313052,0.379953,0.564852,0.276612,-1.05741,-0.359356,0.808732,-0.69615,-0.543432,0.748022,0.136543,0.66179,-0.349497,0.600814,-0.673114,-0.418973,-0.226506,0.816516,0.797443,-0.0658495,-0.762913,0.0964967,0.930667,-0.647109,-0.74069,0.458305,0.310414,0.582801,0.456073,0.190132,0.0105695,0.3543,-0.84452,0.788652,-0.988411,0.802108,0.947577,0.564209,-0.621097,0.556499,0.357168,-0.569843,-0.795934,0.756701,0.845261,-0.142025,0.753865,0.258791,-0.501772,0.783034,-0.537831,-0.606647,0.623409,-1.04312,0.505789,-0.876454,-0.91929,-0.799685,0.832739,0.760905,0.518182,-0.318913,-0.0217865,0.0176915,0.904729,-0.234502,0.170901,0.489565,-0.311163,0.399165,0.910537,-0.599185,0.581781,0.704433,-1.05656,0.562288,-0.710862,0.572405,0.227956,-0.279806,-0.557696,-0.410397,0.603367,-0.217621,0.0672643,0.346527,-0.984865,0.116853,0.926358,0.972415,-0.55753,-0.584902,-0.162409,0.921098,0.738864,-0.390791,-0.109661,-0.737843,0.617564,-0.254939,-0.230913,
0.497583,0.0138053,-0.401204,-0.13853,-0.131208,-0.553414,0.547595,-0.733731,-1.05857,0.299474,0.637095,-0.65241,-0.693561,-0.795972,-0.694992,0.238118,-0.881134,0.0366719,-0.463837,-0.482755,0.771671,0.872268,0.0288241,0.538439,-0.632132,0.375514,0.475794,-0.0499301,0.3857,-0.237857,-0.828189,-0.416459,0.0226372,-0.544323,-0.824714,-0.481007,0.386302,-0.422435,-0.0321841,-0.603466,-0.530478,-0.357593,0.16609,-0.36489,-0.511914,-0.453901,-0.307498,-0.159421,0.319171,0.643061,0.368182,0.580802,0.0728985,-0.348868,0.418648,-1.13009,-0.00264897,0.111865,-0.742895,-1.06231,-0.968607,-0.634427,0.0347254,0.337471,-0.729373,-1.19154,-0.761347,0.19385,0.686413,-0.163406,0.302077,0.64861,0.142228,-0.342851,-0.478803,0.426201,0.69907,-0.072866,0.213681,0.288258,-1.08857,-0.108808,-0.225501,0.480314,0.582515,-0.107568,-0.618641,-0.486303,0.0130527,-0.187851,-0.281844,0.188209,0.368236,-0.516187,-1.03802,-0.370568,0.742411,-0.667307,-0.897096,-0.139517,-0.842545,0.0456495,-0.748327,0.44507,-0.294234,-0.708643,-0.502691,0.690285,-0.830734,0.253811,0.296222,0.439955,0.803229,0.293332,0.772683,-0.368202,0.175982,0.314933,-0.421706,-0.992023,-0.139609,-0.511165,0.660678,-0.62041,0.732233,-0.433795,-0.253271,0.553653,0.180915,0.222573,0.155207,-0.461886,-0.0879363,-0.0919947,0.132595,0.606609,-0.479058,-0.807016,-0.808165,0.437645,-0.819365,-0.424577,0.0976364,-0.908064,0.733748,-0.514296,0.573834,-0.924453,0.277177,0.580955,-0.343322,0.409055,-0.992998,-0.237053,-0.593313,-0.804571,0.267522,-0.0539815,-0.0716691,-0.707682,0.657767,-0.930572,-0.0676046,-0.0178503,-0.367911,0.319307,0.806718,0.136677,0.396297,0.380299,0.677775,-0.45781,-0.786358,0.396092,0.559372,0.780423,0.7079,-0.253183,-0.125424,-0.31563,-0.557158,0.671648,0.099998,-1.01788,0.754528,-0.314437,0.806554,0.0185612,-0.970163,-0.392589,-0.310174,0.556818,-0.706593,0.467101,-0.747292,-1.00248,-0.200352,0.155944,-0.69643,-0.420157,-0.898914,-1.02492,-0.0960089,-0.846125,-0.580084,-0.320314,0.481957,0.319638,0.447386,0.579119,0.46042,0.837614,-0.35752,-1.04701,0.908871,-0.143121,0.353505,-0.470068,-0.738212,-0.151732,0.103701,-0.534087,-0.496047,-0.356303,0.280069,0.695247,-0.526456,0.174881,0.346408,-0.362637,0.44812,-0.0135692,0.590657,0.00621798,0.346202,-0.0259599,0.349368,0.128537,-0.67945,0.347634,-0.437937,0.167541,-0.39758,0.0805829,0.464936,0.668706,0.676161,0.577492,-0.497579,0.25495,0.484414,0.00700095,-0.407349,-0.0516792,-0.886991,0.313469,-1.05602,0.446734,0.457204,-0.565847,0.64388,-0.879723,0.407153,0.120227,-1.02874,0.108781,-0.443596,0.510125,0.744721,-0.260444,-0.583932,0.433093,-0.508666,0.567526,0.557063,0.558455,-0.699166,-0.429284,-1.0119,-0.334155,0.199021,0.145823,0.65357,-1.00675,-0.0735374,-0.817191,0.104455,0.521043,0.337792,0.501775,-0.775959,-0.759631,-0.357522,-0.99505,0.19702,-1.05869,-0.696502,-0.31758,0.643408,0.489153,-0.493892,0.901636,-0.770645,0.676185,-1.10862,-0.328257,0.078393,0.551711,0.3734,0.651437,0.197101,-0.773893,-0.07973,-0.810599,0.779802,0.047493,-0.499181,-0.0153966,-0.385003,-0.977637,0.517331,-0.768145,0.49821,-0.384982,0.336116,-0.102584,0.303958,-0.514669,-0.721054,-0.955078,-0.0968185,0.185885,0.163366,0.266365,-0.0190632,0.326366,0.743526,-0.99787,-0.336934,-0.764928,-0.558477,-0.997684,-0.175567,0.66182,-0.689096,-0.718976,0.36723,-1.09844,0.734875,-0.0811542,0.816281,-0.198796,-0.388267,-0.69636,-0.722996,0.913847,0.476643,0.0646971,0.0210908,-1.02114,-0.284721,-0.0622609,-0.0571864,0.751543,0.285051,-0.162737,-1.1505,0.391678,-0.158553,0.647499,0.725684,-0.311492,0.300507,0.387291,-0.392621,0.13668,0.329846,0.379933,0.134011,0.399992,0.246286,-0.372481,-0.150667,-0.175055,-1.12049,-0.169887,0.0480925,-0.144931,-0.279056,-0.877641,0.473043,-1.0501,
0.576163,0.691089,-0.797144,0.646156,0.41803,0.316215,0.310511,-0.355755,0.773136,-0.218711,-0.975309,-0.0685942,0.563758,-0.0153778,0.144265,0.397939,0.678844,-0.522562,-0.176477,0.534118,0.311231,-0.695977,0.720927,0.339277,0.88776,0.827849,0.292463,-0.926254,0.800195,-0.118867,-0.971082,-0.347628,-0.526555,0.328935,0.56482,0.321831,-0.819369,-0.935672,-1.01123,-0.841159,0.300866,0.128344,-1.11664,-0.852932,0.0255704,-0.391073,-0.491774,-1.0707,-0.212069,0.446178,0.070771,0.28062,-0.700764,0.475612,0.146624,0.448172,-0.811459,0.779451,0.718354,-1.0408,-0.153794,-0.518287,0.582354,0.263894,-0.350268,0.366976,0.242579,-0.446642,0.296432,-0.735342,0.385326,0.256206,-0.283183,-0.206743,0.630534,0.0391316,0.281697,0.295231,0.711229,0.366209,-0.350757,0.373384,-0.607997,-0.464532,0.865333,0.510294,-0.882027,0.348656,0.531947,-1.10707,0.608904,0.360669,-0.109366,-0.98152,0.570588,0.88541,0.227042,0.625969,-0.671485,-0.750797,0.608464,0.308355,-0.81538,0.0449335,-0.550736,0.624221,0.286397,-0.399266,0.288701,0.121956,-0.354561,-0.602031,0.142401,-0.767601,0.531874,-0.602046,-0.423099,-0.969099,-0.673088,-0.231661,-0.166762,-0.889525,-1.08912,-0.745763,-0.112133,-0.131657,-0.697264,-0.4029,-0.558865,0.814722,0.115745,-0.554876,0.600101,-0.50737,0.557823,-0.403745,0.718736,-0.159093,-0.219938,-0.299539,-0.0363966,0.00592054,0.231629,0.593269,0.402482,-0.687941,-0.30108,0.837977,-0.485286,0.297905,-0.655204,0.788915,0.360278,-0.570373,0.809041,-1.03894,-1.11632,0.250917,0.0968732,0.138791,0.300219,-0.530176,0.476973,0.314376,-0.704583,-0.298206,0.0935739,-0.865286,0.309747,0.507331,0.443158,0.897298,-0.296228,0.0861142,-0.463409,-0.269765,-0.983559,-0.935256,-0.106776,0.312267,0.517353,-0.521352,-0.795708,-0.0795587,0.647453,-0.559043,0.128048,-0.507329,0.777184,-0.12663,0.637862,0.0553845,0.238782,0.319997,0.224163,0.730107,-0.446681,-0.815909,-0.22363,-0.585788,-0.320388,0.38086,-1.0048,-0.471475,0.643981,0.613732,-0.741825,0.79696,-0.746724,-0.107997,0.433247,0.698395,0.669906,0.503724,-0.306694,0.13371,-0.492099,-0.983857,-0.98407,0.0669897,-1.00616,0.747549,0.737503,-0.145687,-0.411289,0.447218,0.365017,0.0944728,0.0580917,0.514572,0.81565,-0.949206,0.404404,-0.583448,0.254831,-0.291378,-1.01718,0.305738,-1.05382,0.00926522,0.437427,-0.321416,-0.547578,-0.414778,-0.606853,0.751781,-0.816763,-0.310451,-0.892119,-0.406892,0.586814,-0.144773,-1.01954,-0.966382,-0.289388,-0.56141,-0.488692,0.747505,-0.225078,-0.739679,-0.140438,0.477656,0.126731,0.0233581,0.665251,0.0773626,0.3707,-0.417056,0.815232,-0.382704,0.714695,0.733182,0.206971,-1.11139,0.551548,0.0020107,0.76706,0.14532,-0.515943,-0.622893,0.775758,0.0509234,0.5695,-0.204349,-0.932077,0.893481,0.199403,-0.0770168,0.154567,0.703232,0.0345477,-0.643664,-0.361908,0.426871,-0.515629,-0.254185,-0.597776,0.426954,-0.790318,-0.827723,-0.597757,0.337935,-0.446589,0.738111,0.554793,0.0962808,0.453424,-0.973089,-0.401963,0.695728,-0.931616,0.0472478,0.512555,0.722141,0.312465,0.802916,-0.660436,-0.183234,0.383575,-0.385103,0.0954554,0.646876,-0.272932,-0.806868,-0.598436,0.159291,0.437357,-0.273045,-0.470775,-0.161702,-0.871361,-0.394198,-0.916517,0.850347,0.55167,0.813792,-0.444431,-0.497441,-0.707831,-0.507931,-0.766948,-1.08072,0.154504,0.208214,0.067755,-0.590628,-0.853812,-0.496362,-0.94811,0.341995,0.359121,-0.981262,-0.279645,-0.441825,-0.0509641,-0.260968,0.666264,0.0230092,-0.471364,0.497189,0.179237,-0.681183,0.545768,0.608672,-1.15208,-0.625073,-0.52012,0.366535,-0.115811,0.890795,-0.543294,-0.480411,-0.344749,0.80748,-0.528433,0.581427,0.20553,0.470358,-0.565762,-0.11311,-0.756342,-0.360596,-0.869757,-0.463115,-0.218509,-0.747581,0.801741,-0.337859,0.370489,0.72495,0.557767,0.143134,
-0.256514,-0.743035,0.830724,0.469088,0.24557,0.743551,-0.422955,-0.405642,-0.752322,-0.294556,-1.02838,0.657688,-0.381843,0.521425,-0.214841,-0.826679,-0.375873,-0.981246,-0.985074,0.12487,0.203798,0.939552,0.345659,0.651587,-0.69463,-0.950624,0.652142,-0.690036,0.162205,-0.0601519,0.147769,0.797472,-0.713943,-0.423652,0.193052,-0.532656,-0.896585,-0.369983,-0.201178,-0.0957967,0.82589,-0.0779524,-0.083206,-0.761259,-0.664662,-0.976888,-0.497101,0.686488,0.968972,0.880706,-0.316542,-1.04786,-0.385157,0.296211,0.777382,-0.719711,-0.819391,0.506009,-0.305669,-1.00105,-0.0955203,-0.777512,0.682086,-0.447158,-0.137149,0.0168557,-0.973535,0.0757152,0.442322,0.944512,-0.917043,-0.6864,-0.857378,0.444219,-0.332471,0.759147,0.689041,0.681883,0.159574,0.470736,-0.18088,0.695283,-1.02682,0.453866,0.884287,-0.658118,-0.652861,0.342099,0.252309,-0.614482,0.537074,-0.96742,-0.689527,0.689372,-0.40889,0.382942,-0.77055,-0.930086,-0.382407,0.895914,-0.878598,-0.716317,-0.782036,-0.80264,-1.00633,0.558049,0.662506,0.307015,-0.114097,0.53253,0.266581,0.62178,-0.754829,0.182288,-0.24619,0.032165,-0.0779005,0.811623,0.484225,-0.527743,0.223733,-1.02602,0.461525,0.109368,-0.630884,0.147339,0.127458,0.878437,0.406989,-0.951707,0.34234,0.801778,-0.351554,-0.280767,0.299413,-0.253575,0.482318,-0.0371654,0.397508,0.0297464,0.034675,0.0416961,0.0474967,0.903081,-0.142761,-1.0415,0.112558,-0.428265,-0.174977,0.076351,-0.133251,-0.659262,0.30099,0.342742,-1.05633,-0.348856,-0.616302,-0.741149,-0.642241,0.658307,0.91462,-0.562548,-0.0271252,0.401877,-0.14359,-0.930226,0.247496,0.493031,-0.194347,-0.459701,-0.804391,-0.573083,0.35615,-0.841265,-0.627911,-0.0285891,-0.374885,-0.826256,0.0670951,0.0335669,0.255266,-0.690192,-0.0895833,-0.878968,-0.322546,0.290298,0.0823572,0.0167347,-0.94888,0.0196555,0.0266894,-0.692023,-0.378722,-0.188279,-0.27852,0.0654787,0.531117,0.0391862,0.385871,0.14508,0.0298871,-0.789606,-0.0777088,0.632741,0.124475,-0.31441,0.185819,0.19195,0.932475,0.562172,-0.889947,-0.655029,-0.624965,-0.804951,0.571041,0.387534,0.0220381,-0.369154,-0.30906,0.547217,0.839657,0.306566,-0.33028,-0.143803,0.29952,0.185703,-1.07068,-0.442157,0.772817,-0.579188,-0.433178,-0.171442,0.822685,0.350372,-0.535065,-0.542602,-0.0633856,0.11142,-1.04631,0.753961,-0.420593,0.541182,-0.68811,-0.829637,0.704326,0.41399,-0.11776,-0.587121,-0.898997,0.431614,0.320529,0.325714,-0.854966,-0.336024,-0.144961,-0.816691,-0.765492,-0.933571,-0.242549,-0.757981,0.619978,0.313787,0.487423,0.808036,-0.289613,-0.449007,0.65622,0.301296,0.528201,0.0520909,0.22659,0.478212,-0.125502,0.644657,-0.159331,0.461455,-0.271247,0.718635,-0.282226,0.579335,0.223295,-1.0328,0.732169,-0.644925,0.173307,0.189598,-0.283558,0.0969436,0.524462,-0.912644,0.209232,-0.0241221,0.452537,-0.624358,-0.975378,-0.818073,-0.353463,0.386296,-0.0875452,0.654582,-0.414461,0.198357,0.783387,-0.448141,0.328544,0.46488,-0.799736,0.700584,0.727805,0.125446,-0.256222,-0.910802,-0.32937,0.291745,-0.839202,0.466771,0.852254,-0.144951,-0.916119,-0.464964,0.65252,0.297782,-0.355618,0.361529,0.816746,0.427993,-0.132802,0.839254,-0.992913,-0.557639,0.764844,-0.703228,0.821359,-0.58298,0.704543,-0.0447338,-0.805499,0.373634,-1.05334,0.589297,-0.118316,0.4798,0.681608,0.493167,0.731455,0.771177,0.00199421,0.393983,-0.777023,0.206688,-0.626677,-0.335669,-0.955739,-0.628144,-0.0507574,-0.229328,0.914503,-0.0742675,-0.340433,0.560843,-0.975812,-0.138536,0.670559,0.564353,-0.609385,-0.90004,-0.235552,-1.03052,0.828348,-0.990847,-0.93842,-0.339206,0.212361,0.0785375,-0.720595,0.488542,-0.476271,-1.02041,0.022707,0.671012,0.233986,-0.455786,-1.04598,-0.342683,0.537865,-0.0793432,-0.684535,-0.90687,-0.242766,-0.265612,-1.01433,0.124351,
0.19945,0.261345,-0.803323,0.497878,-0.262934,0.0346149,0.851799,-0.207442,-0.434497,-1.09157,-0.596103,-0.524737,0.751643,0.199111,-0.783071,0.569272,0.568781,0.275813,-0.331962,-0.215892,0.116672,-0.388296,-0.0935343,0.428182,-0.317003,-0.444724,-0.744762,-0.458704,-0.125136,0.0592519,0.189508,0.830117,0.126168,0.0652658,-0.896155,-0.656199,0.0264186,0.0837026,-0.252452,-0.169414,0.0121164,-0.367774,-0.0520083,0.0901449,-0.210541,-0.606603,0.468031,0.346224,0.329566,0.0727617,0.314938,-0.708565,-1.0587,-0.91923,0.327142,-0.754328,0.206574,0.780082,-0.194461,-0.429789,0.938434,-0.642639,-0.0322879,0.178698,0.11591,-1.0207,-0.416387,0.766425,-0.22136,0.430305,0.216689,0.0273025,-0.368904,0.398035,-0.14299,-0.255813,0.159346,-0.31648,-0.887308,-0.267769,-0.295954,0.756892,-0.328211,0.252868,-0.111057,0.439662,-0.353319,0.454829,0.709874,0.657183,-0.273736,0.920415,0.421126,0.794718,-0.461558,-0.979525,-1.01787,0.186748,-0.084847,-0.412248,-0.619136,0.0958088,0.160334,-0.295701,-0.932695,0.0847587,0.546451,-0.328915,0.716404,0.0667789,0.365545,0.0452327,-0.348442,0.186925,0.385187,0.079799,0.0733504,0.743495,0.459794,-0.972229,0.0953396,0.353144,0.593363,-0.0498967,0.787391,0.0689662,-1.08348,0.845219,0.0592823,-0.381032,-0.56161,0.702012,-0.178093,-0.457668,0.107896,-0.867569,-0.720963,-0.599281,-0.321473,-0.160312,0.330388,0.260842,0.0230297,-0.9878,0.162942,-0.231755,-0.771077,-0.219358,-0.0970352,0.866638,0.324099,-0.774909,-0.908673,-0.418733,-0.899034,-0.354281,-1.03201,-0.872337,-0.469908,-0.190409,-0.186604,-0.621099,-0.091122,-0.18414,0.503479,0.216051,-0.344855,0.483237,0.790151,-0.364799,-0.623716,0.73623,-0.643522,0.125762,-0.96722,0.0184225,-0.402072,0.310567,0.675568,0.618975,-0.300835,0.386777,-0.687383,0.556617,-0.75892,-0.335266,-0.516945,-0.419395,0.574833,0.118121,-0.591331,0.022293,0.926669,-0.822054,-0.066922,0.454603,0.800604,-0.572345,-0.678255,0.265121,-0.29103,0.741582,0.814289,-0.0606239,-0.856216,-0.648107,-1.01486,0.247058,-1.02124,0.300048,-0.83488,0.501331,0.692468,-0.764789,-0.191426,0.431836,0.626196,-0.00432626,0.35184,0.398763,-0.28959,-0.993775,-0.158942,-1.09749,0.183426,0.596021,-0.709735,0.854206,-0.0586496,0.514094,0.813477,-0.727073,0.513186,-1.00818,-0.158105,-1.03272,-0.551532,-0.671064,-1.11035,0.680158,0.297783,0.421673,-0.656642,0.485097,-0.772815,0.185581,-0.62509,-0.253426,0.372933,-0.879924,-0.0845771,0.797051,0.142428,0.618833,-0.553137,0.122626,-0.209206,-0.0191303,-0.968633,0.808272,-0.83779,0.385606,-0.766705,-0.359697,-0.788796,0.451395,-0.0787534,0.588551,0.923956,0.0732197,-0.5013,-0.490626,-0.611635,0.348746,0.192851,-0.387017,0.785917,0.171649,-0.48658,0.246269,0.423065,-0.201185,0.155832,-0.147817,-0.0888762,-0.353123,0.647371,0.297984,-1.00773,0.113304,0.828476,0.0410372,-0.326671,0.842527,0.833696,-1.14161,-0.724557,0.25114,0.525299,-1.12592,0.0826776,-0.523332,-0.737934,-1.08078,0.727719,-0.196196,0.759616,0.618124,0.466405,0.233968,0.94021,-0.518487,-0.255538,-0.766111,0.394539,0.289666,-0.152057,-0.159395,-0.502324,-0.591955,0.790235,0.0407057,-0.684067,-0.521141,-0.0235557,0.0718058,-0.93215,0.06024,-0.134818,-0.0536504,0.206473,-0.631243,0.0482149,-0.0690452,0.788472,-1.05461,0.624523,-0.636389,-0.71291,0.12755,0.826726,-0.179383,0.244764,-0.173042,0.53362,-0.316718,0.660514,-0.786237,-1.07837,-0.520208,-0.213035,-1.1756,0.460021,-0.609815,0.713968,0.419857,-0.880114,-0.575438,-0.118049,0.34735,-0.122331,0.159497,-0.894922,-0.760565,-1.1599,-0.515509,0.649209,0.246685,-0.254935,-0.445187,0.359235,0.328403,-0.258736,0.211202,0.227486,-0.640198,-0.977276,-0.0554621,-0.107725,-0.821969,0.141383,0.740528,-1.08171,0.762704,-1.07514,-0.040299,-0.34398,0.108253,-0.738883,0.203503,-1.07676,0.519998,
-0.434537,0.775775,0.357298,0.383419,0.471237,-0.763685,-0.342107,0.658807,0.649723,0.256448,-0.429896,0.156894,0.694884,-0.18523,0.390991,0.455372,0.793037,-0.124272,-0.259353,0.710699,-0.028566,-0.91271,0.0475136,-0.749003,0.794781,0.710382,0.742983,-0.0442818,0.00892085,-0.986695,0.620382,-0.656465,0.222456,0.224804,0.563316,-0.187429,0.779949,-0.444693,-0.465047,-0.10526,0.202044,0.42929,-0.509725,-0.229141,-0.120417,0.541392,0.755987,-0.0358587,0.887559,-0.157844,-0.292851,0.289635,-0.599682,0.425013,0.660333,0.720737,0.646011,0.38906,-0.646206,-0.999512,-0.6848,-0.681814,0.558273,0.590225,-0.980776,-0.163439,-0.661919,-0.858131,0.149337,0.210166,0.314576,-1.06111,-0.732006,-0.849569,0.666787,-0.292092,0.164895,0.246789,-1.01828,-0.55678,-0.165301,0.29686,-0.0765263,-0.235452,-0.339943,0.271633,0.826353,0.359186,0.856484,-0.497352,0.62392,0.331375,-0.817431,0.133337,-0.52419,0.835035,0.0223756,0.512791,0.311653,-0.480103,0.115808,0.0338415,-0.598257,0.324142,0.881682,0.394584,-0.474409,0.320043,-0.316752,0.761144,-0.424866,-0.891362,-1.0052,0.26537,-1.03494,0.832151,-0.126792,0.017077,0.412731,-0.194077,0.107099,0.810351,-0.849799,-0.427375,0.679561,-0.775887,0.579544,-0.114129,0.142743,0.448291,-0.829633,0.165992,0.36562,-0.511028,-0.884686,0.732624,0.697328,-0.604926,0.198003,0.114858,0.592769,0.688039,-0.794435,-0.238939,-0.701692,0.203788,0.516967,-0.762842,-0.478759,-0.873676,-0.271987,-0.662205,-0.560984,0.184069,-0.684772,0.00539371,0.134157,-0.931175,-0.209142,0.0760028,0.899294,-0.107449,0.62752,0.400576,0.48653,0.51445,-0.182498,0.733577,-1.0178,-0.340551,0.673182,0.00910912,0.209213,-0.532664,0.591245,0.410977,0.579468,-0.763158,-0.367048,0.885461,0.602874,0.510219,0.11232,0.574221,-0.556685,-0.942806,-0.768934,0.311452,0.831869,0.614218,0.37917,0.13251,-0.0903149,-0.557653,-0.18222,0.757817,-0.819495,0.799113,0.567223,0.245848,0.407881,0.828902,-0.392034,0.861256,-0.33809,0.158406,-0.646097,-0.203683,-0.433315,0.700073,0.0483448,-0.759505,-0.322172,-0.338204,-1.05724,0.87499,-0.75783,0.208241,0.790457,0.234333,0.111199,-0.990576,0.906898,0.666234,0.188017,-0.365419,-1.03539,-0.28125,0.295927,-0.918963,0.373315,-0.310684,-0.815155,0.624452,-0.956393,-0.171324,0.0603213,-0.993115,-0.374916,0.548178,-1.10296,-0.970673,-0.646168,-0.65241,-0.529222,0.634051,0.348873,-0.285027,0.796833,0.808611,-0.531238,-0.752487,-0.318804,0.465506,-0.655633,-0.366743,0.353201,-0.302516,0.051231,0.295647,-0.804918,-0.17627,0.578952,0.738446,-0.80548,-0.630053,-1.08562,-0.965117,-0.350497,-0.971501,0.146947,-0.88251,-1.03799,-0.163739,-0.491946,0.343471,0.155799,-0.995856,-0.429198,-1.08854,-0.97825,0.48615,-0.0349198,0.795396,-0.831774,-0.769634,-0.696067,0.00456863,-0.427325,0.486783,0.666198,-0.841249,-0.108903,-0.11448,-0.797066,-0.780379,0.0163156,0.767706,-0.388431,-0.859077,0.0722572,0.681561,-0.675619,0.394351,-0.492266,0.210494,0.324099,-0.705502,0.628078,-0.8716,-0.0676811,-0.167957,0.232776,-0.306356,0.81588,-0.480374,-1.08775,0.943267,-1.12748,-0.336644,0.606829,-0.259085,-0.0611342,-0.40764,0.506702,0.114903,-0.784952,-0.274163,0.883392,0.835944,0.34573,0.839105,0.67399,0.270572,-0.0779,0.659263,0.367449,-0.672676,0.335943,-0.740469,-0.792005,-1.02621,-0.0536,-0.538387,0.753891,-0.695989,-0.665902,-0.701849,-0.999967,0.624136,-0.139393,-0.163887,-0.725752,-0.397349,0.389149,-0.354368,-0.324858,0.515968,0.818198,-0.449483,0.603026,0.421394,0.804718,-0.00878987,-0.645887,0.518024,-0.819342,-0.115932,-0.927909,0.882363,-0.435405,-0.151918,0.143666,-0.269975,-0.257937,-0.66739,-1.1122,0.768112,0.439848,-0.128802,0.407274,0.297326,-1.00737,-0.20062,-0.740449,-0.439568,0.728188,-0.931627,-0.329514,-0.543313,-0.545526,0.0716206,
-0.867235,0.220212,-1.03935,-0.905755,-0.0640667,0.505028,0.66113,0.814288,-0.872594,0.373203,0.370599,-0.559453,0.35064,-0.0228644,0.442588,0.875517,0.466201,0.517761,-0.351827,0.0755874,-0.530017,0.349803,0.292788,-0.184948,0.341673,0.556006,-0.575001,-0.121693,-0.0248188,0.0579131,-0.397825,-0.660391,0.594131,0.111598,0.0496026,0.250364,-0.285049,0.198276,0.54329,-0.533162,0.418449,0.67605,0.540587,0.363326,-0.786189,-0.104546,-0.261616,0.60837,-1.01952,0.880059,-0.501095,-0.215184,0.448867,-0.703597,0.678399,-0.264212,-0.458031,0.93033,0.63186,-0.0360493,0.411325,-0.247882,-0.676459,-0.95094,-1.03837,0.382512,-0.51083,0.0236069,0.0217485,0.482161,0.126865,-0.19474,-0.122492,-0.254993,-0.598194,0.290763,-0.358422,-0.493367,0.145362,-0.0787687,-0.728666,0.427307,-0.849648,0.20123,0.752677,-0.584566,-0.69677,0.787923,-0.387059,-0.129946,-0.608882,0.675568,-0.31847,-0.643906,-0.355623,-0.566046,0.354022,-0.78907,0.196014,-0.323127,-0.23485,-0.293352,-0.53911,-0.0128909,0.864618,-0.081674,0.123074,0.456897,0.5617,0.719573,0.0790233,-0.0551873,0.890822,0.142328,-0.86324,-0.181172,0.552192,-0.553484,-1.05152,0.146324,0.275259,0.144893,-1.10726,-0.542982,-0.743214,0.242488,-0.98741,0.662547,-0.713401,-0.769312,-0.87376,0.449859,0.122077,-0.457105,-0.140764,-1.05503,0.343405,0.350107,-0.078403,0.673731,0.46406,0.261614,0.367163,0.689471,-0.550465,0.713813,-0.061825,-0.942581,0.693773,-0.905471,0.878055,0.376333,-0.732096,-0.596653,-0.164173,-0.0362265,0.370759,0.853254,-0.933932,0.681644,-0.0984625,0.757221,-0.592021,-0.885234,0.269403,-0.592349,0.0759831,0.743383,-0.110183,-0.443317,0.531136,0.518827,-0.330291,0.398336,-0.699272,-0.320472,0.449881,0.789929,0.709028,0.84407,-0.815775,0.722242,-1.05242,-0.372292,0.642071,0.477576,0.717652,0.467385,0.826465,0.0641741,0.384638,-0.049785,-0.414279,0.0107148,0.00299203,-0.222735,-0.0607661,-0.310877,-0.32315,-0.32567,-0.867706,0.936001,-0.424913,-0.628602,0.087109,-0.264183,0.191562,-0.0841927,-0.915604,0.253589,-0.327431,-0.0609852,0.523054,-0.75504,-0.357051,-0.405833,0.757016,-0.57814,0.671654,0.0822966,0.530313,0.693872,0.831814,-0.279253,-0.952313,0.831906,-0.902097,-0.659308,-0.490251,0.309477,-0.963334,0.374734,0.494696,0.510777,0.150074,-0.841174,0.8087,0.429644,-0.0623636,-0.824666,-1.07121,-0.709073,-0.682933,-0.74546,-1.06833,0.453168,-0.708345,-1.11695,-0.0768626,-0.93389,-0.355023,0.270718,-0.944057,-0.363004,-0.789784,-0.152681,-0.211166,-0.651881,0.855462,-1.03839,0.581092,0.428869,-0.29402,-0.108021,-0.845135,-0.283599,0.329704,0.826743,-0.183931,0.410728,0.776464,0.16756,-0.946555,-0.15013,0.0788232,0.3931,0.834034,-0.851516,0.219621,-0.50691,0.5485,-0.411625,0.249785,-0.687985,-0.218939,-0.0325754,0.400862,0.517572,0.361102,-0.0351565,0.169628,0.570901,-0.197805,0.0247429,-0.277686,-0.709604,0.677372,0.550623,0.0994197,-0.723978,0.186802,0.113434,0.687794,0.124649,-1.00697,0.669775,0.277347,0.328405,-0.48246,-0.878093,0.741167,-0.318787,0.763991,-0.748746,0.26649,0.502306,-0.209511,0.00517274,-0.33958,0.0394374,-0.576558,0.521536,-0.314658,-0.787089,-1.01802,-0.533544,-0.406469,0.305865,-0.466845,-0.173655,-0.262993,-0.107185,-0.264203,-0.461658,-0.159549,-0.838376,0.719605,0.177001,0.697652,0.0669526,-0.0956317,0.623433,-0.66908,-0.0498098,-0.977564,-0.144442,0.364767,-0.87006,0.0455379,-0.874052,-0.184255,-0.353461,-0.826,0.797917,0.808329,-0.193724,-1.06675,0.457371,0.0794385,-0.139731,0.469951,0.52568,-0.890802,-0.0811471,-0.123911,-0.676711,0.691251,-0.902541,-1.01525,-0.465021,0.150667,-0.891985,0.862439,-0.961241,-0.0586636,-1.05383,-0.548266,0.615442,-0.598551,0.876386,0.386455,-0.820558,0.363561,-0.437369,-0.329291,0.145715,0.493729,-0.850617,0.540306,0.590333,0.636418,-0.515976,
0.470149,-0.663373,-0.529631,0.87868,0.299576,-0.0535154,0.0934164,-0.597676,-0.795258,-1.00103,0.458084,-0.0963522,-0.165048,0.769759,0.427083,-0.0972112,0.779613,-0.825706,-0.410795,-0.740986,0.396596,-0.506127,-0.629387,0.0299132,0.879098,0.652486,0.142683,0.78814,0.474805,-0.0441256,0.418135,-0.557713,-0.0423716,0.274732,-0.22653,-0.806467,-0.105698,0.0449392,0.958389,-0.0631722,0.421983,0.826102,-0.923757,0.763042,0.133371,-0.0355605,0.7186,-0.219583,-0.468492,-0.495288,0.961931,0.668721,0.838753,0.724586,-0.538573,-0.277352,0.829953,0.702816,-0.269595,-0.85242,-0.609249,-0.129046,-1.03695,-0.163384,0.255321,-0.596301,-0.320852,-0.986323,-0.769889,-0.562644,0.227146,-0.968422,-0.395152,0.748059,-0.552605,0.385114,-0.772274,-0.764456,-0.783542,0.684787,0.721897,0.261699,-0.256672,0.784958,0.310043,-0.708358,-1.05245,0.136124,0.291711,-0.960124,0.268268,-0.217387,-0.539372,-0.656953,0.147834,-0.620014,0.686544,-1.02419,-0.379327,0.340116,-0.666977,0.641752,0.413905,0.48294,-0.947049,-0.545627,-0.342948,-0.979372,0.199911,-0.864857,-0.797502,0.175422,-0.0772571,0.563594,-0.106526,-0.712647,-0.404212,0.0360237,0.179613,-0.307264,-0.197541,0.114898,-0.235277,-0.758459,0.961784,0.493712,0.152457,-0.587826,-0.136633,0.363323,0.662858,-0.519911,-0.132952,-0.848633,-0.387806,-0.727551,0.200409,0.874163,-0.358128,0.870442,-0.991156,0.579856,0.176734,-0.885434,0.769685,-0.126539,-0.585227,-0.946822,0.813032,-0.264972,0.425722,0.267331,0.444487,0.56868,-0.985496,-0.795334,-0.182265,-0.124633,0.700679,0.811471,-0.926484,0.0490176,0.746698,-0.0181507,-0.703737,-0.539131,-0.174449,0.514897,-0.641099,-1.02671,0.665956,0.747549,0.633213,0.402642,0.257316,-0.668196,0.937954,-0.939106,-0.193341,-0.797795,0.487938,-0.902994,-0.999624,0.611084,0.831525,-0.185219,-0.672662,0.561349,0.13368,0.357798,-0.0936627,0.160744,-0.763715,-0.25175,-1.0866,-0.0763827,-0.138466,-0.874898,0.888979,-0.606036,0.797671,0.715516,-0.833266,-0.123022,-0.369909,0.275506,0.347871,0.811651,-0.376065,-0.109224,0.109334,-0.116532,-0.0683552,-0.336276,-0.0719712,-0.312668,-0.750557,0.392877,0.980751,0.638842,-0.947511,-0.0212514,-0.475912,-1.08449,-0.449171,-0.935913,0.595343,-0.958222,0.294198,-0.134724,0.325699,-0.675736,-0.484512,-0.802274,-0.0634314,-0.991951,0.394436,0.499761,-1.0704,-0.0347892,-0.24518,-0.845906,-0.710502,0.631686,-0.450698,0.758791,-0.791311,-0.986928,-0.886802,0.00963539,0.0790259,-0.360207,0.544318,-0.716582,0.0751088,0.549189,-0.585723,-0.178413,0.58323,-0.209887,-0.532077,-0.282829,0.558351,-0.42086,0.828983,0.48879,-0.471596,-0.52035,0.23001,0.16193,-0.0664989,0.369668,-0.803258,-0.459199,-0.56986,0.279865,-0.273746,-0.833555,0.608832,-0.119291,-0.298025,-0.277711,0.534252,-0.725973,0.0972356,0.0116197,-0.84459,-0.109821,-0.997427,0.692104,-0.219993,-0.0409832,0.488364,-0.887432,-0.981163,-0.210411,-0.420357,-0.769468,0.109842,-0.542703,0.474815,-0.68173,-0.340258,-0.82499,0.843846,0.940472,-0.908955,-0.485194,-0.695409,-0.762147,-0.760269,-0.901971,0.450835,-0.0863896,0.226791,-0.517977,0.155009,-0.120007,0.646114,-0.990858,-0.817831,0.932461,0.37114,-0.0241927,0.0162289,0.260767,0.768281,-0.708295,-0.872984,0.567681,-0.35869,-0.726053,-0.878205,0.972039,0.724286,0.0197205,-0.987498,-0.986143,0.0175716,0.0901395,-0.142758,-0.948166,-0.357866,0.645341,-0.955603,-0.353987,0.0881267,0.2282,0.295769,0.823587,-0.480857,0.557533,-0.804861,-0.66909,-0.409681,0.70279,-0.997873,0.183686,-0.38667,0.389329,0.943627,-0.2564,-0.353847,-0.659322,-0.46062,0.68457,0.123659,-0.485281,0.39822,0.659825,-0.152427,-0.185151,0.189789,0.0166451,-0.450639,0.648826,0.325924,-0.126517,0.751624,-0.0736209,0.717689,0.634161,0.174365,-0.852947,0.306343,0.21122,0.62958,0.663221,0.476889,-0.724184,-0.952616,-0.58961,
-0.525084,-0.0743091,0.318181,-0.317618,0.149812,0.507549,-0.548986,0.124404,0.745287,-0.4428,0.721765,-0.91163,-0.985174,-0.554988,0.20498,0.693452,0.188954,-0.991943,0.587482,-0.326511,0.559668,-0.0264705,-0.518758,0.00327374,-0.617433,0.901357,-0.773864,-0.168418,0.778925,0.638214,-1.09753,0.722549,0.311286,0.386062,-0.205272,0.465986,0.682597,-0.610697,-0.741973,0.0803097,-0.105083,-0.881634,0.538034,0.104607,0.602112,-0.400981,-1.00981,-0.601933,-0.703159,0.257645,0.155878,0.477088,-0.736573,-0.673197,0.515753,0.065706,0.619182,-0.235078,0.0140161,0.181413,-0.0548835,0.48771,-1.03818,-0.345959,0.395901,0.6347,0.159849,0.14496,0.801276,-0.183562,-1.07211,0.65613,0.0834974,-0.427508,-0.162643,0.751544,0.248884,-0.591224,0.032903,0.658471,-0.449714,-0.933105,0.140884,0.217187,0.130947,-0.810085,-0.669169,0.416125,0.437929,-0.529696,0.62737,0.415867,-0.383019,-0.688664,0.312124,-0.828662,-0.573451,-0.239973,0.839778,-0.3327,0.5074,0.406305,0.309917,-0.415619,-0.904886,0.837667,0.721324,0.506339,-0.496004,0.276965,-0.203977,-0.942672,-1.01817,0.319001,-0.376083,0.302611,0.446279,-0.0382904,-1.00487,-0.254703,-0.678899,-0.595461,-1.10788,-1.24005,-1.02859,-0.0440396,-1.11418,0.716627,0.350062,-0.670627,-0.973846,0.646921,0.224659,-0.319297,0.761444,-0.351699,0.910027,0.516357,-0.391954,0.125968,-0.726842,0.8141,-0.475943,-0.112317,0.131186,0.58755,-0.305933,0.792014,0.683586,-0.934798,0.385761,-1.07491,0.510501,0.660667,-0.157719,0.0397191,0.709016,-1.05365,-0.628081,-0.84951,0.86566,-0.495172,-0.998801,0.204956,-1.01686,0.0920065,-0.527798,0.693597,-0.234857,-0.278062,-0.389095,-1.07528,0.588153,-0.501768,-0.245657,0.556085,0.0452609,0.408567,0.346413,-0.52602,-1.0542,-0.576284,-0.690691,0.00426831,-1.11064,-0.529,-0.97715,0.489412,0.0175306,0.441988,-1.15907,0.00670251,-0.683601,-0.640131,-0.507583,0.0253528,0.206567,-0.0358911,0.793739,0.169668,-0.158969,-0.799365,-0.884151,-0.798921,0.585512,0.831378,-0.219702,0.171804,-0.395755,0.0695169,0.693768,-0.826314,-0.935631,-0.687465,0.594457,-1.04214,-1.02489,-0.910823,0.139423,0.846191,-0.332413,0.443603,-1.00649,-0.0890185,-0.332887,0.0525182,0.60083,0.102503,-0.410826,-0.899929,0.692895,0.885333,0.511091,0.610455,-0.945562,-0.670733,0.468546,0.0314842,-0.424391,-0.587805,0.607533,0.597185,-0.357514,0.0582804,-0.476361,0.73178,-0.777858,-0.341711,0.398039,0.402735,-0.876417,-0.830153,0.326243,-0.21329,-0.48269,0.372039,-0.875723,-1.25324,0.0281136,0.871447,-0.289525,-0.116396,-0.850712,-0.370457,0.00942273,0.473222,-0.70093,-1.05988,0.400393,-1.04777,0.532732,0.372512,-0.164854,0.162504,0.560421,0.498955,0.130228,0.69297,-1.04156,-1.1217,-1.19856,-0.813603,0.314329,-0.928552,-0.186976,0.657181,0.383708,0.35824,-0.278256,0.523403,-0.708225,0.339094,0.394635,-0.847213,0.675224,0.246713,0.693753,-0.439328,-0.540226,0.713062,-0.0479094,0.282096,0.515349,-0.191587,-0.179266,-0.651932,-0.803157,0.420925,0.236513,-0.96906,-0.949714,0.71396,-0.169362,0.50879,-0.485579,0.559685,-1.21537,0.133032,0.597789,0.239876,-0.985726,0.364059,-0.89073,0.121291,0.3034,-0.314294,0.522255,0.34688,0.548087,-0.393558,0.174231,0.122845,-1.01133,-0.27355,0.204379,-0.645364,0.632677,-0.635411,-1.08286,0.606187,-0.17465,0.435594,0.154477,-0.845845,0.286357,-0.165918,-0.447119,-0.466986,-0.662177,-0.112385,-0.259281,-0.689741,0.44982,-0.825072,0.401987,0.861673,0.215154,-0.296221,-0.974539,0.165431,0.760704,0.183777,-0.297824,0.250462,-0.664582,-0.339466,0.595029,0.0176379,0.15092,-0.131601,0.0599173,-0.935354,-0.841506,-0.375839,-0.553486,0.0375134,-1.10243,0.082077,0.484932,-1.0363,-0.213669,0.178016,0.526269,-0.20464,0.483896,-0.248445,0.56157,0.250664,-1.05234,0.345613,0.564218,-0.773123,
0.660507,-0.18461,0.82181,-0.212695,0.0855296,0.778467,0.58438,0.272758,0.731264,0.562898,0.669359,0.694751,-0.684983,-0.222142,-0.543562,-0.0196476,0.667156,-0.257325,-0.614052,-0.447337,-0.917867,0.768065,0.426555,-0.65933,0.380219,-1.01367,-0.698836,-0.755811,-0.766531,-0.363323,-0.500294,0.102766,0.421907,-1.05477,0.150726,-0.0395045,-0.295005,-0.901012,0.0638853,0.313253,-0.808326,-0.382025,-0.538812,-0.896154,-0.608047,0.219866,0.44665,-0.448619,0.902366,-0.336039,-1.01867,0.0518704,0.187407,0.0681707,0.0946441,0.595971,0.509475,0.269434,-0.481054,-0.304447,-0.295727,-0.290801,0.516254,-0.506538,-0.57651,0.657563,0.750444,0.225717,0.158128,0.746208,-0.637014,-0.12537,0.582932,-0.72369,-0.797503,0.527413,-0.341776,-0.754221,-0.697547,0.0879009,-0.535484,0.786908,-1.02681,0.601808,-0.048726,0.413215,-0.210789,0.439514,-0.20166,-0.872858,-1.02612,0.764922,0.626051,0.233335,0.156136,-0.708056,0.154702,0.0446908,-0.374469,-0.568024,-0.0321188,-0.219091,-0.604043,0.310055,0.756404,-0.46973,-0.852782,0.718181,0.785658,-0.778091,-0.316371,0.618473,0.676244,0.84622,0.335312,-0.845412,-0.997999,-0.162721,0.157353,-0.699667,0.59618,0.203423,0.187153,0.310102,-0.465597,0.0344477,0.495267,0.168994,0.101782,0.30125,0.515996,0.625275,-0.232133,-0.387265,0.750535,-0.367587,0.621719,0.595746,-0.649216,-0.440861,0.95318,0.591106,-0.595061,-0.525365,-0.711821,-0.936244,0.0896221,0.452496,0.675081,-0.678326,0.570297,0.504858,0.575759,-0.626814,-0.801349,-0.38094,0.339233,0.00813756,-0.333445,0.215319,0.0544518,-0.428257,-0.948117,-0.609827,-1.08156,0.106262,-0.768331,0.0284768,-0.417026,-0.343458,0.379752,-0.64279,0.0676294,0.491642,-0.77647,-0.882205,-0.879167,0.222528,0.730151,0.778033,0.381285,0.152978,0.106117,-0.305918,0.122614,-0.95872,0.684138,-0.772235,-0.457176,-0.85097,-0.819476,0.234612,0.855648,-0.257208,0.243264,0.1647,-0.138088,-1.09528,0.321635,-0.226265,0.727663,0.892314,0.707313,0.462226,0.37157,-0.939733,-0.351963,-0.0844263,0.218096,0.0205807,0.329407,-0.309313,0.265635,-0.504229,-0.765159,-0.494473,-0.282021,0.209305,-0.784006,-0.884622,-0.0798595,-0.19819,0.875829,0.335411,-0.15552,0.7153,0.189072,-0.302251,0.495154,-0.468846,0.926923,0.465913,-0.676427,0.360862,-0.615298,-0.958815,0.0655135,-0.484821,0.610841,-0.98501,0.0534827,0.676642,-1.08521,0.795213,-0.85403,-0.539412,-1.23282,0.325526,-1.12177,0.169319,-0.361949,-0.0385439,-0.861199,0.220761,0.917882,0.766499,-0.461638,-0.616908,0.0231184,-0.764716,0.667844,0.749866,0.190181,-0.7257,-0.298807,0.721962,-0.482178,-0.212889,-0.997544,-0.531759,-0.800236,0.0335528,-1.1054,0.277469,0.69706,-0.292177,-0.821701,-0.391294,-0.110002,0.283727,-0.821278,-0.494515,-0.684188,-0.436391,-0.476896,-0.499476,0.829624,0.326081,-0.0468118,-0.0810635,0.465444,-0.533982,-0.708995,0.60977,-0.623808,0.649076,-0.509316,-0.167996,-0.210004,-0.984143,-0.314558,-0.213077,0.0267576,0.0963019,0.489419,0.445386,0.214167,0.0178332,0.0629495,-0.276863,0.501853,-0.567349,0.726076,-0.583519,-0.357059,0.461191,0.16135,0.301064,0.639755,0.328508,-0.692054,-0.817385,-0.191397,0.585736,0.756859,0.765521,-0.0550573,0.0891724,0.858486,0.34969,-0.489813,-0.216582,-1.1367,-0.224634,0.444097,-0.742673,-0.266334,-0.378615,-1.02655,-0.799103,-0.640384,-0.252527,0.203607,0.404694,-0.804409,-0.149144,0.0430016,0.653911,-0.398711,-1.0392,-1.0987,0.43536,-0.763394,-0.142995,-0.545263,-1.01875,-0.493852,-1.04628,0.396412,0.186929,-0.794812,-0.423566,0.15384,0.0518561,-1.0967,-0.426784,-0.967771,-0.372157,-0.26058,0.812824,0.297912,-0.280234,-0.130384,0.578561,0.529712,0.379955,-0.924092,-0.199668,-0.357398,0.823129,0.593833,0.63434,0.628536,-1.05247,0.0794175,0.722153,-0.956957,-0.530072,0.126453,0.478988,0.798015,0.161442,
-0.875531,-0.896185,-0.579762,-0.145089,0.584064,-0.59469,-0.769845,0.109595,-0.853444,-0.726679,-0.0892109,-0.836499,0.661405,0.502257,0.845635,0.185519,0.0129916,-1.02003,0.932862,-0.75857,0.65856,-0.499149,-0.947023,-1.06787,0.953182,-0.342464,-0.786073,0.70939,-0.573047,0.072267,-0.14195,-0.0215796,-0.599877,0.250713,-0.880943,-0.398064,0.142779,0.244239,0.514866,0.651118,-0.920671,-0.380247,-0.749032,-1.032,-0.569613,-0.272651,-0.380032,0.293254,-0.0395834,0.338615,0.810503,0.415593,0.847723,-0.527932,-0.98904,-0.117419,-0.372052,-0.502223,-0.927469,0.489385,-0.472192,-0.758933,-0.962599,0.0127507,0.0498977,-0.0224476,0.714378,0.0193615,-0.180698,0.121838,-0.742876,0.755059,0.366604,0.152234,-0.195533,0.372256,0.0243662,-0.464504,-1.009,0.343444,-0.971805,0.256027,0.557826,-0.715495,0.132714,0.681734,-0.343493,0.0284857,0.582893,-0.35243,0.386136,-1.01452,-0.666928,-0.304927,-0.857654,0.427361,0.0689886,-0.691201,0.132397,0.122955,0.606538,-0.544729,0.08938,0.186955,0.702145,-0.573187,0.694518,0.274357,0.867931,0.00112924,-0.891717,0.714217,0.712795,0.221186,-0.875334,0.0720236,-0.683505,0.771027,0.300327,0.611696,-0.99632,-0.791957,-0.0227247,-0.257725,0.731587,0.57258,-0.799111,0.748878,-0.352523,0.559238,-0.275863,0.750917,-0.435575,-0.792266,0.393866,0.0856837,0.639277,0.705619,0.77683,-0.394293,-0.579981,-0.456962,-0.72624,0.785407,0.0503128,0.385735,-0.0461444,-0.514477,-0.37135,0.283818,0.130246,-0.493477,0.172827,0.365363,-0.820368,0.131978,-0.802099,0.622678,-0.577849,-0.895447,0.349303,-0.804894,0.112895,0.383369,0.136733,0.329131,-0.69426,0.779095,-0.462952,0.328298,-0.752374,-0.607015,0.0884194,-0.932892,-0.929125,0.775453,-0.442365,-0.827801,-0.433664,-0.999327,0.522695,0.0885616,-0.756938,0.0814164,-0.401709,-0.159806,0.488078,-0.855801,0.35725,-1.00641,-0.889663,-0.176794,-0.930043,0.147403,-0.999367,0.746096,0.112922,-0.712215,-0.761519,-0.605362,-0.768867,-0.533354,0.0483115,-0.0404977,-0.248398,0.577701,0.0292496,0.00364497,-0.409984,-0.162467,0.578436,0.203972,-0.763457,-0.409427,-0.870929,-0.645722,-0.49893,0.499286,0.943924,-0.63863,-0.0995836,0.557008,0.451342,0.534232,-0.841548,-0.875723,-0.38326,0.379038,0.248996,0.516892,-0.478162,-0.110876,-0.232536,0.0448415,0.511678,-0.435845,0.696733,-0.416949,-0.409627,-0.846504,-1.1085,-0.0213594,0.42457,-1.00787,0.561764,-0.14352,-0.0507586,0.502273,-0.1426,-0.383265,0.0131044,-0.668932,-0.681508,-0.590575,0.466965,-0.645403,0.33821,0.0548429,-0.566337,0.465637,0.341553,0.0833004,-0.287812,0.370367,-0.993546,-0.758769,0.482409,0.858673,-0.322096,-0.485141,-0.931228,-0.865828,0.104871,0.395218,0.670844,0.0333209,0.555229,0.179184,-0.0117567,-0.580912,-0.543021,0.784507,0.891751,0.809704,-0.0471235,0.787192,-1.0007,0.405602,0.155818,-0.343968,0.966898,-0.277999,-0.444211,0.0583753,-0.420929,-0.760753,0.384213,-0.0831663,0.374772,0.547444,0.159517,-0.66178,-0.950624,-0.430314,-0.0476814,-0.86955,0.183684,0.816451,-0.222639,-1.03809,0.070914,-0.924458,-0.607594,0.00613597,-0.0918634,-0.395557,0.285795,-0.914001,0.545119,-0.784511,-0.6876,-0.571244,0.0305728,0.0347044,0.510482,0.830448,-0.569209,0.812733,0.194572,-0.975045,-0.765917,-0.117469,0.460555,0.520763,-0.141302,0.691129,0.306924,-0.493489,-0.340932,0.645265,-0.943442,-0.129137,-0.48953,0.00332799,0.224528,0.718556,-0.913096,0.668601,0.832669,0.138693,-0.329077,0.589485,-0.670164,0.0598633,-0.515328,0.23829,0.11438,0.108121,0.444176,-0.0706285,-0.171594,-0.274753,-0.728004,0.00840344,-0.375738,-1.07702,0.429554,-0.409081,0.211625,-0.694552,0.915355,-0.633164,-0.034976,0.515782,-1.07085,0.937653,0.3661,-1.03011,0.846261,-0.764613,-0.324877,0.0348512,0.749733,-0.502361,0.565502,0.836326,0.598968,-0.715623,0.936171,-0.0571156,0.765181,-0.99265,
-0.903605,-0.181757,0.852574,-0.159536,-0.47152,0.330126,-0.880543,-0.248987,0.280542,-0.60014,0.732177,0.384318,-0.646986,-0.699748,-0.0994448,0.227825,0.308029,-0.881257,-1.08152,-0.668575,-0.38666,0.289872,-0.0156287,-0.0600031,-0.0643899,0.74014,0.734951,0.169129,0.753512,0.149436,-0.777705,-0.366977,0.707343,0.197035,-0.111267,0.485517,0.254011,-0.850897,0.411877,0.124342,0.111792,0.564295,-0.519657,-0.891473,0.248994,0.768026,-0.495953,-0.70621,0.596065,-0.365129,-0.223368,0.115179,-0.731288,0.157647,0.00562905,-1.00478,0.497778,-0.520583,-0.517147,-0.90147,-0.984322,0.882061,-1.02849,0.0644175,0.695217,0.467079,-0.691422,0.00218089,0.264623,-0.0283164,-0.345427,-0.721266,0.62204,-0.879112,-0.210561,-0.457088,0.305506,0.811022,-0.0407596,0.494888,0.0690491,0.44074,0.210843,-0.0753223,-0.090156,-1.01613,-0.588254,-0.692316,-0.873413,0.581364,-0.601232,-0.375449,-0.974796,-0.873266,0.490789,-0.967136,-0.314244,-0.152769,0.580366,-0.735612,0.0422,-0.553468,0.360409,-0.921182,-0.210091,0.894432,-0.748885,-0.238639,-0.132507,-0.134041,-0.119416,-0.902849,0.112695,0.379533,0.127149,0.47865,-0.0287015,-0.130121,-0.699359,0.586191,0.869496,0.508486,-0.801029,0.454949,0.786983,-0.142893,-0.545027,-0.704913,-1.12144,-0.415914,0.0503064,-0.683492,-0.643268,0.770726,0.232875,0.61409,-0.647525,0.352399,0.0284528,0.322158,-0.732419,0.445547,-0.374306,0.0738596,-0.194755,-0.876904,0.473976,-0.278663,-0.713438,0.747152,0.857785,0.377144,-0.317317,0.260293,0.377383,-0.947728,-0.0745162,-0.0596576,-0.430317,-1.05245,-0.378236,-0.762705,0.159939,-0.75059,-0.231262,0.179132,0.023648,0.420905,-0.132041,0.0872844,-0.114757,-0.115004,0.331653,-0.817544,-0.523456,0.51652,-0.0483511,-0.823461,0.141632,-0.156544,-0.346268,0.335962,0.626348,0.668306,0.689777,-0.222055,-0.641637,0.222401,-0.78951,-0.748865,0.155311,-0.442186,0.956465,0.126964,-0.456943,-0.316908,-0.52305,0.206764,0.660431,0.802738,-0.526041,0.755336,0.387294,0.162077,0.834734,0.585151,-0.443023,-1.01099,-0.689149,0.255335,-0.630132,-0.798928,-0.832794,0.134218,0.135766,0.720811,0.028805,-0.304628,0.0670001,0.288568,-0.314645,-0.758596,-0.0354667,0.250884,-0.477027,0.376435,-0.864749,-0.867566,-0.484118,0.49912,0.718544,0.161528,0.431965,0.417096,0.200613,0.845989,0.617359,-0.877925,0.625694,0.318208,0.465151,-1.03982,0.530467,0.0352363,-0.260369,-0.0344081,-0.622139,0.578064,-0.718407,0.916832,-0.410032,0.446662,0.548384,-0.828816,0.832507,-0.116141,-0.627391,0.282047,-0.164508,0.429416,0.0381573,-0.303318,-0.608295,0.878676,-0.287004,0.83086,-0.0591956,0.0258658,-0.561931,0.0237021,0.405707,-0.219427,-0.108215,-1.1201,-0.667407,-0.178632,-0.142804,-0.414311,-0.483331,0.165231,-0.235215,0.183587,-0.392283,0.331079,-0.345222,-0.794385,-0.768175,-0.917593,-0.646765,-0.297135,0.410856,0.426622,-1.00961,-0.718442,0.514177,0.186437,-0.713636,0.296863,-1.05868,0.290884,-0.011755,-0.663787,-0.324182,0.173689,0.157597,-0.18844,-0.122146,-0.871826,-0.506287,0.121512,-0.270791,0.608809,0.796814,0.197362,-0.0944445,-0.954464,0.470591,-0.14276,-0.252831,-0.511512,0.669348,0.813668,-0.659824,0.90704,-0.552942,-0.937911,-0.54257,-0.684257,0.164382,-0.360765,0.257839,0.668005,-0.809973,-0.802752,-0.264372,0.0878493,-0.17142,0.238361,-0.748403,-0.865605,0.761445,-0.63813,-1.05325,0.419517,-0.986003,-0.368606,-0.787835,0.763229,0.423771,-0.0368759,0.22937,0.605344,0.645313,-0.236738,-0.263519,-0.095888,-0.126477,0.422483,-0.891136,0.220746,0.410203,0.353804,-0.727511,0.364172,0.631885,-0.622297,0.41178,0.512579,-0.0772944,0.557276,0.262365,-0.0272041,0.542926,-0.780983,-1.08456,0.761269,-0.543898,-0.311019,-0.420548,0.0301979,-0.110085,-0.852253,-0.589624,-0.0802629,-0.0324042,0.0112446,-1.00492,0.252227,0.770602,0.510748,-0.373092,0.201762,
-0.376689,0.206955,-0.374997,0.154205,-0.207224,0.602038,0.0516308,0.510899,0.83574,0.288352,0.511607,-0.257909,-0.912634,-0.791524,0.575247,0.801988,0.270125,0.783935,-0.0459298,0.223995,-0.36177,-1.01307,-0.794194,-0.225053,-0.989802,0.671391,-0.132146,-0.295154,-0.429536,-0.0287044,-0.200485,0.10844,-0.621315,-0.129354,0.867659,-0.161888,-0.360534,-0.352986,-0.13517,0.179189,-0.200986,-0.563675,-0.605734,0.213479,-0.557938,-0.759976,-0.929595,-1.06607,0.439392,-0.739356,-0.131528,-0.380258,-0.113678,-0.240712,-0.0463139,-0.529215,-1.07648,0.673883,0.256312,-0.399019,0.361609,0.878277,0.321186,-0.360334,-0.688726,0.610697,0.3429,0.310144,-0.180628,-0.240327,-1.0327,-0.702067,-0.527666,-0.302911,-0.172445,0.405468,-0.0511927,-0.804044,0.389836,0.531156,-0.290631,0.865721,0.542815,-0.045254,0.836089,0.0986102,-1.09726,-0.150466,-0.610212,-0.779192,-0.857304,0.23765,0.0307548,0.0967921,-0.116549,-0.750077,-0.860319,-0.25668,-0.0690153,-0.0487662,0.877686,0.566721,0.765586,0.375387,-0.603429,-0.0495064,-0.709036,0.256231,-0.169242,-0.337079,0.338299,0.554999,0.85982,0.909526,-0.638473,0.00566303,0.699067,0.820069,-0.943859,-0.106323,-0.9652,-1.00399,0.391514,-0.388646,-0.977737,0.627418,0.30574,-0.654127,-0.0797998,-0.657774,-0.678359,0.28025,0.493703,0.201134,-0.422464,-0.886875,-0.601529,0.524202,-0.779329,-0.41441,-0.221937,-0.267435,-0.396323,-1.04928,0.76472,-0.557559,-1.02227,0.929178,0.349286,0.343123,-0.201076,0.719999,0.806597,0.497185,-0.08515,-0.466499,-0.084359,0.641239,-1.03704,-1.03116,0.558014,-0.146479,0.576744,-0.316224,0.358252,0.0686901,0.571915,0.755685,0.478726,0.230187,-0.372966,-0.27142,-0.263127,-0.836467,0.475925,0.323553,0.269881,0.563728,0.12944,0.71943,0.0650267,0.431459,0.457102,-0.4299,-0.118612,0.0511557,0.12502,0.755694,0.739712,0.359577,-0.244451,0.608036,0.813048,0.386766,0.0141654,0.502436,0.556545,0.00293114,0.893554,-0.281636,-0.713743,-0.54908,-0.869142,-0.570563,-0.87212,0.579216,-0.876322,-0.143674,0.212785,-1.07875,-0.756244,0.473603,0.593611,0.351659,-0.797631,0.726935,0.627721,0.134681,0.4465,-0.906475,-0.783296,0.8496,-0.999574,-0.818495,-0.814976,-0.304703,0.430994,0.211826,-0.543582,-0.167489,0.588875,0.24241,0.0866873,-0.795005,-0.0244724,-0.431776,-0.672599,-0.22993,0.00247215,0.607119,-0.965176,-1.11873,-0.246448,-0.616254,-0.754186,0.768269,-0.30796,-0.790406,-0.296954,-0.850722,-0.804433,0.0289932,-0.154031,0.193358,0.717951,0.387311,-0.634387,0.673694,0.278168,0.341729,-0.689384,0.256928,0.701519,0.348531,-0.808622,0.769387,0.833727,-0.086201,0.643503,-0.295698,-0.506488,0.0654609,-0.733011,0.824081,0.472098,0.14368,-0.0497022,0.444379,0.856236,-0.750943,-0.469178,0.728752,-0.420242,-1.02333,0.716531,0.575855,-0.81281,0.0225868,-0.431892,-0.362793,0.773844,0.536475,-0.235114,0.832341,0.794059,-0.501356,-0.995685,0.640017,0.460459,0.785988,-0.102291,0.642351,-0.0828697,0.0295855,-0.514401,-0.102617,0.1076,-0.253097,-0.503287,0.498277,-0.182216,-0.313333,0.490051,0.294044,-0.660673,0.647156,0.731372,0.408434,-0.601306,-0.686727,0.622541,0.18169,0.311768,-0.466781,0.391382,0.189514,0.134156,0.285285,-0.031766,-0.44779,0.259663,-0.458897,0.595633,0.875435,-0.0562621,0.479241,-0.197644,0.00907119,-0.25082,0.288192,-1.04942,-0.875886,-0.772315,0.633509,0.201059,-0.351555,-0.525729,-0.262182,-0.637451,-0.538083,-0.925871,-0.364457,0.541157,0.846173,0.372376,-0.164413,0.48843,-1.01871,-0.0301542,0.216896,0.434103,-0.264064,-0.995043,-0.146113,-0.693651,-0.0179906,0.29934,-1.02864,-0.264959,-0.997228,0.169825,0.788291,-0.617877,-0.0640933,-0.140236,0.388606,-0.407652,-0.496893,0.260309,-0.730784,0.928962,-0.555991,-0.55926,0.115338,0.767429,-0.345011,-0.505843,0.637015,0.313266,0.255698,-0.34248,-0.791902,
