0.884989,-0.845598,-0.50082,0.633746,0.307565,-0.700492,0.775807,-0.0416414,-0.902217,0.285534,0.372642,-0.440289,0.92446,-0.136111,0.287755,0.221245,-0.893735,-0.315848,-0.674795,-0.466885,-0.836291,-0.125279,0.311254,-0.669122,0.134992,0.0512182,-0.513827,0.524123,0.693389,0.935588,0.35339,-0.683738,-0.889934,0.419111,-0.71244,-0.196294,-0.166345,-0.818222,0.12413,-0.177056,0.217091,0.613771,0.670502,0.72243,-0.192242,0.243514,0.838341,0.0120265,0.752134,-0.189158,0.147576,0.873558,-0.389766,-0.415783,0.506909,-0.817073,0.456166,0.189086,-0.505433,-0.763226,-0.243945,0.849044,-0.976133,0.498808,-0.193428,-0.30914,-0.839004,0.460429,-0.130493,-0.810058,-0.206276,-0.501468,-0.699206,0.507512,-0.164173,0.635377,0.429537,0.152092,-0.170448,0.824221,-0.152161,0.686378,0.209466,-0.845803,0.695381,0.485724,0.4678,0.943093,0.474206,-1.05218,-0.889422,-0.167299,-0.286311,0.683805,-0.537673,-0.475607,-0.485627,0.207719,0.539743,0.457828,-0.640482,-0.0898732,0.373156,0.278653,0.176792,0.226741,0.944937,0.490426,-0.767964,-1.09247,-1.0684,-0.128443,-0.347009,-0.524731,-0.259509,0.0842142,-0.821948,-0.584095,-0.251574,0.710506,-0.466158,-0.907812,-0.808247,0.286494,-0.602166,-0.481079,0.648949,0.685474,-0.806038,0.937022,0.447195,-0.773106,0.347918,-0.0481699,-0.333778,0.232855,-0.479208,-0.115848,0.288135,-0.802123,-0.828631,0.606388,-0.604115,0.408208,-0.140661,-0.668988,-0.798899,-0.273642,-0.512885,0.187743,-0.699089,0.169518,-0.507665,0.309937,-0.867573,0.484108,-0.0687968,-1.02623,0.687569,-1.08871,-0.778686,0.168391,-1.06137,-0.792742,-0.442645,0.429803,0.920853,-0.301724,-0.476703,0.548071,-0.0272212,0.329837,0.214764,0.42024,-0.683838,-0.455234,0.0979607,-0.994437,0.717882,0.693982,0.043861,-0.895794,-0.366319,-0.699789,-1.00467,-0.400732,-1.05149,0.495133,0.431761,0.859192,0.467736,0.0846055,-0.870698,-0.100662,-0.46375,-0.875787,-0.209721,-0.206615,-0.353239,-1.02222,-0.574054,-0.399424,-0.0848771,0.908321,-0.412599,0.0593429,-0.208334,-0.824215,-0.574128,-0.331364,0.862643,0.86617,0.70863,0.90869,-1.0037,0.106703,0.100433,0.30553,0.820421,-0.012585,-0.44006,-0.723744,-0.42557,0.728693,0.48939,-0.438684,-1.02521,0.798382,-0.973139,-0.037846,0.301325,0.163489,-0.106086,-1.12743,0.78431,-1.11724,-0.304893,0.553354,-0.337694,0.29668,-0.422488,-0.440102,0.0937597,0.718257,-0.733837,0.687274,-0.252789,-0.854822,-0.877696,-0.703353,-0.323072,0.635322,0.568544,0.836544,-0.111871,-0.465813,0.488367,-1.07275,-0.0911291,-0.73282,-0.504654,0.54616,0.566349,0.0256453,-1.07461,0.423298,0.681512,-0.472705,0.874977,-0.929885,-0.617317,0.0340303,0.242703,-0.461012,-0.615658,0.646339,0.265014,-0.70169,-0.627099,-1.00503,-0.980176,0.832306,-0.354365,0.807676,0.888291,-0.422929,-0.769678,0.590239,-0.271587,-1.05627,-0.666103,-0.919585,-0.164413,0.393142,-0.151561,-0.307292,-0.133508,0.419529,-0.571521,0.57478,0.614203,-0.276747,0.326311,0.552392,0.386503,0.213329,-0.496995,0.014332,-0.884492,0.654041,0.767874,-0.759183,-1.02753,0.0360251,-0.200704,-0.705044,0.81859,0.197177,0.0446371,0.652376,0.836362,0.811598,-1.12299,0.882044,0.222316,-0.652194,0.462595,0.835265,0.830161,-0.523266,-0.656094,0.840917,-0.109843,0.687305,-0.599429,0.743682,0.275094,0.622457,-0.972563,0.3048,-0.427149,0.903983,-0.228683,0.20283,-0.637256,0.393178,0.921357,-0.836534,-0.606804,-0.0494817,-0.416895,-0.78022,0.641157,-0.77013,-0.619973,0.389391,0.19108,-0.151907,0.39886,0.135481,0.592809,0.15337,0.917804,-0.439892,0.468931,-0.753692,-0.353107,0.809919,-0.927268,0.389187,0.462553,-0.330553,0.348024,-0.397947,0.0381187,-1.07029,0.113409,-0.26685,-0.34845,-0.677112,-0.315658,0.710098,-0.399371,-0.150354,0.0321693,0.221734,-0.906905,0.502643,-0.309449,0.297156,-1.15492,-0.16066,
0.706346,0.185968,-0.318574,-0.13029,0.154153,-0.740242,-0.82866,0.168939,0.275053,-1.04306,0.65198,-0.491738,0.102461,0.206013,-0.367702,0.56718,-0.878291,-0.457847,0.714493,-0.734074,-0.647286,-0.542432,-0.421082,0.383886,-0.927816,-0.910976,-0.0758065,-0.533269,-0.0612064,0.0301612,0.842956,0.606951,0.427539,0.559898,0.649386,0.966831,-0.903582,-0.430347,-0.503038,-0.0773974,-0.647589,-0.775785,-0.698637,-1.02655,0.380354,0.596002,0.0379558,-0.437164,-1.00156,0.19488,0.218567,-0.563182,-0.503609,-0.158198,-0.812763,-0.106542,0.953196,0.758232,-0.424371,0.884827,-0.153658,-0.234635,-0.56672,-0.584262,0.124666,-0.373171,-0.180323,0.927922,-0.0364612,-1.03675,-0.126552,-0.0784206,-0.264076,0.141336,0.417189,0.76757,-0.554886,-1.00157,-0.781957,0.958111,-0.115903,0.82926,0.216926,-0.958729,-0.331297,-0.431415,0.0510663,-0.135234,-0.906457,0.402582,-0.0820538,0.407269,-0.265451,-0.422981,0.736865,0.812114,0.492748,0.785214,0.165763,-0.792734,-0.397146,0.468702,-0.682402,0.0823825,0.587173,0.912747,-0.878958,-1.00572,-0.70911,-0.288945,0.370347,-0.287129,0.564572,-0.0725259,-0.973483,-0.866319,0.109369,-0.506854,0.634599,-0.94611,-0.16722,0.46862,0.912138,0.169118,-0.544588,0.539794,0.240824,0.828467,0.0548282,0.664101,0.353104,0.663465,-0.895844,0.487182,-0.128599,-0.635567,0.182495,-0.31778,-0.704953,-0.698995,0.691522,-1.01671,0.919693,-0.787523,-0.268504,-0.598769,-0.296234,0.291894,-0.750438,0.960172,-0.624477,-0.43583,-0.793915,0.124241,0.577905,-0.390892,-0.717271,-0.553912,-0.315588,0.313452,0.358782,-1.01048,-0.947142,-0.717575,-0.174129,-0.900696,0.521744,-0.316038,-0.463351,-0.837093,-0.367629,-0.414327,-0.459651,0.678992,-0.959625,-0.752899,0.475063,-0.61023,0.361126,-0.966575,-0.852139,0.203045,0.251273,0.913451,-0.813397,0.553026,0.915746,-1.01655,0.420654,-0.245877,0.965716,-0.968335,-0.235862,-0.403173,-0.750145,-0.847077,0.72412,0.802727,-0.819554,-0.32142,-0.684219,0.733178,-0.847052,0.754953,0.45358,-0.614567,-1.04688,-0.861762,0.370117,0.593171,0.741413,-0.203761,-0.0900868,0.396168,-0.711131,0.839457,0.0251905,0.201213,0.510618,-0.0665041,0.35572,0.358596,-0.337546,0.481288,0.285187,-0.142196,-0.315203,0.991607,0.517013,-1.01971,-0.959578,-0.508879,0.0593534,0.682982,-0.588507,-0.599813,-0.659079,-0.513559,-0.314292,0.238212,0.108489,-0.181115,-0.74862,0.323312,0.130727,-0.292833,-0.139787,0.582953,-0.39058,0.193783,0.128653,0.877925,-0.0163188,-0.81841,0.474122,-0.856635,-0.891377,0.324806,0.591261,0.613151,0.675775,0.534521,0.183511,-0.0720037,0.100473,-0.897598,-0.335755,0.773121,0.314673,-0.230687,0.56461,-0.156649,0.537749,0.736401,-0.125944,-0.376096,0.0218542,-0.227006,0.890103,-0.178782,0.21671,-0.575264,-0.505483,-1.06029,-0.669449,-0.930942,0.326333,-0.87767,-0.779087,-1.01693,-0.268125,0.766485,-0.828197,0.466314,0.872268,0.603611,0.859979,-0.205334,-0.23047,-0.766002,-1.03544,0.83692,-0.121274,-0.856942,-1.06125,0.981987,-1.05009,0.12179,0.984851,-0.596163,0.665423,-0.400444,0.841321,0.399097,0.32782,0.40835,-0.85189,-0.0466228,0.731662,0.0826148,-0.294327,0.774425,0.212243,0.91619,0.371468,0.193234,0.578424,0.542782,0.397796,-0.630164,-0.294333,-1.00726,-1.00967,0.718801,-0.136995,0.685454,-0.149678,-0.318937,0.827092,-0.520393,-0.625279,0.975114,0.358625,-0.804098,0.306488,-0.67514,0.0722001,0.143608,-1.01087,0.333699,0.702386,-0.500419,0.0454388,-0.248436,-0.899116,-0.346302,0.562741,-0.850482,0.526527,-0.599408,0.252036,-0.1853,-0.523181,0.853057,0.465336,0.615008,-0.156784,-0.692782,0.976639,0.444775,-0.32756,-0.472907,-0.797374,0.0234835,0.891824,0.849504,-0.715019,-0.968851,-0.263078,-0.777279,0.548725,-0.151458,-0.330126,0.503266,0.559226,-0.62341,0.813116,-0.472919,0.246809,-0.904949,-0.133096,0.115749,
-0.598159,-0.548339,-0.566315,-0.869622,0.660074,-0.633547,1.00515,0.417951,-0.467236,-0.112265,-0.758244,-0.396774,-0.4185,0.782226,-0.972833,-0.334375,0.989626,0.256238,-0.675105,1.00311,0.048107,-0.383212,0.889701,-1.01659,0.996391,0.12435,0.548989,-0.917283,-0.634636,-0.530448,0.140215,0.403019,0.854672,-0.0543146,0.359715,-0.491717,0.580397,-1.00254,-0.606023,-0.206442,0.0473901,-0.828454,0.780999,0.751826,0.577209,-0.999806,0.805651,-0.143366,0.978214,-0.243156,-0.134326,-0.241273,0.89116,-0.327964,0.475349,-0.69527,0.233984,-0.589983,0.111544,-0.0409847,0.989342,-0.845614,0.588243,-0.160148,-0.855587,-0.736078,0.592425,-0.146151,-0.88393,0.827145,-0.501876,-0.798843,-0.755563,-0.356592,-0.146937,-0.0773872,-0.959713,-0.892688,-0.663075,0.46898,-0.763127,0.114533,0.864005,-0.632924,-0.884555,0.970893,-0.936917,0.875692,-0.0917642,-0.964914,0.260247,0.0714774,0.510666,-0.496256,-0.257419,0.656218,0.382273,0.979768,0.308014,0.831535,-0.598655,0.493174,0.407942,0.624983,0.599386,-1.02906,0.484365,0.849429,-0.28513,-0.598983,-1.0032,0.824308,-0.0878271,-0.0715005,0.506152,-0.043251,-0.567215,0.700028,0.127648,0.173405,0.893981,-0.190146,-0.0562845,-0.347261,0.585017,0.257373,-0.0618414,0.93838,0.989507,0.85991,-0.221974,0.833839,-0.782649,0.615617,0.334282,-0.568565,-0.518611,0.927924,-0.812191,-0.959467,-0.78098,0.903213,-0.0637158,-0.587826,-0.631055,-0.951855,-0.75812,0.199047,0.156665,-0.630539,-0.374743,-0.611286,-0.551844,-0.531245,0.763213,0.140735,-0.380863,-0.245689,-0.499871,0.373148,0.943137,-0.797586,-0.195979,0.629358,-0.55367,-0.966282,0.237716,0.512825,-0.862888,0.574972,0.0350924,0.56919,-0.781777,-0.907717,-0.369032,-0.0785489,0.0966128,-0.326533,0.294652,0.369871,0.222103,0.581247,0.285704,0.968674,-0.854935,-0.524776,-0.880165,0.995224,-0.104485,0.706949,-0.586291,-0.257647,-0.72586,0.874603,-0.983729,0.614408,-1.0067,0.862642,-0.518602,0.952005,-0.847616,-0.199859,-0.78423,-0.386936,-0.579742,0.173704,0.583471,-0.61902,-0.246217,-0.909295,-0.367895,0.0411767,-0.152941,0.0730874,0.450129,0.181112,0.487806,-0.0555875,-0.262579,-0.432484,0.270789,0.61669,-0.808954,0.436757,-0.263719,0.93526,-0.289689,0.563788,0.850709,0.211817,-0.823252,-0.339955,0.715722,-0.328094,0.49212,-0.264537,-0.515494,0.906301,-0.160052,-0.86591,-0.182609,0.775122,-1.00316,-0.741817,-0.354328,-0.78455,0.188226,-0.0409642,-0.574474,-0.580565,0.749308,-0.800251,0.814901,-0.828485,0.507098,0.487267,0.351535,0.743167,0.356463,-0.737157,0.059491,-0.174664,0.969213,0.288602,0.109302,-0.557152,0.368303,0.106214,-0.137108,0.174379,-0.982181,-0.451908,0.65444,-0.481363,0.711552,0.520067,-0.758407,0.408163,-0.952041,-0.852277,-0.524544,-0.392047,0.211651,0.70458,-0.462599,0.873903,-0.288899,0.890527,-0.978705,-0.629805,0.573339,0.146637,-0.636284,-0.160292,-0.420215,0.433069,-0.336174,0.301493,0.887971,0.553071,0.316156,-0.922959,-0.589298,-1.00797,0.143309,0.833774,0.951448,-0.174147,0.0606892,0.106694,0.944721,-0.130555,-0.570223,-0.880462,0.249976,0.938543,0.488218,0.0860319,-0.348816,-0.725463,0.182339,-0.507699,-0.804099,-0.831874,-0.486594,-0.974781,-0.277879,0.139356,0.452748,-0.541398,-0.954231,-0.337803,-0.604559,-0.782571,-0.800052,0.897704,-0.14102,-0.663527,0.0917325,-0.70262,-0.0637884,-0.989759,0.580865,-0.170782,0.73798,-0.0368935,0.935493,0.241252,0.732015,0.404798,-0.388369,-0.491193,-0.206437,0.594119,-0.82563,-0.679901,-0.0681172,-0.775821,-0.616354,0.857543,0.798908,0.349931,0.880383,0.0719687,-0.0412529,-0.220368,1.00288,-0.528225,-0.36655,-1.00529,0.965372,0.410642,-0.754772,-1.01095,0.367443,-0.405561,-0.41511,0.621026,0.206027,0.956268,-0.499921,0.257549,0.865979,0.156846,0.257706,-0.427417,0.181645,0.441159,-0.125128,0.864717,-0.481527,-0.740102,
-0.632219,0.438051,0.399505,0.0256551,0.388372,-1.01227,0.0468752,0.257843,0.202723,-0.0867712,-0.493437,-0.887183,0.880632,0.90269,-0.780326,-0.781662,0.672609,0.0356733,0.644976,-0.368472,0.587545,0.399505,0.614128,-0.491247,0.868292,0.775493,-0.47785,-0.461625,0.256051,-0.614538,0.870319,0.226168,-0.963119,-0.0510906,-1.02602,0.912538,0.404941,0.403866,0.869371,-1.0133,-0.505767,-0.247606,0.49954,-0.472873,-0.736279,-0.321828,0.992991,0.834224,-0.302663,-0.706963,0.675137,0.455198,-0.913484,0.283641,0.398865,-0.0616118,0.118782,0.155837,0.0622024,-0.546488,0.444811,-0.576351,0.593924,-1.00044,0.249847,-0.976146,0.328758,-0.0558596,0.0910194,0.42657,-0.363871,0.997988,-0.613658,-0.829989,0.239169,0.670899,-0.573377,-0.0454852,0.125606,-0.741532,-0.0385926,0.788479,0.0483268,-0.666812,0.967706,-0.925025,0.566919,-0.135499,-0.742559,-0.162002,0.794039,0.0608669,-0.0518906,0.360669,-0.917209,0.879898,0.297199,0.959733,-1.01561,0.578557,-0.67948,-0.4696,-0.466963,-1.00526,-0.205019,-0.204086,-0.106522,-0.0507955,0.573362,-0.334321,0.563403,-0.607646,-0.496468,0.294636,-0.246609,-0.587602,0.17689,0.0473295,0.461954,0.894678,-0.943075,-0.724485,0.15439,0.287004,0.967735,0.241143,-0.67862,-0.397568,0.610355,0.76754,1.01597,0.077469,-0.79057,-0.541862,-0.514786,0.846199,-0.45641,0.700657,0.891335,-0.784989,-0.82761,-0.0391882,0.825977,-0.227742,0.968587,0.385671,-0.939341,-0.800526,0.436316,-0.833323,-0.671858,0.0844616,-0.186943,0.973156,-0.745697,-0.987649,0.683576,-0.104753,0.391015,-0.747339,0.96572,-0.664138,-0.489348,-0.560202,0.339613,-1.02399,-0.519197,0.84453,-0.439137,-0.13044,0.967206,-0.55029,-0.115509,-0.855773,-0.294681,0.369751,0.332761,0.730861,-0.988326,0.300943,-0.848254,-0.617406,0.297861,-0.140162,-0.805217,-0.119431,-0.191413,0.224671,-0.329133,0.874742,0.238089,0.063152,-0.853328,0.975577,-0.443097,-0.957925,0.398872,0.0533845,0.0315126,0.104247,0.0576191,0.668809,0.804765,0.349763,0.819748,-0.241886,0.136365,-0.781645,0.304582,-0.739345,0.239346,0.216594,-0.936718,0.552424,0.62762,-0.963733,-0.88037,0.893028,0.184529,0.964,-0.034723,-0.13111,-0.82196,-0.409551,0.911592,-0.813234,-0.404457,0.0846729,-0.975286,-0.476402,0.0502916,-0.0932492,-0.98402,-0.856352,-0.293476,-0.899341,-0.966614,-0.155634,-0.0399083,-0.344435,-0.283111,-0.52004,0.129416,0.901784,0.848712,-0.414329,0.300043,0.649438,0.638447,-0.107386,0.569584,0.223997,-0.180964,0.0803827,-0.199322,0.436985,-0.509297,-0.925931,0.298032,0.172317,0.879467,0.855085,-0.743922,0.847401,-0.32254,-0.349181,-0.723978,-0.193242,0.56754,-0.166208,0.24387,-0.551003,0.45373,0.697022,0.291216,-0.203966,0.119771,0.221391,0.209424,0.228165,0.393726,0.852292,0.829275,-0.210378,0.27408,0.787522,0.850533,0.143298,-0.565147,-0.602321,0.679655,-0.425411,-1.01231,-0.0355699,0.646254,0.928888,0.997902,0.752518,-0.518907,-0.974911,0.110705,-0.946143,0.108077,-0.671957,-0.165322,0.410181,0.693352,0.4174,0.679783,0.724342,-0.476632,-0.180323,-0.399527,-0.424306,0.751199,-0.831605,-0.935159,-0.434605,-0.378654,0.198886,0.376165,-0.247024,0.270151,-0.801815,0.577837,0.100582,-0.195377,0.069105,0.0680283,-0.183535,0.209927,-0.523876,-0.514285,0.0650318,-0.208207,0.603261,-0.641116,0.85586,-0.680419,0.427444,0.0424839,-0.164732,-0.574844,-0.320158,0.0417151,0.650138,0.291564,-0.860993,-1.02777,0.665068,0.164989,0.863368,-0.249098,-0.711261,-0.446008,0.860898,-0.840935,-0.293632,-1.01343,-0.123369,0.588271,-0.570011,-0.826218,-1.02201,0.233574,0.26685,-0.0867602,0.611419,0.544181,0.896992,0.929529,-0.216882,0.303207,1.00159,-0.568355,0.317827,-0.564282,-0.728866,0.45626,0.187259,-1.0296,0.0697672,-0.475195,0.394394,0.148498,0.293093,-0.568113,-0.268484,0.621567,0.991034,1.00604,0.303114,
0.858656,0.24826,0.928274,0.907596,0.181058,0.757131,0.494277,-0.688534,-0.0692844,-0.661893,-0.843501,-0.847069,-0.111346,-0.851648,-0.86889,-0.0894927,-0.0916726,0.281059,-0.827306,0.531687,-0.706379,-0.307591,0.700115,-0.521934,0.519649,0.427766,0.283832,0.0951007,0.334098,-0.13367,-0.561738,0.809715,0.154435,0.408413,0.519677,-1.03183,-0.160562,-0.31848,-1.01,-0.274507,-0.283218,0.452251,-0.136446,0.650989,-0.528024,0.183286,-1.00704,0.317606,0.419909,0.786283,0.665187,-0.814484,0.0851427,-0.878641,-0.104262,-0.753606,-0.433083,0.311299,-0.130419,-0.404005,0.478549,-0.427384,0.394984,0.118823,-0.63686,-1.01153,-1.03437,0.799358,-0.959441,0.291572,-0.698232,0.312696,-0.572231,-0.649384,-1.01529,0.982681,0.799327,0.91581,-0.520573,0.232671,0.0870926,-1.00074,0.65172,0.17618,0.374998,0.658332,-0.437862,-0.618993,-0.867672,-0.637629,0.99256,0.905265,0.155566,0.925032,0.589795,0.0755686,-0.865059,-0.289754,-0.727522,-0.510286,-0.558356,-0.956789,-0.308683,-0.743332,-0.378131,-0.450995,0.964182,-0.883189,-0.244372,-0.534303,0.692942,-0.980444,0.442672,0.903683,0.317206,-0.49639,0.227418,0.536593,-0.0827457,-0.87872,0.367562,0.903341,0.476965,0.28696,0.468936,0.137282,-0.328337,0.661715,0.349375,-0.330239,0.431894,-0.692715,-0.789942,0.685007,-0.513932,-0.488171,-0.523739,-0.764318,0.389819,0.826965,-0.054629,0.868237,0.117146,0.452675,-0.320653,-0.452244,-0.315123,-0.189249,0.732446,0.115002,-0.940378,0.416766,-0.690272,0.155237,-0.675484,0.468696,0.856494,-0.653022,0.0782913,0.626944,0.339549,-0.815462,-0.800784,0.434597,0.961716,0.599623,0.779584,-0.416648,0.488168,-0.0745506,-0.534996,-0.263726,-0.965257,-0.745028,-0.389932,0.443713,0.167993,0.86031,0.146173,-0.656393,0.408988,0.604913,-0.222707,-0.157842,0.869441,-0.384628,0.0241548,0.717883,-1.0468,-0.140156,0.793056,0.638802,-0.2592,0.524991,0.371372,-0.209829,-0.139821,-0.400505,0.64764,0.702272,0.215518,-0.265748,-0.587639,0.265143,0.219882,0.961258,0.102756,-1.05682,0.696303,0.662859,-0.444228,0.913636,-0.262523,-0.201951,-0.662045,0.606549,-0.535914,-0.596533,-0.136813,0.403712,-0.735766,-0.573989,-0.256645,0.908294,-1.06394,-0.684793,0.537222,-0.116734,-0.400714,0.0915783,-0.870995,-0.0480517,-1.01666,-0.158997,0.324749,0.465915,0.651856,-1.02655,-1.03916,-0.738177,-0.857399,0.588717,0.926451,0.321459,0.602374,-0.763505,0.443076,-0.955688,-1.00505,-0.0809015,-0.971969,0.73742,0.13486,-0.354981,-0.0659482,0.378185,0.658695,0.88977,0.779237,0.406712,0.811686,-0.489537,0.87981,-1.0584,0.543063,-0.17921,0.239166,-0.379377,-0.990986,0.0358044,-0.385067,0.144278,0.823745,-0.823694,0.845773,-1.01662,-0.983402,-0.358038,-0.733895,0.0264549,-0.507187,-0.654264,-0.219493,0.298901,0.943959,-0.17575,0.711588,-1.0652,0.759053,0.958105,0.234331,-0.841024,0.362098,0.958036,0.24939,0.39154,-0.607561,0.173287,-0.864904,-0.13319,-0.489169,0.326553,0.899411,-0.38911,-0.30027,-0.183975,0.758625,0.600911,-0.344943,0.0701535,-0.546699,-0.657547,0.440076,0.371937,-0.272529,0.75466,0.216247,0.217904,0.471914,0.778474,-0.0914313,0.721424,0.0300834,-0.265113,-0.740928,-0.131764,0.461732,0.454782,0.741173,0.632647,0.472878,-0.565527,-0.400535,0.291595,-0.358347,-0.942751,0.528753,0.251124,-0.295932,0.610232,0.515346,-0.0852313,0.520072,0.53406,0.225764,-0.397685,-0.141024,0.454274,0.478962,-0.913154,-1.00738,-0.760255,0.12403,0.348511,0.223112,0.938023,0.871584,-0.783586,0.47784,-0.666933,0.347209,-0.587836,-1.00638,0.457014,0.439622,0.55747,0.556418,-0.458629,-0.289001,-0.672232,-0.168579,0.68626,-0.0953736,-0.198771,0.628741,-0.663129,0.681831,0.691176,0.981823,0.37156,-0.751717,0.677858,-0.873858,0.364277,-0.17903,0.470533,-0.883766,-0.584459,-0.231809,0.0349297,0.832364,0.676333,
0.0921268,0.572399,-1.07398,0.491709,-1.06624,0.780924,-0.280314,-0.780576,0.0409307,-0.713497,0.925716,-0.275529,-0.70378,0.99201,0.15071,-0.732931,0.543386,0.434228,-0.512861,0.14381,0.107389,0.423393,0.168561,0.320488,0.801157,-0.832147,0.989901,0.25975,-0.583041,-0.713736,0.397576,-0.677371,-0.226488,-1.0171,0.229689,-0.940977,0.973856,-0.433375,-0.665172,-0.0494032,-0.797888,-0.266586,-0.828791,-0.208354,0.118689,0.753448,0.0566204,-0.167476,-0.336315,-0.557899,0.0339506,-0.788553,0.155376,0.0737944,-1.01787,-0.584922,-0.702004,-0.166542,0.0780528,-0.887481,0.432033,0.765175,0.960037,-0.142165,-0.381256,-0.242251,0.952962,-0.348112,-0.474336,0.25609,0.197844,-0.658786,-0.537371,0.0654552,-0.0426085,0.605848,-0.714028,0.3683,0.270883,-0.334572,0.866819,-0.0776158,0.852371,-0.22788,0.688026,-0.575303,0.900661,0.727072,-0.568599,-0.369304,-0.2535,-0.88613,-0.975123,-0.224138,-0.240116,0.629923,0.471036,-0.53219,-0.341916,0.849622,0.359924,-0.585845,0.295502,0.573699,0.810331,-0.221682,-0.234864,-0.432124,0.0921345,0.14231,0.742778,0.251139,0.553869,0.585024,0.882824,-0.0421525,-0.56505,-0.216354,0.156426,0.745328,0.427635,0.387728,0.764241,-1.05777,-0.923506,0.752019,-0.0497567,0.681848,0.629926,-0.0430007,0.279603,0.546082,0.968634,-1.03684,0.210407,-0.160473,0.271976,-0.743137,-0.182664,0.264096,-0.303629,0.0537661,-0.702751,0.944484,-0.974088,-0.991757,-0.850227,-0.495825,0.0214931,-0.243254,0.326244,0.795534,-1.03313,0.164237,-0.9443,-0.900769,-0.536427,-0.408317,-0.797586,-0.389685,-0.628758,0.568996,0.51661,-0.388128,-0.929424,0.384557,0.970508,-0.848937,0.901937,-0.372799,0.0913996,0.341232,-0.973174,0.188349,-0.755734,0.831424,-0.474399,-0.506427,-0.47047,0.823722,-0.331887,0.624155,-0.546924,0.166987,0.722818,0.651796,-1.03671,-0.719225,0.447318,0.0696743,-0.867709,-0.0509162,0.514748,-0.241602,-1.02801,0.64013,-0.534085,0.318466,-0.896228,0.650786,-0.783314,0.789003,-0.680841,-0.737896,0.769733,-0.571593,0.894035,-1.00092,-0.938337,-0.776367,-0.322786,0.698897,0.227446,0.454254,0.0217695,0.0151638,0.63438,-0.47703,-0.115182,0.055645,0.446119,0.582784,0.867446,0.250098,0.591857,-0.482946,-0.18113,-0.478396,0.0547518,-0.672051,-1.04652,0.830246,0.351873,-0.285165,-0.675989,-0.570969,0.945298,0.696201,0.548667,-0.89299,0.54024,0.230826,-0.502975,0.487774,-0.776053,-0.571758,-0.969542,-0.47993,-0.118731,-0.435442,-1.05307,-0.365132,0.162745,0.0831896,-0.835161,0.0804126,-0.233076,-0.832187,0.391377,0.38982,0.0933751,0.35379,-0.816811,0.17159,-0.541241,0.673694,0.202673,0.330731,0.488786,-0.277407,0.83353,-0.711517,0.870518,0.768426,-0.921854,0.546811,0.0409162,-1.04551,0.153169,-1.06365,-0.617511,0.871711,-0.0215558,0.411661,0.759389,-0.765861,-0.3763,-0.161339,0.556862,-0.838718,0.535108,0.514849,0.842611,-0.625713,0.859532,0.809411,-0.941361,0.572075,0.489346,-0.541327,0.878984,0.283932,-0.268957,-0.116432,-0.482782,-1.01084,-0.195516,-0.304389,0.570084,0.102509,0.811897,0.42205,-0.88538,0.394012,-0.319563,0.931442,-0.722734,-0.855873,-0.340371,0.828282,0.0448751,-0.134488,-0.869312,-0.818448,-0.228907,-0.971108,0.126271,0.0668225,0.709259,0.0291353,-0.110563,-0.694593,-0.771192,0.872682,0.717522,0.318268,-0.351678,-0.962036,-0.810631,-0.328262,0.910452,0.139156,0.939724,0.887951,0.17925,-0.861598,-0.700101,0.378578,0.60591,-0.507935,-0.514027,-0.781173,-0.860056,-0.911262,-0.607223,0.833788,0.185673,0.111769,-0.283519,-0.944649,0.29855,0.0183438,0.5381,0.300331,0.73103,0.302382,-0.816797,-0.428748,0.443844,-0.545965,0.806961,0.0746447,0.638537,0.759936,-0.209387,0.570648,0.712241,0.851648,-0.115401,-0.315998,0.817565,0.313139,0.798106,0.797695,0.227301,-0.742974,0.458857,0.235139,0.944659,-0.975321,-0.726654,-0.139711,
0.871582,-0.202677,-0.915887,-0.201355,-0.345824,0.628492,-0.238686,-0.262301,-0.836761,-0.333743,-1.00617,-0.541964,-0.9399,-0.279009,-0.483274,-0.841603,0.788617,0.522886,0.333306,0.608895,0.535898,-0.554817,-0.694625,-0.927844,-0.546002,-0.306989,-0.135346,0.369969,0.672742,0.294344,0.754017,0.0832708,-0.798821,-0.671084,-0.889846,-0.368678,-0.12516,0.866647,0.812113,0.557883,-0.14502,0.181323,0.161581,-0.964619,-0.764466,0.787145,0.492048,0.972888,-0.161139,0.683926,-0.951232,-0.176106,-0.98498,-0.435543,0.114563,-1.03076,-0.434822,-1.02609,-0.126864,-0.776034,0.757421,-0.424686,0.206842,0.540155,-0.331561,0.525746,0.703946,-0.336562,0.148463,-0.301506,-0.0934019,-0.095992,0.158911,0.959981,-0.280257,-0.560748,-0.377113,0.688507,-0.499425,0.753229,-0.0310638,0.819804,0.674265,-0.97815,0.922467,-0.771312,-0.279121,-0.934709,0.602571,-0.462414,-0.897062,0.270335,0.280397,-0.497917,0.740208,0.793807,0.96794,-0.378684,0.942309,0.698212,0.355221,-0.0949639,-1.02158,0.468986,-0.915178,0.576391,-0.180539,-0.866817,0.229662,-0.464695,0.862944,-0.263895,-0.706468,0.493971,-0.910403,0.768774,-0.712111,-0.0835984,0.200651,0.302206,0.378103,-0.827993,0.0796924,-0.861426,-0.785908,-0.292689,0.449883,-0.0870872,0.616903,-0.706232,-1.0108,-0.889547,0.475987,0.754805,-0.924206,0.0992254,0.646753,-0.197159,-0.978688,0.296275,-0.585112,0.143064,-1.06401,0.653512,-0.176901,0.869291,0.563225,-0.600755,0.617182,0.234206,0.770833,0.835195,-0.278327,0.0453491,0.594749,0.96423,0.103401,-0.737796,0.755307,0.409497,0.293208,-0.723449,-0.104715,-0.246711,0.0966804,-0.420968,-0.316568,-0.852934,-0.585326,0.685879,0.530973,-0.745597,0.525777,0.483577,-0.148822,0.749217,-0.0461002,0.532964,0.850844,0.818719,0.722135,-0.519701,-0.796479,-0.448754,0.291471,-0.887,-1.017,-0.0950267,-0.983541,0.149326,-0.0940954,0.786101,-1.08394,0.0979581,0.675566,-0.732747,0.120649,-0.526447,0.635737,0.715262,-0.739633,0.201125,-0.953383,-0.0970301,0.593161,0.392966,0.319493,-0.301361,-1.0309,0.206467,-0.26338,0.70601,-0.169967,0.540074,0.547507,-1.01707,0.0312593,-0.126917,-0.54174,-0.405869,0.70792,0.518165,0.147525,-1.00834,0.0569818,-0.857075,-0.784604,-0.674815,0.516434,0.884857,-0.69212,-1.07843,0.553194,-0.475679,-0.275827,0.650785,-0.605788,0.570396,0.365701,0.060775,0.816215,0.924533,-0.486653,0.546363,0.058148,0.611402,-1.01029,-0.774413,0.95925,-0.144415,0.176505,0.678606,0.737608,-0.913903,0.0133007,0.0450248,-0.296365,0.483154,0.234324,-0.779206,-0.309116,0.825468,0.250935,0.606935,0.409944,-0.292175,-0.7452,-1.02967,0.952555,-1.07259,-1.04117,0.0459328,0.206765,0.167741,0.234519,-0.158144,-0.137782,-0.11558,0.725633,0.0722772,-0.379771,0.859217,-0.205553,-0.382264,-0.202239,-1.05883,0.0837682,0.875784,-0.349124,0.468565,0.30973,-0.549976,0.431366,-0.490206,0.208417,0.649937,-0.249717,0.609065,-0.633565,0.172722,-0.984185,0.641872,-0.873635,-0.452584,0.801781,0.928854,0.838693,0.447544,0.790143,0.87747,-0.389576,0.316934,-0.834323,-0.373223,-0.689288,-0.285034,-0.580848,0.416401,0.122991,-0.656153,0.801057,-0.358832,-0.0244829,-1.03904,0.807174,0.067864,-0.10833,0.870044,-0.684015,0.927194,-0.769898,-0.158201,0.435589,-0.30606,0.458031,0.862043,-0.282283,0.590502,-0.784028,-0.551874,0.640612,0.412083,-0.900441,0.647552,-0.740274,-0.875997,0.816407,-0.342439,0.728105,-0.381843,-0.14426,-0.495839,0.0948617,0.249573,0.0731294,-0.0436352,-0.801041,0.362353,-0.259586,0.0192379,-0.600918,-0.420614,-0.185201,0.737445,0.375966,0.619794,-0.057068,0.0685283,-0.0956891,-0.880287,-0.416227,-0.124899,-0.802389,0.903988,0.244279,0.824136,-0.989711,0.272827,-0.832016,0.777076,-0.233449,-0.41786,-0.272578,0.624749,0.34794,-0.785087,0.0535822,0.298027,-0.542028,-0.455306,-0.921433,-0.451986,
-0.704716,0.771323,-0.48941,-0.620052,0.775581,-1.04788,-0.214361,-0.504622,0.168107,0.776426,0.324044,0.453453,0.963685,-0.43116,0.526556,-0.690078,0.35284,0.82791,0.394462,-0.308502,0.0424529,-0.710495,-0.566166,0.223856,0.653388,0.321868,-0.0550961,0.329886,-0.374382,-0.979823,-0.918368,-0.57188,0.78755,0.194912,0.205011,-0.474754,0.649802,0.381822,-1.03384,0.164425,0.353958,-0.987566,-0.70001,0.363976,-0.462201,-0.507118,-0.540283,-0.683412,0.524184,0.190011,0.0635723,0.634354,-0.219929,-0.127565,0.6767,0.363834,-1.04584,-0.854647,-0.78077,-0.481567,0.419591,0.18655,-0.202735,-0.452713,0.844491,0.602993,0.759508,-0.405843,-0.57411,-0.658709,0.627842,-0.62923,-0.990964,-0.103438,0.21325,-0.620512,-0.697391,-0.573989,-0.738988,0.503361,0.745551,0.335447,-0.129042,-0.356013,0.116554,0.539528,0.181272,0.492988,-0.389905,-0.722534,0.434403,-0.883015,-0.0918771,-0.484183,1.0075,0.903786,-0.051182,-0.892968,0.0360939,-0.726575,-0.528972,-0.857496,-0.369587,0.40174,-0.924479,-0.712073,0.170476,-0.262862,-0.920231,0.30456,0.693629,0.54224,0.7767,0.20333,-0.769827,0.552374,0.413311,0.0868765,-0.492722,0.435486,-0.500093,-0.359062,-0.746444,-0.45476,0.315752,-0.076714,0.767897,-0.102235,-0.688731,-0.804459,-0.108141,0.951834,0.763358,0.211988,0.612039,-0.109237,-0.506474,-0.047379,0.807227,0.417869,0.260825,-0.969284,-0.729188,0.451897,0.464544,-0.936829,0.760994,-0.339143,0.486789,0.0245145,0.778297,-0.715663,0.567517,-0.524487,-0.0683438,0.760646,-0.714267,0.74308,-0.907746,0.752542,0.474525,0.623952,-0.679893,0.797781,0.983038,0.916954,-0.177656,-0.230995,0.254172,-0.706847,-0.355506,-0.979728,0.622648,0.0920784,-0.954782,-0.600964,0.0230423,0.779111,0.340344,-0.714572,0.529327,-0.19359,0.4866,0.239615,-0.486077,0.252601,-0.375689,0.413219,-0.172837,-0.306097,0.406808,0.853402,0.854842,0.567091,-0.137394,0.185886,0.407704,-0.749617,-0.594186,-0.46912,0.958243,-0.0906972,0.345602,-0.827508,0.711579,0.675823,-0.882991,-0.0584365,-0.335775,0.230893,0.884925,-0.459421,0.134312,0.982882,-0.172285,-0.209187,-0.656043,-0.237228,0.936537,-0.170103,-1.01576,0.506448,-0.266446,0.931128,0.933444,0.800902,0.89741,0.737215,0.604224,0.154575,-0.882446,-0.964233,-0.984725,-0.240508,-0.231151,-0.434602,0.712151,-0.942919,0.722292,0.674619,0.0969838,0.258646,0.554007,0.319511,-0.534849,0.877014,0.511735,-0.454522,-0.455936,-0.186698,-0.872893,0.900652,-0.791429,-1.01021,-0.130204,-0.745886,0.493138,0.299397,-0.806513,0.138562,0.412543,-0.868701,0.372446,0.10387,-0.112721,-0.221926,-0.81235,-0.22409,0.364553,0.212708,0.195158,0.410989,0.717847,-0.318443,0.809323,0.887465,-0.196634,0.762491,0.609204,-0.553662,-0.84807,-1.04192,-0.460958,0.480291,-0.328964,0.88435,0.236772,-0.432611,-0.332596,0.363164,-0.292745,0.582835,0.441186,0.267302,0.500495,0.323308,-1.00574,0.566697,0.964191,0.865917,-1.02123,-0.163793,-0.175685,-0.434237,-0.162561,-1.04285,-1.01322,-0.158498,-0.8237,-0.897548,-0.345103,0.771355,-0.814432,0.147908,-0.452352,-0.712736,-0.822312,-0.0953826,-0.426391,-0.846488,0.869666,-0.897545,-0.819246,0.879467,0.967687,-0.593092,0.646921,-0.0655004,-0.84787,-0.416555,-0.93144,0.403498,-0.837175,0.580773,-1.0265,-0.954406,0.179951,0.587027,-0.456778,0.581384,-0.559774,-0.583085,0.332227,-0.245579,-0.554849,-0.97327,-0.481856,0.939252,-0.847129,0.397604,0.698702,-0.95952,0.898394,-0.457206,0.565165,-0.595316,0.950178,-0.438166,0.73617,0.0569683,-0.0317416,-0.220744,-0.171494,-0.0749881,0.828052,0.117239,-0.695489,-0.66331,0.467074,0.541358,0.143201,-0.626013,0.331501,-0.831723,0.307614,-0.909599,-0.2055,0.468136,0.43801,-0.823231,0.565447,0.473165,0.957895,-0.0512453,-0.357429,0.660571,0.808578,-0.7274,-0.418361,-0.321359,-0.602264,-0.791095,
0.775651,0.711435,0.196852,-0.477089,0.61707,0.607125,0.11505,-0.248108,0.783459,-0.917158,0.460673,-0.136207,-0.124386,-0.323745,-0.397153,-0.131676,-0.635024,0.894612,0.631391,-0.840927,-0.66791,0.494396,0.70802,-0.355492,-0.664923,-0.541726,0.417615,-0.53918,0.622775,-0.30927,-0.0443697,0.605154,0.398906,-0.843311,-0.500136,0.39047,0.500307,0.164858,-0.811541,-0.570689,-0.322856,0.552305,0.351181,0.185006,0.771516,-1.02677,-0.426042,0.519218,0.935555,-0.0787344,-0.797955,-0.319448,-0.653024,0.250739,-0.129283,-0.596167,0.447851,-0.300868,-0.740213,0.451588,-0.438594,0.149707,-0.254278,0.904011,-0.167937,-0.523374,-0.887149,-0.444126,0.333842,0.698953,-0.0262769,-0.081182,-0.811482,-0.917639,0.666553,-0.145038,0.805237,-0.832368,0.194156,0.490022,-1.00693,0.614196,0.321344,-0.513679,-0.308715,-0.97878,-0.485654,-0.325148,-0.784112,-0.163381,-0.587389,-0.329263,-0.836792,0.960951,-0.20552,0.243367,-0.772641,0.143484,0.401096,0.812642,-0.883038,-0.728079,0.958225,-0.850657,-0.530569,-0.483968,-0.515055,0.0279903,0.969384,0.675081,0.611106,-0.405853,0.0657695,0.383913,0.507643,0.366786,0.324535,-1.0094,0.866457,-0.399014,0.834209,-0.35774,0.475967,-0.722165,-0.707866,-0.503409,0.645727,-0.694108,0.772889,-0.824751,-0.288273,-0.455705,0.146285,0.683312,0.927715,-0.805437,0.744072,-0.0938942,-0.195705,0.602823,-0.540755,0.62899,0.978617,-0.510387,0.172333,-0.248643,0.572548,0.969777,0.885717,-0.648321,-0.862522,0.981804,0.582935,-0.265832,-0.98498,-0.0672489,0.26115,0.847311,-0.546855,0.450181,-0.14013,0.229264,0.764665,0.44111,0.631815,0.413103,0.94444,0.423009,-0.12538,0.672414,0.428621,-0.905868,0.252092,-0.769457,0.869122,0.86114,-0.146609,-0.630751,0.435038,-0.248734,0.87881,0.558525,-0.76051,0.372732,0.571128,0.385867,-0.262685,0.266744,-0.956167,0.320578,0.0613301,0.124171,0.684612,-0.670494,-0.868723,-0.78381,-0.857364,-0.819511,0.0291935,0.575473,-0.286406,0.823612,0.0576182,0.571093,-0.569897,-0.58165,-0.762472,-0.595486,0.46424,0.762645,0.491029,0.612042,-0.164423,0.599373,0.120035,-0.335609,0.635437,0.143749,-0.365644,0.0536089,0.359018,-0.785785,-0.555206,0.26172,-0.885516,0.0992992,0.200787,-1.02725,0.557918,-0.0920729,-0.26996,0.713114,0.376218,0.366792,0.606304,-0.773085,0.876217,0.671419,0.477361,-0.543357,-0.973071,0.652725,-0.87048,0.599427,-0.40648,-0.624395,0.596614,-0.218956,-0.118196,0.21976,-0.332671,-0.473845,-0.186389,0.65147,0.290396,-0.258988,-0.470775,0.322412,-0.837224,0.2438,-0.376536,0.883411,0.202202,0.934097,-0.0864725,0.557679,-0.0971359,0.0740289,-0.87886,0.100567,-0.468656,0.561467,-1.03875,0.263325,0.270022,-0.654127,-1.0111,0.170488,0.473813,0.0593584,0.196439,0.238491,0.505827,-0.552617,0.1002,0.690074,-0.461031,0.460341,-0.100691,-0.989457,0.0897825,0.451697,0.587168,0.724157,-0.333242,0.313667,-1.07012,0.530017,0.175326,-0.592267,-0.314154,0.956863,-0.106802,0.298279,0.261669,-0.371576,0.348567,0.907044,0.722352,0.302491,0.20726,0.183241,0.77287,0.28985,0.39514,-0.0714967,0.514931,-0.883431,0.244795,-0.495286,0.0951082,0.0488456,-0.239131,-0.526895,0.537706,-0.282773,-0.893991,-0.65201,-0.611262,0.56433,0.441803,0.838665,-0.0544972,-0.935048,-0.129945,-0.21597,-1.05081,0.691503,-0.220019,-0.50837,-0.533057,-0.103959,0.303893,-0.80361,0.19625,-0.52462,-0.457625,-0.978174,0.122733,-0.74158,0.648316,-0.810038,0.907852,0.379258,0.313392,-0.174071,0.318875,0.929258,-0.519152,-0.505115,0.652785,0.335678,-0.595419,-1.05325,-0.559494,0.104111,0.773971,-0.335535,0.723321,-0.711882,0.904205,-0.915555,0.602603,-0.897368,-0.253945,0.721132,-0.446753,0.259947,0.695554,0.455262,0.290046,0.303697,0.426985,-0.0771133,0.374018,-0.798246,-0.774278,-0.777311,0.184825,-0.469405,0.0299879,0.110086,
-0.326606,0.944547,-0.33693,-0.850776,0.494354,0.448446,-0.0913975,-0.816364,0.757508,0.929208,0.22028,-0.340887,-0.907939,0.283102,-0.398292,-0.94551,0.0673797,-0.617827,0.411032,0.655858,0.0257908,-0.311296,0.352482,0.184935,-0.275871,0.0945666,0.456423,-0.0835212,-0.226054,0.98289,-0.984981,-0.0906343,-0.63035,0.283455,0.740154,-0.895224,0.438621,0.090345,-0.845404,-0.104906,0.95205,0.610548,0.386796,-0.356759,0.295715,0.664077,-0.9338,0.869765,0.835008,-0.106352,0.52193,-0.842723,0.78386,0.775152,0.499971,-0.754667,-0.106106,-0.715928,-0.126247,0.0506343,0.813596,0.324761,0.0969209,0.368271,-0.910842,-0.609299,0.550917,-0.886824,0.961996,0.555981,0.17108,-0.225937,-0.337779,-0.0890655,0.547808,0.838719,-0.379611,0.223806,0.464562,0.82582,0.631026,-0.514102,-0.606305,-0.465075,-0.860591,-0.751432,-0.193324,-0.45178,0.0895415,-0.339527,0.0648402,-0.475895,-1.0205,-0.308545,-0.943888,-0.794509,0.747579,0.843508,-0.289191,0.531121,-0.967113,0.255812,0.520119,0.435548,0.701833,-0.447084,0.815951,0.295233,-0.274104,-0.933054,0.94978,0.436554,-0.8305,0.684374,0.0395206,0.929288,0.169743,-0.131133,-1.00866,0.260013,0.657787,-0.778953,-0.230131,-0.0685768,-0.396928,0.273547,-0.112775,-0.237784,0.915895,-0.53656,-0.13372,-0.685827,0.0486768,-0.839934,0.563086,0.0391951,0.768688,-0.493326,0.0604344,-0.0835074,0.660086,0.175247,-0.852051,-0.972087,-0.647573,0.38231,0.999322,0.871162,0.975343,-0.808614,0.653042,-0.701619,0.654293,-0.495349,0.0260748,-0.373873,0.0343288,0.877995,-0.449281,0.867849,0.79113,0.903745,0.223678,-0.257237,-0.375968,-0.831188,-0.131872,0.0487643,-0.0549393,-0.145806,-0.179022,0.345516,-0.480505,0.579023,0.341833,-0.657375,-0.770378,0.232443,-1.04268,0.388992,-0.440257,-0.622864,0.408275,-0.346517,-0.640034,-0.141717,-0.249415,0.692308,-0.216375,-0.108756,-1.05162,0.71026,0.546648,-0.608333,-0.976756,-0.14737,-0.671781,0.629099,0.739482,-0.237604,-0.709345,0.936082,-0.856121,-0.487934,-0.358764,-0.33632,-0.83681,-0.437838,-0.726126,-0.193006,-0.0864013,-0.208498,0.229882,-0.23953,-0.592451,-0.29465,0.289003,0.588374,0.574598,-0.752784,0.352277,-0.985963,-0.0471005,-0.761889,0.661321,-1.04287,0.450057,0.37361,-0.375834,0.816189,0.92253,0.0548128,-0.631002,0.674114,-0.789135,0.483607,0.252425,-0.390688,0.323849,0.0332731,-0.608668,0.865461,-0.651309,-0.705246,-0.0667315,-0.658793,0.818707,0.996726,0.0303614,-0.368292,-0.844151,0.700589,-0.792973,0.211716,0.145011,0.274974,0.249862,0.307278,0.595692,-0.132762,0.939861,0.532983,-0.745342,-0.15312,-0.0354825,0.783232,0.618375,-0.0656745,0.151777,0.973562,-0.582119,-0.948935,0.251493,0.563523,-0.359331,0.516269,-0.505849,0.74437,-0.560438,0.333084,-0.490646,0.99968,-0.955219,0.219945,-0.466598,0.838473,0.545,-0.68176,0.937669,-0.44547,-0.239293,0.611482,-0.271849,-0.21043,-0.0761105,-0.229506,0.361318,-0.705229,0.707633,0.179385,0.784982,-0.367964,0.726444,-0.753265,0.663235,-0.291788,-0.921449,0.75447,0.275844,0.0282574,-1.01491,-0.882566,0.293446,-0.672349,0.633306,0.749041,0.985063,-0.564939,-0.303916,0.945051,0.21966,-0.909682,-0.680746,-0.173105,-0.731164,0.968933,-0.678777,-0.279453,-0.948817,-1.02276,0.813177,0.689564,-1.0401,0.494115,-0.900134,0.937081,-0.368386,-0.869829,-0.673001,-0.488732,0.782337,-0.314482,-0.0419771,-0.503514,0.733237,0.226583,-0.19948,-0.999344,-0.782635,-0.253741,-0.97899,0.84,-0.900456,0.551635,0.441271,-0.192036,-0.898805,-1.00007,-0.383024,0.451883,0.574312,-0.632092,0.290736,0.539702,-0.151873,-0.318587,-0.202113,0.823218,0.931401,-0.063964,0.941092,0.534153,-0.0253641,-0.737078,0.637324,0.53872,0.838297,-0.601866,-0.712407,-1.02958,-1.01606,-0.202595,0.770843,0.64989,-0.201884,-0.0942657,-0.462524,-0.696826,0.540773,-0.565594,-0.418306,-0.387947,
0.80641,0.418715,-0.948791,-0.9239,-0.626861,0.779288,0.571586,-0.122713,0.500388,-0.553672,-0.189523,0.782489,0.495435,0.194634,-0.889434,-1.04183,-0.355747,0.976335,0.86554,0.236632,-0.075535,0.865516,0.300461,-0.174327,0.730389,-0.902997,-0.294074,-0.292503,0.262687,0.57619,0.789522,0.867418,0.320274,0.640766,0.653727,0.701202,-0.528751,0.434811,0.82389,0.759468,-0.947465,-0.528474,-0.0993594,0.432559,0.684263,-0.329266,-0.0626841,-0.891103,0.426196,0.419981,0.960286,-0.998897,0.900672,0.321828,0.572919,-0.694743,-0.452459,0.646691,-0.380712,0.20621,-0.600686,0.274731,-0.276817,0.937928,0.205797,0.540498,0.105963,-0.981033,-0.620357,-0.509479,-1.00823,0.484262,-0.954467,-0.0687379,-0.433971,0.428015,-0.403251,0.710599,-0.698783,-0.26272,0.926373,0.389152,-1.07114,-1.0494,0.733301,-0.7044,-0.652757,-0.875171,-0.128999,-0.0326612,-1.00811,0.100263,0.741805,-0.102775,0.140407,-0.0444275,-0.432278,0.518513,0.869478,0.362355,0.560786,0.693968,-0.262004,0.253455,-0.588444,0.790377,-0.544662,-0.534335,0.202542,-0.319214,-1.03993,0.943338,-0.616622,-0.788063,0.050996,-0.185276,0.650952,0.919066,-0.918602,-0.490977,-0.851408,-0.0400922,0.834849,-0.933155,0.272275,-0.801459,0.837447,-0.165539,0.796054,0.212353,-0.636467,0.746359,-0.308969,0.352038,-0.0807495,0.836043,-0.538887,-0.829906,0.522613,0.425757,-0.874069,-0.136947,0.540644,-0.54217,0.315737,0.881965,0.551795,0.515325,-0.131081,-0.577117,-0.122325,-0.741518,-0.15253,0.627831,-0.903113,-0.585181,-0.52143,-1.00107,0.2467,-0.227334,0.0840016,0.89973,-0.426027,-0.902724,-0.171141,0.556631,-0.68468,-0.799151,-0.0479626,0.968945,-0.329109,0.560121,0.17776,-0.232395,-0.0663372,0.190357,-0.64102,-0.782496,-0.202028,-0.210689,0.126587,-0.188521,-0.596569,-0.112261,-0.323081,-0.514458,-0.311132,0.739495,0.937487,-1.02297,0.607192,0.697042,0.877982,0.574673,0.0918134,-0.0979633,0.177395,-0.389893,-0.698047,0.467293,-0.253266,0.412102,-0.742701,-0.642278,-0.861922,0.407698,-0.33722,-0.498236,0.966339,0.383161,0.87227,0.914054,0.413524,-0.981629,-0.518892,0.897592,-0.884625,-1.05505,0.142793,0.591662,0.532231,0.103191,-0.717553,0.304617,-0.088687,-0.271547,0.671368,-0.862699,0.869587,0.772408,-0.701701,0.282195,-0.819416,-0.0641283,-0.469491,-0.184867,-0.21021,-0.695121,-0.636791,0.746958,-0.675009,0.499241,0.926445,0.0274432,0.297402,-0.25127,0.456002,0.140589,0.60315,-0.996408,0.469409,-0.933398,-0.085268,0.755408,0.92129,0.573223,0.552035,0.799273,0.505333,-0.0362193,0.432627,-1.05613,0.742175,0.832751,-0.171227,0.622748,0.580665,-0.78955,-0.49486,0.467281,0.349753,0.563359,-0.654539,-0.855594,-0.957576,-0.867499,0.79051,-1.03478,-0.312292,-0.335699,0.948914,-0.797794,0.875589,-0.415073,0.251971,0.484032,-1.08809,-0.341962,0.0839372,0.893731,-0.248858,-0.975605,-0.997893,-0.496807,-0.436986,-0.198749,0.268383,-0.385958,0.499136,0.83166,0.308267,-0.749609,0.727906,0.118398,-0.275796,0.716288,-0.550118,-0.186176,0.308786,-0.468189,0.840731,-0.527808,0.788341,0.337865,0.464006,-1.01537,-0.855437,0.67588,-0.101006,-0.228851,0.62804,-0.0330096,0.660555,-0.528184,0.869325,0.852288,0.760274,0.650986,-1.03546,-0.905384,0.101612,-0.214424,0.460992,0.674688,0.724215,0.725233,-0.224257,0.245446,-0.481651,-0.931927,0.114943,0.852153,0.599578,-1.07861,0.877705,0.370654,0.800291,0.455161,0.921146,-0.327178,-0.172153,0.69818,-0.999181,0.258309,0.775788,-0.764968,-0.921167,0.662922,-0.521779,-0.51354,-0.181654,0.496368,-0.203748,-0.221891,0.126888,0.0583169,-0.369138,0.250875,-0.480297,0.568776,0.932619,-0.865937,0.0506845,0.22423,0.378329,0.906368,-0.32264,0.437393,-0.256564,0.815014,-0.76137,-0.24438,0.745882,-0.118677,-0.456059,0.436,-0.692956,0.739424,-0.976132,0.840162,0.505955,-0.387547,
0.495196,-0.976129,-0.56025,0.264633,-0.0780373,-0.898235,0.0958785,-0.462829,0.248592,0.117774,-0.471473,-0.351595,-0.879405,-0.542306,0.352978,0.351368,0.696362,0.16873,-0.0506668,-0.0622683,0.894587,-0.950816,0.155817,-0.0651765,-0.717033,0.790932,-0.849936,-0.0690147,0.971334,-0.70018,-0.927659,-0.250616,0.186841,0.591056,0.68603,0.934156,-0.30411,0.942126,-0.772085,-0.616098,0.925253,0.532726,0.862818,-0.627387,-0.985963,0.722911,-0.132923,0.0257975,0.301044,-0.821848,0.657378,0.151869,-0.422379,0.716829,0.444554,0.506064,0.331755,0.218686,0.0366413,-0.283457,-0.137612,-0.669025,-0.605018,0.426886,-0.952774,-0.487105,-0.162536,0.1855,0.944423,0.897914,-0.133092,0.536293,0.74597,0.133452,0.668814,-0.278248,-0.162063,-0.150006,-0.64189,-0.845312,-0.911439,-0.252298,-0.543344,-0.318439,0.927418,-0.497769,-0.873813,0.100135,-1.00254,0.612145,-0.264089,0.279862,-0.932943,0.859011,0.0811995,0.647607,-0.96786,0.118101,-0.477972,-0.838029,-0.526705,-0.296228,-0.323401,0.958624,0.127975,-0.649273,0.654238,-0.198389,-0.653193,0.467059,0.768174,-0.120552,0.932423,-0.317188,-0.959975,0.645219,0.76768,-0.0885153,0.863632,0.932409,-0.586747,0.550909,0.801067,0.52131,-0.704512,0.925406,-0.719595,-0.78661,-0.444747,-0.193922,-0.569014,-0.976141,0.0563484,-0.0923307,-0.144364,-0.44273,-0.797258,-0.998075,0.837325,0.79046,0.45269,0.873756,-0.339631,0.905892,0.832778,-0.943373,-0.073779,-0.333415,-0.255285,-0.204507,0.0651556,0.658846,-0.77912,-0.478362,0.41578,0.0776824,-0.447156,-0.0410914,-0.0629689,0.915009,-0.445985,0.708449,0.537197,-0.079001,-0.433229,-0.438328,0.229084,0.225259,0.0934801,-1.01557,0.85818,-0.992117,-0.789826,-0.421452,0.324429,0.654812,-0.179418,-0.670968,0.105722,0.864502,-0.49348,-0.0957433,-0.544875,0.372873,0.822214,0.118988,-0.751825,-0.927144,0.414641,0.909794,-0.620836,-0.819182,0.499389,-0.30223,0.288777,-0.478228,0.0767398,-0.581008,0.249286,0.783693,-0.822594,-1.02792,-0.680853,0.913047,-0.145531,0.121015,-0.436257,-0.206064,0.137509,-0.306071,-0.148293,-1.00236,0.087705,0.491702,0.707969,-0.868273,0.231294,0.290231,0.695058,0.164781,-0.26398,-0.794075,-0.152781,-1.02827,0.743976,0.3225,-0.561281,0.139224,0.686958,0.579771,-0.039861,-0.316221,-0.611184,0.934114,-0.0885995,0.907636,-0.846182,0.884456,-0.273236,-0.635073,0.438555,-0.807088,-0.277462,0.27287,-0.916664,-0.661836,-0.413103,0.557545,0.622937,0.992659,0.396023,-0.687866,0.862465,-0.0948942,0.897872,0.629702,-0.239458,0.571392,-0.715814,-0.761665,-0.460698,0.965385,0.598734,-0.44308,-0.967449,0.653707,-0.80526,0.918495,0.13221,0.375679,-0.375383,0.574534,-0.815477,0.361385,0.14793,0.304641,-0.63131,-0.502091,-0.489667,0.714424,0.428928,-0.865772,-0.662951,-0.975323,0.318095,-0.33021,0.378429,-0.788774,-0.106239,0.590947,0.519247,0.644074,0.218246,-0.393917,-0.267758,-0.774143,0.646913,-0.68638,0.636405,-0.872283,0.809848,-0.939488,-0.810337,0.345204,-0.458234,-0.819862,-0.881263,0.569242,-0.268271,-0.453025,-0.873541,0.0864051,0.910894,0.636015,-0.065632,-0.162236,0.339155,0.145562,0.648684,-0.898049,0.034112,0.323104,0.705493,-0.985717,-0.75396,-0.765948,0.0317422,0.439105,-0.189365,-0.328566,0.61601,-0.0760019,-0.156773,-0.399337,0.293783,-0.601557,0.607435,0.658519,-0.144166,0.272609,0.524476,-0.379119,-1.00698,0.17954,-0.293986,-0.894279,-0.804985,0.0925312,-0.366112,-0.802276,0.20594,0.740972,0.795835,0.0734901,0.317883,0.0808459,0.566621,-0.968955,-1.01385,-0.589153,-0.0522533,-0.972959,0.891469,0.0732002,-0.538365,0.0274691,0.605966,0.231435,0.216236,-0.905474,-0.372436,0.615911,0.875095,0.82046,0.599333,-0.860174,-0.675384,-0.15724,0.150005,-0.671198,0.900139,-0.628459,0.150011,0.353005,-0.609333,0.782778,0.507591,0.0314139,0.855862,-0.636961,0.736381,-0.550769,
-0.544973,0.361609,0.745011,-0.549354,0.226225,-0.642338,0.956097,0.315873,-0.834893,-0.156067,-0.63606,-0.37018,0.9698,0.789334,-0.147433,0.7515,-0.195148,0.630812,-0.73826,-0.958996,0.406452,0.555351,-0.962765,-0.959527,0.0995909,0.179748,0.788519,-0.502335,0.150254,-0.98232,-0.906263,0.565512,-0.826406,-0.714943,-0.537459,-0.892163,-0.238826,-1.01238,0.799569,-0.585833,-0.664908,-0.728747,-0.833012,-0.726408,-1.04225,-0.116584,-0.471507,-0.653043,0.463121,0.524184,-0.820609,-0.540855,-0.360011,0.157903,0.921909,-0.0995771,-0.821741,-0.748893,0.708617,0.626815,-0.890473,-0.748083,0.132373,-1.04368,0.501922,-0.813495,0.456959,0.817817,0.492578,0.220989,-0.26401,0.907188,-0.828301,-0.689598,0.901929,0.871094,0.203145,0.101637,0.459642,-0.728765,-0.998593,0.650609,0.526267,0.319846,-0.0525517,-0.516144,-0.598878,-0.124597,-0.667328,0.917749,0.989403,-1.02646,0.604607,-0.323956,-0.278964,-0.447992,-0.325714,-0.0670493,0.419252,0.239499,-0.12503,-1.02624,0.120822,-0.489223,0.707282,-1.00333,0.502849,-0.137012,-0.60487,-0.086877,-0.403738,-0.64971,0.0261761,0.746037,0.10957,-0.863034,-0.089834,-0.751654,0.538443,-0.248474,0.432153,-0.122227,-0.712649,0.904854,-0.757294,-0.62322,0.69617,0.19934,-0.402976,0.0346994,0.881912,0.856385,-0.559686,-0.337761,-0.183691,-0.651976,0.485064,0.255235,-0.821933,0.220746,-1.00885,0.638665,-0.552505,0.141414,-0.428035,0.375712,0.340044,0.0352391,-0.363932,0.133741,0.29318,-0.693146,-0.290746,-1.02144,-0.746761,-0.28493,0.35511,-0.830596,-0.364456,-0.859691,0.203489,0.30987,0.710204,0.523808,-0.502351,0.0273034,0.292057,0.11585,-0.620483,0.930317,0.565343,0.864866,0.455967,-0.829143,-0.135816,-0.978747,-0.440544,0.216813,-0.439735,0.709489,-1.03373,0.884055,-0.6104,0.401427,-0.117641,0.288313,-0.292304,0.962115,-0.162852,0.457731,0.801981,0.449708,0.323163,-0.333816,0.72709,0.545793,0.777594,-0.798726,0.645913,0.963784,0.18449,0.882656,-1.0525,0.640308,-0.900687,-0.414034,-0.751387,-0.452625,-0.632293,-0.460852,0.866231,-0.92399,0.464727,0.862644,-0.303311,0.128497,-0.0778244,0.526934,-0.424689,0.56641,0.0576848,-0.710482,-0.103509,-0.919933,0.492138,0.409949,-0.809007,-0.715325,-0.056524,0.557183,-0.588494,0.428903,-0.526377,0.843142,-0.607892,0.861101,0.445698,0.879834,0.679471,-0.138607,-0.810592,-0.904055,0.843267,-0.254998,-0.613364,-0.152206,-0.508842,-0.458792,0.434711,0.784214,0.507929,-0.691043,-0.0552769,0.623209,0.90631,0.90487,-0.925762,-0.0508742,-0.157103,0.575595,0.495278,-0.916322,0.307928,-0.293178,0.368183,0.324032,-0.733214,-0.20446,0.67195,0.248544,-0.111022,-0.669039,0.220953,0.95303,-0.911115,-0.903826,-0.374189,-0.13232,-0.168989,0.0679442,0.544939,0.135227,-0.120401,0.613617,-0.835695,0.192857,0.952173,0.731799,-0.64741,-0.620457,0.767307,0.891838,-1.01708,-0.680533,0.45647,0.851875,0.785209,0.155539,-0.895486,-0.680087,0.566909,-0.966885,0.413802,-0.552059,0.902475,-0.122419,-0.968664,0.615936,0.377045,0.83951,0.415144,-0.259701,-0.456563,0.261885,-0.311456,-0.230541,-0.600174,0.196395,0.863977,0.614113,-0.929437,-0.498099,0.0660782,0.770791,-0.0798284,0.733099,-0.650445,-0.629845,-0.621209,-0.181738,-0.745288,0.16316,0.0603527,-0.304135,0.168617,0.527986,-0.561623,0.824595,-0.0813158,0.0880686,-0.371222,-0.186513,-0.910553,0.401227,0.436683,0.87529,0.607321,0.284472,0.350441,0.252199,-0.791665,-0.883153,0.738214,0.516499,-0.366372,0.255232,-0.119198,0.954286,0.548168,0.222567,0.30533,0.479429,-0.65139,-0.268415,-0.301152,-0.684982,0.866783,0.29527,0.355007,0.951131,0.0640098,-0.531978,-0.575237,0.371692,-0.21276,-0.999061,-0.28506,-0.134942,-0.424486,0.193904,-0.597421,0.815051,-0.69873,-0.635621,-0.99844,-0.802316,0.0547897,-1.04931,0.362153,0.399684,0.752632,0.316999,
-0.818191,-0.760894,0.710717,-0.603837,-0.795348,0.423755,0.85274,-0.238192,-0.451659,0.243029,0.893343,0.167193,0.101558,0.783709,0.117016,-0.660265,-0.588561,-0.889304,-0.79001,-0.508314,0.890022,0.343699,-1.02346,-0.691198,-0.160086,0.935639,-0.871464,-0.337932,-0.518134,0.18897,-0.528497,-0.65852,-0.988414,-0.0953586,-0.0242771,-0.539394,0.41402,0.686337,0.523293,-0.866051,-0.0631146,-0.741777,-0.611846,0.0943073,0.230043,-0.165003,0.527781,-0.373902,-0.175936,0.132879,0.21767,0.228541,0.67722,-0.972392,0.608766,0.176097,0.65113,0.0804584,0.642227,-0.659315,-0.488454,-0.652298,-0.62718,0.166432,-0.46524,-0.0504774,-0.90141,0.805874,-0.477715,0.914523,-0.996308,0.176969,0.835372,-0.225812,-0.578787,-0.603687,-0.870197,-0.630497,-0.119314,-0.0705053,-0.122705,0.564328,0.88131,0.722963,-0.358492,-0.0937292,0.893006,-0.487858,-0.445999,-0.604952,0.842028,0.57831,0.729669,0.873271,-0.35415,-0.519962,-0.14767,0.68115,-0.666557,-0.319656,0.554443,-0.356807,0.358646,0.265535,-0.736018,0.421334,-0.31808,0.641349,0.0571035,0.0413149,0.557751,-1.01663,0.155068,-0.0270587,0.277749,0.960636,-0.197007,0.550407,0.541715,0.878353,-0.792073,-0.643174,0.270568,0.912982,-0.970494,-0.818946,0.579783,-0.0517644,-0.298272,-0.83047,0.208779,0.684901,-0.4449,0.543411,0.240467,-0.0401498,0.468715,-0.882678,-0.706761,0.368081,0.127089,0.685594,-0.176001,0.347086,-0.502478,-0.429759,0.729222,0.572965,-0.970822,0.325431,0.388671,0.563702,0.234411,0.0367204,-0.881669,0.492788,0.46764,-0.492061,-0.391368,-0.668086,-0.790115,0.648127,0.441404,0.253605,-0.541764,0.150406,0.165387,-0.956882,0.50843,0.957096,-0.758039,-0.817673,0.151169,0.219278,0.456366,-0.870125,-0.543505,-0.926031,-0.635844,0.333211,-0.328341,0.339181,-1.03643,-0.837984,0.55622,0.434757,-0.450763,-0.160829,-0.772432,0.237183,-0.917242,0.789595,-0.12124,0.0641342,-0.733921,-0.46127,-0.685903,0.799503,-0.346918,-0.499476,0.099723,0.692728,-0.662892,0.501822,1.01162,0.698063,0.815925,-0.760916,-0.479132,-0.161995,0.441906,-0.394978,-0.698209,-0.405654,-0.945888,0.0526985,0.381673,0.322647,0.13633,-0.644604,-0.475187,0.270044,-0.725826,-0.559195,0.435018,-0.0371927,-0.109187,-0.773925,-0.874622,-0.495276,-1.00085,-0.824426,0.559394,0.836238,-0.955301,-0.615779,-0.0564646,0.232292,-0.655514,0.618212,0.643948,-0.415395,0.261138,0.214356,0.313439,0.723646,-0.48139,-0.89708,-0.640778,0.0989173,0.49105,-0.270214,0.140416,-0.544062,-0.239015,0.132412,0.423867,0.814655,-0.6116,-0.484743,-0.769573,-0.98053,-0.945734,-0.786899,0.482844,0.17368,-0.528667,-0.808529,0.41967,0.481921,-0.701183,-0.445864,-0.654217,-0.0420882,0.536016,-0.0374342,-0.362602,0.739983,-0.670323,-0.0355573,0.466547,0.784806,-0.95453,0.364658,-0.108993,0.542294,-0.995314,-0.165333,0.699541,0.80417,0.284445,-0.318597,0.424816,0.691881,-0.972295,0.83233,-0.698593,0.339094,0.0426744,0.368611,0.938064,0.532408,-0.749041,0.882546,-0.67276,0.609098,0.550651,-0.499754,-0.173115,0.110068,-0.138016,-0.0443157,0.0471977,0.0300075,-0.655518,-0.329165,0.026792,0.360866,0.397367,-0.593031,-0.594389,0.585746,-0.138866,0.277056,0.153244,-0.439979,0.724322,-0.242573,0.381013,-1.01189,-0.796656,-0.931868,-0.443161,-0.288274,0.885344,-0.326923,0.163082,-0.481883,-1.03491,0.757235,0.218051,0.0479022,-0.97958,0.178698,-0.812085,-0.133372,0.548858,0.0529453,-0.948561,-0.106687,0.44643,0.177257,0.731138,-0.386359,0.922599,-0.193074,-0.31595,-0.28313,-0.591539,0.377236,0.828133,-0.578118,-0.146442,0.317154,0.220444,-0.199899,0.901292,0.745189,-0.57673,0.720151,0.180689,0.559543,-0.412798,-0.933046,0.371473,1.00168,-0.431474,-0.290232,-0.466407,0.530854,0.615062,0.592578,-0.453415,-0.030005,-1.0273,0.58791,0.835917,0.128706,0.794203,0.272208,-0.857639,-0.668312,
-0.518264,0.46239,-0.903532,0.22876,0.106667,-0.498922,-0.325215,0.38466,-0.524658,0.98073,0.545202,0.291245,-0.652848,-0.400078,-0.396648,-0.631616,-0.607518,0.210036,0.878878,0.125258,0.171624,-0.859763,-0.302219,-0.421231,0.0834466,0.755236,-0.49079,0.176891,0.472307,-0.845786,-0.33483,-0.348958,-0.0926094,0.0503336,-0.171874,0.536315,0.956632,0.584802,0.428051,-0.145435,0.80041,1.00293,-0.855074,0.473575,0.732512,0.636132,-0.725363,-0.579866,0.178982,-0.331256,-0.547698,-0.0386202,0.132426,-0.35549,-0.756317,-0.0492172,0.436901,-0.0733619,0.0883366,0.758575,0.313104,0.88178,-0.0476644,-0.714367,-0.16957,-1.01254,0.842773,0.897615,-0.387362,-0.749369,-0.77556,0.454238,0.130278,-0.10754,0.3132,0.717527,-0.101466,-0.876284,-0.284297,-0.828577,-0.552122,-0.670512,0.356032,0.374374,0.408846,0.908364,-0.750281,-0.0411319,-0.12902,0.209373,0.514493,-0.0752748,-0.33019,-1.0231,-0.599277,-0.879398,-0.125503,0.651451,-0.272753,0.195658,-0.82567,-0.442396,-0.409041,0.903786,0.155621,0.202285,-0.946473,1.01206,0.690913,0.738226,-0.68597,-0.910462,-0.914401,-0.150776,0.333258,-0.0996899,0.987,-0.672395,0.947567,-0.888907,0.707169,0.38244,-0.475192,-0.786698,-0.46331,0.290305,0.846885,0.47658,-0.309957,-0.157354,-0.241409,0.497434,0.803263,0.498018,-0.296681,-0.552655,-0.123287,-0.137488,-0.387306,0.113758,-0.866438,0.355832,0.0742015,-0.710555,0.792057,-0.446648,0.0652672,-0.359391,0.260319,0.881814,0.331946,-0.470196,0.68563,-0.915893,0.654737,0.465039,0.946981,-0.686818,-0.896778,0.61975,-0.942176,0.675695,0.490572,0.285151,-0.534485,-0.223535,-0.302999,-0.129501,0.506408,0.558059,0.535736,0.76885,-0.552203,-0.541884,-0.405543,0.232779,-0.976139,0.152478,0.404481,0.52546,0.552261,-0.367379,0.870152,-0.735574,0.810341,-0.416522,0.79714,-0.753706,0.400658,-0.323057,-0.682541,0.818104,-0.247369,0.933832,-0.467808,-0.614725,-0.375704,-0.731989,0.297625,-0.390994,-0.678759,-1.00009,0.25052,-0.290834,-1.02265,-0.684223,-0.349098,-0.720276,-0.973779,-0.346883,0.450003,-0.0545138,-0.41289,-0.812902,0.540869,-0.687298,0.311795,-0.497301,-0.443149,-0.945769,-0.990732,-0.82609,-0.181208,0.441745,0.8134,-0.763063,-0.49796,0.555029,0.659474,0.109924,-0.760623,0.517797,0.518428,0.779048,-0.870622,0.65452,-0.870178,-0.400473,-0.93866,-0.749193,-0.309512,0.824845,0.0413322,0.986427,-0.0278448,-0.140668,0.933247,-0.324678,0.615761,-0.300819,0.0342827,0.808369,-0.294433,-0.0431207,0.675027,-0.789499,0.980949,-0.0626055,0.0853909,-0.366243,0.560335,-0.414751,-0.890953,-0.379778,0.903048,-0.721005,0.462315,-0.260933,0.648744,0.70862,0.474003,0.396663,-0.779156,0.409514,-0.871786,0.728806,-0.236049,0.978031,-0.985254,-0.726973,-0.401264,0.881554,0.812531,-0.938632,0.318454,0.583009,-0.313404,0.226953,-0.790976,-0.796448,0.903821,0.648703,0.749969,-0.309556,0.461429,-0.131174,0.883032,0.903374,-0.245861,-0.161176,0.875054,0.964799,-0.977221,0.885346,-0.547165,0.941323,-0.170029,-0.802961,0.255038,-0.475515,-0.124762,0.900026,-0.277179,-0.573278,0.720718,0.951416,-0.935223,0.08081,-0.212988,-0.0962315,-0.282245,0.216781,-0.590921,0.354351,0.583747,0.0676199,0.735857,-0.659777,-0.08857,0.171059,0.479825,-0.732637,-0.0982914,0.924615,-0.931205,0.384883,-0.497508,0.803613,-0.189009,-0.179951,-0.328924,-0.82376,-0.609831,-0.869838,-0.736819,-0.734861,-0.0262761,-0.609383,0.382091,-0.544633,-0.457648,-0.0728915,0.0520502,-0.127708,-0.658599,-0.774434,-0.291206,0.0549672,0.420313,-0.791296,0.292094,-0.541129,-0.258765,0.232446,-0.0888794,0.698372,1.01537,-0.313265,0.044744,0.791991,-0.195488,0.410793,-0.524171,-0.0635898,0.802532,0.59706,-0.913099,-0.495867,0.908881,0.0681134,0.276534,-0.685789,0.494051,0.818791,-0.246233,-0.228464,1.01321,-0.314982,-0.871513,0.158546,1.00357,-0.915319,
0.123899,-0.500195,-0.457904,-0.111892,0.441517,0.988855,0.13771,-0.528688,0.384708,-0.813159,0.279982,0.0359388,-0.10787,0.297527,0.148661,0.691696,-0.102585,0.946075,0.893179,-0.404775,-0.742967,-0.103569,-0.677822,0.464906,-0.397863,-0.669648,0.739237,-0.0491227,-0.051421,-0.505153,-0.383011,-0.382479,-0.436953,-0.120732,0.790144,0.374577,0.85236,0.994581,-0.125417,-0.728306,0.195001,0.0727679,-0.476486,0.620018,0.797377,-0.399211,0.683231,-0.951026,0.136718,0.957464,0.439272,0.567613,-0.87786,-0.252278,-0.661577,0.688329,0.706236,-0.914934,-0.0795957,-0.426528,-0.418719,-0.585512,-0.518133,0.322041,0.413096,0.776542,0.492394,-0.396818,0.605762,0.0518875,0.396723,-0.938317,0.501487,-0.849262,-0.240159,0.790868,0.530226,0.349718,-0.203462,-0.286014,-0.394821,-0.846123,-0.160449,0.161658,0.32802,-0.408316,0.0884627,0.396431,0.73099,-0.781462,-0.772084,-0.848224,-0.844069,-1.02814,0.366237,0.0990028,0.442414,-0.247459,0.168789,-0.0522365,-0.65329,0.12216,-0.657493,-0.541315,-0.748578,-0.0634205,-0.660298,-0.638735,-0.39408,0.62096,0.796509,-0.0671088,-0.982094,-0.46743,0.0280689,0.628445,-0.573986,0.569456,-0.741031,0.540638,0.978747,0.965944,0.52174,0.805747,0.664963,0.845221,0.987285,0.0518465,0.922709,-0.376644,-0.930106,0.99696,-0.942032,0.37865,-1.00469,0.231263,-0.519287,-0.289985,-0.578945,0.0865864,0.481506,0.891225,-0.0811906,-0.232345,-0.265014,-0.837015,0.990226,-0.947752,-0.908436,0.588635,0.128861,-0.465668,-0.260102,0.835997,-0.327102,-0.129001,0.599139,0.625559,-0.869215,0.918086,0.256398,1.00236,0.557662,0.450992,0.425725,0.774051,0.10158,-0.0317673,-1.01701,0.104989,0.975625,-1.00426,0.0438211,0.258796,-0.96527,0.407247,-0.762596,0.0900061,-0.250561,0.897777,0.626034,0.852893,-0.967406,-0.272086,0.594979,-0.92576,0.334622,-0.335744,0.170128,0.927998,-0.737761,0.0636637,0.878214,0.51599,0.682067,0.847316,-0.777477,0.68104,-0.625354,-0.4547,0.616783,-0.34493,-0.902528,-0.820355,0.545253,-0.104891,0.771152,0.141221,-0.948797,0.32131,-0.79164,-0.733338,0.0710934,0.607239,0.86528,0.0330583,-0.434564,0.827677,-0.0630494,-0.752288,-0.128859,-0.0697587,-0.681853,0.950451,0.776241,0.692662,-0.843799,0.940962,0.186601,0.543258,0.369837,0.610954,-0.432773,0.717024,-0.424422,-0.338084,0.805293,0.604692,0.370822,0.0771686,-0.435288,-0.795035,0.21675,0.635716,0.697779,-0.443415,0.59767,0.957821,-0.416969,0.352385,-0.071227,0.500521,-0.184264,0.88675,0.499771,0.257385,0.11512,0.243387,0.372714,-0.914962,-0.472326,0.485505,-0.257859,0.698052,0.555798,0.620584,0.853302,0.421954,-0.367202,0.565066,0.758979,0.646251,0.640354,0.350686,-0.35605,-0.776514,-1.02524,-0.614677,0.0939386,-0.188844,-0.213465,-0.581758,-0.801418,0.7739,-0.623796,0.716357,0.885674,0.225867,-0.909467,-0.507373,-0.741199,-0.513976,-0.259423,0.516597,0.556566,0.529894,-0.674657,0.596603,-0.632758,0.915533,-0.744913,0.492066,0.445323,-0.540035,-0.0972786,0.569215,0.828772,-0.801433,0.634951,0.171242,0.133198,0.0714963,-0.448705,0.880564,0.632929,-0.69299,-0.265109,-0.266894,0.0281179,-1.02521,0.496383,-0.776156,0.641091,0.474523,0.56645,-0.186587,-0.167232,0.802856,-0.803788,0.891098,-0.566345,0.0444172,0.0427724,-0.701478,-0.612581,0.0932036,0.168939,0.171219,0.367131,-0.636265,0.167682,-0.758679,0.767179,0.292747,0.1534,-0.547882,-0.483694,-0.0785581,-0.667188,0.645357,-0.967703,-0.716355,0.697631,-0.449714,0.343072,-0.0861867,0.141769,0.114846,0.333563,-0.317293,0.024517,-0.185082,-0.464808,-0.482751,0.462695,-0.289832,0.503979,-0.928271,0.622046,-0.12723,0.116377,-0.363019,0.506193,0.168018,-0.927539,0.31976,0.17727,-0.891109,0.893209,-0.427992,0.258202,-0.251223,-0.245874,0.342945,0.529113,0.36856,-0.895828,0.599099,0.433378,0.733532,-0.860173,-0.903882,
0.0610067,0.13581,0.363735,-0.366444,0.112352,0.552503,0.253754,-0.818674,-0.561397,0.71927,0.650055,0.495791,0.865854,-0.22212,-0.633853,-0.216215,-0.243685,-0.267211,0.643066,0.927294,0.418253,0.409601,-0.65362,-0.945295,-0.973164,0.733387,-0.650229,0.545628,0.992057,0.139538,0.17457,0.583336,0.200091,0.672678,-0.778462,0.653178,-0.440164,-0.612945,-0.252213,-0.719802,0.329192,-0.929759,-0.283698,-0.726077,0.281757,0.951861,0.881306,-0.866066,-0.279972,-0.498097,-0.304141,-0.542889,-0.665042,0.825447,0.824458,-0.19568,0.986839,-0.727609,-0.384223,-0.532589,-0.51974,-0.715342,-1.01451,-0.451735,-0.745932,0.225163,0.471312,-0.729228,0.598737,-0.57295,1.00466,0.0523036,-0.727972,0.581309,-0.823493,-0.273207,-0.426251,-0.862891,-0.818795,0.17887,0.801886,0.686367,-0.811533,0.0555029,0.896508,-0.234229,0.0774625,-0.858929,0.358884,0.870693,-0.788108,-0.18563,-0.975451,-0.892873,0.264575,-0.483214,0.883221,0.894809,0.756268,0.27462,-0.587705,0.101348,0.831499,-0.881601,-0.328482,0.724671,-0.465599,-1.01753,0.765509,-0.960137,-0.544948,0.777356,0.653203,-0.951801,0.763787,-0.516644,-1.00155,0.980375,0.296387,-0.50925,-1.03532,-0.72309,0.372579,0.685083,-0.24686,-0.284322,-0.202992,-0.135486,-0.587011,-0.307939,-0.196305,-0.439278,0.250062,-0.276346,-0.404706,-0.30378,0.493218,0.142585,0.70882,-0.48367,-0.402928,-0.910427,-0.155741,-0.206271,-0.426224,-0.647399,-1.03595,0.110387,0.429668,-0.804399,-0.643393,-0.94042,-0.608906,0.794869,-0.133811,-0.104862,0.193053,-0.795954,0.479072,0.092586,0.423759,-0.21256,-0.439892,-0.372595,0.944989,0.461367,0.249353,-1.04185,-0.602277,-0.206139,-0.613046,0.260611,0.444607,0.164552,-0.182243,-0.833484,0.675539,0.419794,-0.807844,-0.105588,-0.523236,0.021575,0.921123,-0.54948,1.00319,0.19395,0.275035,-0.54825,0.741783,0.0979739,0.0324745,0.613868,-0.431926,0.183533,-0.853513,0.300238,-0.753917,0.676575,0.553115,0.797178,0.29195,-0.532027,0.697936,0.329568,-0.182178,0.92716,-0.994997,-0.18457,-0.629972,0.888639,0.185073,-0.568238,-0.246047,0.808034,0.101868,0.0863614,-0.123727,-0.873345,0.822064,-0.223283,-0.161546,0.677425,-0.681443,-0.398323,0.106551,0.282838,0.389122,-0.591245,-0.858687,0.188975,0.721739,-0.908016,0.682655,-0.174041,-0.992756,-0.0674472,0.435124,-0.668551,0.241147,-0.756987,0.612029,0.851394,0.115992,0.177004,-0.593654,-0.609381,0.575545,0.434906,0.157198,-0.610109,-0.671796,0.139843,-0.0500499,-0.613369,-0.826875,-0.132485,0.614247,0.729968,0.605132,-0.262112,-0.269335,0.265653,0.0263899,0.718736,0.861495,0.256818,-0.177866,-0.824129,-0.830814,0.217762,-0.551563,-0.942926,-1.02179,0.151877,-0.404139,-0.206964,0.0825781,0.404017,0.753501,0.896418,0.22656,0.224956,-0.20259,-0.31396,-0.413762,0.542557,0.397521,-0.655961,0.866123,0.264417,0.0172105,-0.593161,-0.996593,0.0317817,-0.296331,-0.524911,-0.348696,0.166071,0.180331,-0.197438,-0.626075,0.635793,-0.407936,-0.207442,-0.734313,0.284516,0.938339,0.276621,-0.297469,-0.608058,0.637261,-1.02836,0.141427,0.661682,0.424478,-0.377955,-0.19399,-0.728423,0.680086,-0.621708,0.360432,-0.50917,0.745401,0.841636,0.843381,0.254293,-0.720751,-0.83043,0.512123,0.152224,0.759413,0.287872,0.198738,0.141793,0.0732793,-0.872895,-0.206817,0.436667,-0.644291,-0.918382,0.805661,0.916294,-0.976345,0.218095,-0.702863,-0.481768,0.323022,0.587213,-0.0658903,-0.210405,-0.0463747,-0.718736,0.747929,-0.55165,0.0614022,0.581328,-0.0902026,0.688586,0.536787,0.393357,-0.80461,0.418195,0.5193,0.685715,-0.240404,1.00476,-0.182424,0.856803,0.333933,0.451826,0.0624987,0.781807,-0.893215,0.114114,-0.17261,-1.01914,0.633188,0.478824,-0.0895841,0.244061,-0.571148,0.595335,0.456989,0.219199,-0.703443,-0.123277,0.0223489,0.72266,-0.971271,0.216879,0.859981,0.715091,
0.174551,-0.82832,-0.967926,-0.442411,-0.52788,-0.735284,0.955423,0.265225,0.655228,0.824803,0.166542,0.320631,-0.550658,-0.955271,-0.328336,-0.294783,-0.923458,0.327156,-0.353999,0.896451,0.75897,-0.882849,-0.431267,-0.760574,0.041244,-1.03737,-0.0595862,-0.0565489,0.690477,0.0736585,0.913265,-0.121411,-0.441825,0.114827,-0.234393,0.269389,-0.484645,0.341949,0.303464,0.751836,0.050936,0.606458,-0.245027,0.161963,-1.00292,-0.48827,-0.983514,0.611655,0.895634,-0.952218,-0.729903,-0.330078,-0.857024,-0.0660495,-0.852457,0.151361,0.787372,0.274608,-0.51395,-0.192478,-0.348193,-0.251159,0.270161,-0.401602,-0.75612,0.71442,-0.818963,-1.00111,0.656186,0.111322,0.448397,-0.827468,-0.735901,0.345696,-0.7828,0.0641301,0.0982726,-0.45292,-0.530004,-0.881847,-0.0365513,0.811463,0.921348,-0.0665551,0.117344,-0.666429,0.231798,-0.454342,0.831412,-0.312286,-0.553762,0.992805,-0.17477,-0.611829,-0.756334,0.186217,-0.555225,0.944879,0.145874,0.124838,0.843131,-0.105992,0.654913,0.546307,0.603334,0.639596,0.663966,-0.344665,1.01273,-0.90494,-0.0639286,-0.0741648,0.82111,0.212025,0.83734,0.496491,0.152809,-0.226819,-0.0439969,0.784762,0.719179,-0.821161,-0.700756,0.66525,-0.308195,0.761021,-0.858952,0.430264,-0.653941,-0.733499,0.0854187,-0.53458,0.619765,1.01201,0.793898,0.59719,0.853573,-1.02214,0.462805,0.486388,-0.263691,1.00524,-0.631621,-0.707038,-0.191197,-0.985668,0.336259,0.164313,0.406495,0.455996,-0.452231,-0.764974,0.988034,-0.1003,-0.455429,0.739476,-0.0428671,0.729309,0.898454,0.0354492,-0.883967,-0.706946,-0.0795432,-0.550419,-0.22875,-0.114933,0.591181,-0.17654,-0.378101,-0.0578727,0.0977965,0.599461,-0.782851,-0.730235,-0.478678,-0.891635,0.0884404,0.233266,0.363478,0.756391,0.663541,0.769357,0.0387865,0.323655,-0.206343,0.625266,0.437232,-0.880965,0.617153,-0.544959,0.608902,0.818198,-0.653399,-0.474565,-0.819782,-0.689939,-0.432637,0.266596,0.418401,-0.368772,0.953832,0.121145,-0.344583,0.557496,1.00442,0.752272,-0.237416,-0.0624717,0.862889,-0.275807,0.596541,0.527639,0.303518,0.507521,1.00422,0.984636,0.954182,0.42216,-0.377152,-0.800469,-0.725544,0.12175,-0.712867,-0.504384,-0.213124,-0.702281,0.492116,-0.217753,-0.711936,-0.248878,-0.209647,0.596836,0.420655,0.575372,0.572655,0.935997,-0.131919,-0.539903,-0.183133,-0.463815,-0.0310924,-0.516224,0.04761,0.70735,0.457928,-0.175467,0.191113,-0.790469,0.736274,-0.595955,-0.538879,-0.643975,-1.04043,0.806317,0.47797,-0.669849,-0.353204,0.862243,-0.382387,-0.123452,0.523553,0.726807,-0.684458,-0.612555,0.632796,0.212585,-0.340224,0.828084,-0.540059,0.693367,0.197687,-0.726173,0.267427,0.206071,-0.648643,-1.01945,-0.505881,0.55094,-0.492098,0.498462,-0.37511,0.954199,0.26028,-0.559203,0.0653577,0.86855,0.458009,0.146337,-0.182521,-0.465383,-0.526028,-0.0399463,-0.107962,-0.936596,0.445464,0.910083,0.0357697,-0.742336,-0.901109,0.829787,-0.557325,0.778775,-0.0790651,-0.786315,0.39461,0.573595,0.799441,-0.703261,-0.442882,0.267655,0.273502,0.127972,-0.384757,0.733693,-0.36404,0.325274,0.598243,-0.851407,0.290593,0.745119,-0.713454,0.895721,0.339505,0.915294,-0.289833,-0.235767,0.954206,0.940159,0.2566,0.0452133,0.831558,-0.118981,0.707172,0.426912,0.13445,-0.100138,-1.04225,-0.817886,-0.678922,0.591252,-0.0751375,-0.612133,-0.295117,-0.111405,0.430427,0.288084,-0.349836,-0.161083,0.234385,0.479596,0.160848,-0.521334,0.214761,-0.59246,0.798152,-0.813607,0.0941183,-1.00111,-0.727344,-0.764064,0.239618,0.117451,-0.0321724,-0.0888242,-1.036,-0.159193,-0.593218,-0.470068,-0.313525,-0.747407,-0.582877,0.144211,0.229199,0.925058,-0.740807,0.240441,-0.249632,0.586783,-0.633847,-0.970783,0.706098,-0.839796,-0.955753,0.630913,-1.02673,-0.734435,-0.859755,-0.372012,0.534043,0.342529,0.715577,-0.58606,
0.132752,-0.514491,0.845582,0.966576,-0.11513,0.512247,-0.743021,0.430549,0.495647,0.357343,0.225841,-0.713692,0.14052,-0.649767,0.103594,0.827198,-0.656764,0.152783,0.496346,0.116031,0.0348109,-0.192267,0.772268,-0.240793,0.891046,0.203892,0.740706,0.506339,0.54314,-0.443871,0.694751,0.802692,-0.3471,0.606214,-0.64627,-0.919715,-0.739645,-0.333215,0.324833,0.207677,-0.515379,-0.866095,0.890848,-0.857411,-0.299646,0.916126,-0.104271,-0.0574591,-0.740867,-0.533054,0.524431,0.223055,-0.388224,-0.079429,0.546679,-0.966013,-0.978463,-0.917503,-1.02809,-0.287505,0.860542,-0.107658,0.490092,-0.700627,-0.491967,0.971859,-0.760073,0.20667,-0.991809,0.932652,-0.63023,-0.113889,-0.729803,0.193202,0.884371,-0.433274,-0.961145,-0.916497,-0.477994,0.946816,0.874311,-0.732261,0.569127,-0.127319,0.927647,0.986208,-0.409907,0.287476,0.0495054,0.42302,0.216908,-0.770892,0.388868,0.185041,0.21684,0.669593,1.01987,0.696736,0.868667,-0.799243,-0.332776,-0.739705,-0.778668,0.840247,0.167427,0.706847,0.704861,-0.217523,0.157402,-0.168993,-0.711338,-0.737934,-0.918833,-0.476469,-0.564774,0.604723,0.84087,-0.277254,0.353026,0.569563,-0.464992,0.242755,0.207907,0.708222,0.926039,0.497997,0.0762543,0.899033,0.739636,0.191797,0.654291,0.184214,-0.764858,0.403754,-0.348958,0.241504,0.995533,-0.726183,-0.805996,-0.914413,-0.482283,0.40422,-0.166686,-0.337471,-0.428725,-0.462328,0.960711,0.639622,-0.324873,0.716253,-0.735181,-0.148309,0.337943,0.577454,-0.72564,-0.590302,-0.431033,-0.819007,-0.716552,-0.599256,0.166017,0.0615282,0.822532,0.937835,-0.969662,-0.035964,-0.41213,0.596305,0.276507,-0.991222,-0.731306,0.947148,-0.627984,-0.456695,0.0724753,-0.905054,-1.00837,-0.716822,-0.512095,-0.190156,0.552699,0.187694,0.205039,-0.679947,-0.624754,0.357025,-0.225347,-0.844458,-0.410907,0.0791622,-0.383206,0.623822,-0.440425,0.571362,0.746797,-0.573863,0.477441,0.19552,-0.810195,0.90254,-0.222602,-0.946769,0.0872577,0.532142,-0.846901,-0.368722,-0.195939,0.515579,-0.907402,-0.600786,0.817478,0.766762,0.150901,-0.036369,0.907889,-0.168657,-0.305148,-0.249884,-0.175666,0.874224,0.768014,0.892409,0.314773,-0.147065,0.601737,0.412703,-0.27536,-0.510101,-0.800264,-0.184785,0.695346,0.930521,-0.554956,0.0766488,-0.371922,-0.541118,-0.884251,-0.584121,0.665607,1.01144,-0.727205,0.616198,0.114568,-0.78065,0.896099,-0.421146,0.986562,0.317842,-1.02627,-0.6114,0.919981,-0.62787,0.571834,-0.908495,0.406383,0.22489,0.352872,0.967129,-0.284627,-0.288707,0.482386,-0.481502,-0.708758,-0.598379,0.951438,-0.970374,0.163409,0.8275,-0.208172,-0.583045,0.9305,0.4007,-0.881944,0.596591,-0.946482,-0.276253,-0.824445,0.570067,0.208583,-0.145613,-0.765506,0.99621,0.950483,0.138018,-0.0447885,0.924913,0.197248,-0.181669,-0.655299,-0.258358,-0.54863,0.36181,-0.750373,-0.628225,-0.466285,-0.828539,0.378796,-0.123989,0.550784,-0.0456408,-0.383929,0.0367282,0.967116,0.893765,0.516034,-0.686113,0.482504,-0.804069,0.77391,-0.525137,0.746279,-0.26232,-0.314929,-0.113532,-1.0189,0.403186,-0.339204,-0.607761,-0.935843,-0.287652,-0.922197,-0.245402,-0.488116,-0.261007,-0.862174,0.984393,0.652291,0.895646,0.32663,-1.01395,-0.562005,0.427119,-0.266376,-0.14134,-0.991538,-0.263932,-0.257715,0.891655,0.376396,-0.565602,-0.963168,-0.422064,-0.922877,0.0445404,-0.681771,-0.794881,-0.11878,-0.711328,-0.176967,-0.866673,0.980561,-0.296399,-0.342221,-0.351645,0.777573,-0.229342,-0.512036,-0.880041,-0.739612,0.343915,-0.797334,0.950408,0.0995012,-0.952399,-0.234259,0.361835,-0.193442,0.595686,0.782798,-0.371049,-0.632832,-0.864362,0.495031,-0.810947,0.210262,0.830155,0.0659163,0.321425,-0.997488,-0.710526,-0.164943,0.423666,0.28139,0.852551,0.345384,-0.0481056,0.625632,-0.634494,0.846236,0.214729,0.491351,-0.0417315,
0.266754,0.322993,0.687146,0.437712,-0.0967547,-0.669185,-0.801483,0.595815,-0.734413,-0.085958,0.401561,-1.01759,0.966646,0.892228,0.680405,0.387912,0.0701715,-0.223042,0.938722,0.619141,-0.567824,0.661532,0.182955,-0.406246,-0.295386,0.433979,0.328776,-0.0813372,-0.39026,-0.477521,0.662983,0.995843,-0.189233,0.883482,-0.867673,-0.678767,-0.992067,-0.69047,0.555241,-0.894161,-0.169034,0.217579,-0.558819,0.682427,0.670242,-0.967704,-0.970683,0.036229,-0.459087,0.865506,-0.511147,-0.95839,0.213071,-0.391286,0.451771,-0.3443,-0.567361,0.894892,0.443638,0.788291,0.505764,-0.630403,-0.669318,0.852936,-0.313203,0.114838,-0.128367,-0.573254,0.431618,-0.434571,0.741802,0.231776,0.636061,0.817167,-0.558216,-0.108699,0.881357,-0.216263,0.853248,-0.647872,-0.385136,-0.0858186,-0.453715,-0.708136,-0.882259,0.918616,-0.437197,0.239411,0.605446,-0.617267,-0.169383,0.0340718,-0.96707,-0.953238,0.7994,-0.201859,-0.96299,-0.0933402,0.562703,-0.58169,0.817313,0.177712,0.350758,0.683671,0.440689,0.899787,-0.256563,0.387652,0.862133,0.900947,-0.777656,0.441264,0.261501,0.541886,0.188927,0.797033,-0.365665,0.855723,0.635665,0.0311499,0.700883,0.54548,-0.886524,-0.978041,-0.842336,0.560862,0.927032,-0.110628,0.704397,0.0546971,-0.649055,-0.978654,-0.69434,0.950238,-0.414118,0.382586,0.425918,0.883503,0.706948,-0.91974,1.01587,-0.201901,-0.37981,0.061896,0.69295,0.0376026,-0.930878,0.185343,-0.341853,-0.89017,0.174799,0.425573,0.169369,0.87262,0.555355,-0.505747,-0.735614,0.135229,0.0393003,-0.795964,0.421305,0.477709,0.992621,-0.448722,0.0971075,0.108259,0.645245,-0.567183,0.0497841,-1.01457,-1.01693,0.52678,-0.144971,0.608004,-0.591459,-0.104516,-0.500354,0.609572,0.487802,0.191537,-0.616044,-0.348072,-0.698873,0.607322,0.787955,-0.0341777,0.303348,-0.649077,-0.110967,0.263116,0.995635,0.903045,0.657015,-0.893648,0.143071,-0.423081,-0.136336,0.103686,0.530225,-0.700722,-0.608265,-0.0591464,0.717906,0.381031,0.118786,0.420167,-0.809429,-0.975748,0.621289,-0.486704,-0.0772185,0.638709,0.974262,1.00656,-0.910788,0.958608,-0.31404,0.621312,-0.860744,0.0611179,-0.695977,0.850295,0.953555,-0.121843,-0.81053,-0.689804,-0.284583,-0.202349,-0.34358,-0.183218,0.216519,0.771386,-0.520884,-0.534658,0.632658,-0.43778,-0.753831,-0.648869,0.479448,0.414564,0.0258531,-0.640311,-0.996775,0.838431,0.28781,0.962305,-0.118429,-0.48674,-0.612219,0.598441,0.514368,0.887298,-0.782303,-0.412962,0.995592,0.611694,0.44582,0.154494,-0.555938,-0.440961,0.569634,0.219827,0.619815,0.117226,-0.206247,-0.0640775,0.91136,-0.07337,0.497806,-0.207916,-0.60181,0.256882,-0.517436,0.851991,-0.674068,-0.385285,0.035192,0.694261,0.99706,-0.497057,0.635764,0.544381,0.336992,0.739325,0.18058,0.159497,-0.611527,0.334707,-0.78853,-0.74431,-0.324856,-0.647874,0.543002,0.779412,0.863757,-0.799782,-0.225092,0.716358,-0.470257,-0.302878,-0.763326,0.639381,0.502928,-0.338381,-0.0434745,0.955028,0.375181,0.110146,0.460431,-0.496645,-0.695595,-0.258791,-0.377478,-0.717091,0.78406,-0.452882,-0.882691,0.0329405,0.133287,-0.521083,0.874743,-0.494627,0.876518,0.146171,-0.365012,-0.879052,-0.556298,-0.578988,-0.330957,0.0626921,-0.430288,0.142898,0.7893,0.0685252,-0.945518,0.112626,-0.780652,-0.36715,0.846141,-0.53864,0.454749,0.13226,0.952921,-0.617097,-0.726812,0.127919,0.468854,-0.521985,-0.0976643,0.443797,-0.204137,-0.32473,-0.521542,0.440243,-0.452964,0.464151,-0.181463,0.231463,-0.978622,-0.912803,0.711976,-0.119065,0.627444,0.084535,-0.426761,-0.213548,0.0792061,-0.512776,-0.305729,-0.199513,0.16561,-0.501652,-0.606944,0.126534,-0.229014,-0.70681,-0.518657,0.962807,-0.839474,-0.570393,0.620023,-0.592649,-0.822296,-0.270317,0.373657,-0.585089,-0.501181,0.244684,0.652491,-0.228295,-0.0507739,0.228975,
-0.832704,-0.656255,-0.199669,0.599185,-0.835834,-0.490216,0.290531,-0.54912,-0.419103,0.734858,-0.112145,-0.0760164,0.290997,-0.574786,-0.128142,0.780877,0.891993,-0.502108,-0.318675,0.105041,0.872553,0.47132,-0.720938,0.49523,-0.109056,-0.330863,-0.871622,0.486614,0.56826,-0.59315,0.58679,-0.680077,-0.255504,0.847746,0.788263,-0.558332,0.670291,-0.934105,0.956475,0.680565,-0.970773,-0.510866,0.33585,0.15393,-0.374369,-0.655669,-0.297017,-0.421789,-1.02295,-0.633241,-0.221428,0.106302,0.213709,-0.427089,-0.880501,0.878634,0.896048,-0.54327,-0.807586,-0.700997,0.35715,0.74414,0.587464,0.764013,-0.397519,0.543344,-0.658059,0.566108,-0.407174,-0.60856,0.389271,0.460486,-0.126781,-0.822391,0.871119,0.41075,-0.599713,-0.888794,-0.334936,-0.956362,0.570917,0.486522,-0.193345,-0.912715,0.914046,-0.502798,0.470311,0.835564,0.430241,-0.21834,-0.123843,-0.250761,0.8826,-0.575816,0.739855,-0.750545,1.01143,0.974336,0.110235,0.31163,0.787617,0.733858,0.305666,-0.235334,0.0443221,0.448554,-0.721159,0.314848,-0.527451,-0.990987,-0.094159,0.846497,0.879063,-0.1721,-0.483864,-0.328607,0.617187,0.973634,0.850966,0.17066,-0.574497,-0.265779,-0.249449,0.704327,-0.639527,0.430868,-0.687222,-0.666302,-0.648455,-0.947792,0.0647748,-0.433476,1.01172,-0.68115,0.0516328,0.267683,-0.0591244,0.117605,0.366415,-0.729009,0.678792,0.324164,-0.204013,0.357829,0.54495,-0.872929,-0.0952032,0.185353,0.718834,0.0439121,0.279073,0.356103,-0.715067,0.775467,-0.351437,0.948814,0.298037,0.34067,-0.74511,0.216558,0.658945,-0.399917,-0.374226,-0.723025,-0.171022,0.0942601,0.665434,-0.986026,-0.678493,-1.00223,0.570893,-0.525583,-0.694212,-0.863059,-0.198321,0.504536,0.572509,-0.339946,0.404845,-0.608756,0.841604,0.864077,0.940044,0.488948,0.24238,-0.19105,0.504189,-0.546001,0.0898225,0.81817,0.255455,0.202023,0.321066,0.560147,-0.295906,0.894589,-0.324397,-0.625464,0.643253,-0.0673097,-0.319751,0.330443,0.0708558,0.0276482,-0.0433823,0.899267,0.691437,-0.985944,-0.703787,-0.748402,-0.30456,-0.59108,-0.37971,-0.342561,-0.12618,0.863373,0.363684,-0.172972,0.520144,-0.707709,-0.6416,0.801146,0.3504,-0.239902,0.18397,0.0464627,-0.747625,-0.183355,-0.863095,-0.0604712,0.726328,0.202717,-0.123711,0.705393,0.486379,0.087506,-0.800977,0.340497,-0.760399,0.285486,0.08749,-0.213938,0.839423,-0.416039,-0.144448,0.833318,-0.916363,0.217609,0.583319,-0.558802,-0.420932,0.841788,0.808232,0.582932,-0.0370104,-0.432496,-0.675844,0.684389,0.85449,-0.559944,0.216451,0.559535,0.20185,-1.02321,-0.363221,-0.217958,-0.648678,0.408809,-0.125164,-0.624845,0.0771961,0.675732,0.569294,0.136274,0.579747,0.192818,-0.0305396,-0.881854,0.588316,0.0305186,0.520306,0.399792,-0.106649,-0.26903,-0.690979,0.499046,-0.308665,0.814267,0.136444,0.481375,-0.429736,-0.0930733,0.636635,0.476058,0.133322,0.537584,0.920907,-0.104624,0.129475,0.732992,0.951823,-0.900382,0.430341,0.806863,-0.131029,-0.405825,0.346335,0.623111,-0.398414,0.260988,-0.288744,0.0664473,-0.632337,-0.923414,-0.701054,0.830632,0.789196,0.958195,0.226232,0.986372,-0.955591,-0.423796,0.298348,0.270607,-0.0894829,-1.00679,-1.0394,-0.172598,0.498416,-0.518035,-0.841718,-1.03777,0.370798,0.614404,-0.258078,0.109646,-0.603974,-0.415443,0.546832,0.949054,0.181007,0.180025,0.350035,0.385073,0.672726,-0.47946,0.299034,-0.584711,-0.579776,0.477721,0.862893,-0.582928,-0.658882,0.81323,-0.255673,-0.871384,-0.706498,0.137878,0.851636,0.396869,0.638509,0.503612,0.707018,0.976845,0.202382,-0.158962,0.845936,-0.110831,-0.83646,0.179107,-0.798957,0.16846,-0.893711,-0.0774531,-0.803308,0.387191,-0.664867,-0.0952544,0.713228,-0.443999,-0.282173,-0.89654,-0.847692,-0.338605,-0.586495,0.562132,-0.765657,0.657309,0.501459,-0.902819,-1.00567,-0.766144,
0.800036,0.506755,-0.689056,-0.143886,0.225716,-0.0245969,-0.769023,0.2525,-0.456335,0.883447,-0.288421,0.122981,-0.064665,-0.414217,-0.430946,0.710053,-0.456794,-0.386582,0.0880221,0.183148,-0.281509,0.479087,-0.850319,0.820387,0.897884,-0.291374,-0.644026,-0.226203,0.984918,-0.653007,0.353244,0.444701,-0.39279,-0.703072,0.230449,-0.548717,0.253207,-0.968055,0.632008,0.581623,0.607429,0.940755,-0.78267,-0.58753,0.33251,0.143686,0.576848,0.524492,0.566795,-0.587366,-0.306369,0.915777,0.653975,-0.949208,-0.67265,-0.269494,-0.70685,0.829073,-0.489451,-0.684733,-0.46108,0.734814,0.493855,-0.0280414,-0.800165,0.869259,0.827864,0.285885,-0.145143,-0.837742,0.769897,0.374945,0.397384,-0.64314,-0.0818709,-1.04199,0.548305,-0.408873,0.650908,0.995208,-0.178091,-0.856742,0.311446,-0.490898,0.761967,-0.642664,0.334531,0.113569,0.659565,0.186801,0.403569,-0.135774,-0.349303,0.16235,0.0305782,-0.251629,0.949007,0.969616,-0.554502,-0.63564,-0.290338,-0.906402,1.00353,0.146791,0.773647,-0.191565,-0.443087,0.376307,0.14763,0.800612,-0.429902,-0.494952,-0.534441,-0.950025,-0.76173,-0.934889,-0.595194,-0.654717,-0.554505,-0.695811,0.160468,-0.677751,-0.122079,-0.606533,-0.109592,0.806457,0.633342,-0.955697,0.956993,-0.194739,0.926995,0.14487,-0.14429,0.529329,0.566488,0.354981,0.267189,0.911654,0.626715,-0.784715,0.635223,0.396523,-0.202853,-0.124156,-0.0292075,-0.118366,0.5094,0.191714,0.0264179,0.298279,0.215716,0.111964,0.830877,0.54495,-0.330688,0.868463,0.459602,-0.563234,0.0831011,0.0784412,0.986768,0.294441,0.835711,0.351429,-0.679401,0.531554,-0.351239,-0.825321,0.569039,-0.388179,0.0453551,-0.387431,0.681778,-0.233498,0.264854,-0.865627,0.363666,-0.162609,0.475615,0.470378,0.590273,0.137732,-0.765352,-0.267678,-0.815722,0.376348,0.184532,-0.0683907,-0.648408,0.144567,-0.132605,-0.925915,0.669794,-0.575947,0.609863,0.554523,0.531667,0.0691687,0.579325,-0.292347,0.718653,0.754114,-0.0670617,-0.326821,-0.513885,0.651522,0.171801,0.863208,-0.700143,-0.41517,-0.530033,0.601378,0.327426,0.842978,-0.929247,0.910155,0.637448,0.263786,0.369443,-0.963471,-0.566616,0.144539,0.782705,0.807637,-0.633472,-0.180275,0.284753,0.760875,-0.799775,-0.806881,-0.256068,-0.80951,0.499154,0.581027,-0.231368,-0.135782,-0.810886,-0.898533,0.245503,-0.222999,0.974353,-0.345739,-0.264179,0.321231,-0.749913,0.674141,0.169511,0.345341,0.988544,0.172565,0.517061,-0.650943,-0.964735,-0.62075,-0.621853,0.275768,0.770796,-0.353081,-0.100263,-0.0922828,-0.193432,-0.32673,0.954191,0.480356,0.355659,-0.276678,0.80464,-0.448709,-0.13913,0.606906,0.607221,-0.529667,-0.363694,-0.422551,0.962868,0.856597,0.626635,-0.757466,-0.50166,-0.0880335,0.534545,0.361564,0.594817,0.156166,-0.562584,-0.0298895,0.819233,0.618858,0.143158,-0.389788,-0.41141,0.61767,0.63834,-0.360097,-0.516631,0.350445,0.419464,0.93394,-0.7699,0.171436,0.567948,-0.455764,-0.644889,-0.331143,0.127157,-0.823042,0.273944,0.0441034,0.765867,-0.990873,-0.142739,0.696836,-0.444486,0.517092,-0.584352,0.906266,-0.873669,-0.640622,0.20734,-0.0381267,-0.832727,0.599293,-0.290589,0.895322,0.123314,0.0982847,-0.88458,-0.52599,-0.704056,-0.113138,-0.644578,0.981129,0.925662,0.258459,-0.872876,-1.05089,0.926028,-0.625473,0.721468,0.822087,-0.239541,-0.315314,0.100083,-0.217326,0.147737,0.568001,-0.988132,0.337234,0.037252,-0.497877,-0.285998,0.776986,0.575855,0.934815,-0.72515,-0.617006,0.878626,-0.371315,-0.346405,0.457817,-0.42691,0.104471,-0.592662,-0.775005,0.100216,0.560827,0.764797,0.17512,-0.797553,-0.035371,-0.433569,-0.960902,0.616968,0.93434,-0.123702,-1.02162,0.0439004,-0.425772,0.607871,0.743843,0.382646,-0.40563,-0.204899,-0.567445,0.915527,0.199518,0.974563,-0.0858823,0.660938,-0.691487,-0.78561,0.44468,
-0.941614,-0.379811,-0.708468,0.208931,-0.520747,-0.768092,-0.752743,-0.0450259,-0.31856,0.54044,0.0261831,0.631183,-0.673708,0.468684,0.308055,0.156454,-0.697852,-0.562316,0.216103,0.665642,0.581883,-0.32845,-0.216656,0.954789,-0.0555824,-0.183202,0.825396,0.77785,-0.942346,0.83301,-0.812475,0.471812,0.845053,-0.707486,-0.544701,0.064514,-0.245355,0.682855,-0.579335,-0.648636,0.0649352,-0.882124,-0.922284,0.792109,0.778238,0.527414,-0.532656,-0.768654,0.190276,-0.462477,0.771848,0.133753,-0.720325,0.685796,-0.986824,-0.632367,-0.123109,-0.650622,0.753855,-0.435886,-0.0760555,-0.912668,-0.741043,0.671241,0.728659,-0.819995,0.845557,-0.105684,0.163361,0.160982,-0.94624,0.192831,0.288362,0.0858557,-0.946719,0.630539,0.373677,0.386164,-0.944658,-0.713441,-0.0833564,0.375634,0.698622,-0.259913,0.239407,-0.353718,0.258852,-0.759863,0.984992,0.742807,0.416686,-0.940889,0.77858,-0.0635681,-0.766521,-0.345527,-0.911067,-0.64838,0.119864,0.704441,0.480422,-0.842776,0.411539,-0.640039,-0.745325,0.763732,-0.205613,-0.377362,-0.592989,0.247895,-0.664246,-0.379374,0.658366,-0.958839,-0.867844,0.584018,0.561928,0.165505,-0.769726,-0.814605,0.130551,0.871742,0.038623,0.290332,-0.149592,0.42341,-1.02706,0.5296,0.07223,-0.155585,0.223004,0.823185,-0.397578,-0.422996,0.894667,0.379872,0.451685,0.416683,-0.414386,0.631144,-0.413114,-0.688095,-0.812258,-0.484067,0.294063,0.832814,-0.603848,-0.770007,-0.317354,-0.748996,0.372685,-0.217116,0.37645,-0.960992,0.157128,0.715344,-0.140889,0.94016,0.362975,-0.624894,0.238219,-0.954993,-0.409371,-0.288219,0.897065,0.56999,-0.445287,-0.347431,-0.16181,0.972411,-0.808525,0.0940673,0.968518,0.885893,0.938455,0.219577,0.814716,0.589543,-0.907958,-0.12901,0.03312,0.447811,0.903546,-0.797453,0.778613,0.0934997,-0.782052,-0.927103,0.281299,-0.720653,0.819608,0.781089,0.126596,-0.707594,0.296724,-0.947524,0.449194,-0.173688,-0.0721271,0.383133,-0.95914,-0.536122,0.966389,-0.837014,0.0921823,-0.560095,0.370356,-0.399733,0.646721,-0.866931,0.137071,0.462823,0.323484,-0.834289,0.214273,-0.166012,-0.296792,-0.530627,-0.657862,-0.455243,-0.303178,0.958408,0.44211,-0.325472,-1.00997,-0.872111,0.190957,-0.836017,0.886742,-0.0615138,0.487633,0.170447,-0.465586,0.800652,-0.637382,-0.684194,0.0497094,0.417315,-0.190931,-0.331837,-0.990089,0.198663,-0.961969,0.104339,-0.0960326,-0.194464,-0.114188,-0.391867,-0.221173,-0.250113,0.315323,0.266675,-0.337334,-0.56932,0.534939,-0.614737,0.040363,-0.704957,-0.914862,-0.190413,-0.672581,-0.0303365,0.406863,-0.643041,0.218922,0.666113,-0.699515,-0.109667,0.732103,-0.861821,-0.860289,-0.512782,-0.173594,0.699912,0.73542,-0.303469,0.544263,0.284291,0.94489,0.733412,-1.0448,-0.676371,0.95538,-0.347137,0.3289,0.324667,0.601628,0.166809,-0.786395,0.571194,0.240416,0.311654,0.0457284,0.919082,-0.582829,0.176255,0.793541,-0.472832,0.0764107,0.611451,-0.153604,-0.30626,0.801267,0.0395404,0.0755025,0.305982,-0.48103,-0.727657,-0.758118,0.448427,-0.676878,-0.60416,0.394607,-0.503083,0.0323933,0.22584,0.432803,-0.0295023,0.660095,-0.371852,0.589998,0.930785,-0.970623,0.780664,0.994465,-0.556447,-0.55392,-0.876091,-0.644678,-0.275718,0.934043,0.910365,-0.227996,0.548773,-0.499518,0.670646,-0.648707,0.0531136,0.295387,-0.814601,-0.638677,-0.678386,0.921684,0.407491,-0.870984,-0.567434,-0.286866,-0.399298,0.985801,0.173847,0.916662,0.155483,-0.545938,-0.252884,-0.0887201,0.826602,-0.305003,-0.851286,0.344396,0.19183,-0.878511,0.274844,-0.6857,0.271183,0.566113,-0.925272,0.0970178,0.0529011,-0.437853,0.947059,0.554786,-0.478654,0.669155,0.270822,0.818056,-0.288288,-0.535227,-0.590297,0.917059,0.180276,-0.967423,0.686026,0.0327084,0.728622,0.854098,-0.649693,-0.0883247,-0.572585,-1.0155,0.887307,-0.222465,-0.495155,
-0.186509,0.0849761,0.238386,-0.728768,-0.218316,0.3838,0.354554,-0.196661,-0.416094,0.540302,0.675514,-0.552537,-0.292537,-0.735884,-0.414694,-0.517011,-0.356702,0.764399,-0.0698717,-0.475924,0.808379,0.984558,-0.64895,-0.464101,-1.03914,-0.601315,-0.8342,0.0324074,0.587312,0.0414021,0.0518368,0.450486,0.915522,0.900527,0.713761,0.471743,-0.792445,-0.768578,0.642179,0.405767,0.572412,0.916779,-0.704682,0.224427,-0.485689,-0.11086,0.884354,-0.103281,-0.0953381,0.540842,-0.452449,0.861012,0.48855,0.158672,-0.924418,-0.978162,0.669828,0.275321,0.903153,-0.850978,-0.165151,-0.0725034,-0.715749,-0.734042,1.0108,-0.733121,-0.22081,0.379612,0.236806,-0.32244,0.213915,-0.523404,0.92109,-0.886049,-0.69255,0.0662986,0.0910344,-0.0835599,0.691556,-0.881221,-0.893862,-0.826901,0.346809,-0.189928,-0.731284,-0.170604,0.655672,0.715723,0.889539,0.295449,0.612699,-0.721386,0.861021,-0.850387,0.267813,-0.747293,0.844238,0.165011,0.164992,-0.0801609,0.17554,-0.760922,0.568881,-0.649377,-0.092428,0.759435,0.973938,-0.482818,0.284409,0.416286,-0.277571,-0.657617,0.496596,-0.464242,0.869119,-0.575428,0.0546385,0.918096,0.499434,0.493298,0.564381,0.889012,-0.374229,-0.184856,0.511682,0.0330235,0.511926,0.983775,0.805413,-0.923973,-0.217361,0.463769,1.00625,0.289485,-0.208454,1.005,-0.786923,0.283877,0.272512,-0.602627,0.0310244,-0.548763,0.489981,0.245243,-0.519082,-0.562365,0.726876,-0.735731,0.945817,-0.33638,0.241902,0.984626,-0.280314,-0.837247,-0.150383,0.481733,-0.537209,0.893008,0.239108,0.146949,-0.360163,-0.777565,0.174745,-0.457404,0.469634,-0.925072,0.493076,0.909842,0.939703,-0.239528,-0.97661,-0.450862,-0.411613,-0.459566,-0.674124,-0.56787,0.302405,0.0575508,0.905647,-0.246252,0.754381,-0.421009,-0.832645,0.904347,-0.729796,0.326294,-0.666688,-0.312757,0.460824,-0.0298622,-0.124492,0.141923,0.662539,0.975493,-0.20069,0.159342,-0.969763,-0.15405,-0.882228,0.576248,0.246214,-0.10218,0.839359,-0.0570538,0.455067,-0.349855,-0.201824,0.698521,-0.409639,0.871352,0.418094,-0.930714,-0.494459,-0.634712,0.84102,0.71351,-0.502365,-0.85111,0.299746,0.264352,-0.0370045,-0.0469307,-0.0358529,-0.433384,-0.999973,0.299085,0.781292,1.00354,0.463563,0.31225,-0.439509,0.325298,-0.165215,0.417034,-0.868412,-0.653611,0.159835,0.605224,0.0437869,-0.132528,-0.502827,-0.817691,0.527275,0.94451,-0.198691,-0.0945856,-0.25687,-0.366118,-0.693326,0.520275,-0.81569,0.462409,0.461199,-0.92714,0.389674,-0.439344,0.129437,0.795205,-0.255578,0.412895,-0.998634,-0.931258,-0.984751,0.715875,-1.00949,0.378083,-0.464001,0.0440534,-0.950614,0.858584,-0.433531,0.54609,-0.788439,-0.0887332,0.426021,0.329053,0.711403,-0.8157,0.61107,-0.327129,0.936544,0.481352,0.0756647,-0.0946121,-0.869598,-0.761515,0.734575,0.925223,-0.549696,0.0394815,-0.911343,0.0546188,-0.0635516,0.825658,0.701214,-0.532206,1.00309,0.511852,-0.812361,0.0284543,-0.360943,-0.155969,-0.0523142,-0.96818,0.345879,0.70637,-0.963748,-0.432316,-0.608572,0.631471,-0.849763,-1.01095,-0.632314,0.691969,-0.483726,0.398071,-0.279049,0.225342,0.178352,0.726712,-1.0404,-0.81641,-0.710732,-0.416575,-0.591321,-0.927967,-0.372837,-0.442036,-0.138595,0.950183,0.0664282,-1.00374,-0.623294,-0.831958,0.181719,0.432056,-0.196513,-0.178504,-0.923372,0.354619,0.764994,0.587489,0.90309,-0.563535,-0.400872,-0.75554,-0.328516,0.746996,-0.199352,0.484011,-0.133999,-0.311625,-0.122888,-0.885609,-0.769961,-0.352924,0.365992,0.302376,-0.264584,0.852074,-0.540782,0.696453,0.930064,0.422466,0.683914,0.947098,0.589734,-0.773588,-0.745846,0.670203,0.461209,0.579338,0.211476,0.384201,0.738223,-0.794194,-0.919665,-0.464326,-0.0364975,0.31095,0.231576,0.593974,-0.0915114,-0.238069,0.713584,-0.895764,-0.292791,-0.0437648,-1.00138,-0.96616,0.85366,-0.927082,
0.535741,0.159932,0.170147,-0.394006,-0.0397115,0.579997,0.122108,0.0875743,-0.882201,-0.784543,0.300697,-0.12316,0.634989,-0.581258,0.405097,-0.448185,-0.638065,0.111421,-0.342803,-0.209727,0.920847,0.448946,0.679101,-0.0376502,-0.455285,-0.666772,-0.91836,0.182137,0.974272,-0.363184,0.110693,0.504647,-0.881754,-0.973953,0.060965,-0.387813,-0.697175,-0.247716,0.951355,0.327495,-0.889626,-0.576665,-0.363211,0.464405,0.959243,0.627435,-0.924113,0.249812,-1.01884,0.229353,-0.368192,0.831827,-0.147802,-0.639458,0.446615,0.726859,-0.553893,-1.01485,0.707339,0.57996,-0.873902,0.936457,0.928077,-0.914847,-0.347048,-0.463784,0.42681,-0.565269,-0.0838865,0.194953,-0.703448,-0.752423,0.625683,0.215904,0.935743,-0.180247,-0.31612,0.75248,0.537787,0.0665989,-0.86668,0.197817,0.492643,0.263144,-1.02989,0.332177,-0.0846615,-0.364465,0.134907,0.780952,-0.576929,0.964315,0.936836,0.0315224,-0.525964,0.0606839,-0.295372,-0.243963,0.525181,-0.356422,0.56146,-0.35041,0.244844,-0.710528,0.911297,-0.216574,0.148453,-0.476844,0.560033,0.0307181,-0.722499,-0.247141,-0.513725,0.903503,-0.107872,-0.492254,0.88417,-0.322271,0.982344,0.733821,-0.906217,0.284032,-0.145749,-0.743876,-0.303217,0.995926,0.83365,0.783212,0.3452,-0.723953,-0.72973,-0.194115,0.0338253,0.68463,-0.583876,0.300927,0.630872,0.249675,-0.203845,0.286042,-0.577055,-0.397133,-0.558342,0.57351,0.0868499,0.952574,-0.156639,0.600132,-0.350762,-0.95362,-0.929062,0.191915,0.54441,-0.40206,-0.577841,-0.706959,0.865599,0.577469,-0.506646,0.948632,-0.258766,-0.363272,-1.00186,0.0653631,0.642238,0.845602,-0.690403,0.378236,0.854585,0.447072,0.283821,-0.770467,0.0925689,0.641399,-0.681405,0.614452,0.679258,-0.592845,0.354203,0.792335,0.936608,-0.498112,0.530194,-0.122765,-0.823285,0.421992,-0.116177,0.281826,0.555407,-1.00363,0.380874,0.353657,0.146953,0.245267,0.987053,-0.219695,-0.547047,0.137997,0.262426,0.0921776,0.88895,-0.475657,-0.862834,-0.294555,0.590929,0.0866509,-0.720444,-0.306995,-0.638144,-0.686509,0.744554,0.338063,-0.311158,-0.871313,-0.405538,0.82161,-1.04348,-0.694669,0.826348,-0.456548,-0.902692,0.106997,-0.09622,0.538427,-0.669493,0.437285,-0.801849,0.332041,0.32549,-0.388504,0.298351,-0.72199,-0.78453,0.251611,0.221154,0.568683,0.256705,0.157904,-0.879544,0.302726,0.295166,-0.788877,-0.974146,0.244154,-0.982432,0.257106,-0.780969,0.181496,0.857481,-0.444459,-0.927442,0.756559,0.187818,0.493038,-0.158022,0.752226,0.853915,-0.801246,0.847965,0.350838,-0.73169,-0.985201,-0.672379,-0.462523,-0.910974,0.960815,0.981857,0.14088,-0.825541,-0.842059,-0.657386,-0.682205,0.364081,-0.762991,0.739734,-0.55584,0.181877,-0.894101,0.687837,-0.926235,-0.923038,0.680428,0.928507,-0.853606,0.530609,-0.88582,-0.810175,0.147178,0.716098,-0.0555269,0.34213,-0.811111,-1.03027,0.745669,-0.566422,0.593974,-0.578447,0.366993,0.412725,-0.929828,-0.793583,0.896742,-0.493278,0.868895,0.0861892,0.395126,-0.869392,-0.537674,0.161568,-0.820884,-0.131297,-0.350245,0.175683,0.734894,-0.206112,-0.677752,-0.670132,0.574902,-0.943443,0.929271,-0.346873,0.788418,-0.487015,0.564529,-0.465513,-0.406863,-0.538118,-0.0272436,-0.487322,-1.03262,0.962933,0.0281032,0.830461,-0.297446,-0.0342736,0.836032,0.773467,0.401467,-0.539199,-0.889488,-1.00283,0.787895,0.921156,0.398246,0.940035,0.974524,0.564612,0.843763,0.266332,-0.170543,0.673722,-0.568399,0.395526,0.514756,0.0571385,-0.173239,0.247922,0.484672,-0.72654,0.389659,0.744361,-0.805147,0.838476,0.8494,0.269302,-0.83668,-0.642628,0.404462,-0.362804,-0.0453243,-0.249294,-0.0793906,-0.347644,0.14144,-0.821012,0.32462,-0.376531,0.273861,-0.217286,0.630751,0.0750595,-0.52909,0.943613,0.0863343,0.975561,0.102509,0.953802,0.622108,-0.840992,-0.531676,0.688684,0.863844,
-0.169833,-0.881432,-0.974088,-0.725648,0.749605,-0.0762734,0.630468,-0.405799,0.967824,-0.668529,-0.613008,0.235945,-0.295263,0.500432,-0.411833,0.979021,0.360623,0.606977,0.647538,0.0259551,0.396925,-0.878515,0.965035,0.579188,-0.735724,0.964366,-0.82038,-0.224447,0.205453,-0.934799,-0.37895,0.587869,0.402682,-1.03952,0.0554946,0.375937,0.785779,0.548902,-0.889676,-0.777943,0.941291,-0.282428,-0.888309,0.142421,-0.444383,-0.777444,-0.91149,0.770513,0.421408,0.509744,0.275811,-0.670554,-0.53168,0.273063,-0.0402686,0.110162,-0.862425,-0.442018,-0.300534,-0.128999,-0.807134,0.799661,0.842757,0.376044,-0.57125,0.688,-0.051873,-0.0341805,0.35897,-0.477899,0.388444,0.880496,0.123741,-0.63085,-0.308115,0.87627,0.454467,0.0427493,0.579205,-0.361855,0.729779,0.72845,0.354624,0.894035,-0.377475,0.395284,0.321078,-1.00642,-0.778719,-0.401606,-0.713464,0.435117,-0.902531,-0.992789,-0.866673,-0.105427,-0.117092,-0.851531,0.982105,0.295125,0.530938,-0.813466,1.00383,0.250614,1.01014,0.246971,0.441068,0.636704,-0.643901,0.0628525,0.0976012,-0.1697,0.549903,-0.259065,0.0696079,-0.733135,0.408222,0.996789,-1.01298,0.68951,-0.734109,0.365576,-0.849593,-0.178922,-0.938622,-0.50492,-0.922636,0.0555863,-0.758018,0.556442,0.880859,0.146848,0.58062,-0.379948,0.980318,-0.291736,0.0808824,-0.0333377,-0.434789,0.897332,0.390012,0.921281,-0.601529,0.373457,-0.409095,-0.728184,0.783201,0.447144,0.559933,-0.209086,0.738146,0.932999,0.325333,-0.558368,-0.622835,-0.140202,0.282445,0.510525,0.176289,0.187495,-0.430798,0.3444,-0.676954,0.814519,-0.392382,0.144311,-0.0402373,0.403792,-0.180601,0.669863,-0.882999,0.730518,-0.800855,0.743851,0.34766,-0.675651,0.197846,-0.112221,0.0383808,-0.0434408,-0.755312,0.778375,0.0428878,0.068584,-0.405131,0.28919,-0.936083,-0.384629,-0.163206,-1.0037,-0.288207,0.814269,-0.795195,0.303993,-0.911627,-0.944159,0.599838,0.994698,0.642885,0.0388887,0.0747486,0.54931,-0.878565,-0.390425,0.348149,0.43887,-1.01391,0.261137,0.735859,0.976477,0.506554,-0.96784,0.255172,-0.887932,-0.720475,0.676731,-0.34152,0.743383,-0.604811,-0.200314,0.88842,-0.8954,0.99847,0.702968,0.367556,-0.166522,-0.386359,0.993708,-0.686812,-0.209562,-0.499038,0.341279,0.0735889,0.648449,0.552612,0.966004,0.400927,-0.172701,-0.440331,0.402283,0.958094,0.470141,0.140206,0.719998,0.464647,-1.04143,0.0640898,0.16257,-0.937444,-0.991175,0.107671,-0.356119,0.0894749,-0.444359,-0.211264,0.743661,0.703517,0.66994,0.999506,-0.419996,-0.237125,0.504979,0.212949,-0.898181,-1.03938,-0.294555,-0.783683,0.653358,0.463041,-0.632688,0.38961,0.606133,-0.346186,0.6919,-0.251466,0.831701,-0.952756,0.245902,-0.988453,0.645547,-0.291713,0.237092,0.329774,0.719782,-0.725409,0.211236,-0.120838,-0.999714,-0.627301,0.182289,0.0792696,-0.0796985,-0.589351,-0.482358,0.387612,-0.0807805,0.418023,0.376761,0.0904822,0.13939,-0.753046,0.550526,-0.729148,-0.951202,-0.541028,0.032763,0.55621,-0.187452,0.221588,0.53728,-0.570329,-0.60003,0.950701,-0.739149,0.076066,0.230328,0.48864,-0.441345,0.144467,-0.562925,0.434138,-0.269792,-0.412734,0.8491,0.704617,-0.72478,-0.417892,-0.0662501,-0.258644,-0.70159,-0.324248,0.0644338,0.768869,0.388609,-0.816004,-0.33946,0.870659,-0.15607,0.328492,-0.0393722,-0.262951,-0.881502,0.748363,0.542525,-0.42996,0.904265,0.744179,-0.412016,0.796391,0.842202,0.0882052,0.604519,0.807568,0.812477,-0.993835,-0.743106,0.497232,-0.0721844,0.254202,-0.934091,0.530867,-0.729612,-0.314377,0.450938,0.893236,-0.372928,0.934755,0.511793,0.0653065,0.759821,-0.228373,0.795045,-0.115258,0.519472,-0.997683,0.358489,-0.642225,-0.482734,-0.25683,0.965275,0.329393,0.532271,-0.393475,0.0746135,0.779452,-0.505571,0.812643,-0.909865,0.146292,-0.294627,-0.224098,-0.912442,
-0.533389,0.677546,-0.659962,-0.860258,0.97439,-0.656658,-0.0687714,-0.443408,0.735663,0.0542894,0.840622,0.239751,-0.471176,-0.0391555,-0.426456,0.898873,0.247695,0.0263742,0.0632336,-0.441919,0.360114,-0.363279,0.288724,0.0497505,-0.0767685,-0.227917,-1.03205,-0.251427,0.93542,0.987986,0.188272,0.899755,-0.529337,0.762496,-0.548063,-0.0457228,0.511867,-0.263448,0.912248,-0.87104,0.48977,-0.440086,0.738174,0.100849,-0.19341,0.587423,0.60468,-1.01949,-0.92305,-0.483465,0.781121,0.363337,-0.372317,-0.987867,-0.784986,-0.824218,-0.145609,-0.514926,0.10596,-0.681248,0.432833,-0.124639,0.400544,-0.92716,-0.859797,-0.964708,0.697832,-0.123403,-0.945349,-1.00687,0.834801,-0.164635,0.322822,-0.75396,-0.164134,-0.374733,0.364747,0.982374,0.14559,-0.391714,-0.781596,-0.676996,-0.747199,-0.923489,0.0964659,-0.185535,-0.387575,0.5683,-0.147102,0.393582,0.214084,0.186178,-0.804766,0.642407,0.612415,0.238909,0.454828,-0.124193,0.886521,-0.890457,0.90622,-0.186776,0.55414,0.879716,0.112414,-0.157482,0.891128,-0.841948,0.964866,0.86247,0.727121,0.567267,0.422719,0.837718,0.52822,-0.367029,0.370787,-0.0351831,-0.556776,-0.438902,0.775777,0.92344,0.141489,0.407931,0.849346,0.416466,0.685719,-0.891887,0.543547,0.320185,0.813592,0.0849935,0.330556,-0.176581,-0.22459,-0.963312,-0.427125,0.466431,-0.691244,-0.123749,-0.570852,-0.114324,-0.632726,-0.976931,-0.80849,-0.521115,-0.133423,-0.862818,0.128498,0.0791213,-0.720208,0.0755045,0.455949,-0.775653,0.665913,0.452076,-0.531125,0.960826,0.306795,0.379098,0.9416,-0.290362,0.309228,0.382095,-0.149708,0.47459,-0.819828,-0.0263536,-1.0193,-0.742981,-0.268491,-0.240169,-0.135266,0.129233,-0.665893,-0.528844,0.965437,0.890648,-0.547282,0.159717,-0.728918,-0.56045,0.161009,0.769165,-0.0601969,0.427283,-0.903235,0.792753,-0.119023,0.339041,0.637677,-0.301474,-0.920872,0.617398,-0.0317039,0.874411,0.870727,-0.592122,-0.443719,0.974891,-0.322406,-0.682703,-0.975288,-0.275697,-0.843854,0.395246,-0.689678,-0.726202,-0.969357,0.923801,0.455876,-0.778104,-0.24935,-1.03289,0.979408,-0.644023,-0.273832,-0.183399,-0.391894,-0.917599,-0.678531,0.136538,0.240305,0.811677,0.556,-0.68058,-0.759213,0.37682,-0.1966,-1.02737,-0.242977,-0.660808,-0.282756,0.811871,-0.786648,-0.40746,0.904775,-0.259,0.239123,0.338692,0.242024,-0.787649,0.0320172,-0.644919,-0.161205,1.00752,0.984629,0.118012,0.407965,-0.243551,-0.0484097,0.472802,-0.691963,0.117407,0.770391,-0.703948,0.33791,-0.327511,0.243151,-0.582724,-1.03509,-0.503392,0.282244,-1.02162,0.85444,0.835119,-0.85404,0.400189,0.0262734,0.24765,0.755207,0.906932,0.121745,0.567888,-0.977182,-0.938769,-0.727678,-0.946808,-0.353479,-0.686966,0.793939,0.199389,0.916621,0.146796,-0.0800732,0.459793,-0.413482,-0.133258,-0.5919,-0.504449,-0.382739,0.581811,0.630083,-0.318444,-0.26687,-0.0907973,0.621217,0.345748,0.632333,-0.768629,-0.358803,-0.791713,0.0788471,0.480554,0.846716,-0.827502,-0.342952,0.986737,0.845216,0.103013,-0.609124,-0.125874,-1.03042,-0.120325,0.767845,-0.480968,0.159669,-0.947445,-0.382248,-0.484003,-0.462576,-1.04173,-0.904498,0.341929,0.622097,0.21388,0.527132,-0.647851,0.14204,-0.831512,-0.72374,-0.76504,-0.519865,0.901311,0.379294,0.56414,-1.01214,-0.198074,-0.323719,0.964797,-0.649014,-0.426891,0.334382,-0.423878,-0.0589685,0.877807,0.547182,0.555482,-0.94057,-0.404494,0.892786,0.392288,-0.075756,0.660373,-0.932096,0.887704,0.137234,-0.762579,-0.888079,0.233849,-0.815702,-0.0927652,0.751081,-0.566018,-0.787837,0.0973743,0.632663,-0.417566,0.848156,0.384815,0.730392,0.113633,0.330968,0.307219,-0.667121,-0.875003,0.154145,-0.5234,0.22721,0.958424,0.139765,0.77282,0.503562,-0.622156,-0.927663,-0.495216,-0.401189,1.00464,0.388076,-0.907481,0.502785,-0.386303,
