-0.175962,0.591603,0.134116,0.631493,0.156811,0.650455,-0.421651,0.46761,0.415814,0.421824,-0.175463,-0.692284,-0.888255,-0.768619,0.777325,-0.404679,0.0640668,0.28027,-0.877581,-0.217026,0.489987,-0.929625,-0.821369,0.526137,-0.969224,0.625636,0.573715,0.354037,0.64274,0.533824,0.243053,0.639502,-0.13854,-0.149983,0.151409,-0.478228,-0.310647,-0.307916,-0.560425,0.62762,-1.06465,0.786428,-0.274302,0.251825,-1.02786,-0.1911,-0.347332,0.656224,0.714164,0.0594682,-0.878879,0.136284,0.147188,-0.641333,-0.399918,0.200046,0.105086,0.728853,-1.07264,0.205192,-0.53299,0.426856,-0.0340455,-0.966127,0.0532632,-0.674184,-0.625488,-0.0642484,-0.671412,0.00756349,0.20785,-0.588617,0.596612,0.641569,0.647446,-0.0886293,0.29479,-0.137117,-0.703485,0.348557,-0.961306,0.289403,-0.853395,-0.621791,-0.988655,-1.01498,0.548292,-0.176555,0.857714,0.638526,0.0116638,-0.0456313,0.463851,-0.63493,0.0293621,-0.556144,-0.625764,-0.0523544,-0.374606,-0.0938494,-0.101026,-0.175673,0.380529,0.61582,0.243616,0.362825,0.0533946,0.845948,-0.673371,-0.995953,-0.158511,0.873632,0.403147,-0.828858,-0.111269,-0.42224,-0.185116,-0.0684462,0.0888139,-1.05637,-0.0615367,-0.986025,-0.216634,0.381644,0.67583,-0.0643786,0.601326,-0.746044,0.750784,0.324784,-0.34693,-0.334659,-0.298704,0.670828,-0.299038,0.860827,0.0176855,0.570229,-0.0661074,-0.705653,0.599479,0.267731,-0.258613,-0.43055,0.501125,-0.309946,-0.148069,-0.187601,0.573467,-0.0763072,-0.17764,-0.339144,-0.647576,0.497007,-0.712981,-0.876119,0.0618533,0.747625,-0.0305849,0.0395026,0.266203,-0.872718,0.113488,-0.0013932,0.354384,-0.853514,0.456204,0.68617,0.719767,-0.932833,-0.550295,-0.569885,0.428795,0.626404,-1.00597,0.510103,-0.47559,0.252013,0.0939854,0.507982,0.449934,-0.27444,0.443123,-0.33418,-0.299229,0.648182,0.170086,0.490363,-0.919607,-0.287196,-0.85328,-1.00416,0.469899,-0.880117,-0.82999,-0.461327,0.936533,-0.0394994,-0.0248034,-0.481436,0.746998,0.771919,-0.900723,-0.142801,-0.927649,0.859093,-0.387274,-0.795627,-0.283595,-0.970804,0.880946,-0.97208,0.394375,0.447334,-0.831797,0.74421,0.34539,0.0105725,-0.536197,-0.707402,0.674531,-0.10373,-0.709409,0.596823,-0.989427,-0.631852,-0.240138,0.745974,-0.718874,-0.119852,0.551022,0.542077,-0.849678,-0.953426,-0.587325,-0.118882,-0.526759,-0.412587,-0.668815,0.424016,0.854774,0.135959,-0.552762,-0.024023,0.720877,-0.913826,0.407805,0.845597,-0.612006,-1.00344,-0.395193,0.0534642,0.402751,-1.12817,0.493186,-0.14228,-0.533827,0.156845,-0.27163,0.674475,-0.958598,0.0121597,0.263819,0.142003,0.734438,-0.106543,0.520417,-0.652312,0.116338,-0.212595,-0.0620755,-0.493072,-0.624036,0.712675,-0.0384713,-0.0119891,-0.239625,0.574023,0.781988,-0.883121,-0.616533,-0.686158,-0.0374675,0.859029,0.302089,-0.376474,0.352484,0.166371,0.401213,0.355511,-0.690125,-0.540523,-0.807901,0.461873,-0.343918,0.664199,-0.198279,0.0458207,0.0505736,-0.903835,-0.299675,0.703281,0.32786,-0.493478,-0.469635,0.680659,0.876924,-1.11095,-0.891071,0.971387,-0.673477,-0.891353,-0.607741,-0.514814,-1.01542,-0.777416,-0.94229,-0.889681,0.824898,-0.436373,-0.282778,0.0443394,0.427466,-0.332762,-0.242563,-0.879073,0.175312,-0.249362,-0.267185,-0.292818,-0.0856414,0.343141,-0.0826574,-0.557046,-0.659447,-0.247085,-0.0429573,-0.623817,0.0998492,-0.746071,0.649895,-0.514049,0.424482,-0.187754,0.768918,0.12713,-0.781329,-0.0430652,-0.964963,0.111956,-0.139049,-0.311816,-0.894674,-0.16311,-0.896525,0.59116,0.0873339,-0.618025,0.797989,-0.195307,0.611668,-0.337116,-0.717508,0.445845,0.732684,0.198245,-0.425286,-0.715579,-0.0335493,0.113839,0.254606,0.581939,0.547599,-0.140776,-0.613126,0.0950748,-0.660484,-0.889655,0.643712,-0.13055,-1.00967,-0.80783,0.117789,-0.933127,-0.540345,-0.176895,-0.711536,0.350854,-0.432361,-0.945631,-0.703433,-0.250225,-0.403434,0.0372522,-0.288388,0.142746,-0.539427,-0.168956,-1.01215,-0.797817,0.313635,-0.741488,-0.633107,0.371022,0.665201,-0.720662,-0.903896,-0.484551,-0.637998,0.181209,0.8741,-0.891828,-0.369704,-0.628422,0.206305,0.595496,-0.204532,-0.405778,-0.654292,0.193143,0.203196,0.569557,0.303876,-0.648486,-0.921826,0.0676191,0.727823,-0.741184,0.117026,0.0549405,-0.3944,-0.737682,-0.244623,0.171005,-0.00300553,-0.641072,0.139668,-0.711473,0.469446,0.522943,-0.407933,0.0643271,-0.616308,0.094323,-0.199183,-0.830412,0.9125,0.445622,-0.176241,-0.865497,0.590723,0.542648,0.447726,0.156957,-0.253724,-0.813244,0.811789,0.838459,0.82399,-0.162893,-0.764289,0.740088,0.229478,0.1545,0.820123,-0.826268,0.0649186,0.55476,-0.688841,-0.230917,0.186531,0.527274,0.659858,-0.804178,0.0796258,-0.971003,0.688425,-0.450666,-0.510968,-0.258337,0.482247,0.835195,-0.344411,-0.121116,-0.159905,0.203355,0.874273,0.309047,-0.305587,-0.0973764,0.481016,-0.44744,0.450838,0.511691,0.422652,0.696666,-0.776802,-0.255698,0.265994,-0.950644
0.18497,0.151811,0.516928,-0.7086,-0.884269,-0.095184,0.00147805,-0.916824,-0.510565,-0.828028,-0.0210209,0.880337,0.587,0.41764,0.523071,0.541983,0.321855,-0.709458,-0.633952,0.0891692,0.390622,-0.384988,0.831966,0.145049,0.476474,-0.182483,-0.459575,-0.129427,-0.171352,-0.127641,0.528958,0.747908,0.680691,-0.722401,0.630565,-0.766489,0.528999,0.466085,-0.217525,-0.851173,0.492323,-0.870703,-0.726063,0.40718,0.65558,-0.0938838,-0.511096,0.417508,0.651111,0.555306,-0.859824,-0.528428,0.731544,0.631229,0.606589,0.74984,-0.50551,0.466377,0.663858,0.149953,-0.19429,0.922123,-0.791491,0.267927,-0.983789,-0.686481,-0.554429,-0.260029,-0.687172,-0.94532,0.547948,-0.730417,-0.22101,0.288102,-0.215433,0.112951,-1.01098,0.384113,-0.0307108,-0.136574,-0.0762305,-0.0287189,0.515791,0.284565,0.528386,-0.18168,0.889391,-0.704905,-0.0761489,-0.281829,0.00453652,-1.04411,-0.185455,-0.922049,-0.31234,-0.81005,-0.664931,-0.127128,0.142283,-1.00055,-0.251343,-0.102626,-0.474524,-0.143367,0.399969,0.850579,-0.502742,0.338926,-0.559957,-0.29381,0.279154,-0.65904,0.799351,0.192653,0.687316,0.475876,0.254279,0.0879627,0.551729,0.214132,0.681639,0.494869,-0.892463,0.325811,-0.836421,-0.442546,0.0900492,0.720329,-1.0348,0.651204,-0.603058,-0.39203,0.896273,0.584516,-0.667195,0.0916163,0.0591225,0.186905,0.604144,0.458122,-0.527416,-0.909202,-0.325614,0.884307,-0.224222,0.0479907,-0.67992,-0.460034,0.637501,-0.010459,-0.383785,-0.485739,-0.110983,0.354375,0.93426,-0.510315,-0.0914356,0.413727,-0.823604,-0.752135,0.633379,-0.95093,0.478847,0.789151,-0.411562,0.0185639,0.194654,-0.777264,0.751718,0.358213,-0.0828306,-0.559371,0.145473,0.259224,-0.370065,-0.534697,-0.94511,-0.134085,-0.418207,0.617168,-0.391611,-0.240921,0.414456,-0.511766,-0.390158,0.757165,-0.10983,0.539955,-1.05542,-0.214423,0.0741404,-0.886642,-0.477408,-0.650833,-0.129484,0.440679,-0.318706,0.781107,-0.619512,-0.80291,0.237183,-0.404526,-0.683902,0.489033,-0.0439845,0.729698,-0.323392,-0.993046,0.585453,-0.0511997,0.0282977,-0.404311,-0.504194,-0.397202,0.715321,0.438152,0.580814,0.3645,-0.316962,-0.793485,0.784986,-0.885772,0.557857,0.899134,-0.239801,0.858206,0.262371,0.710338,-0.868207,-0.332028,0.0508676,0.0880939,-0.0541821,-0.407657,-0.699003,-0.918231,-0.887427,-0.229634,0.704667,0.0366946,-0.133085,0.544352,0.182437,-0.915925,0.115068,-0.494499,0.839034,-0.0519128,0.51004,-0.425825,-0.234221,-0.744916,0.638426,-0.370816,-0.0716799,0.216965,-1.0519,-0.174512,0.11475,0.573587,0.738873,-0.0138856,0.781134,0.445599,-0.847868,0.40661,-0.00761893,0.579716,-1.08811,-0.61975,0.879465,-0.873676,-0.499232,0.777692,-0.972566,0.790402,-0.956504,-0.300251,-0.797085,0.876313,0.3984,-0.0188967,0.275383,-0.17867,0.684501,0.109295,0.666477,-0.897637,0.219701,0.590646,-0.148822,0.400401,0.0842086,-0.86993,0.642567,0.0048291,0.54798,-0.0426179,-0.625578,0.327159,-0.601088,0.594496,-0.0744782,0.711897,-0.261522,-0.307813,0.253811,0.679938,0.883138,0.906236,0.460531,0.307264,-0.86863,-0.016547,-0.413162,0.525295,-0.654122,0.443137,0.00894439,0.201157,0.00602714,0.844318,0.23832,0.52862,0.874873,0.869913,-0.280793,0.617314,0.530152,0.117606,-0.911264,-0.193951,-0.0881857,0.322463,-0.180202,-0.446302,-0.918201,0.230173,-0.331926,-0.953836,0.84052,-0.302064,0.657709,0.877279,0.597271,0.324272,-0.537789,-0.105151,-0.904333,-0.27772,-0.478322,-0.00820203,-0.492486,0.847104,-0.534323,-0.636697,0.662018,0.711589,-0.62086,-0.229186,-0.579015,0.417837,0.381461,0.0589325,0.345752,-0.0944453,0.806923,0.64789,0.434303,-0.317218,0.617276,-0.123225,-0.554203,-0.762791,-1.00336,0.338018,-0.128648,0.399942,-0.637102,-0.141052,-0.19242,0.0986976,-0.42965,0.176458,-1.06473,-0.371317,0.308602,-0.91298,0.185269,0.200813,0.439806,-0.64968,0.649775,-0.754412,0.533603,-0.603442,-0.363598,0.819442,-0.8959,0.139585,0.793878,-1.05975,0.655709,-0.182319,-0.55924,-0.413555,-0.584388,0.162087,-0.759175,0.0793555,-0.09885,-0.0732904,0.169994,0.204542,0.65695,-0.743782,-0.0623997,-0.934206,0.284957,-0.0113566,0.00620715,-0.468897,0.130027,0.0908992,-0.11309,0.155716,0.520884,0.713051,-0.495096,0.611491,0.875785,0.385703,-0.952781,-0.93121,0.200288,-0.175364,-1.11492,-0.863899,-0.121073,-0.526466,0.174347,-0.0235206,-0.345267,-0.934151,-0.048337,-0.244146,-0.45808,-0.0652455,-0.0491289,-0.108984,-0.858785,-0.846617,0.233299,0.298351,-0.908501,-0.69356,0.633329,-0.244694,-0.671087,0.305491,-1.03808,0.880783,-0.58983,-0.482217,-0.899278,-0.27579,0.368511,0.3413,0.19471,-0.219523,0.720516,0.305825,0.00751355,0.869923,-0.44528,-0.168863,0.790382,0.534319,-0.150497,0.24954,-0.541805,0.134398,0.231722,-0.181199,-0.364166,-0.362302,0.226921,-0.358801,-0.405757,-0.374056,-1.03787,-0.526041,0.895509,0.706747,0.63235,-0.353677,-0.816108,-0.564357,-0.64578,-0.176151
0.32961,0.401079,0.472228,0.0431349,0.596191,0.528733,-0.629075,-0.16021,0.607511,-0.807033,0.0633617,0.528235,0.493657,-1.00846,-0.80947,-0.955805,-0.661743,-0.845909,0.114497,-0.326006,-0.0620678,-0.13218,0.570166,0.44764,-0.255017,0.803473,0.949857,0.689732,-1.01102,-0.22585,0.323022,-0.843852,-0.768672,0.195232,0.521082,0.708927,0.384969,-0.956989,0.922119,0.935157,0.533617,-0.163211,-0.0244239,-0.41493,-0.752473,-1.0158,-0.0980287,0.900463,0.0682438,0.825394,0.1978,0.595423,-0.346419,-0.944392,0.133159,0.282673,0.696721,-0.554292,0.53002,-0.521926,0.798393,-0.0325146,0.0440691,0.101755,-0.41867,0.122724,0.555579,-0.41951,-0.339652,0.439553,0.620714,0.252653,-0.270826,0.564728,0.394664,0.430281,0.0686609,-0.451977,-0.857834,0.388828,0.748417,0.333284,-0.268487,-0.153422,0.38208,-0.383066,-0.989673,-0.370378,0.445496,-0.817034,0.869782,-0.0919474,0.782961,0.741026,-0.321876,0.811536,0.0499179,-0.149811,-0.929572,-0.824972,-0.223594,0.115577,0.81214,-0.471114,-0.0193776,0.551999,-0.867953,-0.113811,0.414877,0.804753,0.135526,-0.473258,-0.614469,-0.373044,-0.412212,0.0324181,-0.112513,-0.194845,0.873348,-0.0395646,-0.922181,-0.340126,-0.803414,0.557101,-0.769036,0.73491,-0.116614,-0.306345,0.653239,-0.777234,-0.97282,0.605457,-0.0340793,0.769128,0.792417,0.125829,0.444705,-0.140147,0.44726,-0.212272,-0.16127,-0.172567,0.486095,-0.441452,-0.864576,-0.489246,-0.288833,-0.69213,-0.125081,-0.956584,0.711328,-0.0748367,-0.361177,-0.380382,0.878446,-0.31199,-1.0395,-0.0801758,0.245202,0.715121,-0.711849,0.0418549,0.750399,0.542144,-1.01294,0.561729,-0.474124,-0.139248,-0.899257,0.623568,0.154436,-0.995219,-0.6816,-0.999793,0.451282,-0.467182,-0.0275375,-0.0710615,0.812625,0.27048,0.805908,-0.506036,-0.960491,0.312198,-0.0708042,-0.562859,0.47263,-0.0196855,0.565558,0.854962,0.00353012,0.16012,-0.247498,0.825762,-0.616176,0.258278,0.50482,-0.229498,0.689813,0.406438,-0.496561,-0.479567,-0.178068,-0.988447,-0.635893,-0.766832,-0.00574064,-0.824495,0.953203,0.303505,-0.936383,0.456986,0.725359,-0.565094,0.157249,0.705811,0.631019,0.811993,-0.598664,0.427675,-0.498207,-0.372266,-0.791021,0.812973,-0.368989,0.160816,-0.633802,0.146121,-0.495415,0.0188045,-0.355573,0.737414,0.881299,0.201052,0.0514149,0.484487,0.81461,-0.232081,0.289057,0.359541,-0.882982,-0.714414,-0.829395,-0.0360552,-0.39849,-0.332217,-0.07247,0.485936,0.099038,0.580773,0.610509,0.277328,-0.606105,0.44759,-0.491899,0.794165,0.119116,0.0318334,-0.340189,-0.309807,0.654006,-0.529698,-0.908501,-0.800063,-0.832224,-0.278389,0.507745,0.375696,-0.428418,0.168461,0.285636,-0.380727,0.717598,-0.595956,0.157597,0.0440802,0.147008,-0.249757,-0.425727,0.446152,0.0230034,0.912942,-0.0486047,-0.253551,-0.832992,0.51581,-0.284372,0.804187,0.130501,0.885956,-0.38967,-0.543499,-0.20043,0.481933,-0.19564,0.0475179,0.280784,-0.734838,-0.171209,0.147164,-0.991205,-0.361605,-0.324911,-0.882115,0.296866,-0.545925,-0.932504,-0.0129091,0.259772,-0.60038,0.509002,-0.311414,-0.690366,-0.85971,0.776891,0.24407,-0.570744,0.11969,0.275695,-0.595719,0.737423,-0.533844,0.228769,-0.30446,0.520054,0.694049,-0.625436,0.496334,-0.44113,-0.804804,-0.176204,-0.112778,0.51779,-0.938255,-0.998862,0.569641,0.762754,-0.257984,-0.431561,-0.636896,0.623604,-0.666022,-0.507152,-0.194399,-0.985879,-0.572047,-0.0839871,-1.07342,-0.165609,-0.529987,-1.00817,-0.0178328,-0.455742,-0.0947445,-0.556181,-0.168269,-0.187253,-0.409401,-0.146919,-0.576709,0.280129,-0.675281,0.183051,0.059404,0.175375,0.239544,0.766786,-0.681238,-0.372463,0.565175,-0.709573,-0.686081,-0.601188,-0.888075,-0.881522,-0.0721187,-0.516457,0.0750792,0.444903,-0.237578,-0.563952,0.728916,-0.397643,-0.841959,-0.709545,-0.0708606,0.132775,-0.698758,-0.167433,-0.95977,0.391274,-0.963205,0.800439,-0.0280053,-0.351912,-0.114602,0.747568,-0.0457671,0.636534,-0.857646,0.153739,0.471739,-0.467715,-0.403025,0.54528,-0.460107,0.392946,-0.660599,0.6346,0.664174,-0.836457,-0.0406373,0.919634,-0.740973,-0.814723,-0.946278,-0.678001,-0.4818,-0.553036,0.913757,-0.909934,-0.15003,-0.919377,0.477975,0.140307,-0.388067,-0.194654,-0.124608,-0.611888,-0.69565,0.32911,-0.877911,-0.755849,-0.598906,-0.0421388,0.0969155,-0.530784,0.014244,-0.2684,0.310935,-0.444419,-0.615372,-0.116496,-0.716674,-0.967689,-0.875508,0.831586,-0.10823,-0.321483,-0.699084,-0.40232,0.0796416,-0.0790311,-0.87313,0.00153376,-0.692979,0.694101,-0.740872,0.591581,-0.792341,-0.330179,0.509976,0.600481,0.777629,-0.239027,0.489944,0.515884,-0.595156,-0.708146,-0.179467,-0.469338,-0.13441,0.659442,-0.782664,0.326837,0.631641,-0.843759,0.564811,-0.613041,-0.739934,0.343095,-0.406493,-0.0247271,-0.661485,-0.934623,0.337443,-0.699121,0.000843936,0.428643,-0.546242,0.371239,-0.409321,0.611697,-0.65992,0.495241,-0.699524,-0.944144,-0.187337,-0.467942,-0.804526
0.173819,0.106737,0.602238,0.373007,-0.243628,-0.314264,-0.201662,0.0898872,-1.03089,-0.766962,-0.377466,-0.165551,0.240122,-0.498526,-0.661346,-0.218987,0.282711,0.734862,-0.721077,-0.612251,0.2229,-0.338779,-0.119108,0.371348,0.13146,-0.983171,0.621849,-0.334469,0.710921,0.896165,0.626488,0.41162,0.77921,0.110952,-0.291948,-0.728301,0.599351,-1.01721,-0.14714,-1.02359,-0.395301,0.424321,-0.450898,-0.659881,-0.971705,0.261417,-0.578687,-0.837006,-0.460353,0.289291,-0.455559,-0.955092,0.607724,0.778121,-0.507742,-0.552049,-0.977612,0.540232,0.626937,0.854494,-0.504085,0.727839,0.720398,-0.492675,0.239549,-0.0306366,-0.0467142,-0.885908,-0.15889,0.933138,-0.620128,0.266191,-9.5351e-05,0.383747,-0.318806,0.714612,-0.287104,0.691542,0.297677,0.499576,0.449145,0.80389,-1.06018,-0.36821,-0.0861591,0.511517,-0.606414,-0.871475,0.227163,0.733109,-0.690757,-1.07666,-0.83366,-0.647417,-0.446644,0.465593,-1.02349,0.418224,0.00199616,-0.729223,-0.551523,-0.790414,0.776535,0.638724,0.264921,-1.00465,0.382411,0.516563,-0.913776,0.546488,0.767835,-0.139504,-0.925428,-0.741444,0.149576,-0.294683,0.159426,0.0556296,0.401571,-0.378434,0.257482,-1.14402,0.226721,-0.834049,-0.0525426,0.151879,0.31309,-0.15388,-0.958804,0.197411,0.0706838,-0.555423,0.843623,-0.11974,0.369596,0.377852,0.290769,-1.04701,0.0399296,0.166548,0.226577,-0.262766,0.333885,0.777064,0.438974,0.876879,0.141703,0.597443,-0.60572,0.647155,0.184038,-0.630737,0.59412,0.680758,0.415185,-0.0402618,0.251441,-0.370438,-0.355262,-0.836295,0.198468,0.389441,-1.11406,-0.739585,0.721394,-0.493104,-0.452397,0.913154,0.271795,-0.468005,0.761878,0.830704,-0.590577,-0.389079,-0.724614,-0.157903,0.020575,0.804608,0.549346,0.39269,0.408296,-0.210763,-0.89963,-0.679431,-1.02899,-0.453963,0.622902,0.134498,0.656517,-0.94868,-0.24463,0.462362,0.0265857,-0.160056,0.631234,0.00485457,0.779701,0.144948,-0.236919,0.370149,-0.854085,0.355491,-0.361274,0.286952,0.532482,0.334269,0.69777,0.174829,0.705491,0.877152,-0.658029,-0.399649,-0.547614,0.208713,-0.109743,0.375157,-0.441316,0.740131,0.178334,-1.01671,0.759988,-0.685765,0.265578,-0.915501,0.308421,-0.384059,0.0255337,-0.759628,0.863774,-0.693537,0.834207,-0.732953,0.750123,-0.523618,-0.555911,-0.504735,0.706723,0.683747,0.435378,0.730243,-0.536768,-0.807686,0.338333,-0.446534,-0.286491,0.128806,0.845652,-0.102407,-1.00451,-0.730195,0.370575,-0.0906684,-0.106934,-1.11851,-0.463727,0.500382,-0.979189,0.116474,-0.128588,0.372271,-0.258715,0.395426,-0.362764,0.889263,0.228708,0.467898,0.561443,-0.217452,0.179952,0.163398,-1.12176,-0.443891,-0.544434,-0.0410302,0.26074,-0.216117,-0.993435,-0.130199,0.46775,0.200847,0.202246,-0.954331,-0.599818,0.526336,-0.372411,-0.140148,0.325569,0.664806,-0.191124,0.436291,0.680362,-0.396106,-0.000793231,-0.836476,-0.612478,0.309204,-0.645732,0.248747,-0.32906,0.364514,0.216288,0.196801,0.584637,0.595154,-0.746986,0.344149,0.517088,0.749509,-1.07429,0.389457,0.40419,-0.393863,0.319121,-0.892916,0.527592,-0.146823,-0.670097,-0.550335,0.539384,-0.899029,0.786466,-0.433617,0.453707,0.634654,0.143997,-1.04022,-0.312176,0.0524762,-0.663089,0.882129,-0.434743,0.565547,0.378638,-1.17276,-0.52731,-1.08094,0.271665,0.18954,-1.08694,-0.637771,-0.94502,-1.06086,0.522817,-0.748329,0.156571,-0.574458,0.77866,0.304628,0.315409,0.349003,0.735028,0.0995061,0.352105,-0.206547,-0.138812,0.590903,0.484671,-1.01275,0.142987,-0.542727,-1.04647,0.283523,0.36171,0.384384,0.264193,0.272154,0.229855,0.865819,0.553456,-0.215567,0.504131,-0.591561,0.0689828,0.598807,0.636513,-1.04423,0.0800647,-0.460726,-0.0862317,0.72761,-0.480674,0.255108,-0.0917628,0.268258,0.504162,0.258573,-0.477989,-0.398787,0.613818,0.532148,0.871577,-0.322039,-0.528136,0.710665,0.536036,0.212954,-0.506746,-0.652952,-0.0212102,-0.48316,0.552247,-1.08713,-0.948153,-0.300893,-0.956103,-0.842536,-0.0973038,0.777194,-0.999095,-0.652473,-0.164516,-0.23658,-0.554352,0.142054,-0.066175,-0.869052,-0.127725,-0.696043,0.796154,-0.806498,-0.534698,0.240771,-0.675187,0.324699,0.542831,-0.108503,0.192951,-0.0673694,-0.510681,-0.271961,0.296215,-0.611965,-0.00910003,0.224967,0.159722,-0.248509,-0.0103248,0.840371,-0.511341,-0.729654,0.753308,0.129113,-0.420577,0.0718041,0.742547,0.421236,0.874018,-0.0247173,-0.204036,-0.634051,-0.894342,0.899884,0.923335,-0.0334706,0.259321,-0.325649,0.0122739,-0.78213,-0.196924,-0.675157,0.356742,0.0601552,-0.379774,0.135069,-0.458512,-1.00102,-0.840236,0.886609,0.727208,0.380294,-0.00678901,-0.450098,0.587043,-0.844867,0.233859,0.355331,-0.213428,0.0213729,-0.802977,0.808609,-0.532756,-0.550597,0.634415,-0.328159,0.261242,-0.770932,-0.137179,0.842054,-0.985826,0.0427638,-1.03927,-0.214964,0.0201357,-0.566077,-0.372935,-1.02283,0.463625,-0.107487,0.742582,-0.362654
0.264511,0.756396,-0.905391,-0.0182489,-0.28698,0.0465567,-0.812655,-1.02192,0.388551,-0.103954,0.256763,-0.0947579,0.652671,0.793604,-0.773056,-0.232089,0.287111,-0.917,0.0841238,-0.793249,0.137384,-0.580207,-0.0271416,0.560796,0.784215,0.690329,-0.925649,-0.808677,0.101328,0.699539,0.000161173,-0.110967,-0.0195596,-0.0290953,-0.307525,0.505346,0.230989,0.123883,0.284603,-0.742677,0.259105,0.280355,-0.244054,-0.992186,0.0138853,-0.191003,-0.401334,-0.447165,-0.973758,0.226976,0.252354,0.0842267,-0.0662168,-1.0563,-0.385241,0.571233,0.598401,0.30078,-0.657101,0.290478,0.0209497,0.65892,-0.288037,-0.493144,-0.954761,-0.745467,0.351251,0.510548,-0.779131,-0.102298,-0.99835,-0.189648,-0.538194,-0.878503,0.782137,0.49197,-0.0213862,0.349956,0.953423,-1.0157,-0.393188,-0.85438,-0.237658,0.293212,-1.03458,-0.72954,0.0526076,-0.485611,-0.607187,-0.777168,-0.595173,-0.523947,0.848526,-0.631818,-0.951728,-0.966595,0.283014,-0.498614,-0.119781,-0.225799,0.70419,0.589387,-0.810698,0.0479399,-0.635962,-0.35628,-0.208833,-1.02497,-0.165213,0.185842,-0.448627,0.723284,0.664875,-0.321984,0.12807,-0.266023,-0.785666,-0.290765,-0.000475772,0.231949,-0.460229,-0.606595,-0.893975,0.188362,0.725473,0.184989,-0.655934,0.624263,-0.918386,0.60898,-0.0742188,-0.440408,-0.0555325,-0.796234,-0.821038,-0.68833,0.14239,0.348133,0.707149,0.265484,0.225848,0.284236,-0.296562,0.404457,-0.498841,-0.858619,-0.438329,-0.173369,-0.370611,0.109013,0.479505,0.509657,-0.0435311,0.729634,0.907009,-0.935451,0.399178,-0.302947,0.177074,-0.663733,-0.247897,0.475454,-0.837104,0.276564,0.694649,0.825733,0.115021,-0.0681827,0.303379,0.236061,-0.13302,-0.212728,-0.570905,0.490458,0.297523,0.137336,-0.939753,-0.615465,-0.9409,-0.0563952,0.812827,0.780865,-0.425146,0.334601,0.187598,0.524386,0.72151,-0.29948,-0.360892,-0.172259,0.315781,-0.0486422,0.692636,-0.279255,0.499199,-0.799456,-0.855768,-0.550814,0.461527,-0.782912,-0.0271485,0.0357509,-0.216755,0.366616,-0.317851,0.151992,-0.00601889,0.185395,0.391216,0.554343,0.740814,0.825468,0.459068,0.00760182,-0.340562,0.325145,0.366901,-0.311756,-0.449702,0.0941902,0.549368,-0.733553,0.635295,0.42642,-0.733318,-0.715252,0.745312,-0.164861,-0.686901,-0.99027,-0.368453,0.52736,0.31712,-0.848744,0.244219,-0.546389,0.377576,0.0829407,0.287688,0.561394,0.867709,0.45196,0.923537,0.700421,-0.0580493,0.910905,-1.00468,-0.573301,-0.888945,-0.324528,-0.338272,0.223953,0.169272,0.467195,-0.579659,0.802084,-0.238686,-0.223438,0.153357,-0.546399,-0.268366,0.148754,-0.712494,0.795482,-0.152543,0.388676,0.560866,-0.853939,0.592378,-0.0459697,-0.608612,-0.112934,0.551673,-0.204728,0.560489,0.171241,-0.215207,-1.02336,-0.60535,-0.899676,-0.25734,0.0529279,-0.000486961,0.751449,-0.725597,0.664952,0.0309761,-0.762879,0.475082,-0.305345,0.556503,0.629439,-0.558332,-0.471903,0.556567,0.39965,-0.760174,-1.0363,0.519113,0.659072,0.652241,0.0917724,0.738786,0.239757,0.247894,0.939032,0.493014,-0.283935,0.41225,-0.380703,-0.893755,0.195784,-0.653635,-0.336996,0.626064,0.572423,0.218379,-1.09822,0.483731,-0.263982,-0.567227,-0.656246,0.72074,-0.500883,-0.112474,0.0526758,0.303341,0.111136,-0.465559,0.659132,0.0278067,-0.769314,0.361797,0.0275281,-0.938244,-0.871365,-1.00894,0.566695,-0.702594,-0.925955,-0.615499,-0.946797,-0.855652,0.270679,-0.726822,-0.0315164,-0.34982,0.723667,-0.371032,-0.0227127,0.0227593,0.558575,-0.784856,-0.483064,0.439803,-1.00887,0.747174,-0.752867,-0.258586,0.768158,-0.327625,0.753448,0.583104,0.67286,0.594118,0.32503,-0.895618,0.774376,0.328721,0.79946,-0.699625,0.251441,0.399499,0.701983,0.333428,-0.295271,0.932742,-0.150778,-0.689945,-0.191757,0.530411,0.0245176,-0.627659,0.371032,0.739228,-0.735634,0.617624,0.623887,0.722873,0.719452,-0.639137,-0.745145,-0.410167,0.310354,-0.553111,0.50027,0.610523,0.717494,0.67483,-0.226993,0.599291,0.255171,-0.713903,0.472307,-0.764113,-0.0111866,0.082874,-0.588245,-0.0309617,0.681531,-0.694155,0.527477,0.152375,0.798559,0.0590389,0.818262,0.248537,-0.899586,-0.48243,0.289621,0.334181,-1.00275,-0.326258,0.602332,0.570233,-0.399591,0.624061,-0.0744984,-0.234896,-0.756777,-0.497516,0.949554,0.371653,-0.545418,-0.44702,-0.00932663,-0.837817,-0.861708,-1.01057,0.545778,0.74797,0.808624,-0.630482,-0.606291,-0.600046,-0.425321,-0.715654,-0.455374,0.797296,0.0544684,-0.615827,0.361667,0.752796,-0.930429,-0.971384,-0.257159,-0.883054,0.236963,-0.181919,0.785534,-0.511042,-1.05104,-1.00511,0.462203,0.107687,-0.118128,-0.43035,0.571647,0.897012,-0.121804,0.500443,0.703145,-0.483649,-0.382044,0.227681,0.175772,-0.922673,-0.22153,0.366337,-0.187082,0.827511,-0.278489,-0.363663,-1.02292,0.67723,-0.319126,0.660906,-1.02147,0.741098,-0.581947,0.844789,-0.450511,0.255732,-0.960567,-0.737618,0.211203,-0.357848,-0.303558,-1.02965,-0.458287
-0.506211,-0.522385,-0.292006,0.296533,0.175319,-0.542314,-0.484932,0.402351,0.72595,-0.42381,0.463617,-0.0748967,-0.768458,-1.01981,0.666926,-0.262832,-0.791577,-0.459507,-0.868258,-0.25489,-0.216389,0.131224,0.00783576,-0.494644,-0.869209,-0.301954,-0.379152,0.329764,0.766341,-0.423346,-0.0258504,-0.754517,0.334907,-1.06676,-0.317735,-0.628281,0.785872,-0.686676,0.87707,0.146943,0.0537067,0.562458,-0.177367,-1.01582,-0.725602,0.450118,0.472249,-0.32907,0.282435,-0.350725,-0.762995,-1.00849,-1.01536,-0.111382,0.488976,-0.980496,-0.212799,0.0454714,-1.06625,-0.756231,0.556656,-0.998244,-0.281572,-0.28566,0.285428,-0.332621,-0.74474,-0.0693914,-0.237488,0.457122,-0.110754,0.558017,0.362525,-0.986958,0.415914,0.477212,-0.936163,-0.540433,-0.41352,-0.847728,-0.513126,0.305085,-0.353632,-0.942999,0.276782,0.507464,0.575724,0.664045,-0.213131,-0.886961,0.488078,-0.00232545,-0.243745,0.68519,-0.574086,0.105468,0.527187,0.746679,0.0897414,-0.967757,-0.297745,0.248179,0.6595,-0.429388,0.826825,-0.499218,-0.278754,-0.380635,-0.305395,0.728442,0.268822,-0.723454,0.280035,-0.634917,-0.20023,-0.80361,0.476512,0.444481,0.300938,0.107117,-0.375411,-0.781884,-0.649185,0.788626,-0.930088,0.0329945,0.711203,-0.444302,0.523075,0.21949,-0.965168,-0.132251,-0.899072,0.31202,-0.238815,-0.0769708,-0.0730458,-0.352756,-0.224223,-0.364799,0.74909,0.0232356,-0.398337,0.0955464,-0.337001,-0.112255,-0.782712,0.298914,-0.678405,0.307605,-0.868822,-0.388886,0.624737,0.163375,0.502907,0.637346,0.400175,0.113507,-0.429831,0.111477,-0.0136351,0.0716808,0.927762,0.587604,-0.295085,0.191312,0.234704,-0.290108,0.21219,0.457525,0.722633,0.257702,0.0688319,0.190149,0.478762,-0.932984,0.140174,-0.234755,-0.959013,0.852805,0.367934,0.277824,-0.856362,-0.463696,-0.519073,-0.393093,-0.988458,-0.492062,0.0803068,0.775448,0.580537,0.645634,0.0317449,0.697325,-1.00082,-0.901794,0.760463,-0.533784,-0.13766,0.669296,0.813513,-0.750475,0.742904,0.461711,0.456393,-0.574936,-0.489169,0.0173825,-0.879307,-0.551859,0.872203,0.888863,0.268443,0.494495,-0.168337,-0.279403,0.345593,-0.963746,-1.02058,0.209725,-0.822135,-0.472877,-0.628512,-0.537881,0.154608,0.492484,-0.094282,-0.142052,-0.0115185,0.514696,-1.00929,-0.612732,0.717989,0.557161,0.827475,0.373188,-1.015,0.492458,0.663139,0.0665664,0.062295,0.718498,0.0536788,0.469998,0.155402,0.657418,-0.773254,-0.149137,0.433134,-0.364308,-0.63225,-0.312732,-0.189551,-0.111479,0.0991028,-0.793855,-0.994072,0.394673,0.642165,-0.760309,-0.421554,0.302482,0.381935,-0.934179,-0.54241,-0.166003,-0.665692,0.239676,-1.04259,0.338256,0.600046,-0.104484,0.598013,-0.0316238,0.582943,0.403435,-0.497891,-0.358579,-0.751244,0.433046,0.0699806,0.381124,-0.825217,-0.903895,0.270581,0.121044,-0.0549643,-0.942386,-0.71043,-0.55811,0.256688,0.335585,0.742559,-0.330179,-0.213468,-0.908865,-0.006772,0.451275,-0.889142,-0.361075,-0.00690195,0.571973,0.360044,-0.934425,-0.583444,0.692123,0.521738,-0.740215,0.762587,0.717486,0.585802,-0.893338,0.316466,-0.384643,0.112185,-0.233878,-0.446061,0.706348,0.733275,0.106377,-1.0067,-0.231808,0.51183,-0.385742,-0.609085,-0.000243357,-1.0678,-0.367331,-0.520233,-0.887459,-0.485231,-0.755338,-0.602348,-0.397045,0.703596,-0.462672,-0.771189,-0.70248,-0.803064,-0.628179,-0.739729,-0.905848,-0.802727,0.814873,-0.922015,0.79598,-0.615459,0.534446,0.529161,-0.108259,-0.393819,-0.272418,0.733641,0.548645,0.246385,0.550765,-0.658183,0.359217,-0.205893,-1.01107,-0.245666,0.486521,0.318932,-0.394728,0.0260399,-0.334146,0.311149,0.680155,0.440802,0.460274,-0.983343,0.153407,-0.213068,0.375749,-0.601785,0.634087,-0.106532,-0.386765,0.323007,0.525543,-0.655304,0.212834,-0.343446,0.498968,0.170977,-0.796489,0.725661,-0.553225,0.471336,0.141291,0.135504,0.118581,-0.364774,-0.321526,-0.477325,-0.683736,-0.0761203,0.159471,0.72296,-0.0352101,-0.527803,0.53886,0.515492,0.335936,0.327172,-0.0799838,0.450594,0.446255,-0.919217,0.274527,0.141345,-0.42154,0.66471,0.325584,0.154038,-0.0842467,0.561043,-0.890926,-0.0798856,0.258415,0.536252,0.617281,0.309982,0.737798,0.733042,-0.567264,0.813108,0.711722,-0.299083,0.223687,-0.143706,0.388279,-0.628903,-0.663712,-0.425566,-0.485093,0.0936951,0.608783,0.300244,-0.234089,0.348595,-0.739948,0.166982,0.248885,0.290851,0.149503,0.265945,0.802385,-0.856001,0.853521,0.601127,-0.42908,-0.383973,-0.124408,0.238454,-0.772865,0.0984285,0.442565,0.274726,-0.716873,-0.188479,-0.180664,-0.548505,-0.303133,-0.512357,0.192048,-0.330264,-0.951828,-0.753489,0.282357,0.419727,-0.934582,0.908947,-0.797062,-0.603219,-0.246403,0.167908,-0.189212,-0.0866717,0.262668,-0.617614,0.413062,-0.608038,-0.915719,0.463636,0.431203,-0.145524,0.13156,0.0827341,0.259062,0.127837,0.776461,0.878796,-0.762519,-0.513274,-0.682349,0.235162,0.747303,0.538672,-0.91282
-0.908787,-0.74702,0.640523,-0.489032,0.248573,-0.774794,0.443158,-0.369374,-0.165645,0.157437,0.555466,-1.00779,0.792136,-0.873565,-0.750433,0.0384091,0.917941,-0.99001,-0.781313,0.373212,-0.192544,0.120113,0.866729,0.48682,0.106281,-0.138658,0.583824,0.453356,0.602687,0.7292,0.418434,0.610962,0.614018,-0.180191,0.195437,-0.562277,0.83731,-0.421951,-0.338626,-0.479168,0.349928,0.0873387,-0.549202,-0.783845,-0.472987,0.734467,0.440618,-0.133379,0.583665,-0.19893,0.782472,-0.573115,0.497392,-0.404803,0.885601,0.135681,0.44791,-0.220213,0.865238,-0.524322,-0.937816,-0.460833,0.0934053,-0.270053,0.557256,0.450328,0.0868297,0.0143187,-0.995917,0.838478,-0.75758,0.751897,-0.400629,-0.56566,-0.570358,0.685426,-0.759661,-0.442659,-0.705714,0.425215,0.841088,0.781474,-0.745861,0.857344,0.137316,-0.142353,0.476297,-0.954611,-0.752259,-0.786753,0.917822,-0.713807,0.360756,0.855932,0.836111,-0.904997,0.473931,-0.95569,-0.146265,0.868525,-0.0417268,0.638647,-0.371387,-0.744925,0.863898,-0.947277,0.155889,-0.197951,0.00963324,0.00798466,-0.866389,0.776111,-0.209278,0.488817,-0.27299,-0.185846,-0.714963,0.313034,0.405906,0.789075,0.745303,0.537723,-0.704991,-0.793961,-0.113446,0.548176,0.710436,-0.476427,0.440911,-0.484793,-0.160866,0.398525,0.169736,-0.866632,-0.667939,-0.684423,-1.00846,0.0262073,0.450418,0.079007,-0.640212,0.689888,0.114098,-0.2254,0.119766,-0.855799,0.0825503,0.393633,0.0439794,0.133155,-0.323264,0.485066,-0.54857,0.889666,-0.113294,-0.20965,-0.0283767,0.251036,-0.0827337,-0.206907,-0.20957,0.830709,-0.400319,0.20166,0.264793,-0.77534,-0.700442,-0.614409,0.0517279,-0.0547089,-0.432284,0.104298,-0.749134,-0.310517,-0.324616,0.716215,-0.87146,0.473329,0.888232,-0.585424,0.713158,-0.95628,-0.291935,-0.095759,-0.840199,0.450123,-0.418722,-0.598446,-0.827385,-0.733746,0.626793,0.788034,-0.625284,-0.567289,-0.71644,-0.3489,-0.448028,0.685306,0.53139,0.062924,0.628297,-0.50737,-0.616798,0.340411,-0.680107,-0.184827,-0.82588,0.131184,-0.637719,0.959093,-0.953331,-0.611757,0.757914,-0.0968898,0.7845,-0.605416,-0.526186,0.257736,-0.730133,0.0493704,0.965014,-0.827688,-0.989508,-0.769382,0.818479,-0.770003,0.596149,-0.971253,0.517082,0.632767,0.0664654,0.0339191,0.784514,-0.100414,-0.217704,0.658738,-0.339335,-0.601817,-0.381097,-0.962148,0.586934,0.760216,-0.563301,-0.959041,-0.958737,-0.874603,-0.0432861,-0.493042,-0.588152,-0.374221,0.304144,0.0847811,0.124202,0.461282,-1.03775,0.140692,-0.669701,0.896466,0.325828,0.73137,-0.423613,-0.179552,0.749622,0.191629,-0.385819,-0.777374,0.426184,0.29631,-0.574332,0.545582,-0.26552,-0.175408,0.595385,-0.922538,0.571729,0.0307365,-0.939167,0.573834,0.352361,-0.640583,-0.0825205,0.0428732,0.341198,0.0435785,0.567807,-0.537286,-0.595038,0.0774399,0.339363,-0.504965,-0.911769,-0.66836,-0.0089498,-0.741736,0.809131,-0.141502,-0.919147,-0.95012,0.103895,-0.0444074,-0.365413,0.251184,-0.197534,-0.343319,0.696626,0.386805,0.676864,-0.424545,0.0138259,0.866669,0.713086,0.536677,0.832352,0.633377,0.369645,0.12295,0.11151,-0.538262,-0.787377,0.467197,0.161831,0.852587,-0.724157,0.225828,0.851241,0.697518,-0.687998,-0.995877,0.295172,-0.630164,0.794082,-0.966079,-0.602202,-0.848786,-0.848548,-0.69827,0.893989,-0.866249,0.0808098,-0.891132,0.588213,0.776006,-0.617291,-0.0376679,-0.464901,-0.111764,-0.751643,-0.0828627,-0.976375,-0.844851,0.183081,0.0341298,0.00313218,-0.33022,0.570098,-0.952427,-0.435068,-0.29959,-0.645155,0.818095,0.58037,0.657311,-0.678645,0.270947,0.385656,0.522137,-0.249788,-0.963083,-0.180285,-0.0408284,-0.523273,0.417992,0.158132,-1.00502,-0.674106,-0.653719,0.778735,-0.455141,0.715835,0.610231,0.078658,0.920227,-0.268893,-0.3554,0.328359,0.952581,-0.978227,-0.15337,0.0244257,0.280601,-0.809348,0.39298,0.809651,0.11145,0.324065,0.86827,-0.514587,0.0364908,-0.4998,-0.682274,0.422602,-0.566612,-0.658225,-0.325672,-0.00993115,-0.641389,0.472458,-0.944026,-0.200204,0.885131,-0.773368,0.0250672,0.765304,-0.110755,0.273798,0.462137,-0.895988,0.13583,-0.422295,-0.00964386,-0.806736,-0.976917,0.895633,0.481215,-0.183523,0.783614,0.154861,0.380512,-0.746458,0.550106,-0.735866,0.624289,-0.861002,0.304242,-0.239322,-0.190057,0.328309,0.0103757,-0.0979112,-0.722052,-0.0874736,-0.324101,0.122315,-0.118447,-0.0943896,0.0508814,-0.593523,-0.388707,-0.674912,0.689535,-0.917127,-0.0157704,-0.736689,0.137967,-0.39237,-0.740207,0.424464,0.512085,-0.344323,-0.145832,0.525395,-0.404497,0.423838,0.513317,0.179324,0.329751,-0.132859,0.603282,0.374286,0.227474,-0.757088,-0.458889,-0.479003,0.0269467,0.400401,-1.01454,0.754673,-0.968805,0.336366,0.102589,-0.292727,-0.76852,0.395839,-0.851416,-0.0740753,-0.696708,-0.626793,0.0712895,0.462493,-0.127645,-0.236241,0.960057,-0.786523,0.189243,-0.506103,-0.486275,-0.983086,0.933669,-0.869252,-0.235136
-0.6996,0.734304,0.552297,0.702562,0.572413,-0.0174233,-0.233242,-0.61466,0.256523,0.825438,-0.396128,0.840187,-1.131,0.274672,-0.524329,0.832899,0.173066,-0.985995,-0.597521,-0.723165,-0.636261,0.257401,-0.100606,-0.902455,0.589289,-0.802576,-0.285848,0.212482,-1.03043,-0.0630056,0.514866,-0.863687,-0.589712,0.533878,0.259908,0.482107,0.000300208,-0.398943,-0.110935,0.138868,-0.465913,0.37915,0.868471,-0.954158,0.530647,-0.826293,0.523608,0.294366,0.327282,0.223243,0.345671,-0.848679,-0.86427,-1.05416,0.0816385,0.587299,0.738114,0.185972,0.274572,-0.937187,-0.949061,-0.983508,-0.697755,0.679093,-1.04153,0.110825,0.149417,-0.348079,0.372233,0.0921431,0.119968,0.261439,0.476271,0.20714,-0.695591,-0.825588,0.625724,-0.831723,0.198678,0.430648,-1.0162,0.196883,-0.628947,0.341802,-0.0185524,0.170633,0.22992,-0.136294,0.349851,-0.232266,-0.676756,-0.660005,0.382577,0.362261,0.803068,-0.558239,-0.866084,-1.03269,0.0312343,-0.467086,0.0868261,0.52418,0.575343,-0.246236,0.237375,0.131333,-0.316419,0.760741,0.691638,0.406342,0.483744,-0.889072,-0.792205,0.859175,-0.372608,-0.149965,0.409093,-0.869078,0.563422,-0.414592,-0.0809732,-0.658586,-0.310419,-0.852425,0.530698,0.409286,-0.650383,-0.742052,-0.651723,-1.02256,-0.370893,0.787498,-0.290293,0.488991,0.332997,-0.173327,0.0770771,0.0562365,0.106923,-0.253385,0.684253,0.81192,0.476488,0.721805,-0.658835,-0.0440103,-1.02274,-0.632845,-0.0797751,-0.613355,0.178051,-0.565352,0.278557,-0.404658,-0.517156,0.642773,0.636783,-0.679374,-0.817298,0.0258586,-0.794029,-0.78955,0.355942,0.348056,-0.457701,-0.978107,-0.849588,0.334681,0.640674,-0.00988956,-0.770158,0.611681,-0.284023,-0.481154,0.860229,-1.00872,-0.928892,0.209648,0.546093,0.775359,0.281328,-0.295458,-0.46674,-1.09561,0.169664,-0.576765,0.826492,-0.30907,-0.0880513,-0.321152,-0.315681,0.672616,-0.769175,-1.01177,-1.01827,0.440466,0.333692,0.792005,0.510144,0.336795,-0.743426,0.588017,0.719024,-0.497046,0.465366,0.711778,-0.623046,0.148913,-0.345604,-0.526599,-0.397812,0.470955,-0.0358473,-0.267391,0.866704,0.345052,-0.781816,0.905968,0.773812,0.53402,0.640049,-0.92338,0.689812,-0.732479,0.784813,0.149046,0.1688,0.369409,-0.1543,-0.0473223,0.65167,-0.272022,0.470849,-0.19251,-0.439289,0.149527,-0.0833875,0.393204,-0.299243,0.0110099,0.7597,-0.791588,0.603068,0.385473,-0.1377,-0.364919,0.162723,0.80125,-0.597996,0.356493,-0.729508,0.478714,-1.05378,-0.178576,-1.1418,0.402082,-1.04723,-0.499802,0.535654,0.0584096,0.0952827,-0.0349483,-0.765096,0.88635,0.798745,0.501719,0.346504,-0.0609245,0.560347,-0.188894,0.18423,-0.754225,0.261573,-0.668405,-0.66469,-0.321531,0.736232,0.639645,0.138899,-0.558413,-0.965787,0.285114,-0.415941,-0.721986,-0.476311,0.0270222,-0.71874,0.179277,-1.02702,0.0832679,-0.966226,-0.401713,-0.621538,-0.397048,0.789515,-0.0382819,0.570577,-1.02791,0.0113468,-0.245432,-0.381642,-0.616387,-0.637193,0.700461,0.717468,-0.798478,-0.307483,-0.169528,0.322831,0.501935,-0.552643,-0.534483,0.588514,0.158399,-0.180959,0.273807,-0.402532,0.641239,-0.169038,-0.580512,-0.833914,-0.728643,-0.416346,-0.833802,-0.090773,-0.78945,-0.766587,0.331697,0.269717,-0.338983,-0.0268077,0.260131,-0.157433,0.206338,-0.802715,-0.0668844,0.471859,-0.142121,0.428087,-0.329162,0.0224642,0.636487,0.5168,-0.0878718,0.752941,-0.00951118,-0.533979,-0.417757,0.629431,-0.234002,0.930321,0.901662,-0.0916707,0.508828,0.00387935,0.0456085,-0.495177,0.764204,0.0314222,-0.102124,-0.949926,-0.913052,0.100792,0.752628,0.0295719,-1.00643,0.718266,0.302585,0.019465,-0.798381,0.496199,-0.483428,-0.429884,0.353153,-0.880899,0.269974,-0.738599,0.548144,-0.142662,-0.112247,0.0374433,-0.0888037,-0.454499,-0.235753,0.401007,-0.171975,0.379576,-0.66976,0.0839094,0.647445,-0.93003,-0.866568,-0.448647,-1.04224,0.356223,0.541084,0.244069,-0.0421221,-0.168317,0.727491,-0.592887,-0.616705,-0.283188,-0.314675,-0.263862,0.494231,0.145251,-0.297697,-0.929946,0.387431,-0.361455,0.614624,0.104268,0.853289,0.68791,-0.920237,0.743841,0.880335,-0.53727,0.0732667,-0.545318,-0.617959,-0.362039,-0.386828,0.514288,0.00363525,-0.844321,0.320241,-0.149086,0.748622,-0.516493,-0.407165,-0.311396,0.130209,-0.799106,-0.824494,-0.173371,0.818998,-0.645981,0.676944,0.590171,-0.0090012,0.657426,-0.869824,0.877222,0.459174,-0.499683,-0.213355,-0.320199,-0.807399,0.899371,-0.275297,0.607895,0.654756,0.561471,0.78449,-0.703244,0.690242,0.340395,0.85663,-0.330643,0.101052,-0.828104,-0.728488,0.766555,-0.837647,0.311759,0.709012,0.0953189,-0.800806,-0.221503,0.485073,-0.118705,0.846869,0.532099,-0.964813,-0.789768,0.116124,-0.0630864,0.285656,-0.476319,0.0732745,-0.140269,-1.10032,-0.201669,0.59988,0.27576,0.0718734,0.700818,-0.518081,0.168978,-0.724891,0.858032,-0.923665,-0.0286213,0.0833693,-0.611977,-0.56405,0.621501,-0.0393942
0.610288,-0.0438383,-0.436915,-1.04783,0.796409,-1.02697,-0.515583,-0.26769,-0.527442,0.510573,0.359356,0.808649,0.843333,0.745203,-0.662463,0.0936604,0.832683,0.258414,-0.560208,0.752334,0.908976,0.0748359,0.0959591,0.615951,-0.585201,-0.049592,0.77704,0.081174,-0.145473,0.652676,-0.109904,0.478687,-0.681208,-0.269157,0.233095,-0.330666,0.49244,-0.263989,0.829972,0.500822,0.43545,-0.417296,0.103661,-0.987851,-0.758646,0.125926,0.502403,0.805301,-0.583163,-0.24558,-0.334251,0.831944,-0.373293,-0.189666,0.942433,0.667305,0.729945,-0.494387,-0.38877,0.443603,-0.792199,0.508862,0.0881658,-0.620105,-0.627854,0.0765566,-0.425699,0.272145,-0.25372,-0.670403,0.233729,0.173483,-0.903063,-0.807233,0.0565997,0.0797989,0.495339,0.228779,-0.557642,-0.788483,-0.747728,0.0968902,0.83551,0.127053,0.399097,0.644608,0.8319,0.407186,0.280297,0.0524229,-0.852687,-1.01873,0.417955,0.487012,0.0283373,0.181885,0.202685,0.153715,-0.336099,-0.0495611,0.0541887,-0.150782,-0.429712,-0.0843915,-0.638715,-0.90845,-0.254857,-0.0451591,-0.370756,-0.645101,0.535991,0.536135,0.869197,-0.68191,-0.921657,0.653122,-0.598556,0.354125,-0.40121,0.0614219,0.847749,0.662249,-0.665349,-0.923213,0.185648,-0.124087,0.840713,0.344184,0.376908,-0.629292,0.362695,-0.821201,0.0963202,-0.846046,-0.475653,0.572826,-0.349216,-0.0483375,-0.992101,0.280824,0.743704,-0.919372,0.843106,0.279814,-0.741345,-0.191969,0.145171,-0.183697,0.159068,0.980563,0.577344,0.132757,-0.839573,0.886517,-0.0950635,0.159635,-0.518233,-0.0783549,-0.497138,0.310603,0.595053,-0.298921,-0.420904,0.893086,-0.73186,-0.226392,0.0414039,-0.143474,0.239547,-0.552321,0.283727,-0.537656,0.0443139,0.661217,0.41189,-0.873606,0.183863,-0.673868,-0.0565396,0.218167,0.00224582,0.407655,0.288316,-0.534841,-0.330513,0.0937838,0.698479,-0.318251,-0.45228,0.941112,0.522469,-0.14851,0.568889,-1.04833,0.0313022,-0.681091,-0.346812,0.320162,0.595694,-0.674299,0.116279,-0.906259,-0.746861,0.89789,-0.0705134,-1.02797,-0.437121,-0.336125,-0.0284194,-0.900332,-0.663282,-0.25083,0.261577,-0.319655,0.830876,0.129621,0.960768,0.852754,-0.455438,0.701227,-0.810838,0.233094,-0.994385,0.733074,-0.978781,-0.722576,-0.862183,-0.634622,-0.10944,0.0593862,-0.407282,0.690102,0.325186,-0.39868,-0.189,0.367956,0.0448132,-0.185483,0.634472,-0.848404,-0.656818,0.425326,0.969871,-0.861833,-0.796608,0.513986,0.415529,-0.465129,-0.0777292,-0.843719,0.746676,-0.946281,-0.454394,0.724302,-0.464375,0.137606,-0.130433,0.641635,-0.866656,-0.0636183,0.224286,-0.0314137,0.385151,-1.01316,-1.0043,0.586208,-0.474086,-0.526163,-0.0533066,-0.913612,-0.381863,-0.161084,-0.998416,0.776071,-0.486164,0.076199,-0.356652,0.87639,-0.98887,0.825625,-0.644213,0.858543,0.557129,-0.93481,-0.896959,-0.352719,-0.371547,0.322838,-0.450176,-0.668796,-0.946563,-0.0250294,0.779377,0.571624,-0.6782,0.373835,-0.747268,-0.520014,-0.359874,-0.433394,0.407619,0.0325708,0.168105,0.659282,0.897308,0.0163146,0.172231,0.327464,-0.960148,-0.479013,0.433114,-0.447742,-0.960166,0.12178,0.00222096,-0.840831,-0.273137,-0.885133,-0.866792,0.0318939,-0.160525,0.63365,0.171155,0.0215187,-0.577237,0.0264313,-0.91277,-0.754688,-0.647052,-0.712411,0.143235,0.792048,-0.119192,-0.575771,0.936075,-0.845907,-0.250001,-0.259658,-0.357272,0.410602,0.101763,-0.125118,-0.11518,0.778179,-0.0861501,0.44634,-1.03532,-0.15936,-0.142435,0.875723,0.453123,0.859701,0.564167,0.446375,0.801392,-0.0712425,-0.397996,0.551709,-0.861617,-0.643841,-0.98249,-0.0618996,0.212862,-0.374726,0.736138,-0.213651,0.29241,0.487603,0.557235,-0.809038,0.677952,0.100072,-0.671989,0.737319,-0.443013,-0.217469,-0.650323,-0.153816,0.756069,0.181107,0.0759814,-0.682863,0.40045,0.860806,-0.745877,0.814997,0.839632,0.706559,-0.269113,0.538826,-0.83471,0.73494,0.292872,0.474905,0.367491,0.398682,-0.25168,-0.728779,0.919922,-0.641354,0.705758,-0.496653,0.882981,0.671312,0.44336,0.71346,0.640344,-1.02761,0.292723,-0.234111,-0.724464,0.552275,0.746837,-0.332373,-0.561574,-0.552099,0.580779,-0.126851,0.812689,0.962684,-0.33555,-0.501934,0.00325358,-0.418513,-0.087927,-0.716722,-0.482694,-0.859075,0.311926,-0.0283607,-0.299073,0.190764,-0.524378,-0.675533,-0.0849382,0.555354,0.776246,0.246544,-0.866371,-0.983509,-0.151067,-0.513336,-0.402002,0.523296,0.0196325,-0.537284,-0.798662,-0.245293,0.346449,0.196827,-0.159472,-0.547338,-0.798051,-0.726396,0.71457,0.692393,0.295479,0.825017,-0.459221,-0.314352,-0.495462,0.546642,-0.179961,-0.398185,-0.112772,0.853916,0.0845032,-0.9696,0.711949,0.328964,-0.346509,-0.89761,0.107592,0.678828,-0.357886,-0.746135,0.198056,-0.716608,0.0395675,0.119989,0.296062,0.0960438,-0.627321,-0.985776,0.432907,0.693323,0.889981,-0.218878,0.227863,-0.720975,-0.499331,-0.763774,0.0639327,0.789299,-0.870704,-0.0198836,0.448567,0.241761,0.144544,-0.410298
0.374303,-0.0422786,-0.445413,-1.05114,0.138941,-0.786895,0.780129,-0.322125,-0.235346,-0.644787,-0.192522,-0.885904,0.393211,-0.827761,-0.473919,-0.985697,0.109993,0.803937,-0.754545,-0.182313,-0.212021,0.33878,0.295696,0.567683,-0.017586,-0.0386269,0.569819,-0.231642,-0.346252,-0.248882,0.710136,-0.896771,-0.582164,-0.582268,-0.179549,0.482484,-0.165357,0.492244,-0.980176,-0.493791,-0.943863,-0.301303,0.0130872,-0.816257,0.252212,-0.954868,0.498241,0.760234,0.722927,0.327404,0.500158,0.0310603,-0.555355,0.611493,0.0537898,-0.257848,0.539533,0.0570941,0.382713,-0.524538,-0.34935,-0.445643,0.156004,0.296142,0.509778,-0.462664,-0.523089,0.501456,-0.774237,-0.473495,-0.176964,0.629051,0.200931,0.796415,-0.261578,0.457779,-0.146843,-0.90017,-0.0539885,-0.417235,0.413426,-0.846766,0.465051,-0.695241,0.506968,-0.889467,0.710384,-0.78799,-0.200922,-0.61583,0.288541,0.582868,0.364599,0.139672,0.280272,-0.504717,0.198449,-0.533303,-0.573922,-0.76628,0.0174642,-0.869552,-0.920499,-0.794833,0.216583,0.964539,-0.372889,-0.980136,0.835611,-0.788854,0.291435,-0.538157,-0.465053,0.863727,-0.460205,0.514898,0.73657,0.454762,0.212539,-0.875234,-0.308223,0.550049,-0.301843,-0.837909,0.252652,-0.223009,-0.162575,0.178326,0.792481,-0.0310764,0.770802,-0.981229,0.223742,0.113751,0.795256,-0.749451,0.0490096,0.91364,0.0766417,-0.459885,0.581625,-0.958964,-0.970604,0.276619,0.354274,-0.0042721,-0.547681,-0.0642076,-0.239865,-0.493652,0.826636,-0.0531295,0.0745665,0.0436722,-0.941332,0.610623,-0.0660478,0.412271,0.90305,0.608632,-0.931582,0.733153,0.402387,-0.749181,0.15919,0.341523,0.11751,0.138941,-0.487438,-0.294582,0.489562,-0.62092,-0.494726,0.254695,0.522212,0.902113,-0.190693,0.91784,0.19443,0.613138,-0.617793,-0.832667,0.457597,-0.867305,-0.973372,-0.94582,0.116792,0.697453,-0.66311,-0.749551,0.663686,0.451432,0.706625,-0.307054,0.550961,-0.605386,0.463731,-0.886487,-0.517575,0.873492,0.35759,-0.174496,-1.04468,0.849008,0.46013,-0.0023659,-0.595683,-0.319093,-0.277598,0.0638951,0.688788,-0.729914,0.900849,-0.223577,-0.55031,-0.570512,0.542577,-0.636249,-0.484773,0.237616,0.609626,-0.222773,0.379689,0.936579,0.432165,-0.50636,-0.910145,-0.774662,-0.546124,-0.363295,-0.678429,-0.0755246,-0.761775,-0.683109,-0.50127,-0.720206,-0.625113,-0.892747,-0.452569,-0.358251,0.877138,-0.389011,-0.721729,0.276943,-0.765661,0.703325,0.839844,-0.868164,0.887257,-0.990691,-0.704537,0.756481,-0.171331,0.681913,0.71499,0.0946062,0.670026,-0.357706,0.436401,-0.469094,-0.5103,-0.582797,-0.218346,0.136769,-0.390436,0.0860618,0.904151,0.0238781,-0.564754,0.378147,-0.988063,0.678043,0.180252,-0.67847,0.708842,0.130179,0.120291,-0.906589,0.457435,0.631417,0.851736,0.181958,0.361504,0.86824,-0.874447,-0.157438,0.039313,-0.969662,-0.530376,-1.04153,0.899002,0.89574,-0.375663,0.526792,-0.250684,-0.522414,0.841625,-0.512993,-0.370954,-0.174506,0.877883,0.577241,-0.596781,0.258731,-0.731112,-0.278626,-0.0897921,0.460308,0.547902,-0.258529,-0.288639,0.2399,0.0383929,-0.906558,-0.382398,0.605706,0.937428,0.795275,-0.97617,-0.880318,-0.0645133,-0.584602,-1.00644,-0.818292,-0.110339,0.195763,-0.738554,0.732943,0.208134,-0.847215,-0.670277,-0.625396,-0.278695,0.197239,0.404915,0.831858,0.663515,-0.801758,-0.524163,0.841665,0.327642,0.472924,-0.877231,-0.216601,-0.764999,-0.464471,0.78742,0.582363,0.720769,0.228662,0.237887,-0.766145,-0.932058,0.510852,-0.431407,-1.01746,0.469786,-0.299946,-0.623822,-0.484481,0.194203,0.544957,-0.328579,0.191998,0.629801,-0.182593,-0.748082,-0.69993,0.351356,-1.01044,-0.203957,-0.0245491,-0.728212,-0.919916,0.342188,0.0324487,0.612936,0.148797,-0.535959,-0.987437,0.000715209,-0.0136906,0.44543,-0.578963,0.711902,0.392294,0.550564,0.243869,-0.879161,0.0100569,0.26384,-0.219726,-0.311827,-0.55391,-0.477056,0.660032,0.238422,0.660604,-0.302849,-0.810272,0.7806,-0.542752,-0.320417,-0.177897,0.500559,-0.150478,0.90661,-0.602308,-0.226158,0.789461,-0.633743,0.58923,-0.173689,0.364405,-0.220547,-0.373454,-0.702549,0.103842,-0.677006,-0.999255,-0.240866,0.418936,-0.0818648,-0.727252,-0.155681,-0.0160264,0.0143737,0.592372,0.631532,0.326304,0.768804,0.339638,-0.438107,-0.591344,0.435084,-0.0942503,-1.0585,0.707646,-1.04913,0.777906,-0.585928,-0.558692,-0.175566,0.569486,-0.675292,-0.16717,-0.838941,-1.02552,0.914871,-0.818409,0.48861,0.617382,-0.974947,0.623497,-0.377035,0.252428,-0.99404,-0.620595,-0.0895667,0.687696,-0.36712,0.1095,-1.0184,0.355158,0.843958,0.705463,0.508247,-0.83466,0.749166,0.424892,-0.45129,-0.420358,-0.978359,-0.393821,-0.195062,0.178549,0.627811,0.393746,-0.888403,0.091705,-0.815767,0.154701,-0.0534999,0.493299,-0.925874,0.112224,-0.80779,0.840659,0.860562,0.143415,0.429281,0.790984,-0.593159,0.46435,-0.286769,-1.0157,0.079584,0.167557,-0.847606,0.887233
0.380007,-0.426202,-1.05062,0.203813,0.187548,-0.382065,-0.0131425,-0.0494382,0.184656,-0.0421141,-0.10968,0.171226,-0.432309,0.312436,0.667006,0.120042,0.677837,-0.795536,0.436899,-0.828977,0.204084,-0.0318659,0.0361612,0.0558421,0.510896,0.115754,-0.43062,-0.27482,0.388859,0.284431,0.728882,0.322492,-1.03169,0.751071,0.769583,-0.73811,0.676115,-0.551382,0.0578678,-0.212469,0.354339,-0.618642,-0.752944,-0.766964,0.0770192,-0.172504,0.146136,-0.33935,-0.798941,-1.02242,-0.342569,-1.00764,-0.510286,-0.629932,-0.124268,-0.544836,-0.826473,-0.705383,0.292111,-0.286826,0.678724,-0.119055,-0.975843,0.866736,0.804499,0.135714,-0.935057,-0.104928,-0.150935,0.393543,-0.938117,-0.366006,-0.757986,-0.277718,-0.83431,-0.529462,-0.584986,-0.485046,0.224439,0.0455042,-1.08221,-0.449146,0.693075,0.492182,-0.390721,-0.567509,0.852707,-0.1889,0.414433,-0.703731,0.552144,0.167928,-0.330934,0.10369,-0.843664,-0.51126,0.257647,0.53075,-0.135988,0.636516,0.421144,0.460252,0.386091,0.791603,0.152632,0.471873,0.727108,-0.779662,-0.494992,-0.898284,0.538564,-0.989225,-0.764577,0.493393,-0.672416,-0.992174,-0.156361,-0.326607,0.642304,0.165548,0.796004,0.468818,-0.122898,-0.337723,0.841066,-0.734827,-0.199344,-0.456913,-0.604984,0.714173,0.86249,-0.495406,0.124745,-0.422411,-1.06273,0.123908,0.0193526,0.751841,-0.525508,0.160462,0.272953,-0.143763,-0.978238,0.637467,0.566893,0.800014,0.0903699,-0.87336,-1.04728,-0.705132,-0.0715909,0.532737,-0.573176,-0.472202,-0.794934,0.145565,-0.42693,-0.39734,0.0651015,-0.698303,-0.169574,-0.15094,0.655282,-0.0443711,-0.444958,-0.238741,-0.432143,-0.268148,-0.783526,-0.612661,0.543594,0.598832,0.57267,-0.877623,-0.328997,0.583427,0.46241,0.672728,-0.470756,0.765606,0.243027,0.775731,0.823954,0.706374,-0.401848,0.737463,-0.126191,-0.395003,0.296323,0.805456,0.0968501,0.853191,-0.614455,-0.00856226,0.423595,0.345327,-0.360501,-0.679926,-0.233895,0.164686,0.552115,-0.593494,-0.209152,0.348069,0.592808,-0.0797827,0.440056,-0.0728863,0.359635,-1.00071,0.0972527,-0.844132,-0.152411,-0.576338,-0.710637,-0.738883,-0.572063,0.156296,0.445033,-0.417065,-0.225714,-0.0914571,-0.788212,0.0299088,-0.431588,-0.729156,-0.927056,-0.357363,0.104998,-0.359244,0.39838,0.0260726,-0.684579,-1.07747,0.631865,-0.0497861,-0.0157305,0.851108,0.0901504,-0.867496,0.323197,-0.558294,0.172672,-0.475152,0.245496,-0.618384,-0.503586,0.0548268,0.762677,-0.288967,-0.782543,0.728037,-0.211821,-0.240614,-0.993906,-1.09944,-0.997849,-0.863975,-0.94848,0.453161,-0.976285,-0.718612,-0.333571,0.960306,-0.797029,0.0629418,-0.100867,-1.04936,-0.542557,0.713056,-0.263651,-0.420841,-1.03508,0.285515,-0.203008,0.709492,0.588333,0.420219,0.583588,-0.443851,0.661656,-0.441218,-0.594894,0.0196141,-0.904398,-0.413489,-0.173585,-0.259242,0.338818,0.0248818,0.328096,0.572599,-0.831775,-0.373931,-0.696277,-0.674559,-0.360986,0.363296,-1.01159,-0.89998,-0.217714,-0.0488894,0.377876,0.321739,0.545176,-0.441106,0.409902,-0.344995,-0.789074,0.144181,-0.815294,0.874355,0.450695,0.00129177,-0.953421,-0.359371,0.834419,0.420814,-0.739033,-0.358349,0.072881,-0.718073,0.180837,-0.441906,0.734822,0.272189,0.46972,0.356443,-0.773763,-0.0429631,0.674822,0.0465927,-0.218204,0.233367,-0.807638,0.25477,-0.608104,0.156331,-0.224812,-0.689345,0.604038,0.591162,0.767086,-0.899149,-0.109384,-0.943445,-0.542157,-0.0272953,0.0795063,0.142817,0.58366,-0.790408,-0.80653,-0.66294,0.122823,0.913143,0.0219241,0.854004,0.24263,-0.130236,0.357142,-0.223016,0.061553,0.498785,-0.765269,-1.01158,-0.486064,0.125596,0.929785,-0.206508,0.5549,-0.253364,-0.979041,0.197718,-0.576979,0.277364,-0.00764086,0.761731,0.427675,-0.199326,-0.249168,0.612553,-0.626235,0.82447,-0.169782,-0.595757,-0.921987,-0.944005,0.707892,-0.635369,0.8799,-1.05169,0.247003,0.0280212,-1.0557,-0.993152,0.551741,0.0282359,-0.743982,-0.231292,-0.627977,0.721137,-1.07802,-0.526132,-0.0929433,0.519621,-0.0227092,0.672793,-0.327124,0.582341,0.488028,0.905858,0.037842,-0.868564,0.600695,-0.777072,-0.588126,0.035305,0.517169,0.431219,0.154361,0.836315,0.582026,0.389346,-0.194976,-0.827667,0.210195,-1.00682,-0.701509,0.468704,0.288286,-0.924771,-0.701217,0.191182,-0.700708,-0.078679,-0.264529,-0.906825,-0.24728,0.307629,-0.369356,0.679028,-1.02628,0.8138,0.49492,0.363339,-0.8508,-0.945905,-0.601257,-0.276364,-0.199326,0.84535,-0.780265,-0.333022,-0.775649,0.772271,-0.313766,-0.347481,-0.909021,-0.641897,0.590697,-0.878405,0.814829,-0.386537,0.356716,-0.868684,-0.180464,0.343152,-0.234917,0.0333489,-0.0163785,-0.0353011,0.883179,0.867887,-0.472779,0.0314905,-0.250538,0.646496,0.721394,0.442305,-0.376716,-0.892534,0.418499,-0.361053,0.719653,0.782814,0.89667,-0.011607,0.720677,0.797167,-0.235263,-0.315371,-0.322558,-0.0463057,0.386779,-0.555299,-0.18979,-0.569376,-0.194555,-0.578515
-0.800233,0.88082,0.0026966,0.417142,0.606555,-0.342071,-1.0376,-0.597835,-0.360324,0.644283,-0.75729,-0.37845,-0.312784,-0.151172,-0.746752,0.769164,0.731842,-1.05196,0.467752,-0.0004877,-0.0458524,0.132864,0.441151,-0.478599,-0.615416,-0.777944,-0.672324,-0.239743,-0.762076,-0.0046089,-0.872838,-0.0191143,0.926039,0.106068,-0.0521561,-0.965699,-0.254476,0.041415,0.785729,0.276283,0.382851,-0.178664,-0.730327,0.516108,0.808882,0.145426,0.119541,-0.93417,0.100611,-0.125958,0.924517,0.770565,0.382359,-0.94526,-0.391401,0.323541,0.534835,-0.634133,-1.06775,0.158593,0.0730099,-0.373371,-0.220439,-0.254156,0.0860441,-0.766846,-0.910655,-0.656855,0.491043,-0.662891,-0.299002,-0.158932,0.597017,-0.308185,0.627651,0.450101,-0.410255,0.650725,-0.107397,0.875582,-0.382764,0.767799,0.116485,0.526937,-0.523704,0.681389,0.173863,0.505829,0.542308,0.261463,-0.580034,0.701493,0.0457157,0.810037,0.738122,-0.805662,-0.180425,0.860675,-0.166962,-0.179269,0.0830527,-0.468291,0.0534929,-0.844112,-0.892519,0.0919535,-0.186509,-0.847163,-0.0523301,-0.565536,-0.297556,0.344712,-0.570502,-0.592917,-0.694699,0.42498,-0.505153,-0.344596,0.0668395,-0.996303,0.136207,-0.693584,0.654107,-0.478019,-0.476088,0.638189,-0.388093,0.144529,0.154919,-0.673978,0.433772,0.331235,-0.342066,-0.158637,-0.341232,-0.77465,-0.103835,-0.0892396,-0.520457,-0.69649,0.8447,0.0112779,-0.565394,-0.139242,0.784118,0.366825,-0.251248,-0.900498,-0.744579,-0.190143,-0.274543,0.607724,-0.772767,0.376644,0.139253,-0.0939612,0.754886,-0.420465,0.789299,0.105916,0.765022,0.643018,0.0183671,-0.191397,0.685615,-0.481377,-0.709048,-0.883679,-0.742051,-0.0257821,-0.741319,0.0186737,0.225631,0.665293,0.746807,-0.937695,0.303623,0.617652,-0.593537,-0.335447,-0.107222,0.645823,-0.899886,-0.437785,-1.08859,-0.184964,0.388988,-0.0554812,-0.0190624,-0.614968,-0.0102444,-0.25797,0.339924,-0.137886,-0.793156,0.711774,0.403651,0.246244,0.684126,0.304897,0.124632,-0.319784,0.360291,0.178517,-0.81685,-0.152732,0.0785518,-0.818444,-0.236774,-0.618257,-0.493211,-0.319084,0.656103,-0.963807,-0.330248,0.255186,-0.289284,0.651505,0.535904,0.66157,0.208767,-0.527396,-0.640498,-1.02223,0.303463,-0.995667,0.484166,-0.954316,0.804523,-0.591535,-1.00983,0.813608,0.557721,0.724065,0.743296,-0.712415,0.888555,0.78453,-0.0994176,0.560669,-0.586386,-0.173546,0.327165,-0.978373,-0.425212,0.190612,-0.844343,-0.584436,-0.976386,0.0770347,0.255297,-0.29896,-1.00293,-0.670487,0.435473,-0.901569,0.299337,0.787089,-0.416531,-0.28363,0.127318,-0.737064,0.357914,-0.0746596,-0.549107,-0.854555,0.284447,0.589584,0.850367,-0.213674,-0.336448,0.257745,-0.052674,0.270806,-0.923036,-0.624761,-1.00111,0.486798,0.779351,-0.0427923,-0.709323,-0.687358,0.790691,0.444112,-0.988893,-0.702783,-0.631927,0.708608,-0.824255,0.305703,0.445014,0.41882,0.0379505,0.663306,0.377537,-0.289742,0.0574581,-0.551026,-0.36035,-0.471145,0.707982,0.273137,0.499495,0.93721,0.704656,0.853264,0.150013,0.244462,0.0246006,0.573611,0.156861,-0.0904767,0.573837,-0.95459,0.852969,0.441824,0.342839,0.459298,0.335767,0.00844726,0.848143,0.621161,0.155675,0.634375,-0.364261,0.823672,-0.955725,-0.192197,-0.294039,0.84135,0.801917,-0.99036,0.327595,0.868041,-0.737686,0.181181,-0.884632,-0.907845,-1.06329,-0.16252,0.0680522,-0.339662,0.212109,0.0732387,-0.332085,-1.06565,-0.326278,-0.914893,-0.904971,-0.520419,0.695123,-0.380959,-0.455268,0.350782,-0.168986,0.15019,0.167939,0.459665,-0.164668,-0.987154,0.6952,-0.261745,0.100032,-0.898561,-0.535548,0.935169,0.731749,0.738618,0.175377,-0.447746,-0.905973,0.919317,0.854186,-0.168788,-0.0638772,0.140354,-0.279425,-0.0840729,-1.00045,0.341048,-0.160058,-0.490539,0.352675,0.742287,-0.475282,0.411687,-0.714729,0.588894,0.260948,0.950459,0.915842,-0.990147,0.922434,-1.02127,-0.996049,-1.08183,-0.27479,0.519755,0.381293,-0.336546,0.419476,-0.611445,0.645258,0.834593,-0.41342,-0.178611,0.786366,-0.808318,-1.06476,0.563013,-0.397532,0.0708121,-0.291538,0.411395,0.127964,-0.329913,-0.0106547,-0.230539,0.84687,-0.235018,0.256108,0.219688,-0.940069,-0.625199,0.522025,-1.01546,0.469177,0.643684,-0.459603,-0.0021795,0.36677,-0.356674,0.794677,-1.03242,0.246888,-0.617823,0.180547,0.745901,-0.608576,-0.015267,-0.540171,-0.806427,-0.875291,0.697431,0.310684,-0.406699,-0.0377271,-0.610852,-0.844047,0.432364,-0.264538,0.260031,-0.484709,-0.334189,0.0896019,-0.514486,0.880009,-1.00185,0.0809934,-0.0579968,-0.711234,0.160064,-0.731531,-0.213546,-0.329741,-0.110727,0.867144,0.226461,-0.270491,-0.0163455,-0.623729,-0.136466,-0.933721,0.742204,-0.775499,-0.0406053,0.299645,-0.972819,0.338006,0.1819,-0.486742,0.703991,-0.497378,-0.152309,0.645289,-0.394656,0.589627,-0.96196,0.0331072,-0.258034,0.332581,0.0305714,0.0475567,-0.0577759,0.277756,0.716537,0.883583,0.552238,0.358078,-0.154716
0.542599,0.476945,-0.0122378,-0.738765,-0.357531,0.359751,-0.81057,-0.44509,-0.142344,-0.770279,0.350845,-0.00242684,0.386985,-0.35455,0.371045,-0.43665,-0.0543125,0.256277,0.358759,0.676944,0.709769,-0.106648,-0.171823,-0.278297,-1.0119,-0.612429,-0.198127,-0.0757194,-0.552955,-0.640407,0.352967,0.941365,-0.996799,-0.638696,-0.856278,0.161554,0.888934,0.168652,0.609145,-0.775302,-0.135919,-0.43049,-0.584959,-0.478929,-0.661538,-0.676091,-0.482839,0.237426,-0.588592,0.00547419,0.81319,-0.863656,0.384857,0.669995,-0.635673,-0.053633,-0.500024,-0.287316,-0.407547,0.974426,0.348502,-0.472175,-0.455774,-0.932326,-0.254096,-0.146595,-0.611439,-1.0049,0.153583,0.947185,-0.914863,0.737657,0.277297,0.683442,-0.882984,0.227756,-0.176685,0.170374,0.00234267,0.401852,-0.806318,0.613356,0.235884,-0.835134,-0.5983,-0.427908,-0.825078,0.300049,0.289016,-0.079817,0.670183,-0.758196,-0.5078,-0.280706,-0.818077,0.75926,-0.0493402,-0.940979,-0.868188,-0.970036,-0.742809,0.526605,-0.519847,-1.00049,-0.255632,-0.857832,0.851268,-0.420635,-0.422134,0.535464,-0.326465,-0.309134,0.750868,0.659739,-0.319559,0.517983,0.300734,-0.631695,-0.521425,0.709053,-0.638347,-0.614593,-0.936225,0.682492,-0.673075,0.296855,-0.105534,0.187476,-0.702319,0.83635,0.494096,0.822893,0.484741,-0.286773,0.861913,0.287666,-0.250807,-0.803756,0.737422,-0.00278047,0.155231,-0.855892,0.221827,0.498385,0.0148919,-0.555088,0.439619,0.549827,0.491551,0.938388,-0.259815,-0.943957,0.0812086,0.66618,0.22933,0.0250036,-0.949152,-0.0715049,0.318895,0.0374707,-0.0463972,0.641811,-0.246352,0.538592,0.259884,0.797136,-0.512752,0.39879,-0.609096,-0.0912237,0.852427,-0.871128,0.777643,-0.467505,0.521547,-0.111024,0.845894,0.396108,0.312968,-0.775655,-0.0559358,0.524756,-0.454121,-0.956509,0.308696,0.07302,-0.412592,0.348291,0.0692457,0.858445,-0.0223265,0.0773263,-0.888287,-0.598065,-0.838555,0.380089,-0.0902577,0.351685,-0.38379,-0.346724,-0.527758,0.347185,-0.601648,0.423081,0.729594,-0.786157,-0.509507,0.777769,0.268327,-0.708463,0.0743494,0.805246,0.334388,-0.655637,-0.959596,-0.608295,-0.842087,-0.81094,0.408418,-0.212826,-0.130546,-0.461485,-0.882397,0.0903983,-0.558314,-0.423628,0.685419,0.410144,0.236574,-0.94333,-0.792633,-0.713057,-0.0927836,-0.174287,0.0907688,0.818942,0.7262,0.17556,0.770379,0.593712,0.610741,0.341598,-0.349082,-0.500488,-0.770348,0.106475,-0.836627,-0.530737,-0.497455,-0.710109,0.844149,-0.0538732,-0.1796,-0.0445335,0.547059,0.552485,-0.0542086,-0.10802,-0.762995,0.0771552,-0.750741,-0.333514,-0.194771,0.136433,0.347175,0.189725,-0.901236,0.671891,-0.968717,-0.307409,0.139213,-0.136077,0.0754409,-0.583788,-0.960079,0.170418,0.126005,0.25839,0.424705,-0.502988,0.865277,0.709078,-0.258546,-0.443055,-0.992501,0.542821,-0.397964,-0.712169,0.136639,-0.381786,0.607754,-0.884497,0.829697,-0.692717,-0.0430155,-0.688809,0.405499,-0.92853,0.298351,-0.377235,-0.649933,-0.788091,0.649846,-0.251632,-0.931961,-0.93371,0.142668,-0.0800121,-0.456449,0.0858556,0.837027,-0.90213,0.716124,-0.442328,0.904891,-0.646899,0.582481,0.0484858,-0.767411,0.466511,-0.734895,-0.327733,-0.286513,0.758008,-0.214863,0.445335,-0.979439,-1.00628,0.720339,-0.0632609,0.0868458,0.0325345,0.908474,0.255961,0.602036,0.967807,-0.36935,-0.948397,0.571353,-0.883081,-0.767182,0.631771,-0.683267,-0.510661,0.940474,-0.457593,-0.694175,0.0641486,0.403856,0.811729,-0.125849,0.115777,-0.471863,-0.296331,-0.902442,0.658633,-0.661839,0.970128,0.551813,-0.278782,-0.461688,-0.493561,0.159011,-0.338043,0.499075,-0.742673,0.237092,-0.0553686,-0.448821,0.677201,-0.676877,0.257359,-0.383048,0.157382,0.471808,0.40101,-0.952974,0.586208,-0.558051,-0.512479,-0.51709,0.104972,-0.881231,0.17306,0.912394,-0.833483,0.0226606,-0.057255,-0.695715,-0.619634,-0.396976,-0.687338,0.506787,0.542457,-0.104843,-0.604494,-0.0437071,-0.679703,-0.822193,0.489715,-0.322042,0.342415,-1.00951,-0.17279,0.967597,0.872194,-0.243603,0.913335,0.446199,-0.747124,0.0969307,-0.168569,0.380267,-0.503936,0.224665,0.693399,-0.0507996,-0.832118,0.509803,-0.451113,0.908419,0.0864898,-0.34575,0.518676,-0.486244,0.715318,0.185975,-0.1624,-0.696163,0.712682,-0.136886,-0.414931,0.211124,-0.916471,0.565393,0.36155,-0.336202,-0.829215,-0.821369,-0.425801,0.0271676,-0.407905,-0.0997802,0.263664,0.162952,-0.976501,-0.00465921,0.56321,-0.414112,0.434731,-0.524887,0.751734,0.241699,-0.366295,-0.735657,-0.0772283,0.417029,-0.788271,0.753423,-0.178584,-0.068666,-0.290238,-0.495038,-0.665355,0.0926923,-0.367556,0.96917,-0.318366,-0.465264,0.249708,-0.484746,-0.0937571,-0.884892,0.0136582,0.489275,-0.53121,0.733236,0.0089115,0.551888,0.521598,0.964036,-0.844546,0.377396,0.253946,-0.707943,-1.01769,0.540672,-0.626213,-0.594235,-0.357908,0.899261,-0.662602,-0.460422,0.0759224,-0.294057,0.336063,-0.367522,0.359435,-0.705952,-0.42577
-0.66567,0.470757,0.623594,-0.153357,-0.751767,-1.02893,0.27297,0.823906,0.666375,0.805699,-0.725218,0.424483,0.86212,-0.645856,-0.597999,-0.957829,-0.719492,0.0116703,-0.728013,0.00561995,0.303612,-0.76516,-0.419792,-0.19194,0.643438,-0.976065,-0.851973,-0.830316,-0.751238,0.638019,0.00316903,0.794474,-0.363654,0.155857,-0.799124,0.824455,0.547482,0.715757,0.262417,-0.138906,-0.0974993,-0.956663,0.495686,0.535425,0.79778,-0.602892,0.909956,0.410443,-0.159177,0.758,0.130686,-1.0483,0.00465414,-0.536653,-0.084853,-0.672801,-0.523425,0.352115,-0.965226,0.291033,0.715111,0.311259,-0.343769,0.434011,0.91938,-0.265816,0.231032,-0.446876,0.0267204,-0.720664,-0.541469,0.355457,0.596649,-0.826796,-0.327778,0.709981,-0.995191,0.0316965,0.914401,-0.199754,-0.771274,-0.163831,-0.919963,-0.212695,-0.510517,-0.401987,-0.562412,0.479079,-0.556409,-1.01749,-0.680869,0.257231,0.543359,0.0646835,0.169591,0.198977,-0.580535,0.798776,0.00694704,0.00529883,0.68088,0.337798,-0.745658,-0.697915,0.889236,0.0669933,-0.230761,-0.719261,0.635614,0.469866,0.0809541,-0.669219,-0.439232,-0.855664,-0.850178,0.408129,-1.02728,-0.23831,0.518566,0.239596,0.19337,0.170219,-0.316234,0.27807,-0.657635,0.65865,0.776307,-0.129106,-0.0464136,-0.187619,0.653633,0.396093,-0.770406,-0.0617527,0.69801,0.52959,-0.41979,-0.819933,0.86573,-0.201432,-1.06942,0.226433,0.188915,-0.822214,0.0754856,-0.541585,-0.212182,0.487578,-0.283058,0.792016,0.563148,-0.56253,-0.307119,-0.433555,-0.337848,0.643843,-0.581292,-0.474852,0.671113,-0.964298,0.255788,-0.893189,0.828468,-0.358134,0.693893,-0.950471,0.359697,-0.707426,-0.541716,0.364494,-0.525559,-0.76474,0.884334,-0.447261,-0.642998,-0.0869013,-0.833328,-0.652396,-0.762526,0.0207963,0.0310241,-0.639049,-0.540843,-0.0955138,0.20273,-0.365952,0.747241,0.389851,-0.824523,-0.846707,-0.37199,-0.664157,0.0363849,0.850433,0.879163,-0.250545,-0.246727,-0.46889,-0.131444,-0.759354,-0.283689,-0.387526,-0.187399,-0.977338,0.819099,-0.0354858,0.473909,-0.0924597,-0.0409246,-0.380567,-0.0658474,-0.907352,-0.881431,0.65569,-0.339139,0.404493,0.560372,-0.150954,-0.30443,-0.940609,-0.625221,-0.0591493,-0.173964,0.010667,0.419204,-0.987541,-0.808413,-0.737295,0.121808,0.197141,0.392221,-0.407463,0.639222,-0.39393,0.535364,-0.732848,0.320519,-0.812126,0.424785,0.59653,-0.607943,-0.063014,-0.248596,-0.156269,0.158499,-0.808709,-0.396107,-0.0982084,-0.41799,0.565278,0.196198,-0.321429,0.0994034,0.76979,0.0581794,-0.501352,0.733503,-0.184153,-0.136625,0.216132,-1.02093,-0.928167,0.600272,-0.792564,-0.811498,-0.437927,0.230208,0.506667,0.0858589,0.252994,0.709776,0.379649,-0.40565,-0.715346,-1.00201,0.45228,-0.21074,-0.408549,0.837018,-0.958494,0.00145007,-0.158986,0.663158,-0.829585,0.363332,-0.622378,-0.190101,0.543873,0.372917,-0.389627,0.0392177,0.65762,-0.809729,-0.62094,-0.238971,-0.864833,0.897647,0.515695,-1.0186,0.00263314,-0.705688,0.823318,-0.523985,0.313126,0.49435,0.271222,-0.561458,0.48685,-0.745287,-0.837485,0.523914,0.778316,-0.540837,-0.768091,-0.313315,0.3182,-0.889582,0.495585,0.193247,0.049032,-1.03215,0.819112,-0.523553,0.624401,0.307069,-0.49158,0.647418,0.612551,0.365404,-0.269226,-0.231059,0.854348,0.746149,0.0281907,-0.674304,-0.582164,0.15064,-1.01329,0.608057,-0.967457,-0.79978,-0.856344,-0.0906873,-0.177542,-0.0431411,-0.82263,-0.212785,-0.467867,-0.129532,-0.246726,0.328257,0.472595,-0.730353,0.830249,-0.684704,-0.103625,0.205081,0.497069,0.0673979,0.660907,-0.742736,0.208715,-1.00653,0.565344,-0.346367,-0.737606,-0.100323,-0.850634,-0.149243,-0.619212,0.47943,-0.108663,0.182549,0.258899,-0.506602,-0.0957739,0.313669,-0.6375,-0.967421,-0.00925712,-0.406877,0.517819,0.865782,0.309391,-0.940037,0.933695,0.439845,0.695149,-0.0575264,0.4813,-0.461281,0.0622494,-1.02437,-0.382461,-1.02507,-1.112,0.33968,0.75077,0.0607549,0.815237,-0.510283,-0.915533,-0.13737,0.928763,0.197188,0.280217,0.868385,-0.455209,0.398861,-1.01339,-0.376291,-0.558731,0.796751,0.548677,0.700474,-0.368803,-0.809555,-0.437228,-0.72697,0.123578,-0.823196,0.538036,-0.921171,0.585185,0.67723,-0.533152,0.462864,-0.514904,0.492914,0.0975178,-0.101754,-0.720207,-0.490338,0.348465,-0.987237,-0.326537,0.766454,-0.183375,-0.766568,0.317026,0.789989,-0.633782,0.520573,0.419557,-0.890779,-0.651073,0.605295,0.0362258,0.366399,0.5244,-1.00711,-0.377973,0.509496,0.595636,-0.533026,0.231354,0.132019,-0.0704967,0.247271,0.432844,-0.158418,0.770568,0.807984,-0.724955,0.487956,0.0157954,0.437075,-1.00335,0.156971,0.231788,0.466734,-0.302681,-0.890252,-0.170809,-0.432447,0.0529241,0.242101,0.867764,-0.186091,0.371953,-0.126945,0.619249,-0.0976131,0.398883,-0.654516,-0.226495,-0.299442,0.359035,-0.210555,-0.894985,-0.558007,0.00419219,-0.840884,-0.588355,0.741078,0.0457019,-0.349964,0.511737,-0.357422,0.746578
-0.0362383,-0.364321,-0.0709284,-0.665327,0.204317,-0.801493,-0.371163,-0.302879,0.768615,0.629549,0.312949,-0.83469,-0.347149,-0.602394,0.729932,0.368222,-0.711486,0.603938,-0.225657,-0.778974,0.371416,0.632796,-0.277128,0.646064,0.00937517,0.0828187,-0.640815,-0.886972,0.128708,-0.383817,-0.00569867,0.8255,0.380042,-0.69483,-0.717125,-0.218184,-0.33727,0.384583,0.837399,-0.288836,-0.767301,0.579875,-0.757743,-0.378622,0.842599,-0.376583,0.306013,-0.246927,-0.0829017,0.750728,-0.00212013,0.472819,-0.818696,0.388035,-0.00198672,-0.00952795,0.30307,-0.993546,-1.03517,0.72917,-0.332128,-0.487001,0.282927,-0.427434,0.779675,-0.0514224,0.529873,-0.645226,0.863073,0.920893,0.0705217,0.645718,-0.151877,0.39645,0.71785,0.157493,-0.0668073,-0.65672,0.775888,0.404786,-0.242473,-0.100714,-0.961704,0.833929,-0.0658234,-0.782259,-0.475561,-0.663298,0.673971,-0.583913,-0.054605,0.239784,0.830511,0.603198,0.251629,-0.48841,0.479975,0.699017,0.0647601,0.644754,0.729289,-0.781308,0.88281,0.539486,0.255108,-0.705496,-0.888612,0.767914,-0.551702,-0.7328,0.52054,0.533821,-0.401973,0.693711,-0.395364,0.510672,0.0566776,0.245472,0.760517,0.0622007,0.165506,0.490673,-0.172657,0.265542,0.913839,-0.0801131,-0.917701,0.455519,-0.882303,-0.898119,0.674937,0.742566,-0.626729,-0.364776,-0.163144,0.499257,-0.288631,-1.09105,-0.205521,-0.876804,-0.661093,-1.04634,0.143726,-0.978353,-0.161148,0.0624693,0.728461,-0.662246,-0.171121,-0.734897,-0.142176,0.79211,0.334443,0.313844,-0.141073,-0.480931,-0.0588321,0.731444,0.588052,0.239762,0.0809734,0.26047,-0.657732,0.247039,0.740754,-0.0843779,0.554388,-0.706088,-0.912545,-0.398283,0.8446,-0.337472,0.542037,-0.0882729,0.51031,0.869982,-0.401842,-0.28505,-0.0746882,-0.88338,0.605815,-0.640822,0.522566,0.0641446,-0.767382,0.275837,0.708478,0.0821277,0.353339,0.132825,-0.128201,-0.732784,-0.981211,-0.132384,0.828093,-1.08311,0.21012,-0.979955,-0.148468,-0.763913,-0.0218206,-0.77248,-0.830101,0.132172,-0.591275,-0.0677526,-0.94197,-0.831291,-0.720651,-0.789718,-0.545757,-0.556883,0.0828681,0.773247,0.851065,-0.355696,-0.405369,-0.434923,0.134405,-0.902001,-0.890468,0.0260559,0.930791,-0.652448,0.0142664,0.273488,0.250855,0.441246,0.551081,-0.25681,-0.711899,-0.963494,0.915381,-0.286944,0.866684,-0.781075,-0.710029,-0.644302,0.443192,0.441888,0.869195,0.583496,0.421454,0.654972,-0.373756,0.736504,0.897188,0.560935,-0.140275,0.355647,-0.341018,0.558249,0.241597,0.843768,0.785993,-0.37705,-0.315713,-1.01701,-1.05746,0.890137,0.215563,-0.703143,-0.479302,0.236299,0.870605,0.362266,0.195655,-0.378513,-0.00411575,0.0401721,-0.211934,0.0439266,0.102767,-0.199323,-0.92088,0.873095,0.0367649,-0.846968,0.104363,-0.406012,0.233731,0.236957,0.742238,-0.0815709,0.165454,0.836844,-0.717873,-0.243087,-0.726378,-0.509744,-0.508953,-0.105405,-0.0993288,0.515801,0.497227,-0.986727,0.36854,0.670237,-0.0979634,-1.03462,-0.0857805,0.119877,0.673708,-0.766418,0.808481,-0.782079,0.109352,-0.848651,0.208291,-1.00782,-0.117554,-0.213668,0.635009,-0.433183,-0.0214613,0.699828,-0.634732,0.302892,-0.0926079,-0.542891,0.54291,0.0472111,-0.139963,0.0740654,0.635042,-0.336912,-0.340094,0.474008,-0.669948,0.00242893,-0.515437,-0.52507,0.307259,-0.962216,0.826942,-0.509809,-0.44185,-0.000980645,-0.37496,0.681872,-0.543645,-0.482752,0.16792,0.348977,-0.151971,-0.52681,0.823362,0.674919,-1.1566,-0.451007,-0.173678,0.00633742,-0.380707,0.0175787,0.795752,-0.922355,0.328693,0.0352413,-0.666276,0.652756,-0.79686,0.693865,-0.879728,-0.77975,-0.0571948,0.517882,-0.341144,0.61507,-0.890195,-0.0279785,0.383089,0.620482,-0.0248902,-1.01568,-0.461364,-0.545053,-0.359866,-0.146848,0.492792,0.717921,-0.960729,-0.069346,-0.587642,0.684951,-0.780431,0.0761529,0.49123,-0.833142,-0.106847,0.874515,0.54211,-0.737721,0.00606565,-0.0753971,-0.771362,0.64168,-0.419927,0.187994,-0.499255,0.728222,0.209173,0.573031,-0.787295,0.219184,-0.293289,-0.0308602,-0.918455,-0.283075,0.0469737,0.182627,-0.513239,-0.875197,0.595898,0.856358,-0.14856,0.428664,-0.00275349,-0.505419,0.362056,0.142572,-1.03346,0.874116,-0.631106,-0.446705,-0.670796,-1.00032,0.362839,-0.857757,0.637899,-0.970646,-0.881023,-0.778172,-0.0426829,-0.482392,0.327551,0.508018,-0.218848,-0.468022,-0.455863,-0.348809,0.0483366,-0.00970024,0.131929,0.496171,-0.903812,0.411592,0.774094,0.710708,0.311422,0.708553,-0.979373,-0.698925,-0.988838,0.120854,-0.650135,-0.481184,0.626833,0.39271,0.588895,0.3915,-0.0885608,-0.881151,-0.43576,0.658595,-0.286318,-0.407462,0.314929,0.252297,-0.856838,0.121491,0.739807,-1.04184,0.232929,0.583956,-0.858418,-0.437164,0.913686,0.194611,-0.714892,0.206538,0.743777,-0.687815,-3.29788e-05,0.795201,0.27841,-1.09204,0.382122,-0.642422,-0.305846,-0.213831,-0.60056,-0.688115,0.203405,-0.35406,-0.159955,0.627753,-0.116489,0.263178,0.500137,0.241506
-0.874808,-0.378229,0.0646399,-0.646501,-0.255617,-0.140498,-0.526407,0.679535,-0.774697,0.110729,0.165817,0.116516,-0.541429,-0.107355,0.661013,-0.21545,0.0961648,0.191717,0.509437,-0.176932,-0.334924,-0.290588,0.479277,0.185996,0.256401,0.562767,0.777207,-0.792892,-0.398731,-0.680527,-0.617337,0.718772,0.659016,-0.933569,-0.420493,-0.132365,-0.614852,-0.986976,0.318331,-0.934824,-0.441054,-0.534129,0.855585,-0.643631,-0.0698532,-0.816747,0.378784,0.442628,0.150402,-0.990412,0.244244,0.542386,-0.0156669,0.862465,0.430021,0.17503,-0.000636068,0.448013,0.435606,-0.181385,-0.44343,0.283121,0.491419,0.442761,0.672894,0.820435,0.114201,-0.209573,-0.743178,0.712575,0.162655,0.868318,0.331084,0.132377,0.674581,-0.676009,-0.0557,0.46615,-0.433603,0.494904,-0.25839,-0.476018,0.667327,-0.809326,0.625159,-0.309145,0.788453,-0.0730852,-0.0114017,-0.853879,0.246891,0.0111914,0.446109,0.738955,0.813942,-0.706685,-0.766752,-0.59261,-0.177107,0.592107,0.712467,-0.773549,-1.0749,-0.309882,-0.978569,-0.200671,-0.685497,0.173269,0.603805,-0.0158389,-0.201911,0.0622895,0.547883,0.688679,0.749257,0.366479,-0.916858,-0.157668,-0.149088,-0.589456,0.133921,0.542483,0.35011,0.538448,-0.774325,-0.216079,0.411681,0.813013,0.00536196,-0.604801,-0.927838,0.583414,0.620777,-1.0238,0.751584,0.896527,0.356369,-0.712477,0.533784,0.615886,-0.77728,-0.255128,0.0372848,0.0244663,-0.769674,0.327608,-0.288378,-0.0761259,0.343747,-0.241992,0.514243,-0.309206,0.149767,0.165124,-0.358667,-0.612477,0.685353,0.682427,0.882977,-0.884579,-0.421395,0.326247,-0.530827,0.505705,0.142106,0.727024,0.523881,-0.853988,0.361855,-0.00413556,-0.171122,0.734936,-0.749569,0.957664,-0.860155,-0.342375,-0.650235,-0.64061,-0.271607,-0.747777,0.217374,0.440148,0.888267,0.475742,0.664768,0.0189033,0.44728,-0.0190213,0.798278,0.220473,-0.289198,-0.0173741,0.154229,0.731609,0.2165,-0.5174,0.267812,0.360196,0.923472,-0.0432818,-0.471648,-0.480278,-0.0953893,-0.185003,-0.80711,-0.100898,0.652531,-0.368668,0.698554,-0.552537,0.823913,-0.0240104,-0.52171,0.80293,-0.23134,0.172662,-0.539642,0.912597,-0.975548,0.772671,-0.718848,0.0388668,-0.873362,0.771958,-0.870185,-0.726175,-0.462666,-0.702885,0.340963,0.539545,-0.950902,0.197618,-0.60083,-0.584165,-1.01487,0.307393,0.0804203,0.454526,-0.282111,0.333603,0.262122,0.847765,-0.183962,-0.801789,0.303545,-1.02786,0.830842,-0.475323,-0.657262,-0.972517,-0.283388,0.300807,-0.966812,-0.255555,-0.508165,0.0960194,-0.265961,-0.255028,0.705498,0.209219,0.00390078,0.217479,-0.0985373,-0.866736,-0.297078,-0.224329,0.713961,-0.117543,0.158594,0.0673589,-0.197458,0.568792,0.469957,-0.978201,-0.97813,0.0409035,-0.686323,0.0883391,0.0122941,-0.623006,-1.01151,-0.683892,0.681733,0.539951,-0.84693,0.292626,-0.500673,-0.790496,-0.498356,-0.531753,-0.395992,-0.160429,0.286721,-0.0258519,-0.387346,-0.159658,-0.687202,-0.258194,0.697762,-0.557285,-0.938804,0.0893096,0.500355,-1.02292,-0.193519,-0.406835,-0.481045,-0.571076,-0.687903,0.434012,-0.106218,-0.388041,0.605984,0.540676,-0.239484,-0.554425,0.313774,-0.138771,0.399294,0.217338,-0.146477,-0.827994,-0.975086,-0.339615,0.627716,-0.334009,-1.07457,0.0097485,0.717281,-0.267222,-0.973884,0.38465,-0.0634235,0.796923,-0.410036,0.0704843,0.545798,0.580748,-0.624989,0.764908,-1.10647,-1.06153,0.829476,-0.746399,-0.956288,-0.428093,-0.553561,-0.212818,-0.374415,0.524538,-0.735012,-0.497694,-0.00407896,0.0609825,-0.426149,0.104741,0.066568,-0.130549,-1.09961,0.555749,-0.506296,0.490621,0.184029,0.11679,0.343823,0.155305,0.34738,0.474752,-0.2809,-0.115244,-1.06523,0.555022,0.476667,0.331491,-0.0440482,-0.3803,-0.615185,0.162145,0.634667,0.0241696,-0.308438,0.494855,0.0155252,0.173947,-0.651354,-0.674729,-0.201883,0.390802,-0.979286,-0.264253,0.152473,0.566214,0.861528,-0.441145,-0.791017,-0.0414266,-0.348074,0.796766,0.696093,-0.260996,0.171526,-0.214612,-0.395406,0.0675011,-0.315564,0.192516,-0.968536,0.0717879,0.453793,-0.689976,0.19724,-0.610158,-0.275496,0.547549,0.115447,-0.696684,0.0124636,0.89614,-0.712978,-0.528026,-0.116598,0.630301,-0.683408,-0.264949,0.501481,0.0508996,-0.246765,-0.688368,0.587416,-0.582344,-0.260487,0.392462,0.647565,0.353479,-0.919975,-0.293122,-0.726613,0.890072,-0.89882,-0.0602061,-0.127978,-0.356904,0.657817,0.506731,0.284967,-0.682076,-0.36231,-0.376497,0.216653,0.282689,0.939847,0.613287,0.230733,-0.552381,0.729517,-0.566392,-0.306119,-0.396503,0.657552,-0.215237,0.312612,-0.345131,-0.444438,-0.936581,0.269326,0.411475,-0.248518,-0.16393,0.654065,-0.253707,-1.01277,-0.958519,0.224891,-1.02333,-0.0275112,-0.330915,-0.545903,-0.443592,-0.935021,-0.336649,0.40375,-0.953527,0.793234,-0.448792,-0.765313,-0.714017,-0.902904,-0.664267,0.650854,0.370105,0.174834,-1.06802,-0.772257,0.492527,0.205764,0.365943,0.907827,-0.997384,-0.765411,-0.0507186
0.131063,0.140642,-0.457231,0.441968,0.533242,0.0560366,0.404722,0.50675,0.0822373,-0.516194,-0.345011,0.0913376,-0.238987,0.768343,0.768998,-0.56386,0.109333,-0.78572,-0.81166,0.265251,0.86194,-0.100295,0.394607,-0.0497777,0.103346,0.597879,-0.645947,0.397559,-0.390681,0.672379,-0.776714,-0.0491685,-0.598796,0.501795,-0.620259,-0.569849,-0.922406,0.141802,0.220888,0.930827,-0.597938,0.540112,-1.04276,-0.285598,-0.51582,0.218177,-0.554176,-0.829984,-0.660308,-0.041174,-0.069394,-0.828881,-0.35049,-0.506193,0.760667,0.145477,-0.316378,-0.436853,-0.764587,0.927517,-0.041474,0.323918,-0.632881,-0.810707,-0.567643,0.856663,-0.222438,-0.640033,0.655767,0.245045,0.188913,0.270511,0.288452,0.736222,-0.252922,-0.765661,0.584643,0.605573,0.0894297,0.190796,0.094248,0.764328,0.167191,-1.01734,0.799314,-0.16588,0.214024,-0.633027,0.661664,0.450955,-0.775214,-0.178967,0.627245,-0.842891,0.0588897,0.402745,-0.378055,-0.964383,0.0159767,0.231684,-0.654588,-0.358975,0.171233,0.524546,-0.579952,0.299884,-0.751502,0.818852,0.425725,-0.885442,-1.07592,0.306671,0.705518,0.109382,-0.642281,-0.321503,0.425014,0.496,0.547053,-0.466917,0.140141,0.522731,0.0736792,0.166944,-0.315399,-0.112961,-0.12712,-0.200486,0.714124,0.739543,-0.37668,0.220315,-0.0260975,-0.693993,-1.05539,0.681874,-0.5968,0.425292,-0.52384,0.0590004,-0.61462,-0.680329,0.48439,-0.866442,-0.864156,0.196674,-0.872993,0.087907,-0.257575,0.285801,0.691328,0.624439,0.684425,-0.988548,0.646293,-0.71929,0.380807,0.352374,-0.833453,0.786331,-0.995859,-0.586399,-0.77792,0.419756,-0.0927692,0.776388,0.76949,0.273214,-0.336359,0.6105,0.735559,0.886659,-0.301631,-0.322785,0.184411,0.280133,0.108549,0.503632,0.33277,-0.549194,-0.832708,0.578046,-0.470791,-0.265749,0.734221,0.481064,0.301707,-0.81742,0.195222,0.102832,0.553445,-0.81935,0.919919,0.0120024,0.389401,-0.34335,-0.349385,-0.407224,-0.0246168,0.651811,-0.651822,-0.421407,0.000157808,0.427483,-0.929578,-0.322777,0.140861,0.552738,0.57322,-0.84711,0.231561,-0.418736,-0.470236,-0.741231,-0.693799,0.125184,0.229137,0.612737,0.517946,-0.467433,-0.709231,-0.402253,0.879455,-0.373937,0.793536,-0.591807,-0.527715,-0.707218,0.139894,-0.769888,-0.309802,-0.926369,0.130937,-0.445369,0.215673,-1.00219,-0.241102,-0.555391,-0.788283,-0.864109,-0.771374,0.75333,-0.160579,-0.548535,0.770383,0.0725261,0.596525,0.217202,-0.117784,0.437931,0.509191,0.771675,-0.444887,0.559297,0.451765,-1.05504,0.107986,-0.83093,0.544227,0.247663,0.690048,-0.102192,0.611154,-0.245189,-1.04361,0.169639,-0.290912,0.033923,-0.829664,0.406686,-0.0520381,-0.497841,-0.195021,-0.772361,-0.358399,0.104024,-0.0454684,-0.711337,0.248322,-0.751366,-0.302984,0.625026,-0.66002,-0.325347,0.798212,0.764246,-0.504797,-0.824462,-0.909184,-0.416163,-0.819283,-0.87225,-0.963193,-0.0428586,0.574529,-0.0593433,0.476847,0.360576,0.781767,-0.483165,-0.658965,-0.629698,-0.806878,0.648221,-0.861343,-0.499016,0.898486,-0.0447148,0.134937,-0.131705,-0.216172,0.528753,0.187876,-0.900158,-0.825685,0.477916,0.6929,0.5975,0.32129,-0.325388,-0.452396,0.632551,-1.09307,0.574297,-0.268577,-0.986317,-0.560363,-0.832973,-0.805177,-0.282528,0.39802,-0.863504,0.0861222,-1.02398,-0.656997,0.478866,-0.108739,0.0935645,-0.68687,0.565985,0.209786,-0.719443,-0.836685,0.690245,-0.570415,-0.370933,-0.844549,-0.728168,-0.432331,0.476516,-0.629485,-0.505302,0.80333,-0.108987,-0.00344853,-0.068931,0.720531,-0.53639,-0.544155,0.354895,-0.625649,0.758738,0.0347653,0.473186,0.221753,0.135671,-0.148927,-0.274815,-0.300551,-0.36194,0.285729,0.908669,0.597866,-0.783007,-0.359248,0.654198,0.533497,-0.238285,0.866617,-0.61706,0.480241,0.0814087,0.32761,0.00577306,-0.667054,0.205304,0.220251,0.119851,-0.0731851,0.191784,-0.520394,-0.990384,0.564744,-0.296189,0.351128,0.780982,-0.857309,-0.368634,0.78026,-0.464517,-0.0769845,0.558774,-0.22744,-0.258564,-0.340909,0.436172,-0.250453,-1.04178,-0.260109,-0.83302,0.749604,0.375269,-0.212918,0.863497,-0.659591,-0.475278,-0.157692,0.744854,-0.0787005,-0.641448,0.454975,-0.74948,-0.536512,-0.859001,0.827907,-0.234574,-0.6434,0.0118357,0.870839,0.769038,0.524434,0.930049,-0.242399,-0.164432,-0.134844,-0.49623,-0.363484,0.663156,-0.260295,-0.103324,-0.646245,-0.25707,0.385367,0.437457,-0.292463,0.725614,-0.941819,-0.811332,-0.639249,0.69771,-0.844152,-0.314973,0.401454,0.517047,0.830075,-0.306729,0.394718,0.934274,0.157773,-0.0582596,0.23291,0.648635,-0.151445,0.45538,0.685307,-0.37792,0.225403,-0.146147,0.328362,-0.953862,-0.625061,-0.437076,-0.521745,0.468994,-0.656764,0.245917,-0.135788,0.152067,-0.513894,-0.483871,-0.794645,-0.0170436,0.574408,0.441374,-0.983426,-0.850081,-0.685703,0.187301,-0.40072,0.845729,0.118284,-0.4069,-0.254771,-0.44108,-0.03076,0.465153,-0.439257,0.050682,-0.105239,0.64135
-0.380846,0.869123,0.0643651,0.80683,0.472531,-1.01221,-0.829523,0.447401,0.23739,0.704434,0.0587648,0.00617866,0.756879,-0.0197517,0.843523,0.921104,-0.364067,0.143008,-0.0345858,-0.0471345,0.443388,-0.074415,-0.0576319,-0.0324469,0.378773,-0.477837,-0.204332,-0.593895,-0.38272,0.0115776,0.807337,-0.153816,0.423741,0.877395,0.768478,0.574211,0.0884563,-0.22398,-1.03004,0.0400182,-0.827683,0.00625984,-0.297487,-0.910226,0.721259,0.548376,-0.627395,-0.466441,0.336972,-0.217719,-0.996715,-0.828644,-0.482521,0.682453,-0.820529,-0.418849,-0.551505,0.411229,-0.888417,0.211712,-0.627824,-0.299415,-0.949967,0.862146,0.936094,-0.0338403,-0.339169,-0.198851,0.590581,-0.811184,0.119158,0.381094,-0.975271,0.0353512,0.920335,0.286395,0.375645,0.358194,0.775799,0.891321,0.010614,0.431779,0.0820811,-0.839327,-0.830111,0.884346,0.484034,-0.351059,0.914265,-0.496109,0.312741,0.253389,0.102697,0.173481,-0.514407,-0.943656,-0.0712362,-0.253442,0.437187,0.592641,-0.0363583,-0.707307,-0.174584,0.560367,-0.437489,-0.851997,0.119433,0.00574075,-0.0171053,0.0704559,0.109905,-0.462118,-0.0344332,0.563909,-1.04948,0.529783,-0.597217,0.720364,0.764854,-0.447518,-0.397914,-1.01454,-0.77339,-0.921658,-0.980319,-0.71948,-0.976994,0.0248636,-0.872102,-0.466265,0.609297,-0.430093,0.772352,0.697091,0.446085,-0.529803,0.682491,0.41673,-0.39339,0.241062,-0.589637,-0.0888074,-0.766212,-0.261617,-0.238764,-0.769941,0.24886,0.714757,0.32211,0.696015,-0.49514,-0.57042,0.274822,0.476314,0.463988,0.36946,0.538642,0.0409435,0.617855,-0.406718,-0.402524,-0.631705,-0.507247,-1.00179,-0.522221,0.702693,0.134009,0.792605,0.624109,0.841142,-0.549903,-0.430343,-1.01171,-0.852041,-0.068884,-0.289806,-0.262722,0.379641,0.476293,-0.988393,-0.636736,-0.406434,-0.963195,0.238045,0.357597,-0.0552293,0.272679,0.240491,-0.841888,-0.0222561,-0.218471,-0.00601901,-0.655799,-0.6164,-0.77301,0.143897,0.493445,-0.506207,0.546246,0.0264414,-0.551436,0.269687,-0.157843,0.384841,-0.200866,0.943536,0.348189,-0.728323,0.123685,-0.082198,-0.170835,-0.350084,0.590597,0.835951,0.129505,-0.699105,0.768429,0.101861,-0.790509,-0.787772,0.134129,0.20406,-0.48437,0.404216,-0.153804,0.841425,0.183581,0.271375,0.0390172,0.94159,-0.845545,0.795565,0.415703,0.423761,0.406972,-1.09721,-0.540591,0.396782,0.328321,-0.627997,-0.407443,-0.944365,-0.023758,0.00511471,0.343856,-0.181819,0.752838,-0.66995,-0.888466,-0.345324,0.15762,0.667185,-0.927112,-0.982527,0.0417967,-1.01674,0.32365,-0.0746238,-0.502178,-0.551355,-0.511973,-0.0258675,-0.72854,-0.563655,0.331794,-0.666811,-0.492792,-0.385082,-0.817308,0.767637,-0.291084,-0.526625,0.564225,-0.880428,0.219576,0.61139,-0.0163974,-0.71876,0.931476,0.719392,-0.646863,-0.395449,0.242598,-0.97789,0.118857,-0.45281,0.0936851,-0.755763,0.210842,0.694137,0.333945,-0.769515,-0.332697,-1.00515,-0.134178,-0.79117,-0.56576,0.0432941,-0.664522,0.151195,0.589816,-0.889063,0.346119,0.827236,0.466252,0.612518,0.244358,-0.615735,0.529895,0.308684,-0.745636,0.362036,-0.938471,-0.807732,-0.130248,-0.623794,-0.279195,0.588139,-0.319653,-0.315203,-0.561642,-0.937108,-0.634823,0.320987,-0.148868,-0.0574829,-0.573192,0.606694,0.484644,-1.02343,0.387308,-0.623789,-0.0828617,0.687467,0.887941,-0.177257,-0.539814,0.775905,-1.01337,-0.913889,0.769934,-0.94083,-0.31433,-0.93982,-0.632828,-0.0621074,-0.704717,-0.131235,-0.661533,0.712544,-0.776194,0.382838,-0.219284,-0.716795,-0.902347,0.40109,-0.0268776,-0.946695,-0.472153,0.836772,-0.659768,0.697611,-0.356438,-0.0564241,0.098454,0.604798,0.0653266,0.893863,0.119026,0.544909,-0.489235,0.500964,-0.415359,-0.686808,0.560739,-0.148707,0.7801,0.148806,-0.45126,-0.353064,-0.110087,0.0858472,0.914833,0.525901,-0.693098,-0.990251,-0.493021,-0.268021,-0.0369266,0.656158,0.463953,-0.975388,0.899697,-0.258609,-0.283538,-0.909589,-0.842509,0.670712,-0.265561,0.720903,-0.541857,0.569752,-0.133449,0.546985,-0.0935772,-0.387836,-0.202603,0.753711,-0.578394,-0.830355,0.163274,-0.346762,-0.0131471,0.182493,0.457582,0.876398,-0.577476,0.842555,0.00495658,0.475744,-0.303032,-0.835069,0.475602,0.659555,0.536237,-0.628021,-0.606348,0.459739,0.451484,-0.144236,-0.118356,0.279477,-0.776265,-0.381468,-0.386119,-0.80609,-0.0717205,0.338426,-0.470524,-0.591169,-0.737548,-0.542881,-0.411577,-0.256565,-0.457234,-0.941488,0.050911,-0.646673,0.788168,0.171755,-0.447479,-0.596767,-0.0302008,-0.994079,-0.865312,0.700324,0.602492,-0.338126,0.771982,-0.785047,0.103415,-1.00297,-0.670827,-0.795189,-0.329067,0.0236617,0.864704,-0.0824497,-0.550723,0.297715,0.340955,0.519251,0.455162,0.848737,0.595827,0.499509,-0.410549,-0.637724,-0.351777,-0.838065,-0.083628,0.213389,0.078086,-0.795074,0.523541,-0.884834,-0.454016,0.649378,-0.599391,-0.446392,-0.0784018,-0.0518997,0.0727604,0.491183,-0.699945,0.598166,0.826636,0.820552,0.959564,0.438159
0.587092,-0.174554,0.379343,-0.879101,0.0810653,0.582218,-0.328369,-0.881979,-0.708855,0.800577,-0.975156,0.0479698,0.40299,0.172041,-1.00514,0.354875,0.696305,-0.142005,0.425036,-0.000629063,0.0825945,-0.203264,-0.47406,-0.359968,-0.36341,0.708193,0.127721,-0.0211042,-0.858081,0.810549,-1.04066,-0.389985,0.465,-0.438617,0.833735,-0.877424,0.420361,-0.684762,-0.920527,0.467767,0.201555,-0.0654896,0.688144,0.357991,-0.0159318,-0.349195,-0.854228,-0.295543,0.0332805,0.866566,-0.128529,-0.145976,-0.0404719,-0.0723124,-0.0732427,0.727173,-0.90056,-0.841211,0.21346,-0.259568,-0.308984,0.651586,-0.613492,0.733949,-0.8713,0.612862,0.595143,-0.57349,0.241167,-0.324874,0.414433,0.779486,0.655203,-0.351725,-1.02013,0.224936,0.286785,0.764541,-0.733208,-1.09939,-0.434417,0.157079,-0.640249,-0.970501,0.110957,0.210832,0.443744,0.0442936,0.250052,0.498292,-0.360507,0.277129,0.481757,-0.0464776,-0.457327,-0.0591369,0.199047,-0.674956,-0.788783,0.407664,-0.196589,0.653216,-0.420482,0.14918,0.409158,0.802507,-0.360146,-0.592727,-0.193619,-0.919188,-0.276302,-0.389797,0.510251,0.772692,-0.289467,0.492793,0.221826,-0.101299,0.753655,-0.532537,0.600135,-0.599648,-0.570719,-0.983316,-0.438294,0.427406,0.287576,-0.876198,0.122294,0.783791,0.750785,-0.376384,-0.565359,0.69226,-0.280053,-0.800214,-0.533722,-0.805413,-0.868406,0.442712,0.468682,0.235906,0.606176,0.503159,0.1831,-0.0797887,0.426667,0.44906,0.103584,-0.963041,-0.137776,-0.982653,0.1868,-0.419979,-0.61946,-0.534887,-0.811955,-0.938564,0.0857557,0.428635,-0.309849,-0.0896493,0.476557,0.840403,0.24584,0.522933,-0.624409,-0.715619,-0.915869,-0.0677222,-0.24277,0.661868,0.660649,0.0307297,-0.790851,0.842429,-0.0429043,0.275677,-0.362056,-0.569949,-0.927332,-0.382036,-0.388241,-0.715892,0.683023,-0.177878,-0.368534,-0.18418,-1.00911,0.642571,0.607154,-0.720151,-0.00256429,0.550425,0.0261238,0.743608,-0.0970235,-0.107378,0.0565983,0.123014,-0.404242,0.518992,-0.304074,-0.101084,0.183618,0.374983,0.32286,-0.778695,0.0260691,0.22714,-0.882308,0.227729,-0.384797,0.833154,-0.212603,0.624706,0.339087,-0.511049,0.441938,0.347122,0.0718367,-0.270688,0.152315,-1.011,-0.582199,0.640202,-0.875996,-0.976796,-0.184633,-0.552416,-0.738603,0.269212,-0.766105,0.525981,-7.17921e-07,-0.0839717,-0.162861,-0.03926,-0.95794,0.024516,-1.02409,0.728105,-0.454746,-0.927497,-0.533915,-0.829139,0.813964,0.0113312,-0.521837,0.297934,0.309907,-0.211359,-1.12545,-0.29539,0.706272,-0.431806,-0.0541981,-0.802422,0.624242,0.642776,0.914167,0.321348,0.765495,-0.197298,0.221888,-0.632518,-0.00780909,0.157374,0.778219,-0.194155,-0.894936,-0.477569,-0.478955,0.90186,0.407789,0.38048,-0.434957,-0.463786,0.174055,-0.093518,-0.778417,0.48829,-0.912249,-0.73203,0.729297,-0.502141,-0.428091,-0.327676,-0.886166,-0.326616,-0.843846,0.490147,-0.807356,-1.07711,0.0443004,0.701365,-0.741209,-0.0901054,0.45724,0.117891,0.244748,-0.360074,0.69192,0.372551,-0.433607,0.529332,0.405331,0.30169,0.264698,0.571085,-0.41831,-1.06838,-0.468648,0.733885,0.627842,-0.962816,-0.344037,-0.595192,-0.563723,-0.829718,-0.288374,-0.186826,0.0929197,-0.192665,0.709957,-0.104186,0.612331,-0.391,-1.07453,-0.624154,0.596242,-0.0817819,0.494452,-1.01999,-0.960346,0.176002,0.413039,-0.882536,0.140315,-0.64934,0.298652,-0.567321,-0.37731,0.581248,-0.361791,-0.788921,-0.779213,-0.905567,0.549439,-0.896053,-0.83211,-0.521385,0.28269,0.603636,0.801031,0.470033,-0.390713,-0.105543,0.24015,0.495462,-0.690955,-0.605925,-0.854794,0.93596,-0.408518,0.851951,0.930621,-0.396367,0.316139,-0.585506,0.596842,-0.846867,-0.640696,-0.687157,0.0472367,-0.73788,-0.989274,0.0283005,-0.576044,-0.898299,-0.994357,0.476793,-0.673411,0.109968,-0.692371,0.913574,-0.424928,0.687584,0.733593,0.365758,-0.301157,0.463617,-0.626407,-0.526139,-0.878828,0.0975813,0.0564927,0.344179,-0.226394,-0.850072,0.308821,-0.0642399,-1.08351,0.823505,-0.379588,0.275825,-1.00876,0.669607,-0.468836,0.609976,-0.186176,-0.118189,-0.82396,-0.135526,0.718844,0.497354,-0.432626,0.899304,0.759051,0.605103,0.0782318,-0.524674,0.311945,-0.621726,0.227212,0.215145,-1.01262,0.333457,-0.984796,-0.916765,0.146534,0.184151,-0.442428,0.186703,-0.407086,-0.0400397,-0.58463,-0.54296,-1.18131,-0.823343,-0.0385244,-0.220428,0.179073,-0.813699,-0.798746,-0.188318,0.058694,0.861831,0.767754,0.812435,-0.748521,-0.691935,0.298235,-0.398662,-0.983568,-0.770905,0.675875,-0.524128,0.371334,-0.441317,0.768915,0.78746,-0.383482,0.0840356,-0.28103,-0.93513,0.680567,0.0296765,-0.202403,0.554649,0.920278,-0.715403,-0.278251,0.202874,0.550723,-0.901779,-0.409567,0.23893,0.772298,-0.734669,-0.924338,0.833383,0.134838,-0.223455,0.806267,-0.59306,0.367572,0.376839,-0.621488,0.2008,0.256388,0.205068,0.527686,-0.295537,0.0578091,0.163412,0.557767,0.894085,0.541208,-0.790262
0.679998,-0.143438,0.211108,0.675515,-0.0226942,0.835978,0.720336,0.815188,-1.03932,0.243702,0.168396,0.571454,0.22854,0.21589,0.42846,0.362387,0.652435,0.398868,-0.767284,0.33397,-0.801609,-0.349144,0.606186,0.955778,-0.437402,-0.755124,-0.12371,0.715455,0.594816,-0.802645,0.274597,-0.0971719,0.0839627,0.711489,-0.333464,-0.493127,0.786515,0.340871,0.307191,0.570899,-0.808463,0.670726,-0.781682,-1.00761,-0.495177,0.537555,0.78923,-0.0535032,-0.320168,0.11293,0.789299,0.508925,0.800431,0.490529,-0.630507,-0.0689831,0.775592,0.132111,0.285824,-0.251895,0.561658,-1.00949,0.292634,0.781298,0.456345,0.0770537,0.935176,0.303856,0.0779641,0.276911,-0.174297,-0.659159,-0.404591,-0.371751,0.446415,-0.0156421,0.51313,-0.57631,-0.342432,-0.667978,0.669778,0.930965,-0.483864,-0.722893,0.841714,-0.110932,-0.409822,-0.806246,-0.773781,-0.547923,0.18703,0.191868,-0.41667,-0.95641,0.163323,-0.961046,-0.652627,0.387715,0.704587,-0.286375,-0.618218,-0.0482957,-0.0126294,0.576531,0.580417,-0.319523,0.791294,-0.93253,0.499986,-0.630903,-0.318333,0.236318,0.061776,-0.827491,0.421725,0.410112,-0.938002,-0.201422,-0.00730473,0.0388699,-0.294955,-1.0111,-0.905694,-0.012381,0.825323,-0.912958,0.0659632,0.00241675,-0.459905,0.541452,-0.574022,0.828699,-0.972261,-0.842822,0.590357,-0.0447533,0.00888014,-0.866112,0.495848,0.34517,0.697586,0.399677,-0.726363,0.737732,0.699452,-0.135463,-0.402264,-0.601624,-0.689923,0.0176162,0.878526,-0.342591,0.558351,-0.56411,-0.572919,-0.482238,0.438493,-0.94394,-0.6591,-0.834259,-0.264092,0.142419,0.457585,0.0639145,-0.317385,0.234069,0.116481,0.202449,0.814912,-0.0496003,-0.659781,0.862444,-0.773139,-0.993618,-0.0700746,0.128449,0.0371616,0.649431,-1.00572,0.731035,0.580757,-0.4766,-0.273488,-0.745362,-0.671979,0.560956,0.176655,-0.554709,0.847523,-0.0438084,-0.401025,-0.978475,-0.993409,-0.70893,0.143147,-0.366979,0.14885,-0.112359,-0.751244,-0.00575345,0.0372979,0.434678,0.785361,0.1877,-0.85043,-0.706428,-0.173043,0.839884,0.0479716,-0.301561,0.187031,0.360874,0.391959,0.823048,-0.892011,0.731711,0.304689,0.870828,-0.298854,-1.0174,-0.68106,0.471218,-0.94375,-0.212805,0.803535,-0.131418,0.804117,-0.932438,-0.638719,0.534364,-1.02938,0.0333705,-0.61763,0.0406511,0.734827,0.0252136,0.850647,0.285881,0.897405,-0.642675,-0.377164,0.747777,0.608056,-0.502733,-1.03238,0.296782,-0.600749,0.176808,-0.410242,-0.00887789,-0.585101,-0.660633,-0.66319,0.400728,-1.06922,0.535562,-0.387246,-0.488742,-0.80125,0.0338894,0.413568,-0.568039,-1.06702,0.876334,-0.819503,0.310823,0.73474,0.80906,0.268175,0.816987,-1.04374,-0.145259,0.880649,-0.343958,0.403281,0.893381,-0.0343492,0.556888,0.805608,-0.326126,-0.347277,-0.783448,-0.9744,-0.423627,-0.897413,0.445292,-0.549393,-0.474984,-1.02494,0.73736,-0.606119,0.453225,0.684478,0.577027,-0.26573,-0.56762,0.453638,0.803134,-0.397732,-0.545386,-0.639173,0.0149095,0.585554,-0.435294,0.862088,0.860898,-1.05293,-0.0794612,-0.785424,0.533576,-0.299741,-0.0594989,-0.114819,0.45089,-0.519698,0.858977,-0.896722,-1.12251,0.409609,-0.734445,-0.199529,-0.87602,-0.860486,-0.413002,0.0944563,-0.222868,-0.0750558,-0.549493,-0.199622,0.625415,0.0131436,0.494332,-0.537897,-0.983084,-0.413999,-0.447835,-0.668562,0.265735,-0.856671,-0.210644,-0.726494,-0.737195,-0.909756,-0.201267,-0.210508,0.479969,0.540114,0.552121,-1.07275,-0.769609,-0.429743,0.439827,-0.870363,-0.565328,-0.0794621,0.121215,0.902085,-0.36335,-0.84212,-0.406098,0.870488,0.700077,-0.145332,0.621521,-0.188996,0.137029,-0.663163,-0.0878392,-0.028575,-0.919439,-0.501782,-0.790949,0.21558,-0.688806,0.13523,-0.19867,-0.134786,0.567069,-0.933468,0.706727,0.746334,0.411005,-0.335976,0.554755,0.8175,0.586079,-0.0861227,-0.796243,0.330685,-0.773101,-0.82839,0.0171548,-0.582584,0.445437,0.400111,0.797726,-0.268102,0.612419,-0.050045,-1.04612,-0.972715,-0.595623,-0.210168,0.181379,0.788379,-0.507096,0.50076,-0.48509,0.752901,0.0758625,-0.58185,-0.263271,0.391742,0.598341,-0.0905369,-1.05805,0.453986,-0.610051,0.438969,-0.89002,0.936596,-0.795746,-0.551433,0.503691,0.634442,0.670289,-0.112577,-1.01176,-0.0238892,-0.14811,0.579948,0.466128,0.390675,-0.295608,-0.239584,-0.0542976,-0.0325933,0.341787,-1.07098,-0.887861,0.236025,0.845979,-0.830681,0.188415,0.134923,0.715408,-0.166379,-0.493334,-0.929379,0.398674,-0.906754,-1.04267,0.512375,0.140123,0.814358,-0.0648963,-0.177116,-0.00328968,0.683192,-1.05507,-0.106282,0.310329,0.782677,0.716123,0.284641,-0.148898,-0.863414,0.199116,-0.00947501,-0.61719,0.587272,0.546601,-0.0735826,0.13821,0.794886,0.851348,0.588914,-0.451244,-0.128011,-0.70092,-0.601457,-0.843519,-0.548124,-0.424969,-0.00243535,-1.07885,-1.00658,0.894673,0.805278,-0.924954,-0.976277,-0.228126,0.234193,0.86014,0.778426,-0.0436858,0.472995,-0.508773,0.429419,-0.251164
-0.105751,0.670928,-0.240379,-0.447209,-0.245318,0.00865394,-0.0924871,-0.78091,0.124628,0.00716795,0.834688,-0.0256722,-0.679028,0.14895,-0.987798,0.509481,-0.748993,0.398664,-0.78506,0.448281,-0.785752,0.396252,0.563348,-0.347947,-0.281807,0.942007,0.623022,0.698416,-1.05885,-0.106982,0.107792,-0.544375,0.493137,0.309615,0.781861,-0.065924,-0.0674839,-0.943214,-1.01605,-0.386311,-0.746617,0.5925,0.447934,-0.140007,-0.714809,0.865254,0.25509,-0.683696,0.181395,0.948623,-0.0246028,-0.325517,-0.440544,0.439812,0.420937,-0.335758,-0.676009,0.892469,0.0477686,-0.44503,0.24475,0.709161,0.953142,-1.01569,0.663952,0.837661,0.500456,0.301187,0.734274,0.478611,0.110578,0.507098,0.463224,0.752199,-0.329015,-0.506744,0.107282,-0.494827,-0.537472,-0.46901,-1.01364,0.620224,-0.624179,-0.44905,0.0694372,-0.493342,0.108863,-0.200286,0.40679,-0.55064,-0.814057,-0.61932,0.105255,-0.839444,-0.281282,-0.529885,-0.567532,-0.686257,-0.511902,0.646474,0.693965,0.353183,-0.643733,-0.227539,-0.131201,-0.048403,-0.867959,-1.01582,-0.334172,0.644027,-0.266632,0.778033,-0.000336853,-0.803017,-1.03061,0.00327403,0.860024,0.027818,-0.88021,-0.441131,0.527703,-0.0730018,-0.0863923,-0.839703,0.531752,0.27575,-0.95354,-0.444044,0.858789,0.0805065,0.185466,-0.761353,-0.944776,-0.404467,0.582232,-0.556979,-0.850773,0.0025614,-0.332662,-0.236868,0.0790842,0.89242,-0.580904,0.0590835,0.238679,-0.346137,0.78545,0.658254,0.235605,-0.00798256,0.320999,-0.729583,0.367179,0.307628,0.748119,-0.521023,-0.730651,0.0856822,0.334019,-0.323481,0.30105,0.223882,0.229912,0.501464,0.885381,0.61072,-0.484734,-0.0844089,-0.750458,-0.700195,0.246762,-0.623395,-0.720978,0.112998,-0.728819,0.848314,0.396154,-0.95318,-0.629624,-1.02608,-0.228629,0.505484,-0.37114,-0.232531,-0.815134,0.786854,0.736001,0.373109,0.520873,-0.719312,0.806831,0.824341,0.0159232,0.81964,-0.0655732,-0.574519,0.376378,-0.970581,0.277425,-0.42112,0.38404,-0.438885,-0.507368,0.414534,0.687336,0.553848,-0.0841681,0.0908226,0.91546,0.922411,-0.710137,0.498112,-0.447703,-0.937416,0.527434,-0.0754001,-0.801978,-0.862281,0.126248,-0.708103,0.158355,-0.454657,-0.887604,-0.25339,0.715601,-0.447386,-0.109555,0.538475,0.654057,-0.242626,-0.40446,0.895301,-0.32936,-0.801185,-0.655233,0.747423,0.111646,0.258759,-0.328821,0.172361,-0.123173,0.853182,-0.741084,-0.777694,0.504804,-0.200416,0.250105,0.741138,-0.0685009,-0.529597,-0.279398,0.105639,-0.553533,0.119927,0.82317,-0.105957,0.469796,-0.85519,0.819816,0.781192,-0.0326746,0.652552,-0.910352,-0.729518,-0.731599,0.539903,0.00668218,-0.00191802,0.0837609,-0.668284,-0.850514,0.509762,-0.828271,0.895893,-0.0861134,0.132347,-0.871703,0.539816,-0.582838,0.714092,0.149691,-0.823202,0.588976,-0.781961,0.813704,-0.0509449,0.361485,0.813176,0.338441,0.374724,-0.34957,-0.615992,0.785566,-0.497453,-0.122129,-0.148023,0.643853,-0.987146,0.296267,-0.406075,0.717339,0.63003,0.673077,0.883263,-0.328088,-0.125831,-0.485098,0.833335,0.818958,-0.77014,-0.72287,-0.936931,-0.609165,0.352583,0.304413,-0.291895,-0.648897,-0.171111,-0.0449141,-0.780039,-0.991395,0.571581,-0.940417,-0.551011,-0.592765,-0.604231,-0.346024,0.38794,0.0691556,-0.960159,-0.233942,0.921443,0.644738,0.399612,-0.0886767,-0.121868,-1.01301,0.650147,0.765471,0.66589,-0.178648,-0.0942934,-0.473108,0.169951,-0.0834024,-0.562404,-0.90624,-1.01723,-0.194649,-0.758229,0.568123,-0.339704,-0.955555,-0.796213,-0.0881767,-0.992358,-0.0797139,-0.307652,0.200146,-0.673421,-0.832712,0.590483,-0.0282299,-0.344923,0.941651,-0.409341,-0.17044,0.305481,0.606482,-0.173107,-0.598051,0.417289,-0.742177,0.207492,-0.671771,0.673073,0.746686,-0.7737,0.19425,-0.712061,-0.792617,0.452633,0.110763,-0.794084,0.240381,-0.00872884,-0.0374547,-0.348965,0.000483198,0.851174,-0.226443,-1.02111,-0.831616,-0.800609,-0.52038,-0.732943,0.842075,0.147023,0.559835,0.544238,0.562991,0.0916108,0.0110511,-0.769987,0.650059,0.771879,-0.126483,-0.439861,-0.204363,0.207805,-0.76749,0.336172,-0.746123,0.0787648,-0.787121,-0.815818,0.16791,-0.102878,-0.841994,0.0625335,-0.511153,0.25019,-1.04116,0.450686,-0.0667504,-0.218603,-0.0266094,-0.613541,-1.01722,-0.369413,-0.875836,-0.291689,0.363971,0.609678,-0.842812,-0.651726,-0.955151,-0.138317,-0.216827,0.00478969,0.0792815,-0.186053,-0.700073,0.771093,-0.933439,-0.0139211,-0.469003,0.568617,0.642013,-0.301399,0.638204,0.796722,-0.1755,0.225537,-1.06843,-0.181992,0.85426,-0.485742,-0.555895,-0.58032,0.831441,0.431519,-0.271227,-0.457336,-0.849701,0.0219294,0.296975,0.876502,-0.947876,-0.711578,0.631131,-0.0738192,-0.140301,-0.42916,-0.866757,-0.369927,-0.134246,-0.864772,0.16283,-0.117603,0.554778,-0.0294269,-0.771412,0.746269,0.692627,0.207114,0.430679,-0.656941,0.287631,-0.0865747,-0.183574,-0.769764,0.757429,0.656101,-0.174453,-0.676173,-0.581607,-0.851713,-0.715834,0.761694
