0.896729,-0.851711,-0.517877,0.624472,0.283983,-0.704921,0.76561,-0.0557408,-0.914079,0.272868,0.360258,-0.443363,0.91845,-0.145132,0.27111,0.200918,-0.906226,-0.330551,-0.689815,-0.473785,-0.847533,-0.136047,0.290982,-0.691667,0.107404,0.0227954,-0.539358,0.49545,0.667805,0.913738,0.333239,-0.696831,-0.907471,0.403575,-0.729296,-0.209626,-0.177938,-0.831316,0.108701,-0.194818,0.197395,0.591608,0.648732,0.703689,-0.212546,0.223841,0.819978,-0.0488911,0.735883,-0.200631,0.134454,0.860205,-0.406773,-0.43088,0.492824,-0.830186,0.441367,0.171759,-0.517923,-0.778698,-0.254823,0.837778,-0.986851,0.490569,-0.199764,-0.314239,-0.846563,0.447549,-0.140295,-0.814123,-0.21104,-0.508768,-0.711661,0.494263,-0.17649,0.620905,0.41569,0.13888,-0.178778,0.813954,-0.16257,0.675503,0.200381,-0.854048,0.684086,0.474177,0.455272,0.934232,0.46175,-1.06309,-0.898689,-0.175719,-0.294255,0.676272,-0.542068,-0.482477,-0.492042,0.198455,0.532254,0.450883,-0.650099,-0.0993499,0.364294,0.270748,0.166333,0.215769,0.932319,0.475648,-0.779116,-1.10111,-1.0779,-0.138552,-0.355463,-0.534181,-0.268624,0.0720914,-0.834098,-0.596667,-0.263025,0.700617,-0.477066,-0.919392,-0.819022,0.272518,-0.614668,-0.495993,0.63133,0.670094,-0.821238,0.920478,0.429562,-0.789187,0.327877,-0.0637772,-0.350539,0.214565,-0.495257,-0.131833,0.271291,-0.816354,-0.84257,0.593075,-0.615403,0.395834,-0.150287,-0.679764,-0.811035,-0.286416,-0.525972,0.171315,-0.713366,0.152605,-0.522158,0.293603,-0.882542,0.467873,-0.0817357,-1.04185,0.67108,-1.10026,-0.791419,0.148942,-1.0779,-0.809356,-0.458541,0.413237,0.904265,-0.316993,-0.490982,0.529195,-0.0622765,0.312925,0.198979,0.401821,-0.701439,-0.473271,0.0787561,-1.01303,0.7023,0.679853,0.0297582,-0.907528,-0.381901,-0.714492,-1.02029,-0.41706,-1.07082,0.472918,0.410952,0.840112,0.448178,0.0639974,-0.88994,-0.119076,-0.48232,-0.892969,-0.228527,-0.224417,-0.37164,-1.03753,-0.592651,-0.418392,-0.105782,0.887877,-0.430687,0.0393347,-0.22729,-0.841804,-0.59269,-0.348926,0.846011,0.849791,0.692523,0.893516,-1.01745,0.0921977,0.0867933,0.290501,0.806226,-0.0506152,-0.454498,-0.739982,-0.444262,0.708106,0.473816,-0.457081,-1.04301,0.778593,-0.988171,-0.0711909,0.287375,0.147983,-0.119797,-1.14396,0.765488,-1.13346,-0.324888,0.532882,-0.354404,0.277555,-0.440734,-0.457644,0.0741735,0.698546,-0.754373,0.665012,-0.270673,-0.87259,-0.894085,-0.721249,-0.340096,0.615871,0.548687,0.816158,-0.132429,-0.486411,0.465231,-1.0944,-0.111107,-0.754326,-0.526063,0.524777,0.543851,-0.0295336,-1.08961,0.406596,0.665139,-0.48854,0.85959,-0.944813,-0.632479,0.0174861,0.227271,-0.474365,-0.629037,0.630432,0.249744,-0.715715,-0.641222,-1.01873,-0.994589,0.817113,-0.368003,0.792431,0.874126,-0.437134,-0.782954,0.574971,-0.286022,-1.07163,-0.679924,-0.934909,-0.180874,0.376367,-0.166083,-0.322626,-0.148886,0.402819,-0.587504,0.556659,0.596285,-0.292776,0.309413,0.534411,0.368319,0.194524,-0.51558,-0.0466001,-0.903453,0.631591,0.744831,-0.780728,-1.04838,0.0132659,-0.223,-0.727762,0.793836,0.171638,0.0182641,0.624465,0.807722,0.782168,-1.15054,0.85162,0.193061,-0.678838,0.43356,0.805896,0.798079,-0.551669,-0.685868,0.80963,-0.141638,0.652502,-0.633913,0.708659,0.239484,0.585534,-1.0079,0.268312,-0.462192,0.864219,-0.270174,0.163475,-0.674982,0.354865,0.88373,-0.872618,-0.643359,-0.0873238,-0.45739,-0.821308,0.597883,-0.810674,-0.662519,0.342715,0.143459,-0.197504,0.351941,0.0886007,0.547467,0.107826,0.872222,-0.482,0.426536,-0.794336,-0.392571,0.770128,-0.964495,0.351979,0.427073,-0.363201,0.315184,-0.42359,0.0118482,-1.09256,0.0945345,-0.283571,-0.362731,-0.689502,-0.324936,0.699079,-0.405401,-0.154366,0.0270261,0.218667,-0.907386,0.501578,-0.306944,0.301044,-1.1467,-0.148555,
0.73742,0.198677,-0.318756,-0.120183,0.151391,-0.727492,-0.816911,0.169038,0.279227,-1.03815,0.653535,-0.492251,0.0979859,0.199039,-0.36984,0.560501,-0.880615,-0.45923,0.711792,-0.729757,-0.645689,-0.54203,-0.421538,0.380515,-0.932098,-0.917106,-0.0859703,-0.542091,-0.0681833,0.0222594,0.833514,0.60199,0.42098,0.554294,0.643239,0.960546,-0.908782,-0.438393,-0.510311,-0.0841502,-0.653765,-0.781419,-0.705659,-1.03209,0.371037,0.586448,0.0266809,-0.447217,-1.01054,0.184474,0.210107,-0.568929,-0.513479,-0.166779,-0.820899,-0.112386,0.946146,0.748827,-0.430363,0.877663,-0.156987,-0.24043,-0.573624,-0.588162,0.120732,-0.375716,-0.184665,0.923032,-0.0348046,-1.03439,-0.124778,-0.0773237,-0.267224,0.137845,0.413208,0.763397,-0.557731,-1.00668,-0.784815,0.952026,-0.123014,0.82031,0.209416,-0.96546,-0.338307,-0.437976,0.043568,-0.140945,-0.911977,0.395225,-0.0876621,0.401021,-0.270028,-0.426944,0.731179,0.806104,0.48551,0.778848,0.160214,-0.797245,-0.403503,0.45914,-0.690178,0.0727067,0.578516,0.902209,-0.887692,-1.01562,-0.718581,-0.297636,0.359343,-0.29547,0.554932,-0.0794788,-0.979744,-0.872413,0.10052,-0.514339,0.62477,-0.950891,-0.171527,0.46346,0.90556,0.163905,-0.548987,0.532673,0.233351,0.822431,0.0478791,0.658388,0.3465,0.656197,-0.901974,0.48023,-0.13469,-0.641247,0.171287,-0.325984,-0.713504,-0.707056,0.682389,-1.02317,0.91158,-0.794172,-0.272707,-0.60307,-0.300711,0.284212,-0.755977,0.951948,-0.631826,-0.442578,-0.800187,0.116418,0.570147,-0.397971,-0.7237,-0.558201,-0.32035,0.308326,0.353243,-1.01606,-0.951904,-0.722333,-0.178023,-0.90456,0.515424,-0.320533,-0.467316,-0.841897,-0.370997,-0.417786,-0.462224,0.672786,-0.963073,-0.756809,0.469223,-0.613826,0.358203,-0.965658,-0.852247,0.202475,0.248654,0.91145,-0.814871,0.549328,0.911637,-1.01965,0.415315,-0.247723,0.960808,-0.972571,-0.240043,-0.408225,-0.756118,-0.852652,0.715604,0.794817,-0.827114,-0.328257,-0.693287,0.722381,-0.856326,0.742714,0.441495,-0.623895,-1.05596,-0.871991,0.357764,0.580704,0.73035,-0.213056,-0.0997375,0.38471,-0.720032,0.829471,0.015319,0.190871,0.50069,-0.0737187,0.34543,0.347816,-0.347608,0.469525,0.276074,-0.151429,-0.325963,0.978314,0.506769,-1.02725,-0.965784,-0.51589,0.0498992,0.672674,-0.597827,-0.608601,-0.669393,-0.523036,-0.325258,0.225679,0.0967247,-0.190776,-0.759052,0.310486,0.116997,-0.304693,-0.150446,0.571421,-0.401365,0.180287,0.115851,0.864826,-0.0489058,-0.831534,0.458164,-0.870634,-0.906947,0.30855,0.576455,0.599196,0.661238,0.519685,0.168997,-0.0827677,0.0892947,-0.906715,-0.344319,0.761672,0.30495,-0.239556,0.55258,-0.166598,0.525357,0.723595,-0.137127,-0.387079,-0.0305094,-0.238627,0.876229,-0.191511,0.202806,-0.58726,-0.517038,-1.07134,-0.678807,-0.941387,0.315021,-0.888193,-0.791097,-1.02888,-0.278733,0.753446,-0.840679,0.45297,0.860684,0.591699,0.84794,-0.215102,-0.241001,-0.777424,-1.04594,0.823801,-0.132668,-0.868675,-1.07283,0.969408,-1.06133,0.109111,0.972104,-0.608105,0.65238,-0.412828,0.826815,0.385078,0.313013,0.392777,-0.865285,-0.0571553,0.715605,0.0655155,-0.310842,0.755415,0.193662,0.897074,0.353669,0.174258,0.559221,0.523718,0.376764,-0.648303,-0.313515,-1.02646,-1.02963,0.695523,-0.158925,0.662407,-0.171559,-0.341172,0.804044,-0.541672,-0.646587,0.949767,0.331513,-0.827287,0.2812,-0.697229,0.0483746,0.118429,-1.03406,0.306464,0.674353,-0.527162,0.0172122,-0.274029,-0.926046,-0.374133,0.532216,-0.879713,0.496281,-0.62943,0.221134,-0.215233,-0.552851,0.821731,0.435748,0.584642,-0.185365,-0.721286,0.947033,0.416496,-0.353134,-0.497763,-0.821457,-0.0395952,0.868912,0.827476,-0.733427,-0.986962,-0.27952,-0.792744,0.532926,-0.165704,-0.342746,0.490214,0.545925,-0.633681,0.801442,-0.481907,0.23678,-0.911031,-0.13653,0.11259,
-0.583566,-0.536787,-0.559128,-0.859943,0.662628,-0.624205,1.01421,0.421669,-0.461016,-0.107079,-0.753311,-0.393218,-0.417105,0.78182,-0.972588,-0.33643,0.988106,0.254571,-0.674538,1.00381,0.0479652,-0.381597,0.888496,-1.01582,0.995522,0.123441,0.547086,-0.916142,-0.633194,-0.529132,0.138772,0.402859,0.85502,-0.052454,0.36013,-0.488968,0.581202,-1.00139,-0.604812,-0.204851,0.0469308,-0.826951,0.781289,0.752083,0.575903,-0.999483,0.80477,-0.142368,0.977747,-0.242487,-0.133065,-0.239735,0.890525,-0.326304,0.475842,-0.692821,0.234119,-0.588506,0.111584,-0.0385862,0.990535,-0.842857,0.588793,-0.15784,-0.852523,-0.732773,0.593069,-0.144542,-0.881718,0.827932,-0.499363,-0.796395,-0.752601,-0.354149,-0.144665,-0.0749603,-0.957283,-0.890527,-0.66079,0.468034,-0.762663,0.113005,0.86236,-0.633164,-0.884708,0.968658,-0.937468,0.873383,-0.091911,-0.964666,0.258337,0.0699479,0.508063,-0.49684,-0.257981,0.654722,0.379713,0.977539,0.306447,0.829187,-0.599416,0.490508,0.405743,0.622783,0.597277,-1.02902,0.482757,0.846934,-0.285913,-0.599617,-1.00411,0.822008,-0.0883162,-0.0717573,0.504246,-0.0434125,-0.567504,0.697894,0.125325,0.170546,0.890654,-0.191712,-0.0578303,-0.348796,0.581686,0.253596,-0.0640159,0.93496,0.985818,0.856395,-0.223547,0.83037,-0.784382,0.61237,0.330388,-0.570561,-0.519731,0.925744,-0.813557,-0.960724,-0.782048,0.900379,-0.0644728,-0.588546,-0.632432,-0.953579,-0.760098,0.196266,0.153826,-0.632566,-0.376392,-0.613343,-0.553832,-0.533457,0.759606,0.136447,-0.382497,-0.246883,-0.501269,0.371271,0.941401,-0.798673,-0.195974,0.62763,-0.553667,-0.966367,0.235251,0.510403,-0.862732,0.572919,0.0333976,0.567461,-0.781745,-0.907684,-0.369098,-0.0787127,0.0945446,-0.327053,0.293936,0.369957,0.222744,0.582096,0.285615,0.968621,-0.85389,-0.523539,-0.879711,0.994109,-0.103781,0.707173,-0.584433,-0.257609,-0.725828,0.873485,-0.983495,0.613297,-1.0064,0.861416,-0.518115,0.95145,-0.847421,-0.199709,-0.784805,-0.387508,-0.580314,0.171225,0.581105,-0.61985,-0.247759,-0.910139,-0.367273,0.0394918,-0.152208,0.0714957,0.44843,0.180078,0.487415,-0.0545235,-0.260469,-0.430555,0.271027,0.616196,-0.809061,0.434622,-0.261785,0.932935,-0.289636,0.56209,0.850426,0.210699,-0.822033,-0.339151,0.714496,-0.32864,0.48919,-0.264621,-0.516065,0.904174,-0.160192,-0.86667,-0.183434,0.772096,-1.00446,-0.743596,-0.356292,-0.785719,0.184794,-0.0425779,-0.576442,-0.582546,0.745576,-0.802196,0.811166,-0.830063,0.503469,0.483335,0.347605,0.739788,0.353125,-0.738733,0.0561576,-0.176364,0.966265,0.286354,0.107442,-0.557457,0.366371,0.104069,-0.137072,0.172643,-0.98235,-0.452076,0.65266,-0.480929,0.710224,0.518617,-0.758176,0.406625,-0.951994,-0.851977,-0.524302,-0.391431,0.21052,0.703637,-0.461583,0.872981,-0.287857,0.889601,-0.977881,-0.629031,0.572413,0.145594,-0.635716,-0.159654,-0.419178,0.432344,-0.335137,0.300765,0.88707,0.552144,0.31523,-0.922123,-0.588353,-1.00711,0.142401,0.833051,0.95072,-0.172911,0.0603968,0.105972,0.944207,-0.129316,-0.568963,-0.879216,0.249453,0.937617,0.487295,0.0854017,-0.347557,-0.724387,0.181527,-0.506863,-0.803265,-0.831315,-0.485557,-0.973647,-0.276846,0.138554,0.451277,-0.540974,-0.9539,-0.337919,-0.605636,-0.783539,-0.80136,0.894976,-0.142435,-0.664719,0.088995,-0.703819,-0.064905,-0.9916,0.576532,-0.172303,0.733876,-0.0384513,0.932409,0.237937,0.728608,0.401275,-0.39016,-0.493033,-0.208373,0.590595,-0.828082,-0.683188,-0.0714393,-0.779324,-0.619904,0.852628,0.793402,0.344187,0.874427,0.066822,-0.0440936,-0.223747,0.997493,-0.531799,-0.370101,-1.00787,0.961435,0.4065,-0.756951,-1.01257,0.363909,-0.407138,-0.415934,0.618303,0.203292,0.953434,-0.500693,0.255011,0.86385,0.155315,0.256378,-0.426783,0.180683,0.440635,-0.123882,0.864992,-0.47926,-0.73725,
-0.614329,0.459233,0.41533,0.0457047,0.39549,-0.994585,0.0641019,0.266237,0.212188,-0.078437,-0.486323,-0.881943,0.883894,0.907068,-0.777118,-0.781191,0.673523,0.0370251,0.646339,-0.362435,0.591099,0.402969,0.61573,-0.488696,0.869748,0.777036,-0.474228,-0.457421,0.25887,-0.610375,0.873833,0.231906,-0.95824,-0.0450015,-1.01956,0.915901,0.408782,0.40709,0.872712,-1.00903,-0.501239,-0.244501,0.501128,-0.469873,-0.73322,-0.318557,0.994343,0.835739,-0.299349,-0.703067,0.677889,0.458381,-0.90931,0.28563,0.401539,-0.0573358,0.120965,0.157406,0.0641903,-0.542732,0.447105,-0.572376,0.596232,-0.995745,0.252671,-0.970669,0.333719,-0.0506858,0.0962811,0.430981,-0.357922,1.00203,-0.608014,-0.825627,0.24162,0.674046,-0.568679,-0.0405257,0.129708,-0.736803,-0.0347666,0.791039,0.051141,-0.66307,0.969816,-0.921629,0.568462,-0.132432,-0.739601,-0.15876,0.794784,0.0622253,-0.0487851,0.361994,-0.913934,0.881282,0.298541,0.961072,-1.01198,0.579868,-0.676527,-0.467464,-0.464546,-1.00297,-0.202312,-0.201216,-0.103267,-0.0479121,0.574451,-0.331416,0.564332,-0.604548,-0.493381,0.296048,-0.24331,-0.584324,0.17848,0.0488623,0.463481,0.896867,-0.939768,-0.72108,0.155901,0.289108,0.969072,0.242548,-0.675335,-0.393751,0.611967,0.769479,1.01843,0.0783916,-0.78789,-0.538932,-0.511922,0.84748,-0.453502,0.702555,0.89307,-0.781227,-0.823312,-0.0344771,0.829486,-0.2224,0.972715,0.389258,-0.934361,-0.795634,0.43937,-0.828492,-0.666622,0.0875905,-0.182126,0.97659,-0.740581,-0.982131,0.687631,-0.098512,0.396198,-0.739771,0.971731,-0.657838,-0.482271,-0.553039,0.344953,-1.01663,-0.511679,0.850284,-0.431623,-0.123964,0.971615,-0.54419,-0.10841,-0.848671,-0.28768,0.374889,0.338001,0.735986,-0.981792,0.308144,-0.839408,-0.608499,0.304347,-0.131829,-0.797654,-0.111508,-0.183699,0.23082,-0.321277,0.881563,0.244657,0.0686884,-0.845969,0.98217,-0.435908,-0.950042,0.403515,0.058585,0.0362804,0.110574,0.0619266,0.673059,0.808766,0.353488,0.823477,-0.235627,0.140729,-0.776065,0.308141,-0.734105,0.243649,0.220398,-0.930715,0.556549,0.631548,-0.957727,-0.873745,0.897554,0.188799,0.968146,-0.0284775,-0.125779,-0.817216,-0.405464,0.915891,-0.808375,-0.399978,0.0872054,-0.969931,-0.470709,0.054581,-0.0873909,-0.978345,-0.851468,-0.289,-0.89485,-0.961528,-0.150343,-0.0354248,-0.339538,-0.27822,-0.514944,0.132688,0.904923,0.851631,-0.409836,0.303352,0.652769,0.641646,-0.102687,0.57252,0.227099,-0.176271,0.0835095,-0.194718,0.439513,-0.5052,-0.921533,0.30096,0.175245,0.882197,0.857689,-0.739405,0.850954,-0.317065,-0.343784,-0.718101,-0.18795,0.571677,-0.160512,0.247808,-0.545309,0.457858,0.701357,0.295549,-0.197878,0.124092,0.225526,0.213422,0.232299,0.397862,0.856692,0.834156,-0.203527,0.279382,0.792862,0.856011,0.148641,-0.558315,-0.595422,0.685066,-0.418859,-1.00615,-0.0287913,0.65149,0.934429,1.00342,0.758251,-0.511517,-0.967407,0.116445,-0.93864,0.113617,-0.664624,-0.158019,0.415923,0.698893,0.423187,0.68576,0.729885,-0.469119,-0.172818,-0.392,-0.416794,0.756942,-0.824102,-0.927686,-0.427011,-0.370928,0.204642,0.381397,-0.240323,0.275089,-0.795307,0.583177,0.105983,-0.188275,0.0744452,0.0725644,-0.177215,0.214344,-0.517927,-0.508953,0.0687604,-0.203398,0.606963,-0.636217,0.859374,-0.674924,0.431221,0.0464747,-0.159614,-0.57075,-0.314678,0.0446393,0.653624,0.295296,-0.855683,-1.02248,0.668398,0.168234,0.866434,-0.244368,-0.706363,-0.441866,0.862834,-0.837394,-0.290292,-1.00991,-0.11965,0.589629,-0.56731,-0.823543,-1.01873,0.235448,0.268489,-0.0837154,0.612751,0.545532,0.898729,0.931725,-0.213145,0.305144,1.00442,-0.563682,0.320999,-0.558638,-0.723369,0.460757,0.191856,-1.0229,0.0747042,-0.468093,0.399937,0.153243,0.29884,-0.560603,-0.260975,0.627315,0.997584,1.01279,0.309866,
0.902079,0.264753,0.925524,0.916026,0.164577,0.761515,0.497468,-0.697993,-0.0729986,-0.663129,-0.846972,-0.850798,-0.118685,-0.85793,-0.872425,-0.0954813,-0.0957873,0.275013,-0.83162,0.527049,-0.710496,-0.316831,0.687806,-0.534765,0.505787,0.410742,0.265631,0.0763478,0.316074,-0.147656,-0.578796,0.794577,0.139791,0.394951,0.504514,-1.04535,-0.174739,-0.335977,-1.02769,-0.288448,-0.295458,0.43983,-0.148531,0.637707,-0.541983,0.165148,-1.02437,0.297612,0.399838,0.765889,0.646729,-0.829798,0.0635449,-0.895093,-0.120273,-0.768999,-0.445677,0.296688,-0.142853,-0.415296,0.468066,-0.437898,0.383135,0.109209,-0.641907,-1.01713,-1.04324,0.789563,-0.969543,0.287186,-0.701253,0.309602,-0.575511,-0.652695,-1.01714,0.976333,0.791036,0.904681,-0.530172,0.222718,0.076005,-1.01155,0.637701,0.160642,0.358351,0.64212,-0.453432,-0.633396,-0.884194,-0.65282,0.977358,0.890761,0.139265,0.909527,0.574856,0.06093,-0.878663,-0.301347,-0.738163,-0.520422,-0.570102,-0.969997,-0.321255,-0.755971,-0.390704,-0.466106,0.947421,-0.898699,-0.260225,-0.548989,0.675464,-0.996823,0.425862,0.886018,0.299197,-0.512796,0.209081,0.518408,-0.0985405,-0.893341,0.350889,0.887585,0.459476,0.269479,0.451928,0.119102,-0.344456,0.644679,0.332937,-0.344105,0.415684,-0.708794,-0.80544,0.66881,-0.527974,-0.502317,-0.538474,-0.779561,0.375226,0.811594,-0.0688196,0.853221,0.102318,0.436376,-0.335332,-0.466504,-0.328641,-0.204153,0.717436,0.0985121,-0.952637,0.400519,-0.703187,0.140166,-0.687563,0.455971,0.843255,-0.662703,0.0668676,0.617648,0.330062,-0.826463,-0.810901,0.422561,0.950525,0.588836,0.767596,-0.427005,0.476605,-0.0852819,-0.543863,-0.272893,-0.971885,-0.753442,-0.397693,0.434405,0.157862,0.849925,0.139648,-0.659185,0.405393,0.60184,-0.225881,-0.160821,0.864666,-0.387375,0.0184713,0.71153,-1.0516,-0.144644,0.787004,0.631267,-0.264845,0.517344,0.36207,-0.216351,-0.148054,-0.408093,0.637434,0.6945,0.20503,-0.274808,-0.598377,0.252719,0.208001,0.948994,0.0888819,-1.0673,0.682842,0.649139,-0.453114,0.902178,-0.271748,-0.212338,-0.671632,0.595652,-0.543861,-0.604964,-0.145514,0.392064,-0.744902,-0.583894,-0.26711,0.895989,-1.07255,-0.695498,0.525216,-0.12767,-0.41201,0.0791184,-0.880552,-0.053958,-1.02673,-0.171227,0.309873,0.452021,0.638998,-1.03833,-1.0519,-0.752173,-0.871622,0.573086,0.911623,0.305367,0.585239,-0.778982,0.427308,-0.968953,-1.01948,-0.0962368,-0.986434,0.72102,0.118084,-0.370219,-0.0816966,0.359287,0.639152,0.871652,0.762494,0.390509,0.795257,-0.504767,0.865197,-1.06815,0.532947,-0.186862,0.23007,-0.387986,-0.997359,0.0267841,-0.392804,0.134557,0.815788,-0.829468,0.837952,-1.02245,-0.98941,-0.364417,-0.741098,0.0180082,-0.513003,-0.659747,-0.224903,0.293053,0.939048,-0.179767,0.706985,-1.06955,0.752052,0.950523,0.228058,-0.845976,0.353123,0.950453,0.24378,0.385792,-0.611823,0.167478,-0.869951,-0.138444,-0.495215,0.31864,0.89183,-0.395207,-0.306423,-0.19056,0.750686,0.592353,-0.352041,0.0600542,-0.554081,-0.666102,0.430046,0.362503,-0.280965,0.743513,0.205554,0.207454,0.460343,0.765023,-0.105427,0.705967,0.0150571,-0.279092,-0.753354,-0.145403,0.446731,0.439692,0.723415,0.616109,0.455171,-0.581732,-0.419198,0.270443,-0.378283,-0.961454,0.507335,0.230466,-0.315233,0.58902,0.494413,-0.107242,0.494392,0.510998,0.202114,-0.417963,-0.161121,0.432128,0.456522,-0.935607,-1.03064,-0.78404,0.0984799,0.323748,0.197021,0.910324,0.842568,-0.811567,0.4488,-0.695319,0.317224,-0.616852,-1.03596,0.426832,0.412007,0.52817,0.526847,-0.486365,-0.316137,-0.696974,-0.192046,0.662108,-0.116893,-0.21776,0.608399,-0.680246,0.665311,0.674717,0.967586,0.358352,-0.761612,0.666041,-0.8821,0.355773,-0.184945,0.464467,-0.88776,-0.586985,-0.231658,0.0356766,0.83635,0.684479,
0.120562,0.566587,-1.09872,0.483806,-1.09914,0.767433,-0.289737,-0.803749,0.0235324,-0.729658,0.903912,-0.293922,-0.7291,0.964155,0.124613,-0.759442,0.517956,0.410443,-0.535096,0.124582,0.0841296,0.39279,0.136901,0.283923,0.76313,-0.867143,0.949641,0.220274,-0.619356,-0.7471,0.358014,-0.710723,-0.259472,-1.0485,0.197183,-0.970786,0.940481,-0.469431,-0.701068,-0.0837056,-0.827841,-0.298668,-0.860615,-0.239709,0.0850068,0.71426,0.0178963,-0.207104,-0.37406,-0.594602,-0.0427671,-0.821279,0.11628,0.0370517,-1.05269,-0.618862,-0.732472,-0.197674,0.0460105,-0.918662,0.401491,0.733105,0.927324,-0.170195,-0.405416,-0.265738,0.924343,-0.374918,-0.503381,0.232534,0.173404,-0.679907,-0.558603,0.0419471,-0.058456,0.580536,-0.740125,0.339803,0.242455,-0.362489,0.836061,-0.109391,0.817071,-0.26263,0.649237,-0.612109,0.862833,0.68872,-0.607301,-0.405108,-0.289423,-0.921025,-1.01131,-0.258618,-0.275113,0.591531,0.435295,-0.564347,-0.37322,0.816925,0.323883,-0.622209,0.258233,0.537927,0.773869,-0.257706,-0.271437,-0.470115,0.05081,0.10283,0.702393,0.210361,0.514635,0.544569,0.841793,-0.077823,-0.604514,-0.255308,0.115106,0.70653,0.389434,0.350488,0.726559,-1.09265,-0.9591,0.713535,-0.0822493,0.645031,0.593659,-0.0729421,0.243845,0.506019,0.929152,-1.07317,0.172915,-0.195956,0.232242,-0.782318,-0.218272,0.225954,-0.339717,0.0171266,-0.737212,0.907568,-1.00815,-1.02527,-0.88493,-0.53229,-0.058876,-0.279508,0.291691,0.75863,-1.06715,0.129167,-0.975701,-0.930934,-0.566473,-0.435648,-0.824443,-0.414175,-0.653841,0.538364,0.488004,-0.415707,-0.955748,0.357053,0.94227,-0.875536,0.873855,-0.401768,0.0640467,0.312738,-0.996555,0.160492,-0.780683,0.805295,-0.500419,-0.531672,-0.488725,0.804435,-0.349894,0.605546,-0.567606,0.145308,0.701401,0.629642,-1.05666,-0.73828,0.426321,0.049362,-0.886558,-0.070375,0.489058,-0.267023,-1.05449,0.614111,-0.560018,0.289623,-0.924324,0.623408,-0.814248,0.756838,-0.711379,-0.769259,0.73744,-0.602369,0.86004,-1.03061,-0.968668,-0.805873,-0.3496,0.669428,0.199669,0.425014,-0.047743,-0.0547783,0.607853,-0.502085,-0.140458,0.0279123,0.416875,0.55244,0.83511,0.217422,0.562473,-0.514369,-0.21291,-0.510904,0.0233302,-0.700809,-1.074,0.80062,0.320048,-0.316584,-0.708392,-0.60256,0.911196,0.662085,0.515031,-0.926387,0.505163,0.196147,-0.535485,0.453041,-0.810315,-0.606179,-1.00185,-0.512493,-0.151424,-0.470485,-1.08823,-0.401372,0.125023,0.0454772,-0.871755,0.0420637,-0.269966,-0.868144,0.354585,0.353494,0.0555797,0.31749,-0.850272,0.13792,-0.571634,0.642637,0.172142,0.298986,0.458576,-0.306052,0.802105,-0.740936,0.841212,0.739386,-0.949483,0.517695,0.0116294,-1.07294,0.123084,-1.09159,-0.6443,0.843513,-0.0659705,0.385884,0.735125,-0.789244,-0.398643,-0.185782,0.529468,-0.864542,0.508834,0.487756,0.813084,-0.652074,0.833649,0.782802,-0.966465,0.545513,0.461755,-0.566926,0.850666,0.255613,-0.295763,-0.144009,-0.510402,-1.03784,-0.222645,-0.331387,0.540786,0.072784,0.782981,0.392664,-0.912382,0.363953,-0.349074,0.899125,-0.75267,-0.885162,-0.371009,0.794003,0.0073619,-0.169882,-0.904461,-0.85475,-0.262651,-1.00639,0.0895988,0.029972,0.668932,-0.0499874,-0.148701,-0.732724,-0.812583,0.829884,0.673911,0.276101,-0.393655,-1.00378,-0.85187,-0.369661,0.86794,0.0929337,0.890312,0.842706,0.133271,-0.903613,-0.742116,0.334501,0.561694,-0.553572,-0.560823,-0.828493,-0.90843,-0.959254,-0.657232,0.779765,0.129773,0.055732,-0.335563,-0.998807,0.24237,-0.0818874,0.481201,0.244778,0.677303,0.24768,-0.871131,-0.482902,0.389376,-0.597241,0.757195,0.0247569,0.589904,0.714053,-0.253267,0.527103,0.672259,0.811999,-0.151776,-0.351329,0.782026,0.277647,0.765379,0.766758,0.196751,-0.769875,0.430717,0.208255,0.921054,-0.994316,-0.741508,-0.150531,
0.909982,-0.179609,-0.915503,-0.187078,-0.358263,0.641361,-0.222989,-0.262834,-0.828409,-0.326391,-1.00092,-0.538967,-0.940914,-0.280354,-0.484907,-0.848209,0.781967,0.517332,0.332085,0.61206,0.53492,-0.556523,-0.698745,-0.932989,-0.554888,-0.315837,-0.149903,0.354531,0.660738,0.284566,0.740171,0.0760702,-0.806813,-0.67762,-0.899384,-0.37564,-0.1328,0.854254,0.80032,0.54634,-0.151949,0.171109,0.152818,-0.970926,-0.77389,0.772809,0.477357,0.955965,-0.175844,0.667563,-0.963224,-0.18721,-1.00317,-0.450723,0.0974958,-1.04482,-0.445571,-1.03863,-0.139179,-0.788047,0.745671,-0.436136,0.194407,0.532511,-0.33489,0.52163,0.695978,-0.341676,0.139714,-0.300691,-0.0923304,-0.0940125,0.155936,0.958063,-0.278901,-0.5605,-0.37876,0.684376,-0.500755,0.748489,-0.0304151,0.812326,0.666076,-0.987229,0.911144,-0.782958,-0.291358,-0.945507,0.587663,-0.47477,-0.909439,0.257369,0.264477,-0.510267,0.725827,0.780989,0.953379,-0.389744,0.929251,0.686754,0.34125,-0.108768,-1.03513,0.455517,-0.926334,0.560218,-0.194668,-0.882059,0.210578,-0.479044,0.846349,-0.28036,-0.719701,0.478916,-0.923802,0.752463,-0.726655,-0.0979962,0.184272,0.284784,0.361195,-0.842287,0.0618899,-0.876513,-0.802294,-0.310201,0.430665,-0.102375,0.600942,-0.718543,-1.02468,-0.904221,0.460889,0.739105,-0.937844,0.0851954,0.632814,-0.209602,-0.991908,0.280956,-0.601312,0.126141,-1.07903,0.635138,-0.193483,0.85284,0.546886,-0.617617,0.599924,0.216078,0.756258,0.818447,-0.291554,0.0311799,0.581087,0.952478,0.0915591,-0.745143,0.746445,0.40379,0.28732,-0.731295,-0.111303,-0.253458,0.088725,-0.425935,-0.322367,-0.858895,-0.59084,0.677036,0.524619,-0.750711,0.520196,0.476883,-0.153098,0.743475,-0.0475629,0.525813,0.849932,0.818992,0.722813,-0.516235,-0.795725,-0.44751,0.289977,-0.886055,-1.01719,-0.0952684,-0.983761,0.149757,-0.0916999,0.783078,-1.08521,0.0951462,0.670297,-0.73518,0.115851,-0.530126,0.628862,0.711147,-0.744957,0.1943,-0.95989,-0.103734,0.585285,0.384604,0.309166,-0.307847,-1.03876,0.19689,-0.267727,0.699212,-0.173807,0.533604,0.541839,-1.02048,0.0273435,-0.129203,-0.542633,-0.40733,0.702446,0.512059,0.139929,-1.01389,0.0530918,-0.862578,-0.789957,-0.680806,0.510075,0.880103,-0.694459,-1.07984,0.547797,-0.480939,-0.281347,0.644432,-0.611992,0.563075,0.358822,0.0523331,0.807878,0.915958,-0.493171,0.538148,0.0487749,0.601645,-1.01644,-0.781135,0.950787,-0.15251,0.166791,0.668933,0.727448,-0.922428,-0.0408862,0.0347742,-0.305346,0.473271,0.22485,-0.787169,-0.316918,0.816755,0.243021,0.601076,0.405275,-0.294906,-0.747638,-1.03312,0.949093,-1.07475,-1.04343,0.0415684,0.203926,0.165323,0.231933,-0.158805,-0.138703,-0.11682,0.722179,0.0691096,-0.380594,0.856567,-0.206159,-0.382076,-0.201885,-1.05909,0.0824356,0.874029,-0.349042,0.466232,0.308482,-0.54989,0.428445,-0.490559,0.207493,0.648974,-0.248946,0.608723,-0.632654,0.172003,-0.984154,0.640051,-0.873499,-0.45266,0.799752,0.926082,0.836243,0.444834,0.787209,0.873825,-0.390821,0.313689,-0.835298,-0.374516,-0.69099,-0.287469,-0.582816,0.413726,0.119538,-0.659156,0.794435,-0.364339,-0.047279,-1.04528,0.801034,0.0613004,-0.113038,0.863409,-0.691887,0.918347,-0.777822,-0.166455,0.424034,-0.316447,0.445916,0.850244,-0.291708,0.579042,-0.794343,-0.562188,0.628967,0.397979,-0.915069,0.633785,-0.752051,-0.886996,0.804183,-0.353053,0.71536,-0.394559,-0.157751,-0.509878,0.0781858,0.23312,0.0551132,-0.0587174,-0.821444,0.340217,-0.278699,-0.0461411,-0.620242,-0.440853,-0.205931,0.715416,0.355957,0.598637,-0.0732079,0.0468296,-0.115042,-0.897437,-0.431982,-0.140305,-0.81684,0.890661,0.231753,0.812282,-0.997578,0.263322,-0.838315,0.769339,-0.238092,-0.422454,-0.275528,0.62197,0.345578,-0.784879,0.0528712,0.297396,-0.537904,-0.450202,-0.913759,-0.441348,
-0.685628,0.79533,-0.473926,-0.597492,0.781023,-1.0233,-0.187039,-0.492487,0.181922,0.785534,0.331906,0.456365,0.963348,-0.428545,0.524497,-0.694713,0.349128,0.824326,0.393331,-0.30337,0.0441866,-0.708812,-0.565303,0.222112,0.652524,0.319812,-0.0574543,0.325328,-0.375632,-0.980121,-0.917885,-0.567274,0.787472,0.19522,0.204334,-0.474818,0.647838,0.379489,-1.03453,0.161849,0.352074,-0.989468,-0.701558,0.362041,-0.461434,-0.506012,-0.539294,-0.68401,0.520629,0.186894,0.0622123,0.632474,-0.223127,-0.131714,0.671903,0.360172,-1.048,-0.857975,-0.784092,-0.484989,0.414806,0.180642,-0.20496,-0.452228,0.843816,0.601135,0.75776,-0.406564,-0.575228,-0.657081,0.627476,-0.625247,-0.988449,-0.0994685,0.216508,-0.616398,-0.694041,-0.571241,-0.734026,0.505284,0.745743,0.336635,-0.125982,-0.354692,0.116839,0.53822,0.180244,0.491756,-0.389533,-0.722772,0.433014,-0.882653,-0.09357,-0.484398,1.00535,0.902049,-0.051922,-0.893382,0.0334008,-0.727013,-0.530819,-0.86006,-0.371914,0.397826,-0.926246,-0.714958,0.166015,-0.265866,-0.924742,0.299079,0.688489,0.53769,0.771749,0.198262,-0.773988,0.545179,0.406066,0.0792625,-0.49803,0.427917,-0.503569,-0.36203,-0.750204,-0.458706,0.310609,-0.0806625,0.761915,-0.105329,-0.691299,-0.807794,-0.111446,0.947528,0.75835,0.205945,0.606087,-0.113906,-0.51205,-0.052501,0.79914,0.409133,0.252255,-0.975196,-0.733954,0.443584,0.456588,-0.941625,0.754768,-0.345138,0.479221,-0.0278632,0.772722,-0.72124,0.560861,-0.52942,-0.0730869,0.755744,-0.717143,0.7396,-0.909498,0.750129,0.472507,0.620166,-0.681121,0.794506,0.979325,0.913447,-0.179352,-0.232616,0.251339,-0.709516,-0.35621,-0.980811,0.61976,0.0896619,-0.9553,-0.601352,0.0205108,0.77606,0.339202,-0.713179,0.528749,-0.191709,0.485591,0.238687,-0.486028,0.251263,-0.374921,0.412513,-0.171516,-0.303896,0.407512,0.852164,0.85386,0.566298,-0.137605,0.184878,0.406143,-0.749806,-0.594986,-0.467543,0.954995,-0.0917567,0.341796,-0.829218,0.708021,0.671493,-0.885965,-0.061119,-0.339225,0.225886,0.881271,-0.461101,0.131768,0.97947,-0.17409,-0.210863,-0.657142,-0.238567,0.934241,-0.169956,-1.01567,0.503685,-0.268627,0.927332,0.93254,0.797687,0.894756,0.734599,0.602401,0.153963,-0.880847,-0.961363,-0.982123,-0.239661,-0.230655,-0.434314,0.709724,-0.943454,0.720484,0.67134,0.0934471,0.256327,0.55159,0.31686,-0.536277,0.873113,0.509073,-0.455398,-0.457164,-0.188805,-0.874313,0.897178,-0.793506,-1.01116,-0.131497,-0.74675,0.490357,0.296527,-0.807995,0.13521,0.409622,-0.869078,0.370155,0.102186,-0.112143,-0.222027,-0.811616,-0.223709,0.363879,0.212388,0.19462,0.4104,0.717367,-0.316927,0.80916,0.88693,-0.194998,0.762307,0.608802,-0.552166,-0.846854,-1.04111,-0.459855,0.479718,-0.327157,0.883896,0.236977,-0.430368,-0.331021,0.362716,-0.290051,0.583014,0.440933,0.267392,0.501249,0.323771,-1.00332,0.567859,0.965135,0.867113,-1.01878,-0.161288,-0.172669,-0.432115,-0.160996,-1.04213,-1.01214,-0.157225,-0.822861,-0.896638,-0.34362,0.770618,-0.813522,0.147469,-0.451213,-0.711799,-0.821422,-0.0940566,-0.425027,-0.845382,0.86804,-0.896862,-0.81852,0.877876,0.967754,-0.591826,0.647057,-0.0633593,-0.847302,-0.41574,-0.930882,0.402326,-0.836896,0.578673,-1.02661,-0.954872,0.178745,0.585477,-0.457106,0.579389,-0.559445,-0.583408,0.329471,-0.245994,-0.554821,-0.973414,-0.481694,0.937649,-0.847022,0.395617,0.696585,-0.960329,0.895684,-0.457789,0.561755,-0.59794,0.945395,-0.441031,0.73211,0.0524335,-0.0287071,-0.222089,-0.173239,-0.0771034,0.824026,0.113507,-0.697772,-0.665775,0.462669,0.537338,0.139844,-0.62842,0.327885,-0.832457,0.304222,-0.911002,-0.206441,0.465339,0.435185,-0.824295,0.563069,0.470735,0.955889,-0.0513122,-0.357956,0.658541,0.807086,-0.727246,-0.418097,-0.321412,-0.602368,-0.791098,
0.772706,0.707475,0.185805,-0.482556,0.601626,0.608479,0.120288,-0.254429,0.777523,-0.924867,0.450805,-0.145453,-0.139455,-0.342316,-0.416674,-0.154708,-0.656659,0.873126,0.613011,-0.857809,-0.685701,0.477274,0.697821,-0.369519,-0.679823,-0.558008,0.399474,-0.556246,0.606852,-0.322252,-0.0565892,0.593162,0.385491,-0.854713,-0.511588,0.377779,0.487403,0.151338,-0.823251,-0.581386,-0.335745,0.535927,0.335085,0.170534,0.755559,-1.04077,-0.43949,0.502584,0.917536,-0.0942659,-0.811239,-0.334279,-0.670858,0.230915,-0.146081,-0.613878,0.427429,-0.321092,-0.75933,0.430895,-0.456356,0.127798,-0.272297,0.886607,-0.182504,-0.536468,-0.900354,-0.459405,0.317392,0.685292,-0.0364806,-0.0936664,-0.824622,-0.929991,0.653369,-0.157391,0.791157,-0.84566,0.180856,0.47529,-1.02216,0.599164,0.307112,-0.528542,-0.324101,-0.996144,-0.501863,-0.341749,-0.801223,-0.18004,-0.604469,-0.347105,-0.856565,0.940461,-0.225101,0.221802,-0.792857,0.12218,0.379633,0.791645,-0.903891,-0.748722,0.935552,-0.871219,-0.552767,-0.505452,-0.537574,-0.0446489,0.942225,0.649441,0.585421,-0.429093,0.0413197,0.359261,0.482881,0.34143,0.297941,-1.03407,0.840259,-0.423678,0.809782,-0.380678,0.452684,-0.743607,-0.728947,-0.525899,0.622445,-0.713977,0.751558,-0.844663,-0.309638,-0.476709,0.122232,0.658525,0.90363,-0.827521,0.719678,-0.116595,-0.219634,0.577191,-0.564551,0.604678,0.954586,-0.533507,0.147721,-0.271382,0.548621,0.94419,0.860785,-0.671487,-0.884333,0.958056,0.559061,-0.287601,-1.00798,-0.0900483,0.237244,0.823566,-0.56841,0.429009,-0.159412,0.206911,0.744214,0.420413,0.611264,0.392704,0.923698,0.402376,-0.143242,0.651851,0.408805,-0.924428,0.232975,-0.78639,0.850418,0.842411,-0.163824,-0.648566,0.41684,-0.263931,0.861961,0.542366,-0.776309,0.355434,0.553211,0.368051,-0.278749,0.249416,-0.97152,0.303566,0.0448107,0.107749,0.668883,-0.683568,-0.882663,-0.797335,-0.872504,-0.834376,-0.0330954,0.560451,-0.301903,0.806805,0.0388056,0.552548,-0.586794,-0.598856,-0.781425,-0.61376,0.442866,0.741671,0.472481,0.592888,-0.180759,0.580978,0.101755,-0.35171,0.618273,0.126312,-0.381745,0.0358966,0.340207,-0.803735,-0.57459,0.23991,-0.902677,0.0781137,0.180253,-1.04608,0.538953,-0.109031,-0.286917,0.694044,0.357301,0.346825,0.585166,-0.79159,0.856072,0.651109,0.457633,-0.562754,-0.992882,0.631489,-0.890126,0.578018,-0.426629,-0.644323,0.575145,-0.238796,-0.138215,0.197427,-0.353188,-0.49421,-0.207115,0.629542,0.26811,-0.278841,-0.490424,0.301075,-0.857031,0.222068,-0.396522,0.862163,0.180455,0.912983,-0.105225,0.536675,-0.116304,0.0525207,-0.898066,0.0797311,-0.48745,0.540919,-1.05745,0.243388,0.250107,-0.672502,-1.02952,0.149863,0.452881,0.0386832,0.175928,0.217778,0.485255,-0.571459,0.079186,0.668753,-0.480201,0.439344,-0.119521,-1.00902,0.0695833,0.431163,0.56556,0.703031,-0.35223,0.292724,-1.08918,0.509659,0.155008,-0.610759,-0.333579,0.935742,-0.125659,0.277495,0.240334,-0.391263,0.326664,0.885856,0.701224,0.281403,0.186474,0.162076,0.750632,0.269125,0.374426,-0.0906949,0.493949,-0.902306,0.22429,-0.514228,0.0735173,0.0278822,-0.258337,-0.546495,0.517786,-0.301286,-0.911789,-0.669648,-0.63068,0.543161,0.420122,0.817349,-0.073699,-0.955017,-0.14973,-0.235764,-1.07023,0.669868,-0.239911,-0.528254,-0.552576,-0.12395,0.281806,-0.823746,0.174687,-0.544717,-0.477328,-0.998062,0.101251,-0.761617,0.626521,-0.830617,0.885631,0.35742,0.291237,-0.195418,0.295385,0.905923,-0.540438,-0.526784,0.630727,0.313417,-0.615974,-1.07406,-0.580494,0.0818569,0.751441,-0.356483,0.700692,-0.732463,0.882379,-0.936119,0.58034,-0.917305,-0.273903,0.699766,-0.465813,0.239051,0.675415,0.435235,0.270543,0.284,0.407898,-0.0944601,0.353614,-0.815794,-0.791428,-0.7948,0.166863,-0.486122,-0.0342412,0.0912927,
-0.323868,0.948316,-0.337969,-0.845828,0.488193,0.44914,-0.0874188,-0.818257,0.755469,0.924569,0.216169,-0.345278,-0.913417,0.276049,-0.404097,-0.954702,0.0589356,-0.623588,0.402756,0.649259,0.019315,-0.316465,0.348366,0.180319,-0.27943,0.0889372,0.450027,-0.0883199,-0.23016,0.977934,-0.988109,-0.0919012,-0.631981,0.27917,0.735371,-0.899945,0.43344,0.0847074,-0.849715,-0.107881,0.945934,0.603211,0.37873,-0.361377,0.290021,0.658845,-0.937068,0.864091,0.826953,-0.113056,0.514814,-0.848756,0.775466,0.764873,0.491111,-0.762247,-0.114303,-0.725065,-0.134571,0.040128,0.804065,0.313213,0.0867354,0.359809,-0.917025,-0.614469,0.544571,-0.892492,0.954842,0.548654,0.163411,-0.231218,-0.343469,-0.0940565,0.54127,0.831372,-0.385264,0.21631,0.457527,0.818669,0.622635,-0.519437,-0.61121,-0.471019,-0.86687,-0.757431,-0.198516,-0.456341,0.0828822,-0.344632,0.0587376,-0.479797,-1.025,-0.311207,-0.947301,-0.798311,0.741593,0.836996,-0.293958,0.526029,-0.97116,0.25023,0.513656,0.428701,0.693333,-0.45318,0.807491,0.28481,-0.282636,-0.940671,0.943032,0.427775,-0.837788,0.675657,0.0292427,0.919425,0.159547,-0.138838,-1.01587,0.249772,0.648048,-0.787393,-0.238145,-0.0764526,-0.405157,0.263008,-0.120631,-0.245493,0.906531,-0.545331,-0.142195,-0.693659,0.0385357,-0.848559,0.551892,0.0284758,0.759286,-0.500845,0.0496615,-0.0921431,0.649623,0.166476,-0.859356,-0.980287,-0.655354,0.373576,0.99121,0.862108,0.966947,-0.815768,0.645269,-0.707838,0.646361,-0.501375,-0.0221366,-0.380042,0.027196,0.871101,-0.454322,0.862805,0.786456,0.898196,0.219019,-0.260225,-0.379306,-0.834172,-0.135381,0.0434022,-0.0576691,-0.14969,-0.182912,0.339361,-0.483691,0.574531,0.336867,-0.660598,-0.773584,0.227968,-1.04535,0.385593,-0.4427,-0.624781,0.403448,-0.349244,-0.641866,-0.145129,-0.252235,0.688081,-0.218512,-0.110891,-1.05352,0.706511,0.54306,-0.610701,-0.97947,-0.148766,-0.674755,0.624835,0.734631,-0.239055,-0.712983,0.93115,-0.859305,-0.490134,-0.360901,-0.338931,-0.83946,-0.440971,-0.730412,-0.196786,-0.0885446,-0.210578,0.226536,-0.241845,-0.594993,-0.296938,0.285287,0.584575,0.570628,-0.755177,0.348689,-0.988541,-0.0505065,-0.764842,0.658398,-1.0453,0.446221,0.369601,-0.378086,0.812044,0.918827,0.0519646,-0.631905,0.67089,-0.791222,0.480431,0.249392,-0.39228,0.32063,0.029144,-0.611135,0.861222,-0.655317,-0.709018,-0.0709402,-0.662547,0.812732,0.990107,0.0253914,-0.372041,-0.848044,0.695109,-0.797041,0.20484,0.138091,0.268855,0.24395,0.301012,0.589048,-0.138602,0.933425,0.527119,-0.750922,-0.158553,-0.0371511,0.776229,0.61182,-0.0709458,0.145451,0.967273,-0.586861,-0.953677,0.245056,0.557481,-0.363615,0.51011,-0.510192,0.738028,-0.565393,0.326567,-0.495218,0.992777,-0.960528,0.213404,-0.471977,0.831009,0.537739,-0.687474,0.930904,-0.451557,-0.244338,0.604396,-0.277397,-0.215659,-0.0809438,-0.2352,0.353877,-0.710353,0.70074,0.172504,0.777126,-0.374035,0.718952,-0.758972,0.65547,-0.29889,-0.928071,0.746422,0.267356,0.0202008,-1.02099,-0.889217,0.284807,-0.678464,0.625245,0.740777,0.976753,-0.571156,-0.309994,0.937002,0.210709,-0.916221,-0.687219,-0.180024,-0.736866,0.960906,-0.684529,-0.285197,-0.955906,-1.0298,0.804363,0.680641,-1.0468,0.484852,-0.907117,0.928174,-0.374385,-0.876438,-0.680306,-0.49597,0.773504,-0.321413,-0.0488443,-0.510639,0.724609,0.21762,-0.206226,-1.00618,-0.789372,-0.262,-0.987305,0.829517,-0.908995,0.541686,0.431297,-0.200594,-0.907473,-1.00843,-0.390717,0.441308,0.567282,-0.638542,0.282934,0.530187,-0.16002,-0.32611,-0.209828,0.813563,0.921765,-0.0716541,0.931946,0.524681,-0.0269619,-0.744358,0.628082,0.529932,0.829255,-0.608005,-0.717725,-1.03476,-1.02074,-0.207273,0.764412,0.643609,-0.20807,-0.0993574,-0.467074,-0.701676,0.535268,-0.569653,-0.422616,-0.392327,
0.822942,0.43215,-0.950349,-0.924842,-0.645622,0.774576,0.566978,-0.138266,0.488085,-0.564838,-0.199836,0.766392,0.476952,0.172246,-0.909018,-1.06158,-0.375581,0.955891,0.844166,0.221731,-0.0918415,0.846842,0.286989,-0.192738,0.709366,-0.922407,-0.319061,-0.316295,0.24169,0.557509,0.769396,0.851285,0.301644,0.623158,0.634861,0.680254,-0.548171,0.412057,0.800513,0.736514,-0.966151,-0.548215,-0.121167,0.413343,0.664579,-0.348094,-0.0807795,-0.912193,0.404041,0.399154,0.941051,-1.01741,0.878263,0.299792,0.550805,-0.715547,-0.471242,0.626047,-0.398487,0.185276,-0.618517,0.251805,-0.294804,0.920387,0.188886,0.52469,0.0914573,-0.994469,-0.631618,-0.518843,-1.01828,0.471105,-0.968534,-0.0828693,-0.447311,0.410425,-0.419684,0.692998,-0.712652,-0.278466,0.908826,0.370978,-1.08477,-1.06534,0.714807,-0.722301,-0.669691,-0.892025,-0.146741,-0.051672,-1.02747,0.0799676,0.720211,-0.121215,0.120346,-0.0626463,-0.451654,0.497855,0.848653,0.342558,0.53851,0.672862,-0.281409,0.233901,-0.607541,0.769915,-0.563655,-0.554269,0.179719,-0.338818,-1.05843,0.921528,-0.635442,-0.80819,0.0300775,-0.205027,0.627646,0.895717,-0.939482,-0.510867,-0.870197,-0.0608785,0.814669,-0.951107,0.252687,-0.82076,0.817229,-0.182169,0.777807,0.194376,-0.65428,0.727475,-0.328126,0.330767,-0.0996511,0.814955,-0.557716,-0.848659,0.502206,0.406285,-0.891903,-0.153191,0.522535,-0.560055,0.297038,0.863581,0.534371,0.497373,-0.146273,-0.594272,-0.138224,-0.757027,-0.167432,0.611,-0.91991,-0.602816,-0.537848,-1.01784,0.228794,-0.242995,0.0667311,0.882104,-0.440548,-0.917159,-0.186116,0.540043,-0.699969,-0.815619,-0.0632668,0.951422,-0.34567,0.541478,0.160651,-0.247523,-0.0823442,0.172862,-0.656996,-0.799094,-0.218412,-0.225311,0.110487,-0.202109,-0.611733,-0.127017,-0.337919,-0.529862,-0.327439,0.722106,0.920878,-1.0386,0.591053,0.68101,0.862182,0.559481,0.0752255,-0.111458,0.160682,-0.404685,-0.713038,0.452947,-0.268006,0.395924,-0.759046,-0.657567,-0.877657,0.389091,-0.355186,-0.515448,0.946083,0.364416,0.856163,0.897289,0.397652,-0.995918,-0.533957,0.881511,-0.898334,-1.06919,0.126727,0.575693,0.516356,0.0862653,-0.733876,0.28671,-0.102005,-0.286969,0.654622,-0.877708,0.853562,0.756638,-0.71532,0.26722,-0.832659,-0.0786047,-0.484934,-0.19962,-0.224898,-0.709875,-0.651156,0.72986,-0.690631,0.481618,0.908013,-0.0362216,0.278394,-0.26825,0.437006,0.121265,0.585335,-1.01341,0.45105,-0.949915,-0.102092,0.736243,0.902096,0.554832,0.533641,0.780774,0.486533,-0.0538438,0.414044,-1.07251,0.722831,0.814455,-0.187196,0.605153,0.563363,-0.80584,-0.510535,0.449878,0.33233,0.545742,-0.670112,-0.870424,-0.972386,-0.882526,0.773679,-1.05048,-0.327325,-0.351379,0.931535,-0.813575,0.858042,-0.430408,0.234474,0.466261,-1.10376,-0.35767,0.0668218,0.876761,-0.262976,-0.990715,-1.01429,-0.5127,-0.452182,-0.214296,0.251116,-0.401066,0.482192,0.81398,0.29043,-0.766629,0.709578,0.0999648,-0.29271,0.696526,-0.567776,-0.203418,0.289262,-0.485846,0.821727,-0.545541,0.767716,0.318666,0.444622,-1.03342,-0.873527,0.656668,-0.118402,-0.246516,0.607452,-0.0496129,0.640421,-0.547157,0.850722,0.833052,0.741677,0.63252,-1.05446,-0.92427,0.0802008,-0.233908,0.440747,0.653873,0.703776,0.704294,-0.242202,0.225383,-0.50066,-0.950694,0.0943238,0.831402,0.578394,-1.09744,0.857484,0.350048,0.780149,0.433836,0.9004,-0.345884,-0.190876,0.677109,-1.01847,0.237804,0.754705,-0.785201,-0.942123,0.640563,-0.541874,-0.534313,-0.200676,0.474961,-0.22372,-0.242567,0.104868,0.036179,-0.38978,0.228291,-0.501097,0.546777,0.911309,-0.886334,0.0287488,0.203257,0.357339,0.885731,-0.34077,0.417425,-0.274027,0.795945,-0.778181,-0.260395,0.728532,-0.13409,-0.47266,0.418831,-0.708053,0.722119,-0.990207,0.824428,0.490299,-0.400962,
0.509704,-0.955934,-0.547643,0.276111,-0.0744647,-0.887267,0.104935,-0.459625,0.252235,0.119923,-0.466336,-0.349409,-0.87879,-0.541081,0.350659,0.345487,0.693694,0.165466,-0.0519326,-0.0602915,0.894607,-0.950387,0.153336,-0.066206,-0.717611,0.787318,-0.852671,-0.0725219,0.967855,-0.701334,-0.927221,-0.248693,0.185434,0.589937,0.683787,0.931034,-0.304573,0.93968,-0.772561,-0.618351,0.923011,0.529626,0.858663,-0.628446,-0.986073,0.721264,-0.132187,0.0238695,0.298256,-0.823609,0.65533,0.149534,-0.424265,0.711689,0.440702,0.501722,0.32758,0.214382,0.0325839,-0.286964,-0.140014,-0.672877,-0.607368,0.424692,-0.952808,-0.48623,-0.16131,0.184724,0.945144,0.898986,-0.130583,0.535566,0.744853,0.132938,0.668266,-0.27968,-0.163837,-0.150971,-0.64277,-0.846235,-0.91242,-0.252977,-0.542576,-0.319255,0.924829,-0.498674,-0.874521,0.0983589,-1.00321,0.608938,-0.266077,0.277803,-0.935492,0.856376,0.0782455,0.644817,-0.969982,0.115383,-0.478955,-0.83881,-0.529606,-0.298993,-0.325324,0.956129,0.124598,-0.649769,0.652051,-0.199692,-0.65534,0.464547,0.76549,-0.121868,0.929623,-0.318305,-0.961689,0.642092,0.763863,-0.0901179,0.860881,0.929513,-0.588673,0.546021,0.796931,0.517453,-0.707079,0.920148,-0.722349,-0.788896,-0.446554,-0.196357,-0.571807,-0.977552,0.0519474,-0.0953932,-0.14769,-0.445944,-0.799052,-0.999452,0.833002,0.786733,0.449246,0.872392,-0.339693,0.904256,0.831947,-0.943658,-0.0733236,-0.333255,-0.254385,-0.20501,0.0636505,0.657667,-0.77776,-0.477936,0.413191,0.0758636,-0.447007,-0.0412172,-0.0618536,0.916386,-0.442609,0.708065,0.538811,-0.0759759,-0.430122,-0.434913,0.230884,0.225828,0.0949425,-1.01332,0.858489,-0.990443,-0.787638,-0.419354,0.323988,0.654657,-0.17809,-0.669868,0.105554,0.864834,-0.491151,-0.0928644,-0.543229,0.373311,0.822544,0.118506,-0.751053,-0.925912,0.414681,0.909302,-0.618993,-0.816984,0.499818,-0.299962,0.288614,-0.475614,0.077268,-0.579289,0.248943,0.785235,-0.820826,-1.0259,-0.679795,0.912718,-0.144331,0.120242,-0.435662,-0.205885,0.135028,-0.306336,-0.147013,-1.00132,0.0877232,0.491378,0.70771,-0.866008,0.232281,0.291051,0.696308,0.166022,-0.260476,-0.791354,-0.151087,-1.02725,0.745548,0.322628,-0.559149,0.139728,0.688951,0.582379,-0.0352485,-0.311943,-0.60693,0.93558,-0.0858894,0.908426,-0.843347,0.885268,-0.270549,-0.633262,0.438286,-0.805013,-0.276409,0.273166,-0.914849,-0.660714,-0.411499,0.556681,0.623052,0.992171,0.395512,-0.686532,0.861895,-0.0936165,0.897794,0.630558,-0.236928,0.571787,-0.713877,-0.760668,-0.458523,0.966233,0.598141,-0.441606,-0.965626,0.65352,-0.803239,0.918292,0.132611,0.376021,-0.373108,0.575064,-0.812848,0.362564,0.149028,0.305419,-0.628808,-0.499851,-0.487568,0.714918,0.429488,-0.863889,-0.661223,-0.973487,0.318331,-0.328157,0.378908,-0.786659,-0.104542,0.59102,0.520196,0.644752,0.218406,-0.391529,-0.265177,-0.772098,0.647246,-0.683942,0.63701,-0.86979,0.809619,-0.937979,-0.808728,0.344301,-0.457707,-0.819147,-0.88078,0.568337,-0.267443,-0.451724,-0.871827,0.0856519,0.908846,0.635833,-0.0641075,-0.160728,0.33889,0.145308,0.648525,-0.896525,0.033153,0.322822,0.705245,-0.984513,-0.751831,-0.764282,0.0320665,0.439405,-0.188027,-0.32719,0.61526,-0.0752163,-0.155748,-0.399093,0.292675,-0.601119,0.606547,0.657272,-0.143588,0.271254,0.52335,-0.378314,-1.00673,0.178445,-0.293194,-0.894059,-0.804464,0.0911031,-0.365747,-0.802221,0.20428,0.738994,0.793802,0.0717245,0.31574,0.0780281,0.563771,-0.970155,-1.01501,-0.59077,-0.0522684,-0.973154,0.889494,0.0707141,-0.539654,0.0252159,0.60352,0.229011,0.213831,-0.905927,-0.372591,0.613723,0.872864,0.818528,0.596485,-0.860931,-0.675772,-0.157699,0.147752,-0.671671,0.898298,-0.627746,0.149385,0.352331,-0.608426,0.782138,0.507263,0.0306285,0.855545,-0.636014,0.735314,-0.550135,
-0.522854,0.384547,0.756243,-0.531851,0.228639,-0.626589,0.969436,0.319448,-0.82803,-0.150823,-0.630032,-0.365529,0.970949,0.791512,-0.146497,0.74522,-0.19488,0.629608,-0.737738,-0.954629,0.408468,0.556259,-0.961115,-0.957673,0.0999188,0.179812,0.786848,-0.502419,0.150345,-0.979709,-0.903327,0.569171,-0.824,-0.711565,-0.534311,-0.890359,-0.236709,-1.0111,0.79884,-0.586211,-0.66533,-0.728594,-0.834378,-0.725089,-1.04078,-0.115657,-0.470876,-0.653239,0.460409,0.522397,-0.819298,-0.540307,-0.360811,0.155018,0.919546,-0.100294,-0.82179,-0.750072,0.706556,0.624476,-0.889751,-0.749667,0.130433,-1.04169,0.502622,-0.809953,0.45873,0.818474,0.494185,0.224398,-0.25961,0.909136,-0.824793,-0.686022,0.903659,0.871445,0.20315,0.101302,0.459192,-0.728091,-0.998723,0.649027,0.52539,0.318972,-0.0522758,-0.515968,-0.597651,-0.123086,-0.666496,0.916284,0.988707,-1.02392,0.603547,-0.321652,-0.276776,-0.446526,-0.324507,-0.0652837,0.419071,0.239293,-0.125294,-1.02591,0.119206,-0.488382,0.705371,-1.00207,0.502201,-0.137838,-0.606616,-0.0873285,-0.403729,-0.65066,0.023746,0.742407,0.106359,-0.864354,-0.0923703,-0.753825,0.534227,-0.250711,0.428226,-0.125372,-0.715126,0.901189,-0.759679,-0.626554,0.691526,0.195827,-0.405102,0.0300616,0.876991,0.853033,-0.56276,-0.341185,-0.187614,-0.655576,0.480845,0.250909,-0.824976,0.216634,-1.01144,0.635464,-0.554105,0.137548,-0.429434,0.372128,0.337315,0.0315386,-0.365232,0.129989,0.290256,-0.694054,-0.291737,-1.02193,-0.748534,-0.285305,0.35306,-0.831091,-0.363923,-0.857465,0.204298,0.309062,0.711175,0.524534,-0.499812,0.0285571,0.293463,0.116026,-0.617515,0.930328,0.565995,0.865138,0.457605,-0.825782,-0.133518,-0.976262,-0.438427,0.217719,-0.436756,0.712475,-1.02947,0.887011,-0.607163,0.403595,-0.113252,0.289577,-0.289209,0.963985,-0.15916,0.459347,0.804377,0.452217,0.325824,-0.329473,0.729354,0.549657,0.780131,-0.794196,0.648382,0.967962,0.186653,0.885079,-1.04898,0.642432,-0.89701,-0.410771,-0.748651,-0.450333,-0.631286,-0.459213,0.868341,-0.920793,0.467188,0.864697,-0.299267,0.131445,-0.0725765,0.530115,-0.419971,0.569673,0.0609444,-0.706116,-0.100497,-0.91717,0.495439,0.41138,-0.805366,-0.711778,-0.0515725,0.561534,-0.58182,0.43315,-0.520434,0.846276,-0.603729,0.863336,0.447673,0.881538,0.681556,-0.13578,-0.808171,-0.900754,0.843939,-0.251719,-0.610525,-0.149885,-0.505966,-0.456535,0.435996,0.78487,0.508551,-0.688508,-0.0529312,0.623888,0.90724,0.906541,-0.922225,-0.0477164,-0.154369,0.575618,0.496668,-0.912943,0.308395,-0.290613,0.369667,0.325466,-0.729569,-0.201491,0.674125,0.250336,-0.10753,-0.66573,0.223144,0.955833,-0.906635,-0.899678,-0.370086,-0.128861,-0.165668,0.069654,0.546723,0.136789,-0.116776,0.61572,-0.832465,0.19404,0.953672,0.733047,-0.644159,-0.618155,0.769121,0.893352,-1.01434,-0.677519,0.45848,0.853418,0.786259,0.156498,-0.89278,-0.677369,0.566877,-0.965148,0.413738,-0.550332,0.90229,-0.120873,-0.966508,0.616658,0.377843,0.840618,0.416742,-0.258151,-0.455048,0.262957,-0.308701,-0.227992,-0.597671,0.197464,0.864245,0.615118,-0.927572,-0.495595,0.0666511,0.770867,-0.076093,0.734463,-0.646976,-0.626937,-0.619052,-0.179305,-0.743507,0.163396,0.0610958,-0.302432,0.169111,0.528126,-0.559032,0.8246,-0.0794384,0.0879554,-0.369242,-0.184603,-0.909065,0.401164,0.437032,0.874936,0.607266,0.284255,0.35026,0.250708,-0.791348,-0.883166,0.736389,0.514959,-0.366745,0.252371,-0.120338,0.951706,0.546311,0.21963,0.304971,0.478548,-0.649987,-0.268726,-0.301849,-0.68506,0.864751,0.293059,0.352816,0.949134,0.0624865,-0.532189,-0.575482,0.370435,-0.212213,-0.998042,-0.283287,-0.133035,-0.421761,0.195009,-0.594057,0.817663,-0.694147,-0.630884,-0.99517,-0.797951,0.0579357,-1.0447,0.366104,0.403119,0.755816,0.32035,
-0.804502,-0.745249,0.718059,-0.591065,-0.791869,0.433541,0.864649,-0.233709,-0.445637,0.24603,0.897682,0.169145,0.100677,0.782784,0.114275,-0.665273,-0.589469,-0.890766,-0.791637,-0.50729,0.889067,0.341647,-1.02537,-0.692496,-0.16065,0.93232,-0.873527,-0.340319,-0.520312,0.185516,-0.529794,-0.658431,-0.989153,-0.09565,0.0247434,-0.540256,0.411343,0.683241,0.52014,-0.868595,-0.0654716,-0.744934,-0.614648,0.0909382,0.226666,-0.166622,0.524307,-0.376086,-0.178219,0.128705,0.214526,0.225491,0.673598,-0.97511,0.605199,0.172672,0.647698,0.0760757,0.639034,-0.661014,-0.489893,-0.654726,-0.628185,0.164779,-0.465076,-0.0503311,-0.90052,0.804146,-0.47661,0.913392,-0.995748,0.175864,0.834111,-0.225628,-0.578615,-0.604056,-0.870458,-0.630711,-0.119138,-0.0700019,-0.123965,0.562077,0.878935,0.719894,-0.359501,-0.0955006,0.889537,-0.489106,-0.447861,-0.60722,0.838973,0.576338,0.726575,0.8718,-0.354462,-0.520571,-0.148821,0.678798,-0.667598,-0.321692,0.549455,-0.360158,0.354101,0.261212,-0.739175,0.416936,-0.320359,0.637271,0.052816,0.0379264,0.554423,-1.01808,0.151716,-0.0242705,0.274068,0.956997,-0.19908,0.545939,0.537398,0.875002,-0.793628,-0.64541,0.267413,0.908894,-0.972616,-0.821876,0.575741,-0.0537435,-0.300138,-0.833458,0.204531,0.680969,-0.447638,0.538697,0.235653,-0.0425411,0.464477,-0.884841,-0.708733,0.36454,0.123602,0.682875,-0.176305,0.34479,-0.502292,-0.4297,0.727658,0.570535,-0.971496,0.323007,0.386785,0.561605,0.232231,0.0348954,-0.882233,0.490458,0.466202,-0.491705,-0.391498,-0.66744,-0.789189,0.646866,0.441743,0.253495,-0.540398,0.14986,0.164292,-0.956189,0.508585,0.956612,-0.755798,-0.815622,0.151648,0.219929,0.457187,-0.867776,-0.541392,-0.924192,-0.632596,0.335279,-0.324856,0.341056,-1.03335,-0.834896,0.556819,0.435534,-0.447784,-0.157737,-0.769234,0.239424,-0.913052,0.790546,-0.118233,0.0655868,-0.731251,-0.45803,-0.683118,0.800563,-0.344135,-0.495353,0.100285,0.693415,-0.661601,0.501863,1.01152,0.697385,0.814529,-0.760086,-0.479021,-0.161782,0.441497,-0.393655,-0.695935,-0.40402,-0.944382,0.0526957,0.382105,0.32303,0.135998,-0.642717,-0.472865,0.269656,-0.725553,-0.559506,0.43465,-0.0371241,-0.108597,-0.773075,-0.872606,-0.493645,-0.99903,-0.822146,0.559875,0.835133,-0.954733,-0.614494,-0.0556431,0.231264,-0.654731,0.616252,0.641726,-0.416613,0.257105,0.211421,0.310542,0.721181,-0.482988,-0.899364,-0.642203,0.0955188,0.488014,-0.271651,0.136949,-0.5453,-0.239965,0.130478,0.42177,0.81213,-0.612794,-0.487066,-0.77039,-0.980368,-0.947102,-0.78827,0.479973,0.170348,-0.529364,-0.809554,0.417288,0.479844,-0.701218,-0.445966,-0.654242,-0.042101,0.534325,-0.0376089,-0.362268,0.7382,-0.670551,-0.0357036,0.464312,0.782157,-0.954998,0.362285,-0.108848,0.540158,-0.99545,-0.165186,0.697458,0.8021,0.283487,-0.318623,0.422695,0.690147,-0.972093,0.830305,-0.698643,0.337527,0.0408837,0.367069,0.936027,0.530386,-0.749259,0.879738,-0.674036,0.606102,0.54743,-0.501041,-0.174205,0.107486,-0.138354,-0.0453561,0.0442361,0.0278542,-0.655909,-0.329556,0.0245907,0.358701,0.395236,-0.593448,-0.595706,0.583344,-0.139446,0.274502,0.151691,-0.440269,0.72275,-0.242362,0.378664,-1.0125,-0.797357,-0.932804,-0.443257,-0.289171,0.883112,-0.327951,0.160965,-0.483043,-1.03591,0.754348,0.215381,0.0454956,-0.980913,0.176034,-0.812901,-0.134807,0.545907,0.0498107,-0.949951,-0.108352,0.442988,0.173639,0.727352,-0.388152,0.91857,-0.196067,-0.319061,-0.286123,-0.594388,0.372324,0.824807,-0.579707,-0.148014,0.313188,0.215778,-0.202089,0.897139,0.740849,-0.579293,0.71602,0.176852,0.555448,-0.415172,-0.93472,0.367924,0.998373,-0.432771,-0.291606,-0.467793,0.527607,0.612318,0.589831,-0.454198,0.0198058,-1.02841,0.585148,0.833699,0.126181,0.79179,0.269682,-0.85863,-0.6693,
-0.507357,0.474659,-0.89573,0.238344,0.109279,-0.488482,-0.314368,0.386742,-0.520675,0.981725,0.546508,0.289884,-0.655027,-0.401896,-0.399067,-0.636677,-0.609315,0.206551,0.87533,0.123767,0.169698,-0.860649,-0.303509,-0.42233,0.0802223,0.752019,-0.493011,0.173315,0.469181,-0.846918,-0.334906,-0.347433,-0.0929506,0.0485309,-0.172634,0.532928,0.953183,0.58106,0.424646,-0.148552,0.795721,0.996991,-0.858963,0.469396,0.728289,0.631712,-0.727967,-0.582781,0.174082,-0.33473,-0.550087,-0.0407761,0.12772,-0.359095,-0.759335,-0.0522748,0.432215,-0.0768349,0.0836688,0.753759,0.308354,0.876266,-0.0506413,-0.71714,-0.172314,-1.01528,0.839257,0.894143,-0.388335,-0.750565,-0.776865,0.451611,0.12575,-0.10966,0.309342,0.713218,-0.104048,-0.878905,-0.286309,-0.830399,-0.555028,-0.673044,0.351178,0.369827,0.403364,0.903765,-0.752476,-0.0424312,-0.131936,0.204816,0.510304,-0.077067,-0.331602,-1.02332,-0.599589,-0.880465,-0.126955,0.648249,-0.274492,0.191329,-0.829293,-0.446282,-0.412318,0.899013,0.150239,0.196133,-0.950831,1.00534,0.684284,0.73227,-0.68856,-0.914494,-0.918304,-0.154739,0.327,-0.103709,0.981054,-0.676608,0.941905,-0.893494,0.7018,0.376342,-0.478736,-0.79069,-0.467372,0.283373,0.840341,0.470373,-0.314472,-0.162774,-0.245949,0.491645,0.797317,0.491862,-0.302009,-0.557693,-0.127181,-0.140485,-0.391291,0.108298,-0.869624,0.352323,0.0709974,-0.71282,0.788369,-0.448007,0.0621565,-0.361399,0.256589,0.878091,0.328537,-0.472214,0.681999,-0.917594,0.650946,0.461912,0.943796,-0.688396,-0.897668,0.618015,-0.941902,0.672734,0.488308,0.282928,-0.534892,-0.22381,-0.303367,-0.129904,0.504102,0.555126,0.533478,0.76653,-0.552713,-0.542283,-0.405943,0.230525,-0.976826,0.150817,0.403691,0.524974,0.550949,-0.366785,0.868274,-0.735589,0.80895,-0.41642,0.796301,-0.752691,0.400006,-0.321302,-0.680522,0.817418,-0.246284,0.932766,-0.467187,-0.612894,-0.374441,-0.731141,0.296533,-0.389609,-0.679165,-1.00028,0.248354,-0.291217,-1.02297,-0.684887,-0.350029,-0.721054,-0.975358,-0.34819,0.44787,-0.0552384,-0.413259,-0.813706,0.538433,-0.687682,0.310016,-0.497676,-0.444123,-0.946649,-0.991339,-0.827384,-0.183245,0.438157,0.811626,-0.764394,-0.498771,0.552682,0.65725,0.108022,-0.76032,0.516968,0.517262,0.777121,-0.871416,0.651791,-0.871056,-0.401966,-0.940046,-0.751035,-0.311604,0.821422,0.0378158,0.982889,0.020808,-0.143103,0.929523,-0.3268,0.611989,-0.303137,0.0300821,0.804399,-0.296799,-0.0454716,0.671058,-0.790969,0.977802,-0.0643695,0.081656,-0.368216,0.55682,-0.415932,-0.892667,-0.381662,0.899787,-0.722471,0.459568,-0.262333,0.646067,0.706091,0.471679,0.394334,-0.779523,0.40799,-0.87155,0.727072,-0.236028,0.975902,-0.985837,-0.72727,-0.40162,0.879282,0.809915,-0.939037,0.316296,0.580882,-0.313446,0.225021,-0.791421,-0.797167,0.902557,0.647092,0.747696,-0.30941,0.460117,-0.131314,0.881115,0.901813,-0.245669,-0.160975,0.872522,0.962286,-0.977845,0.882371,-0.548819,0.937154,-0.17193,-0.804534,0.251017,-0.477299,-0.126237,0.896076,-0.279553,-0.574865,0.71737,0.948068,-0.936859,0.0774499,-0.214592,-0.0978443,-0.284835,0.213185,-0.592897,0.350488,0.580991,0.0641872,0.73288,-0.660964,-0.0907652,0.167053,0.475564,-0.735174,-0.100732,0.919559,-0.933922,0.379905,-0.499586,0.799419,-0.192005,-0.183056,-0.331708,-0.82648,-0.612763,-0.872547,-0.739604,-0.738095,0.0198105,-0.612562,0.377135,-0.549024,-0.46212,-0.0774903,0.0456865,-0.132094,-0.663471,-0.779942,-0.296729,0.0478263,0.414067,-0.796618,0.288254,-0.544692,-0.262073,0.226074,-0.0939904,0.692014,1.00881,-0.318049,0.038214,0.785649,-0.199664,0.404438,-0.528762,-0.0674155,0.796998,0.59175,-0.915662,-0.498298,0.90474,0.0638726,0.272792,-0.687771,0.490515,0.815378,-0.248241,-0.230258,1.01019,-0.316539,-0.872959,0.155026,0.999827,-0.917295,
0.140466,-0.481616,-0.446049,-0.0956838,0.446284,1.00183,0.151067,-0.522078,0.389447,-0.807683,0.284128,0.0374681,-0.105415,0.298287,0.148283,0.687705,-0.101658,0.944486,0.891234,-0.401961,-0.74075,-0.101908,-0.677318,0.464776,-0.395539,-0.66793,0.738324,-0.0482913,-0.0494896,-0.502596,-0.378793,-0.376908,-0.433721,-0.116909,0.792362,0.375714,0.854002,0.996204,-0.122224,-0.726781,0.194992,0.0721676,-0.476694,0.619496,0.797918,-0.396932,0.683955,-0.949386,0.13517,0.956268,0.439476,0.567916,-0.876761,-0.252776,-0.661369,0.686785,0.704534,-0.916177,-0.080199,-0.427882,-0.419883,-0.588666,-0.519875,0.320264,0.411192,0.775525,0.492158,-0.396158,0.605875,0.052533,0.396738,-0.936776,0.500474,-0.848278,-0.239244,0.789084,0.5285,0.348118,-0.202674,-0.28552,-0.395778,-0.846008,-0.159947,0.159897,0.325452,-0.409128,0.0862938,0.394524,0.728123,-0.782883,-0.77302,-0.848129,-0.845096,-1.02755,0.364577,0.0970549,0.440412,-0.247337,0.166594,-0.0522664,-0.654395,0.120145,-0.658531,-0.542389,-0.750211,-0.0643958,-0.660311,-0.63949,-0.395155,0.619312,0.794756,-0.0663627,-0.981416,-0.466827,0.0255552,0.625987,-0.574635,0.567488,-0.740993,0.539003,0.9776,0.964408,0.52072,0.804619,0.663321,0.842676,0.986088,0.050904,0.921774,-0.377142,-0.92969,0.994739,-0.943499,0.375451,-1.00594,0.229007,-0.519757,-0.290371,-0.579127,0.0851598,0.480653,0.892356,-0.0781833,-0.229361,-0.261792,-0.833943,0.991665,-0.945447,-0.906165,0.589045,0.129674,-0.463241,-0.258018,0.83688,-0.325344,-0.125704,0.601103,0.627181,-0.865227,0.921617,0.260412,1.0047,0.561413,0.454704,0.429778,0.778519,0.106048,0.0234899,-1.01091,0.108444,0.979698,-0.998916,0.047598,0.263008,-0.959722,0.410946,-0.757223,0.0933506,-0.244975,0.90234,0.630084,0.857124,-0.9621,-0.266921,0.598502,-0.921667,0.336786,-0.331772,0.172491,0.931612,-0.732287,0.0664137,0.881078,0.519459,0.68522,0.851025,-0.77286,0.684023,-0.620394,-0.44837,0.620535,-0.339002,-0.898131,-0.815663,0.548192,-0.100803,0.772532,0.143305,-0.94659,0.322729,-0.786559,-0.728686,0.0748217,0.610224,0.868184,0.0362109,-0.429109,0.831117,-0.0580104,-0.74752,-0.123835,-0.0652356,-0.678729,0.951502,0.779327,0.69393,-0.840227,0.942852,0.190205,0.547262,0.373169,0.614876,-0.427436,0.719714,-0.420616,-0.334285,0.806713,0.605452,0.372159,0.0773625,-0.43355,-0.792704,0.217185,0.636129,0.698128,-0.441993,0.597868,0.958049,-0.415154,0.352133,-0.0700288,0.500299,-0.182883,0.886456,0.499702,0.258043,0.115697,0.243778,0.37295,-0.913147,-0.470291,0.486349,-0.255855,0.698568,0.557122,0.621748,0.854947,0.422999,-0.363365,0.567156,0.761246,0.648303,0.643203,0.353956,-0.3511,-0.771882,-1.02062,-0.610254,0.0963709,-0.184427,-0.209037,-0.577858,-0.797477,0.775317,-0.62061,0.717812,0.887468,0.227523,-0.90613,-0.503559,-0.737279,-0.510398,-0.255542,0.519364,0.558787,0.531575,-0.671229,0.598625,-0.628983,0.917561,-0.7421,0.493136,0.446672,-0.537694,-0.095272,0.569452,0.828808,-0.799284,0.635568,0.171888,0.134362,0.0719396,-0.446675,0.881472,0.633773,-0.690172,-0.262467,-0.264202,0.0292779,-1.02258,0.497146,-0.772984,0.642408,0.475661,0.567885,-0.18416,-0.164457,0.8039,-0.800983,0.891086,-0.564037,0.0439101,0.0437701,-0.699573,-0.610096,0.0934164,0.169774,0.171297,0.367372,-0.63437,0.16814,-0.7564,0.767678,0.293284,0.15405,-0.545915,-0.48148,-0.0765249,-0.665176,0.645177,-0.966161,-0.714946,0.697036,-0.448268,0.342319,-0.0858001,0.140287,0.113416,0.33235,-0.316688,0.0248642,-0.182887,-0.462606,-0.481351,0.46169,-0.288419,0.503429,-0.927045,0.621526,-0.125807,0.116249,-0.361603,0.50585,0.168244,-0.925502,0.320281,0.178217,-0.888477,0.894068,-0.425352,0.259464,-0.248196,-0.242648,0.344535,0.530241,0.369804,-0.892278,0.600781,0.435164,0.734816,-0.857235,-0.900859,
0.0732561,0.145045,0.361213,-0.360772,0.102744,0.554782,0.257777,-0.822948,-0.564709,0.712811,0.645644,0.489475,0.855865,-0.229012,-0.641212,-0.225489,-0.251283,-0.272725,0.633905,0.921318,0.412072,0.402152,-0.660947,-0.951995,-0.979222,0.723491,-0.657779,0.535558,0.982717,0.130927,0.16639,0.577052,0.191694,0.665093,-0.78536,0.643797,-0.447594,-0.620719,-0.259859,-0.729507,0.31811,-0.938328,-0.293057,-0.733257,0.272956,0.941956,0.8717,-0.874446,-0.290056,-0.50782,-0.312294,-0.550841,-0.674093,0.814,0.813507,-0.204657,0.976191,-0.73792,-0.393512,-0.542217,-0.528937,-0.725796,-1.02335,-0.458514,-0.752788,0.216724,0.464149,-0.7358,0.591871,-0.578604,0.997173,0.0452019,-0.734746,0.572942,-0.829939,-0.280154,-0.433262,-0.869743,-0.824483,0.170905,0.792114,0.677858,-0.817788,0.0472816,0.887284,-0.241208,0.0687196,-0.865457,0.350524,0.862045,-0.795196,-0.191598,-0.982537,-0.898419,0.256456,-0.489871,0.874388,0.886444,0.747444,0.266063,-0.59388,0.0930484,0.82428,-0.886643,-0.334934,0.7164,-0.471737,-1.02423,0.756483,-0.966094,-0.549413,0.770326,0.645939,-0.956988,0.75522,-0.523934,-1.00756,0.972327,0.288756,-0.516063,-1.04033,-0.728808,0.365925,0.67771,-0.252311,-0.290893,-0.208546,-0.140616,-0.592301,-0.314187,-0.202697,-0.444762,0.241919,-0.282893,-0.412136,-0.31037,0.485435,0.134795,0.700839,-0.489478,-0.408187,-0.914039,-0.159198,-0.21084,-0.430091,-0.650442,-1.03902,0.105019,0.424178,-0.808328,-0.646795,-0.944031,-0.612844,0.789774,-0.137628,-0.108431,0.188735,-0.798607,0.474841,0.089082,0.420743,-0.214829,-0.441296,-0.37437,0.941155,0.457678,0.245156,-1.04523,-0.603249,-0.208422,-0.613741,0.257883,0.441923,0.161716,-0.184117,-0.835463,0.67171,0.416411,-0.808692,-0.105765,-0.524363,0.0191689,0.917829,-0.551047,1.00081,0.190407,0.272513,-0.548743,0.739837,0.0974022,0.0319096,0.611234,-0.432806,0.180392,-0.854946,0.298314,-0.754958,0.673715,0.549942,0.795186,0.288449,-0.533343,0.693984,0.326134,-0.183881,0.922826,-0.9983,-0.186984,-0.633437,0.883862,0.181877,-0.569891,-0.246749,0.805058,0.0988578,0.0831659,-0.124605,-0.874424,0.818763,-0.224623,-0.162497,0.673584,-0.6844,-0.401154,0.10395,0.27864,0.385486,-0.593089,-0.860033,0.185668,0.717764,-0.908072,0.680659,-0.175834,-0.994862,-0.0686532,0.430916,-0.6711,0.23738,-0.760389,0.606541,0.845603,0.109346,0.171005,-0.598107,-0.613807,0.569177,0.42812,0.150839,-0.615257,-0.676336,0.13348,-0.0550419,-0.61764,-0.83116,-0.136161,0.60827,0.723966,0.598901,-0.267711,-0.273377,0.260886,0.0203858,0.713449,0.856838,0.251619,-0.18043,-0.827236,-0.833069,0.213841,-0.553469,-0.945103,-1.02329,0.148636,-0.405615,-0.208997,0.0792914,0.400562,0.749826,0.89276,0.222647,0.220439,-0.20512,-0.317005,-0.415892,0.538148,0.393539,-0.658038,0.861622,0.260528,0.0135782,-0.595816,-0.998629,0.0283715,-0.298645,-0.527256,-0.35138,0.161419,0.175456,-0.200308,-0.629435,0.630686,-0.411292,-0.211574,-0.738735,0.277414,0.932528,0.2709,-0.301767,-0.612362,0.631863,-1.03369,0.134218,0.656098,0.418838,-0.381819,-0.197852,-0.732216,0.67376,-0.625762,0.354711,-0.51248,0.740182,0.836341,0.838126,0.248424,-0.72449,-0.834702,0.506293,0.145465,0.753234,0.280503,0.192692,0.135049,0.0667608,-0.878207,-0.211133,0.430015,-0.649774,-0.923975,0.798627,0.909409,-0.981765,0.211138,-0.707965,-0.487489,0.315784,0.579781,-0.0715719,-0.217364,-0.0533302,-0.725825,0.738837,-0.55891,0.0518825,0.570966,-0.099205,0.678121,0.527417,0.382778,-0.810295,0.409393,0.510523,0.67565,-0.249006,0.994707,-0.190915,0.846364,0.323516,0.442191,0.0534714,0.772361,-0.900904,0.105374,-0.180463,-1.02675,0.623954,0.46973,-0.0968725,0.235212,-0.577835,0.587894,0.449956,0.212491,-0.708747,-0.128367,0.016044,0.716045,-0.97602,0.21007,0.853138,0.709501,
0.190406,-0.811348,-0.958638,-0.427583,-0.52244,-0.721676,0.968631,0.269687,0.660088,0.826861,0.169176,0.32098,-0.54822,-0.952743,-0.326919,-0.296832,-0.922635,0.327024,-0.352617,0.8977,0.759711,-0.880136,-0.428104,-0.757645,0.0420598,-1.03485,-0.0579011,-0.0546087,0.692115,0.0751329,0.916618,-0.115169,-0.438308,0.117922,-0.230081,0.270735,-0.481487,0.342923,0.304305,0.750763,0.0500023,0.604616,-0.244905,0.160862,-1.00104,-0.487202,-0.982359,0.610431,0.894741,-0.951429,-0.727433,-0.327643,-0.855574,-0.0651346,-0.851235,0.151037,0.787225,0.273326,-0.512696,-0.192082,-0.347634,-0.252637,0.268421,-0.399852,-0.754225,0.714278,-0.816095,-0.997415,0.659266,0.114062,0.451023,-0.823355,-0.733073,0.346191,-0.780636,0.0638409,0.0980655,-0.451217,-0.527557,-0.879475,-0.0355843,0.812045,0.92162,-0.064437,0.117314,-0.664931,0.232399,-0.45099,0.831384,-0.310837,-0.551834,0.994255,-0.171652,-0.607116,-0.752406,0.188092,-0.551991,0.94687,0.147289,0.12562,0.841953,-0.104752,0.65393,0.545758,0.602127,0.639089,0.663475,-0.343717,1.01162,-0.903198,-0.061514,-0.0721946,0.820988,0.21192,0.836845,0.495927,0.152019,-0.225523,-0.0428972,0.78421,0.718937,-0.820308,-0.699197,0.664789,-0.307229,0.759097,-0.85796,0.429891,-0.65285,-0.733272,0.0836445,-0.532965,0.61893,1.01106,0.792286,0.596224,0.853502,-1.0202,0.462265,0.48674,-0.261058,1.00725,-0.628243,-0.703674,-0.187174,-0.98213,0.337921,0.165402,0.407719,0.456778,-0.449152,-0.762093,0.98889,-0.0971525,-0.452786,0.741482,-0.0387553,0.731456,0.901555,0.0397727,-0.877573,-0.702466,-0.0734213,-0.544338,-0.222326,-0.108103,0.59626,-0.169791,-0.371395,-0.0521716,0.102667,0.603857,-0.776502,-0.723451,-0.471795,-0.885055,0.093091,0.238526,0.370553,0.763726,0.670051,0.776223,0.0450078,0.329907,-0.197945,0.630998,0.443483,-0.872801,0.623604,-0.53554,0.61678,0.825076,-0.64457,-0.466335,-0.81165,-0.680747,-0.423925,0.273197,0.424681,-0.359909,0.958838,0.126621,-0.338198,0.56237,1.00933,0.756822,-0.231755,-0.0563708,0.865795,-0.270402,0.601823,0.532529,0.308988,0.512556,1.00932,0.989929,0.959872,0.427665,-0.370209,-0.793538,-0.718502,0.126523,-0.707584,-0.499547,-0.205881,-0.696992,0.496153,-0.21168,-0.704772,-0.240691,-0.201281,0.603057,0.42665,0.580284,0.576912,0.940086,-0.126701,-0.534958,-0.177621,-0.459397,0.0223506,-0.511412,0.0507656,0.710222,0.460725,-0.171809,0.193935,-0.785851,0.739025,-0.592096,-0.53487,-0.639877,-1.03654,0.808592,0.480394,-0.664936,-0.348389,0.865249,-0.377967,-0.119214,0.526497,0.730292,-0.679402,-0.607365,0.636945,0.216573,-0.333993,0.831953,-0.533594,0.698255,0.202778,-0.719523,0.272753,0.211763,-0.641271,-1.0124,-0.498836,0.556024,-0.485346,0.503539,-0.368258,0.959001,0.265216,-0.55239,0.0706118,0.87384,0.463638,0.151827,-0.175947,-0.45874,-0.518274,-0.0326441,-0.101058,-0.929346,0.451319,0.915597,0.041265,-0.734719,-0.893591,0.835644,-0.550678,0.783655,-0.0724759,-0.780365,0.398488,0.577448,0.803109,-0.697679,-0.437135,0.271931,0.27809,0.131847,-0.380305,0.738033,-0.358003,0.329549,0.602469,-0.845374,0.295002,0.749367,-0.708241,0.898988,0.342582,0.918363,-0.284204,-0.230356,0.957869,0.943816,0.258865,0.0475575,0.833475,-0.115337,0.709526,0.428464,0.136564,-0.0969496,-1.03819,-0.814642,-0.675708,0.592597,-0.0717943,-0.608482,-0.291637,-0.10809,0.432469,0.289282,-0.346812,-0.15807,0.235681,0.479647,0.160851,-0.519718,0.214451,-0.591182,0.79717,-0.813275,0.0924458,-1.00066,-0.725939,-0.763956,0.24037,0.117555,0.0205038,-0.0878813,-1.0356,-0.158192,-0.592418,-0.46926,-0.312713,-0.746582,-0.581646,0.143258,0.228244,0.92482,-0.740163,0.239772,-0.247575,0.587385,-0.631428,-0.968379,0.706955,-0.837178,-0.95293,0.632501,-1.02374,-0.731228,-0.856002,-0.368569,0.535828,0.344015,0.716987,-0.582196,
0.135855,-0.506106,0.847629,0.971512,-0.113323,0.5177,-0.736265,0.430662,0.495913,0.358214,0.229515,-0.710987,0.138749,-0.649842,0.100125,0.821501,-0.65735,0.150713,0.493919,0.116387,0.0354942,-0.192055,0.771338,-0.238564,0.89078,0.202698,0.738167,0.503942,0.540954,-0.443839,0.693801,0.803693,-0.34614,0.605879,-0.644455,-0.919375,-0.738461,-0.331781,0.323621,0.205455,-0.515444,-0.866816,0.887545,-0.856489,-0.298585,0.914976,-0.103379,-0.0568562,-0.742218,-0.534913,0.52215,0.220967,-0.389486,-0.0813649,0.543491,-0.967842,-0.980288,-0.919945,-1.03017,-0.289806,0.856496,-0.110675,0.48577,-0.702616,-0.494093,0.968227,-0.760632,0.203223,-0.992169,0.93007,-0.631114,-0.11469,-0.731183,0.189585,0.880745,-0.435801,-0.963548,-0.918872,-0.479789,0.943397,0.869688,-0.734401,0.565531,-0.129237,0.922551,0.98277,-0.411301,0.284803,0.0464524,0.419745,0.21395,-0.771497,0.386166,0.183464,0.215169,0.667111,1.01728,0.694382,0.86611,-0.799774,-0.334125,-0.7419,-0.779783,0.837481,0.164093,0.70408,0.701967,-0.219262,0.154051,-0.170374,-0.711922,-0.739408,-0.919919,-0.47753,-0.566969,0.600868,0.837582,-0.278535,0.350324,0.566687,-0.466652,0.238559,0.204632,0.704634,0.922582,0.493622,0.0722051,0.895234,0.736337,0.187378,0.650542,0.180129,-0.767809,0.39894,-0.351972,0.237001,0.991413,-0.727966,-0.808063,-0.916593,-0.484131,0.402343,-0.16679,-0.33758,-0.428646,-0.462639,0.958467,0.637037,-0.325711,0.713559,-0.735668,-0.14918,0.335216,0.575156,-0.726324,-0.590543,-0.431116,-0.819211,-0.71654,-0.598169,0.165756,0.0599551,0.822405,0.937608,-0.968106,-0.0341148,-0.410107,0.59561,0.277006,-0.990173,-0.729594,0.947023,-0.626351,-0.455439,0.0710401,-0.904717,-1.00823,-0.715898,-0.510964,-0.188587,0.551597,0.187265,0.204404,-0.678809,-0.623414,0.356073,-0.224258,-0.843096,-0.409588,0.0798205,-0.38039,0.623713,-0.4386,0.571199,0.746736,-0.571187,0.477573,0.195471,-0.808675,0.903703,-0.22083,-0.944845,0.0869493,0.53188,-0.845347,-0.36739,-0.194518,0.514872,-0.907736,-0.600051,0.81724,0.767078,0.150663,-0.0343545,0.908179,-0.166346,-0.303414,-0.248557,-0.174736,0.873324,0.767524,0.891726,0.313632,-0.146842,0.601962,0.411929,-0.274997,-0.509659,-0.799008,-0.182921,0.694831,0.930864,-0.552668,0.0768377,-0.370311,-0.539685,-0.882559,-0.583198,0.664024,1.00939,-0.727168,0.615296,0.113506,-0.780067,0.894795,-0.421189,0.985409,0.316538,-1.02582,-0.611437,0.918191,-0.627808,0.569971,-0.909596,0.403576,0.222764,0.350698,0.964598,-0.285048,-0.28871,0.480585,-0.480715,-0.708539,-0.598279,0.950195,-0.970088,0.162267,0.825983,-0.207496,-0.58241,0.929354,0.399457,-0.88193,0.595459,-0.945933,-0.276015,-0.824226,0.568134,0.206512,-0.145712,-0.76567,0.994129,0.948663,0.135636,-0.0454082,0.922567,0.195043,-0.182389,-0.655962,-0.258544,-0.548753,0.359565,-0.750294,-0.627495,-0.466193,-0.829102,0.376462,-0.124206,0.548797,-0.0458559,-0.385117,0.033798,0.964323,0.890345,0.512279,-0.688129,0.478339,-0.806121,0.770326,-0.526932,0.74324,-0.264317,-0.317074,-0.115071,-1.0205,0.400041,-0.340763,-0.60927,-0.937123,-0.289225,-0.923472,-0.246026,-0.4887,-0.261706,-0.863172,0.981233,0.649514,0.892889,0.324075,-1.0159,-0.563106,0.423015,-0.267013,-0.142833,-0.992451,-0.265359,-0.258515,0.888336,0.37324,-0.567096,-0.964529,-0.422981,-0.924005,0.041655,-0.682985,-0.796513,-0.120171,-0.713009,-0.179423,-0.870471,0.974996,-0.300204,-0.34603,-0.355239,0.771914,-0.233711,-0.516371,-0.884152,-0.742998,0.338022,-0.798618,0.94675,0.0963595,-0.955412,-0.238113,0.357074,-0.196642,0.590739,0.777866,-0.374038,-0.635783,-0.867358,0.490274,-0.813577,0.205723,0.825833,0.0623852,0.318026,-0.999074,-0.712092,-0.166128,0.421734,0.279456,0.850745,0.343115,-0.0484973,0.624023,-0.634448,0.844624,0.212616,0.489021,-0.042306,
0.269252,0.327471,0.685957,0.440751,-0.0991419,-0.664339,-0.798184,0.591324,-0.736356,-0.0899316,0.397059,-1.02187,0.960944,0.885322,0.673026,0.37924,0.0622268,-0.227405,0.931399,0.613251,-0.571628,0.654064,0.178502,-0.408219,-0.297286,0.429606,0.324517,-0.0835634,-0.391896,-0.478615,0.659716,0.992298,-0.189836,0.879337,-0.870334,-0.68195,-0.994341,-0.69146,0.552266,-0.897087,-0.171283,0.213438,-0.562486,0.678811,0.66758,-0.968856,-0.97255,0.0320942,-0.463307,0.859296,-0.514078,-0.961907,0.207239,-0.395924,0.445794,-0.348665,-0.571602,0.888054,0.437327,0.78181,0.499301,-0.637037,-0.674616,0.846864,-0.317432,0.108926,-0.131151,-0.574515,0.429747,-0.435115,0.739383,0.229444,0.632414,0.813139,-0.560447,-0.111478,0.876966,-0.218828,0.849455,-0.649927,-0.388606,-0.0885008,-0.456231,-0.710492,-0.885896,0.914637,-0.438773,0.236441,0.601577,-0.619598,-0.171965,0.0298939,-0.969303,-0.954279,0.796516,-0.20344,-0.965036,-0.0947647,0.560241,-0.582256,0.814338,0.174533,0.347657,0.680532,0.436129,0.895891,-0.258749,0.383121,0.857415,0.89716,-0.779054,0.437267,0.257443,0.538199,0.18367,0.791669,-0.368029,0.851887,0.631626,0.0267237,0.695603,0.539403,-0.889895,-0.981744,-0.846007,0.554671,0.921333,-0.11431,0.699231,0.0487126,-0.652814,-0.982457,-0.698577,0.944027,-0.418521,0.376661,0.420198,0.878334,0.701268,-0.923702,1.01022,-0.204546,-0.382254,0.0577359,0.689173,0.0332483,-0.933533,0.180361,-0.345041,-0.893248,0.170439,0.42077,0.164628,0.867881,0.550409,-0.508246,-0.738069,0.130825,0.0353417,-0.796965,0.418906,0.473647,0.989777,-0.449802,0.0942685,0.105673,0.642678,-0.568814,0.0475477,-1.01601,-1.01759,0.524067,-0.145878,0.605016,-0.593626,-0.106673,-0.502643,0.606225,0.484746,0.188735,-0.618967,-0.350082,-0.701088,0.603554,0.784733,-0.0350197,0.29933,-0.651327,-0.113629,0.259752,0.992573,0.899412,0.653347,-0.895587,0.139352,-0.423667,-0.137633,0.100279,0.526494,-0.701495,-0.610097,-0.0609691,0.713824,0.376741,0.114478,0.41574,-0.811817,-0.978547,0.615553,-0.489726,-0.0794718,0.635062,0.970019,1.00237,-0.912969,0.954731,-0.316728,0.616549,-0.863995,0.05594,-0.698621,0.845336,0.947785,-0.126276,-0.813001,-0.692914,-0.288461,-0.206112,-0.346368,-0.185287,0.212062,0.767709,-0.522541,-0.536217,0.629155,-0.439662,-0.755781,-0.651593,0.474403,0.408713,0.0206465,-0.643253,-0.999819,0.83364,0.282885,0.956983,-0.121459,-0.489909,-0.615277,0.593122,0.509117,0.882066,-0.785967,-0.417473,0.989196,0.605987,0.440224,0.148511,-0.559839,-0.444616,0.564174,0.215194,0.614713,0.11188,-0.20984,-0.0676031,0.906211,-0.0769378,0.492842,-0.211,-0.604972,0.251914,-0.521289,0.84677,-0.677389,-0.388506,0.0296288,0.688043,0.991112,-0.501895,0.629141,0.537546,0.330351,0.732005,0.173255,0.152206,-0.616655,0.327334,-0.794071,-0.7494,-0.329665,-0.653196,0.53667,0.77373,0.857284,-0.804996,-0.230873,0.708719,-0.476141,-0.308751,-0.770172,0.630787,0.494379,-0.345681,-0.0512861,0.945902,0.366536,0.101714,0.452214,-0.502688,-0.701654,-0.266324,-0.38528,-0.723042,0.776257,-0.458893,-0.888735,0.0253447,0.124714,-0.527284,0.867462,-0.499495,0.870076,0.139466,-0.370061,-0.884546,-0.561392,-0.584622,-0.335795,0.0551326,-0.43514,0.135298,0.783057,0.0614764,-0.950099,0.105798,-0.785404,-0.372345,0.839541,-0.54358,0.4481,0.125838,0.946186,-0.622216,-0.731838,0.120682,0.461863,-0.527405,-0.103096,0.435399,-0.210785,-0.331459,-0.528259,0.432049,-0.459503,0.455213,-0.18844,0.222819,-0.98485,-0.919736,0.706165,-0.1239,0.621333,0.0770723,-0.433265,-0.219183,0.0714111,-0.518609,-0.31156,-0.205139,0.158263,-0.507283,-0.612575,0.11932,-0.234625,-0.712205,-0.523262,0.956573,-0.843894,-0.574794,0.614241,-0.595658,-0.825317,-0.273198,0.368353,-0.588516,-0.504064,0.23993,0.647852,-0.231499,-0.0544411,0.22349,
-0.825945,-0.644753,-0.196049,0.604856,-0.83481,-0.484042,0.292528,-0.549555,-0.42011,0.731984,-0.111984,-0.0777097,0.287447,-0.577325,-0.13156,0.773081,0.886155,-0.504925,-0.322984,0.100766,0.868218,0.466247,-0.723152,0.492001,-0.110656,-0.33389,-0.872683,0.483421,0.565749,-0.593471,0.584364,-0.68062,-0.254744,0.845406,0.785522,-0.558939,0.667849,-0.934995,0.953676,0.677101,-0.972457,-0.513886,0.330995,0.149832,-0.375881,-0.657044,-0.29875,-0.424143,-1.02618,-0.636703,-0.223736,0.102441,0.209041,-0.430723,-0.883505,0.87353,0.890808,-0.547746,-0.811425,-0.705626,0.350801,0.736132,0.580746,0.758163,-0.401572,0.53747,-0.660744,0.561655,-0.408632,-0.609968,0.385494,0.456908,-0.129253,-0.825541,0.866327,0.405504,-0.603063,-0.892069,-0.337581,-0.958957,0.565163,0.481771,-0.196916,-0.916823,0.9079,-0.507713,0.464095,0.829925,0.424201,-0.223017,-0.127426,-0.253951,0.877553,-0.578008,0.735479,-0.754054,1.00648,0.969707,0.105323,0.307165,0.783635,0.73006,0.301826,-0.237484,0.0390548,0.444243,-0.723676,0.309541,-0.530951,-0.99357,-0.0960882,0.842173,0.874844,-0.174437,-0.488014,-0.332889,0.612262,0.968283,0.845728,0.165227,-0.578174,-0.270179,-0.253078,0.698149,-0.643726,0.424348,-0.691488,-0.670326,-0.652313,-0.952918,0.0583762,-0.438128,1.00477,-0.68648,0.0444871,0.261075,-0.0637837,0.111564,0.360051,-0.733572,0.672073,0.319037,-0.206689,0.353095,0.541161,-0.875265,-0.0971544,0.180655,0.714432,0.0393561,0.275057,0.351871,-0.717516,0.771428,-0.354587,0.944992,0.294344,0.336685,-0.746741,0.214127,0.656945,-0.401816,-0.37445,-0.72369,-0.171912,0.0917144,0.663061,-0.987558,-0.678737,-1.0036,0.568924,-0.525986,-0.694388,-0.863486,-0.199258,0.501558,0.569353,-0.340602,0.403689,-0.608287,0.839442,0.862243,0.937915,0.48673,0.240738,-0.192619,0.501845,-0.54644,0.0878509,0.817098,0.254746,0.199584,0.318855,0.557269,-0.296616,0.89299,-0.325006,-0.62617,0.640534,-0.0671292,-0.321502,0.327009,0.0670396,0.0242427,-0.045167,0.895003,0.68649,-0.988512,-0.707193,-0.751572,-0.306664,-0.593333,-0.38099,-0.34437,-0.128326,0.859622,0.360187,-0.174862,0.516936,-0.70887,-0.642128,0.797914,0.346026,-0.242849,0.180949,0.0424686,-0.749507,-0.185154,-0.864114,-0.0604793,0.723898,0.201753,-0.122977,0.703316,0.484333,0.0852432,-0.802236,0.337422,-0.7617,0.28127,0.0828273,-0.216193,0.835278,-0.41866,-0.147176,0.828404,-0.918995,0.213072,0.578913,-0.561876,-0.423417,0.837152,0.803326,0.578499,-0.039509,-0.434218,-0.677818,0.680065,0.849898,-0.562922,0.211996,0.55617,0.197925,-1.02513,-0.365032,-0.220169,-0.650349,0.405178,-0.126705,-0.626082,0.0744005,0.672908,0.566784,0.133799,0.577523,0.190245,-0.0287085,-0.882623,0.585608,0.0278295,0.517402,0.395994,-0.108513,-0.271725,-0.693144,0.494619,-0.310856,0.810251,0.132296,0.477615,-0.43141,-0.0953952,0.633086,0.473086,0.129604,0.533512,0.9165,-0.107478,0.124726,0.728396,0.946736,-0.903675,0.425482,0.801195,-0.13529,-0.409984,0.340873,0.617622,-0.401853,0.256365,-0.291446,0.0603154,-0.636939,-0.926048,-0.703686,0.82607,0.784601,0.953887,0.220848,0.981621,-0.9579,-0.425627,0.294917,0.266712,-0.0917101,-1.00946,-1.04168,-0.175423,0.494581,-0.521408,-0.844098,-1.04112,0.36761,0.610363,-0.25983,0.10547,-0.605705,-0.418201,0.54264,0.94476,0.176765,0.176231,0.346183,0.380822,0.668912,-0.482523,0.294551,-0.587662,-0.582601,0.47184,0.85709,-0.587186,-0.663127,0.807491,-0.259717,-0.876164,-0.711146,0.131697,0.846019,0.390344,0.634755,0.499237,0.703249,0.971589,0.196321,-0.162392,0.840749,-0.114256,-0.839884,0.173928,-0.802341,0.163272,-0.897137,-0.0808654,-0.806717,0.382241,-0.667266,-0.0975206,0.709253,-0.446194,-0.283986,-0.897343,-0.848507,-0.33928,-0.587832,0.559149,-0.766334,0.654761,0.499019,-0.904014,-1.00712,-0.767623,
0.797102,0.508494,-0.692126,-0.142528,0.216239,0.0211971,-0.774206,0.240462,-0.466513,0.868513,-0.301568,0.107085,-0.0776486,-0.429349,-0.447181,0.690992,-0.473013,-0.399407,0.0740134,0.169407,-0.293014,0.468672,-0.858008,0.810367,0.887246,-0.301179,-0.65208,-0.234508,0.976855,-0.659716,0.344978,0.43684,-0.400378,-0.710387,0.22038,-0.557243,0.24248,-0.976606,0.621492,0.570833,0.597606,0.928099,-0.795632,-0.599303,0.319892,0.130085,0.563116,0.510417,0.551563,-0.602131,-0.319717,0.9,0.637416,-0.96435,-0.687478,-0.284964,-0.722364,0.810581,-0.505299,-0.701835,-0.477518,0.714347,0.474752,-0.0431474,-0.815528,0.853168,0.812856,0.271778,-0.155585,-0.84723,0.758014,0.362689,0.382894,-0.655047,-0.0939306,-1.05576,0.532658,-0.422872,0.636104,0.980648,-0.191719,-0.870037,0.297188,-0.502932,0.746779,-0.655188,0.321898,0.101884,0.645918,0.172257,0.390152,-0.14684,-0.361266,0.149358,-0.0289678,-0.262753,0.935373,0.956546,-0.565302,-0.646661,-0.302213,-0.917692,0.990508,0.133757,0.759195,-0.203828,-0.455986,0.360692,0.131908,0.786072,-0.441413,-0.508216,-0.547562,-0.963392,-0.776511,-0.949536,-0.609294,-0.668266,-0.568007,-0.710957,0.144497,-0.692298,-0.136217,-0.620385,-0.124184,0.788985,0.616642,-0.971087,0.939991,-0.211753,0.909246,0.12843,-0.159697,0.511956,0.548619,0.337325,0.251074,0.896246,0.610068,-0.799076,0.617859,0.381361,-0.216303,-0.138628,-0.0423622,-0.131786,0.494813,0.176319,-0.0362071,0.282836,0.200775,0.0970867,0.816302,0.530691,-0.343892,0.855138,0.445824,-0.575862,0.0692725,0.0664393,0.975112,0.280991,0.82327,0.338773,-0.69016,0.519573,-0.361491,-0.836615,0.557065,-0.399558,0.0337713,-0.397714,0.669978,-0.243318,0.252306,-0.876424,0.350971,-0.173032,0.463932,0.4589,0.577122,0.125117,-0.776875,-0.278986,-0.82543,0.363502,0.171593,-0.0797014,-0.660021,0.132037,-0.142675,-0.936017,0.658012,-0.585772,0.598007,0.544093,0.520336,0.057594,0.567466,-0.301098,0.706744,0.742306,-0.0776668,-0.336961,-0.524441,0.638224,0.157879,0.849517,-0.713189,-0.426917,-0.540475,0.589019,0.315148,0.830874,-0.94062,0.897537,0.625026,0.251208,0.357279,-0.973688,-0.576572,0.131886,0.76923,0.794217,-0.643011,-0.191594,0.272124,0.748531,-0.810079,-0.81622,-0.265957,-0.817969,0.488941,0.570078,-0.241154,-0.145728,-0.822003,-0.909294,0.233008,-0.234618,0.960856,-0.35653,-0.27515,0.308191,-0.761594,0.660051,0.156505,0.332129,0.975299,0.158626,0.503878,-0.662961,-0.976903,-0.633034,-0.634084,0.262426,0.757577,-0.364767,-0.112247,-0.10408,-0.205041,-0.33813,0.940844,0.467236,0.342812,-0.287755,0.791953,-0.459896,-0.149762,0.594486,0.594924,-0.540176,-0.37378,-0.431989,0.951835,0.84547,0.615641,-0.767505,-0.511004,-0.0981713,0.522934,0.349824,0.583012,0.143944,-0.572895,-0.0386016,0.807597,0.606668,0.130526,-0.399192,-0.420211,0.605897,0.626433,-0.369542,-0.526466,0.338702,0.407179,0.921565,-0.780612,0.159066,0.554602,-0.467336,-0.656321,-0.342513,0.113789,-0.835316,0.260981,0.0311729,0.752344,-1.00174,-0.153624,0.682405,-0.457249,0.504123,-0.595737,0.892949,-0.885257,-0.651926,0.193162,-0.0480701,-0.844014,0.585755,-0.302319,0.881416,0.10977,0.0845616,-0.896625,-0.538619,-0.716497,-0.127005,-0.657718,0.96525,0.911271,0.243458,-0.885777,-1.0639,0.911751,-0.638229,0.7066,0.807056,-0.252838,-0.328331,0.0849289,-0.230535,0.132847,0.552749,-1.00123,0.322141,0.0222962,-0.51254,-0.300612,0.760396,0.559282,0.918549,-0.73983,-0.631833,0.862127,-0.386004,-0.360175,0.441176,-0.438019,0.0901025,-0.604503,-0.788459,0.0841985,0.545676,0.749651,0.160174,-0.810735,-0.0467445,-0.446706,-0.974085,0.602022,0.919408,-0.136895,-1.0347,0.0299819,-0.437797,0.594137,0.730128,0.369306,-0.416388,-0.215473,-0.57805,0.902671,0.186978,0.962423,-0.0964085,0.648947,-0.702042,-0.796283,0.432488,
-0.936743,-0.369474,-0.702688,0.215946,-0.521327,-0.762653,-0.749616,-0.0470702,-0.321623,0.534028,0.0206762,0.623251,-0.679823,0.460234,0.297977,0.145493,-0.706148,-0.567931,0.208181,0.658284,0.575389,-0.332763,-0.219269,0.950653,-0.0583423,-0.18687,0.819404,0.771921,-0.945098,0.828202,-0.814429,0.470072,0.840621,-0.708702,-0.546655,0.0592166,-0.247502,0.678925,-0.581663,-0.652857,0.0594514,-0.886615,-0.927982,0.786134,0.773641,0.522404,-0.535387,-0.772125,0.18356,-0.469277,0.764723,0.126874,-0.726756,0.676903,-0.993375,-0.639461,-0.129817,-0.658291,0.744991,-0.444289,-0.0841613,-0.922424,-0.74941,0.661847,0.719159,-0.827111,0.837544,-0.112031,0.156636,0.155034,-0.951058,0.186309,0.27965,0.078016,-0.952922,0.621155,0.363987,0.376459,-0.951935,-0.720627,-0.0912478,0.36641,0.689702,-0.266568,0.22954,-0.360979,0.251322,-0.764567,0.976699,0.733696,0.409018,-0.946233,0.772098,-0.0673148,-0.770451,-0.350352,-0.915403,-0.65243,0.113395,0.69853,0.473411,-0.847225,0.404871,-0.645083,-0.751909,0.755168,-0.212283,-0.384781,-0.600474,0.239759,-0.669027,-0.385656,0.650214,-0.965004,-0.875876,0.574108,0.553227,0.157186,-0.775976,-0.822091,0.121831,0.862604,0.0300256,0.281623,-0.156779,0.413741,-1.03437,0.520625,0.0633239,-0.163983,0.213883,0.814098,-0.405391,-0.431011,0.885256,0.370796,0.443067,0.408578,-0.420819,0.623246,-0.419402,-0.692665,-0.816938,-0.489633,0.28712,0.826049,-0.608109,-0.77498,-0.321858,-0.753967,0.366606,-0.221522,0.370567,-0.965484,0.150098,0.709224,-0.144946,0.934306,0.357648,-0.62695,0.234724,-0.958199,-0.411929,-0.290791,0.892643,0.565948,-0.447601,-0.350658,-0.164043,0.967445,-0.810797,0.0897221,0.96424,0.881629,0.93337,0.214492,0.809556,0.585169,-0.910327,-0.131412,0.0283879,0.44373,0.898917,-0.800395,0.775215,0.088418,-0.784974,-0.929862,0.27707,-0.722287,0.816775,0.777114,0.122641,-0.709967,0.292408,-0.948638,0.445672,-0.176007,-0.0745846,0.380256,-0.961572,-0.538359,0.962093,-0.839278,0.0880893,-0.562826,0.365255,-0.402961,0.640579,-0.87059,0.132659,0.458187,0.319298,-0.836785,0.209636,-0.16855,-0.299058,-0.533257,-0.659929,-0.457355,-0.305028,0.954167,0.437374,-0.328178,-1.01099,-0.874153,0.18739,-0.837472,0.883508,-0.0623377,0.484394,0.168759,-0.465765,0.798429,-0.63844,-0.685416,0.0461117,0.413979,-0.19235,-0.333975,-0.992497,0.195135,-0.963873,0.100659,-0.0983195,-0.197261,-0.116274,-0.394275,-0.2235,-0.253035,0.310722,0.262142,-0.340449,-0.572334,0.53016,-0.617001,0.036725,-0.707224,-0.917539,-0.192916,-0.674704,-0.0290906,0.403001,-0.645242,0.21516,0.662303,-0.701224,-0.111794,0.728785,-0.863112,-0.861638,-0.514104,-0.174535,0.697641,0.733315,-0.303931,0.542023,0.2815,0.941992,0.730618,-1.04563,-0.677437,0.952482,-0.348629,0.325672,0.321434,0.598831,0.163366,-0.788119,0.56801,0.23779,0.30864,0.043144,0.917161,-0.583534,0.17324,0.790548,-0.473707,0.0737659,0.608817,-0.155449,-0.308094,0.797835,0.0361156,0.0718618,0.301483,-0.483701,-0.730299,-0.761264,0.444122,-0.679309,-0.607414,0.389617,-0.505941,0.0277732,0.22105,0.42798,-0.0308305,0.655287,-0.375107,0.585366,0.925797,-0.973756,0.775645,0.989257,-0.559946,-0.557405,-0.879604,-0.648385,-0.280799,0.927964,0.90321,-0.231654,0.542516,-0.503504,0.664615,-0.652019,0.0474955,0.289294,-0.819148,-0.643188,-0.682525,0.915676,0.40125,-0.875383,-0.572396,-0.291436,-0.404102,0.979373,0.166118,0.90902,0.147711,-0.551945,-0.258693,-0.0946652,0.81827,-0.31161,-0.857723,0.336841,0.183276,-0.881477,0.268846,-0.689529,0.263941,0.558032,-0.930739,0.0897912,0.0458759,-0.443116,0.940043,0.547802,-0.483916,0.662133,0.26381,0.81102,-0.29345,-0.539463,-0.594401,0.911245,0.174481,-0.971082,0.681427,0.0282927,0.724176,0.849362,-0.652552,-0.0907837,-0.575189,-1.01781,0.882928,-0.224991,-0.497562,
-0.181864,0.0947025,0.243463,-0.719371,-0.216875,0.389278,0.357716,-0.196205,-0.416964,0.535755,0.670936,-0.557926,-0.297573,-0.741382,-0.421059,-0.523024,-0.362627,0.758267,-0.0735306,-0.480787,0.802695,0.979219,-0.65027,-0.464987,-1.04052,-0.603908,-0.836452,0.028953,0.584984,0.0392357,0.0504293,0.45074,0.914436,0.900029,0.712121,0.469332,-0.791706,-0.767237,0.641917,0.404231,0.571407,0.913822,-0.706003,0.221885,-0.485475,-0.110517,0.882955,-0.103604,-0.0962145,0.536604,-0.453893,0.85716,0.483958,0.154095,-0.927296,-0.981835,0.664944,0.269777,0.897682,-0.855614,-0.169625,-0.078636,-0.720477,-0.738263,1.00501,-0.73716,-0.224226,0.374864,0.232955,-0.323997,0.210131,-0.525204,0.916095,-0.888126,-0.694798,0.0613011,0.0861164,-0.0867142,0.687329,-0.883574,-0.89731,-0.829732,0.341801,-0.193105,-0.73546,-0.174814,0.650479,0.710838,0.883946,0.289625,0.607879,-0.724013,0.856477,-0.851969,0.264354,-0.749619,0.840274,0.161407,0.161368,-0.0820172,0.171128,-0.762841,0.564722,-0.652041,-0.0954894,0.754412,0.969,-0.486924,0.278406,0.41146,-0.278796,-0.66056,0.491611,-0.467093,0.862716,-0.580159,0.0486251,0.912404,0.494326,0.487675,0.559396,0.883711,-0.377226,-0.187884,0.506871,0.0273004,0.506631,0.978372,0.800288,-0.928727,-0.221279,0.458041,1.00001,0.283287,-0.212718,0.999474,-0.790166,0.279496,0.26781,-0.605432,0.0264114,-0.549887,0.487101,0.241371,-0.520766,-0.564144,0.723978,-0.737567,0.942561,-0.338117,0.23878,0.981407,-0.281579,-0.838452,-0.152501,0.47875,-0.538391,0.890128,0.236593,0.145868,-0.35898,-0.777868,0.173147,-0.457325,0.467954,-0.924511,0.491905,0.908716,0.938646,-0.240072,-0.976166,-0.450361,-0.411222,-0.45866,-0.673594,-0.567566,0.30083,0.0567722,0.90552,-0.244386,0.752765,-0.420494,-0.832766,0.902657,-0.728802,0.324699,-0.666119,-0.312414,0.459301,-0.0275575,-0.122907,0.141416,0.662247,0.975097,-0.199425,0.160092,-0.968175,-0.152671,-0.880938,0.576916,0.245112,-0.101668,0.837795,-0.0564017,0.453826,-0.34944,-0.202695,0.696342,-0.411285,0.868214,0.416441,-0.931016,-0.494182,-0.634495,0.839326,0.712256,-0.501673,-0.850736,0.298633,0.26303,-0.0360083,-0.0469824,-0.0365273,-0.433877,-0.998491,0.297381,0.780101,1.00275,0.462554,0.311994,-0.438578,0.326021,-0.162953,0.417233,-0.867039,-0.652399,0.158471,0.604037,0.0427907,-0.132779,-0.503191,-0.817625,0.525618,0.942659,-0.199076,-0.095468,-0.256913,-0.366344,-0.693631,0.517721,-0.815787,0.459894,0.458387,-0.928093,0.387072,-0.439537,0.12761,0.793073,-0.256202,0.410527,-0.999033,-0.931288,-0.9851,0.713516,-1.00993,0.375896,-0.464236,0.0418244,-0.950791,0.85701,-0.433387,0.54451,-0.787877,-0.0877586,0.425358,0.328473,0.7108,-0.815282,0.609507,-0.326651,0.935397,0.480167,0.0746023,-0.0942685,-0.869235,-0.761153,0.733602,0.923701,-0.549399,0.0383302,-0.910373,0.0533346,-0.0625805,0.825769,0.700499,-0.531627,1.00192,0.510881,-0.81157,0.0274561,-0.361151,-0.156169,-0.052464,-0.96819,0.343862,0.703704,-0.964491,-0.432923,-0.609773,0.629089,-0.85026,-1.01218,-0.6337,0.689384,-0.484549,0.395316,-0.280075,0.222845,0.175741,0.72377,-1.04092,-0.817405,-0.71149,-0.417617,-0.592545,-0.929133,-0.374086,-0.443313,-0.140066,0.945647,0.0628822,-1.0065,-0.624514,-0.834016,0.178413,0.428427,-0.197384,-0.17975,-0.925134,0.351054,0.76142,0.584374,0.899677,-0.565196,-0.402435,-0.757664,-0.330246,0.74327,-0.20118,0.478999,-0.137236,-0.314996,-0.126253,-0.888612,-0.773065,-0.356809,0.360461,0.296899,-0.267552,0.846557,-0.540767,0.69334,0.927757,0.418265,0.678873,0.94291,0.585548,-0.775812,-0.74807,0.666217,0.457223,0.575352,0.20749,0.380216,0.734238,-0.796418,-0.921063,-0.465593,-0.0377093,0.307993,0.228999,0.591397,-0.0923384,-0.238884,0.710326,-0.89703,-0.293604,-0.0445771,-1.00218,-0.967415,0.850466,-0.928503,
0.539377,0.171661,0.179312,-0.380911,-0.0339189,0.590705,0.13013,0.0904507,-0.877829,-0.78253,0.300832,-0.124132,0.632819,-0.581337,0.401783,-0.453046,-0.639545,0.107458,-0.344932,-0.209765,0.919511,0.448066,0.677265,-0.0382414,-0.455256,-0.667018,-0.918788,0.180639,0.973633,-0.362086,0.111315,0.507763,-0.879436,-0.97059,0.0620945,-0.386205,-0.694881,-0.245942,0.951675,0.326253,-0.888663,-0.576737,-0.364437,0.462651,0.958453,0.62661,-0.922996,0.248339,-1.01892,0.227239,-0.367447,0.831096,-0.14832,-0.640237,0.444047,0.723614,-0.554374,-1.01615,0.704764,0.576507,-0.874737,0.93147,0.924371,-0.916584,-0.348245,-0.464405,0.425113,-0.564977,-0.0827548,0.195473,-0.701815,-0.751119,0.623168,0.214824,0.93396,-0.182343,-0.318687,0.748129,0.534209,0.0631416,-0.869089,0.194021,0.489091,0.259732,-1.03322,0.32837,-0.0852298,-0.364039,0.131871,0.776939,-0.577836,0.962639,0.935353,0.031315,-0.524765,0.0591652,-0.294704,-0.24309,0.523628,-0.357063,0.55705,-0.352423,0.240563,-0.713232,0.906078,-0.220042,0.143492,-0.480803,0.554344,0.0259505,-0.724447,-0.249491,-0.516011,0.899447,-0.110873,-0.494895,0.879109,-0.325259,0.977994,0.730063,-0.907429,0.281047,-0.146546,-0.744442,-0.303971,0.992527,0.830852,0.780581,0.342094,-0.72657,-0.731841,-0.196217,0.0293229,0.679812,-0.586819,0.296665,0.626888,0.246224,-0.205962,0.282538,-0.579009,-0.397364,-0.558791,0.570497,0.0846543,0.950571,-0.156238,0.597754,-0.351113,-0.954169,-0.929034,0.190062,0.542787,-0.402001,-0.578247,-0.706313,0.864624,0.576397,-0.505493,0.949297,-0.255803,-0.361628,-0.999772,0.0656787,0.642291,0.846347,-0.687862,0.379057,0.855467,0.446707,0.28431,-0.76819,0.09301,0.642358,-0.679444,0.614705,0.679612,-0.590735,0.354188,0.792792,0.937033,-0.495575,0.530418,-0.120907,-0.821153,0.421379,-0.115452,0.280948,0.554833,-1.00162,0.381762,0.353247,0.146593,0.245744,0.986865,-0.21735,-0.545538,0.137761,0.26235,0.0939633,0.88953,-0.473528,-0.861889,-0.29337,0.590307,0.0857983,-0.720578,-0.306601,-0.638665,-0.6868,0.743919,0.337114,-0.309688,-0.870384,-0.404894,0.820763,-1.04207,-0.693519,0.826537,-0.455009,-0.900741,0.106322,-0.0961944,0.537173,-0.667096,0.436367,-0.800717,0.331877,0.325405,-0.385976,0.29949,-0.718578,-0.780926,0.252629,0.221584,0.568943,0.256185,0.157583,-0.877795,0.301563,0.294012,-0.787764,-0.973333,0.242945,-0.982178,0.255228,-0.780386,0.180122,0.856139,-0.444591,-0.927501,0.754776,0.185684,0.491073,-0.158189,0.750946,0.852753,-0.80091,0.846384,0.349274,-0.731285,-0.984426,-0.671924,-0.462146,-0.910313,0.959663,0.981055,0.139666,-0.824512,-0.840665,-0.655835,-0.68063,0.364141,-0.760813,0.74016,-0.553852,0.182081,-0.89248,0.687479,-0.924627,-0.921227,0.680249,0.928257,-0.851448,0.531025,-0.883644,-0.807768,0.147471,0.71625,-0.0539072,0.343152,-0.808595,-1.02829,0.746482,-0.563762,0.594403,-0.576242,0.367635,0.413367,-0.927446,-0.792179,0.896398,-0.49158,0.868027,0.0849418,0.392938,-0.86953,-0.537678,0.159376,-0.820901,-0.131191,-0.350871,0.17214,0.732912,-0.206333,-0.678175,-0.670603,0.573012,-0.943609,0.927102,-0.348002,0.785238,-0.488413,0.561218,-0.466336,-0.407818,-0.539166,-0.0273237,-0.489602,-1.0352,0.958493,0.0235883,0.826872,-0.300113,-0.0364246,0.831589,0.770333,0.397645,-0.541971,-0.892301,-1.00565,0.783953,0.917336,0.394002,0.936071,0.97003,0.560512,0.83944,0.262135,-0.173434,0.669124,-0.571369,0.390801,0.510416,0.0526749,-0.17653,0.24293,0.479701,-0.729771,0.384707,0.742174,-0.806257,0.835493,0.845801,0.264863,-0.838504,-0.644651,0.400677,-0.364827,-0.0473475,-0.251312,-0.0814139,-0.349667,0.137816,-0.823031,0.321035,-0.378266,0.270288,-0.219108,0.627187,0.0718779,-0.530511,0.940416,0.0831503,0.971896,0.0990743,0.950821,0.619127,-0.842211,-0.533333,0.6853,0.860463,
-0.161493,-0.869781,-0.967681,-0.718212,0.749715,-0.0700837,0.632175,-0.406916,0.964323,-0.672301,-0.616638,0.227842,-0.301424,0.492632,-0.418984,0.967765,0.351965,0.598767,0.639471,-0.0297139,0.389421,-0.88418,0.958963,0.573169,-0.739764,0.957779,-0.82483,-0.22926,0.200664,-0.938166,-0.38153,0.585799,0.398901,-1.04143,0.05097,0.371688,0.781939,0.544748,-0.892021,-0.781932,0.936244,-0.28724,-0.893387,0.136119,-0.448209,-0.780912,-0.915262,0.764582,0.41602,0.503965,0.271146,-0.673557,-0.535715,0.266837,-0.0446056,0.103302,-0.867188,-0.447757,-0.305774,-0.135197,-0.812671,0.790234,0.834755,0.368978,-0.576542,0.681371,-0.056086,-0.0379455,0.354392,-0.479566,0.384426,0.87633,0.117578,-0.633594,-0.311276,0.869423,0.447535,0.0355885,0.572817,-0.366064,0.723002,0.72264,0.348215,0.888218,-0.382219,0.389325,0.316831,-1.00784,-0.782411,-0.405836,-0.716831,0.430938,-0.905496,-0.99484,-0.868378,-0.108015,-0.119633,-0.853793,0.978293,0.290449,0.524177,-0.817655,0.997944,0.24483,1.00377,0.240456,0.433925,0.628818,-0.649971,0.0559399,0.0922556,-0.174848,0.542989,-0.264571,0.0617343,-0.739285,0.400029,0.988311,-1.01934,0.682207,-0.738475,0.359055,-0.853867,-0.183704,-0.943365,-0.510612,-0.928152,0.0487085,-0.763957,0.547718,0.873466,0.139435,0.57235,-0.386754,0.971968,-0.297793,0.0731963,-0.0386699,-0.439928,0.890524,0.382903,0.916141,-0.604653,0.367296,-0.412486,-0.730898,0.7794,0.44256,0.555528,-0.212181,0.733931,0.928671,0.321274,-0.560775,-0.625565,-0.141886,0.279126,0.506971,0.173274,0.185798,-0.430428,0.341576,-0.677337,0.812016,-0.393658,0.1416,-0.0411494,0.401099,-0.181151,0.666787,-0.882949,0.728741,-0.80091,0.742546,0.346193,-0.675494,0.19606,-0.111353,0.0384267,-0.0414635,-0.754151,0.778304,0.042097,0.0679181,-0.403552,0.287738,-0.935344,-0.383663,-0.161993,-1.00178,-0.285686,0.813172,-0.794359,0.302763,-0.911265,-0.942823,0.599027,0.993811,0.641909,0.0388997,0.0728168,0.547526,-0.878993,-0.39033,0.346077,0.43538,-1.01636,0.257742,0.732086,0.973381,0.504133,-0.968369,0.253195,-0.888103,-0.721879,0.673668,-0.342757,0.740296,-0.605925,-0.200939,0.886665,-0.896894,0.994792,0.699333,0.365332,-0.167937,-0.387518,0.991067,-0.687956,-0.21012,-0.500056,0.340862,0.0732083,0.647025,0.551143,0.964335,0.398194,-0.173092,-0.440701,0.399081,0.954524,0.46718,0.137057,0.716734,0.461023,-1.04378,0.0606716,0.158956,-0.939221,-0.993439,0.104959,-0.358204,0.0851731,-0.446383,-0.213019,0.740946,0.700745,0.666582,0.995692,-0.421985,-0.238625,0.50263,0.210153,-0.899181,-1.04027,-0.295884,-0.784267,0.650659,0.460593,-0.633077,0.38769,0.604189,-0.345962,0.690634,-0.250876,0.830091,-0.95211,0.2443,-0.987629,0.643811,-0.291844,0.234845,0.327646,0.717127,-0.725724,0.208602,-0.12138,-1.00028,-0.627911,0.181173,0.0782722,-0.0801227,-0.589574,-0.481901,0.385511,-0.0815537,0.415743,0.374722,0.0883106,0.137376,-0.753794,0.548054,-0.729657,-0.952498,-0.542639,0.0286752,0.552354,-0.189653,0.21727,0.533414,-0.572213,-0.602557,0.946301,-0.741417,0.0720292,0.226302,0.484438,-0.44363,0.140283,-0.565312,0.430483,-0.271901,-0.414957,0.845222,0.700176,-0.727496,-0.420594,-0.0689803,-0.261372,-0.705808,-0.327479,0.0584678,0.764449,0.383525,-0.818836,-0.342598,0.866739,-0.158546,0.323662,-0.0425269,-0.266136,-0.884306,0.743826,0.537851,-0.432772,0.899129,0.739436,-0.415231,0.791546,0.836061,0.0820803,0.598134,0.801126,0.806444,-0.998394,-0.748842,0.489856,-0.077754,0.247618,-0.939896,0.526957,-0.73321,-0.31716,0.444683,0.886143,-0.377411,0.928312,0.505557,0.0590656,0.753589,-0.232802,0.788806,-0.119734,0.513411,-1.00197,0.352557,-0.645276,-0.485652,-0.259696,0.960666,0.325159,0.52785,-0.395952,0.0703432,0.774743,-0.508419,0.808398,-0.912491,0.142388,-0.29727,-0.226756,-0.915072,
-0.52619,0.688505,-0.653609,-0.850211,0.976722,-0.647835,-0.0628351,-0.441162,0.736209,0.051579,0.836718,0.233789,-0.475592,-0.0428416,-0.432646,0.888361,0.24,-0.0308947,0.0550634,-0.446774,0.354291,-0.367686,0.282548,0.0439699,-0.0811637,-0.233943,-1.03677,-0.254718,0.930958,0.983665,0.184749,0.89637,-0.530609,0.759148,-0.549791,-0.0474588,0.509304,-0.263044,0.911184,-0.871767,0.4876,-0.441622,0.73484,0.0980426,-0.193638,0.585767,0.60271,-1.0203,-0.924384,-0.485179,0.778665,0.359496,-0.375188,-0.989885,-0.788023,-0.828043,-0.148712,-0.517907,0.100682,-0.685606,0.427466,-0.129591,0.395131,-0.930557,-0.862587,-0.9672,0.694327,-0.124492,-0.945922,-1.00664,0.832662,-0.165871,0.319441,-0.754735,-0.165689,-0.378419,0.358987,0.976499,0.140493,-0.394693,-0.785705,-0.68054,-0.751535,-0.927501,0.0900289,-0.189783,-0.390444,0.564435,-0.150093,0.388063,0.209789,0.182776,-0.806998,0.63925,0.609276,0.234987,0.451786,-0.125119,0.883722,-0.891712,0.902338,-0.188781,0.550829,0.876265,0.108344,-0.158805,0.886783,-0.845217,0.960501,0.859009,0.724372,0.563606,0.419239,0.832985,0.521956,-0.371584,0.364749,-0.0392504,-0.560655,-0.443374,0.769971,0.917609,0.136304,0.402296,0.844316,0.410513,0.680099,-0.8956,0.537642,0.313122,0.807262,0.0787004,0.32346,-0.182191,-0.230395,-0.968507,-0.432071,0.460248,-0.695582,-0.128123,-0.575685,-0.117261,-0.6353,-0.979771,-0.810613,-0.523429,-0.135175,-0.865213,0.12452,0.0746924,-0.722252,0.0716019,0.452267,-0.77775,0.661588,0.448651,-0.532657,0.957336,0.303875,0.377116,0.940025,-0.291583,0.308085,0.380569,-0.149758,0.472928,-0.819705,-0.0252671,-1.01893,-0.74322,-0.267742,-0.239328,-0.134321,0.128579,-0.664986,-0.528182,0.964169,0.890221,-0.545231,0.160388,-0.728306,-0.559516,0.159631,0.767683,-0.0589979,0.425665,-0.90267,0.791355,-0.118695,0.338962,0.637879,-0.300781,-0.92001,0.616447,-0.0304316,0.874423,0.869984,-0.590736,-0.442362,0.974991,-0.322041,-0.682396,-0.975439,-0.275337,-0.843613,0.393171,-0.690606,-0.72671,-0.970145,0.920978,0.453909,-0.77838,-0.24883,-1.03272,0.977507,-0.644241,-0.273718,-0.183673,-0.391649,-0.917104,-0.677686,0.134375,0.237407,0.808112,0.553812,-0.681964,-0.760321,0.374443,-0.196303,-1.02669,-0.241796,-0.659383,-0.281311,0.810103,-0.786711,-0.407721,0.901698,-0.259756,0.236455,0.33542,0.23827,-0.789298,0.0284673,-0.646775,-0.163217,1.00343,0.980862,0.114108,0.404249,-0.245814,-0.0495296,0.468985,-0.694473,0.113562,0.766905,-0.704983,0.334791,-0.329498,0.239183,-0.584884,-1.03696,-0.50418,0.279148,-1.02279,0.851619,0.831902,-0.854768,0.397318,-0.0243554,0.245327,0.752968,0.904628,0.119843,0.566275,-0.976952,-0.93899,-0.727405,-0.947045,-0.354062,-0.687338,0.791673,0.196769,0.914423,0.144778,-0.0797498,0.457795,-0.413381,-0.133095,-0.592072,-0.504827,-0.382008,0.580086,0.627846,-0.318171,-0.26637,-0.090935,0.619564,0.34418,0.630639,-0.768421,-0.358111,-0.790979,0.0780382,0.478947,0.844871,-0.827371,-0.343247,0.984482,0.843282,0.100594,-0.609482,-0.126272,-1.0306,-0.120954,0.765455,-0.481797,0.157029,-0.947981,-0.382822,-0.484818,-0.463917,-1.04339,-0.906281,0.338372,0.619103,0.210946,0.524115,-0.649134,0.137988,-0.834229,-0.726626,-0.767998,-0.522287,0.896463,0.374947,0.559483,-1.01457,-0.201067,-0.326544,0.960219,-0.651719,-0.429245,0.330339,-0.426374,-0.0613457,0.873262,0.54306,0.551143,-0.943016,-0.408236,0.887374,0.386743,-0.0795342,0.655179,-0.935635,0.881576,0.131284,-0.766709,-0.891521,0.227916,-0.817085,-0.0948517,0.748306,-0.568871,-0.791529,0.0927734,0.627863,-0.420403,0.843557,0.380216,0.725798,0.109032,0.326369,0.302782,-0.66998,-0.877775,0.150574,-0.525078,0.223822,0.955056,0.136771,0.769641,0.500576,-0.623552,-0.92937,-0.496692,-0.402356,1.00168,0.385299,-0.908746,0.499785,-0.387525,
