0.864434,-0.832224,-0.492057,0.593854,0.256531,-0.688463,0.734152,-0.0377691,-0.898495,0.244046,0.335028,-0.423891,0.887327,-0.121159,0.242479,0.179052,-0.882909,-0.300505,-0.66232,-0.448155,-0.821521,-0.10578,0.270169,-0.662764,0.0914482,0.0122702,-0.502736,0.482589,0.652168,0.89441,0.320082,-0.664483,-0.876956,0.385484,-0.693546,-0.175473,-0.146828,-0.804851,0.091358,-0.159251,0.180616,0.573878,0.630255,0.683036,-0.177884,0.207901,0.797608,-0.0210284,0.718103,-0.161278,0.11988,0.839906,-0.372039,-0.393369,0.478521,-0.795726,0.426915,0.160507,-0.481781,-0.741081,-0.216647,0.821329,-0.953676,0.471069,-0.166005,-0.281468,-0.817129,0.431778,-0.101083,-0.785351,-0.178747,-0.475043,-0.674473,0.482306,-0.135691,0.606674,0.403202,0.125309,-0.141367,0.793808,-0.125795,0.656118,0.183476,-0.822853,0.665818,0.456113,0.436487,0.910866,0.445924,-1.03315,-0.866732,-0.139089,-0.260308,0.65601,-0.510994,-0.446399,-0.45874,0.182957,0.514818,0.432676,-0.6146,-0.0606874,0.351819,0.257246,0.154368,0.204742,0.91484,0.463181,-0.74242,-1.06603,-1.04359,-0.0992158,-0.318114,-0.495465,-0.229766,0.0648153,-0.794083,-0.556092,-0.222252,0.688146,-0.436138,-0.880949,-0.78102,0.265363,-0.571666,-0.451301,0.624049,0.660464,-0.781694,0.908309,0.419903,-0.750167,0.319864,-0.0254846,-0.306822,0.209919,-0.451217,-0.0858933,0.26701,-0.77235,-0.797985,0.585527,-0.571834,0.388465,-0.106351,-0.639118,-0.769956,-0.241926,-0.482892,0.167693,-0.670278,0.148533,-0.477149,0.288804,-0.839322,0.462179,-0.0376117,-0.996893,0.665405,-1.06043,-0.748404,0.14655,-1.03532,-0.765672,-0.413136,0.407661,0.896874,-0.269016,-0.444466,0.524115,-0.0226962,0.306837,0.193287,0.396299,-0.656775,-0.428936,0.0748998,-0.968575,0.69561,0.672564,0.0277228,-0.86601,-0.333596,-0.66912,-0.978668,-0.370135,-1.02683,0.46957,0.406494,0.833709,0.443773,0.0602751,-0.848971,-0.0734199,-0.438052,-0.850742,-0.181618,-0.178797,-0.326069,-0.996442,-0.550036,-0.373922,-0.0569689,0.880728,-0.384271,0.0375405,-0.176942,-0.794003,-0.542104,-0.296834,0.842698,0.846923,0.689942,0.889906,-0.970216,0.0927745,0.0871983,0.290867,0.802435,-0.00839727,-0.404458,-0.690572,-0.391998,0.707326,0.471855,-0.405698,-0.995804,0.777122,-0.940628,-0.025092,0.286343,0.150209,-0.066925,-1.09601,0.764903,-1.08566,-0.26978,0.535681,-0.301151,0.280559,-0.387155,-0.406051,0.0768611,0.698083,-0.702411,0.665034,-0.217704,-0.823239,-0.845822,-0.671747,-0.288188,0.615179,0.548995,0.815567,-0.076208,-0.432449,0.467986,-1.04326,-0.0547627,-0.699389,-0.47094,0.526083,0.547883,0.0135834,-1.03869,0.409544,0.667181,-0.433158,0.85979,-0.893588,-0.578218,0.0243132,0.231864,-0.422129,-0.577906,0.631526,0.252961,-0.663542,-0.589469,-0.968903,-0.945787,0.815185,-0.315094,0.792003,0.87339,-0.383908,-0.73283,0.575613,-0.233246,-1.02276,-0.628674,-0.885221,-0.126206,0.377676,-0.111295,-0.267655,-0.0928712,0.406159,-0.534717,0.558798,0.598837,-0.23771,0.312837,0.536824,0.37221,0.199132,-0.461345,-4.39643e-05,-0.85245,0.634374,0.748047,-0.726274,-0.995921,0.0193656,-0.1665,-0.675402,0.794789,0.178306,0.0246792,0.627431,0.809191,0.783868,-1.10058,0.852951,0.198711,-0.627613,0.435533,0.806006,0.797751,-0.500677,-0.636066,0.807369,-0.0903051,0.65102,-0.584575,0.704775,0.23763,0.581939,-0.961816,0.266937,-0.413216,0.860156,-0.220171,0.162221,-0.629427,0.350937,0.875669,-0.829839,-0.599485,-0.046501,-0.409545,-0.776521,0.593209,-0.766705,-0.616654,0.339333,0.142959,-0.147772,0.349276,0.0873473,0.540978,0.10345,0.863601,-0.437031,0.421481,-0.751439,-0.347861,0.760995,-0.922931,0.344786,0.419473,-0.320209,0.306741,-0.382625,0.00290419,-1.05692,0.0849405,-0.242143,-0.323514,-0.651911,-0.28628,0.684816,-0.367633,-0.114993,0.0175797,0.206799,-0.872509,0.487493,-0.269615,0.286099,-1.11557,-0.112172,
0.68895,0.153617,-0.303474,-0.111224,0.112369,-0.725196,-0.812775,0.130043,0.237772,-1.02972,0.618023,-0.471885,0.0712884,0.167834,-0.351077,0.530169,-0.862314,-0.436785,0.683013,-0.713769,-0.623184,-0.519992,-0.398743,0.350237,-0.91296,-0.894323,-0.053568,-0.51412,-0.0389133,-0.000674843,0.806724,0.573853,0.396143,0.525008,0.614988,0.929907,-0.889699,-0.41482,-0.489448,-0.0571984,-0.630934,-0.760317,-0.682481,-1.01286,0.344681,0.558114,0.00272608,-0.421614,-0.986641,0.161533,0.184485,-0.545829,-0.488099,-0.139119,-0.795934,-0.0831401,0.919662,0.724147,-0.403618,0.849886,-0.130714,-0.212642,-0.547674,-0.563644,0.0968552,-0.35109,-0.157534,0.893673,-0.0125367,-1.01741,-0.102157,-0.0535592,-0.241208,0.112439,0.386161,0.73489,-0.534616,-0.984984,-0.7626,0.922204,-0.0952125,0.793845,0.185039,-0.94315,-0.313203,-0.414473,0.0169254,-0.117017,-0.892506,0.365855,-0.0633366,0.372151,-0.248184,-0.406064,0.700476,0.776477,0.457088,0.748333,0.133722,-0.777764,-0.379848,0.43261,-0.667544,0.0491542,0.55116,0.873861,-0.866477,-0.994423,-0.69575,-0.271263,0.333135,-0.271349,0.526704,-0.0536831,-0.960546,-0.853067,0.0763165,-0.4903,0.596359,-0.932379,-0.148177,0.433922,0.875133,0.137105,-0.525734,0.505227,0.207624,0.791381,0.0222451,0.629225,0.319912,0.627322,-0.880901,0.453946,-0.10707,-0.6168,0.149245,-0.299541,-0.68792,-0.681386,0.658179,-0.998691,0.886818,-0.767946,-0.245803,-0.578004,-0.27373,0.26065,-0.731837,0.926259,-0.603695,-0.414208,-0.774229,0.0959646,0.547604,-0.366666,-0.695517,-0.530159,-0.290678,0.28718,0.331733,-0.990997,-0.925879,-0.695312,-0.147577,-0.879459,0.493582,-0.290205,-0.439114,-0.81619,-0.344136,-0.390551,-0.43564,0.648568,-0.938251,-0.731611,0.446019,-0.5864,0.33548,-0.941972,-0.826633,0.179893,0.22667,0.884948,-0.790324,0.525959,0.884779,-0.996092,0.39101,-0.220261,0.933009,-0.949588,-0.212759,-0.381406,-0.731265,-0.827799,0.691593,0.769161,-0.800987,-0.299461,-0.667141,0.698106,-0.830284,0.719174,0.420147,-0.5962,-1.03181,-0.843889,0.338263,0.560886,0.709724,-0.180288,-0.0660221,0.366574,-0.689442,0.807325,-0.00241979,0.172887,0.480321,-0.0416836,0.325338,0.327471,-0.317462,0.447284,0.256703,-0.121696,-0.294899,0.955263,0.485146,-1.00042,-0.938522,-0.48584,0.0324246,0.650927,-0.568332,-0.579377,-0.638849,-0.492278,-0.29246,0.207695,0.0795343,-0.158802,-0.729478,0.292566,0.100614,-0.271351,-0.116481,0.551515,-0.368947,0.163848,0.0991831,0.843511,-0.0201181,-0.799386,0.441348,-0.83993,-0.87551,0.2933,0.559102,0.581246,0.642881,0.501818,0.154003,-0.0462371,0.0748673,-0.876425,-0.310159,0.742819,0.288778,-0.205052,0.535413,-0.130286,0.510004,0.706294,-0.100314,-0.351068,-0.00314971,-0.20067,0.859054,-0.152455,0.189,-0.55189,-0.481317,-1.03852,-0.64368,-0.907969,0.300244,-0.85409,-0.755702,-0.994925,-0.240809,0.737077,-0.805612,0.438961,0.842974,0.575229,0.830483,-0.178161,-0.204468,-0.743875,-1.01414,0.80657,-0.0943814,-0.835379,-1.04075,0.950429,-1.0298,0.0957476,0.95253,-0.574177,0.63547,-0.376807,0.810126,0.370222,0.299014,0.378102,-0.832115,-0.0246017,0.697925,0.0521319,-0.274601,0.737743,0.179093,0.878754,0.337746,0.159141,0.541882,0.50651,0.360864,-0.616066,-0.279913,-0.996947,-1.00156,0.676304,-0.123667,0.640573,-0.139829,-0.311923,0.780361,-0.514198,-0.619439,0.924712,0.309918,-0.801945,0.258522,-0.672381,0.0260396,0.0962601,-1.01147,0.283426,0.651088,-0.500481,-0.0032937,-0.246164,-0.900999,-0.34607,0.509476,-0.853437,0.472773,-0.601499,0.199063,-0.186117,-0.526023,0.796671,0.412422,0.560971,-0.15676,-0.69599,0.91904,0.391059,-0.327025,-0.473541,-0.799711,-0.0247148,0.838709,0.797145,-0.713302,-0.967441,-0.257541,-0.774071,0.501313,-0.144337,-0.323144,0.458698,0.515028,-0.616192,0.767574,-0.463153,0.206167,-0.896587,-0.117914,0.0806328,
-0.570992,-0.521433,-0.540603,-0.846084,0.628012,-0.609219,0.975623,0.389528,-0.443587,-0.087814,-0.737201,-0.371833,-0.394405,0.75005,-0.953675,-0.310058,0.95805,0.229306,-0.652591,0.970919,0.0220649,-0.35945,0.857378,-0.996252,0.963979,0.098477,0.520116,-0.895813,-0.611571,-0.506386,0.113014,0.374844,0.824318,-0.0280015,0.331342,-0.468727,0.54978,-0.98109,-0.582796,-0.179806,0.0215763,-0.806395,0.752,0.722642,0.548573,-0.978532,0.776069,-0.116634,0.948176,-0.216701,-0.107283,-0.214695,0.861279,-0.300871,0.449714,-0.669991,0.210191,-0.564285,0.0882873,-0.0120034,0.960873,-0.821117,0.562515,-0.13058,-0.830239,-0.709854,0.567667,-0.11593,-0.858026,0.800531,-0.474387,-0.773209,-0.729843,-0.32841,-0.117877,-0.0477327,-0.935383,-0.868069,-0.636538,0.443638,-0.738274,0.0913184,0.836304,-0.607308,-0.860423,0.94187,-0.914589,0.846633,-0.0639203,-0.942522,0.23391,0.0466757,0.482201,-0.472114,-0.231285,0.628326,0.354565,0.948808,0.281729,0.801329,-0.575381,0.464685,0.380429,0.596177,0.570854,-1.00806,0.455276,0.818269,-0.259503,-0.574874,-0.981541,0.793397,-0.0625356,-0.0455547,0.476944,-0.0168927,-0.543471,0.67063,0.101694,0.146252,0.862438,-0.165187,-0.0301943,-0.32268,0.555926,0.229805,-0.036118,0.907074,0.957632,0.828987,-0.196421,0.802997,-0.761245,0.586041,0.3067,-0.54513,-0.495047,0.896513,-0.789552,-0.937659,-0.757575,0.873884,-0.0349719,-0.56221,-0.606518,-0.929623,-0.734451,0.173895,0.132238,-0.605482,-0.348369,-0.586723,-0.526389,-0.506361,0.734788,0.116346,-0.354152,-0.218051,-0.473567,0.349186,0.915895,-0.773723,-0.167443,0.603065,-0.527104,-0.942666,0.21334,0.486804,-0.839138,0.548603,0.0105453,0.541907,-0.757357,-0.883963,-0.342227,-0.05008,0.0726144,-0.298713,0.270114,0.346871,0.199944,0.556914,0.262444,0.941344,-0.829936,-0.49691,-0.855524,0.967218,-0.0754088,0.680278,-0.560062,-0.230222,-0.701701,0.846161,-0.960931,0.587559,-0.983975,0.834189,-0.492742,0.923198,-0.824035,-0.172413,-0.759251,-0.360139,-0.554091,0.149916,0.556768,-0.592672,-0.218334,-0.884679,-0.339177,0.0189518,-0.124019,0.050749,0.425477,0.158115,0.463034,-0.0252102,-0.232936,-0.404051,0.246938,0.590035,-0.785853,0.409562,-0.23527,0.904891,-0.263293,0.53679,0.82286,0.187975,-0.797889,-0.312092,0.688749,-0.301517,0.464792,-0.237999,-0.489276,0.877892,-0.131881,-0.842531,-0.154633,0.747217,-0.980198,-0.71718,-0.32758,-0.760147,0.164023,-0.0124792,-0.549502,-0.555151,0.721401,-0.776694,0.786638,-0.804159,0.480319,0.460191,0.325354,0.715628,0.331345,-0.712272,0.0361598,-0.146508,0.940806,0.264353,0.0863624,-0.530985,0.343911,0.0835518,-0.107643,0.151347,-0.957963,-0.423914,0.628483,-0.453517,0.685702,0.495244,-0.732437,0.383924,-0.927276,-0.826235,-0.497098,-0.363475,0.189448,0.679309,-0.434052,0.847589,-0.259278,0.86457,-0.952864,-0.601908,0.549315,0.124463,-0.608633,-0.129698,-0.391393,0.408819,-0.306848,0.278493,0.860903,0.527972,0.292458,-0.897978,-0.562192,-0.983473,0.120814,0.807239,0.924184,-0.143766,0.039174,0.0844766,0.917681,-0.100384,-0.542686,-0.854775,0.227369,0.911182,0.463512,0.0640289,-0.319951,-0.699048,0.159578,-0.480211,-0.778357,-0.806017,-0.458776,-0.949813,-0.248805,0.116862,0.428102,-0.515084,-0.930549,-0.310849,-0.580183,-0.759158,-0.776506,0.868149,-0.11358,-0.639018,0.0675988,-0.678643,-0.0361845,-0.967873,0.55221,-0.143629,0.708013,-0.00987469,0.904751,0.214447,0.702176,0.376815,-0.362905,-0.467501,-0.180597,0.56499,-0.803972,-0.658186,-0.0421617,-0.754316,-0.594522,0.826647,0.767779,0.32126,0.848317,0.0455589,-0.0146466,-0.195384,0.970644,-0.505296,-0.342621,-0.984236,0.934803,0.383198,-0.731807,-0.989568,0.34021,-0.38054,-0.38995,0.593103,0.180577,0.926249,-0.475226,0.231547,0.836602,0.132319,0.232734,-0.401267,0.15753,0.415926,-0.0961373,0.837139,-0.454251,-0.713798,
-0.607541,0.41386,0.373442,0.00219906,0.354778,-0.991035,0.0243023,0.227658,0.174326,-0.0632729,-0.471065,-0.867031,0.8491,0.869675,-0.760406,-0.761434,0.641704,0.00970192,0.61486,-0.343689,0.558705,0.371766,0.583626,-0.46878,0.836394,0.744328,-0.455341,-0.438,0.22822,-0.592549,0.837277,0.199154,-0.943382,-0.0261274,-1.00702,0.879412,0.375365,0.375016,0.83758,-0.992871,-0.482903,-0.223606,0.470641,-0.449874,-0.715244,-0.298658,0.961279,0.803679,-0.27761,-0.686113,0.643829,0.425236,-0.894328,0.256377,0.370865,-0.0352382,0.0933368,0.130156,0.0375043,-0.522286,0.418004,-0.551172,0.566963,-0.978508,0.225592,-0.954103,0.303078,-0.0276188,0.0670213,0.399877,-0.33817,0.967935,-0.588554,-0.805598,0.214533,0.643698,-0.547818,-0.0172873,0.101452,-0.717596,-0.0101265,0.759998,0.0245502,-0.642854,0.937632,-0.903071,0.537632,-0.109629,-0.720454,-0.136354,0.762735,0.0345532,-0.0268845,0.332242,-0.897266,0.848248,0.269064,0.927408,-0.995353,0.548691,-0.657819,-0.447494,-0.444891,-0.986757,-0.181523,-0.180614,-0.08291,-0.0271069,0.542711,-0.311225,0.532654,-0.587219,-0.475317,0.265169,-0.223799,-0.565813,0.149451,0.0208712,0.432755,0.86242,-0.923445,-0.703707,0.126316,0.257648,0.935115,0.213016,-0.657429,-0.374751,0.580606,0.735806,0.983228,0.0512325,-0.768838,-0.518377,-0.491212,0.815475,-0.43282,0.671151,0.860433,-0.762741,-0.805095,-0.0125166,0.79661,-0.20116,0.936766,0.356043,-0.919113,-0.779604,0.408247,-0.811501,-0.64987,0.0573864,-0.161488,0.941044,-0.724267,-0.967276,0.653819,-0.0783244,0.362935,-0.725261,0.934476,-0.642134,-0.465199,-0.5362,0.312085,-1.00379,-0.495796,0.813697,-0.415258,-0.104947,0.935279,-0.52734,-0.0883137,-0.833363,-0.269254,0.342262,0.305694,0.701884,-0.966519,0.276159,-0.823889,-0.592186,0.272642,-0.112033,-0.781825,-0.0903767,-0.163704,0.20026,-0.302567,0.845607,0.212513,0.0388352,-0.829881,0.946968,-0.417344,-0.934838,0.372786,0.028953,0.00678228,0.0796117,0.0322746,0.639739,0.775555,0.323271,0.790451,-0.215569,0.110041,-0.758899,0.277233,-0.716663,0.21285,0.190351,-0.916309,0.524554,0.598488,-0.942312,-0.858636,0.862836,0.157774,0.932255,-0.00894113,-0.105948,-0.801562,-0.387301,0.879538,-0.792579,-0.381307,0.057901,-0.955781,-0.453566,0.0237699,-0.0679313,-0.964263,-0.836619,-0.270662,-0.879617,-0.945336,-0.129895,-0.0138735,-0.320293,-0.258459,-0.497176,0.102321,0.869802,0.81743,-0.390508,0.271909,0.618609,0.6081,-0.0825089,0.539369,0.196076,-0.156547,0.0533205,-0.175143,0.407188,-0.487453,-0.905761,0.269513,0.145095,0.847815,0.823454,-0.722477,0.816137,-0.298369,-0.32555,-0.70165,-0.168321,0.537959,-0.141298,0.216034,-0.527828,0.424824,0.666861,0.263488,-0.178889,0.0930598,0.193886,0.182125,0.201183,0.365239,0.821266,0.799314,-0.18442,0.247418,0.757923,0.820585,0.118031,-0.540899,-0.57823,0.651265,-0.401202,-0.991436,-0.00820098,0.616873,0.897945,0.966529,0.722813,-0.495026,-0.953668,0.0848598,-0.924728,0.0820483,-0.649057,-0.139263,0.382592,0.663844,0.390234,0.650758,0.694619,-0.452372,-0.154282,-0.374787,-0.399695,0.721786,-0.809446,-0.913707,-0.41001,-0.353597,0.172526,0.348223,-0.222193,0.242599,-0.779918,0.549045,0.0745044,-0.169694,0.0436695,0.0421847,-0.158108,0.182705,-0.500906,-0.491847,0.0380498,-0.183867,0.57303,-0.619273,0.824528,-0.658211,0.398658,0.0159109,-0.13979,-0.553409,-0.295946,0.0140854,0.619115,0.262323,-0.841772,-1.00967,0.633509,0.137434,0.829755,-0.226122,-0.691191,-0.424378,0.827386,-0.821668,-0.271262,-0.995813,-0.0995863,0.556403,-0.549948,-0.807727,-1.00409,0.204346,0.23719,-0.0634332,0.579386,0.51257,0.863057,0.895845,-0.194247,0.273023,0.967506,-0.547555,0.288092,-0.543569,-0.70821,0.426306,0.158807,-1.01173,0.041892,-0.45356,0.364444,0.120181,0.263537,-0.546645,-0.245211,0.590395,0.957676,0.972862,0.274269,
0.844907,0.209871,0.875025,0.857279,0.129293,0.708226,0.451367,-0.681191,-0.0521504,-0.649238,-0.832979,-0.834595,-0.0931666,-0.842344,-0.855838,-0.0697758,-0.0689725,0.251322,-0.809142,0.497452,-0.689222,-0.291788,0.65952,-0.510189,0.479956,0.389525,0.245076,0.0571635,0.294657,-0.120284,-0.551867,0.766698,0.116537,0.367177,0.477697,-1.02486,-0.150778,-0.310965,-1.00768,-0.262849,-0.271941,0.411058,-0.125461,0.606969,-0.518646,0.142763,-1.00065,0.276373,0.380575,0.742834,0.621228,-0.807198,0.0426349,-0.869109,-0.0883108,-0.740392,-0.417803,0.273687,-0.114863,-0.390439,0.440743,-0.412059,0.358527,0.0833854,-0.621369,-0.998032,-1.02184,0.761315,-0.944884,0.257557,-0.682205,0.280158,-0.55379,-0.63241,-0.999924,0.9455,0.761457,0.874948,-0.505756,0.195098,0.0500108,-0.991564,0.610683,0.136099,0.333898,0.614558,-0.428447,-0.609193,-0.859491,-0.629494,0.948322,0.861946,0.115147,0.882229,0.548847,0.0383318,-0.854316,-0.274969,-0.714099,-0.497863,-0.545154,-0.947711,-0.295193,-0.731503,-0.364463,-0.437389,0.919437,-0.875127,-0.231164,-0.521077,0.651543,-0.973362,0.401523,0.86059,0.277706,-0.483644,0.189724,0.496083,-0.0692491,-0.868061,0.329445,0.861259,0.437216,0.25021,0.431804,0.101294,-0.312867,0.623058,0.312006,-0.31506,0.394519,-0.680245,-0.778278,0.646534,-0.499327,-0.472653,-0.509516,-0.751028,0.353492,0.788494,-0.0348548,0.83182,0.0878491,0.421497,-0.299187,-0.431979,-0.293621,-0.168176,0.698977,0.0860244,-0.922099,0.383938,-0.672032,0.125622,-0.654191,0.440371,0.826065,-0.62868,0.0521828,0.598879,0.313203,-0.794309,-0.777746,0.406865,0.931671,0.571097,0.750045,-0.391588,0.459981,-0.049299,-0.511779,-0.239748,-0.943169,-0.721923,-0.364221,0.415552,0.140492,0.830471,0.122707,-0.629066,0.386609,0.580826,-0.192,-0.126748,0.842552,-0.35559,0.000815818,0.689666,-1.02497,-0.113945,0.761115,0.608973,-0.23431,0.495173,0.341664,-0.185189,-0.114617,-0.377582,0.616389,0.671638,0.183397,-0.245591,-0.568936,0.232878,0.188446,0.925552,0.0704776,-1.04004,0.662178,0.630537,-0.420057,0.882303,-0.238061,-0.177127,-0.639205,0.577084,-0.512745,-0.573287,-0.112064,0.374612,-0.716424,-0.554184,-0.234867,0.872949,-1.04524,-0.667082,0.504373,-0.0947628,-0.379273,0.0635482,-0.850743,-0.0264736,-0.998157,-0.137445,0.292505,0.433527,0.618737,-1.009,-1.02154,-0.719392,-0.839281,0.55493,0.891263,0.289222,0.568638,-0.746148,0.41051,-0.938772,-0.988971,-0.0596538,-0.956001,0.702114,0.103707,-0.334874,-0.044907,0.343714,0.622116,0.853665,0.74522,0.375425,0.777454,-0.470199,0.846699,-1.03826,0.515003,-0.152458,0.213622,-0.353045,-0.968765,0.0115961,-0.358937,0.120032,0.796283,-0.799978,0.816575,-0.993885,-0.960531,-0.331463,-0.710425,0.00308916,-0.483222,-0.630532,-0.193195,0.272609,0.915076,-0.148151,0.683273,-1.04301,0.729561,0.928292,0.20893,-0.818636,0.334896,0.927512,0.22323,0.36228,-0.584828,0.145264,-0.845916,-0.110072,-0.468347,0.295063,0.865678,-0.36812,-0.278185,-0.16151,0.725421,0.568405,-0.324092,0.038782,-0.527473,-0.638675,0.407801,0.339111,-0.252067,0.719217,0.183861,0.185982,0.437372,0.740133,-0.0734254,0.683458,-0.0045387,-0.247773,-0.728635,-0.117071,0.422207,0.414285,0.698972,0.589812,0.429742,-0.557152,-0.392727,0.247183,-0.351246,-0.940535,0.481698,0.203357,-0.290912,0.559569,0.46492,-0.0814255,0.46822,0.481146,0.173561,-0.398209,-0.141083,0.39916,0.423271,-0.920578,-1.01401,-0.767811,0.0686848,0.291515,0.167279,0.876915,0.811411,-0.791833,0.418828,-0.675374,0.287416,-0.597312,-1.01762,0.396963,0.381566,0.497659,0.496005,-0.465869,-0.294592,-0.679413,-0.171192,0.628563,-0.0974462,-0.20017,0.571984,-0.666119,0.626888,0.63791,0.927472,0.323247,-0.75129,0.628666,-0.871339,0.318939,-0.169053,0.426386,-0.877063,-0.574452,-0.218023,-0.000694301,0.793868,0.64127,
0.0848343,0.523641,-1.07847,0.438002,-1.07662,0.72351,-0.275389,-0.774912,0.00716975,-0.698471,0.886726,-0.256979,-0.687918,0.949139,0.116658,-0.715718,0.513738,0.405171,-0.489721,0.118733,0.0825504,0.389593,0.134382,0.280871,0.757948,-0.821593,0.945807,0.220414,-0.57274,-0.703957,0.354701,-0.667789,-0.213042,-1.0085,0.191826,-0.934505,0.924381,-0.426676,-0.66228,-0.0403295,-0.790806,-0.25622,-0.82295,-0.198793,0.0756871,0.707795,0.0141064,-0.159692,-0.324884,-0.548771,-0.00661629,-0.78091,0.11027,0.0333651,-1.0099,-0.572969,-0.689521,-0.152205,0.0408778,-0.876787,0.394203,0.725236,0.917868,-0.127229,-0.365732,-0.225911,0.912089,-0.332436,-0.456739,0.222017,0.164027,-0.641553,-0.520443,0.0337611,-0.0249132,0.569331,-0.701111,0.328919,0.235386,-0.32188,0.82361,-0.0640981,0.810885,-0.216182,0.644342,-0.567481,0.854002,0.681619,-0.561848,-0.363808,-0.242401,-0.87887,-0.969026,-0.211311,-0.227018,0.588986,0.431687,-0.51816,-0.326877,0.80791,0.319935,-0.577107,0.253956,0.532129,0.766149,-0.209578,-0.225885,-0.425624,0.0476993,0.100639,0.694852,0.206303,0.507296,0.539049,0.835296,-0.0333896,-0.556135,-0.20612,0.112427,0.701455,0.38662,0.347275,0.720875,-1.04966,-0.913522,0.709373,-0.0368283,0.641717,0.589544,-0.03049,0.242034,0.503988,0.922967,-1.02825,0.171414,-0.145896,0.230436,-0.733827,-0.169829,0.225178,-0.289246,0.0184507,-0.687274,0.905774,-0.959714,-0.977894,-0.835221,-0.479579,-0.0109066,-0.222983,0.293625,0.758422,-1.01923,0.133346,-0.925666,-0.879096,-0.512771,-0.382203,-0.775111,-0.363396,-0.603812,0.539553,0.488481,-0.363743,-0.907059,0.357033,0.939826,-0.825976,0.871657,-0.350398,0.0646437,0.311501,-0.952259,0.160999,-0.733114,0.800692,-0.450815,-0.481697,-0.441577,0.79885,-0.300692,0.600883,-0.518386,0.14554,0.696706,0.626498,-1.01472,-0.694987,0.418233,0.042268,-0.849635,-0.0303731,0.482838,-0.219476,-1.01176,0.607267,-0.514052,0.285502,-0.881452,0.61595,-0.771905,0.748624,-0.667242,-0.725214,0.730492,-0.5573,0.852137,-0.987757,-0.92556,-0.760984,-0.301332,0.664988,0.196314,0.421161,-0.00776917,-0.0144098,0.601331,-0.4562,-0.093056,0.0254122,0.411393,0.546404,0.828753,0.213889,0.556403,-0.468771,-0.164543,-0.463778,0.0221757,-0.654659,-1.03092,0.795252,0.319344,-0.267017,-0.660674,-0.554374,0.906532,0.659421,0.513029,-0.879654,0.5038,0.195185,-0.487102,0.449989,-0.76305,-0.558014,-0.957009,-0.464444,-0.101334,-0.42109,-1.04242,-0.350763,0.12603,0.0468546,-0.82407,0.042765,-0.220158,-0.821088,0.354285,0.354171,0.0589543,0.3175,-0.801498,0.139607,-0.521508,0.639928,0.172328,0.300177,0.456388,-0.25585,0.799229,-0.691237,0.836562,0.732857,-0.905501,0.513881,0.00990859,-1.02898,0.122148,-1.04795,-0.600775,0.835159,-0.0272763,0.379229,0.726745,-0.746608,-0.354456,-0.139208,0.522435,-0.821285,0.502368,0.480813,0.806925,-0.607533,0.824113,0.772881,-0.925374,0.537002,0.453785,-0.524821,0.840785,0.24826,-0.250914,-0.0984189,-0.466251,-0.99847,-0.177285,-0.287628,0.53117,0.0656617,0.772218,0.384093,-0.873167,0.355863,-0.304561,0.889781,-0.71076,-0.845034,-0.328804,0.782896,0.00260743,-0.12517,-0.864737,-0.813025,-0.220633,-0.969537,0.0803744,0.0205161,0.657458,-0.0197478,-0.108823,-0.696515,-0.775604,0.814854,0.659887,0.262758,-0.354722,-0.971495,-0.817891,-0.33389,0.848964,0.0802155,0.87402,0.823582,0.117874,-0.8743,-0.713122,0.314281,0.539954,-0.522328,-0.527263,-0.798898,-0.87764,-0.929397,-0.623826,0.761375,0.117665,0.0431302,-0.301136,-0.967241,0.226167,-0.0531421,0.464971,0.229181,0.659332,0.232493,-0.838168,-0.447286,0.373169,-0.5632,0.738212,0.0108921,0.571536,0.693272,-0.220313,0.507108,0.650091,0.789715,-0.119636,-0.32018,0.75774,0.257681,0.741723,0.742905,0.177829,-0.742665,0.40895,0.187633,0.894104,-0.970982,-0.717063,-0.123002,
0.852494,-0.182733,-0.907173,-0.19178,-0.342336,0.582671,-0.219342,-0.244246,-0.815111,-0.30948,-0.984895,-0.517695,-0.91833,-0.256848,-0.460098,-0.821179,0.760961,0.497384,0.308999,0.587283,0.516808,-0.526179,-0.672324,-0.906091,-0.521658,-0.279697,-0.111362,0.341165,0.64314,0.265851,0.721555,0.0563749,-0.777155,-0.649633,-0.868655,-0.346187,-0.103444,0.829028,0.771799,0.521837,-0.124517,0.149806,0.129551,-0.947285,-0.746576,0.753028,0.458479,0.934204,-0.139989,0.646877,-0.93715,-0.155709,-0.975535,-0.419539,0.0801852,-1.01682,-0.415903,-1.01332,-0.108775,-0.761064,0.721477,-0.406725,0.173524,0.506008,-0.310031,0.4945,0.669136,-0.315916,0.121486,-0.277705,-0.067904,-0.0701034,0.131021,0.927686,-0.257395,-0.53944,-0.356165,0.653552,-0.477984,0.717461,-0.0145283,0.782126,0.638367,-0.96627,0.88168,-0.761204,-0.26487,-0.922476,0.563733,-0.449592,-0.884643,0.234115,0.242351,-0.483364,0.701244,0.755589,0.92667,-0.363298,0.902724,0.659512,0.318122,-0.080147,-1.01211,0.430237,-0.905357,0.535837,-0.168762,-0.860082,0.188398,-0.452363,0.818033,-0.252591,-0.697604,0.452899,-0.901109,0.726866,-0.700028,-0.0690154,0.160809,0.265625,0.342214,-0.814679,0.0448559,-0.846197,-0.770844,-0.275705,0.41469,-0.0670737,0.580149,-0.690223,-0.996068,-0.876737,0.438333,0.717358,-0.909992,0.0669033,0.608601,-0.180317,-0.965274,0.262085,-0.567528,0.112544,-1.04672,0.621061,-0.153159,0.836798,0.53364,-0.579924,0.58627,0.206479,0.740817,0.802549,-0.254826,0.0201397,0.567002,0.937131,0.0814277,-0.709426,0.730606,0.388701,0.272973,-0.696632,-0.0722802,-0.215819,0.0764885,-0.391149,-0.28562,-0.824836,-0.555731,0.660057,0.507248,-0.719298,0.502978,0.460492,-0.11639,0.723979,-0.0170457,0.511365,0.829236,0.798135,0.70313,-0.484743,-0.763969,-0.413957,0.273152,-0.855144,-0.987904,-0.0605752,-0.955338,0.129702,-0.0623638,0.760441,-1.05897,0.0760308,0.648538,-0.706832,0.098242,-0.500324,0.607803,0.687683,-0.719186,0.173163,-0.932956,-0.0719682,0.563629,0.364138,0.289487,-0.275876,-1.01027,0.180989,-0.23474,0.679132,-0.140461,0.513549,0.521601,-0.992795,0.00955051,-0.0966843,-0.514102,-0.377238,0.680711,0.491091,0.121932,-0.987983,0.0342555,-0.836546,-0.762958,-0.653012,0.488383,0.85665,-0.665083,-1.05471,0.527433,-0.450441,-0.249841,0.622709,-0.58198,0.54253,0.339715,0.0353127,0.78583,0.894514,-0.461081,0.517658,0.0315754,0.580651,-0.989058,-0.751121,0.927858,-0.119843,0.150405,0.648704,0.707005,-0.89258,-0.0133394,0.0179956,-0.273631,0.453457,0.207234,-0.756435,-0.283762,0.794434,0.225664,0.581396,0.386694,-0.262154,-0.717364,-1.0042,0.927185,-1.04621,-1.01437,0.0263998,0.186841,0.147163,0.213325,-0.126352,-0.105957,-0.083745,0.700219,0.0518219,-0.349103,0.834726,-0.172686,-0.350904,-0.16844,-1.03126,0.0639172,0.85139,-0.31783,0.447335,0.288902,-0.519693,0.409558,-0.459507,0.188279,0.625989,-0.218102,0.585442,-0.605545,0.150365,-0.958524,0.616191,-0.847117,-0.424209,0.775715,0.901412,0.811854,0.422144,0.762636,0.848288,-0.362577,0.292111,-0.809425,-0.346456,-0.664408,-0.257423,-0.554848,0.390404,0.0984522,-0.632788,0.770174,-0.333991,-0.0226381,-1.01909,0.776175,0.0408736,-0.0826567,0.837519,-0.664299,0.892327,-0.751644,-0.136716,0.400922,-0.287096,0.422667,0.825132,-0.263821,0.554518,-0.768697,-0.536003,0.603504,0.374682,-0.890108,0.607788,-0.728545,-0.86443,0.775277,-0.328606,0.686608,-0.369607,-0.130369,-0.485507,0.0550846,0.208599,0.0327561,-0.0355583,-0.79514,0.317812,-0.25046,-0.0233615,-0.596001,-0.414972,-0.177367,0.690029,0.332974,0.574249,-0.0491039,0.0268695,-0.0851581,-0.874041,-0.405277,-0.112444,-0.794139,0.860796,0.20508,0.782205,-0.979154,0.236284,-0.818628,0.740084,-0.215703,-0.399086,-0.252691,0.591281,0.316923,-0.766361,0.0249948,0.267849,-0.520137,-0.431987,-0.899889,-0.426064,
-0.683737,0.741904,-0.465459,-0.596331,0.738253,-1.02731,-0.181961,-0.481392,0.143907,0.748254,0.298064,0.426285,0.93458,-0.406137,0.500646,-0.666249,0.329912,0.802398,0.370379,-0.278369,0.0243731,-0.681328,-0.539583,0.201543,0.627895,0.300012,-0.0249812,0.306366,-0.344483,-0.953142,-0.892798,-0.54327,0.76157,0.173032,0.182941,-0.446631,0.622182,0.355846,-1.01435,0.139244,0.328165,-0.963815,-0.674345,0.339375,-0.435994,-0.480497,-0.514366,-0.660174,0.496383,0.16306,0.0375156,0.605422,-0.195532,-0.102345,0.647157,0.3368,-1.02438,-0.833299,-0.758816,-0.45735,0.392147,0.160823,-0.176345,-0.427089,0.817565,0.576803,0.731902,-0.379587,-0.547062,-0.63185,0.602274,-0.601563,-0.96595,-0.0736136,0.189992,-0.592936,-0.670834,-0.546631,-0.710768,0.47904,0.717669,0.310771,-0.0998524,-0.329762,0.092894,0.511197,0.154639,0.465612,-0.364253,-0.70017,0.407561,-0.859962,-0.0662975,-0.461015,0.975717,0.873225,-0.025715,-0.872081,0.00970372,-0.705118,-0.507482,-0.83951,-0.348147,0.370078,-0.907059,-0.69397,0.138344,-0.243542,-0.904529,0.272801,0.657528,0.507167,0.740566,0.170747,-0.753143,0.517852,0.381216,0.0559628,-0.474839,0.402976,-0.480729,-0.338199,-0.727991,-0.43446,0.285074,-0.0545253,0.734138,-0.0800701,-0.670854,-0.787136,-0.0861553,0.916285,0.728635,0.180541,0.5785,-0.0874369,-0.488191,-0.0266732,0.771955,0.384804,0.229974,-0.952223,-0.709581,0.421019,0.433614,-0.918528,0.728724,-0.317903,0.455065,-0.00395666,0.74683,-0.695835,0.536279,-0.502291,-0.0428982,0.731181,-0.690559,0.714585,-0.885795,0.723073,0.44726,0.595786,-0.655142,0.768894,0.952672,0.886664,-0.150756,-0.203972,0.228951,-0.683551,-0.330172,-0.959058,0.594543,0.0662096,-0.933239,-0.578441,-0.00296384,0.75001,0.312004,-0.69151,0.501057,-0.167844,0.4584,0.212639,-0.462613,0.226138,-0.351002,0.385092,-0.148365,-0.281959,0.376389,0.821405,0.8229,0.53675,-0.113694,0.157591,0.378167,-0.729455,-0.573594,-0.44642,0.92303,-0.0674669,0.314658,-0.809099,0.678503,0.642521,-0.866281,-0.0351055,-0.314595,0.201072,0.851279,-0.437834,0.105448,0.948221,-0.149908,-0.186592,-0.636111,-0.215014,0.903065,-0.146933,-0.998096,0.473993,-0.246149,0.894243,0.899331,0.764322,0.860903,0.701825,0.570652,0.124692,-0.863452,-0.946109,-0.96697,-0.219385,-0.210821,-0.415616,0.678104,-0.926638,0.687807,0.639615,0.0655201,0.226759,0.520269,0.286511,-0.516457,0.840565,0.477569,-0.435864,-0.437338,-0.167336,-0.857167,0.863798,-0.775424,-0.995156,-0.110349,-0.729554,0.45828,0.266252,-0.790287,0.106363,0.37863,-0.853393,0.338868,0.0720203,-0.0917588,-0.202141,-0.795484,-0.203754,0.33217,0.181393,0.163805,0.378954,0.683119,-0.298569,0.773936,0.851742,-0.175694,0.727631,0.575131,-0.534932,-0.831092,-1.02572,-0.440541,0.447273,-0.308197,0.848647,0.205319,-0.413045,-0.312894,0.330744,-0.272463,0.548941,0.408308,0.235176,0.467307,0.291392,-0.989589,0.533273,0.927912,0.829747,-1.00546,-0.142799,-0.154328,-0.414466,-0.141404,-1.02696,-0.997431,-0.13731,-0.806363,-0.881412,-0.325233,0.736519,-0.797175,0.116406,-0.433944,-0.695739,-0.80608,-0.074747,-0.407797,-0.830657,0.832077,-0.882892,-0.803945,0.842048,0.930799,-0.575535,0.612044,-0.0443415,-0.833024,-0.399474,-0.917713,0.368153,-0.824114,0.543346,-1.01504,-0.941846,0.144387,0.54943,-0.441075,0.544153,-0.544185,-0.568928,0.294731,-0.229126,-0.540397,-0.961258,-0.467334,0.898564,-0.835156,0.360284,0.659445,-0.949143,0.856965,-0.443128,0.525375,-0.584034,0.907863,-0.425715,0.694547,0.019148,-0.0189391,-0.207574,-0.157684,-0.0603834,0.786581,0.0799279,-0.68421,-0.652026,0.426864,0.500405,0.105486,-0.615043,0.291977,-0.821456,0.268099,-0.900675,-0.192287,0.42777,0.397819,-0.813607,0.524331,0.43315,0.91479,-0.0364613,-0.34426,0.619677,0.766879,-0.716467,-0.405452,-0.307542,-0.589819,-0.779692,
0.731452,0.667054,0.157627,-0.464062,0.571912,0.572151,0.0874031,-0.232132,0.744017,-0.907634,0.420891,-0.121539,-0.110339,-0.313838,-0.384312,-0.115852,-0.621315,0.858955,0.596084,-0.825684,-0.64721,0.464373,0.674732,-0.339295,-0.650442,-0.525714,0.380831,-0.520569,0.58645,-0.292438,-0.0261669,0.567045,0.361584,-0.829634,-0.482842,0.355466,0.463585,0.13176,-0.799379,-0.554212,-0.304634,0.514966,0.31608,0.150712,0.732609,-1.01405,-0.409168,0.479466,0.894224,-0.0624921,-0.785775,-0.304464,-0.643232,0.211961,-0.115221,-0.585602,0.406741,-0.289621,-0.73096,0.410507,-0.425911,0.113199,-0.239573,0.862131,-0.15052,-0.50766,-0.873448,-0.428013,0.299202,0.662307,-0.00912495,-0.0611549,-0.79689,-0.901582,0.631076,-0.12475,0.769276,-0.81655,0.162687,0.455278,-0.993592,0.579077,0.288673,-0.497024,-0.29048,-0.966606,-0.469611,-0.30782,-0.769801,-0.145965,-0.572618,-0.313849,-0.826662,0.918601,-0.190823,0.205162,-0.761352,0.106993,0.363604,0.771981,-0.87228,-0.718678,0.914948,-0.84154,-0.519813,-0.472688,-0.506536,-0.0129218,0.922998,0.632124,0.566903,-0.396144,0.0253161,0.341746,0.465327,0.324497,0.282387,-1.00381,0.82043,-0.388218,0.791305,-0.345679,0.435048,-0.713117,-0.698848,-0.492632,0.604576,-0.683936,0.727956,-0.818332,-0.278654,-0.447316,0.10466,0.638611,0.880347,-0.79999,0.696417,-0.0865778,-0.187929,0.556244,-0.533616,0.585012,0.932541,-0.501391,0.131165,-0.238028,0.52958,0.923173,0.840779,-0.639546,-0.85463,0.935536,0.539747,-0.254997,-0.979205,-0.0535336,0.221981,0.805403,-0.53494,0.411555,-0.124991,0.190858,0.724015,0.401318,0.590469,0.372708,0.901159,0.383461,-0.110775,0.630418,0.388325,-0.897662,0.213221,-0.760178,0.82586,0.816015,-0.134166,-0.619739,0.394659,-0.235302,0.836625,0.518342,-0.75008,0.33355,0.529776,0.346634,-0.248568,0.227857,-0.946998,0.280762,0.0223279,0.0863896,0.64268,-0.659589,-0.859132,-0.773849,-0.847541,-0.810224,-0.00928223,0.534783,-0.275578,0.779703,0.0185204,0.528287,-0.560181,-0.571415,-0.755249,-0.585841,0.42166,0.718882,0.450299,0.570712,-0.152341,0.557301,0.0809593,-0.323896,0.593095,0.104754,-0.354294,0.0139722,0.317312,-0.777967,-0.54691,0.218592,-0.87799,0.0568834,0.158307,-1.02174,0.513656,-0.0802476,-0.258463,0.669486,0.334487,0.323948,0.561258,-0.766991,0.831167,0.627091,0.434264,-0.535722,-0.967427,0.608004,-0.864339,0.555649,-0.396449,-0.617047,0.552037,-0.209566,-0.108126,0.177377,-0.323883,-0.466075,-0.176547,0.606347,0.246777,-0.24937,-0.463437,0.279364,-0.830811,0.201369,-0.368293,0.836298,0.159119,0.886559,-0.076462,0.511845,-0.0869229,0.0322977,-0.873565,0.0583925,-0.460405,0.518117,-1.03418,0.220194,0.226878,-0.6473,-1.00616,0.12784,0.429147,0.0178136,0.153736,0.195751,0.462388,-0.544816,0.0590536,0.644603,-0.452786,0.416966,-0.0903297,-0.98451,0.0484313,0.406962,0.541351,0.677976,-0.325321,0.269426,-1.0663,0.48499,0.132238,-0.586139,-0.306019,0.909188,-0.0968645,0.254853,0.218007,-0.363937,0.303969,0.859742,0.675735,0.257582,0.163221,0.139606,0.725823,0.245384,0.349904,-0.0626884,0.468744,-0.879722,0.200202,-0.48935,0.0503413,0.00456927,-0.232179,-0.521039,0.491554,-0.275086,-0.889708,-0.646104,-0.606225,0.517322,0.395617,0.789852,-0.0471767,-0.932727,-0.122916,-0.209041,-1.04895,0.643893,-0.212603,-0.502961,-0.527451,-0.0961239,0.257769,-0.799794,0.150695,-0.519401,-0.45237,-0.976434,0.0775044,-0.738051,0.600776,-0.808076,0.85739,0.332591,0.266921,-0.168426,0.272172,0.878341,-0.515683,-0.501215,0.603184,0.287611,-0.592464,-1.05278,-0.555379,0.0588858,0.724585,-0.330294,0.673876,-0.709792,0.85338,-0.914631,0.552725,-0.896308,-0.249335,0.670766,-0.443671,0.212837,0.645826,0.407427,0.242034,0.256671,0.378509,-0.0713205,0.326217,-0.796555,-0.772498,-0.775871,0.138434,-0.465428,-0.0156408,0.0637972,
-0.313702,0.908021,-0.320032,-0.833407,0.456399,0.417981,-0.0642438,-0.798166,0.722909,0.891867,0.187824,-0.319716,-0.890421,0.248955,-0.377476,-0.925792,0.040209,-0.594116,0.381653,0.625209,0.0021526,-0.284935,0.32515,0.157036,-0.252023,0.0693987,0.428312,-0.0557743,-0.199098,0.953217,-0.964307,-0.0652442,-0.608652,0.255126,0.709346,-0.8767,0.406052,0.0631031,-0.827524,-0.0800538,0.919567,0.580879,0.359081,-0.332349,0.267567,0.634239,-0.91409,0.836934,0.803066,-0.082881,0.49066,-0.824046,0.750259,0.742004,0.469175,-0.734995,-0.0826848,-0.696089,-0.10182,0.0224579,0.781133,0.296112,0.0688006,0.337753,-0.889964,-0.586494,0.522565,-0.865617,0.933013,0.529534,0.146549,-0.197889,-0.310935,-0.0613702,0.520114,0.809762,-0.353402,0.198889,0.438469,0.796552,0.601116,-0.48974,-0.582858,-0.442369,-0.838804,-0.731137,-0.169749,-0.428667,0.0628785,-0.316862,0.0379218,-0.452866,-1.00306,-0.28656,-0.925703,-0.775601,0.714129,0.81011,-0.266826,0.499234,-0.949865,0.223694,0.487404,0.403251,0.66758,-0.426214,0.781594,0.262879,-0.252843,-0.915349,0.913985,0.404311,-0.813143,0.650279,0.00926386,0.893464,0.138712,-0.109429,-0.992495,0.229169,0.624258,-0.760761,-0.20871,-0.0456385,-0.376346,0.243097,-0.0888042,-0.215182,0.881313,-0.517034,-0.111664,-0.666743,0.018675,-0.822607,0.529643,0.00924729,0.734553,-0.474699,0.0298759,-0.0615198,0.626112,0.145369,-0.833996,-0.954743,-0.628955,0.349354,0.963454,0.835174,0.940013,-0.791638,0.618993,-0.683904,0.620651,-0.476207,-0.00515488,-0.353355,0.00518876,0.844944,-0.426929,0.836646,0.76082,0.871463,0.197302,-0.231533,-0.351154,-0.809215,-0.105603,0.0232442,-0.0278565,-0.120907,-0.15402,0.315823,-0.457615,0.549029,0.313118,-0.637069,-0.749896,0.205397,-1.02287,0.362534,-0.414386,-0.598359,0.381478,-0.320254,-0.6165,-0.11479,-0.22293,0.663439,-0.190845,-0.08248,-1.03081,0.680819,0.517418,-0.585341,-0.956929,-0.121861,-0.64968,0.598531,0.708012,-0.212004,-0.688772,0.903827,-0.835163,-0.464803,-0.334655,-0.31254,-0.816695,-0.414277,-0.705062,-0.167535,-0.0595331,-0.181518,0.203091,-0.214239,-0.569548,-0.269701,0.261407,0.559458,0.545621,-0.732084,0.324033,-0.966016,-0.0221762,-0.74195,0.630543,-1.02522,0.419368,0.343921,-0.354108,0.783766,0.889769,0.0271991,-0.609874,0.642895,-0.769218,0.452889,0.224997,-0.367111,0.295087,0.00587476,-0.587187,0.833472,-0.630313,-0.684182,-0.0413313,-0.638147,0.786011,0.962998,0.00267229,-0.346151,-0.82469,0.66851,-0.773505,0.182331,0.115743,0.246037,0.220012,0.277077,0.563952,-0.109435,0.905504,0.500906,-0.726482,-0.130088,-0.0115735,0.749669,0.586923,-0.0419947,0.122636,0.939397,-0.561714,-0.930107,0.221344,0.531193,-0.338161,0.484391,-0.485017,0.711255,-0.540439,0.30275,-0.469951,0.964903,-0.936578,0.190289,-0.445081,0.804665,0.512906,-0.661962,0.90339,-0.42474,-0.216947,0.578529,-0.249913,-0.18781,-0.0531255,-0.20763,0.329872,-0.686285,0.674074,0.148461,0.750723,-0.347236,0.69301,-0.734559,0.630112,-0.270697,-0.904095,0.720889,0.244855,-0.00167445,-0.998295,-0.865077,0.262174,-0.653686,0.599602,0.71458,0.949033,-0.546273,-0.283614,0.909052,0.187093,-0.893912,-0.66335,-0.15206,-0.713452,0.932849,-0.660777,-0.259047,-0.933114,-1.00761,0.777936,0.654348,-1.02563,0.459689,-0.884576,0.90044,-0.349134,-0.853447,-0.655357,-0.470181,0.747009,-0.29448,-0.0205048,-0.484489,0.697699,0.194602,-0.179331,-0.984293,-0.766279,-0.234104,-0.963233,0.802789,-0.885399,0.517123,0.407505,-0.172385,-0.88238,-0.984862,-0.364687,0.418055,0.539538,-0.614982,0.258303,0.50546,-0.131054,-0.298551,-0.181432,0.787715,0.895009,-0.0436774,0.904037,0.499371,-0.00737241,-0.721001,0.601241,0.503338,0.800215,-0.585413,-0.696626,-1.01524,-1.00282,-0.183185,0.733267,0.613181,-0.183622,-0.0754928,-0.445885,-0.681885,0.505012,-0.549163,-0.400942,-0.370683,
0.774094,0.388765,-0.942012,-0.918358,-0.625947,0.737225,0.539065,-0.111484,0.458965,-0.544358,-0.179172,0.736188,0.451704,0.148198,-0.886464,-1.03704,-0.346073,0.930808,0.817835,0.193246,-0.0644121,0.819426,0.256942,-0.167964,0.680798,-0.89936,-0.289533,-0.284895,0.218239,0.534982,0.744792,0.819272,0.274042,0.593715,0.606545,0.650443,-0.527854,0.386326,0.770499,0.707628,-0.946546,-0.525626,-0.0929399,0.385907,0.636314,-0.320647,-0.0557404,-0.89112,0.379935,0.374418,0.91195,-0.996267,0.849257,0.274271,0.524649,-0.692738,-0.449758,0.595014,-0.378087,0.157039,-0.598108,0.227435,-0.27216,0.886709,0.161168,0.494073,0.0625991,-0.978095,-0.610905,-0.498654,-1.00164,0.442861,-0.94657,-0.0559236,-0.42412,0.385675,-0.392466,0.667144,-0.688315,-0.251267,0.879238,0.346349,-1.06522,-1.04457,0.688498,-0.699948,-0.64794,-0.870493,-0.119649,-0.026534,-1.00709,0.0559218,0.690725,-0.0977666,0.0940123,-0.0372787,-0.428795,0.469881,0.817548,0.313008,0.509044,0.639663,-0.260324,0.203922,-0.587488,0.739675,-0.54344,-0.533686,0.153306,-0.316156,-1.0422,0.889948,-0.61556,-0.788248,0.00519886,-0.180676,0.600079,0.866147,-0.919267,-0.485998,-0.847303,-0.0321645,0.787055,-0.927944,0.230042,-0.794967,0.792298,-0.154997,0.749071,0.168874,-0.631454,0.698863,-0.303077,0.305883,-0.0729591,0.787646,-0.534843,-0.828714,0.473727,0.378174,-0.870825,-0.128601,0.494389,-0.537123,0.270993,0.833509,0.505681,0.468817,-0.122401,-0.573162,-0.114073,-0.736831,-0.143382,0.582143,-0.898649,-0.578775,-0.513697,-0.99499,0.205847,-0.214411,0.0458691,0.854971,-0.414247,-0.894166,-0.15868,0.514348,-0.675481,-0.790452,-0.0347442,0.923312,-0.319152,0.515399,0.136593,-0.221487,-0.0549944,0.147484,-0.633561,-0.774235,-0.190729,-0.197521,0.0887299,-0.175127,-0.585356,-0.0981276,-0.31111,-0.502363,-0.297953,0.697374,0.893704,-1.01517,0.565906,0.654418,0.833419,0.532126,0.0508821,-0.0859968,0.136451,-0.380813,-0.691084,0.425394,-0.243942,0.369175,-0.735578,-0.634694,-0.855567,0.364001,-0.329486,-0.488875,0.919793,0.341365,0.82898,0.870827,0.373045,-0.974279,-0.508796,0.853791,-0.875548,-1.04742,0.104137,0.549047,0.490445,0.0633987,-0.709885,0.261692,-0.0761789,-0.262556,0.626325,-0.856524,0.823895,0.728445,-0.692824,0.240915,-0.812072,-0.0527615,-0.461315,-0.175144,-0.199412,-0.687463,-0.628939,0.701537,-0.668002,0.455297,0.88007,-0.0134832,0.255295,-0.242309,0.411691,0.0985215,0.558407,-0.992226,0.425368,-0.928321,-0.0752058,0.709697,0.874352,0.52945,0.507115,0.75311,0.461203,-0.0268919,0.38839,-1.05231,0.696008,0.787548,-0.159756,0.579246,0.53791,-0.78214,-0.485187,0.424857,0.307568,0.520361,-0.646633,-0.848863,-0.951444,-0.86071,0.74584,-1.02942,-0.302936,-0.326179,0.902696,-0.790636,0.830721,-0.405803,0.210733,0.440543,-1.08347,-0.332786,0.0424513,0.847785,-0.239257,-0.970696,-0.992776,-0.488733,-0.428646,-0.188646,0.225679,-0.377178,0.454789,0.784892,0.264944,-0.743231,0.68251,0.076725,-0.266443,0.670611,-0.542685,-0.176584,0.265584,-0.460947,0.793996,-0.520357,0.742143,0.29393,0.418744,-1.01188,-0.851077,0.629403,-0.0918965,-0.220752,0.58041,-0.0265719,0.612901,-0.523039,0.821831,0.804717,0.713463,0.604962,-1.03369,-0.90307,0.0564723,-0.208556,0.412344,0.625043,0.673739,0.675742,-0.219406,0.198456,-0.477693,-0.930615,0.0696345,0.801424,0.54971,-1.07809,0.827123,0.323668,0.750359,0.406929,0.870179,-0.322166,-0.166223,0.64764,-0.9992,0.21141,0.725317,-0.764204,-0.921503,0.611705,-0.519553,-0.511745,-0.178911,0.444998,-0.200591,-0.219228,0.0792889,0.0106142,-0.366741,0.202125,-0.478549,0.517037,0.879266,-0.867476,0.00162467,0.175067,0.328519,0.853199,-0.320222,0.387299,-0.25347,0.763105,-0.761455,-0.240422,0.693948,-0.114555,-0.453475,0.386546,-0.691985,0.687582,-0.976329,0.789182,0.457352,-0.383035,
0.458549,-0.958543,-0.546551,0.228496,-0.0659573,-0.884616,0.0650306,-0.450456,0.212059,0.0806613,-0.458315,-0.335183,-0.865245,-0.527278,0.317739,0.317804,0.663057,0.136745,-0.0303671,-0.0430222,0.857921,-0.936563,0.121539,-0.0462254,-0.70169,0.755603,-0.833243,-0.0458119,0.93563,-0.681934,-0.912179,-0.231834,0.154333,0.557084,0.651143,0.896288,-0.287189,0.905453,-0.757087,-0.598749,0.889123,0.49945,0.828045,-0.609053,-0.969753,0.688601,-0.111817,-0.0053544,0.269226,-0.805136,0.623588,0.120653,-0.403699,0.681753,0.411793,0.472825,0.298988,0.186308,0.00586968,-0.26443,-0.116114,-0.651247,-0.5863,0.392989,-0.93561,-0.46748,-0.141004,0.154313,0.910974,0.864708,-0.110192,0.504161,0.713005,0.105061,0.63669,-0.256064,-0.13861,-0.126683,-0.622393,-0.826615,-0.894398,-0.230947,-0.523431,-0.297582,0.893723,-0.478426,-0.857414,0.0708507,-0.98499,0.578613,-0.24382,0.248833,-0.917843,0.822847,0.0500226,0.614148,-0.952477,0.0864875,-0.460038,-0.822863,-0.509952,-0.278765,-0.304511,0.921639,0.0958386,-0.631246,0.619918,-0.178542,-0.636897,0.433516,0.732491,-0.100668,0.895122,-0.298818,-0.944522,0.611229,0.732297,-0.0675688,0.827488,0.897662,-0.567271,0.517869,0.766779,0.489402,-0.685272,0.891507,-0.699382,-0.767072,-0.424401,-0.172879,-0.550744,-0.959888,0.0246158,-0.0724684,-0.12422,-0.424222,-0.780567,-0.98303,0.80099,0.754845,0.419455,0.838232,-0.319874,0.869616,0.796867,-0.928923,-0.0530358,-0.314851,-0.234542,-0.185463,0.032389,0.623628,-0.761747,-0.459828,0.381627,0.0458006,-0.428421,-0.0186194,-0.0400743,0.88153,-0.424055,0.675344,0.506967,-0.0543977,-0.410957,-0.416499,0.19989,0.196134,0.0654659,-0.998059,0.823038,-0.976572,-0.771816,-0.40117,0.292627,0.619514,-0.158573,-0.651038,0.0756784,0.831481,-0.471391,-0.0720323,-0.523245,0.343411,0.789148,0.0911616,-0.730933,-0.908064,0.383856,0.874621,-0.602683,-0.800636,0.465949,-0.282587,0.255702,-0.46058,0.045253,-0.563885,0.215825,0.74828,-0.807511,-1.01329,-0.661964,0.877776,-0.123847,0.0906598,-0.416069,-0.183388,0.107774,-0.283614,-0.124567,-0.983081,0.0582449,0.460327,0.675264,-0.849865,0.201201,0.26013,0.662008,0.133543,-0.242679,-0.776296,-0.131747,-1.01362,0.709631,0.28898,-0.543716,0.108015,0.65198,0.545937,-0.0180916,-0.296367,-0.593409,0.897457,-0.0682857,0.870715,-0.827792,0.849966,-0.252262,-0.616579,0.406363,-0.789908,-0.257193,0.241699,-0.898743,-0.643493,-0.393687,0.523292,0.588906,0.956396,0.36307,-0.670567,0.82713,-0.0733262,0.862109,0.59664,-0.219217,0.537939,-0.697611,-0.743727,-0.441482,0.929038,0.564568,-0.423924,-0.951296,0.618751,-0.787775,0.882992,0.101465,0.343346,-0.35514,0.54198,-0.797863,0.3291,0.11684,0.272583,-0.612818,-0.48308,-0.470614,0.680424,0.396218,-0.848882,-0.644236,-0.95906,0.286604,-0.310301,0.345069,-0.771841,-0.0849653,0.557194,0.485351,0.608763,0.186295,-0.374228,-0.248555,-0.758408,0.61153,-0.669806,0.600777,-0.857541,0.77305,-0.924675,-0.794866,0.311348,-0.440432,-0.804196,-0.865908,0.534562,-0.249416,-0.435675,-0.858315,0.0541211,0.873697,0.600352,-0.0454452,-0.142871,0.305157,0.112735,0.612931,-0.883164,0.00125073,0.288462,0.668484,-0.971496,-0.738597,-0.750666,-0.000795685,0.404101,-0.170689,-0.310842,0.580018,-0.0573595,-0.139286,-0.383238,0.258383,-0.586393,0.570395,0.621805,-0.125489,0.237846,0.488406,-0.361814,-0.99425,0.146033,-0.277011,-0.880643,-0.791271,0.0579493,-0.350192,-0.78869,0.171502,0.701855,0.756546,0.0390427,0.28171,0.045468,0.529381,-0.957249,-1.00291,-0.575378,-0.0354618,-0.962067,0.851396,0.0377911,-0.524085,-0.00701889,0.567986,0.196147,0.181078,-0.893735,-0.357552,0.576952,0.833984,0.780008,0.560724,-0.848043,-0.663126,-0.140951,0.114123,-0.657514,0.85906,-0.614664,0.113583,0.315302,-0.595873,0.742979,0.469301,-0.00445339,0.816024,-0.62338,0.697208,-0.536905,
-0.519955,0.340642,0.712287,-0.524561,0.191207,-0.619891,0.927129,0.283696,-0.816285,-0.134688,-0.617353,-0.347342,0.936447,0.756303,-0.123875,0.718904,-0.168922,0.600764,-0.717119,-0.938396,0.379767,0.52696,-0.94333,-0.938743,0.0747043,0.155373,0.760866,-0.475054,0.126363,-0.958798,-0.882834,0.538449,-0.804154,-0.690449,-0.51276,-0.871801,-0.214685,-0.990996,0.767367,-0.562606,-0.64151,-0.704689,-0.809517,-0.702431,-1.02009,-0.0874032,-0.445303,-0.628284,0.437355,0.496403,-0.797099,-0.515989,-0.334445,0.132489,0.893046,-0.0714679,-0.798797,-0.726107,0.679248,0.597714,-0.867278,-0.723332,0.10841,-1.02229,0.476705,-0.789187,0.432439,0.789624,0.468013,0.198195,-0.235258,0.879438,-0.803688,-0.663579,0.873582,0.843224,0.17941,0.0785342,0.434555,-0.70337,-0.976386,0.623479,0.499829,0.294057,-0.0232335,-0.492661,-0.575388,-0.0968817,-0.642844,0.887051,0.958672,-1.00448,0.575225,-0.298992,-0.253331,-0.423132,-0.300715,-0.0398034,0.392185,0.212663,-0.099702,-1.0079,0.0935183,-0.465999,0.676856,-0.98218,0.475198,-0.110861,-0.582476,-0.0606551,-0.380067,-0.626842,0.00027355,0.715458,0.0837771,-0.841037,-0.0638742,-0.729503,0.509543,-0.221512,0.406666,-0.0942927,-0.687855,0.876821,-0.732157,-0.596575,0.670063,0.176415,-0.376118,0.0102529,0.852304,0.826959,-0.536615,-0.313668,-0.157893,-0.629064,0.457143,0.227332,-0.800395,0.194161,-0.987248,0.610946,-0.527479,0.116473,-0.402634,0.348551,0.314119,0.0100983,-0.337687,0.108304,0.266743,-0.66943,-0.263524,-0.998688,-0.723648,-0.257684,0.330088,-0.804759,-0.335492,-0.833029,0.182186,0.287117,0.686677,0.501302,-0.472592,0.00731435,0.270475,0.0953715,-0.591175,0.904009,0.541733,0.839237,0.433198,-0.801883,-0.104386,-0.953329,-0.411703,0.196055,-0.409178,0.687568,-1.00471,0.860987,-0.579305,0.381682,-0.0845902,0.269119,-0.259043,0.93841,-0.129537,0.436313,0.77871,0.428403,0.301345,-0.303445,0.702375,0.523082,0.752847,-0.772043,0.62117,0.938874,0.161263,0.855671,-1.02654,0.615869,-0.874229,-0.384794,-0.725297,-0.423078,-0.604791,-0.431178,0.842113,-0.89584,0.44159,0.837564,-0.272543,0.107719,-0.0459851,0.503954,-0.394481,0.543714,0.0374206,-0.682935,-0.0735234,-0.895074,0.46947,0.384958,-0.783656,-0.688822,-0.0258563,0.533572,-0.559303,0.405945,-0.498394,0.816589,-0.581397,0.833646,0.422313,0.853422,0.654073,-0.108849,-0.784608,-0.878982,0.816434,-0.225336,-0.585337,-0.122335,-0.481481,-0.431611,0.410136,0.757504,0.482594,-0.66531,-0.0251122,0.597317,0.878662,0.878131,-0.901406,-0.0207113,-0.127481,0.550366,0.470182,-0.892138,0.283724,-0.265379,0.343687,0.299229,-0.707019,-0.175049,0.646293,0.224976,-0.0813185,-0.641712,0.197211,0.925352,-0.886711,-0.879516,-0.345893,-0.103214,-0.140147,0.0455933,0.519088,0.11167,-0.0904661,0.587808,-0.810188,0.169128,0.923352,0.704706,-0.621803,-0.594947,0.73975,0.862834,-0.993744,-0.654892,0.430455,0.82318,0.757507,0.131928,-0.871443,-0.654681,0.540338,-0.943334,0.388278,-0.526081,0.873986,-0.0940393,-0.945549,0.589157,0.351294,0.810439,0.389132,-0.232636,-0.430527,0.236253,-0.285293,-0.203956,-0.575975,0.170618,0.834312,0.585715,-0.908383,-0.474433,0.0401458,0.740703,-0.052134,0.704422,-0.626415,-0.605703,-0.597676,-0.155426,-0.72243,0.136822,0.0342377,-0.279354,0.142126,0.499407,-0.537817,0.794693,-0.0543119,0.0622121,-0.346162,-0.160294,-0.889356,0.373986,0.408463,0.844589,0.577765,0.256518,0.322022,0.22467,-0.769544,-0.863077,0.707046,0.487186,-0.342966,0.226333,-0.0939356,0.921637,0.517484,0.194325,0.276397,0.449429,-0.629379,-0.244725,-0.277189,-0.663119,0.835216,0.267373,0.326123,0.917849,0.0364101,-0.510397,-0.55454,0.342066,-0.189407,-0.980326,-0.262921,-0.111027,-0.402326,0.16564,-0.577018,0.783127,-0.678786,-0.61515,-0.97994,-0.782771,0.0266313,-1.03145,0.332475,0.369667,0.720541,0.287475,
-0.805821,-0.741385,0.675683,-0.583724,-0.782655,0.393255,0.823685,-0.217228,-0.432058,0.210496,0.857891,0.138619,0.0743674,0.750157,0.0886806,-0.63857,-0.56475,-0.867429,-0.768309,-0.484684,0.859785,0.316689,-1.00428,-0.667281,-0.132711,0.906809,-0.849825,-0.313109,-0.493931,0.162749,-0.505611,-0.635749,-0.967534,-0.0680057,0.000890798,-0.516761,0.384945,0.657649,0.494221,-0.844712,-0.0372443,-0.720052,-0.588059,0.068246,0.203036,-0.139378,0.499431,-0.349393,-0.149803,0.106599,0.190664,0.201377,0.647208,-0.950355,0.58108,0.150738,0.623237,0.0558887,0.614658,-0.635338,-0.463015,-0.627869,-0.602456,0.140483,-0.43905,-0.02236,-0.877907,0.776826,-0.451201,0.885715,-0.973523,0.152563,0.806846,-0.198582,-0.55417,-0.578801,-0.846736,-0.605141,-0.0909328,-0.0419266,-0.096219,0.536749,0.851614,0.693523,-0.332172,-0.0675876,0.861278,-0.464047,-0.421586,-0.582413,0.810759,0.549022,0.698079,0.840923,-0.330801,-0.497127,-0.123476,0.65064,-0.644366,-0.296264,0.523965,-0.335247,0.328788,0.236449,-0.715493,0.391901,-0.29483,0.610005,0.0298783,0.0145321,0.527833,-0.997901,0.126431,-0.00246223,0.248486,0.927569,-0.172989,0.520029,0.511344,0.846386,-0.771256,-0.621411,0.242587,0.881326,-0.950644,-0.798386,0.550292,-0.0261801,-0.274848,-0.810767,0.180655,0.653848,-0.422704,0.512537,0.211597,-0.0150466,0.438952,-0.863215,-0.68511,0.339951,0.100678,0.655907,-0.15014,0.319753,-0.479042,-0.406623,0.698452,0.542286,-0.951062,0.296469,0.35902,0.532802,0.20597,0.00924069,-0.86249,0.463199,0.438688,-0.468395,-0.366712,-0.644792,-0.767229,0.618983,0.414863,0.228145,-0.516572,0.125306,0.140155,-0.93463,0.480833,0.926387,-0.73604,-0.796692,0.125052,0.192489,0.428259,-0.849729,-0.520452,-0.903631,-0.612784,0.30803,-0.301031,0.313508,-1.01369,-0.813975,0.528758,0.408295,-0.424676,-0.133625,-0.750043,0.209799,-0.896214,0.760201,-0.0951514,0.0385318,-0.711934,-0.437478,-0.663333,0.768953,-0.322401,-0.47504,0.0729313,0.663016,-0.638857,0.474089,0.980914,0.669534,0.785819,-0.737049,-0.453992,-0.13434,0.416058,-0.368144,-0.674412,-0.37943,-0.923005,0.028608,0.355524,0.297248,0.11147,-0.620894,-0.450294,0.243683,-0.703324,-0.536603,0.407204,-0.0120633,-0.0838909,-0.751756,-0.853773,-0.471725,-0.979626,-0.802366,0.530762,0.805001,-0.935587,-0.594136,-0.0294847,0.205134,-0.633213,0.588232,0.614428,-0.392276,0.23281,0.186613,0.286022,0.693464,-0.458661,-0.877419,-0.61909,0.0718829,0.461289,-0.24642,0.113345,-0.521594,-0.215048,0.105163,0.394523,0.783625,-0.588999,-0.461601,-0.748444,-0.961028,-0.926016,-0.767341,0.452147,0.144243,-0.506824,-0.788062,0.389925,0.45197,-0.679836,-0.421798,-0.632875,-0.017379,0.505478,-0.0124416,-0.339269,0.708394,-0.64921,-0.0100802,0.436622,0.753304,-0.933812,0.335998,-0.0832594,0.512406,-0.975843,-0.140385,0.668766,0.772848,0.256465,-0.295255,0.395575,0.661317,-0.953042,0.799798,-0.677765,0.309856,0.0151172,0.338631,0.905241,0.502042,-0.728501,0.85008,-0.651582,0.57832,0.520042,-0.477181,-0.148891,0.0818416,-0.113827,-0.0195882,0.0197554,0.00249448,-0.634287,-0.306185,-0.000786281,0.331319,0.367626,-0.571725,-0.573998,0.553892,-0.115819,0.247813,0.124557,-0.418164,0.692206,-0.219528,0.35055,-0.994338,-0.777883,-0.914146,-0.422599,-0.266721,0.851152,-0.305635,0.133361,-0.461088,-1.01727,0.7239,0.187857,0.0188088,-0.962957,0.14891,-0.794534,-0.111484,0.515483,0.0221791,-0.932601,-0.0853106,0.414052,0.145168,0.695769,-0.366953,0.886197,-0.173548,-0.296191,-0.263765,-0.574426,0.343845,0.791807,-0.560923,-0.126147,0.284084,0.188108,-0.179565,0.865117,0.709764,-0.558911,0.684195,0.14789,0.524276,-0.395595,-0.918296,0.337225,0.963887,-0.414352,-0.271353,-0.448582,0.496554,0.579066,0.557977,-0.436071,-0.0100156,-1.01307,0.552447,0.799056,0.0958132,0.757926,0.239351,-0.841718,-0.651465,
-0.497969,0.439183,-0.882487,0.204998,0.076659,-0.47191,-0.293627,0.358702,-0.499303,0.948706,0.513855,0.261577,-0.632175,-0.377813,-0.374323,-0.612452,-0.585819,0.181391,0.846134,0.0979011,0.144283,-0.839135,-0.280108,-0.398279,0.057538,0.725633,-0.467454,0.150458,0.444199,-0.824272,-0.310277,-0.323572,-0.0670052,0.0254144,-0.146289,0.506094,0.923899,0.555378,0.399323,-0.12062,0.769113,0.970258,-0.833282,0.444866,0.701889,0.60586,-0.703324,-0.557017,0.152205,-0.307259,-0.524626,-0.0122652,0.105451,-0.330313,-0.733501,-0.0219019,0.409426,-0.0459782,0.0632919,0.729349,0.286876,0.8525,-0.0193026,-0.692136,-0.142305,-0.991089,0.813994,0.867152,-0.360939,-0.725595,-0.752005,0.42733,0.104936,-0.0812954,0.285474,0.687884,-0.075091,-0.854217,-0.258523,-0.806306,-0.529277,-0.648001,0.327602,0.34555,0.380376,0.876063,-0.729424,-0.0155131,-0.104065,0.181375,0.484403,-0.0502708,-0.307534,-1.00472,-0.577815,-0.859605,-0.101886,0.619865,-0.249311,0.166511,-0.806452,-0.421786,-0.387888,0.869955,0.126686,0.173294,-0.927117,0.978451,0.659047,0.706305,-0.66583,-0.891134,-0.895638,-0.127658,0.3031,-0.0760584,0.952901,-0.652412,0.913732,-0.86988,0.675749,0.353,-0.452613,-0.765947,-0.440802,0.261303,0.81501,0.446675,-0.287453,-0.134217,-0.217728,0.466713,0.770267,0.466664,-0.274566,-0.531764,-0.0997178,-0.114068,-0.364328,0.086365,-0.845593,0.328232,0.0487054,-0.687481,0.761712,-0.423155,0.0387247,-0.336078,0.23259,0.850009,0.302916,-0.448179,0.654799,-0.896254,0.62338,0.435601,0.914822,-0.664657,-0.875191,0.59107,-0.920234,0.646059,0.463696,0.259523,-0.509231,-0.196987,-0.276946,-0.102385,0.478825,0.52951,0.508002,0.738752,-0.527784,-0.517833,-0.380638,0.205739,-0.955168,0.127429,0.37686,0.498751,0.525689,-0.340922,0.841233,-0.711275,0.781151,-0.390912,0.768447,-0.730363,0.373802,-0.29733,-0.658726,0.789064,-0.221136,0.904117,-0.443101,-0.590583,-0.350088,-0.709061,0.271054,-0.365015,-0.656363,-0.97919,0.224,-0.265414,-1.00144,-0.661322,-0.325625,-0.697236,-0.95235,-0.321378,0.422607,-0.02717,-0.388573,-0.790881,0.51237,-0.664132,0.284713,-0.473052,-0.419156,-0.924849,-0.97037,-0.8048,-0.156914,0.411723,0.782309,-0.743335,-0.476114,0.525075,0.62885,0.0829083,-0.738807,0.488409,0.4887,0.746956,-0.851614,0.62247,-0.849954,-0.37759,-0.919484,-0.728803,-0.286621,0.792227,0.0133121,0.952268,-0.00311765,-0.117022,0.899205,-0.302819,0.584052,-0.278599,0.00606502,0.775466,-0.271979,-0.0191749,0.642741,-0.769661,0.946774,-0.0389876,0.0569077,-0.344165,0.528806,-0.393178,-0.872245,-0.357711,0.869927,-0.701037,0.432551,-0.237666,0.617332,0.676994,0.443992,0.367678,-0.758897,0.380086,-0.851742,0.697474,-0.212288,0.944628,-0.966573,-0.706025,-0.378924,0.849162,0.781163,-0.919014,0.289877,0.552453,-0.289854,0.199194,-0.770119,-0.775753,0.871887,0.617736,0.718349,-0.285657,0.431592,-0.106687,0.8505,0.870749,-0.222281,-0.137046,0.842627,0.931861,-0.957704,0.853092,-0.525019,0.908951,-0.145685,-0.781825,0.226721,-0.453278,-0.100099,0.867734,-0.253321,-0.551395,0.689694,0.918788,-0.915609,0.0533418,-0.188992,-0.0715317,-0.259653,0.187541,-0.570411,0.324929,0.552867,0.0396212,0.703862,-0.63906,-0.0650297,0.141387,0.448061,-0.713725,-0.0764098,0.8893,-0.914107,0.352983,-0.477656,0.769799,-0.166673,-0.157958,-0.307821,-0.805768,-0.590985,-0.851753,-0.719196,-0.716818,-0.00590393,-0.591467,0.349032,-0.526032,-0.438048,-0.0522573,0.0207844,-0.106751,-0.641226,-0.758403,-0.27112,0.0234765,0.386269,-0.774574,0.259096,-0.523736,-0.23916,0.200084,-0.0677974,0.66368,0.97871,-0.293478,0.0139368,0.755996,-0.175646,0.376762,-0.507258,-0.0431414,0.766315,0.562294,-0.898288,-0.477632,0.872426,0.0371893,0.243169,-0.668134,0.459527,0.782432,-0.226594,-0.208734,0.976078,-0.295962,-0.855241,0.12697,0.966995,-0.899359,
0.0993067,-0.469377,-0.432889,-0.082575,0.409912,0.960755,0.117416,-0.503978,0.357949,-0.790752,0.254397,0.013033,-0.0792203,0.270678,0.124225,0.663308,-0.0739934,0.917161,0.863287,-0.37732,-0.717075,-0.0737935,-0.654709,0.439046,-0.370296,-0.642215,0.711636,-0.0193818,-0.0214038,-0.477821,-0.35574,-0.35525,-0.410463,-0.0912449,0.762846,0.348322,0.821806,0.965094,-0.0985404,-0.704688,0.169292,0.0479809,-0.450438,0.592419,0.768492,-0.373089,0.655564,-0.929032,0.112037,0.928182,0.41376,0.541593,-0.853839,-0.224777,-0.636356,0.661364,0.678742,-0.891832,-0.0507245,-0.40099,-0.392677,-0.56032,-0.492303,0.296512,0.388108,0.749829,0.468222,-0.369162,0.581158,0.0300274,0.372674,-0.913255,0.476702,-0.823768,-0.211896,0.763953,0.50517,0.326287,-0.17351,-0.257239,-0.367913,-0.821232,-0.13128,0.137992,0.303802,-0.382543,0.0638481,0.370794,0.703217,-0.758034,-0.748259,-0.824748,-0.822267,-1.00747,0.338765,0.0732529,0.413561,-0.222357,0.142654,-0.0260532,-0.630687,0.0940703,-0.63553,-0.51865,-0.727077,-0.0369461,-0.636818,-0.616279,-0.370236,0.591848,0.766143,-0.040424,-0.961205,-0.443946,0.00223717,0.598902,-0.551127,0.540317,-0.719058,0.512392,0.949069,0.936989,0.495262,0.778347,0.637396,0.816478,0.959109,0.0289626,0.893831,-0.350661,-0.906375,0.966736,-0.920679,0.351165,-0.983493,0.205601,-0.49448,-0.264623,-0.554077,0.0626139,0.45572,0.86425,-0.0507506,-0.202835,-0.235461,-0.811066,0.963081,-0.923244,-0.883725,0.562877,0.106263,-0.438127,-0.231664,0.809226,-0.299399,-0.098429,0.575213,0.601789,-0.841523,0.893864,0.236683,0.977045,0.536414,0.430345,0.405554,0.751601,0.0830734,0.00103708,-0.98908,0.0855019,0.95004,-0.977968,0.0241948,0.23795,-0.938655,0.384232,-0.734823,0.070779,-0.219026,0.87505,0.604393,0.829146,-0.939002,-0.239591,0.572238,-0.897806,0.314107,-0.303982,0.149545,0.903236,-0.709485,0.0437234,0.851974,0.492338,0.657103,0.821918,-0.750861,0.655981,-0.597553,-0.425101,0.591265,-0.315704,-0.875934,-0.793904,0.521363,-0.0738685,0.744932,0.120866,-0.922601,0.3004,-0.762384,-0.703425,0.0513896,0.583943,0.840379,0.0127675,-0.40436,0.802924,-0.0300619,-0.72368,-0.0968587,-0.0378104,-0.654882,0.923205,0.751996,0.666137,-0.818325,0.913712,0.165467,0.52035,0.348388,0.587615,-0.403058,0.691733,-0.396239,-0.309335,0.778936,0.579177,0.346893,0.0539337,-0.408056,-0.769959,0.192856,0.609984,0.671991,-0.416465,0.571312,0.928957,-0.390631,0.327102,-0.0425119,0.473832,-0.156128,0.858407,0.473344,0.233262,0.0905788,0.218799,0.347692,-0.891182,-0.446363,0.458935,-0.230953,0.670157,0.529526,0.593545,0.825545,0.396592,-0.338876,0.539846,0.73292,0.620721,0.615254,0.32707,-0.327462,-0.750517,-1.00045,-0.5876,0.0715588,-0.159282,-0.184004,-0.554567,-0.775198,0.747832,-0.596116,0.690317,0.858158,0.202203,-0.884805,-0.480422,-0.715958,-0.487329,-0.23135,0.491402,0.530721,0.503782,-0.64903,0.570425,-0.606854,0.887472,-0.719668,0.466572,0.420386,-0.513329,-0.0678893,0.543436,0.801269,-0.776334,0.609005,0.147254,0.109954,0.0485842,-0.421413,0.85258,0.606367,-0.66761,-0.237195,-0.238854,0.00549175,-1.00183,0.469555,-0.752456,0.613075,0.447788,0.53988,-0.158873,-0.139496,0.774476,-0.780909,0.861113,-0.541951,0.0190395,0.0169518,-0.678983,-0.589885,0.0672476,0.142141,0.144648,0.339557,-0.613275,0.141822,-0.73624,0.737055,0.266079,0.127108,-0.523849,-0.45979,-0.0525762,-0.644883,0.615692,-0.947082,-0.694949,0.666857,-0.426206,0.314626,-0.0614059,0.11434,0.0869214,0.304594,-0.293696,-0.00272404,-0.161086,-0.441757,-0.460347,0.433168,-0.265795,0.474392,-0.907715,0.591813,-0.102661,0.0888744,-0.339889,0.475614,0.140019,-0.907797,0.291143,0.1495,-0.870578,0.861485,-0.404632,0.230092,-0.226402,-0.221424,0.314651,0.499922,0.340218,-0.874976,0.569358,0.404735,0.703224,-0.838705,-0.882592,
0.0441015,0.117923,0.336075,-0.339917,0.079468,0.524733,0.231417,-0.796415,-0.536959,0.689074,0.62197,0.468821,0.837154,-0.195832,-0.608882,-0.188376,-0.214313,-0.23712,0.617831,0.901363,0.396438,0.38828,-0.627067,-0.918299,-0.94612,0.709913,-0.622587,0.5225,0.967004,0.119971,0.154077,0.56099,0.178737,0.650371,-0.749434,0.628561,-0.41205,-0.584402,-0.222071,-0.692647,0.306762,-0.904452,-0.25341,-0.698917,0.259168,0.925562,0.854709,-0.840872,-0.249865,-0.469151,-0.273976,-0.51386,-0.637962,0.800151,0.800003,-0.164522,0.960653,-0.700593,-0.354278,-0.504689,-0.491227,-0.68775,-0.988975,-0.422498,-0.716941,0.204397,0.450108,-0.701176,0.576925,-0.542712,0.979779,0.0328563,-0.699908,0.557499,-0.797032,-0.242975,-0.396932,-0.835636,-0.790564,0.15773,0.775553,0.661684,-0.784568,0.033964,0.870727,-0.205684,0.053824,-0.833593,0.335011,0.842459,-0.763351,-0.156539,-0.952534,-0.869471,0.239649,-0.456683,0.854309,0.866477,0.729112,0.249535,-0.562609,0.0759869,0.802572,-0.858192,-0.30189,0.697268,-0.438615,-0.99454,0.737927,-0.936222,-0.519121,0.75008,0.626441,-0.928108,0.736538,-0.49029,-0.977847,0.95198,0.272088,-0.481028,-1.01007,-0.695702,0.349774,0.660788,-0.216621,-0.254833,-0.171884,-0.10421,-0.55941,-0.278993,-0.165645,-0.411308,0.225805,-0.248622,-0.377392,-0.275136,0.468522,0.119263,0.683237,-0.454848,-0.373381,-0.882631,-0.122669,-0.173301,-0.394468,-0.61771,-1.00863,0.0902821,0.407377,-0.776549,-0.614042,-0.913064,-0.579837,0.771036,-0.101801,-0.0712812,0.174333,-0.765561,0.460045,0.0760312,0.405854,-0.177984,-0.405081,-0.337372,0.924499,0.443668,0.233003,-1.01063,-0.568454,-0.171028,-0.579903,0.242727,0.426634,0.148127,-0.146884,-0.802821,0.654711,0.401047,-0.77633,-0.0677297,-0.487997,0.00707762,0.900958,-0.514979,0.9817,0.177567,0.258417,-0.513877,0.722158,0.0821915,0.0165556,0.595285,-0.398571,0.166504,-0.82294,0.282209,-0.72259,0.655721,0.533144,0.777071,0.27235,-0.500075,0.676088,0.309467,-0.148813,0.903662,-0.968467,-0.150903,-0.599755,0.866318,0.167695,-0.535211,-0.212325,0.786175,0.0842579,0.0683702,-0.0889275,-0.843352,0.80019,-0.189499,-0.127658,0.655595,-0.651902,-0.367524,0.0881406,0.261356,0.367572,-0.561588,-0.829818,0.170177,0.700124,-0.87895,0.660505,-0.141705,-0.966182,-0.0352236,0.412738,-0.640199,0.219971,-0.729595,0.588457,0.825885,0.0949863,0.156059,-0.564044,-0.581182,0.551506,0.411266,0.135343,-0.582314,-0.644969,0.117687,-0.0190227,-0.585801,-0.801119,-0.101824,0.588353,0.704438,0.580707,-0.232309,-0.239527,0.243157,0.00557167,0.693391,0.835974,0.234549,-0.146611,-0.796654,-0.802644,0.197213,-0.52142,-0.914747,-0.99438,0.131841,-0.373401,-0.175089,0.0631192,0.382432,0.729684,0.871792,0.206004,0.204603,-0.169781,-0.281851,-0.381375,0.520945,0.376321,-0.626592,0.841601,0.243705,-0.0023224,-0.563917,-0.969533,0.0125717,-0.265334,-0.495246,-0.317655,0.145861,0.159939,-0.165416,-0.596662,0.612798,-0.377086,-0.175476,-0.705521,0.263632,0.913164,0.255552,-0.266019,-0.579319,0.613976,-1.00167,0.121258,0.63799,0.402152,-0.347828,-0.162621,-0.700124,0.656533,-0.593042,0.337403,-0.480811,0.719691,0.815732,0.817935,0.232264,-0.693311,-0.803642,0.487073,0.129396,0.733107,0.263641,0.174409,0.117962,0.0491744,-0.849029,-0.179475,0.410491,-0.61922,-0.895061,0.777954,0.887588,-0.953623,0.193862,-0.678173,-0.455502,0.297393,0.559631,-0.0381222,-0.183183,-0.0181562,-0.695311,0.718839,-0.526948,0.0363422,0.552292,-0.0638055,0.658455,0.507987,0.365254,-0.78352,0.389129,0.490161,0.655426,-0.215156,0.973021,-0.156984,0.826125,0.306025,0.423364,0.0369066,0.751544,-0.872445,0.0874186,-0.147281,-0.998678,0.603666,0.450555,-0.0631683,0.217311,-0.547631,0.566982,0.429269,0.19323,-0.679667,-0.0960146,-0.00204478,0.693761,-0.949242,0.191456,0.831035,0.688258,
0.157737,-0.794484,-0.941811,-0.410002,-0.503232,-0.705155,0.935119,0.24268,0.630606,0.797413,0.143396,0.296977,-0.523685,-0.931754,-0.300183,-0.269014,-0.899718,0.303037,-0.326361,0.870216,0.733692,-0.856764,-0.404223,-0.734995,0.0192908,-1.01259,-0.0305595,-0.026796,0.664275,0.0513433,0.886044,-0.0911662,-0.415033,0.0930184,-0.205163,0.244077,-0.459613,0.317059,0.278116,0.722946,0.0262114,0.577603,-0.218673,0.136035,-0.981554,-0.463849,-0.961454,0.583349,0.866348,-0.929885,-0.705245,-0.303067,-0.83389,-0.0376785,-0.828162,0.127761,0.759166,0.249214,-0.487694,-0.165644,-0.321923,-0.224304,0.24479,-0.37488,-0.730556,0.688017,-0.792693,-0.976965,0.632074,0.0898768,0.424859,-0.801077,-0.709403,0.321481,-0.758206,0.0410327,0.0751105,-0.42536,-0.502612,-0.857032,-0.00756935,0.784425,0.893821,-0.0371425,0.0946559,-0.641912,0.206456,-0.428551,0.802703,-0.286489,-0.52912,0.963143,-0.149042,-0.58875,-0.73397,0.160233,-0.532511,0.913701,0.11975,0.0983124,0.811998,-0.0817117,0.624418,0.516752,0.573314,0.610183,0.634593,-0.320278,0.980779,-0.883482,-0.0376164,-0.0477232,0.790267,0.184442,0.806276,0.467384,0.125649,-0.201823,-0.0178944,0.75477,0.69059,-0.797753,-0.676624,0.637944,-0.2819,0.731988,-0.835062,0.404262,-0.630077,-0.71036,0.0611037,-0.509818,0.590766,0.980564,0.764056,0.5692,0.823881,-1.0013,0.436073,0.46035,-0.23555,0.977435,-0.60466,-0.680419,-0.161385,-0.961157,0.312252,0.140679,0.381954,0.430995,-0.424961,-0.739787,0.959849,-0.0708382,-0.428619,0.713512,-0.0117339,0.70443,0.873507,0.0163034,-0.855498,-0.678791,-0.0459481,-0.519708,-0.195768,-0.0814551,0.569393,-0.143508,-0.346327,-0.0252079,0.0787911,0.576071,-0.75392,-0.701112,-0.448471,-0.864412,0.0685393,0.213203,0.342876,0.735135,0.642659,0.747539,0.0213235,0.30454,-0.173135,0.604098,0.417163,-0.851207,0.595542,-0.513057,0.587868,0.796095,-0.622981,-0.442841,-0.790831,-0.660033,-0.401056,0.246335,0.397252,-0.336323,0.928265,0.101263,-0.313124,0.53543,0.979845,0.728851,-0.20722,-0.0291236,0.838333,-0.243259,0.575299,0.5072,0.283191,0.486088,0.979845,0.960538,0.930089,0.401598,-0.345379,-0.771398,-0.696468,0.102214,-0.684749,-0.475446,-0.180603,-0.675094,0.468741,-0.18632,-0.68353,-0.216656,-0.176925,0.574404,0.399055,0.551722,0.548415,0.90946,-0.100158,-0.511099,-0.152023,-0.435462,-0.00162912,-0.487798,0.026608,0.682232,0.434597,-0.14607,0.168388,-0.764254,0.710159,-0.569474,-0.510976,-0.617483,-1.01636,0.7796,0.453131,-0.642462,-0.325303,0.835124,-0.354148,-0.0938317,0.498489,0.700566,-0.657874,-0.584954,0.608479,0.190111,-0.309964,0.802461,-0.511493,0.668744,0.17639,-0.697868,0.245613,0.184316,-0.620806,-0.993904,-0.476932,0.527079,-0.463252,0.475396,-0.345554,0.928078,0.23921,-0.530291,0.0454652,0.843104,0.435052,0.12571,-0.151645,-0.43613,-0.496873,-0.00855785,-0.0767497,-0.910105,0.422073,0.884255,0.0151913,-0.714458,-0.87429,0.804833,-0.528301,0.754129,-0.0470536,-0.758667,0.372406,0.55023,0.774501,-0.674869,-0.413197,0.24548,0.251601,0.106914,-0.354857,0.70882,-0.334176,0.302803,0.574034,-0.824765,0.268411,0.720049,-0.686805,0.868773,0.31575,0.888631,-0.260208,-0.206034,0.9273,0.913346,0.232884,0.0224355,0.804227,-0.0903207,0.679502,0.400979,0.110497,-0.0718169,-1.01916,-0.793254,-0.653471,0.564547,-0.0462072,-0.586021,-0.26749,-0.0822499,0.404649,0.263323,-0.322902,-0.133196,0.209452,0.453557,0.137225,-0.496121,0.189562,-0.56756,0.769141,-0.790834,0.0691781,-0.979182,-0.704008,-0.740677,0.213505,0.0919222,-0.00509128,-0.0614746,-1.01407,-0.132225,-0.569072,-0.44517,-0.287679,-0.724761,-0.558839,0.118176,0.202661,0.895109,-0.717367,0.215038,-0.222991,0.559667,-0.608953,-0.948011,0.677893,-0.816387,-0.932969,0.603883,-1.00352,-0.709472,-0.835459,-0.34508,0.50779,0.317762,0.688865,-0.558983,
0.105917,-0.486468,0.815496,0.938115,-0.0901632,0.487092,-0.714852,0.404929,0.469783,0.331127,0.201006,-0.689285,0.11687,-0.625121,0.079214,0.798926,-0.630927,0.129558,0.47114,0.0939327,0.0141363,-0.162068,0.745114,-0.211741,0.864644,0.18207,0.714699,0.482142,0.518654,-0.415697,0.668279,0.776203,-0.318695,0.581916,-0.618948,-0.895926,-0.714882,-0.304014,0.300697,0.183951,-0.488751,-0.841712,0.863115,-0.832868,-0.272028,0.887907,-0.075096,-0.028726,-0.715706,-0.506745,0.499184,0.199646,-0.361082,-0.0499066,0.52098,-0.942166,-0.954985,-0.893398,-1.00427,-0.259899,0.832621,-0.0784714,0.464728,-0.676129,-0.46463,0.943549,-0.733802,0.182555,-0.966204,0.90585,-0.602969,-0.0834272,-0.703643,0.169333,0.855869,-0.40648,-0.937339,-0.891994,-0.450729,0.9187,0.845298,-0.707292,0.542209,-0.0999986,0.898718,0.956028,-0.385245,0.261149,0.0248083,0.395565,0.190241,-0.748468,0.360716,0.158046,0.190184,0.640178,0.987905,0.66713,0.838635,-0.77734,-0.307901,-0.718778,-0.757161,0.809196,0.140845,0.677609,0.676056,-0.191493,0.131398,-0.143005,-0.688926,-0.715338,-0.897781,-0.452736,-0.541317,0.575401,0.81021,-0.252251,0.325357,0.541103,-0.440953,0.216073,0.181649,0.67915,0.89568,0.470096,0.0512893,0.86879,0.710087,0.165036,0.625587,0.157592,-0.743341,0.375091,-0.324993,0.21412,0.963906,-0.703703,-0.783808,-0.893025,-0.457967,0.377754,-0.139305,-0.31112,-0.403187,-0.437539,0.930061,0.61056,-0.299784,0.686623,-0.712216,-0.122187,0.310569,0.549036,-0.703213,-0.566142,-0.405474,-0.795277,-0.691956,-0.573469,0.142572,0.0379456,0.795819,0.910331,-0.945055,-0.00596386,-0.38426,0.570748,0.253097,-0.967846,-0.706295,0.917567,-0.602472,-0.430423,0.0480259,-0.882726,-0.98629,-0.691591,-0.486582,-0.160085,0.528387,0.165091,0.182453,-0.65311,-0.598392,0.332996,-0.19652,-0.819287,-0.384006,0.0560835,-0.356033,0.597818,-0.413216,0.546129,0.72003,-0.547197,0.452118,0.171662,-0.78529,0.876093,-0.194819,-0.923013,0.0633214,0.505509,-0.822945,-0.342343,-0.168767,0.489274,-0.88488,-0.575645,0.790012,0.739742,0.127289,-0.00710883,0.879314,-0.140228,-0.27715,-0.222015,-0.147127,0.846037,0.73987,0.863493,0.288362,-0.12062,0.574549,0.385038,-0.249566,-0.485621,-0.777899,-0.158137,0.66709,0.900673,-0.530473,0.0508022,-0.347676,-0.518004,-0.861113,-0.559883,0.636585,0.980187,-0.704726,0.587185,0.0884182,-0.758693,0.865593,-0.396634,0.955108,0.290231,-1.00534,-0.588429,0.888799,-0.604883,0.542748,-0.887385,0.378302,0.198378,0.324801,0.935458,-0.259626,-0.263731,0.45372,-0.457905,-0.686593,-0.575203,0.920607,-0.949257,0.137438,0.797171,-0.182061,-0.559241,0.899946,0.373317,-0.859893,0.568436,-0.924541,-0.250369,-0.802003,0.541313,0.181825,-0.119492,-0.743191,0.965323,0.920342,0.112841,-0.0166228,0.894991,0.171832,-0.154965,-0.631799,-0.232591,-0.524393,0.334896,-0.72773,-0.604224,-0.441208,-0.805608,0.352161,-0.096431,0.523464,-0.0175792,-0.357912,0.0125568,0.93764,0.864626,0.489171,-0.661713,0.455435,-0.780615,0.745521,-0.500572,0.717744,-0.235685,-0.288431,-0.0862256,-0.997117,0.376392,-0.313367,-0.583408,-0.91324,-0.261442,-0.900544,-0.219954,-0.464142,-0.235778,-0.839849,0.953771,0.623603,0.865498,0.299086,-0.99353,-0.539,0.398435,-0.242074,-0.116283,-0.971951,-0.23945,-0.233584,0.859938,0.347956,-0.543011,-0.942844,-0.398815,-0.90309,0.0179537,-0.660584,-0.773813,-0.0936973,-0.69019,-0.152726,-0.846189,0.948108,-0.273075,-0.318965,-0.327987,0.746219,-0.205582,-0.490038,-0.860369,-0.71898,0.314912,-0.776737,0.917723,0.0719256,-0.932642,-0.210165,0.332891,-0.169305,0.565153,0.751158,-0.348366,-0.611701,-0.844673,0.464692,-0.790569,0.181849,0.798236,0.0382051,0.292507,-0.978202,-0.689491,-0.140824,0.394557,0.25253,0.820391,0.316487,-0.0230483,0.595028,-0.612993,0.814306,0.186726,0.461841,-0.0162598,
0.236758,0.297872,0.657104,0.411661,-0.0748205,-0.644226,-0.77727,0.564959,-0.713508,-0.0642144,0.368805,-1.00159,0.933141,0.856479,0.646738,0.357882,0.0410448,-0.199379,0.905173,0.587733,-0.545748,0.630918,0.153978,-0.38272,-0.270242,0.406359,0.300864,-0.0544795,-0.36524,-0.453106,0.632874,0.963145,-0.164297,0.852622,-0.847186,-0.658086,-0.973545,-0.666212,0.52611,-0.872548,-0.14333,0.191075,-0.534759,0.653008,0.640739,-0.945643,-0.948474,0.010885,-0.434096,0.834996,-0.486055,-0.936036,0.186565,-0.36593,0.424286,-0.318825,-0.543396,0.864629,0.416074,0.75856,0.477969,-0.606577,-0.645649,0.822501,-0.286968,0.0899429,-0.100091,-0.548628,0.4062,-0.408307,0.713766,0.206996,0.6085,0.788201,-0.533396,-0.0808645,0.852297,-0.18859,0.824807,-0.622689,-0.359927,-0.0577809,-0.428724,-0.685329,-0.85944,0.88773,-0.413794,0.212181,0.576218,-0.594828,-0.14358,0.0082048,-0.947453,-0.933638,0.768256,-0.177447,-0.943984,-0.0684595,0.533222,-0.559908,0.785531,0.148176,0.320984,0.651961,0.410908,0.868056,-0.231452,0.359023,0.830624,0.869243,-0.756851,0.412246,0.233308,0.511968,0.161228,0.765563,-0.342393,0.823815,0.60491,0.00483489,0.670036,0.514768,-0.866966,-0.95907,-0.822749,0.53061,0.894171,-0.0860786,0.673266,0.0263146,-0.628394,-0.959852,-0.674264,0.916339,-0.392104,0.352377,0.39596,0.851205,0.675202,-0.90068,0.982303,-0.177805,-0.356512,0.0349065,0.662057,0.0100818,-0.911506,0.156234,-0.319069,-0.870651,0.146268,0.39513,0.141536,0.840312,0.5245,-0.482996,-0.714064,0.108598,0.0131294,-0.773916,0.393803,0.448835,0.962094,-0.423791,0.0718644,0.082705,0.616603,-0.543075,0.0249072,-0.994159,-0.996497,0.497143,-0.119524,0.578257,-0.569672,-0.0806401,-0.478157,0.58022,0.458475,0.166387,-0.591404,-0.322727,-0.674989,0.579582,0.75834,-0.0065896,0.276903,-0.625319,-0.0857962,0.235292,0.96327,0.871638,0.626496,-0.873033,0.115923,-0.399343,-0.111589,0.0759519,0.500059,-0.678214,-0.587158,-0.0344292,0.687715,0.352631,0.0921028,0.39141,-0.788498,-0.955252,0.590826,-0.463039,-0.050913,0.610333,0.942566,0.974906,-0.889914,0.92721,-0.289184,0.591995,-0.839249,0.03443,-0.674035,0.818496,0.920304,-0.0988025,-0.790181,-0.670284,-0.262384,-0.179462,-0.320761,-0.158788,0.189381,0.740859,-0.498263,-0.512195,0.602044,-0.415066,-0.731897,-0.626584,0.45034,0.384871,-0.00159422,-0.618757,-0.977473,0.806983,0.259584,0.929438,-0.0938423,-0.464525,-0.590661,0.567323,0.484401,0.854616,-0.76171,-0.390146,0.962733,0.582125,0.416056,0.126535,-0.533804,-0.418316,0.539049,0.191416,0.588968,0.0896102,-0.182175,-0.0390522,0.879185,-0.0484255,0.468294,-0.183301,-0.579643,0.228904,-0.495792,0.819864,-0.653142,-0.362408,0.00826827,0.662645,0.963522,-0.475159,0.604338,0.513533,0.307796,0.707703,0.152744,0.131323,-0.589778,0.305378,-0.768677,-0.724348,-0.301925,-0.626647,0.512622,0.748227,0.831423,-0.779299,-0.201125,0.685457,-0.44742,-0.279592,-0.742222,0.608991,0.473501,-0.314483,-0.0179751,0.923236,0.34633,0.0829181,0.431344,-0.473522,-0.674263,-0.234634,-0.353978,-0.695543,0.752795,-0.429817,-0.862592,0.00618474,0.105945,-0.498884,0.842819,-0.472294,0.844391,0.11821,-0.3417,-0.858793,-0.534143,-0.556968,-0.307654,0.0353673,-0.407018,0.114896,0.756992,0.0405928,-0.926683,0.0847457,-0.760994,-0.344436,0.814083,-0.516679,0.425273,0.104482,0.919684,-0.595719,-0.706611,0.099537,0.438358,-0.500911,-0.0741473,0.413367,-0.180873,-0.302875,-0.50065,0.409897,-0.43112,0.433069,-0.157878,0.202224,-0.960633,-0.893546,0.680306,-0.0951954,0.595967,0.0568029,-0.404246,-0.189733,0.0511613,-0.490966,-0.282668,-0.176198,0.136892,-0.480176,-0.586104,0.098183,-0.205872,-0.686336,-0.496902,0.92947,-0.819835,-0.549111,0.589133,-0.571115,-0.802162,-0.24671,0.344394,-0.563476,-0.47897,0.216061,0.621535,-0.204117,-0.0256164,0.200723,
-0.808441,-0.628327,-0.173018,0.573597,-0.816081,-0.463155,0.265866,-0.52716,-0.395648,0.702017,-0.0880114,-0.0514355,0.263949,-0.554748,-0.10389,0.751442,0.860757,-0.476946,-0.293885,0.0776777,0.842222,0.442771,-0.699058,0.46751,-0.0823255,-0.304153,-0.85019,0.458891,0.540296,-0.568539,0.55736,-0.657504,-0.230709,0.817573,0.757912,-0.535947,0.639811,-0.912438,0.924424,0.651038,-0.949391,-0.486932,0.309493,0.128249,-0.349434,-0.632464,-0.272069,-0.397791,-1.00168,-0.611199,-0.196453,0.0797038,0.186124,-0.402521,-0.858585,0.848233,0.865108,-0.519916,-0.785155,-0.679216,0.32899,0.714601,0.558319,0.733486,-0.372562,0.515266,-0.634301,0.538581,-0.3806,-0.583744,0.363026,0.43415,-0.0993993,-0.799255,0.841343,0.383761,-0.574871,-0.865404,-0.308423,-0.933866,0.542556,0.459751,-0.166743,-0.891371,0.884139,-0.479451,0.440748,0.804846,0.402556,-0.193896,-0.0978587,-0.225837,0.850583,-0.553812,0.708793,-0.729552,0.978,0.941632,0.0832642,0.282894,0.756272,0.701082,0.276647,-0.211653,0.0174125,0.420184,-0.699165,0.285906,-0.505146,-0.971135,-0.0691383,0.814744,0.84764,-0.147283,-0.460893,-0.304677,0.586738,0.940953,0.818965,0.143981,-0.551624,-0.241336,-0.225006,0.673888,-0.617147,0.402357,-0.664835,-0.644801,-0.626273,-0.928678,0.0370179,-0.410394,0.978678,-0.660138,0.024414,0.239556,-0.033489,0.0907324,0.338056,-0.706982,0.648693,0.29649,-0.178436,0.330245,0.515753,-0.852607,-0.0695792,0.157012,0.688754,0.0177071,0.250809,0.327163,-0.69294,0.744191,-0.328784,0.916864,0.270364,0.313242,-0.722847,0.190217,0.630423,-0.375438,-0.348138,-0.699142,-0.143801,0.0693845,0.63723,-0.96388,-0.654428,-0.981343,0.542166,-0.502011,-0.671438,-0.841485,-0.172904,0.475082,0.543356,-0.314206,0.377338,-0.583979,0.812489,0.834246,0.910306,0.461884,0.216451,-0.163835,0.477359,-0.52081,0.0640288,0.788543,0.229042,0.17605,0.2935,0.531512,-0.270973,0.864201,-0.299772,-0.602962,0.613581,-0.0399301,-0.295388,0.302857,0.046719,0.00376604,-0.0149746,0.869848,0.663552,-0.962952,-0.679643,-0.723357,-0.277466,-0.564752,-0.353655,-0.314891,-0.097761,0.835135,0.337964,-0.144751,0.493419,-0.683968,-0.616914,0.77281,0.324061,-0.21395,0.15871,0.0210117,-0.724587,-0.156182,-0.839981,-0.0316684,0.699096,0.178447,-0.0952438,0.678208,0.46005,0.0634577,-0.775294,0.316339,-0.734934,0.260553,0.0634759,-0.185781,0.81141,-0.389315,-0.115834,0.804685,-0.893318,0.192615,0.556017,-0.534093,-0.394389,0.81269,0.779358,0.55548,-0.00919999,-0.406004,-0.651918,0.656046,0.825365,-0.535259,0.190416,0.531287,0.175629,-1.00177,-0.337752,-0.192184,-0.624676,0.381708,-0.0984731,-0.601063,0.0522647,0.647879,0.541398,0.110674,0.551647,0.167195,-0.00344278,-0.859539,0.560181,0.00619948,0.492624,0.372688,-0.0789535,-0.24266,-0.666809,0.471375,-0.282842,0.784886,0.110833,0.453549,-0.404533,-0.0664519,0.607933,0.448797,0.107453,0.509595,0.89063,-0.0773471,0.104294,0.703632,0.921744,-0.877861,0.403653,0.777847,-0.103696,-0.380147,0.319525,0.595082,-0.373035,0.234662,-0.262939,0.0412872,-0.608558,-0.901416,-0.677475,0.800557,0.759413,0.927771,0.200117,0.955323,-0.934536,-0.399996,0.270789,0.243308,-0.0630795,-0.985875,-1.01874,-0.14671,0.469603,-0.495407,-0.820461,-1.01824,0.342055,0.584204,-0.233681,0.0824415,-0.581622,-0.391981,0.51758,0.917014,0.153605,0.153189,0.321898,0.356906,0.64209,-0.45668,0.270666,-0.562944,-0.557957,0.448214,0.831703,-0.561556,-0.637743,0.781701,-0.231539,-0.851664,-0.685157,0.110289,0.819133,0.367754,0.607941,0.47373,0.676007,0.944567,0.174787,-0.134011,0.814498,-0.0855847,-0.815594,0.151089,-0.778428,0.140488,-0.873796,-0.052596,-0.782881,0.358086,-0.643792,-0.0703298,0.682156,-0.421146,-0.258561,-0.876508,-0.827509,-0.315207,-0.564571,0.531831,-0.74484,0.626419,0.471611,-0.882708,-0.986062,-0.745121,
0.773372,0.48462,-0.664371,-0.112555,0.196535,0.00348658,-0.742692,0.223872,-0.432743,0.848147,-0.268411,0.0928733,-0.0420384,-0.395526,-0.411012,0.677755,-0.434927,-0.364168,0.0591605,0.153923,-0.257896,0.4491,-0.830611,0.78795,0.865637,-0.267084,-0.620952,-0.199913,0.953944,-0.629924,0.323881,0.414189,-0.370377,-0.681824,0.202658,-0.52787,0.222906,-0.947091,0.601433,0.55234,0.578774,0.910061,-0.759524,-0.563663,0.305676,0.117811,0.547601,0.495167,0.538405,-0.565146,-0.281697,0.884455,0.623127,-0.928822,-0.65065,-0.245498,-0.686241,0.796928,-0.466847,-0.664666,-0.438802,0.703516,0.462912,-0.00576128,-0.779329,0.837616,0.796964,0.256707,-0.118817,-0.816106,0.739259,0.346443,0.368823,-0.620787,-0.0571196,-1.02326,0.518168,-0.385621,0.619799,0.961744,-0.154303,-0.836996,0.281558,-0.470014,0.72943,-0.622977,0.303532,0.0852057,0.628098,0.157348,0.373303,-0.112188,-0.329175,0.13152,0.000905468,-0.230376,0.912695,0.933386,-0.534746,-0.61708,-0.269881,-0.891168,0.967273,0.115602,0.739265,-0.169405,-0.423232,0.343663,0.116051,0.765623,-0.41087,-0.476325,-0.515629,-0.934219,-0.744384,-0.917778,-0.576377,-0.636035,-0.535272,-0.676249,0.131211,-0.657194,-0.0984613,-0.584674,-0.0853113,0.774346,0.602928,-0.935535,0.923042,-0.172976,0.891873,0.114803,-0.122924,0.495881,0.533092,0.323071,0.236213,0.876576,0.593099,-0.766635,0.601774,0.365123,-0.180741,-0.10179,-0.00709025,-0.0959505,0.477654,0.161314,-0.00260422,0.266732,0.18514,0.0820231,0.797507,0.513584,-0.309219,0.835443,0.429533,-0.540227,0.0559575,0.0521506,0.955445,0.266301,0.806143,0.324674,-0.655924,0.503342,-0.326089,-0.802772,0.541646,-0.363911,0.0201386,-0.362926,0.652065,-0.208109,0.237667,-0.844584,0.335807,-0.135713,0.447924,0.444111,0.563224,0.112535,-0.741217,-0.240736,-0.792412,0.350894,0.160144,-0.0401079,-0.624747,0.119497,-0.106239,-0.904056,0.639893,-0.551958,0.580457,0.526152,0.502881,0.042841,0.549952,-0.266469,0.687473,0.72301,-0.0414851,-0.302433,-0.490657,0.621145,0.144087,0.832456,-0.678855,-0.391103,-0.506056,0.573144,0.300618,0.812649,-0.908098,0.879475,0.608606,0.237023,0.342456,-0.94155,-0.542664,0.11784,0.751232,0.775404,-0.610355,-0.157204,0.255318,0.728975,-0.77842,-0.784595,-0.229978,-0.787337,0.470598,0.551512,-0.207058,-0.110981,-0.789595,-0.877625,0.217702,-0.199256,0.941191,-0.321913,-0.240053,0.292557,-0.728954,0.642233,0.141116,0.315856,0.954922,0.143274,0.486621,-0.630648,-0.946314,-0.600387,-0.601649,0.246729,0.737637,-0.331301,-0.076754,-0.0685807,-0.170862,-0.305522,0.91964,0.449339,0.325628,-0.254181,0.772055,-0.427146,-0.115273,0.57554,0.576123,-0.507943,-0.340944,-0.400186,0.929883,0.824421,0.59628,-0.737172,-0.480158,-0.0638761,0.504088,0.332496,0.56489,0.128775,-0.539456,-0.00583161,0.787903,0.588204,0.114529,-0.367612,-0.388613,0.586564,0.606405,-0.33749,-0.494581,0.321767,0.390411,0.902159,-0.748525,0.144265,0.538391,-0.432344,-0.622312,-0.306763,0.100308,-0.801514,0.24585,0.0172953,0.734808,-0.970992,-0.117727,0.666116,-0.421178,0.487223,-0.562534,0.873503,-0.853889,-0.619059,0.179118,-0.0134562,-0.813326,0.56736,-0.268361,0.861247,0.0952424,0.0702205,-0.865206,-0.504474,-0.68504,-0.0909912,-0.625324,0.945581,0.889977,0.227023,-0.856358,-1.03453,0.889873,-0.607071,0.687479,0.787347,-0.218275,-0.294713,0.069136,-0.195968,0.116764,0.53515,-0.9712,0.30544,0.00728744,-0.478231,-0.265022,0.74196,0.542264,0.899602,-0.706941,-0.599174,0.842576,-0.352367,-0.327212,0.424198,-0.40812,0.0726067,-0.575137,-0.757832,0.0692582,0.527117,0.729868,0.143929,-0.780257,-0.014132,-0.414639,-0.945197,0.582524,0.898006,-0.102952,-1.00618,0.0132744,-0.406623,0.573683,0.708858,0.350204,-0.386164,-0.184036,-0.548803,0.880042,0.168414,0.938755,-0.0642536,0.62716,-0.672901,-0.767338,0.413004,
-0.912728,-0.345121,-0.680623,0.189953,-0.495288,-0.740159,-0.724068,-0.0171827,-0.291504,0.511612,0.00216878,0.603245,-0.649484,0.439927,0.279283,0.131585,-0.674959,-0.537149,0.190963,0.638228,0.555656,-0.300817,-0.188815,0.92592,-0.0271633,-0.154472,0.796497,0.749491,-0.919017,0.80458,-0.788967,0.445187,0.815717,-0.682282,-0.518628,0.0391397,-0.219363,0.655084,-0.555308,-0.624555,0.0405972,-0.859298,-0.89933,0.763064,0.749372,0.49999,-0.507887,-0.745619,0.16568,-0.438483,0.742432,0.108158,-0.697964,0.657279,-0.964848,-0.608643,-0.0967223,-0.62752,0.724552,-0.412671,-0.0500548,-0.890809,-0.718674,0.640771,0.698925,-0.797967,0.815955,-0.0794174,0.139278,0.136123,-0.923661,0.167738,0.262497,0.0598907,-0.926003,0.601476,0.346539,0.35926,-0.922588,-0.690156,-0.0577354,0.348492,0.669009,-0.23525,0.21338,-0.329891,0.230084,-0.737697,0.953881,0.712175,0.388826,-0.920148,0.7475,-0.0382552,-0.745428,-0.322251,-0.891783,-0.627009,0.0928072,0.673337,0.450722,-0.824119,0.381925,-0.618643,-0.724107,0.733428,-0.180488,-0.354102,-0.570859,0.220245,-0.642295,-0.355801,0.627857,-0.939282,-0.847732,0.553362,0.531424,0.137505,-0.749313,-0.793403,0.10345,0.840788,0.0122392,0.262998,-0.124622,0.394549,-1.00666,0.500263,0.0447384,-0.131856,0.194999,0.791105,-0.375396,-0.401193,0.861749,0.350376,0.422112,0.387493,-0.390917,0.601309,-0.389535,-0.665158,-0.790066,-0.459831,0.266986,0.801772,-0.580577,-0.748435,-0.291993,-0.726711,0.345023,-0.191649,0.349482,-0.940106,0.129933,0.685728,-0.114237,0.910313,0.336514,-0.599704,0.213791,-0.932351,-0.381816,-0.259971,0.869278,0.543894,-0.418313,-0.319781,-0.133007,0.943021,-0.784281,0.0699989,0.93927,0.857218,0.909375,0.194489,0.786373,0.563769,-0.883938,-0.0989309,0.0115324,0.423473,0.876767,-0.771326,0.752174,0.0719119,-0.755476,-0.901326,0.257807,-0.693872,0.793395,0.754991,0.103516,-0.681196,0.272499,-0.922299,0.424557,-0.14502,-0.0426382,0.359859,-0.935903,-0.509944,0.939146,-0.811035,0.0703872,-0.532763,0.346314,-0.371064,0.620754,-0.840735,0.115573,0.439557,0.300292,-0.807758,0.19182,-0.135535,-0.267408,-0.502493,-0.630465,-0.426659,-0.27404,0.930744,0.416911,-0.298086,-0.985114,-0.848418,0.166679,-0.81093,0.85962,-0.0307025,0.463928,0.148208,-0.437532,0.774006,-0.611287,-0.658484,0.0286393,0.394082,-0.160729,-0.303169,-0.965674,0.176169,-0.936888,0.0823735,-0.0656137,-0.165562,-0.0847082,-0.364201,-0.192631,-0.222252,0.291479,0.242334,-0.309951,-0.543276,0.508645,-0.588124,0.0172151,-0.679782,-0.890863,-0.161865,-0.646981,-0.0014037,0.381729,-0.616945,0.195271,0.639212,-0.673298,-0.0803187,0.705251,-0.837002,-0.835368,-0.485094,-0.144454,0.673324,0.708779,-0.275048,0.519208,0.260249,0.916884,0.707158,-1.02091,-0.650052,0.928699,-0.318169,0.306045,0.301065,0.576493,0.144236,-0.760784,0.545649,0.217467,0.287575,0.0233281,0.892042,-0.555951,0.153403,0.767027,-0.44474,0.054549,0.586417,-0.123556,-0.277114,0.77543,0.0181317,0.0538676,0.282968,-0.453434,-0.701202,-0.732153,0.423686,-0.650571,-0.577551,0.370512,-0.476116,0.0101093,0.201793,0.407557,-0.00118519,0.633584,-0.344541,0.563079,0.901467,-0.947763,0.752815,0.965549,-0.530484,-0.527927,-0.852072,-0.620077,-0.249671,0.904195,0.880019,-0.202183,0.520392,-0.475151,0.64186,-0.62507,0.0282732,0.269382,-0.791937,-0.614936,-0.654398,0.891602,0.380995,-0.849249,-0.54342,-0.260763,-0.374098,0.955327,0.147956,0.88695,0.129653,-0.521829,-0.226822,-0.0618114,0.796136,-0.279541,-0.829269,0.316577,0.165554,-0.856576,0.248031,-0.662549,0.244795,0.537955,-0.903322,0.0716759,0.0280241,-0.412755,0.916825,0.526938,-0.453801,0.640583,0.24465,0.788525,-0.262241,-0.510939,-0.565931,0.887165,0.154854,-0.945525,0.657285,0.00793955,0.699646,0.824761,-0.625635,-0.0609317,-0.548262,-0.993559,0.85808,-0.194933,-0.46915,
-0.15826,0.0655932,0.216247,-0.700305,-0.192239,0.361562,0.333218,-0.169082,-0.388873,0.512732,0.64735,-0.527501,-0.265529,-0.713743,-0.391236,-0.493253,-0.332393,0.734864,-0.0433483,-0.451113,0.779327,0.953946,-0.625711,-0.439289,-1.01769,-0.576593,-0.811497,0.00757599,0.558374,0.0162116,0.0265035,0.423868,0.885249,0.871943,0.686298,0.44378,-0.769883,-0.745071,0.613307,0.378322,0.544268,0.885869,-0.681283,0.19786,-0.4617,-0.084046,0.85419,-0.0773301,-0.0686957,0.512308,-0.427786,0.830991,0.459773,0.132999,-0.903031,-0.957614,0.640256,0.247843,0.871946,-0.830908,-0.140223,-0.0467842,-0.69384,-0.712234,0.979421,-0.710215,-0.194386,0.352685,0.211959,-0.295949,0.18856,-0.498386,0.891214,-0.864233,-0.66956,0.0412182,0.0659435,-0.0564757,0.663245,-0.859102,-0.872895,-0.804798,0.319158,-0.164371,-0.708857,-0.145809,0.624401,0.684501,0.857786,0.266563,0.582223,-0.700651,0.828064,-0.831155,0.238481,-0.727467,0.810374,0.135705,0.136432,-0.0568321,0.146232,-0.742939,0.536784,-0.629962,-0.06897,0.727613,0.94104,-0.461532,0.254752,0.386302,-0.254373,-0.637033,0.465593,-0.443034,0.835743,-0.554981,0.0262107,0.884587,0.468228,0.462749,0.533209,0.856045,-0.352051,-0.160323,0.48147,0.00564774,0.481717,0.950644,0.77304,-0.905887,-0.194269,0.432571,0.971227,0.258786,-0.186259,0.970667,-0.767296,0.254571,0.243424,-0.581346,0.00343034,-0.525583,0.461365,0.218053,-0.495797,-0.540337,0.696431,-0.714853,0.914095,-0.312414,0.213961,0.952109,-0.255745,-0.816372,-0.126153,0.452623,-0.514123,0.862387,0.212172,0.12141,-0.334139,-0.754997,0.150079,-0.431576,0.443124,-0.902266,0.466299,0.880659,0.910412,-0.213595,-0.954726,-0.425726,-0.38635,-0.434584,-0.650908,-0.544255,0.275682,0.0335456,0.875367,-0.21867,0.726544,-0.395084,-0.809007,0.875489,-0.705865,0.300877,-0.641693,-0.285689,0.433884,-0.00262132,-0.0965931,0.117197,0.634428,0.946254,-0.173658,0.135163,-0.947339,-0.127035,-0.859352,0.550186,0.220059,-0.0750936,0.811158,-0.0279151,0.429509,-0.322564,-0.174518,0.671442,-0.383587,0.842615,0.392392,-0.906916,-0.468072,-0.608718,0.813311,0.686965,-0.475337,-0.82631,0.275245,0.239864,-0.00764048,-0.0182166,-0.00786192,-0.408295,-0.97684,0.272175,0.752011,0.973373,0.437372,0.287706,-0.412036,0.300706,-0.136764,0.391277,-0.845138,-0.62914,0.135904,0.57858,0.0203096,-0.105234,-0.47789,-0.794223,0.500238,0.91433,-0.17206,-0.0676391,-0.230675,-0.3406,-0.670105,0.491925,-0.792709,0.434471,0.433147,-0.90566,0.361947,-0.414642,0.103135,0.765009,-0.230009,0.385255,-0.977744,-0.910179,-0.963771,0.686429,-0.988313,0.350833,-0.439299,0.0187659,-0.928792,0.829058,-0.408264,0.518432,-0.765231,-0.0611537,0.399405,0.303317,0.683229,-0.793031,0.582446,-0.301487,0.906382,0.45449,0.0518666,-0.0662164,-0.845387,-0.737188,0.707212,0.896167,-0.524555,0.0152501,-0.888119,0.0305471,-0.0358274,0.797371,0.673585,-0.5063,0.973906,0.485818,-0.787909,0.0053237,-0.333766,-0.127538,-0.0230466,-0.944456,0.320886,0.679506,-0.940423,-0.405773,-0.583013,0.604319,-0.82582,-0.988023,-0.606933,0.664254,-0.457898,0.371739,-0.252276,0.200515,0.153686,0.698423,-1.01865,-0.79378,-0.687225,-0.391578,-0.566546,-0.905166,-0.346768,-0.416413,-0.112351,0.918961,0.0405063,-0.982998,-0.600681,-0.810586,0.154341,0.403861,-0.171561,-0.153058,-0.902159,0.326951,0.734855,0.558091,0.871278,-0.540322,-0.37732,-0.733678,-0.303679,0.716824,-0.173829,0.455129,-0.108488,-0.287321,-0.0974393,-0.864416,-0.748179,-0.329455,0.337209,0.273711,-0.240843,0.820434,-0.518301,0.665512,0.897864,0.393772,0.653652,0.915255,0.560037,-0.751935,-0.724026,0.640222,0.432483,0.549903,0.184249,0.355937,0.707835,-0.772665,-0.898714,-0.440795,-0.0104086,0.283145,0.204627,0.564848,-0.0653514,-0.212781,0.683743,-0.874445,-0.267832,-0.0173017,-0.980688,-0.945069,0.823366,-0.905548,
0.511333,0.140654,0.149325,-0.362973,-0.0104794,0.557443,0.103664,0.0647297,-0.856561,-0.760464,0.27605,-0.0943071,0.60826,-0.556041,0.378477,-0.421617,-0.612867,0.0887875,-0.316003,-0.180775,0.894118,0.424743,0.653238,-0.00738569,-0.427368,-0.639463,-0.893475,0.160001,0.946845,-0.333875,0.0880644,0.479841,-0.856348,-0.948403,0.0396199,-0.360343,-0.6711,-0.217357,0.924228,0.304123,-0.863788,-0.549726,-0.334234,0.439702,0.931258,0.60235,-0.899093,0.225596,-0.994676,0.206192,-0.339418,0.805591,-0.118697,-0.612296,0.422056,0.700127,-0.527119,-0.991446,0.680667,0.552775,-0.85001,0.907825,0.899505,-0.891318,-0.319664,-0.436652,0.402656,-0.538653,-0.0523614,0.172891,-0.676376,-0.725576,0.600629,0.191759,0.907082,-0.151684,-0.28803,0.7256,0.512838,0.0437343,-0.843551,0.173914,0.466388,0.23755,-1.00695,0.305438,-0.0580692,-0.339767,0.109114,0.750753,-0.55354,0.933058,0.904758,0.00501611,-0.503343,0.0334401,-0.272417,-0.22028,0.495567,-0.333617,0.530849,-0.32938,0.215601,-0.690337,0.878798,-0.19179,0.121839,-0.454333,0.530073,0.00427839,-0.700796,-0.222537,-0.490867,0.871356,-0.0829613,-0.469746,0.852165,-0.298617,0.949441,0.703487,-0.884974,0.257623,-0.119358,-0.719741,-0.277586,0.965051,0.804627,0.75448,0.31768,-0.701879,-0.706865,-0.169363,0.00672224,0.653418,-0.561898,0.272653,0.600905,0.221565,-0.178783,0.258793,-0.554197,-0.37135,-0.533705,0.545881,0.062868,0.922626,-0.128669,0.57215,-0.324695,-0.931399,-0.906125,0.166897,0.517514,-0.3759,-0.553432,-0.682246,0.837605,0.551811,-0.479738,0.921386,-0.228946,-0.334843,-0.975872,0.0446248,0.617808,0.819932,-0.662709,0.355573,0.829127,0.422788,0.260779,-0.744073,0.0706489,0.616195,-0.655007,0.588707,0.653615,-0.564334,0.33064,0.767695,0.91112,-0.469217,0.506855,-0.0914116,-0.79661,0.399507,-0.0845821,0.260155,0.531272,-0.977553,0.358314,0.331048,0.124703,0.22308,0.959757,-0.18928,-0.519323,0.115752,0.23959,0.0716609,0.861438,-0.448202,-0.836913,-0.265097,0.566372,0.0649032,-0.694917,-0.277536,-0.611603,-0.659355,0.719944,0.316029,-0.280687,-0.844826,-0.376545,0.79602,-1.01758,-0.666921,0.801781,-0.426964,-0.876015,0.085312,-0.0667036,0.512786,-0.64181,0.41152,-0.777291,0.307686,0.302216,-0.358979,0.276475,-0.694619,-0.757656,0.228852,0.198032,0.543367,0.233633,0.135406,-0.854162,0.278146,0.270634,-0.76358,-0.950281,0.219987,-0.9587,0.23213,-0.756711,0.157068,0.828797,-0.418839,-0.903738,0.72819,0.162691,0.466214,-0.13071,0.724615,0.824527,-0.777907,0.819099,0.324971,-0.707777,-0.962947,-0.648101,-0.436591,-0.887495,0.931697,0.952961,0.116622,-0.801148,-0.817399,-0.631453,-0.656399,0.339416,-0.737669,0.712919,-0.529236,0.158284,-0.870093,0.660551,-0.902471,-0.899048,0.653973,0.900995,-0.828381,0.505968,-0.860832,-0.784488,0.124192,0.689554,-0.0259328,0.317894,-0.78576,-1.00676,0.719152,-0.539741,0.568414,-0.551575,0.34303,0.388488,-0.904875,-0.76781,0.869621,-0.465365,0.842114,0.0641207,0.371196,-0.844286,-0.510558,0.138883,-0.79568,-0.101807,-0.322123,0.152723,0.708123,-0.177399,-0.65209,-0.644472,0.549182,-0.919135,0.901147,-0.319924,0.760134,-0.461183,0.537459,-0.438972,-0.380101,-0.512242,0.000111075,-0.462378,-1.01129,0.932925,0.00305575,0.800573,-0.271842,-0.007504,0.806207,0.743792,0.374106,-0.515065,-0.867495,-0.981235,0.758676,0.891035,0.371413,0.909656,0.944415,0.537042,0.814111,0.24017,-0.143696,0.645316,-0.544633,0.368279,0.487402,0.0325167,-0.146879,0.221584,0.456825,-0.703606,0.362594,0.715131,-0.782673,0.808625,0.819943,0.243327,-0.813798,-0.618775,0.377476,-0.337261,-0.0184588,-0.223665,-0.0527399,-0.322613,0.115592,-0.798834,0.297712,-0.351292,0.247269,-0.191266,0.602027,0.0500499,-0.504549,0.913376,0.0612546,0.945347,0.0775338,0.923719,0.594015,-0.818131,-0.506745,0.660794,0.834906,
-0.139947,-0.855493,-0.949726,-0.699133,0.719627,-0.0481347,0.603515,-0.383849,0.935531,-0.649354,-0.593177,0.205811,-0.273322,0.468912,-0.38928,0.946381,0.332037,0.576915,0.615909,-0.00139898,0.367004,-0.859263,0.932287,0.548899,-0.712939,0.933922,-0.797615,-0.197065,0.179391,-0.912879,-0.354992,0.558704,0.374712,-1.01923,0.0300573,0.347057,0.753971,0.52127,-0.867697,-0.7557,0.910926,-0.256587,-0.865655,0.117058,-0.419588,-0.753871,-0.888504,0.741462,0.394523,0.482308,0.250243,-0.646491,-0.507358,0.247499,-0.0125767,0.0845996,-0.840708,-0.418218,-0.275456,-0.10406,-0.785495,0.769097,0.811792,0.348168,-0.547285,0.659221,-0.0247257,-0.00688823,0.33288,-0.45213,0.361861,0.850757,0.0983204,-0.605759,-0.281616,0.846728,0.428422,0.0186166,0.550572,-0.336838,0.700083,0.699428,0.326645,0.862157,-0.353278,0.365956,0.292496,-0.987162,-0.757779,-0.378665,-0.692581,0.405553,-0.884482,-0.975245,-0.847875,-0.0819602,-0.0945894,-0.832549,0.948112,0.264701,0.499484,-0.795123,0.970202,0.221447,0.976944,0.219313,0.412457,0.606524,-0.622031,0.0362112,0.0701358,-0.144725,0.520754,-0.234864,0.0425247,-0.71154,0.379269,0.964951,-0.992842,0.660819,-0.710629,0.339003,-0.827495,-0.1523,-0.916337,-0.479872,-0.900404,0.0307536,-0.735914,0.526019,0.84864,0.119834,0.550464,-0.356985,0.947826,-0.267431,0.0543381,-0.00684424,-0.411253,0.866096,0.361804,0.890627,-0.577991,0.345511,-0.384641,-0.706236,0.75338,0.418779,0.531667,-0.183859,0.708047,0.901945,0.29862,-0.534746,-0.599941,-0.113368,0.25667,0.484872,0.151729,0.163311,-0.403765,0.319316,-0.650465,0.787983,-0.364587,0.120908,-0.0106286,0.379183,-0.150736,0.643097,-0.859647,0.702038,-0.777945,0.714682,0.320754,-0.652514,0.17197,-0.0836349,0.0141358,-0.0141,-0.730448,0.74994,0.0196291,0.0449064,-0.378712,0.265295,-0.911751,-0.357307,-0.135066,-0.980247,-0.2608,0.785907,-0.772274,0.277968,-0.889808,-0.922154,0.57117,0.963409,0.61403,0.0148974,0.0484463,0.520523,-0.856146,-0.364902,0.321706,0.411269,-0.992622,0.235845,0.707216,0.947291,0.479228,-0.944173,0.229559,-0.864258,-0.696482,0.648588,-0.315455,0.714772,-0.58057,-0.173538,0.858937,-0.872893,0.967596,0.673366,0.340448,-0.141177,-0.362148,0.962378,-0.663389,-0.182784,-0.474037,0.314574,0.0481955,0.620112,0.524309,0.935122,0.374167,-0.145988,-0.415354,0.374324,0.926615,0.442167,0.114042,0.690376,0.436537,-1.02165,0.0376026,0.135464,-0.917153,-0.971672,0.0812373,-0.332612,0.0621581,-0.421422,-0.18709,0.713432,0.672627,0.639307,0.966949,-0.396807,-0.212843,0.475269,0.185049,-0.877813,-1.0197,-0.270654,-0.762179,0.623004,0.434125,-0.610273,0.361965,0.577465,-0.321299,0.66263,-0.225813,0.801663,-0.930982,0.219132,-0.967675,0.616362,-0.266336,0.210966,0.303624,0.691201,-0.701759,0.185274,-0.0939173,-0.978381,-0.603969,0.155899,0.0537131,-0.053038,-0.566101,-0.45791,0.360287,-0.0543575,0.390187,0.349528,0.0649594,0.113616,-0.730241,0.522305,-0.705873,-0.929373,-0.516734,0.00802812,0.527886,-0.161313,0.19549,0.509512,-0.546259,-0.576299,0.920117,-0.71626,0.0506692,0.203803,0.460517,-0.416676,0.118505,-0.539104,0.405967,-0.244926,-0.388846,0.818217,0.675045,-0.702256,-0.393501,-0.0397641,-0.234333,-0.680456,-0.300258,0.0371878,0.736983,0.359196,-0.79618,-0.316048,0.838078,-0.131658,0.299786,-0.0141794,-0.238821,-0.861212,0.717025,0.512864,-0.40718,0.872398,0.713351,-0.389007,0.764867,0.810711,0.0612577,0.573619,0.775604,0.781117,-0.974234,-0.723193,0.46649,-0.0484076,0.224565,-0.915383,0.499665,-0.710105,-0.29221,0.420694,0.860341,-0.350467,0.901407,0.481189,0.0377864,0.727142,-0.205594,0.762163,-0.0917907,0.488441,-0.978793,0.328904,-0.621204,-0.460918,-0.233662,0.931963,0.300273,0.501745,-0.37074,0.046983,0.747836,-0.483431,0.780609,-0.890398,0.118596,-0.270819,-0.199507,-0.891979,
